svm_type c_svc
kernel_type rbf
gamma 0.125
nr_class 3
total_sv 564
rho 2.05232 1.74562 2.41612
label 0 2 1
nr_sv 174 222 168
SV
32 0 1:0.345342 2:-0.546926 3:-0.965843 4:0.0184942 
32 0 1:0.771775 2:-0.390241 3:0.48517 4:0.0427 
32 32 1:0.148278 2:-0.609991 3:-0.255703 4:-0.00376939 
32 0 1:0.189902 2:-0.302398 3:-0.984892 4:-1 
32 32 1:0.53526 2:0.0779818 3:-0.291281 4:-0.431145 
32 0 1:0.707183 2:-0.37235 3:-0.879426 4:0.438803 
13.79984386326151 0 1:-0.00657929 2:-0.517851 3:-1 4:-1 
32 0 1:0.880867 2:-0.205381 3:0.954813 4:-1 
32 32 1:0.214798 2:-0.0989716 3:-0.634287 4:-1 
32 0 1:0.190286 2:-0.325199 3:-0.999982 4:-1 
0 32 1:0.919386 2:0.632565 3:-0.999974 4:-1 
0 21.55235031701266 1:0.483312 2:-0.993004 3:-0.97434 4:-1 
32 0 1:0.427038 2:-0.563003 3:-0.98866 4:0.133861 
32 32 1:-0.173232 2:-0.323963 3:-0.999972 4:-1 
32 32 1:0.082045 2:-0.369767 3:0.699165 4:-0.367044 
32 0 1:0.448956 2:-0.381044 3:-0.584048 4:-0.333956 
32 32 1:0.574733 2:0.327386 3:-0.986686 4:-0.338223 
32 32 1:0.415784 2:0.230016 3:-0.999962 4:-1 
13.35206318822794 0 1:0.992882 2:-0.264789 3:0.774045 4:-1 
32 32 1:0.20741 2:-0.106192 3:-0.975212 4:-1 
32 0 1:0.372539 2:-0.564993 3:-0.97141 4:0.0226155 
32 32 1:-0.0714065 2:-0.0417678 3:-0.979596 4:-1 
32 0 1:0.520886 2:-0.762173 3:0.821899 4:0.392632 
32 32 1:0.336289 2:-0.00227028 3:-0.807289 4:-1 
32 0 1:0.912188 2:-0.447976 3:0.743624 4:0.282871 
32 32 1:0.187398 2:0.170788 3:-0.985566 4:-1 
0 32 1:0.985912 2:0.331202 3:0.0719101 4:-1 
32 32 1:0.652665 2:0.28088 3:0.0267454 4:-1 
32 32 1:0.200158 2:-0.200759 3:-0.383279 4:-1 
0 32 1:0.788899 2:0.385195 3:-0.872416 4:-1 
32 0 1:0.744658 2:-0.207127 3:0.687479 4:-1 
32 0 1:0.698298 2:-0.171785 3:-0.907607 4:0.234608 
32 32 1:0.75909 2:0.0902363 3:0.431639 4:-1 
32 0 1:0.145293 2:-0.588799 3:0.129597 4:-1 
32 0 1:0.279304 2:-0.616507 3:-0.999992 4:-0.370564 
32 0 1:0.584177 2:-0.237233 3:-0.980794 4:0.499021 
32 0 1:0.413884 2:-0.664159 3:-0.988478 4:0.204516 
32 32 1:0.36926 2:-0.00358302 3:-1 4:-1 
32 32 1:0.708597 2:-0.0264204 3:0.639009 4:-1 
32 0 1:0.589551 2:-0.706579 3:0.783407 4:-1 
32 0 1:0.621249 2:-0.720633 3:0.87917 4:-1 
32 32 1:0.64457 2:0.146968 3:-0.253971 4:-0.161858 
0 32 1:0.666022 2:0.370305 3:-0.999982 4:-1 
32 32 1:0.620262 2:0.134984 3:-0.506867 4:-0.183634 
25.36516097098308 32 1:0.54405 2:0.204276 3:-0.987674 4:-1 
32 0 1:0.655157 2:-0.17606 3:-0.824175 4:0.364963 
32 0 1:0.485471 2:-0.495978 3:0.241077 4:-1 
32 0 1:0.721088 2:-0.358234 3:0.832383 4:-0.403441 
32 32 1:0.393733 2:-0.112396 3:-0.843334 4:-1 
0 32 1:0.840431 2:0.453324 3:-0.897834 4:-1 
32 0 1:0.462575 2:-0.406613 3:0.671293 4:-1 
32 0 1:0.222824 2:-0.317625 3:-1 4:-1 
32 32 1:0.869521 2:0.107802 3:0.98333 4:-0.0227575 
0 32 1:0.818715 2:0.106141 3:0.151609 4:-1 
32 32 1:0.0630117 2:0.318341 3:-0.615484 4:-1 
32 32 1:0.495047 2:-0.129303 3:-0.864864 4:0.154338 
32 0 1:0.693428 2:-0.182745 3:0.384519 4:-1 
32 32 1:0.632796 2:-0.0311914 3:0.261947 4:0.194019 
32 32 1:0.489214 2:-0.0310326 3:-1 4:-0.230472 
32 32 1:0.631534 2:0.167306 3:-0.999998 4:-0.290879 
0 32 1:0.758768 2:0.312941 3:-0.914575 4:-1 
32 32 1:0.262322 2:-0.640553 3:-0.728348 4:0.322859 
32 0 1:0.849787 2:-0.199915 3:-0.122703 4:0.279727 
32 32 1:0.388219 2:0.0381144 3:-0.99449 4:-1 
0 32 1:0.797225 2:0.20829 3:-0.668145 4:-0.441625 
32 0 1:0.582459 2:-0.120051 3:-0.977712 4:-0.434911 
32 0 1:0.581564 2:-0.178436 3:-0.902091 4:-0.310217 
32 32 1:0.644388 2:-0.249618 3:0.241383 4:-0.0403189 
32 32 1:0.413763 2:-0.221209 3:-0.945673 4:0.19542 
32 0 1:0.722655 2:-0.133332 3:-0.97522 4:0.116391 
32 32 1:0.516015 2:-0.0465796 3:0.658075 4:-0.392589 
32 32 1:-0.206064 2:-0.121864 3:0.542157 4:-1 
32 0 1:0.641472 2:-0.313266 3:-0.867422 4:0.044758 
32 0 1:0.0559086 2:-0.65129 3:-0.974376 4:-0.398659 
32 0 1:0.517871 2:-0.537982 3:0.174794 4:-0.475452 
32 4.524657521949592 1:0.0076122 2:-0.581785 3:0.505305 4:-1 
32 32 1:0.280554 2:-0.130189 3:-0.48114 4:-1 
0 32 1:0.90423 2:0.290197 3:-0.59094 4:-0.472099 
16.61016060684082 32 1:0.542202 2:0.0853794 3:-0.375695 4:-1 
0 1.822755893474159 1:0.38305 2:-0.981122 3:-0.706986 4:-1 
0 32 1:0.768292 2:0.181817 3:-0.388717 4:-1 
32 0 1:0.101735 2:-0.412211 3:-0.972654 4:-1 
32 0 1:0.657729 2:0.0702023 3:-0.983336 4:-0.372349 
32 16.1633581785827 1:0.537411 2:-0.496497 3:0.0778162 4:0.318251 
32 32 1:0.525202 2:-0.0591304 3:-0.986338 4:0.0259839 
32 0 1:0.45119 2:-0.559557 3:-0.933477 4:0.064246 
32 32 1:0.477906 2:-0.0944589 3:-0.342372 4:0.216047 
32 0 1:0.873897 2:-0.572448 3:0.832621 4:-1 
32 32 1:0.304738 2:-0.239427 3:-0.608278 4:-1 
32 0 1:0.632707 2:-0.320466 3:-0.831373 4:0.0902072 
32 0 1:0.523963 2:-0.361843 3:0.561187 4:-1 
32 30.09667362366904 1:0.532206 2:-0.239576 3:0.506061 4:-1 
32 32 1:0.38742 2:0.290249 3:-0.967934 4:-1 
32 32 1:0.0807323 2:-0.637687 3:-0.965965 4:0.229831 
32 32 1:0.152208 2:-0.382234 3:-0.645271 4:-1 
3.133780577265516 32 1:0.357121 2:-0.309349 3:-0.304516 4:-1 
32 0 1:0.38876 2:-0.601267 3:0.773347 4:-1 
32 32 1:0.534112 2:-0.0649162 3:-0.991928 4:-0.266992 
0 4.596293547603304 1:0.958367 2:0.281695 3:-0.0220053 4:-1 
32 32 1:0.172968 2:-0.396465 3:-0.989518 4:-0.272626 
32 0 1:0.669792 2:-0.467235 3:1.50002e-005 4:0.114827 
32 32 1:0.782983 2:0.144695 3:-0.527623 4:0.179864 
32 0 1:0.958952 2:-0.519986 3:0.867452 4:0.21222 
0 32 1:0.882454 2:0.185642 3:-0.291377 4:-0.270036 
32 0 1:0.532936 2:-0.546696 3:-0.0146872 4:0.130593 
32 32 1:0.510727 2:0.16537 3:-0.520803 4:-1 
32 32 1:0.52395 2:0.170732 3:-0.647851 4:-1 
32 32 1:0.324059 2:0.0983271 3:0.230846 4:-1 
32 32 1:0.30552 2:0.0990003 3:-0.609876 4:-1 
0 32 1:0.821704 2:0.453254 3:-0.797415 4:-1 
32 0 1:0.423669 2:-0.311296 3:-0.991434 4:-0.443356 
0 32 1:0.518852 2:0.0704609 3:-0.97711 4:-1 
30.45349653053091 0 1:0.946589 2:0.26902 3:-0.999984 4:0.432069 
32 32 1:0.547975 2:0.256233 3:-0.987436 4:-1 
32 32 1:0.267773 2:-0.0814228 3:-0.939849 4:-1 
0 32 1:0.992426 2:-0.982421 3:-0.965887 4:-1 
32 0 1:0.674957 2:-0.470496 3:0.625298 4:-1 
32 32 1:0.311448 2:0.183088 3:-0.953207 4:-1 
32 0 1:0.375061 2:-0.153477 3:-0.973864 4:-1 
32 0 1:0.656143 2:-0.621757 3:0.559209 4:-1 
32 0 1:0.500066 2:-0.350587 3:0.499118 4:-1 
32 32 1:0.27198 2:0.173964 3:-0.979714 4:-1 
32 0 1:0.31262 2:-0.5249 3:-0.977872 4:-0.47786 
32 32 1:0.0554698 2:-0.23391 3:-0.976394 4:-1 
32 32 1:0.331819 2:0.466251 3:-0.999984 4:-1 
19.59980906118103 0 1:0.981824 2:-0.912777 3:-1 4:-1 
32 0 1:0.718007 2:-0.183054 3:-0.862006 4:0.26817 
32 0 1:0.353264 2:-0.207219 3:-0.9913 4:-1 
32 0 1:0.615811 2:-0.298708 3:-0.940805 4:-0.0520093 
0 29.32245963593463 1:0.755278 2:0.111965 3:-0.379593 4:-1 
32 32 1:0.665911 2:0.196531 3:-0.900041 4:-0.467427 
32 32 1:0.260357 2:0.248339 3:-0.994722 4:0.259114 
32 32 1:0.741137 2:0.703 3:-0.999996 4:-0.434282 
0 32 1:0.584075 2:0.390468 3:-0.988862 4:-1 
32 32 1:0.17947 2:-0.0966097 3:-0.985044 4:-1 
32 32 1:0.276103 2:0.163027 3:0.995218 4:-0.442893 
32 32 1:0.417669 2:0.167605 3:-0.98591 4:-1 
32 32 1:0.169003 2:0.104708 3:-0.990046 4:-1 
32 0 1:0.831814 2:-0.515841 3:0.951327 4:-0.288125 
32 17.47528704514989 1:0.560681 2:-0.321479 3:0.798453 4:0.175261 
32 0 1:0.596229 2:-0.209878 3:-0.988706 4:0.0839438 
32 32 1:0.427457 2:0.00415181 3:-0.999998 4:-1 
32 0 1:0.517331 2:-0.414844 3:-0.823691 4:0.279688 
32 32 1:0.00521655 2:-0.436911 3:-0.962435 4:-1 
32 0 1:0.23607 2:-0.646612 3:-0.928873 4:0.322757 
0 32 1:0.367501 2:-0.243407 3:-0.564751 4:-1 
0 32 1:0.629203 2:0.255714 3:-0.999986 4:-1 
32 32 1:0.547195 2:-0.192619 3:0.844902 4:-1 
32 0 1:0.800183 2:-0.347377 3:-0.0453277 4:0.324929 
0 32 1:0.709978 2:0.365 3:-0.5908 4:-1 
32 32 1:0.550148 2:-0.155232 3:-0.73381 4:-0.0348904 
32 32 1:0.432576 2:0.221817 3:-0.951563 4:-1 
32 0 1:0.887544 2:-0.249002 3:0.789565 4:0.556233 
32 0 1:0.438883 2:-0.618961 3:-0.930489 4:0.1498 
32 0 1:0.194845 2:-0.602401 3:-0.877118 4:-0.452915 
32 32 1:0.885694 2:0.374771 3:-0.0114592 4:0.122492 
32 0 1:0.257522 2:-0.313439 3:-0.906173 4:-1 
32 0 1:0.531057 2:-0.3503 3:-0.87165 4:0.608012 
32 0 1:0.892939 2:-0.159249 3:0.775601 4:-1 
32 0 1:0.58024 2:-0.555025 3:-0.999986 4:0.254549 
32 0 1:0.44256 2:-0.723673 3:-0.645371 4:0.588717 
32 26.47632729845435 1:0.579603 2:-0.139268 3:-0.982772 4:0.315886 
15.039142806602 0 1:0.746765 2:-0.425272 3:-0.950977 4:0.404163 
32 32 1:0.227355 2:-0.582005 3:0.221466 4:-0.0860974 
32 0 1:0.203798 2:-0.281144 3:-0.98367 4:-1 
32 32 1:0.83799 2:0.27309 3:-0.914821 4:0.139188 
32 32 1:0.166015 2:-0.182526 3:-0.562415 4:-1 
32 32 1:0.386425 2:-0.100231 3:-0.170782 4:-1 
0 32 1:0.815501 2:0.473647 3:0.0485877 4:-1 
32 0 1:0.730334 2:-0.347477 3:-0.999992 4:0.347037 
32 32 1:0.283366 2:-0.160276 3:-0.144693 4:-1 
32 0 1:0.580749 2:-0.489984 3:-0.982208 4:0.226354 
0 32 1:0.885449 2:0.558529 3:-0.98235 4:-1 
32 32 1:0.69867 2:0.111894 3:-0.811445 4:0.315817 
-0 32 1:0.635917 2:0.848341 3:0.910063 4:0.218135 
-32 0 1:0.563765 2:-0.490488 3:-0.766112 4:0.614295 
-32 0 1:0.695805 2:-0.318391 3:0.986166 4:-1 
-32 4.915574425484826 1:0.527195 2:-0.477955 3:-0.964591 4:-1 
-0 32 1:0.321401 2:0.524318 3:0.9989 4:0.197865 
-32 32 1:0.160256 2:0.358421 3:-0.919667 4:-1 
-32 0 1:0.664056 2:-0.327037 3:-0.814185 4:0.333175 
-0 32 1:0.484907 2:0.45933 3:0.886268 4:-1 
-32 0 1:0.781173 2:-0.424898 3:0.9998 4:-0.189911 
-0 32 1:-0.112564 2:0.360979 3:1 4:-0.260125 
-32 32 1:0.112045 2:-0.357767 3:-0.832677 4:-1 
-0 28.91957255299398 1:0.201277 2:0.277738 3:0.946797 4:-1 
-0 32 1:0.0865599 2:0.92626 3:-0.899296 4:0.400796 
-0 32 1:-0.331867 2:0.533403 3:0.98974 4:-1 
-0 32 1:0.399264 2:0.819822 3:-0.0178833 4:0.0297833 
-0 32 1:-0.00830819 2:0.481004 3:-0.229316 4:-0.438903 
-0 32 1:-0.373116 2:0.805318 3:-0.8487 4:-1 
-32 0 1:0.649983 2:-0.546925 3:0.972702 4:-1 
-32 32 1:0.780519 2:-0.257877 3:-0.773635 4:-1 
-32 0 1:0.857269 2:0.018594 3:0.99983 4:-1 
-0 32 1:0.576752 2:0.770031 3:0.962005 4:-1 
-32 0 1:0.69615 2:-0.699022 3:0.886428 4:-0.464486 
-0 32 1:0.0701227 2:0.143107 3:-0.980684 4:0.0277602 
-0 32 1:0.470441 2:0.773741 3:0.996034 4:0.824423 
-0 32 1:-0.435815 2:0.704543 3:0.97016 4:-1 
-32 0 1:-0.219552 2:-0.416896 3:0.383993 4:-1 
-0.6842763418354334 0 1:0.581744 2:-0.447334 3:0.980566 4:-0.0951797 
-0 32 1:0.465419 2:0.454475 3:0.88642 4:-1 
-0 32 1:0.389627 2:0.431359 3:0.878032 4:-1 
-19.50711325071396 0 1:0.339276 2:-0.458782 3:-0.834266 4:0.483162 
-0 32 1:-0.119162 2:0.396305 3:0.887526 4:-0.461153 
-0 32 1:0.250329 2:0.523269 3:0.999518 4:-0.0778745 
-0 32 1:0.265281 2:0.496546 3:0.923967 4:0.655003 
-32 0 1:0.184682 2:-0.466256 3:0.716872 4:-1 
-0 32 1:0.514203 2:0.762075 3:0.996844 4:-1 
-32 0 1:0.467721 2:-0.359977 3:-0.537787 4:0.191523 
-0 32 1:0.458283 2:0.446532 3:0.998368 4:0.66609 
-0 32 1:0.381062 2:0.527791 3:0.886304 4:-1 
-32 0 1:0.188538 2:-0.410029 3:-0.990768 4:-0.394728 
-0 32 1:0.0603158 2:0.44154 3:0.70628 4:0.793286 
-32 0 1:0.380128 2:-0.48707 3:-0.619626 4:0.295957 
-0 32 1:0.396923 2:0.390089 3:0.947337 4:-1 
-32 32 1:0.475129 2:0.0264335 3:0.543981 4:-0.394785 
-0 32 1:0.651479 2:0.565416 3:0.999738 4:0.792955 
-0 32 1:0.164553 2:-0.034204 3:-0.295611 4:-0.419977 
-0 32 1:0.439025 2:0.60741 3:0.99807 4:-0.0838384 
-0 32 1:0.665432 2:0.359114 3:0.977208 4:-0.453139 
-32 32 1:0.7448 2:0.261143 3:-0.946049 4:-1 
-32 0 1:0.436466 2:-0.291109 3:0.85057 4:-1 
-32 32 1:0.356761 2:-0.32844 3:-0.491828 4:-1 
-32 0 1:0.777227 2:-0.216001 3:-0.99998 4:0.295934 
-24.93808050361231 0 1:0.264047 2:-0.200955 3:-0.953451 4:0.118371 
-32 0 1:0.295356 2:-0.380063 3:-0.98827 4:-0.20381 
-32 32 1:0.6218 2:-0.256951 3:-0.746686 4:-0.37451 
-32 32 1:0.498518 2:0.113471 3:-0.809223 4:-0.181124 
-0 32 1:0.378095 2:0.355685 3:0.947497 4:0.306079 
-0 32 1:0.405887 2:0.813289 3:-0.138729 4:0.28206 
-0 32 1:0.429224 2:0.408201 3:-0.457816 4:-0.0908146 
-32 0 1:0.609862 2:-0.473617 3:0.997118 4:0.00491113 
-32 0 1:-0.0218738 2:-0.267901 3:-0.988408 4:-0.352942 
-32 32 1:0.344156 2:-0.0334334 3:-0.71713 4:-0.232731 
-32 32 1:0.142818 2:-0.171268 3:-0.916123 4:-1 
-32 32 1:-0.305405 2:-0.296207 3:-0.989224 4:-1 
-32 32 1:0.60682 2:-0.278602 3:-0.886102 4:-1 
-32 0 1:0.626167 2:-0.617471 3:0.273907 4:0.269245 
-0 32 1:0.293321 2:0.570996 3:-0.902711 4:0.0323136 
-0 32 1:0.12777 2:0.325883 3:-0.999964 4:-0.466212 
-32 30.73846526388894 1:-0.14747 2:-0.495587 3:-0.999996 4:-1 
-32 32 1:0.431537 2:0.332094 3:-0.999984 4:-0.402983 
-32 32 1:0.752528 2:0.879209 3:-0.651543 4:-0.0902897 
-32 32 1:0.0132394 2:0.0483985 3:-0.999994 4:-1 
-0 32 1:0.313721 2:0.649587 3:0.980566 4:0.14371 
-0 32 1:0.126793 2:0.810846 3:0.898816 4:-0.0901462 
-32 32 1:0.351359 2:-0.120997 3:-0.677885 4:-1 
-0 32 1:0.385818 2:0.411664 3:-0.969768 4:0.225291 
-0 32 1:0.480073 2:0.810697 3:0.992262 4:0.361399 
-32 32 1:0.494002 2:0.0782428 3:1.50002e-005 4:-1 
-0 32 1:0.311029 2:0.510846 3:-0.717566 4:0.52589 
-32 0 1:0.285914 2:-0.528589 3:-0.0745681 4:0.205087 
-32 0 1:0.843865 2:-0.523782 3:-0.976142 4:0.0980027 
-0 32 1:-0.0698124 2:0.243953 3:0.712732 4:-0.456199 
-32 0 1:0.364083 2:-0.315674 3:-0.98847 4:0.157383 
-32 32 1:0.436741 2:0.101481 3:-0.810987 4:-1 
-0 32 1:0.644014 2:0.328172 3:0.994412 4:-0.23827 
-24.08175781392588 0 1:0.761562 2:0.2372 3:0.980788 4:0.218531 
-32 32 1:0.74998 2:-0.346141 3:-0.473138 4:-0.392366 
-0 32 1:0.354344 2:0.520015 3:-0.690755 4:0.131831 
-32 0 1:0.349661 2:-0.304547 3:-1 4:-0.0327316 
-32 32 1:0.376108 2:0.209237 3:-0.971622 4:-0.433835 
-32 32 1:0.830009 2:0.0646199 3:0.105965 4:0.11155 
-32 32 1:0.775422 2:-0.260054 3:-0.127189 4:0.142958 
-0 32 1:-0.0152029 2:0.247178 3:0.389867 4:-0.380812 
-32 32 1:0.301532 2:-0.587919 3:-0.367971 4:-1 
-32 32 1:0.433098 2:0.0798535 3:-0.622446 4:-0.388144 
-32 0 1:0.63657 2:-0.446243 3:0.6271 4:-0.0197925 
-32 32 1:0.681514 2:-0.588479 3:0.285963 4:-0.162946 
-32 32 1:0.165137 2:-0.139443 3:-0.927829 4:-1 
-32 0 1:0.302122 2:-0.307063 3:0.613458 4:-1 
-32 32 1:0.586639 2:0.0477978 3:-1 4:-1 
-32 32 1:0.780308 2:0.153209 3:-0.971786 4:-1 
-32 0 1:0.639567 2:-0.237924 3:-0.999982 4:0.688609 
-32 32 1:0.0791224 2:-0.0391787 3:-0.999974 4:-1 
-0 32 1:0.395172 2:0.651669 3:0.89782 4:0.275819 
-32 32 1:0.585751 2:0.0490136 3:0.552147 4:-1 
-32 32 1:0.416344 2:-0.156634 3:-0.558109 4:-1 
-0 32 1:-0.117723 2:0.159033 3:-0.422451 4:0.2381 
-0 32 1:0.352896 2:0.359866 3:-0.967522 4:0.170232 
-32 32 1:0.217045 2:-0.19668 3:-0.46668 4:-1 
-0 32 1:0.195765 2:0.337883 3:-0.889672 4:0.582583 
-32 32 1:0.428075 2:0.533626 3:-0.891224 4:-1 
-32 32 1:0.248879 2:-0.343316 3:-0.999994 4:-1 
-32 32 1:0.365628 2:0.149899 3:-0.962971 4:-0.475025 
-0 32 1:0.449838 2:0.628445 3:-0.999968 4:0.393738 
-32 32 1:0.399558 2:-0.312683 3:-0.960771 4:-1 
-32 32 1:0.263704 2:-0.170224 3:-0.990004 4:-1 
-0 32 1:0.00311481 2:0.349118 3:-0.729886 4:-0.0561531 
-32 0 1:0.598341 2:-0.386028 3:-0.9674 4:0.76503 
-32 0 1:0.491938 2:-0.474773 3:-0.989822 4:-1 
-0 32 1:0.350376 2:0.331597 3:-0.99998 4:0.129211 
-32 32 1:0.305888 2:0.323528 3:-0.950721 4:-1 
-32 0 1:0.456762 2:-0.0145653 3:-0.984674 4:-0.085132 
-0 23.64299665648345 1:0.612559 2:0.342008 3:-0.912327 4:0.860025 
-32 32 1:0.333489 2:0.164139 3:-0.905253 4:-0.424038 
-0 32 1:0.454529 2:0.590399 3:0.996812 4:-0.404196 
-32 0 1:0.314541 2:-0.330017 3:-0.967128 4:0.22953 
-32 32 1:-0.0268484 2:-0.16999 3:-0.63235 4:-1 
-18.16579911800812 32 1:0.549991 2:0.194745 3:0.435384 4:-0.123895 
-32 27.93973665087361 1:0.836825 2:-0.69114 3:-0.650989 4:0.588784 
-0 32 1:-0.0767443 2:0.67524 3:-0.636017 4:0.0546226 
-32 32 1:0.231263 2:0.123735 3:-0.988834 4:-0.474994 
-32 0 1:0.482194 2:-0.717146 3:-0.831583 4:0.128151 
-32 32 1:0.449257 2:0.129669 3:-0.510605 4:-0.405914 
-32 0 1:0.554925 2:-0.49679 3:0.899254 4:-1 
-32 0 1:0.77712 2:-0.599157 3:0.910327 4:0.150932 
-32 0 1:0.494818 2:-0.328946 3:-0.966768 4:0.393221 
-32 32 1:0.63549 2:-0.146212 3:-0.679535 4:-0.207427 
-32 32 1:0.332718 2:0.294185 3:-0.912847 4:-0.35787 
-32 0 1:0.332941 2:-0.329816 3:0.804631 4:-1 
-32 32 1:0.677779 2:-0.344059 3:-0.809473 4:-1 
-32 32 1:0.503057 2:0.393417 3:0.514297 4:-1 
-32 32 1:0.702659 2:-0.225273 3:-0.637545 4:-0.184114 
-32 0 1:0.506424 2:-0.359608 3:-0.967864 4:-0.133474 
-32 0 1:0.841496 2:-0.277119 3:0.910909 4:-1 
-32 0 1:0.825142 2:-0.262149 3:0.603722 4:0.440542 
-32 32 1:0.49136 2:0.041093 3:0.427083 4:-0.263457 
-5.476367538116822 0 1:0.311821 2:-0.504882 3:0.848008 4:-1 
-32 0 1:0.150064 2:-0.456601 3:-0.853266 4:-0.00388575 
-32 32 1:0.48575 2:-0.341123 3:0.416655 4:-1 
-32 0 1:0.623687 2:-0.3477 3:0.673747 4:-1 
-32 32 1:0.827988 2:0.0810132 3:-0.928311 4:-1 
-32 32 1:0.318183 2:-0.0763728 3:-0.972584 4:-1 
-32 0 1:0.408294 2:-0.377966 3:-0.972554 4:0.107097 
-32 0 1:0.480681 2:-0.407689 3:-0.0135972 4:0.130203 
-0 32 1:0.733425 2:0.3231 3:0.985006 4:-0.126835 
-0 32 1:0.504038 2:0.883652 3:0.99501 4:0.791403 
-32 0 1:0.449791 2:-0.216826 3:-0.694309 4:0.273973 
-0 32 1:0.492468 2:0.769008 3:0.217784 4:0.582216 
-32 0 1:0.107627 2:-0.0660665 3:-0.974106 4:-0.423018 
-32 0 1:0.656654 2:-0.363383 3:0.801183 4:-1 
-32 32 1:0.252631 2:-0.225699 3:-0.933145 4:-1 
-32 32 1:0.911908 2:-0.382617 3:-0.451194 4:0.0126717 
-32 0 1:0.69787 2:-0.241196 3:-0.983426 4:-0.00937063 
-32 32 1:0.413225 2:0.198561 3:-0.107193 4:-0.370157 
-32 32 1:0.373343 2:0.65455 3:-0.742706 4:-1 
-32 32 1:0.480307 2:0.228547 3:-0.424883 4:-1 
-32 32 1:0.30945 2:-0.388639 3:-0.911981 4:-1 
-0 32 1:0.339619 2:0.462228 3:-0.991462 4:0.748241 
-32 0 1:0.535816 2:-0.0666353 3:-0.993666 4:-0.333367 
-32 32 1:0.569461 2:-0.146758 3:0.423849 4:-1 
-32 32 1:0.431647 2:0.029113 3:0.577734 4:-1 
-32 32 1:0.435316 2:-0.218191 3:-0.214942 4:-1 
-32 0 1:0.490262 2:-0.254581 3:-0.36161 4:0.00798571 
-0 32 1:0.548865 2:0.376997 3:0.532249 4:0.346299 
-32 0 1:0.798079 2:-0.329693 3:0.707264 4:-0.0475717 
-32 32 1:0.467628 2:-0.318205 3:-0.999996 4:-1 
-32 32 1:0.61757 2:0.152151 3:0.0222093 4:-0.359302 
-32 32 1:0.520378 2:-0.406845 3:-0.979084 4:-1 
-32 32 1:0.230879 2:0.192646 3:-0.994714 4:-0.376643 
-32 32 1:0.473953 2:0.197732 3:-0.893042 4:0.120516 
-32 32 1:0.794055 2:0.275647 3:-0.950565 4:-1 
-32 32 1:0.585542 2:-0.256919 3:-0.268073 4:-0.0420524 
-32 0 1:0.691201 2:-0.491743 3:-0.767239 4:0.213757 
-32 32 1:0.677906 2:-0.161766 3:0.257883 4:-1 
-32 0 1:-0.0292215 2:-0.811897 3:-0.985524 4:-1 
-32 32 1:0.279293 2:0.0951018 3:-0.990044 4:-1 
-0 15.21460813821073 1:-1 2:0.162187 3:0.588216 4:0.462829 
-32 0 1:0.528785 2:-0.660571 3:0.995242 4:-1 
-32 32 1:0.258945 2:-0.0430617 3:-0.697677 4:-1 
-0 32 1:0.504784 2:0.342336 3:-0.672111 4:0.815994 
-32 0 1:0.602437 2:-0.311471 3:-0.451226 4:0.649815 
-32 0 1:0.656825 2:-0.380293 3:-0.880098 4:0.857415 
-0 32 1:0.219379 2:0.443112 3:-0.629096 4:0.527709 
-0 32 1:0.0339198 2:0.426346 3:-0.83621 4:0.611251 
-0 32 1:-0.313614 2:0.493815 3:0.994566 4:0.47441 
-32 32 1:0.19462 2:-0.228556 3:-0.999996 4:-1 
-32 0 1:0.583256 2:-0.582834 3:-0.999988 4:-0.36671 
-32 0 1:0.604157 2:-0.162576 3:-0.976522 4:0.715514 
-32 0 1:0.135076 2:-0.200907 3:-0.97946 4:-0.189752 
-0 32 1:0.468574 2:0.608875 3:-0.941701 4:0.533716 
-32 0 1:0.740479 2:-0.508323 3:-0.704692 4:0.710953 
-32 0 1:0.712055 2:-0.626423 3:0.906685 4:0.705607 
-0 3.091306877692248 1:0.304789 2:0.302738 3:-0.919543 4:0.605399 
-0 32 1:0.373688 2:0.638058 3:0.995582 4:-0.433182 
-0 32 1:0.284917 2:0.438959 3:0.58768 4:0.458643 
-32 18.58290570448022 1:0.48645 2:-0.458669 3:-0.611892 4:-0.383238 
-0 13.70596517367518 1:0.540631 2:0.262851 3:0.16992 4:0.612462 
-12.50006303868028 32 1:-0.247658 2:-0.526795 3:-0.442006 4:-0.417162 
-32 0 1:0.579753 2:-0.569037 3:0.988562 4:-1 
-32 0 1:0.549423 2:-0.214747 3:-0.972764 4:0.291818 
-32 28.16256515228343 1:0.234892 2:-0.0431239 3:-0.969308 4:-0.441415 
-0 32 1:0.204682 2:0.340993 3:0.415289 4:0.299515 
-0 32 1:0.383942 2:0.346471 3:-0.909719 4:0.571709 
-32 0 1:-0.0628735 2:-0.503691 3:-0.726952 4:-0.433176 
-0 32 1:0.111359 2:0.331508 3:-0.698867 4:0.556982 
-0 32 1:0.517539 2:0.513211 3:-0.717838 4:0.611489 
-32 0 1:0.791737 2:0.176929 3:-0.713508 4:0.632538 
-0 32 1:-0.0663421 2:0.524798 3:-0.865616 4:0.698561 
-32 0 1:0.494528 2:-0.344929 3:-0.738342 4:0.346184 
-32 0 1:0.400225 2:-0.447825 3:-0.987556 4:-0.392678 
-32 23.52672630894261 1:0.189133 2:-0.585243 3:0.45459 4:-1 
-32 0 1:0.548102 2:-0.596996 3:0.999286 4:-0.397872 
-32 32 1:0.939457 2:-0.0748325 3:-0.798381 4:-1 
-32 -32 1:0.212984 2:-0.565357 3:-0.620836 4:0.337652 
-0 -32 1:0.232863 2:0.710269 3:0.997518 4:0.968614 
-32 -0 1:0.653515 2:0.485245 3:-0.929027 4:-1 
-0 -32 1:0.204833 2:0.172238 3:0.19374 4:-0.142053 
-0 -18.03955898641365 1:0.521092 2:0.824903 3:0.989036 4:-1 
-32 -0 1:0.751976 2:0.792211 3:-0.97738 4:-1 
-32 -32 1:0.258513 2:0.167663 3:-0.636559 4:-1 
-0 -32 1:-0.0268313 2:0.552145 3:0.99853 4:-1 
-32 -32 1:0.658825 2:-0.263303 3:-0.621634 4:-0.0921589 
-32 -0 1:0.406045 2:0.380057 3:-0.575888 4:-1 
-32 -32 1:0.763674 2:-0.0869986 3:-0.622544 4:0.0672408 
-0 -32 1:0.107792 2:0.117753 3:0.882964 4:-1 
-32 -0 1:0.622149 2:0.480353 3:-0.942415 4:-1 
-32 -32 1:0.48056 2:0.232838 3:-0.17272 4:-0.436072 
-0 -32 1:0.158035 2:0.527692 3:0.996362 4:0.348671 
-0 -32 1:-0.22528 2:0.11912 3:0.863218 4:0.195116 
-32 -32 1:0.516299 2:0.222213 3:0.499586 4:-1 
-0 -32 1:0.585788 2:0.615209 3:0.998986 4:0.303759 
-0 -32 1:0.403375 2:0.563561 3:-0.99411 4:0.233006 
-0 -32 1:0.319476 2:0.869632 3:0.999578 4:0.467343 
-0 -32 1:0.0192252 2:0.670849 3:0.958841 4:0.484481 
-32 -32 1:0.486441 2:-0.265573 3:0.500021 4:-1 
-32 -32 1:0.439931 2:0.311165 3:-0.948547 4:-1 
-32 -32 1:0.792086 2:-0.3852 3:-0.620134 4:-1 
-32 -32 1:0.359002 2:-0.161587 3:-0.257627 4:-0.397861 
-32 -32 1:0.785086 2:-0.383076 3:-0.984302 4:-1 
-32 -32 1:0.0937678 2:-0.599819 3:0.317786 4:-0.0939268 
-32 -32 1:0.148664 2:0.197164 3:-0.969818 4:-1 
-32 -32 1:0.432483 2:0.185318 3:-0.897834 4:-1 
-32 -32 1:0.768833 2:-0.536779 3:-0.98758 4:0.26654 
-0 -32 1:0.63676 2:0.854706 3:0.958963 4:0.327569 
-0 -32 1:0.0714207 2:0.0223889 3:-0.72119 4:0.06464 
-32 -32 1:0.792362 2:-0.329627 3:-0.98743 4:-1 
-32 -32 1:0.557733 2:-0.408158 3:0.406835 4:-1 
-32 -32 1:0.545362 2:-0.220408 3:-0.994766 4:-1 
-32 -0 1:0.628964 2:0.528661 3:-0.415515 4:-1 
-0 -6.756024223464311 1:-0.165227 2:0.611514 3:0.522395 4:-1 
-0 -32 1:0.189373 2:0.175252 3:-0.387723 4:0.227453 
-32 -32 1:0.032443 2:-0.020063 3:-0.900555 4:-1 
-32 -32 1:0.128507 2:0.116714 3:-0.33857 4:-1 
-0 -32 1:0.480808 2:0.679466 3:-0.982038 4:-0.1665 
-32 -32 1:0.583929 2:0.00608982 3:0.0288274 4:-0.34772 
-32 -0 1:0.525654 2:0.582099 3:-0.908105 4:-1 
-32 -32 1:0.237491 2:-0.269981 3:-0.384591 4:-0.0077081 
-32 -0 1:0.733921 2:0.600262 3:-0.908845 4:-1 
-32 -32 1:0.420901 2:-0.327757 3:-0.165887 4:-0.460585 
-32 -32 1:0.0128933 2:-0.252997 3:-0.97179 4:-1 
-32 -32 1:0.659881 2:-0.279312 3:0.354454 4:0.208546 
-32 -32 1:0.437593 2:0.0803732 3:-0.971972 4:-1 
-32 -32 1:0.520044 2:0.0585923 3:-0.249293 4:-1 
-32 -0 1:0.832645 2:0.518473 3:-0.973524 4:-1 
-32 -32 1:0.276013 2:-0.515059 3:-0.983298 4:-1 
-0 -32 1:-0.0918038 2:0.54613 3:-0.067672 4:0.238384 
-32 -32 1:0.202805 2:-0.331312 3:-0.852182 4:-1 
-32 -32 1:0.506419 2:0.00888552 3:-0.991188 4:-0.416543 
-32 -32 1:0.322752 2:-0.118926 3:-0.999998 4:-1 
-32 -32 1:0.540908 2:0.219515 3:-0.516459 4:-0.0362534 
-32 -32 1:0.177296 2:0.061273 3:-1 4:0.149149 
-32 -32 1:0.28649 2:0.103948 3:0.669737 4:-1 
-32 -32 1:0.0875586 2:-0.479847 3:-0.975568 4:-1 
-32 -32 1:0.493385 2:0.260973 3:0.651907 4:-0.410713 
-32 -32 1:0.13342 2:-0.586964 3:0.431585 4:-1 
-0 -32 1:-0.404009 2:0.492417 3:-0.855968 4:0.190327 
-0 -32 1:0.13693 2:0.804749 3:-0.905011 4:0.474912 
-32 -32 1:0.112997 2:-0.222773 3:-0.732258 4:-1 
-32 -32 1:0.482351 2:-0.0663783 3:0.221274 4:-1 
-32 -32 1:0.177632 2:-0.549872 3:-0.99998 4:-1 
-32 -32 1:0.613194 2:0.279092 3:-0.999996 4:0.0374457 
-32 -32 1:0.446377 2:-0.0372587 3:-0.999994 4:-1 
-32 -32 1:0.607708 2:-0.426074 3:-0.532021 4:-0.369627 
-23.88596542705647 -32 1:0.316502 2:0.175167 3:-0.492442 4:-0.445892 
-32 -0 1:0.651997 2:0.458719 3:-0.811831 4:-1 
-32 -0 1:0.818158 2:0.393743 3:-0.326728 4:-1 
-0 -32 1:-0.0295255 2:0.139537 3:-0.269127 4:-1 
-0 -32 1:0.675441 2:0.657682 3:0.968202 4:0.00577475 
-32 -32 1:0.0536704 2:0.113075 3:-0.983592 4:-1 
-32 -31.89091761761354 1:0.795956 2:0.230733 3:-0.283745 4:-1 
-32 -32 1:0.0473689 2:-0.26193 3:-0.965235 4:-1 
-32 -32 1:0.428837 2:-0.0325434 3:-0.909151 4:-1 
-32 -32 1:0.00927639 2:0.167621 3:-0.976046 4:-1 
-0 -30.99746815088981 1:0.0680201 2:0.844357 3:0.984004 4:-0.35634 
-32 -32 1:0.873275 2:0.266078 3:-0.999988 4:-1 
-7.748125633282344 -32 1:0.310794 2:0.217379 3:0.959019 4:-1 
-0 -32 1:0.1185 2:0.759352 3:0.808303 4:-0.385339 
-0 -20.43809265191446 1:0.457451 2:0.747734 3:-0.927955 4:0.103615 
-0 -32 1:0.127454 2:0.599796 3:0.920415 4:0.197179 
-32 -32 1:0.234218 2:-0.714101 3:-0.999966 4:-1 
-32 -32 1:0.732665 2:0.145809 3:-0.792339 4:0.0918374 
-0 -32 1:0.374852 2:0.583016 3:-0.99373 4:0.2781 
-32 -0 1:0.421224 2:0.409961 3:-0.909111 4:-1 
-0 -32 1:0.457086 2:0.492231 3:-0.118353 4:0.111416 
-32 -32 1:0.702377 2:-0.510658 3:-0.0330135 4:-1 
-32 -32 1:0.719063 2:0.0843159 3:-0.695171 4:0.027958 
-0 -32 1:0.410464 2:0.433723 3:0.952395 4:0.0356742 
-0 -32 1:0.66884 2:0.798193 3:-0.811545 4:0.814479 
-0 -32 1:0.396994 2:0.361267 3:-0.905813 4:0.232617 
-0 -32 1:0.279561 2:0.663122 3:0.366368 4:0.233022 
-32 -32 1:0.240878 2:0.0850426 3:-0.97788 4:-1 
-32 -32 1:0.385058 2:0.305733 3:-0.59671 4:-1 
-32 -32 1:0.599784 2:0.0500411 3:-0.703452 4:-0.124234 
-0 -32 1:0.299089 2:0.171835 3:-0.260539 4:-0.205805 
-0 -32 1:0.272964 2:0.305472 3:0.614506 4:-1 
-32 -32 1:0.730947 2:0.371444 3:0.655793 4:-1 
-32 -32 1:0.388821 2:0.147341 3:-0.348774 4:-0.3497 
-0 -32 1:0.256308 2:0.761723 3:0.913577 4:0.123144 
-32 -32 1:0.783155 2:-0.021174 3:-0.615356 4:-1 
-32 -32 1:0.729839 2:0.416359 3:-0.755334 4:0.0604498 
-32 -19.296336621303 1:0.876277 2:0.401358 3:-0.981394 4:-1 
-32 -32 1:0.644244 2:0.251568 3:-0.306364 4:-0.0195978 
-32 -0 1:0.860714 2:0.372007 3:-0.239709 4:-1 
-32 -32 1:0.708267 2:0.355539 3:-0.971282 4:0.249478 
-0 -25.60029782145143 1:0.214539 2:0.611404 3:-0.962093 4:-0.471379 
-32 -32 1:0.890574 2:-0.105038 3:-0.239731 4:0.058829 
-32 -32 1:0.195037 2:-0.188492 3:-0.827205 4:0.0686236 
-0 -32 1:0.770986 2:0.611767 3:-0.160263 4:0.43703 
-32 -0 1:0.752664 2:0.701191 3:-0.770161 4:-1 
-5.095890293611306 -32 1:0.665336 2:0.328594 3:0.334252 4:0.248955 
-0 -32 1:0.295013 2:0.639845 3:-0.774753 4:-0.104589 
-0 -32 1:0.0680831 2:0.302544 3:-0.967602 4:-1 
-0 -32 1:0.416637 2:0.503736 3:0.478416 4:-1 
-0 -32 1:0.401294 2:0.463048 3:-0.970066 4:-0.0882812 
-32 -32 1:0.247338 2:0.202748 3:-0.931647 4:-1 
-32 -32 1:0.202778 2:0.227013 3:-0.623348 4:-1 
-32 -32 1:0.443559 2:-0.0801424 3:0.995126 4:-0.108449 
-32 -32 1:0.449445 2:-0.322825 3:-0.574698 4:-1 
-0 -32 1:-0.158174 2:0.395856 3:-0.971096 4:-0.321746 
-0 -32 1:0.662437 2:0.837711 3:0.979082 4:0.324517 
-0 -32 1:0.398184 2:0.752335 3:0.99436 4:-1 
-32 -32 1:0.0968569 2:-0.105885 3:-0.990008 4:-0.00847779 
-0 -32 1:0.0551045 2:0.246088 3:-0.709874 4:0.285526 
-22.16695896236766 -32 1:0.459042 2:0.19109 3:0.895574 4:0.430523 
-0 -32 1:0.563283 2:0.408217 3:-0.0322495 4:0.183122 
-0 -32 1:0.530901 2:0.650529 3:0.999206 4:0.431804 
-0 -32 1:0.199645 2:0.655686 3:0.972488 4:-0.0809219 
-14.96179944079657 -0 1:0.900087 2:0.800252 3:-0.962005 4:0.139517 
-32 -32 1:0.774965 2:-0.518185 3:-0.963213 4:-1 
-8.672819166732314 -0 1:0.855579 2:0.884287 3:-0.942237 4:-1 
-32 -32 1:0.519729 2:0.215037 3:-0.806845 4:0.166757 
-32 -32 1:0.847687 2:-0.470723 3:0.59054 4:-0.13822 
-32 -32 1:0.225293 2:0.220186 3:-0.958813 4:-1 
-5.498604137983699 -32 1:0.0799725 2:0.263058 3:-0.928965 4:-1 
-32 -32 1:0.855487 2:-0.160875 3:-0.73151 4:-1 
-32 -32 1:0.0327228 2:-0.110373 3:-0.865426 4:-0.132373 
-0 -32 1:-0.64973 2:0.0684366 3:-0.778403 4:-1 
-32 -32 1:0.137861 2:0.180698 3:-0.943357 4:-1 
-32 -32 1:0.403053 2:-0.24882 3:-0.847664 4:-0.102083 
-0 -32 1:0.436279 2:0.578868 3:0.977502 4:0.876038 
-32 -32 1:0.407563 2:0.210125 3:0.992638 4:-1 
-0 -32 1:0.516482 2:0.802307 3:0.962413 4:-1 
-0 -32 1:0.108013 2:0.337741 3:-0.916255 4:-1 
-0 -23.93108606810469 1:-0.0813728 2:0.87511 3:-0.695283 4:0.871531 
-0 -32 1:0.266128 2:0.521093 3:-0.554257 4:0.424066 
-0 -7.277239357748735 1:-0.168713 2:0.847313 3:0.988384 4:0.576528 
-0 -32 1:-0.0906411 2:0.354052 3:0.962223 4:0.366593 
-0 -2.21340140610564 1:0.820144 2:0.953766 3:0.99973 4:0.549789 
-32 -32 1:0.554088 2:0.258222 3:-0.462974 4:-1 
-0 -32 1:0.0159369 2:0.64486 3:-0.965871 4:0.971235 
-0 -32 1:0.355184 2:0.643804 3:0.72136 4:-0.127962 
-0 -32 1:0.415853 2:0.648546 3:0.934013 4:0.197306 
-0 -32 1:0.562643 2:0.689228 3:0.998332 4:-0.380872 
-0 -32 1:0.320829 2:0.700437 3:-0.941901 4:1 
-0 -32 1:0.337248 2:0.836698 3:-0.999996 4:0.967976 
-0 -32 1:0.019122 2:0.711032 3:0.598424 4:0.535551 
-0 -32 1:0.109013 2:0.545241 3:0.989132 4:-0.417762 
-0 -32 1:0.0299296 2:0.646688 3:-0.938807 4:0.418812 
-32 -0 1:0.386636 2:0.462483 3:-0.98867 4:-1 
-0 -32 1:0.135268 2:0.798319 3:0.989398 4:-1 
-32 -32 1:0.551421 2:0.165848 3:0.0797982 4:-1 
