svm_type c_svc
kernel_type linear
nr_class 2
total_sv 54
rho 1.16202
label 1 8
probA -2.81307
probB -0.0397582
nr_sv 24 30
SV
0.3071257663156524 1:0.020759 2:0.008509 3:0.003829 4:0.001847 5:0.02066 6:0.046125 7:0.376996 8:0.376996 9:0.076399 10:0.044276 11:0.034154 12:0.026722 13:0.011634 14:0.039111 15:0.122944 16:0.376996 17:0.376996 18:0.065553 19:0.007832 20:0.002642 21:0.001023 22:0.005306 23:0.015435 24:0.049977 25:0.221613 26:0.16677 27:0.020676 28:0.011499 29:0.008506 30:0.003327 31:0.004964 32:0.019605 33:0.168241 34:0.376996 35:0.376996 36:0.023079 37:0.024814 38:0.02341 39:0.018478 40:0.014896 41:0.023269 42:0.096298 43:0.335292 44:0.335292 45:0.052282 46:0.023531 47:0.016923 48:0.016053 49:0.040911 50:0.024991 51:0.141643 52:0.335292 53:0.335292 54:0.071512 55:0.004733 56:0.008946 57:0.005784 58:0.013333 59:0.004608 60:0.099987 61:0.335292 62:0.335292 63:0.015499 64:0.037965 65:0.060024 66:0.038655 67:0.067605 68:0.053565 69:0.161394 70:0.335292 71:0.335292 72:0.061969 73:0.026507 74:0.017772 75:0.023044 76:0.060569 77:0.056909 78:0.104531 79:0.311319 80:0.311319 81:0.119449 82:0.046252 83:0.026041 84:0.022817 85:0.067003 86:0.074977 87:0.119523 88:0.267257 89:0.311319 90:0.121277 91:0.110771 92:0.140815 93:0.134676 94:0.133485 95:0.19611 96:0.168037 97:0.311319 98:0.311319 99:0.130656 100:0.062079 101:0.109896 102:0.096266 103:0.094699 104:0.146856 105:0.146381 106:0.271424 107:0.236609 108:0.078325 109:0.025437 110:0.027292 111:0.053998 112:0.109117 113:0.102551 114:0.133526 115:0.254228 116:0.08747 117:0.018368 118:0.06311 119:0.051185 120:0.055442 121:0.08946 122:0.084844 123:0.304298 124:0.304298 125:0.304298 126:0.030992 127:0.072916 128:0.249754 129:0.269409 130:0.149625 131:0.119438 132:0.123369 133:0.054281 134:0.015038 135:0.018981 136:0.138072 137:0.304298 138:0.304298 139:0.257565 140:0.140482 141:0.114201 142:0.234528 143:0.127437 144:0.076483 145:0.015588 146:0.020423 147:0.011235 148:0.015332 149:0.020854 150:0.151458 151:0.280319 152:0.280319 153:0.021245 154:0.103716 155:0.185437 156:0.088059 157:0.050768 158:0.069495 159:0.207217 160:0.280319 161:0.280319 162:0.079048 163:0.047179 164:0.152735 165:0.280319 166:0.115527 167:0.054398 168:0.080671 169:0.193902 170:0.116719 171:0.065308 172:0.192618 173:0.270469 174:0.280319 175:0.111399 176:0.079648 177:0.150459 178:0.280319 179:0.179663 180:0.158198 181:0.237244 182:0.237244 183:0.237244 184:0.110573 185:0.164599 186:0.191165 187:0.237244 188:0.224353 189:0.12649 190:0.148643 191:0.227102 192:0.128562 193:0.072842 194:0.128071 195:0.103752 196:0.147974 197:0.077046 198:0.089242 199:0.237244 200:0.237244 201:0.180131 202:0.068063 203:0.103815 204:0.236454 205:0.237244 206:0.141083 207:0.168891 208:0.101315 209:0.131872 210:0.069855 211:0.067971 212:0.131173 213:0.170409 214:0.237244 215:0.069628 216:0.078998 217:0.042858 218:0.181716 219:0.174393 220:0.024974 221:0.017345 222:0.027183 223:0.011766 224:0.005366 225:0.01061 226:0.050034 227:0.344047 228:0.380875 229:0.131596 230:0.052788 231:0.014314 232:0.019552 233:0.024669 234:0.03888 235:0.125175 236:0.380875 237:0.380875 238:0.048534 239:0.04336 240:0.008938 241:0.024519 242:0.046383 243:0.062496 244:0.102617 245:0.380875 246:0.380875 247:0.114824 248:0.079889 249:0.003622 250:0.02146 251:0.015307 252:0.050199 253:0.030666 254:0.285812 255:0.341792 256:0.110283 257:0.032036 258:0.013632 259:0.017293 260:0.018667 261:0.041578 262:0.116203 263:0.341792 264:0.341792 265:0.108273 266:0.065399 267:0.046624 268:0.068801 269:0.040605 270:0.101655 271:0.07788 272:0.341792 273:0.341792 274:0.053045 275:0.035214 276:0.002282 277:0.001174 278:0.015165 279:0.042364 280:0.116719 281:0.341792 282:0.341792 283:0.053801 284:0.041284 285:0.008161 286:0.007642 287:0.0157 288:0.036303 289:0.159671 290:0.298203 291:0.244017 292:0.071034 293:0.100473 294:0.117748 295:0.242429 296:0.07309 297:0.136377 298:0.093478 299:0.11407 300:0.083875 301:0.05521 302:0.1134 303:0.133626 304:0.293826 305:0.053924 306:0.067075 307:0.193103 308:0.298203 309:0.298203 310:0.06105 311:0.062673 312:0.038978 313:0.080903 314:0.025674 315:0.073198 316:0.224577 317:0.298203 318:0.281068 319:0.100612 320:0.189317 321:0.089019 322:0.198762 323:0.032476 324:0.073249 
0.4868553138558023 1:0.005378 2:0 3:0.001819 4:0.002947 5:0.1961 6:0.301621 7:0.288458 8:0.075638 9:0.011626 10:0.019167 11:0.006591 12:0.060356 13:0.080965 14:0.301621 15:0.301621 16:0.301621 17:0.047806 18:0.008379 19:0.014834 20:0.022546 21:0.024335 22:0.087741 23:0.301621 24:0.301621 25:0.158005 26:0.031105 27:0.019245 28:0.030794 29:0.014942 30:0.046977 31:0.086121 32:0.265871 33:0.301621 34:0.301621 35:0.102718 36:0.036116 37:0.039265 38:0.034971 39:0.105426 40:0.120701 41:0.233135 42:0.222113 43:0.143527 44:0.057519 45:0.03011 46:0.038072 47:0.043142 48:0.062235 49:0.10437 50:0.22218 51:0.269636 52:0.269636 53:0.184095 54:0.056669 55:0.054725 56:0.048062 57:0.102124 58:0.09576 59:0.18695 60:0.269636 61:0.269636 62:0.091571 63:0.063623 64:0.086982 65:0.223985 66:0.269636 67:0.2303 68:0.162897 69:0.269636 70:0.269636 71:0.096283 72:0.089567 73:0.043953 74:0.036684 75:0.050953 76:0.10975 77:0.23189 78:0.270096 79:0.270096 80:0.169599 81:0.059036 82:0.097505 83:0.101749 84:0.154808 85:0.16993 86:0.142159 87:0.148169 88:0.095509 89:0.086042 90:0.080596 91:0.073796 92:0.228819 93:0.270096 94:0.270096 95:0.171965 96:0.270096 97:0.270096 98:0.08122 99:0.056892 100:0.10377 101:0.119965 102:0.217792 103:0.223333 104:0.110328 105:0.218507 106:0.124592 107:0.090804 108:0.119985 109:0.081652 110:0.166107 111:0.200404 112:0.176511 113:0.254356 114:0.125834 115:0.07259 116:0.050205 117:0.107325 118:0.103282 119:0.077743 120:0.032304 121:0.026449 122:0.089722 123:0.256251 124:0.256251 125:0.256251 126:0.256251 127:0.21594 128:0.256251 129:0.256251 130:0.075447 131:0.02819 132:0.012068 133:0.009111 134:0.031609 135:0.17271 136:0.256251 137:0.256251 138:0.100611 139:0.015042 140:0.013618 141:0.046987 142:0.10936 143:0.256251 144:0.256251 145:0.067769 146:0.063962 147:0.099031 148:0.051627 149:0.071285 150:0.240656 151:0.240656 152:0.192 153:0.170385 154:0.107853 155:0.240656 156:0.240656 157:0.212368 158:0.07663 159:0.180374 160:0.177496 161:0.067571 162:0.124444 163:0.140123 164:0.134265 165:0.132189 166:0.064054 167:0.059007 168:0.064684 169:0.137453 170:0.240656 171:0.240656 172:0.128114 173:0.188341 174:0.240656 175:0.168166 176:0.09285 177:0.10467 178:0.240656 179:0.240656 180:0.228008 181:0.124314 182:0.248711 183:0.248711 184:0.248711 185:0.074979 186:0.248711 187:0.090056 188:0.032602 189:0.09385 190:0.114822 191:0.119782 192:0.181809 193:0.122973 194:0.065453 195:0.146092 196:0.129788 197:0.115274 198:0.172778 199:0.135216 200:0.143208 201:0.231831 202:0.147232 203:0.076755 204:0.183916 205:0.248711 206:0.248711 207:0.248711 208:0.105563 209:0.074357 210:0.1207 211:0.150975 212:0.165657 213:0.166453 214:0.195572 215:0.195205 216:0.157064 217:0.257941 218:0.263509 219:0.263509 220:0.051675 221:0.011267 222:0.019818 223:0.003543 224:0.008835 225:0.140046 226:0.257791 227:0.263509 228:0.263509 229:0.161159 230:0.039657 231:0.050534 232:0.021859 233:0.065643 234:0.189462 235:0.16869 236:0.201529 237:0.260749 238:0.216048 239:0.126177 240:0.040317 241:0.02071 242:0.076305 243:0.165544 244:0.106074 245:0.263509 246:0.263509 247:0.263509 248:0.178766 249:0.04911 250:0.026864 251:0.025571 252:0.05202 253:0.109583 254:0.191598 255:0.273372 256:0.093081 257:0.049452 258:0.041547 259:0.070901 260:0.170238 261:0.133647 262:0.105314 263:0.148226 264:0.193878 265:0.081924 266:0.071483 267:0.123365 268:0.274932 269:0.274932 270:0.197167 271:0.059022 272:0.193811 273:0.274932 274:0.17466 275:0.103342 276:0.071876 277:0.030177 278:0.059434 279:0.058015 280:0.148857 281:0.274932 282:0.274932 283:0.139255 284:0.126074 285:0.11911 286:0.212053 287:0.263804 288:0.114871 289:0.051842 290:0.062695 291:0.11653 292:0.075706 293:0.091604 294:0.223285 295:0.262622 296:0.262622 297:0.142567 298:0.079956 299:0.062441 300:0.137292 301:0.14484 302:0.141483 303:0.156892 304:0.199385 305:0.139235 306:0.080378 307:0.07806 308:0.262622 309:0.262622 310:0.157124 311:0.170386 312:0.144803 313:0.262622 314:0.254192 315:0.083209 316:0.081419 317:0.15428 318:0.262622 319:0.135123 320:0.1955 321:0.149278 322:0.164501 323:0.135042 324:0.109046 
0.7006467340130086 1:0.031107 2:0.008365 3:0.018199 4:0.020854 5:0.084217 6:0.136903 7:0.303625 8:0.16712 9:0.052306 10:0.074308 11:0.121304 12:0.163288 13:0.09372 14:0.127618 15:0.079231 16:0.10476 17:0.076265 18:0.097118 19:0.054587 20:0.086014 21:0.072232 22:0.033547 23:0.184146 24:0.303625 25:0.303625 26:0.109475 27:0.048359 28:0.124944 29:0.303625 30:0.303625 31:0.169045 32:0.303625 33:0.252482 34:0.303625 35:0.047339 36:0.117242 37:0.043994 38:0.138686 39:0.266825 40:0.229587 41:0.10347 42:0.023219 43:0.005969 44:0.019111 45:0.036287 46:0.088108 47:0.114475 48:0.266825 49:0.266825 50:0.20378 51:0.042975 52:0.115451 53:0.145695 54:0.093057 55:0.135785 56:0.266825 57:0.266825 58:0.162864 59:0.134402 60:0.027345 61:0.030373 62:0.02976 63:0.138897 64:0.184783 65:0.266825 66:0.266825 67:0.163715 68:0.190813 69:0.068557 70:0.153501 71:0.219137 72:0.21483 73:0.137999 74:0.046109 75:0.096782 76:0.128832 77:0.193168 78:0.05411 79:0.259187 80:0.259187 81:0.188938 82:0.207679 83:0.073295 84:0.098635 85:0.096322 86:0.104427 87:0.110331 88:0.259187 89:0.259187 90:0.169688 91:0.109647 92:0.136613 93:0.046834 94:0.066083 95:0.112039 96:0.082572 97:0.259187 98:0.259187 99:0.20779 100:0.189919 101:0.0553 102:0.013476 103:0.05542 104:0.067306 105:0.160949 106:0.259187 107:0.259187 108:0.211953 109:0.054892 110:0.239357 111:0.193146 112:0.050151 113:0.135157 114:0.143104 115:0.186337 116:0.014298 117:0.026695 118:0.097283 119:0.251552 120:0.251552 121:0.167383 122:0.251552 123:0.246064 124:0.165147 125:0.02768 126:0.062458 127:0.17943 128:0.251552 129:0.251552 130:0.086596 131:0.079621 132:0.04882 133:0.013875 134:0.010378 135:0.044836 136:0.113922 137:0.251552 138:0.251552 139:0.245402 140:0.197797 141:0.201706 142:0.138475 143:0.156157 144:0.052547 145:0.241382 146:0.241382 147:0.241382 148:0.09958 149:0.109667 150:0.080879 151:0.066001 152:0.072342 153:0.178355 154:0.241382 155:0.241382 156:0.099038 157:0.042743 158:0.060961 159:0.027031 160:0.24089 161:0.241382 162:0.215588 163:0.207538 164:0.151952 165:0.108475 166:0.089214 167:0.062416 168:0.120689 169:0.241382 170:0.241382 171:0.089763 172:0.22227 173:0.193641 174:0.050579 175:0.005701 176:0.029567 177:0.06773 178:0.241382 179:0.241382 180:0.130772 181:0.090367 182:0.105254 183:0.020893 184:0.026255 185:0.029184 186:0.034405 187:0.221912 188:0.259961 189:0.163641 190:0.137606 191:0.10729 192:0.074843 193:0.035151 194:0.027219 195:0.091613 196:0.110151 197:0.140421 198:0.161445 199:0.171953 200:0.254522 201:0.112641 202:0.039413 203:0.052328 204:0.053208 205:0.259961 206:0.259961 207:0.259961 208:0.259961 209:0.259961 210:0.259961 211:0.164276 212:0.09094 213:0.092188 214:0.168836 215:0.259961 216:0.259961 217:0.29186 218:0.30756 219:0.276896 220:0.051306 221:0.023995 222:0.013294 223:0.006111 224:0.008794 225:0.042624 226:0.11058 227:0.218868 228:0.213849 229:0.102528 230:0.061884 231:0.051765 232:0.102014 233:0.134672 234:0.036661 235:0.30756 236:0.292901 237:0.110248 238:0.078903 239:0.029289 240:0.003042 241:0.000805 242:0.013556 243:0.30756 244:0.30756 245:0.304985 246:0.041054 247:0.010331 248:0.043324 249:0.057746 250:0.071782 251:0.092289 252:0.282312 253:0.056263 254:0.037409 255:0.045633 256:0.028212 257:0.025691 258:0.070428 259:0.26454 260:0.26454 261:0.026915 262:0.183382 263:0.26454 264:0.072156 265:0.00884 266:0.086787 267:0.184882 268:0.26454 269:0.26454 270:0.098003 271:0.26454 272:0.087475 273:0.019472 274:0.002942 275:0.035301 276:0.119093 277:0.237442 278:0.159895 279:0.26454 280:0.173255 281:0.153682 282:0.043516 283:0.013452 284:0.079936 285:0.161279 286:0.26454 287:0.26454 288:0.26454 289:0.179056 290:0.240223 291:0.122653 292:0.046983 293:0.074569 294:0.07512 295:0.145593 296:0.237852 297:0.182429 298:0.163188 299:0.240223 300:0.183415 301:0.133272 302:0.122406 303:0.162959 304:0.202211 305:0.103916 306:0.209527 307:0.168789 308:0.202146 309:0.046592 310:0.041158 311:0.068242 312:0.089743 313:0.240223 314:0.222343 315:0.211843 316:0.227311 317:0.119942 318:0.1198 319:0.11565 320:0.106702 321:0.179241 322:0.240223 323:0.069255 324:0.240223 
0.02383566825266612 1:0.115237 2:0.058574 3:0.102253 4:0.075688 5:0.121324 6:0.121116 7:0.210067 8:0.170068 9:0.174055 10:0.067964 11:0.030087 12:0.058315 13:0.075391 14:0.129036 15:0.150901 16:0.227442 17:0.122454 18:0.083393 19:0.185245 20:0.049003 21:0.086237 22:0.09716 23:0.234882 24:0.230865 25:0.237847 26:0.17218 27:0.225318 28:0.189501 29:0.237847 30:0.237847 31:0.13777 32:0.227652 33:0.223617 34:0.237847 35:0.237847 36:0.149098 37:0.035452 38:0.055519 39:0.034673 40:0.050937 41:0.090286 42:0.104603 43:0.111278 44:0.062099 45:0.030423 46:0.098564 47:0.282514 48:0.228578 49:0.134565 50:0.14752 51:0.156909 52:0.094392 53:0.092564 54:0.067616 55:0.139934 56:0.326268 57:0.326268 58:0.104316 59:0.100738 60:0.070935 61:0.0666 62:0.074292 63:0.063878 64:0.271353 65:0.326268 66:0.326268 67:0.326268 68:0.200674 69:0.101758 70:0.030471 71:0.050295 72:0.066184 73:0.085771 74:0.278512 75:0.278512 76:0.212559 77:0.125043 78:0.122299 79:0.044393 80:0.057183 81:0.101277 82:0.041563 83:0.220832 84:0.278512 85:0.175525 86:0.065672 87:0.03485 88:0.012879 89:0.024336 90:0.050914 91:0.201394 92:0.278512 93:0.278512 94:0.278512 95:0.232025 96:0.160543 97:0.040483 98:0.065117 99:0.094103 100:0.078151 101:0.189601 102:0.278512 103:0.178094 104:0.142363 105:0.110084 106:0.065925 107:0.100792 108:0.09929 109:0.081905 110:0.058587 111:0.047288 112:0.051319 113:0.115035 114:0.1614 115:0.155531 116:0.107662 117:0.080419 118:0.126571 119:0.253691 120:0.253691 121:0.169286 122:0.171934 123:0.09611 124:0.253691 125:0.235232 126:0.10927 127:0.119106 128:0.219767 129:0.197382 130:0.075203 131:0.048107 132:0.108515 133:0.117521 134:0.115333 135:0.058207 136:0.208037 137:0.253691 138:0.253691 139:0.253691 140:0.146845 141:0.085446 142:0.253691 143:0.253691 144:0.10707 145:0.115426 146:0.26443 147:0.26443 148:0.105706 149:0.066327 150:0.045344 151:0.148165 152:0.157124 153:0.079815 154:0.14603 155:0.26443 156:0.26443 157:0.221426 158:0.156396 159:0.085639 160:0.069129 161:0.071908 162:0.05113 163:0.113247 164:0.176076 165:0.182756 166:0.118374 167:0.079607 168:0.07582 169:0.26443 170:0.26443 171:0.103182 172:0.058768 173:0.082168 174:0.063068 175:0.08353 176:0.161381 177:0.26443 178:0.26443 179:0.26443 180:0.090539 181:0.157271 182:0.23561 183:0.23561 184:0.23561 185:0.23561 186:0.163809 187:0.042642 188:0.059242 189:0.056372 190:0.103063 191:0.100475 192:0.160368 193:0.164684 194:0.127374 195:0.23561 196:0.13246 197:0.136849 198:0.155516 199:0.048127 200:0.146281 201:0.097573 202:0.139772 203:0.23561 204:0.23561 205:0.23561 206:0.23561 207:0.062339 208:0.084893 209:0.132469 210:0.145553 211:0.181287 212:0.174308 213:0.23561 214:0.122175 215:0.102887 216:0.202126 217:0.081832 218:0.267364 219:0.267364 220:0.068796 221:0.009879 222:0.021796 223:0.047915 224:0.038969 225:0.045638 226:0.100826 227:0.267364 228:0.267364 229:0.194435 230:0.095928 231:0.06059 232:0.139699 233:0.105631 234:0.03679 235:0.179487 236:0.267364 237:0.267364 238:0.05184 239:0.048792 240:0.020347 241:0.093744 242:0.267364 243:0.267364 244:0.102161 245:0.267364 246:0.267364 247:0.169222 248:0.122158 249:0.056765 250:0.089432 251:0.160387 252:0.18519 253:0.104006 254:0.113755 255:0.139052 256:0.16931 257:0.133957 258:0.104415 259:0.274 260:0.274 261:0.078444 262:0.075387 263:0.093482 264:0.051317 265:0.089078 266:0.140423 267:0.274 268:0.274 269:0.274 270:0.127971 271:0.063492 272:0.126825 273:0.270239 274:0.266193 275:0.125299 276:0.058926 277:0.042498 278:0.043074 279:0.040031 280:0.095922 281:0.21442 282:0.240079 283:0.164089 284:0.085893 285:0.129735 286:0.246182 287:0.184359 288:0.084 289:0.061881 290:0.214173 291:0.091776 292:0.104738 293:0.201055 294:0.264536 295:0.264536 296:0.264536 297:0.086918 298:0.099899 299:0.187726 300:0.113572 301:0.132167 302:0.174821 303:0.199988 304:0.101069 305:0.065113 306:0.109957 307:0.099878 308:0.264536 309:0.264536 310:0.144051 311:0.138817 312:0.229978 313:0.264536 314:0.225148 315:0.11094 316:0.106195 317:0.188694 318:0.095549 319:0.111579 320:0.125179 321:0.106534 322:0.088614 323:0.106566 324:0.084526 
0.06519246348445666 1:0.037844 2:0.020603 3:0.040029 4:0.035673 5:0.167922 6:0.286796 7:0.286796 8:0.098267 9:0.037018 10:0.088249 11:0.093963 12:0.230396 13:0.158186 14:0.12699 15:0.184507 16:0.139067 17:0.058789 18:0.051458 19:0.034529 20:0.021133 21:0.034889 22:0.052113 23:0.194846 24:0.286796 25:0.286796 26:0.070063 27:0.0361 28:0.209359 29:0.193163 30:0.286796 31:0.211831 32:0.136468 33:0.286796 34:0.286796 35:0.051897 36:0.09999 37:0.093003 38:0.155043 39:0.30053 40:0.163226 41:0.057669 42:0.064328 43:0.035221 44:0.028187 45:0.041012 46:0.140672 47:0.319256 48:0.319256 49:0.189738 50:0.041214 51:0.052556 52:0.047401 53:0.026667 54:0.03406 55:0.172424 56:0.319256 57:0.319256 58:0.182938 59:0.037259 60:0.04294 61:0.038467 62:0.014246 63:0.072711 64:0.212043 65:0.319256 66:0.319256 67:0.174264 68:0.020526 69:0.030237 70:0.043323 71:0.060804 72:0.066536 73:0.171385 74:0.275394 75:0.275394 76:0.121971 77:0.034991 78:0.036884 79:0.045351 80:0.071608 81:0.037939 82:0.182007 83:0.275394 84:0.275394 85:0.174344 86:0.073465 87:0.044988 88:0.06799 89:0.180216 90:0.102738 91:0.181918 92:0.275394 93:0.275394 94:0.134864 95:0.040897 96:0.041811 97:0.082775 98:0.117798 99:0.069002 100:0.149612 101:0.275394 102:0.275394 103:0.202374 104:0.080375 105:0.033852 106:0.111332 107:0.196227 108:0.120076 109:0.028648 110:0.009774 111:0.044295 112:0.055304 113:0.131521 114:0.260309 115:0.260309 116:0.038587 117:0.017995 118:0.201618 119:0.185278 120:0.260309 121:0.146591 122:0.127989 123:0.260309 124:0.260309 125:0.058162 126:0.075656 127:0.024513 128:0.008131 129:0.050251 130:0.111265 131:0.181543 132:0.221492 133:0.214707 134:0.057311 135:0.030753 136:0.137499 137:0.126993 138:0.260309 139:0.196999 140:0.260309 141:0.260309 142:0.260309 143:0.109899 144:0.081912 145:0.232693 146:0.277381 147:0.277381 148:0.145281 149:0.050943 150:0.054119 151:0.041682 152:0.020171 153:0.062711 154:0.223897 155:0.277381 156:0.277381 157:0.105837 158:0.022169 159:0.028708 160:0.045848 161:0.082908 162:0.083235 163:0.239475 164:0.277381 165:0.259271 166:0.128618 167:0.169518 168:0.233018 169:0.109965 170:0.052927 171:0.060032 172:0.253076 173:0.277381 174:0.159923 175:0.095831 176:0.073822 177:0.041753 178:0.038058 179:0.118306 180:0.078071 181:0.162788 182:0.226754 183:0.226754 184:0.187314 185:0.06364 186:0.043007 187:0.082707 188:0.129556 189:0.121487 190:0.136277 191:0.226754 192:0.226754 193:0.226754 194:0.093629 195:0.043176 196:0.0817 197:0.173353 198:0.208911 199:0.143628 200:0.226754 201:0.183639 202:0.21246 203:0.163063 204:0.065713 205:0.041242 206:0.15816 207:0.09403 208:0.142735 209:0.226754 210:0.226754 211:0.226754 212:0.170436 213:0.10893 214:0.04827 215:0.196326 216:0.226754 217:0.030331 218:0.023078 219:0.144614 220:0.192838 221:0.135104 222:0.0954 223:0.099996 224:0.060704 225:0.060721 226:0.060785 227:0.04028 228:0.11518 229:0.194494 230:0.23856 231:0.288538 232:0.288538 233:0.10823 234:0.108941 235:0.08553 236:0.154051 237:0.288538 238:0.280599 239:0.097368 240:0.086382 241:0.102803 242:0.096925 243:0.081842 244:0.079529 245:0.042889 246:0.190966 247:0.177766 248:0.129836 249:0.288538 250:0.288538 251:0.288538 252:0.099663 253:0.110702 254:0.087881 255:0.041565 256:0.056849 257:0.121921 258:0.326827 259:0.326827 260:0.148996 261:0.079219 262:0.168018 263:0.120926 264:0.047483 265:0.058737 266:0.059694 267:0.082618 268:0.133303 269:0.1607 270:0.108843 271:0.046529 272:0.008076 273:0.016238 274:0.02797 275:0.082061 276:0.307044 277:0.326827 278:0.326827 279:0.060925 280:0.101798 281:0.023261 282:0.027338 283:0.043279 284:0.102161 285:0.160713 286:0.326827 287:0.326827 288:0.124036 289:0.163437 290:0.16555 291:0.122319 292:0.181079 293:0.151702 294:0.083034 295:0.050027 296:0.113057 297:0.080658 298:0.197276 299:0.224229 300:0.224229 301:0.224229 302:0.177685 303:0.13102 304:0.063502 305:0.114183 306:0.158562 307:0.165139 308:0.115982 309:0.116515 310:0.17524 311:0.198706 312:0.149659 313:0.167064 314:0.162571 315:0.161124 316:0.202918 317:0.215779 318:0.224229 319:0.224229 320:0.224229 321:0.172551 322:0.082618 323:0.104148 324:0.224229 
1 1:0.143011 2:0.096075 3:0.110621 4:0.094043 5:0.113805 6:0.075465 7:0.14477 8:0.154025 9:0.197618 10:0.11786 11:0.155802 12:0.212723 13:0.182312 14:0.171883 15:0.189711 16:0.206827 17:0.166171 18:0.122527 19:0.159492 20:0.212723 21:0.10444 22:0.098055 23:0.169639 24:0.131858 25:0.206103 26:0.212723 27:0.157705 28:0.123006 29:0.212723 30:0.212723 31:0.161237 32:0.212723 33:0.212723 34:0.191732 35:0.212723 36:0.15172 37:0.078422 38:0.267969 39:0.267969 40:0.232809 41:0.205117 42:0.175907 43:0.178166 44:0.075299 45:0.062979 46:0.02716 47:0.267969 48:0.267969 49:0.093735 50:0.138388 51:0.05149 52:0.055634 53:0.031886 54:0.024206 55:0.046912 56:0.155522 57:0.23548 58:0.190236 59:0.267969 60:0.267969 61:0.213212 62:0.138323 63:0.061348 64:0.071789 65:0.148562 66:0.162072 67:0.106211 68:0.267969 69:0.157457 70:0.079448 71:0.033297 72:0.023057 73:0.028204 74:0.112819 75:0.181814 76:0.071326 77:0.113724 78:0.031029 79:0.028667 80:0.03155 81:0.029473 82:0.11765 83:0.187448 84:0.23043 85:0.243452 86:0.215023 87:0.023167 88:0.051221 89:0.079649 90:0.091474 91:0.256165 92:0.263377 93:0.263377 94:0.14149 95:0.155364 96:0.04741 97:0.026422 98:0.043567 99:0.106977 100:0.263377 101:0.263377 102:0.263377 103:0.263377 104:0.263377 105:0.074099 106:0.02758 107:0.128101 108:0.263377 109:0.096971 110:0.210135 111:0.07172 112:0.084384 113:0.160055 114:0.124541 115:0.193838 116:0.183622 117:0.115645 118:0.085209 119:0.206831 120:0.137047 121:0.141176 122:0.217382 123:0.212239 124:0.14167 125:0.13796 126:0.138589 127:0.120498 128:0.13034 129:0.195475 130:0.217382 131:0.217382 132:0.103116 133:0.129337 134:0.150904 135:0.201089 136:0.217382 137:0.154142 138:0.130779 139:0.217382 140:0.217382 141:0.217382 142:0.149926 143:0.111509 144:0.217382 145:0.024597 146:0.11503 147:0.103743 148:0.195225 149:0.260019 150:0.260019 151:0.145675 152:0.090349 153:0.049885 154:0.113429 155:0.255177 156:0.229204 157:0.163844 158:0.260019 159:0.131127 160:0.0893 161:0.054535 162:0.072821 163:0.094689 164:0.078938 165:0.112949 166:0.260019 167:0.260019 168:0.250951 169:0.11379 170:0.059556 171:0.082034 172:0.102948 173:0.193844 174:0.212182 175:0.244521 176:0.260019 177:0.108568 178:0.094625 179:0.073827 180:0.114095 181:0.232936 182:0.232936 183:0.232936 184:0.135104 185:0.133599 186:0.029716 187:0.025384 188:0.051719 189:0.121246 190:0.232936 191:0.232936 192:0.232934 193:0.205125 194:0.232936 195:0.090453 196:0.014517 197:0.08833 198:0.213812 199:0.232936 200:0.232936 201:0.232936 202:0.15893 203:0.122529 204:0.051997 205:0.044439 206:0.065268 207:0.175637 208:0.232936 209:0.19152 210:0.135717 211:0.174417 212:0.164254 213:0.091399 214:0.053511 215:0.095462 216:0.170118 217:0.131984 218:0.088426 219:0.223032 220:0.16686 221:0.082098 222:0.082367 223:0.154818 224:0.236151 225:0.236151 226:0.235168 227:0.08509 228:0.08282 229:0.128545 230:0.148705 231:0.149093 232:0.236151 233:0.236151 234:0.236151 235:0.132713 236:0.110033 237:0.149084 238:0.070141 239:0.113029 240:0.145331 241:0.138976 242:0.211025 243:0.199165 244:0.138419 245:0.095903 246:0.116341 247:0.08643 248:0.130851 249:0.210699 250:0.236151 251:0.236151 252:0.177561 253:0.121761 254:0.051039 255:0.107092 256:0.258457 257:0.258457 258:0.179648 259:0.172628 260:0.164592 261:0.12158 262:0.060228 263:0.082253 264:0.111261 265:0.257185 266:0.258457 267:0.084411 268:0.050527 269:0.029409 270:0.055576 271:0.072734 272:0.065068 273:0.138863 274:0.206136 275:0.229034 276:0.25562 277:0.258457 278:0.258457 279:0.112348 280:0.06543 281:0.077556 282:0.072073 283:0.179178 284:0.227599 285:0.131896 286:0.256852 287:0.190471 288:0.085201 289:0.213333 290:0.210722 291:0.162595 292:0.228082 293:0.144638 294:0.09357 295:0.071833 296:0.066242 297:0.187904 298:0.228082 299:0.167378 300:0.087372 301:0.185652 302:0.153976 303:0.084065 304:0.097503 305:0.089484 306:0.172286 307:0.192254 308:0.226509 309:0.143766 310:0.189133 311:0.228082 312:0.14076 313:0.146643 314:0.091046 315:0.156746 316:0.228082 317:0.228082 318:0.156162 319:0.228082 320:0.228082 321:0.146332 322:0.083371 323:0.038613 324:0.14654 
0.368018901044957 1:0.035957 2:0.00569 3:0.002129 4:0.001413 5:0.034345 6:0.053416 7:0.292539 8:0.292539 9:0.152729 10:0.034529 11:0.008044 12:0.004405 13:0.009589 14:0.128675 15:0.292539 16:0.292539 17:0.292539 18:0.150025 19:0.070997 20:0.013122 21:0 22:9.4e-005 23:0.003615 24:0.011961 25:0.059131 26:0.292539 27:0.276719 28:0.10088 29:0.03037 30:0.017099 31:0.039063 32:0.173373 33:0.272797 34:0.201211 35:0.292539 36:0.292539 37:0.016381 38:0.008227 39:0.02302 40:0.045584 41:0.177087 42:0.285979 43:0.285979 44:0.139844 45:0.047622 46:0.04905 47:0.109529 48:0.127718 49:0.080198 50:0.107648 51:0.173445 52:0.11943 53:0.044708 54:0.038638 55:0.057045 56:0.05164 57:0.050207 58:0.096489 59:0.285979 60:0.285979 61:0.263077 62:0.251016 63:0.155551 64:0.156878 65:0.285979 66:0.285979 67:0.102343 68:0.168127 69:0.266286 70:0.107515 71:0.1411 72:0.117654 73:0.057936 74:0.288261 75:0.285223 76:0.058567 77:0.040318 78:0.056869 79:0.022702 80:0.018413 81:0.030299 82:0.179177 83:0.311877 84:0.311877 85:0.139187 86:0.050474 87:0.04939 88:0.031624 89:0.029473 90:0.042943 91:0.143934 92:0.311877 93:0.311877 94:0.099135 95:0.015851 96:0.027491 97:0.00962 98:0.018583 99:0.040154 100:0.311877 101:0.311877 102:0.311877 103:0.18342 104:0.044243 105:0.024753 106:0.012249 107:0.029882 108:0.084331 109:0.116706 110:0.029668 111:0.000812 112:0.001476 113:0.000375 114:0.021204 115:0.034025 116:0.317455 117:0.317455 118:0.212756 119:0.171669 120:0.085821 121:0.127155 122:0.207635 123:0.182884 124:0.053847 125:0.317455 126:0.317455 127:0.084783 128:0.164071 129:0.06938 130:0.04455 131:0.011507 132:0.063155 133:0.074311 134:0.160545 135:0.201764 136:0.202793 137:0.317455 138:0.317455 139:0.08004 140:0.042329 141:0.06876 142:0.046687 143:0.092389 144:0.128556 145:0.059904 146:0.09629 147:0.090595 148:0.135742 149:0.239809 150:0.239809 151:0.054035 152:0.139216 153:0.125687 154:0.151961 155:0.239809 156:0.239809 157:0.207696 158:0.221465 159:0.239809 160:0.055231 161:0.144978 162:0.186014 163:0.082246 164:0.239809 165:0.239809 166:0.118003 167:0.097135 168:0.081016 169:0.00995 170:0.027795 171:0.040778 172:0.155827 173:0.239809 174:0.239809 175:0.210604 176:0.166295 177:0.1473 178:0.070007 179:0.124651 180:0.225477 181:0.181344 182:0.276221 183:0.276221 184:0.170302 185:0.048756 186:0.061543 187:0.014588 188:0.065317 189:0.202713 190:0.276221 191:0.263075 192:0.242531 193:0.122988 194:0.029993 195:0.03918 196:0.021341 197:0.068933 198:0.276221 199:0.262887 200:0.127337 201:0.165023 202:0.112581 203:0.057184 204:0.067248 205:0.049709 206:0.121387 207:0.276221 208:0.276221 209:0.115381 210:0.10121 211:0.073224 212:0.03536 213:0.053393 214:0.075163 215:0.09917 216:0.276221 217:0.088073 218:0.347662 219:0.279428 220:0.039144 221:0.011045 222:0.019888 223:0.033171 224:0.028822 225:0.061376 226:0.070837 227:0.347662 228:0.347662 229:0.035355 230:0.021165 231:0.01506 232:0.017853 233:0.020618 234:0.032258 235:0.145987 236:0.347662 237:0.347662 238:0.03867 239:0.022494 240:0.002486 241:0.007314 242:0.008777 243:0.023917 244:0.029084 245:0.347662 246:0.347662 247:0.108808 248:0.102951 249:0.025053 250:0.005877 251:0.009002 252:0.009226 253:0.115541 254:0.281847 255:0.281847 256:0.087886 257:0.078496 258:0.037078 259:0.031228 260:0.064067 261:0.068293 262:0.207074 263:0.277585 264:0.190872 265:0.16386 266:0.141078 267:0.157931 268:0.163733 269:0.251243 270:0.24821 271:0.010437 272:0.138485 273:0.260767 274:0.257497 275:0.209294 276:0.050307 277:0.020045 278:0.027597 279:0.018874 280:0.081689 281:0.076154 282:0.155609 283:0.281847 284:0.281834 285:0.06611 286:0.079708 287:0.100739 288:0.049806 289:0.240043 290:0.093455 291:0.102201 292:0.131936 293:0.079649 294:0.119093 295:0.13545 296:0.212925 297:0.240043 298:0.240043 299:0.147809 300:0.186091 301:0.209438 302:0.13016 303:0.240043 304:0.240043 305:0.129841 306:0.240043 307:0.097503 308:0.074724 309:0.117797 310:0.205389 311:0.147305 312:0.083783 313:0.128511 314:0.145441 315:0.064619 316:0.14692 317:0.090186 318:0.186331 319:0.21373 320:0.146557 321:0.221281 322:0.197277 323:0.110559 324:0.15336 
1 1:0.284788 2:0.06359 3:0.030733 4:0.010539 5:0.038051 6:0.095724 7:0.256789 8:0.243663 9:0.29886 10:0.29886 11:0.014295 12:0.004208 13:0.02789 14:0.056675 15:0.093267 16:0.29886 17:0.29886 18:0.29886 19:0.107388 20:0.046815 21:0.024291 22:0.024855 23:0.011763 24:0.067893 25:0.173811 26:0.157067 27:0.125689 28:0.048478 29:0.030643 30:0.014668 31:0.03821 32:0.025952 33:0.155133 34:0.29886 35:0.29886 36:0.129202 37:0.306584 38:0.031709 39:0.017853 40:0.01183 41:0.019439 42:0.039568 43:0.200062 44:0.239882 45:0.306584 46:0.306584 47:0.097863 48:0.074524 49:0.022878 50:0.01313 51:0.031775 52:0.033792 53:0.083309 54:0.306584 55:0.069818 56:0.046756 57:0.038734 58:0.028162 59:0.040619 60:0.212764 61:0.306584 62:0.306584 63:0.119963 64:0.199245 65:0.210664 66:0.162909 67:0.060333 68:0.031423 69:0.143558 70:0.216781 71:0.13049 72:0.191158 73:0.28733 74:0.16303 75:0.144753 76:0.035918 77:0.007845 78:0.00783 79:0.014039 80:0.045259 81:0.28733 82:0.28733 83:0.241696 84:0.199273 85:0.074224 86:0.010569 87:0.005918 88:0.023514 89:0.023088 90:0.28733 91:0.194242 92:0.28733 93:0.28733 94:0.088793 95:0.010573 96:0.028624 97:0.05115 98:0.067272 99:0.134218 100:0.253547 101:0.28733 102:0.28733 103:0.162241 104:0.023107 105:0.024225 106:0.061977 107:0.032903 108:0.110657 109:0.12679 110:0.088531 111:0.041943 112:0.046451 113:0.042779 114:0.17143 115:0.235145 116:0.25007 117:0.224709 118:0.162239 119:0.101289 120:0.034988 121:0.091284 122:0.082665 123:0.281781 124:0.281781 125:0.281781 126:0.200844 127:0.031857 128:0.016124 129:0.030671 130:0.056845 131:0.184718 132:0.281781 133:0.218569 134:0.109372 135:0.076283 136:0.07329 137:0.040206 138:0.250215 139:0.281781 140:0.190102 141:0.162196 142:0.157955 143:0.093844 144:0.092643 145:0.04315 146:0.031098 147:0.051697 148:0.07452 149:0.064059 150:0.240947 151:0.257824 152:0.200688 153:0.049688 154:0.148703 155:0.156569 156:0.216142 157:0.147997 158:0.065914 159:0.18353 160:0.257824 161:0.19842 162:0.139823 163:0.025496 164:0.018277 165:0.257824 166:0.257824 167:0.120853 168:0.106528 169:0.140025 170:0.062915 171:0.034229 172:0.1296 173:0.056116 174:0.257824 175:0.257824 176:0.149553 177:0.161053 178:0.257824 179:0.22315 180:0.185034 181:0.187923 182:0.238695 183:0.238695 184:0.124462 185:0.04783 186:0.113869 187:0.192926 188:0.127555 189:0.152889 190:0.227466 191:0.238695 192:0.238695 193:0.140593 194:0.073084 195:0.110232 196:0.096931 197:0.070281 198:0.105359 199:0.17426 200:0.082647 201:0.145399 202:0.156659 203:0.080639 204:0.238695 205:0.238695 206:0.238695 207:0.203729 208:0.079985 209:0.055303 210:0.072408 211:0.108564 212:0.090905 213:0.238695 214:0.238695 215:0.238695 216:0.069734 217:0.019442 218:0.030525 219:0.060803 220:0.127443 221:0.195526 222:0.170514 223:0.037291 224:0.006596 225:0.010556 226:0.04039 227:0.093444 228:0.333252 229:0.333252 230:0.147398 231:0.036802 232:0.014687 233:0.006492 234:0.016074 235:0.025036 236:0.09199 237:0.219655 238:0.333252 239:0.333252 240:0.106354 241:0.02148 242:0.010381 243:0.012849 244:0.053745 245:0.231334 246:0.333252 247:0.333252 248:0.277719 249:0.045588 250:0.020257 251:0.019026 252:0.022452 253:0.020961 254:0.055183 255:0.311936 256:0.311936 257:0.15969 258:0.038848 259:0.01107 260:0.006899 261:0.009541 262:0.085171 263:0.028212 264:0.311936 265:0.311936 266:0.208146 267:0.177133 268:0.110025 269:0.124543 270:0.087746 271:0.027021 272:0.135451 273:0.311936 274:0.311936 275:0.13249 276:0.047998 277:0.017861 278:0.018851 279:0.007525 280:0.011891 281:0.037922 282:0.177797 283:0.307149 284:0.239153 285:0.191753 286:0.04951 287:0.024894 288:0.00239 289:0.130922 290:0.03528 291:0.08839 292:0.126887 293:0.150276 294:0.266449 295:0.27901 296:0.27901 297:0.14705 298:0.078776 299:0.031544 300:0.054381 301:0.058742 302:0.091081 303:0.248782 304:0.27901 305:0.27901 306:0.095155 307:0.01811 308:0.036269 309:0.035832 310:0.152156 311:0.27901 312:0.188432 313:0.141425 314:0.077913 315:0.0117 316:0.100676 317:0.185816 318:0.057734 319:0.089409 320:0.178552 321:0.137161 322:0.27901 323:0.27901 324:0.086352 
1 1:0.291549 2:0.212041 3:0.119228 4:0.023851 5:0.018412 6:0.00759 7:0.015654 8:0.031583 9:0.25918 10:0.291549 11:0.291549 12:0.291549 13:0.043028 14:0.018845 15:0.014839 16:0.004936 17:0.030193 18:0.291549 19:0.066269 20:0.076709 21:0.291549 22:0.194094 23:0.046184 24:0.027715 25:0.138138 26:0.221802 27:0.048349 28:0.112348 29:0.291549 30:0.291549 31:0.203261 32:0.062423 33:0.026424 34:0.022424 35:0.042331 36:0.053528 37:0.289557 38:0.289557 39:0.289557 40:0.115153 41:0.099855 42:0.078187 43:0.047287 44:0.037319 45:0.287206 46:0.289557 47:0.149283 48:0.102269 49:0.106533 50:0.12522 51:0.127776 52:0.072672 53:0.055957 54:0.289557 55:0.105906 56:0.289557 57:0.289557 58:0.186934 59:0.111907 60:0.066479 61:0.041145 62:0.033913 63:0.043039 64:0.067329 65:0.086318 66:0.18766 67:0.2182 68:0.151939 69:0.111082 70:0.08481 71:0.053878 72:0.045812 73:0.390966 74:0.074849 75:0.043763 76:0.024256 77:0.041111 78:0.046567 79:0.027071 80:0.046881 81:0.390966 82:0.390966 83:0.021703 84:0.006251 85:0.001202 86:0.006016 87:0.000215 88:0.003708 89:0.014965 90:0.390966 91:0.264208 92:0.090591 93:0.114489 94:0.110231 95:0.113267 96:0.065548 97:0.072766 98:0.048123 99:0.113287 100:0.390966 101:0.088268 102:0.08987 103:0.031424 104:0.030733 105:0.009715 106:0.01646 107:0.041763 108:0.23535 109:0.090619 110:0.062398 111:0.224531 112:0.226908 113:0.084993 114:0.111605 115:0.226908 116:0.226908 117:0.142262 118:0.118514 119:0.169883 120:0.226908 121:0.226908 122:0.156522 123:0.128824 124:0.104175 125:0.096711 126:0.086191 127:0.111972 128:0.0511 129:0.096951 130:0.129652 131:0.14266 132:0.203548 133:0.199734 134:0.179191 135:0.226908 136:0.101774 137:0.084505 138:0.195309 139:0.226908 140:0.226908 141:0.220552 142:0.226908 143:0.172046 144:0.106031 145:0.077316 146:0.186218 147:0.233386 148:0.222716 149:0.227442 150:0.162625 151:0.089642 152:0.051108 153:0.046085 154:0.019195 155:0.050637 156:0.217015 157:0.233386 158:0.233386 159:0.125817 160:0.097038 161:0.037376 162:0.017718 163:0.061824 164:0.067963 165:0.207507 166:0.233386 167:0.233386 168:0.212219 169:0.219375 170:0.168486 171:0.075518 172:0.190302 173:0.169686 174:0.203575 175:0.233386 176:0.233386 177:0.110416 178:0.071136 179:0.147446 180:0.184384 181:0.100607 182:0.067902 183:0.127009 184:0.254443 185:0.240387 186:0.078583 187:0.085372 188:0.038713 189:0.041179 190:0.225592 191:0.160393 192:0.180663 193:0.079234 194:0.07145 195:0.042289 196:0.05581 197:0.056095 198:0.160146 199:0.261054 200:0.261054 201:0.20816 202:0.261054 203:0.242481 204:0.076538 205:0.046312 206:0.102679 207:0.257522 208:0.261054 209:0.261054 210:0.201528 211:0.146684 212:0.058543 213:0.069047 214:0.062411 215:0.066175 216:0.258206 217:0.065175 218:0.044294 219:0.129748 220:0.266153 221:0.266153 222:0.242347 223:0.153272 224:0.0841 225:0.108229 226:0.094566 227:0.091862 228:0.210907 229:0.266153 230:0.252232 231:0.183984 232:0.266153 233:0.170796 234:0.063841 235:0.046084 236:0.048053 237:0.132059 238:0.266153 239:0.266153 240:0.202732 241:0.084985 242:0.022748 243:0.016695 244:0.137823 245:0.130604 246:0.121147 247:0.266153 248:0.162768 249:0.113008 250:0.129756 251:0.069001 252:0.047516 253:0.069987 254:0.084696 255:0.137623 256:0.224714 257:0.141572 258:0.107986 259:0.238309 260:0.238309 261:0.089124 262:0.238309 263:0.238309 264:0.238309 265:0.213723 266:0.128902 267:0.077118 268:0.09881 269:0.190177 270:0.209423 271:0.168843 272:0.222688 273:0.113941 274:0.074649 275:0.051632 276:0.036688 277:0.133044 278:0.109813 279:0.068691 280:0.238309 281:0.238309 282:0.238309 283:0.200646 284:0.124435 285:0.049386 286:0.083905 287:0.188078 288:0.168421 289:0.303377 290:0.269872 291:0.151571 292:0.088988 293:0.049327 294:0.025672 295:0.015192 296:0.043763 297:0.106356 298:0.308727 299:0.308727 300:0.086743 301:0.049837 302:0.016281 303:0.020902 304:0.015269 305:0.015115 306:0.091795 307:0.308727 308:0.308727 309:0.229699 310:0.121958 311:0.072091 312:0.017149 313:0.031308 314:0.082592 315:0.098649 316:0.308727 317:0.308727 318:0.283967 319:0.059676 320:0.033343 321:0.014242 322:0.042709 323:0.033041 324:0.118509 
0.782088766670991 1:0.139002 2:0.234283 3:0.193659 4:0.081077 5:0.085882 6:0.038758 7:0.058673 8:0.09229 9:0.103546 10:0.17339 11:0.234283 12:0.234283 13:0.06117 14:0.15606 15:0.108785 16:0.144732 17:0.155536 18:0.173279 19:0.234283 20:0.226303 21:0.139786 22:0.075539 23:0.05505 24:0.045227 25:0.234283 26:0.234283 27:0.161657 28:0.234283 29:0.234283 30:0.234283 31:0.203864 32:0.139243 33:0.126909 34:0.19785 35:0.114021 36:0.163329 37:0.100278 38:0.228414 39:0.328941 40:0.102026 41:0.102461 42:0.048783 43:0.075513 44:0.075935 45:0.087064 46:0.056184 47:0.244071 48:0.328941 49:0.194081 50:0.163278 51:0.071764 52:0.045293 53:0.024722 54:0.030999 55:0.103263 56:0.243742 57:0.328941 58:0.232571 59:0.15462 60:0.094645 61:0.068062 62:0.034961 63:0.054882 64:0.070802 65:0.275674 66:0.328941 67:0.172758 68:0.16968 69:0.094739 70:0.04555 71:0.048505 72:0.067591 73:0.092051 74:0.108259 75:0.218919 76:0.103777 77:0.218919 78:0.178348 79:0.150896 80:0.071097 81:0.098582 82:0.147751 83:0.062627 84:0.113094 85:0.068702 86:0.180407 87:0.141641 88:0.218919 89:0.175944 90:0.196081 91:0.152795 92:0.16482 93:0.218919 94:0.100078 95:0.218919 96:0.155714 97:0.139284 98:0.134042 99:0.149047 100:0.218919 101:0.190869 102:0.218919 103:0.130999 104:0.218919 105:0.136291 106:0.218919 107:0.218919 108:0.190896 109:0.129038 110:0.073045 111:0.050081 112:0.047157 113:0.031276 114:0.05881 115:0.256213 116:0.256213 117:0.182095 118:0.171354 119:0.128887 120:0.256213 121:0.256213 122:0.098132 123:0.14386 124:0.256213 125:0.202489 126:0.179981 127:0.041365 128:0.013992 129:0.036953 130:0.074898 131:0.089045 132:0.116065 133:0.143444 134:0.212948 135:0.104313 136:0.100555 137:0.104282 138:0.19864 139:0.209717 140:0.160786 141:0.224071 142:0.256213 143:0.256213 144:0.190638 145:0.045075 146:0.174609 147:0.272235 148:0.272235 149:0.126684 150:0.10777 151:0.067099 152:0.029187 153:0.057568 154:0.054294 155:0.265154 156:0.272235 157:0.20391 158:0.172154 159:0.096137 160:0.069143 161:0.058869 162:0.090992 163:0.117083 164:0.23834 165:0.272235 166:0.173204 167:0.084927 168:0.095898 169:0.161276 170:0.161144 171:0.151225 172:0.135033 173:0.272235 174:0.272235 175:0.24403 176:0.137772 177:0.071376 178:0.081144 179:0.047049 180:0.105316 181:0.094697 182:0.214153 183:0.194005 184:0.130302 185:0.192467 186:0.112943 187:0.118617 188:0.100079 189:0.108782 190:0.23656 191:0.23656 192:0.23656 193:0.148913 194:0.160746 195:0.085731 196:0.085501 197:0.090287 198:0.125693 199:0.133913 200:0.23656 201:0.23656 202:0.23656 203:0.19315 204:0.123749 205:0.077897 206:0.04781 207:0.071756 208:0.23656 209:0.23656 210:0.23656 211:0.186492 212:0.165984 213:0.122107 214:0.080068 215:0.11408 216:0.177419 217:0.160068 218:0.095591 219:0.121162 220:0.13032 221:0.134026 222:0.143951 223:0.063244 224:0.074894 225:0.091962 226:0.189475 227:0.11105 228:0.103222 229:0.157824 230:0.203889 231:0.225184 232:0.225184 233:0.225184 234:0.178807 235:0.225184 236:0.182539 237:0.197305 238:0.169623 239:0.225184 240:0.113944 241:0.106783 242:0.154732 243:0.100108 244:0.225184 245:0.158281 246:0.133446 247:0.184896 248:0.225184 249:0.207117 250:0.168439 251:0.186321 252:0.140993 253:0.134866 254:0.09146 255:0.127199 256:0.077907 257:0.075807 258:0.109256 259:0.228453 260:0.228453 261:0.194732 262:0.125411 263:0.126786 264:0.228453 265:0.228453 266:0.127049 267:0.111495 268:0.154644 269:0.228453 270:0.144095 271:0.101845 272:0.129621 273:0.16324 274:0.196137 275:0.177682 276:0.094494 277:0.151104 278:0.210028 279:0.115222 280:0.087977 281:0.215442 282:0.228453 283:0.228453 284:0.228453 285:0.13422 286:0.156803 287:0.228453 288:0.093661 289:0.115894 290:0.174674 291:0.226866 292:0.226866 293:0.139458 294:0.18 295:0.114096 296:0.128192 297:0.059339 298:0.176237 299:0.226866 300:0.18951 301:0.161037 302:0.144233 303:0.168614 304:0.14908 305:0.212243 306:0.127867 307:0.052571 308:0.118633 309:0.226866 310:0.226866 311:0.188191 312:0.216477 313:0.156495 314:0.169015 315:0.054105 316:0.072729 317:0.06695 318:0.097292 319:0.12562 320:0.143428 321:0.216606 322:0.226866 323:0.226866 324:0.159126 
1 1:0.13857 2:0.144777 3:0.083437 4:0.053356 5:0.132247 6:0.159993 7:0.235578 8:0.174716 9:0.131943 10:0.178525 11:0.193183 12:0.167442 13:0.077536 14:0.127776 15:0.136794 16:0.235578 17:0.217807 18:0.235578 19:0.122807 20:0.176287 21:0.109512 22:0.067302 23:0.085295 24:0.235578 25:0.235578 26:0.142147 27:0.105772 28:0.18439 29:0.235578 30:0.235578 31:0.098536 32:0.079139 33:0.125754 34:0.191763 35:0.235041 36:0.152652 37:0.088244 38:0.119684 39:0.117563 40:0.059994 41:0.145399 42:0.202109 43:0.227837 44:0.19176 45:0.148072 46:0.093436 47:0.083948 48:0.078396 49:0.123968 50:0.163484 51:0.227837 52:0.227837 53:0.179051 54:0.205696 55:0.084624 56:0.227837 57:0.227837 58:0.108348 59:0.1797 60:0.21435 61:0.226184 62:0.100842 63:0.05984 64:0.126173 65:0.14283 66:0.133299 67:0.15126 68:0.226113 69:0.227837 70:0.227837 71:0.159963 72:0.141481 73:0.081719 74:0.077594 75:0.056489 76:0.112553 77:0.16475 78:0.193255 79:0.205085 80:0.209477 81:0.209477 82:0.087096 83:0.119662 84:0.097077 85:0.106655 86:0.209477 87:0.209477 88:0.209477 89:0.194257 90:0.174961 91:0.20797 92:0.153022 93:0.135634 94:0.127552 95:0.154135 96:0.146096 97:0.182583 98:0.209477 99:0.174199 100:0.209477 101:0.167553 102:0.165366 103:0.145679 104:0.157729 105:0.112693 106:0.209477 107:0.209477 108:0.180238 109:0.142711 110:0.162751 111:0.133956 112:0.10602 113:0.138741 114:0.226638 115:0.197595 116:0.12963 117:0.086791 118:0.182624 119:0.226638 120:0.226638 121:0.169061 122:0.154527 123:0.122166 124:0.18218 125:0.226638 126:0.12641 127:0.144744 128:0.115431 129:0.21888 130:0.157829 131:0.133472 132:0.112339 133:0.080039 134:0.116955 135:0.088136 136:0.167261 137:0.123209 138:0.19371 139:0.184784 140:0.226638 141:0.123585 142:0.226638 143:0.226638 144:0.184734 145:0.08132 146:0.215462 147:0.215462 148:0.179644 149:0.168175 150:0.137484 151:0.140194 152:0.120553 153:0.07025 154:0.146593 155:0.215462 156:0.200825 157:0.192476 158:0.170899 159:0.213006 160:0.15596 161:0.131192 162:0.154408 163:0.075642 164:0.096441 165:0.187841 166:0.157678 167:0.147305 168:0.126603 169:0.215462 170:0.166458 171:0.154487 172:0.091871 173:0.212015 174:0.215462 175:0.140482 176:0.109981 177:0.178167 178:0.215462 179:0.177927 180:0.205416 181:0.205546 182:0.187239 183:0.160244 184:0.117697 185:0.085542 186:0.099692 187:0.090328 188:0.170612 189:0.170838 190:0.214016 191:0.187119 192:0.186432 193:0.159282 194:0.076372 195:0.061543 196:0.151961 197:0.197074 198:0.188744 199:0.129999 200:0.214016 201:0.214016 202:0.094348 203:0.080896 204:0.136568 205:0.108338 206:0.214016 207:0.214016 208:0.214016 209:0.212316 210:0.214016 211:0.175468 212:0.071529 213:0.140079 214:0.154996 215:0.203006 216:0.214016 217:0.139372 218:0.151558 219:0.230624 220:0.152951 221:0.100542 222:0.065396 223:0.082644 224:0.087692 225:0.090605 226:0.166276 227:0.126092 228:0.180792 229:0.115449 230:0.114987 231:0.170658 232:0.230624 233:0.182361 234:0.175901 235:0.200483 236:0.227339 237:0.230624 238:0.181343 239:0.157852 240:0.069527 241:0.076017 242:0.116998 243:0.18579 244:0.230624 245:0.230624 246:0.230624 247:0.167945 248:0.147732 249:0.176628 250:0.22198 251:0.096256 252:0.176911 253:0.078597 254:0.074224 255:0.148728 256:0.083474 257:0.083139 258:0.198806 259:0.225799 260:0.106552 261:0.113167 262:0.081263 263:0.171217 264:0.225799 265:0.155429 266:0.125865 267:0.204909 268:0.225799 269:0.128399 270:0.103769 271:0.1636 272:0.225799 273:0.225799 274:0.157929 275:0.102199 276:0.164072 277:0.225799 278:0.079641 279:0.079973 280:0.148206 281:0.20592 282:0.225799 283:0.225799 284:0.18597 285:0.178526 286:0.225799 287:0.191336 288:0.114458 289:0.119069 290:0.174718 291:0.215563 292:0.13679 293:0.128985 294:0.146329 295:0.090229 296:0.147547 297:0.107268 298:0.205533 299:0.215563 300:0.215563 301:0.148587 302:0.11497 303:0.151929 304:0.101374 305:0.125519 306:0.204096 307:0.210137 308:0.125617 309:0.184918 310:0.189042 311:0.190113 312:0.141067 313:0.107932 314:0.140384 315:0.117486 316:0.215563 317:0.215563 318:0.212628 319:0.148424 320:0.211305 321:0.166473 322:0.054838 323:0.184841 324:0.215563 
0.02609279142099902 1:0.047491 2:0.02445 3:0.015453 4:0.043913 5:0.062268 6:0.272161 7:0.32254 8:0.100244 9:0.069912 10:0.040138 11:0.09287 12:0.112319 13:0.074115 14:0.051418 15:0.077546 16:0.083713 17:0.061496 18:0.034771 19:0.041447 20:0.075939 21:0.145641 22:0.087579 23:0.145791 24:0.32254 25:0.32254 26:0.070079 27:0.086972 28:0.179158 29:0.32254 30:0.32254 31:0.108159 32:0.118466 33:0.308679 34:0.270996 35:0.11103 36:0.143996 37:0.063251 38:0.203568 39:0.156611 40:0.062293 41:0.038299 42:0.021009 43:0.024282 44:0.035495 45:0.03374 46:0.118403 47:0.223323 48:0.13911 49:0.025822 50:0.021325 51:0.033269 52:0.081262 53:0.16143 54:0.149686 55:0.309738 56:0.309738 57:0.309738 58:0.035497 59:0.032147 60:0.085472 61:0.088065 62:0.181267 63:0.259815 64:0.309738 65:0.309738 66:0.115513 67:0.00812 68:0.012755 69:0.07918 70:0.167533 71:0.190705 72:0.309738 73:0.138379 74:0.077193 75:0.056158 76:0.00955 77:0.007019 78:0.021932 79:0.043332 80:0.116284 81:0.176307 82:0.384739 83:0.111761 84:0.022049 85:0.006928 86:0.010598 87:0.010582 88:0.007554 89:0.034932 90:0.180226 91:0.384739 92:0.384739 93:0.01917 94:0.002519 95:0.002902 96:0.016495 97:0.042121 98:0.053337 99:0.268728 100:0.384739 101:0.384739 102:0.009083 103:0.00272 104:0.013683 105:0.006484 106:0.007355 107:0.010401 108:0.235991 109:0.021678 110:0.072356 111:0.190851 112:0.112011 113:0.128008 114:0.221446 115:0.186107 116:0.025768 117:0.033284 118:0.095079 119:0.25344 120:0.25344 121:0.165766 122:0.118459 123:0.17232 124:0.122238 125:0.086982 126:0.123482 127:0.046551 128:0.06328 129:0.25344 130:0.175296 131:0.174573 132:0.199998 133:0.250911 134:0.057006 135:0.013676 136:0.071779 137:0.156076 138:0.25344 139:0.219986 140:0.184556 141:0.25344 142:0.25344 143:0.21282 144:0.080875 145:0.229931 146:0.287509 147:0.202951 148:0.038032 149:0.018409 150:0.044155 151:0.051074 152:0.156544 153:0.260536 154:0.287509 155:0.205111 156:0.02112 157:0.001883 158:0.009411 159:0.021527 160:0.053264 161:0.108957 162:0.284561 163:0.208599 164:0.24638 165:0.18922 166:0.070178 167:0.030059 168:0.064562 169:0.150806 170:0.17589 171:0.168665 172:0.287509 173:0.287509 174:0.086458 175:0.014247 176:0.005904 177:0.013332 178:0.033894 179:0.105325 180:0.287509 181:0.33681 182:0.323014 183:0.008762 184:0.001944 185:0.005034 186:0.00174 187:0.010583 188:0.022438 189:0.126748 190:0.33681 191:0.301997 192:0.007163 193:0.002214 194:0.008969 195:0.002886 196:0.013424 197:0.012109 198:0.086407 199:0.33681 200:0.124108 201:0.014116 202:0.000966 203:0.003414 204:0.002125 205:0.012876 206:0.052937 207:0.33681 208:0.33681 209:0.038669 210:0.003055 211:0.000511 212:0.001072 213:0.001965 214:0.02215 215:0.274104 216:0.33681 217:0.043033 218:0.113978 219:0.311129 220:0.167065 221:0.085664 222:0.115719 223:0.293864 224:0.102725 225:0.008206 226:0.072993 227:0.096174 228:0.273284 229:0.139048 230:0.080485 231:0.16962 232:0.311129 233:0.311129 234:0.090986 235:0.03794 236:0.219719 237:0.311129 238:0.094213 239:0.056948 240:0.03504 241:0.072129 242:0.060593 243:0.021731 244:0.030618 245:0.030091 246:0.111573 247:0.075585 248:0.046962 249:0.04726 250:0.311129 251:0.311129 252:0.081532 253:0.122515 254:0.214106 255:0.193662 256:0.075176 257:0.015619 258:0.062831 259:0.280414 260:0.280414 261:0.105828 262:0.280414 263:0.280414 264:0.12213 265:0.036347 266:0.029733 267:0.101377 268:0.168634 269:0.235216 270:0.208355 271:0.034576 272:0.039456 273:0.059608 274:0.039647 275:0.015603 276:0.054257 277:0.280414 278:0.280414 279:0.101335 280:0.046194 281:0.06378 282:0.053682 283:0.040426 284:0.082165 285:0.207861 286:0.280414 287:0.280414 288:0.110268 289:0.361801 290:0.126293 291:0.023032 292:0.005861 293:0.029439 294:0.084531 295:0.121056 296:0.16391 297:0.361801 298:0.361801 299:0.010015 300:0.001212 301:0.002702 302:0.004761 303:0.028821 304:0.06754 305:0.361801 306:0.361801 307:0.074181 308:0.050078 309:0.063092 310:0.065298 311:0.115606 312:0.223177 313:0.189145 314:0.20841 315:0.126649 316:0.085538 317:0.01658 318:0.028243 319:0.026513 320:0.029404 321:0.070007 322:0.101402 323:0.157033 324:0.214088 
0.2518360400682033 1:0.09496 2:0.073742 3:0.202548 4:0.148147 5:0.096032 6:0.145722 7:0.176003 8:0.245535 9:0.245535 10:0.055419 11:0.090416 12:0.179091 13:0.221753 14:0.151799 15:0.242786 16:0.217911 17:0.245535 18:0.138938 19:0.051098 20:0.011 21:0.066765 22:0.065588 23:0.105123 24:0.245535 25:0.245535 26:0.245535 27:0.081509 28:0.030158 29:0.079818 30:0.090375 31:0.121105 32:0.105765 33:0.245535 34:0.245535 35:0.245535 36:0.065883 37:0.069207 38:0.100805 39:0.075474 40:0.073773 41:0.077174 42:0.08867 43:0.095042 44:0.239004 45:0.13446 46:0.088939 47:0.30345 48:0.30345 49:0.073336 50:0.068718 51:0.025243 52:0.06005 53:0.30345 54:0.262031 55:0.064174 56:0.30345 57:0.301869 58:0.082111 59:0.084003 60:0.132902 61:0.194431 62:0.130952 63:0.061158 64:0.060214 65:0.30345 66:0.30345 67:0.118032 68:0.063638 69:0.08849 70:0.105396 71:0.042154 72:0.041216 73:0.070105 74:0.287803 75:0.287803 76:0.247222 77:0.185172 78:0.054696 79:0.093683 80:0.287803 81:0.237911 82:0.164215 83:0.11659 84:0.273477 85:0.215553 86:0.192678 87:0.103616 88:0.125044 89:0.134122 90:0.173828 91:0.035056 92:0.287803 93:0.287803 94:0.155853 95:0.081307 96:0.079462 97:0.080109 98:0.042701 99:0.02509 100:0.090035 101:0.146608 102:0.183247 103:0.107781 104:0.06658 105:0.064343 106:0.039831 107:0.06683 108:0.063481 109:0.039865 110:0.036165 111:0.024397 112:0.079254 113:0.247556 114:0.247556 115:0.247556 116:0.197528 117:0.037166 118:0.058845 119:0.15024 120:0.089104 121:0.068829 122:0.133637 123:0.247556 124:0.247556 125:0.247556 126:0.041795 127:0.056726 128:0.201423 129:0.210326 130:0.247556 131:0.247556 132:0.072673 133:0.056218 134:0.057555 135:0.017871 136:0.096786 137:0.244956 138:0.199422 139:0.247556 140:0.232827 141:0.125072 142:0.221008 143:0.095247 144:0.021757 145:0.079575 146:0.238764 147:0.238764 148:0.099992 149:0.139777 150:0.158802 151:0.238764 152:0.106971 153:0.049071 154:0.054954 155:0.238764 156:0.238764 157:0.146402 158:0.215241 159:0.238764 160:0.238764 161:0.039127 162:0.030602 163:0.10482 164:0.128621 165:0.125829 166:0.212463 167:0.209182 168:0.124092 169:0.238764 170:0.086403 171:0.040435 172:0.086063 173:0.081062 174:0.096581 175:0.197611 176:0.238764 177:0.236325 178:0.234807 179:0.055348 180:0.056481 181:0.029255 182:0.169892 183:0.210245 184:0.162056 185:0.230652 186:0.230652 187:0.208628 188:0.040082 189:0.015619 190:0.20862 191:0.214399 192:0.230652 193:0.120209 194:0.175387 195:0.080164 196:0.097656 197:0.101924 198:0.127086 199:0.040629 200:0.04193 201:0.081423 202:0.207135 203:0.230652 204:0.230652 205:0.137021 206:0.040072 207:0.03486 208:0.182405 209:0.123857 210:0.230652 211:0.108336 212:0.230652 213:0.132614 214:0.230652 215:0.208943 216:0.230652 217:0.054245 218:0.264996 219:0.291656 220:0.291656 221:0.091036 222:0.006155 223:0.00454 224:0.008369 225:0.013748 226:0.050322 227:0.172426 228:0.291656 229:0.291656 230:0.291656 231:0.044496 232:0.076717 233:0.041603 234:0.009704 235:0.068197 236:0.241278 237:0.275363 238:0.199675 239:0.180406 240:0.042855 241:0.00758 242:0.002682 243:0.011099 244:0.006214 245:0.051105 246:0.215861 247:0.291656 248:0.291656 249:0.121233 250:0.026952 251:0.010827 252:0.000765 253:0.058623 254:0.057021 255:0.101555 256:0.287927 257:0.219001 258:0.127524 259:0.234591 260:0.097211 261:0.023543 262:0.041255 263:0.046357 264:0.083012 265:0.149615 266:0.206538 267:0.287927 268:0.287927 269:0.092963 270:0.03344 271:0.010097 272:0.019044 273:0.060889 274:0.287927 275:0.287927 276:0.24201 277:0.142108 278:0.056608 279:0.011556 280:0.0092 281:0.021763 282:0.025417 283:0.103866 284:0.287927 285:0.287927 286:0.287927 287:0.060364 288:0.013739 289:0.026052 290:0.04594 291:0.128251 292:0.252022 293:0.360548 294:0.360548 295:0.175836 296:0.058675 297:0.030778 298:0.089048 299:0.034397 300:0.082451 301:0.062023 302:0.166591 303:0.106283 304:0.143922 305:0.142378 306:0.15276 307:0.00271 308:0.013294 309:0.034601 310:0.164278 311:0.360548 312:0.360548 313:0.360548 314:0.031501 315:0.007303 316:0.026447 317:0.036684 318:0.037403 319:0.039701 320:0.211035 321:0.150616 322:0.044659 323:0.027726 324:0.028581 
1 1:0.311174 2:0.072888 3:0.024409 4:0.028466 5:0.055846 6:0.091926 7:0.173575 8:0.311174 9:0.311174 10:0.311174 11:0.011566 12:0.001318 13:0.001192 14:0.00709 15:0.023177 16:0.141295 17:0.311174 18:0.311174 19:0.066587 20:0.018354 21:0.010916 22:0.02352 23:0.020926 24:0.042956 25:0.113279 26:0.247995 27:0.248302 28:0.04865 29:0.001733 30:0.001161 31:0.006743 32:0.026413 33:0.07101 34:0.177046 35:0.311174 36:0.258392 37:0.32386 38:0.006053 39:0.007645 40:0 41:0.004816 42:0.009526 43:0.044939 44:0.153193 45:0.32386 46:0.32386 47:0.219248 48:0.175946 49:0.000811 50:0.006721 51:0.007281 52:0.015046 53:0.155873 54:0.32386 55:0.03909 56:0.044941 57:0.12602 58:0.028978 59:0.051549 60:0.090335 61:0.164443 62:0.19774 63:0.157757 64:0.135587 65:0.32386 66:0.32386 67:0.077224 68:0.068636 69:0.078111 70:0.113439 71:0.114108 72:0.234398 73:0.299591 74:0.312159 75:0.196412 76:0.00267 77:0.003887 78:0.001309 79:0.003098 80:0.043312 81:0.198614 82:0.312159 83:0.312159 84:0.221509 85:0.057188 86:0.057441 87:0.015524 88:0.025184 89:0.009799 90:0.100212 91:0.121239 92:0.312159 93:0.312159 94:0.091674 95:0.022984 96:0.009282 97:0.013834 98:0.019597 99:0.090822 100:0.161961 101:0.312159 102:0.312159 103:0.120147 104:0.047388 105:0.003085 106:0.02863 107:0.015632 108:0.043727 109:0.071623 110:0.030721 111:0.042638 112:0.093262 113:0.065471 114:0.112848 115:0.127766 116:0.260354 117:0.216268 118:0.060761 119:0.005881 120:0.090917 121:0.225213 122:0.243262 123:0.260354 124:0.178837 125:0.260354 126:0.256445 127:0.053162 128:0.074807 129:0.172345 130:0.260354 131:0.236467 132:0.135072 133:0.10971 134:0.120543 135:0.098087 136:0.043222 137:0.073927 138:0.260354 139:0.260354 140:0.260354 141:0.155534 142:0.065791 143:0.102969 144:0.107864 145:0.015117 146:0.03346 147:0.133219 148:0.111908 149:0.172799 150:0.181474 151:0.172629 152:0.098911 153:0.062181 154:0.217025 155:0.238466 156:0.238466 157:0.162839 158:0.215283 159:0.238466 160:0.225715 161:0.109235 162:0.238466 163:0.006295 164:0.043684 165:0.125763 166:0.206284 167:0.186272 168:0.128618 169:0.085405 170:0.051383 171:0.032994 172:0.138184 173:0.115988 174:0.134581 175:0.153164 176:0.227235 177:0.238466 178:0.238466 179:0.220718 180:0.196634 181:0.239134 182:0.239134 183:0.239134 184:0.192377 185:0.090555 186:0.067212 187:0.061302 188:0.061006 189:0.228496 190:0.127517 191:0.239134 192:0.239134 193:0.187516 194:0.056219 195:0.046402 196:0.098593 197:0.097278 198:0.06101 199:0.216182 200:0.107619 201:0.120694 202:0.131253 203:0.101522 204:0.16751 205:0.239134 206:0.230272 207:0.211075 208:0.222437 209:0.054333 210:0.132933 211:0.134405 212:0.101625 213:0.173744 214:0.19351 215:0.206643 216:0.174811 217:0.157329 218:0.113536 219:0.121382 220:0.144833 221:0.086402 222:0.022434 223:0.039196 224:0.035265 225:0.110364 226:0.115199 227:0.130002 228:0.25696 229:0.209357 230:0.09306 231:0.028984 232:0.025654 233:0.073517 234:0.121846 235:0.303762 236:0.321742 237:0.321742 238:0.139799 239:0.075164 240:0.028302 241:0.151481 242:0.091177 243:0.131012 244:0.316251 245:0.321742 246:0.321742 247:0.103669 248:0.059917 249:0.005845 250:0.012592 251:0.040869 252:0.181899 253:0.077943 254:0.187273 255:0.268515 256:0.2106 257:0.128002 258:0.06063 259:0.033374 260:0.089 261:0.098162 262:0.125944 263:0.153669 264:0.173496 265:0.115328 266:0.117283 267:0.137854 268:0.268515 269:0.268515 270:0.141067 271:0.268515 272:0.268515 273:0.268515 274:0.063389 275:0.04391 276:0.006194 277:0.021151 278:0.115695 279:0.268515 280:0.208843 281:0.124016 282:0.058008 283:0.026314 284:0.024626 285:0.00371 286:0.071805 287:0.268515 288:0.268515 289:0.146808 290:0.062077 291:0.136266 292:0.117206 293:0.056395 294:0.149816 295:0.251755 296:0.251755 297:0.23697 298:0.236486 299:0.045376 300:0.170377 301:0.168091 302:0.1096 303:0.207844 304:0.251755 305:0.251755 306:0.251755 307:0.081256 308:0.038018 309:0.051928 310:0.026904 311:0.027337 312:0.026307 313:0.102231 314:0.251755 315:0.251755 316:0.097556 317:0.031863 318:0.053407 319:0.046793 320:0.071935 321:0.123052 322:0.251755 323:0.251755 324:0.240493 
0.4421579642039306 1:0.030437 2:0.066661 3:0.121277 4:0.273795 5:0.273795 6:0.156331 7:0.104614 8:0.017044 9:0.020075 10:0.053453 11:0.061115 12:0.123452 13:0.229173 14:0.273795 15:0.273795 16:0.273795 17:0.139715 18:0.058591 19:0.033781 20:0.049146 21:0.273795 22:0.273795 23:0.234186 24:0.067865 25:0.02218 26:0.008805 27:0.014203 28:0.038998 29:0.048136 30:0.229981 31:0.273795 32:0.273795 33:0.177651 34:0.126089 35:0.021236 36:0.026695 37:0.045671 38:0.022756 39:0.039191 40:0.081748 41:0.187774 42:0.266939 43:0.266939 44:0.138818 45:0.130384 46:0.116003 47:0.088979 48:0.023915 49:0.082077 50:0.169313 51:0.211606 52:0.19148 53:0.266939 54:0.266939 55:0.009678 56:0.048804 57:0.099219 58:0.21971 59:0.266939 60:0.198034 61:0.116304 62:0.013321 63:0.012455 64:0.056991 65:0.266939 66:0.266939 67:0.201087 68:0.266939 69:0.187255 70:0.077097 71:0.071221 72:0.052006 73:0.14135 74:0.252301 75:0.073799 76:0.051568 77:0.083551 78:0.056359 79:0.173602 80:0.300597 81:0.24682 82:0.082312 83:0.233341 84:0.102963 85:0.060651 86:0.078302 87:0.088385 88:0.153476 89:0.300597 90:0.159039 91:0.142708 92:0.300597 93:0.300597 94:0.08357 95:0.119618 96:0.069998 97:0.065442 98:0.17516 99:0.115745 100:0.117025 101:0.300597 102:0.183352 103:0.079487 104:0.108624 105:0.111734 106:0.082659 107:0.15765 108:0.097127 109:0.056017 110:0.076445 111:0.211448 112:0.352201 113:0.116886 114:0.036147 115:0.032967 116:0.038966 117:0.046826 118:0.077388 119:0.162502 120:0.322791 121:0.29527 122:0.217466 123:0.05509 124:0.046718 125:0.032613 126:0.052457 127:0.053027 128:0.113043 129:0.30952 130:0.188552 131:0.064131 132:0.019677 133:0.024368 134:0.039062 135:0.051171 136:0.102758 137:0.352201 138:0.352201 139:0.311558 140:0.053565 141:0.01133 142:0.018976 143:0.024304 144:0.055025 145:0.014066 146:0.112876 147:0.23499 148:0.217232 149:0.281699 150:0.053693 151:0.030439 152:0.016957 153:0.011365 154:0.02132 155:0.281699 156:0.281699 157:0.204048 158:0.281699 159:0.084552 160:0.053036 161:0.046433 162:0.018716 163:0.019684 164:0.139876 165:0.281699 166:0.195777 167:0.119815 168:0.068233 169:0.141544 170:0.087285 171:0.024684 172:0.013076 173:0.1148 174:0.281699 175:0.140588 176:0.169657 177:0.138917 178:0.281699 179:0.281699 180:0.038285 181:0.09883 182:0.341494 183:0.341494 184:0.200644 185:0.187491 186:0.103386 187:0.056009 188:0.071651 189:0.057397 190:0.08001 191:0.33815 192:0.1359 193:0.104649 194:0.169931 195:0.080865 196:0.020288 197:0.023242 198:0.035417 199:0.026978 200:0.10111 201:0.174065 202:0.166764 203:0.228716 204:0.177564 205:0.341494 206:0.341494 207:0.062012 208:0.015718 209:0.028356 210:0.018945 211:0.112238 212:0.203858 213:0.067738 214:0.108166 215:0.076131 216:0.022319 217:0.020093 218:0.053677 219:0.340352 220:0.232114 221:0.031734 222:0.007192 223:0.005888 224:0.007422 225:0.007694 226:0.032854 227:0.149588 228:0.359646 229:0.354089 230:0.027532 231:0.006866 232:0.005221 233:0.001534 234:0.005562 235:0.037083 236:0.052105 237:0.359646 238:0.359646 239:0.088453 240:0.017465 241:0.022099 242:0.014424 243:0.022265 244:0.013473 245:0.051839 246:0.359646 247:0.359646 248:0.09167 249:0.021008 250:0.016115 251:0.010086 252:0.016905 253:0.029295 254:0.083407 255:0.338403 256:0.192081 257:0.039586 258:0.034641 259:0.127031 260:0.082153 261:0.025194 262:0.044505 263:0.041949 264:0.225871 265:0.145079 266:0.100972 267:0.094337 268:0.338403 269:0.338403 270:0.054597 271:0.041222 272:0.039324 273:0.293473 274:0.201571 275:0.067519 276:0.032488 277:0.05288 278:0.02885 279:0.038659 280:0.100244 281:0.089906 282:0.338403 283:0.338403 284:0.154346 285:0.06106 286:0.182029 287:0.182205 288:0.048996 289:0.017861 290:0.033227 291:0.228074 292:0.190352 293:0.175236 294:0.131662 295:0.343564 296:0.343564 297:0.049763 298:0.004968 299:0.014265 300:0.079051 301:0.097115 302:0.164648 303:0.091962 304:0.153688 305:0.103535 306:0.019176 307:0.041083 308:0.102489 309:0.343564 310:0.343564 311:0.214815 312:0.098744 313:0.23975 314:0.208677 315:0.023929 316:0.0086 317:0.031992 318:0.257238 319:0.130354 320:0.145172 321:0.077414 322:0.10483 323:0.075469 324:0.018648 
0.9887551051601732 1:0.095253 2:0.092507 3:0.077066 4:0.0591 5:0.055002 6:0.030869 7:0.250836 8:0.18249 9:0.062309 10:0.135167 11:0.236801 12:0.223956 13:0.079825 14:0.074288 15:0.044081 16:0.049774 17:0.058822 18:0.06942 19:0.196538 20:0.220012 21:0.051874 22:0.040435 23:0.043302 24:0.136737 25:0.281624 26:0.281624 27:0.139292 28:0.281624 29:0.281624 30:0.281624 31:0.079836 32:0.027088 33:0.031818 34:0.165723 35:0.281624 36:0.272326 37:0.146446 38:0.259891 39:0.14283 40:0.078216 41:0.051032 42:0.030016 43:0.041097 44:0.071105 45:0.078004 46:0.212737 47:0.259891 48:0.059944 49:0.11278 50:0.096451 51:0.109903 52:0.09573 53:0.122988 54:0.136615 55:0.259891 56:0.259891 57:0.235945 58:0.062009 59:0.042396 60:0.050886 61:0.15179 62:0.23418 63:0.210527 64:0.229994 65:0.259891 66:0.139891 67:0.105358 68:0.134466 69:0.186235 70:0.259891 71:0.207774 72:0.19061 73:0.131517 74:0.160919 75:0.033316 76:0.073171 77:0.152657 78:0.230309 79:0.209902 80:0.151058 81:0.128448 82:0.051245 83:0.033571 84:0.025813 85:0.060322 86:0.230309 87:0.230309 88:0.138908 89:0.122597 90:0.077996 91:0.230309 92:0.230309 93:0.15008 94:0.103741 95:0.168167 96:0.230309 97:0.230309 98:0.163778 99:0.213576 100:0.230309 101:0.2127 102:0.132198 103:0.068519 104:0.149827 105:0.207239 106:0.158445 107:0.153617 108:0.230309 109:0.09956 110:0.148138 111:0.069631 112:0.07337 113:0.065873 114:0.144347 115:0.205148 116:0.131375 117:0.089864 118:0.276312 119:0.276312 120:0.095228 121:0.057493 122:0.060046 123:0.070181 124:0.122439 125:0.276312 126:0.183283 127:0.071324 128:0.119943 129:0.276312 130:0.267224 131:0.077715 132:0.106606 133:0.119545 134:0.244422 135:0.148971 136:0.154672 137:0.114204 138:0.069155 139:0.098849 140:0.099253 141:0.106194 142:0.240446 143:0.276312 144:0.276312 145:0.205501 146:0.225776 147:0.089652 148:0.032743 149:0.060397 150:0.067027 151:0.183201 152:0.241518 153:0.14859 154:0.149599 155:0.137638 156:0.097263 157:0.061366 158:0.12395 159:0.144165 160:0.234095 161:0.163874 162:0.239813 163:0.151166 164:0.122325 165:0.122587 166:0.042575 167:0.096407 168:0.072708 169:0.212576 170:0.241518 171:0.241518 172:0.224778 173:0.191344 174:0.241518 175:0.045897 176:0.119984 177:0.100622 178:0.164983 179:0.233585 180:0.241518 181:0.274612 182:0.184056 183:0.099021 184:0.046416 185:0.073284 186:0.092522 187:0.0955 188:0.122579 189:0.274612 190:0.274612 191:0.175382 192:0.067594 193:0.013971 194:0.030206 195:0.039385 196:0.042266 197:0.153396 198:0.274612 199:0.274612 200:0.274102 201:0.177472 202:0.020406 203:0.053518 204:0.046136 205:0.063909 206:0.185614 207:0.274612 208:0.274612 209:0.19869 210:0.090005 211:0.016063 212:0.030013 213:0.025746 214:0.055944 215:0.208906 216:0.274612 217:0.100077 218:0.197663 219:0.320274 220:0.254677 221:0.041677 222:0.037166 223:0.101369 224:0.295938 225:0.163086 226:0.11008 227:0.065527 228:0.057063 229:0.08826 230:0.069038 231:0.084025 232:0.291241 233:0.320274 234:0.320274 235:0.149672 236:0.101672 237:0.173702 238:0.047901 239:0.035496 240:0.029042 241:0.058838 242:0.170465 243:0.142243 244:0.113076 245:0.03641 246:0.048612 247:0.049369 248:0.063074 249:0.081567 250:0.199917 251:0.320274 252:0.176924 253:0.129485 254:0.078732 255:0.111301 256:0.025627 257:0.063823 258:0.048771 259:0.173886 260:0.29255 261:0.29255 262:0.230613 263:0.175834 264:0.25129 265:0.042359 266:0.060918 267:0.047988 268:0.088745 269:0.29255 270:0.29255 271:0.091064 272:0.06054 273:0.067308 274:0.044587 275:0.072105 276:0.064959 277:0.114468 278:0.29255 279:0.220691 280:0.183228 281:0.12571 282:0.129217 283:0.112632 284:0.082476 285:0.049319 286:0.045435 287:0.281099 288:0.273395 289:0.24399 290:0.24399 291:0.24399 292:0.058707 293:0.075985 294:0.063075 295:0.070345 296:0.24399 297:0.24399 298:0.24399 299:0.194791 300:0.175901 301:0.061722 302:0.091451 303:0.088969 304:0.08578 305:0.133259 306:0.24399 307:0.24399 308:0.145973 309:0.132351 310:0.159557 311:0.149813 312:0.112494 313:0.061761 314:0.174872 315:0.24399 316:0.151244 317:0.092417 318:0.093582 319:0.139397 320:0.24399 321:0.187338 322:0.06963 323:0.047258 324:0.185621 
0.7199414732629398 1:0.102225 2:0.053187 3:0.026245 4:0.012952 5:0.03131 6:0.051036 7:0.175359 8:0.134177 9:0.166683 10:0.112747 11:0.043862 12:0.051625 13:0.107667 14:0.04732 15:0.043998 16:0.144147 17:0.182825 18:0.176651 19:0.123887 20:0.178464 21:0.146489 22:0.048748 23:0.031027 24:0.154387 25:0.301967 26:0.274806 27:0.097712 28:0.301967 29:0.301967 30:0.301967 31:0.280586 32:0.095884 33:0.073309 34:0.176497 35:0.151606 36:0.301967 37:0.090397 38:0.065143 39:0.135779 40:0.154998 41:0.057011 42:0.034079 43:0.077934 44:0.066153 45:0.074591 46:0.12121 47:0.080709 48:0.226786 49:0.190496 50:0.10341 51:0.145661 52:0.152491 53:0.197543 54:0.13164 55:0.226786 56:0.226786 57:0.226786 58:0.226786 59:0.129704 60:0.086761 61:0.127717 62:0.125601 63:0.212654 64:0.214745 65:0.176109 66:0.226786 67:0.212593 68:0.132649 69:0.221257 70:0.226786 71:0.226786 72:0.226786 73:0.083907 74:0.050958 75:0.122364 76:0.098846 77:0.091296 78:0.243985 79:0.146453 80:0.301491 81:0.206813 82:0.109488 83:0.057148 84:0.038924 85:0.024269 86:0.040561 87:0.098295 88:0.034996 89:0.252049 90:0.301491 91:0.128703 92:0.09173 93:0.144929 94:0.067683 95:0.055091 96:0.256465 97:0.164794 98:0.301491 99:0.301491 100:0.159437 101:0.069361 102:0.06111 103:0.035815 104:0.036044 105:0.089169 106:0.026385 107:0.301491 108:0.301491 109:0.058821 110:0.153761 111:0.080826 112:0.086056 113:0.043377 114:0.087126 115:0.236368 116:0.08712 117:0.020651 118:0.236368 119:0.236368 120:0.186905 121:0.133309 122:0.083319 123:0.061801 124:0.081947 125:0.043557 126:0.148325 127:0.10456 128:0.184438 129:0.221164 130:0.210443 131:0.116963 132:0.156243 133:0.236368 134:0.114939 135:0.035843 136:0.236368 137:0.236368 138:0.208172 139:0.221801 140:0.236368 141:0.217825 142:0.236368 143:0.199204 144:0.16635 145:0.224852 146:0.224852 147:0.224852 148:0.143053 149:0.136771 150:0.074979 151:0.076758 152:0.067579 153:0.224852 154:0.224852 155:0.215752 156:0.216932 157:0.094098 158:0.110745 159:0.096213 160:0.10674 161:0.140208 162:0.208725 163:0.224852 164:0.224852 165:0.211875 166:0.161063 167:0.224852 168:0.142937 169:0.217264 170:0.13991 171:0.218934 172:0.128483 173:0.132267 174:0.12709 175:0.09635 176:0.128327 177:0.108873 178:0.099981 179:0.109439 180:0.154038 181:0.217992 182:0.239391 183:0.223211 184:0.095361 185:0.113428 186:0.123281 187:0.128581 188:0.247447 189:0.247447 190:0.188538 191:0.14631 192:0.182437 193:0.143657 194:0.077473 195:0.088421 196:0.059759 197:0.247447 198:0.247447 199:0.151536 200:0.219511 201:0.195027 202:0.143223 203:0.177196 204:0.131771 205:0.105044 206:0.123843 207:0.146753 208:0.133195 209:0.127385 210:0.176909 211:0.14533 212:0.106179 213:0.090994 214:0.108281 215:0.114506 216:0.242606 217:0.116403 218:0.151074 219:0.254106 220:0.214293 221:0.094128 222:0.096664 223:0.204021 224:0.173475 225:0.068727 226:0.219586 227:0.20964 228:0.163837 229:0.131326 230:0.173006 231:0.169679 232:0.254106 233:0.254106 234:0.24998 235:0.04629 236:0.055907 237:0.254106 238:0.254106 239:0.101981 240:0.032545 241:0.04704 242:0.057195 243:0.048813 244:0.077247 245:0.057087 246:0.122334 247:0.189758 248:0.158693 249:0.111167 250:0.147784 251:0.246948 252:0.187204 253:0.109749 254:0.091843 255:0.083646 256:0.079863 257:0.114789 258:0.102098 259:0.263929 260:0.263929 261:0.247736 262:0.074368 263:0.04158 264:0.046533 265:0.047468 266:0.056645 267:0.07691 268:0.234604 269:0.263929 270:0.227407 271:0.093802 272:0.03887 273:0.105394 274:0.150394 275:0.108178 276:0.107713 277:0.223664 278:0.263929 279:0.263929 280:0.12088 281:0.061088 282:0.0989 283:0.139072 284:0.098397 285:0.138556 286:0.263929 287:0.263929 288:0.263929 289:0.151934 290:0.15316 291:0.102254 292:0.095435 293:0.109805 294:0.109919 295:0.165915 296:0.251803 297:0.251803 298:0.17115 299:0.14011 300:0.089985 301:0.059589 302:0.076768 303:0.040906 304:0.062221 305:0.0873 306:0.168232 307:0.246997 308:0.208571 309:0.094558 310:0.233992 311:0.251803 312:0.251803 313:0.251803 314:0.251803 315:0.251803 316:0.229218 317:0.193203 318:0.068766 319:0.102081 320:0.136817 321:0.047075 322:0.037847 323:0.095154 324:0.15266 
0.918834316812592 1:0.002224 2:0.001683 3:0.006378 4:0.038767 5:0.244568 6:0.306505 7:0.148975 8:0.017043 9:0.003334 10:0.004553 11:0.001999 12:0.018048 13:0.151311 14:0.306505 15:0.306505 16:0.132034 17:0.013011 18:0.006759 19:0.003028 20:0.004975 21:0.025456 22:0.119775 23:0.257855 24:0.306505 25:0.11902 26:0.050201 27:0.003052 28:0.175574 29:0.060302 30:0.116065 31:0.306505 32:0.306505 33:0.306505 34:0.248106 35:0.039223 36:0.072981 37:0.035544 38:0.036832 39:0.013053 40:0.140259 41:0.279822 42:0.249492 43:0.057914 44:0.020011 45:0.025636 46:0.14847 47:0.199412 48:0.114708 49:0.176184 50:0.279822 51:0.142743 52:0.046 53:0.030828 54:0.064685 55:0.279822 56:0.260767 57:0.089395 58:0.162551 59:0.256158 60:0.147039 61:0.14612 62:0.056595 63:0.149203 64:0.279822 65:0.279822 66:0.139068 67:0.07878 68:0.125621 69:0.054818 70:0.140046 71:0.222432 72:0.181822 73:0.102697 74:0.208737 75:0.241876 76:0.241876 77:0.241876 78:0.172104 79:0.081228 80:0.022184 81:0.043157 82:0.083795 83:0.082586 84:0.169872 85:0.241876 86:0.241876 87:0.241876 88:0.121574 89:0.087667 90:0.115983 91:0.241876 92:0.241876 93:0.241876 94:0.174084 95:0.112181 96:0.068555 97:0.174663 98:0.201775 99:0.085731 100:0.107737 101:0.102076 102:0.131062 103:0.155738 104:0.101371 105:0.101658 106:0.164046 107:0.201155 108:0.148783 109:0.060078 110:0.151933 111:0.09285 112:0.119772 113:0.148825 114:0.13683 115:0.027392 116:0.013865 117:0.008806 118:0.188958 119:0.137279 120:0.258819 121:0.258819 122:0.258819 123:0.129939 124:0.062079 125:0.029242 126:0.075939 127:0.206127 128:0.258819 129:0.228518 130:0.10608 131:0.095357 132:0.111672 133:0.048984 134:0.039228 135:0.056896 136:0.16099 137:0.218449 138:0.258819 139:0.258819 140:0.258819 141:0.258819 142:0.258819 143:0.068433 144:0.089697 145:0.220796 146:0.18998 147:0.182871 148:0.180952 149:0.175353 150:0.070049 151:0.081945 152:0.093606 153:0.156911 154:0.220796 155:0.220796 156:0.074044 157:0.051723 158:0.109264 159:0.100129 160:0.204449 161:0.220796 162:0.200967 163:0.135578 164:0.138331 165:0.220796 166:0.220796 167:0.220796 168:0.220796 169:0.220796 170:0.070467 171:0.08249 172:0.087519 173:0.112202 174:0.158626 175:0.167091 176:0.175972 177:0.172098 178:0.175716 179:0.18582 180:0.141728 181:0.124677 182:0.130817 183:0.044802 184:0.055882 185:0.079956 186:0.115282 187:0.273572 188:0.273572 189:0.27144 190:0.056927 191:0.033018 192:0.017878 193:0.037849 194:0.063465 195:0.108081 196:0.273572 197:0.273572 198:0.237063 199:0.052396 200:0.055283 201:0.08057 202:0.118793 203:0.108198 204:0.115448 205:0.242316 206:0.273572 207:0.273572 208:0.063756 209:0.021458 210:0.02533 211:0.052208 212:0.077522 213:0.105859 214:0.232647 215:0.273572 216:0.273572 217:0.123983 218:0.277926 219:0.244534 220:0.128676 221:0.087483 222:0.105476 223:0.093575 224:0.062377 225:0.058473 226:0.089816 227:0.101708 228:0.133152 229:0.119317 230:0.201808 231:0.328799 232:0.328799 233:0.077127 234:0.057944 235:0.0451 236:0.106414 237:0.202252 238:0.19577 239:0.116278 240:0.070248 241:0.064311 242:0.039818 243:0.0182 244:0.038287 245:0.024042 246:0.057436 247:0.160293 248:0.328799 249:0.328799 250:0.328799 251:0.060464 252:0.012503 253:0.030082 254:0.046404 255:0.063787 256:0.095097 257:0.198676 258:0.303761 259:0.303761 260:0.022045 261:0.013376 262:0.042479 263:0.0613 264:0.091639 265:0.12539 266:0.13627 267:0.239041 268:0.18971 269:0.071107 270:0.042048 271:0.008163 272:0.007953 273:0.017231 274:0.190367 275:0.303761 276:0.303761 277:0.267856 278:0.01454 279:0.001646 280:0.055085 281:0.05123 282:0.063477 283:0.214778 284:0.291358 285:0.29784 286:0.284998 287:0.042118 288:0.048231 289:0.100089 290:0.090782 291:0.153746 292:0.144786 293:0.109135 294:0.109915 295:0.20214 296:0.244524 297:0.244524 298:0.101146 299:0.093306 300:0.145712 301:0.098866 302:0.05672 303:0.108238 304:0.122427 305:0.244524 306:0.244524 307:0.144119 308:0.115422 309:0.165072 310:0.166712 311:0.146633 312:0.113396 313:0.244524 314:0.244524 315:0.244524 316:0.16729 317:0.137577 318:0.174233 319:0.107402 320:0.093185 321:0.072335 322:0.160115 323:0.244524 324:0.244524 
1 1:0.087336 2:0.073289 3:0.131571 4:0.101001 5:0.158773 6:0.074727 7:0.128122 8:0.084457 9:0.064724 10:0.055806 11:0.093686 12:0.200761 13:0.285697 14:0.285697 15:0.066828 16:0.089525 17:0.048157 18:0.102247 19:0.051768 20:0.054811 21:0.116985 22:0.148458 23:0.141794 24:0.140242 25:0.285697 26:0.285697 27:0.040717 28:0.130385 29:0.152219 30:0.285697 31:0.285697 32:0.2772 33:0.162372 34:0.244129 35:0.156632 36:0.143415 37:0.045114 38:0.1359 39:0.281175 40:0.281175 41:0.281175 42:0.156195 43:0.118811 44:0.042769 45:0.125063 46:0.032512 47:0.082583 48:0.159679 49:0.274573 50:0.235595 51:0.130877 52:0.076499 53:0.0377 54:0.034304 55:0.168747 56:0.17145 57:0.281175 58:0.281175 59:0.222079 60:0.193817 61:0.11088 62:0.065434 63:0.198385 64:0.066177 65:0.069008 66:0.182968 67:0.192882 68:0.176246 69:0.115783 70:0.082592 71:0.045647 72:0.040926 73:0.083911 74:0.173197 75:0.16228 76:0.234143 77:0.234143 78:0.102992 79:0.091919 80:0.076389 81:0.053984 82:0.108547 83:0.22067 84:0.154776 85:0.234143 86:0.234143 87:0.134264 88:0.065496 89:0.04733 90:0.097387 91:0.085608 92:0.123617 93:0.150747 94:0.202835 95:0.234143 96:0.185169 97:0.230168 98:0.106387 99:0.029446 100:0.163552 101:0.119884 102:0.183463 103:0.203726 104:0.234143 105:0.234143 106:0.234143 107:0.183997 108:0.115576 109:0.018864 110:0.032727 111:0.052576 112:0.067239 113:0.052306 114:0.062054 115:0.258015 116:0.258015 117:0.03127 118:0.065526 119:0.141171 120:0.258015 121:0.258015 122:0.150053 123:0.134504 124:0.258015 125:0.257126 126:0.042524 127:0.025586 128:0.179298 129:0.167261 130:0.029944 131:0.012564 132:0.02287 133:0.245961 134:0.258015 135:0.064908 136:0.049041 137:0.258015 138:0.258015 139:0.122833 140:0.097919 141:0.158355 142:0.258015 143:0.258015 144:0.058737 145:0.137141 146:0.182914 147:0.26727 148:0.26727 149:0.227332 150:0.207498 151:0.202111 152:0.127113 153:0.081962 154:0.067073 155:0.057079 156:0.156205 157:0.119165 158:0.132512 159:0.103653 160:0.128523 161:0.071824 162:0.035067 163:0.051954 164:0.145286 165:0.228223 166:0.190354 167:0.265062 168:0.26727 169:0.26727 170:0.234776 171:0.10566 172:0.019663 173:0.035822 174:0.09315 175:0.143585 176:0.198429 177:0.209136 178:0.163899 179:0.108002 180:0.045069 181:0.046767 182:0.102953 183:0.145163 184:0.144177 185:0.188228 186:0.158673 187:0.234078 188:0.1095 189:0.023779 190:0.091612 191:0.146238 192:0.226444 193:0.188598 194:0.234078 195:0.210449 196:0.234078 197:0.165614 198:0.098217 199:0.034495 200:0.160557 201:0.234078 202:0.234078 203:0.215139 204:0.156043 205:0.108283 206:0.055411 207:0.018036 208:0.060676 209:0.234078 210:0.234078 211:0.234078 212:0.234078 213:0.161917 214:0.14232 215:0.081516 216:0.095954 217:0.04109 218:0.270469 219:0.270469 220:0.061491 221:0.041704 222:0.033583 223:0.073974 224:0.160984 225:0.087816 226:0.044132 227:0.270469 228:0.270469 229:0.116829 230:0.181323 231:0.270469 232:0.270469 233:0.169498 234:0.080182 235:0.05416 236:0.197331 237:0.270469 238:0.090308 239:0.11512 240:0.116852 241:0.1591 242:0.108343 243:0.134379 244:0.024521 245:0.054798 246:0.131843 247:0.12959 248:0.270469 249:0.270469 250:0.156233 251:0.0822 252:0.082794 253:0.017142 254:0.051254 255:0.036748 256:0.045985 257:0.224924 258:0.332026 259:0.332026 260:0.121004 261:0.068564 262:0.006031 263:0.008873 264:0.022498 265:0.090926 266:0.187254 267:0.332026 268:0.140778 269:0.069146 270:0.028104 271:0.003869 272:0.014485 273:0.023761 274:0.056995 275:0.332026 276:0.332026 277:0.165512 278:0.055446 279:0.03715 280:0.001968 281:0.00143 282:0.01077 283:0.069358 284:0.332026 285:0.332026 286:0.189911 287:0.045329 288:0.019757 289:0.019385 290:0.07873 291:0.165414 292:0.239418 293:0.245005 294:0.22383 295:0.09924 296:0.032024 297:0.006822 298:0.059032 299:0.191576 300:0.246882 301:0.230304 302:0.246882 303:0.154164 304:0.129111 305:0.101586 306:0.105816 307:0.008105 308:0.009851 309:0.028663 310:0.145725 311:0.246882 312:0.246882 313:0.246882 314:0.092662 315:0.025969 316:0.044941 317:0.120094 318:0.115073 319:0.111992 320:0.246882 321:0.246882 322:0.246882 323:0.225605 324:0.133561 
0.01151981367513838 1:0.20668 2:0.145268 3:0.128056 4:0.091786 5:0.089726 6:0.138942 7:0.077842 8:0.240499 9:0.190413 10:0.135338 11:0.16182 12:0.141849 13:0.189387 14:0.126015 15:0.077619 16:0.151207 17:0.240499 18:0.193717 19:0.113662 20:0.132131 21:0.147943 22:0.100608 23:0.105303 24:0.240499 25:0.144742 26:0.221213 27:0.088653 28:0.18498 29:0.240499 30:0.240499 31:0.240499 32:0.240499 33:0.184938 34:0.137658 35:0.103043 36:0.049116 37:0.101696 38:0.043168 39:0.131901 40:0.174237 41:0.128965 42:0.067715 43:0.209443 44:0.27206 45:0.152257 46:0.071399 47:0.010107 48:0.151679 49:0.150301 50:0.197297 51:0.133597 52:0.167941 53:0.27206 54:0.095775 55:0.132428 56:0.150623 57:0.27206 58:0.27206 59:0.27206 60:0.110713 61:0.093517 62:0.092618 63:0.067128 64:0.086701 65:0.068352 66:0.27206 67:0.27206 68:0.27206 69:0.104084 70:0.067021 71:0.068008 72:0.074295 73:0.054229 74:0.019898 75:0.143698 76:0.180903 77:0.275764 78:0.275764 79:0.152357 80:0.189958 81:0.090986 82:0.056072 83:0.019705 84:0.004977 85:0.005027 86:0.06697 87:0.01737 88:0.007223 89:0.012502 90:0.049867 91:0.275764 92:0.163244 93:0.275764 94:0.275764 95:0.275764 96:0.229119 97:0.182347 98:0.122809 99:0.275764 100:0.275764 101:0.077954 102:0.105359 103:0.063041 104:0.144093 105:0.042709 106:0.05847 107:0.053379 108:0.275764 109:0.057942 110:0.075937 111:0.085419 112:0.093238 113:0.117735 114:0.194388 115:0.106738 116:0.119879 117:0.094609 118:0.116299 119:0.23199 120:0.272269 121:0.272269 122:0.272269 123:0.199279 124:0.135243 125:0.131102 126:0.078949 127:0.037027 128:0.09041 129:0.186373 130:0.128688 131:0.163849 132:0.095354 133:0.118249 134:0.106633 135:0.057071 136:0.057434 137:0.137937 138:0.272269 139:0.272269 140:0.272269 141:0.224021 142:0.272269 143:0.100576 144:0.100528 145:0.048319 146:0.094762 147:0.201189 148:0.279453 149:0.279453 150:0.092684 151:0.068748 152:0.052234 153:0.027716 154:0.087535 155:0.058651 156:0.254981 157:0.227815 158:0.279453 159:0.093271 160:0.09838 161:0.036628 162:0.09618 163:0.018587 164:0.02944 165:0.063252 166:0.279453 167:0.279453 168:0.153037 169:0.261831 170:0.064282 171:0.043251 172:0.085363 173:0.037122 174:0.1016 175:0.230458 176:0.279453 177:0.161401 178:0.279453 179:0.083978 180:0.128697 181:0.222482 182:0.095754 183:0.24175 184:0.115525 185:0.24175 186:0.140124 187:0.24175 188:0.113206 189:0.24175 190:0.124974 191:0.035334 192:0.095384 193:0.058314 194:0.241603 195:0.08377 196:0.090062 197:0.046072 198:0.171824 199:0.24175 200:0.131898 201:0.24175 202:0.097225 203:0.24175 204:0.19144 205:0.24175 206:0.163572 207:0.24175 208:0.120779 209:0.061317 210:0.108241 211:0.064143 212:0.24175 213:0.099768 214:0.09309 215:0.053251 216:0.168192 217:0.026702 218:0.108704 219:0.271252 220:0.228874 221:0.121665 222:0.055428 223:0.076439 224:0.059973 225:0.030785 226:0.03879 227:0.156133 228:0.271252 229:0.271252 230:0.271252 231:0.236991 232:0.271252 233:0.107764 234:0.091964 235:0.050006 236:0.143982 237:0.271252 238:0.195552 239:0.100149 240:0.041595 241:0.028263 242:0.021118 243:0.027668 244:0.070583 245:0.103156 246:0.271252 247:0.19799 248:0.258371 249:0.189586 250:0.176261 251:0.135138 252:0.069724 253:0.011661 254:0.025028 255:0.045112 256:0.208297 257:0.270123 258:0.203773 259:0.270123 260:0.122489 261:0.050456 262:0.034794 263:0.011909 264:0.028651 265:0.104734 266:0.174464 267:0.192094 268:0.270123 269:0.123921 270:0.056873 271:0.060969 272:0.055534 273:0.270123 274:0.157517 275:0.181411 276:0.16717 277:0.270123 278:0.132681 279:0.056152 280:0.028545 281:0.029266 282:0.270123 283:0.234332 284:0.194903 285:0.254504 286:0.270123 287:0.093386 288:0.030312 289:0.269591 290:0.121525 291:0.143748 292:0.113236 293:0.269591 294:0.269591 295:0.269591 296:0.214481 297:0.269591 298:0.127658 299:0.079315 300:0.075964 301:0.073379 302:0.139443 303:0.068167 304:0.065146 305:0.069024 306:0.186155 307:0.042018 308:0.032153 309:0.269591 310:0.269591 311:0.269591 312:0.269591 313:0.269591 314:0.119131 315:0.061844 316:0.022258 317:0.02377 318:0.044223 319:0.086694 320:0.186181 321:0.061583 322:0.039047 323:0.047163 324:0.03476 
1 1:0.026852 2:0.103804 3:0.143456 4:0.110069 5:0.052706 6:0.208004 7:0.296817 8:0.025124 9:0.012437 10:0.07122 11:0.29906 12:0.29906 13:0.116278 14:0.04612 15:0.054715 16:0.052963 17:0.0102 18:0.023238 19:0.074959 20:0.129669 21:0.165518 22:0.151987 23:0.106948 24:0.181632 25:0.239062 26:0.181822 27:0.150105 28:0.298323 29:0.29906 30:0.29906 31:0.214679 32:0.108136 33:0.139954 34:0.097563 35:0.093037 36:0.135435 37:0.075382 38:0.282777 39:0.282777 40:0.145447 41:0.031691 42:0.01363 43:0.004257 44:0.011631 45:0.040277 46:0.034383 47:0.255823 48:0.282777 49:0.282777 50:0.265601 51:0.04003 52:0.008933 53:0.004351 54:0.033896 55:0.282777 56:0.282777 57:0.282777 58:0.119838 59:0.036646 60:0.031178 61:0.019936 62:0.057452 63:0.245778 64:0.170721 65:0.069023 66:0.089749 67:0.164369 68:0.155508 69:0.065448 70:0.065485 71:0.071607 72:0.282777 73:0.020608 74:0.118421 75:0.152056 76:0.273648 77:0.273648 78:0.166458 79:0.035081 80:0.007125 81:0.015853 82:0.017478 83:0.043524 84:0.026016 85:0.089489 86:0.273648 87:0.199555 88:0.082004 89:0.024796 90:0.00879 91:0.130292 92:0.076159 93:0.045995 94:0.153961 95:0.273648 96:0.249867 97:0.273648 98:0.273648 99:0.258587 100:0.028486 101:0.033511 102:0.025931 103:0.078812 104:0.225517 105:0.182099 106:0.265158 107:0.273648 108:0.084298 109:0.080072 110:0.080305 111:0.056316 112:0.077595 113:0.100181 114:0.110064 115:0.181619 116:0.231983 117:0.231983 118:0.231983 119:0.231983 120:0.130786 121:0.108997 122:0.075044 123:0.134283 124:0.218202 125:0.231983 126:0.231983 127:0.12088 128:0.231983 129:0.184086 130:0.113773 131:0.121401 132:0.086436 133:0.173933 134:0.203213 135:0.151227 136:0.179521 137:0.188862 138:0.141453 139:0.082106 140:0.048409 141:0.083727 142:0.231983 143:0.231983 144:0.231983 145:0.253677 146:0.241528 147:0.106439 148:0.044151 149:0.02377 150:0.029796 151:0.106637 152:0.274063 153:0.284001 154:0.181658 155:0.047649 156:0.026659 157:0.026115 158:0.041364 159:0.035789 160:0.108327 161:0.240392 162:0.284001 163:0.131413 164:0.10077 165:0.076076 166:0.021439 167:0.015188 168:0.028682 169:0.222655 170:0.284001 171:0.284001 172:0.085461 173:0.074834 174:0.039107 175:0.016783 176:0.01575 177:0.014971 178:0.284001 179:0.284001 180:0.284001 181:0.147546 182:0.053315 183:0.039273 184:0.038885 185:0.083492 186:0.110362 187:0.207583 188:0.290178 189:0.290178 190:0.06622 191:0.020579 192:0.026393 193:0.046058 194:0.094446 195:0.141105 196:0.232424 197:0.290178 198:0.234898 199:0.068923 200:0.045853 201:0.038629 202:0.053263 203:0.090075 204:0.098167 205:0.290178 206:0.290178 207:0.180647 208:0.054406 209:0.029035 210:0.025142 211:0.065403 212:0.167367 213:0.17757 214:0.290178 215:0.290178 216:0.205655 217:0.143554 218:0.235936 219:0.100073 220:0.081956 221:0.114005 222:0.167893 223:0.253905 224:0.217054 225:0.059272 226:0.106344 227:0.088153 228:0.060926 229:0.059514 230:0.065443 231:0.181389 232:0.227127 233:0.286469 234:0.13087 235:0.077705 236:0.084548 237:0.017572 238:0.037706 239:0.097148 240:0.286469 241:0.286469 242:0.223519 243:0.056726 244:0.028508 245:0.025454 246:0.014931 247:0.087806 248:0.233622 249:0.286469 250:0.286469 251:0.250172 252:0.034731 253:0.153952 254:0.184668 255:0.11738 256:0.073775 257:0.093766 258:0.214502 259:0.206858 260:0.273512 261:0.273512 262:0.124957 263:0.164511 264:0.06746 265:0.029542 266:0.019895 267:0.027257 268:0.273512 269:0.273512 270:0.184173 271:0.074133 272:0.125406 273:0.081153 274:0.2531 275:0.273512 276:0.273512 277:0.227747 278:0.162538 279:0.038714 280:0.175456 281:0.192834 282:0.051956 283:0.08694 284:0.099717 285:0.04906 286:0.087644 287:0.120128 288:0.07931 289:0.069985 290:0.042982 291:0.014569 292:0.021226 293:0.027038 294:0.04816 295:0.308243 296:0.308243 297:0.136472 298:0.064031 299:0.021559 300:0.008524 301:0.023858 302:0.056801 303:0.093765 304:0.308243 305:0.308243 306:0.14911 307:0.221961 308:0.205449 309:0.016315 310:0.015172 311:0.015721 312:0.028968 313:0.193832 314:0.203227 315:0.140074 316:0.308243 317:0.208794 318:0.019077 319:0.001683 320:0.010918 321:0.017133 322:0.253739 323:0.308243 324:0.2408 
0.1326737400044925 1:0.169704 2:0.052564 3:0.014935 4:0.013621 5:0.024472 6:0.057655 7:0.12029 8:0.2703 9:0.2703 10:0.09693 11:0.198679 12:0.161169 13:0.14175 14:0.13087 15:0.15139 16:0.160835 17:0.2703 18:0.231617 19:0.255806 20:0.074676 21:0.014261 22:0.000312 23:0.007278 24:0.027142 25:0.206411 26:0.2703 27:0.2703 28:0.073445 29:0.056662 30:0.073287 31:0.036496 32:0.099939 33:0.22987 34:0.2703 35:0.2703 36:0.168091 37:0.132233 38:0.197037 39:0.174109 40:0.217334 41:0.116755 42:0.08844 43:0.107922 44:0.122437 45:0.165095 46:0.177453 47:0.249064 48:0.238083 49:0.228709 50:0.172018 51:0.05016 52:0.07278 53:0.133764 54:0.166578 55:0.076706 56:0.202786 57:0.249064 58:0.096216 59:0.092648 60:0.174156 61:0.249064 62:0.179887 63:0.078222 64:0.249064 65:0.249064 66:0.249064 67:0.140019 68:0.100933 69:0.087369 70:0.062526 71:0.098017 72:0.089355 73:0.159393 74:0.280639 75:0.280639 76:0.140949 77:0.138713 78:0.062172 79:0.155214 80:0.133771 81:0.069002 82:0.085493 83:0.280639 84:0.280639 85:0.14481 86:0.175808 87:0.14828 88:0.274522 89:0.089698 90:0.007704 91:0.210421 92:0.280639 93:0.280639 94:0.119115 95:0.062174 96:0.041381 97:0.024398 98:0.050366 99:0.048019 100:0.059201 101:0.280639 102:0.280639 103:0.101955 104:0.05156 105:0.026164 106:0.01904 107:0.01135 108:0.012007 109:0.262414 110:0.07748 111:0.018989 112:0.015797 113:0.008879 114:0.01251 115:0.140275 116:0.186679 117:0.216786 118:0.130517 119:0.137642 120:0.225953 121:0.081194 122:0.095597 123:0.276262 124:0.276262 125:0.276262 126:0.169278 127:0.108113 128:0.050041 129:0.023965 130:0.050233 131:0.050535 132:0.025157 133:0.025398 134:0.017367 135:0.051806 136:0.084649 137:0.100074 138:0.208607 139:0.276262 140:0.276262 141:0.225208 142:0.276262 143:0.276262 144:0.137186 145:0.052928 146:0.233289 147:0.258841 148:0.073257 149:0.04518 150:0.10394 151:0.223598 152:0.145371 153:0.095129 154:0.173844 155:0.258841 156:0.258841 157:0.059712 158:0.020437 159:0.019941 160:0.023845 161:0.070883 162:0.154624 163:0.110511 164:0.105261 165:0.220315 166:0.186891 167:0.191518 168:0.142737 169:0.149127 170:0.258841 171:0.258841 172:0.258841 173:0.116872 174:0.128506 175:0.063381 176:0.075063 177:0.10201 178:0.073658 179:0.258841 180:0.258841 181:0.231454 182:0.334545 183:0.203459 184:0.04234 185:0.022631 186:0.019451 187:0.009331 188:0.038529 189:0.203255 190:0.069986 191:0.127996 192:0.066633 193:0.022701 194:0.023335 195:0.023229 196:0.013948 197:0.033585 198:0.105837 199:0.334545 200:0.110008 201:0.040014 202:0.041407 203:0.065241 204:0.113181 205:0.064411 206:0.306952 207:0.334545 208:0.181842 209:0.103521 210:0.037385 211:0.060033 212:0.147632 213:0.164036 214:0.168341 215:0.334545 216:0.334545 217:0.014177 218:0.013369 219:0.022681 220:0.08576 221:0.061568 222:0.031931 223:0.013884 224:0.007512 225:0.005375 226:0.026689 227:0.036888 228:0.103614 229:0.368556 230:0.368556 231:0.161801 232:0.079709 233:0.259834 234:0.119443 235:0.02258 236:0.028041 237:0.088871 238:0.234986 239:0.085219 240:0.018699 241:0.008148 242:0.011851 243:0.010834 244:0.026929 245:0.058583 246:0.282695 247:0.368556 248:0.368556 249:0.163097 250:0.203174 251:0.261081 252:0.141627 253:0.058222 254:0.026303 255:0.037685 256:0.228536 257:0.210048 258:0.168617 259:0.10819 260:0.228536 261:0.160508 262:0.163921 263:0.048874 264:0.02698 265:0.098151 266:0.136518 267:0.206 268:0.148673 269:0.228536 270:0.228536 271:0.029546 272:0.038005 273:0.087147 274:0.228536 275:0.228536 276:0.228254 277:0.228536 278:0.228536 279:0.120418 280:0.058954 281:0.058079 282:0.095629 283:0.153034 284:0.228536 285:0.228536 286:0.228536 287:0.227008 288:0.132006 289:0.211937 290:0.10139 291:0.071816 292:0.087037 293:0.121293 294:0.169282 295:0.091972 296:0.226807 297:0.241733 298:0.091827 299:0.127776 300:0.1491 301:0.241733 302:0.19048 303:0.170184 304:0.118064 305:0.220252 306:0.241733 307:0.093569 308:0.134639 309:0.203374 310:0.211773 311:0.241733 312:0.19644 313:0.125081 314:0.136753 315:0.111572 316:0.039587 317:0.186035 318:0.241733 319:0.241733 320:0.227681 321:0.090175 322:0.026271 323:0.049857 324:0.057383 
0.6154757038151931 1:0.180068 2:0.037859 3:0.013678 4:0.012312 5:0.048978 6:0.094082 7:0.342872 8:0.129812 9:0.226657 10:0.065582 11:0.020247 12:0.018137 13:0.034794 14:0.057115 15:0.260347 16:0.342872 17:0.30826 18:0.175787 19:0.197809 20:0.039005 21:0.050148 22:0.061024 23:0.025882 24:0.031086 25:0.064029 26:0.067027 27:0.236022 28:0.089877 29:0.048691 30:0.177979 31:0.155504 32:0.100621 33:0.236358 34:0.342872 35:0.217027 36:0.186494 37:0.020886 38:0.02424 39:0.028232 40:0.050667 41:0.044313 42:0.230656 43:0.384874 44:0.181745 45:0.044268 46:0.006128 47:0.008073 48:0.026967 49:0.067028 50:0.070428 51:0.072905 52:0.091918 53:0.029829 54:0.011016 55:0.037865 56:0.056841 57:0.147741 58:0.141778 59:0.215248 60:0.384874 61:0.384874 62:0.199118 63:0.060261 64:0.035883 65:0.078746 66:0.105201 67:0.122622 68:0.220045 69:0.251076 70:0.384874 71:0.049272 72:0.018901 73:0.004964 74:0.00757 75:0.029606 76:0.082951 77:0.061405 78:0.036746 79:0.020223 80:0.015043 81:0.006012 82:0.131797 83:0.252857 84:0.17782 85:0.055769 86:0.083266 87:0.100008 88:0.138372 89:0.088047 90:0.073396 91:0.104435 92:0.284832 93:0.377046 94:0.115834 95:0.105097 96:0.040843 97:0.027648 98:0.022658 99:0.01338 100:0.370132 101:0.39902 102:0.39902 103:0.210329 104:0.13814 105:0.111077 106:0.092994 107:0.084822 108:0.091674 109:0.238282 110:0.052642 111:0.069609 112:0.096881 113:0.032073 114:0.031022 115:0.021481 116:0.049231 117:0.106896 118:0.183649 119:0.031702 120:0.12785 121:0.119861 122:0.096825 123:0.12257 124:0.249168 125:0.190416 126:0.126908 127:0.281052 128:0.160633 129:0.040252 130:0.038435 131:0.018128 132:0.085883 133:0.074132 134:0.201442 135:0.281052 136:0.281052 137:0.281052 138:0.255625 139:0.035198 140:0.026269 141:0.127326 142:0.250423 143:0.281052 144:0.281052 145:0.038642 146:0.029093 147:0.085249 148:0.058629 149:0.164352 150:0.209548 151:0.266192 152:0.141904 153:0.050091 154:0.046821 155:0.145497 156:0.147107 157:0.081101 158:0.214052 159:0.176783 160:0.266192 161:0.050991 162:0.026107 163:0.112884 164:0.266192 165:0.266192 166:0.059227 167:0.150334 168:0.133566 169:0.259258 170:0.173181 171:0.103384 172:0.055534 173:0.266192 174:0.266192 175:0.10735 176:0.264898 177:0.165252 178:0.224565 179:0.060714 180:0.053482 181:0.111793 182:0.256381 183:0.256381 184:0.058845 185:0.097831 186:0.044837 187:0.067563 188:0.02748 189:0.024145 190:0.204539 191:0.256381 192:0.256381 193:0.089854 194:0.220678 195:0.168499 196:0.214919 197:0.103926 198:0.081745 199:0.091307 200:0.19119 201:0.193114 202:0.069836 203:0.119609 204:0.080064 205:0.166954 206:0.102407 207:0.078478 208:0.193202 209:0.19208 210:0.214213 211:0.095994 212:0.217803 213:0.163819 214:0.256381 215:0.192859 216:0.227098 217:0.291285 218:0.165493 219:0.029419 220:0.001475 221:0.013292 222:0.0588 223:0.112482 224:0.192962 225:0.291285 226:0.291285 227:0.291285 228:0.242462 229:0.022363 230:0.004818 231:0.046012 232:0.096057 233:0.161721 234:0.291285 235:0.213553 236:0.079668 237:0.027145 238:0.008312 239:0.032446 240:0.057708 241:0.172739 242:0.137032 243:0.266717 244:0.291285 245:0.219247 246:0.049607 247:0.016963 248:0.031057 249:0.053712 250:0.156949 251:0.079714 252:0.216499 253:0.315296 254:0.315296 255:0.315296 256:0.065358 257:0.049527 258:0.04577 259:0.093764 260:0.123951 261:0.165468 262:0.072841 263:0.315296 264:0.315296 265:0.077669 266:0.102812 267:0.106542 268:0.107782 269:0.080821 270:0.072828 271:0.207412 272:0.256404 273:0.113984 274:0.038707 275:0.057485 276:0.087696 277:0.098599 278:0.067591 279:0.138899 280:0.15123 281:0.096436 282:0.107049 283:0.102178 284:0.15692 285:0.184848 286:0.147134 287:0.111951 288:0.260477 289:0.083359 290:0.060754 291:0.134131 292:0.073891 293:0.058631 294:0.084003 295:0.139633 296:0.143767 297:0.078173 298:0.225931 299:0.122583 300:0.181596 301:0.092001 302:0.077322 303:0.200771 304:0.241974 305:0.241974 306:0.194771 307:0.241974 308:0.087462 309:0.105881 310:0.131502 311:0.15322 312:0.134609 313:0.122383 314:0.132842 315:0.241974 316:0.241974 317:0.178039 318:0.136612 319:0.165589 320:0.104454 321:0.217959 322:0.241974 323:0.241974 324:0.241974 
0.2694366943495444 1:0.253085 2:0.318037 3:0.253898 4:0.074615 5:0.052945 6:0.022245 7:0.137086 8:0.106257 9:0.07546 10:0.318037 11:0.318037 12:0.191336 13:0.061691 14:0.039923 15:0.015747 16:0.02516 17:0.027476 18:0.068668 19:0.150351 20:0.16453 21:0.072261 22:0.024185 23:0.020553 24:0.109087 25:0.318037 26:0.318037 27:0.135611 28:0.101283 29:0.116734 30:0.116176 31:0.032447 32:0.013925 33:0.060293 34:0.318037 35:0.170031 36:0.105106 37:0.280879 38:0.280879 39:0.206796 40:0.089832 41:0.06246 42:0.039896 43:0.02945 44:0.05473 45:0.133435 46:0.280879 47:0.178533 48:0.136802 49:0.043927 50:0.043242 51:0.04648 52:0.072166 53:0.275094 54:0.280879 55:0.1196 56:0.220603 57:0.280879 58:0.065699 59:0.034914 60:0.061865 61:0.134878 62:0.129877 63:0.123725 64:0.227559 65:0.280879 66:0.280879 67:0.121243 68:0.052355 69:0.058036 70:0.038321 71:0.123611 72:0.132184 73:0.170004 74:0.205439 75:0.165407 76:0.021806 77:0.01612 78:0.017821 79:0.047046 80:0.207759 81:0.247192 82:0.212058 83:0.308597 84:0.308597 85:0.069441 86:0.065178 87:0.057234 88:0.061342 89:0.152115 90:0.189601 91:0.106525 92:0.308597 93:0.308597 94:0.108892 95:0.043795 96:0.020589 97:0.018084 98:0.048967 99:0.063331 100:0.127915 101:0.308597 102:0.308597 103:0.171871 104:0.101827 105:0.043244 106:0.026917 107:0.061977 108:0.066112 109:0.045201 110:0.005766 111:0.01583 112:0.019905 113:0.079984 114:0.276376 115:0.282784 116:0.141268 117:0.04786 118:0.023591 119:0.024514 120:0.128845 121:0.067534 122:0.065911 123:0.200371 124:0.282784 125:0.145576 126:0.051262 127:0.009614 128:0.017156 129:0.244455 130:0.237788 131:0.282784 132:0.262756 133:0.141533 134:0.01375 135:0.003364 136:0.037323 137:0.035066 138:0.282784 139:0.282784 140:0.221017 141:0.252966 142:0.268447 143:0.064111 144:0.036854 145:0.031315 146:0.183677 147:0.263828 148:0.073002 149:0.051386 150:0.105818 151:0.205679 152:0.092378 153:0.098449 154:0.097889 155:0.263828 156:0.263828 157:0.128229 158:0.039161 159:0.024088 160:0.015179 161:0.048652 162:0.09277 163:0.054544 164:0.145711 165:0.263828 166:0.198523 167:0.12927 168:0.178843 169:0.152766 170:0.188779 171:0.239015 172:0.068584 173:0.263828 174:0.263828 175:0.107809 176:0.075461 177:0.069414 178:0.177499 179:0.263828 180:0.263828 181:0.090602 182:0.262346 183:0.262346 184:0.210513 185:0.110371 186:0.027971 187:0.010665 188:0.011836 189:0.055721 190:0.069131 191:0.262346 192:0.262346 193:0.258493 194:0.209563 195:0.10367 196:0.013651 197:0.01439 198:0.041432 199:0.09519 200:0.259217 201:0.238202 202:0.143013 203:0.141677 204:0.088164 205:0.203166 206:0.183155 207:0.164942 208:0.10807 209:0.262346 210:0.252009 211:0.149095 212:0.192723 213:0.128351 214:0.086582 215:0.093092 216:0.074274 217:0.008989 218:0.0665 219:0.343306 220:0.343306 221:0.16928 222:0.048957 223:0.0072 224:0.002483 225:0.002868 226:0.036284 227:0.070053 228:0.343306 229:0.343306 230:0.176745 231:0.101967 232:0.03287 233:0.025576 234:0.018143 235:0.046597 236:0.117881 237:0.343306 238:0.343306 239:0.054372 240:0.017305 241:0.021513 242:0.021187 243:0.040212 244:0.028907 245:0.112925 246:0.343306 247:0.161053 248:0.110923 249:0.073944 250:0.074268 251:0.028105 252:0.023561 253:0.08987 254:0.120188 255:0.242296 256:0.242296 257:0.221469 258:0.203827 259:0.10673 260:0.181419 261:0.196583 262:0.09349 263:0.110089 264:0.1008 265:0.073076 266:0.125794 267:0.169538 268:0.242296 269:0.242296 270:0.242296 271:0.045056 272:0.11795 273:0.16766 274:0.205841 275:0.242296 276:0.193264 277:0.162553 278:0.039415 279:0.022325 280:0.038731 281:0.066837 282:0.101061 283:0.215987 284:0.242296 285:0.190456 286:0.192473 287:0.13717 288:0.049177 289:0.089444 290:0.088448 291:0.057391 292:0.045152 293:0.073672 294:0.121965 295:0.236582 296:0.236582 297:0.165143 298:0.169133 299:0.14019 300:0.091009 301:0.08427 302:0.126002 303:0.149563 304:0.236582 305:0.236582 306:0.167156 307:0.088458 308:0.106842 309:0.103621 310:0.068873 311:0.118784 312:0.102913 313:0.221901 314:0.236582 315:0.083258 316:0.236582 317:0.187775 318:0.236582 319:0.174931 320:0.187662 321:0.17646 322:0.236582 323:0.236582 324:0.218006 
