svm_type c_svc
kernel_type linear
nr_class 2
total_sv 136
rho 1.12532
label 3 8
probA -3.127
probB -0.0111953
nr_sv 67 69
SV
1 1:0.232986 2:0.046549 3:0.05162 4:0.034326 5:0.041223 6:0.019127 7:0.019264 8:0.240893 9:0.325186 10:0.325186 11:0.04955 12:0.049488 13:0.023033 14:0.038489 15:0.037669 16:0.057709 17:0.146437 18:0.325186 19:0.219786 20:0.203034 21:0.194973 22:0.082339 23:0.067985 24:0.028645 25:0.029954 26:0.121949 27:0.325186 28:0.325186 29:0.152572 30:0.109439 31:0.045808 32:0.051092 33:0.041342 34:0.057356 35:0.088937 36:0.325186 
1 1:0.127385 2:0.056814 3:0.072451 4:0.102224 5:0.120124 6:0.098284 7:0.203176 8:0.201867 9:0.198793 10:0.180802 11:0.13099 12:0.164917 13:0.160113 14:0.215366 15:0.165533 16:0.118275 17:0.148743 18:0.179958 19:0.215366 20:0.163956 21:0.190422 22:0.142008 23:0.126969 24:0.084887 25:0.158541 26:0.145932 27:0.215366 28:0.215366 29:0.215366 30:0.176094 31:0.210075 32:0.215366 33:0.11899 34:0.141869 35:0.176926 36:0.215366 
1 1:0.171277 2:0.042681 3:0.005916 4:0.008437 5:0.012376 6:0.006647 7:0.028812 8:0.223807 9:0.281849 10:0.091404 11:0.060825 12:0.026774 13:0.184163 14:0.281849 15:0.081341 16:0.044763 17:0.148759 18:0.184043 19:0.281849 20:0.281699 21:0.016999 22:0.011361 23:0.016869 24:0.008763 25:0.023224 26:0.21545 27:0.281849 28:0.281849 29:0.194405 30:0.04111 31:0.110931 32:0.281849 33:0.168955 34:0.057437 35:0.191563 36:0.281849 
1 1:0.25276 2:0.132976 3:0.026298 4:0.001424 5:0.008994 6:0.014646 7:0.069054 8:0.277116 9:0.277116 10:0.140981 11:0.070563 12:0.040899 13:0.01329 14:0.015059 15:0.058337 16:0.149785 17:0.277116 18:0.277116 19:0.277116 20:0.277116 21:0.103739 22:0.006683 23:0.018014 24:0.018344 25:0.06744 26:0.225029 27:0.277116 28:0.163633 29:0.203045 30:0.10827 31:0.033153 32:0.034409 33:0.045382 34:0.159193 35:0.258307 36:0.277116 
1 1:0.264609 2:0.117554 3:0.028636 4:0.025708 5:0.041739 6:0.031432 7:0.264609 8:0.264609 9:0.264609 10:0.264609 11:0.144747 12:0.041001 13:0.019944 14:0.025589 15:0.033719 16:0.264609 17:0.264609 18:0.181183 19:0.264609 20:0.214712 21:0.030816 22:0.016962 23:0.024582 24:0.025108 25:0.15899 26:0.232691 27:0.253541 28:0.264609 29:0.179481 30:0.051012 31:0.019151 32:0.014689 33:0.026219 34:0.119814 35:0.113618 36:0.189435 
1 1:0.273132 2:0.058734 3:0.030473 4:0.009984 5:0.014744 6:0.011381 7:0.053146 8:0.171528 9:0.273132 10:0.170474 11:0.046726 12:0.022584 13:0.013241 14:0.023261 15:0.026614 16:0.195369 17:0.273132 18:0.273132 19:0.273132 20:0.273132 21:0.273132 22:0.049994 23:0.038979 24:0.004575 25:0.010634 26:0.054728 27:0.273132 28:0.254354 29:0.168782 30:0.200836 31:0.183607 32:0.111921 33:0.039623 34:0.037619 35:0.165982 36:0.273132 
1 1:0.225021 2:0.109763 3:0.030856 4:0.017246 5:0.019267 6:0.008653 7:0.053068 8:0.16777 9:0.294624 10:0.125561 11:0.092983 12:0.026074 13:0.008657 14:0.033904 15:0.030585 16:0.132909 17:0.230274 18:0.294624 19:0.294624 20:0.294624 21:0.078736 22:0.039896 23:0.029377 24:0.001848 25:0.044362 26:0.125786 27:0.294624 28:0.28696 29:0.294624 30:0.240594 31:0.016823 32:0.050644 33:0.017953 34:0.071212 35:0.145702 36:0.294624 
1 1:0.262672 2:0.071045 3:0.022467 4:0.008195 5:0.012742 6:0.059951 7:0.215111 8:0.262672 9:0.185685 10:0.195591 11:0.11778 12:0.07327 13:0.062524 14:0.04018 15:0.024079 16:0.262672 17:0.262672 18:0.231893 19:0.262672 20:0.186483 21:0.207302 22:0.091369 23:0.063002 24:0.038151 25:0.068074 26:0.100164 27:0.162808 28:0.262672 29:0.262672 30:0.262672 31:0.150663 32:0.075127 33:0.029264 34:0.108173 35:0.133549 36:0.215561 
1 1:0.239815 2:0.088174 3:0.013979 4:0.010702 5:0.018995 6:0.023528 7:0.102142 8:0.213981 9:0.280633 10:0.175472 11:0.069799 12:0.011878 13:0.01609 14:0.014173 15:0.021082 16:0.086168 17:0.277205 18:0.280633 19:0.280633 20:0.271684 21:0.044552 22:0.018573 23:0.054509 24:0.031164 25:0.1107 26:0.187116 27:0.280633 28:0.280633 29:0.228308 30:0.10877 31:0.079858 32:0.049119 33:0.030192 34:0.03463 35:0.280633 36:0.280633 
1 1:0.196682 2:0.256479 3:0.175079 4:0.053178 5:0.007681 6:0.017709 7:0.082912 8:0.256479 9:0.256479 10:0.228569 11:0.256479 12:0.233637 13:0.086155 14:0.025234 15:0.013689 16:0.00542 17:0.078291 18:0.162122 19:0.256479 20:0.256479 21:0.256479 22:0.093456 23:0.046538 24:0.007857 25:0.040652 26:0.172955 27:0.256479 28:0.184879 29:0.256479 30:0.256479 31:0.102899 32:0.037316 33:0.021801 34:0.003564 35:0.062928 36:0.139845 
1 1:0.17593 2:0.199017 3:0.102845 4:0.061 5:0.058614 6:0.054346 7:0.076847 8:0.254526 9:0.254526 10:0.174811 11:0.254526 12:0.164785 13:0.108 14:0.07061 15:0.040918 16:0.05538 17:0.19941 18:0.251562 19:0.254526 20:0.254526 21:0.130359 22:0.059854 23:0.039601 24:0.022156 25:0.032531 26:0.20518 27:0.254526 28:0.254526 29:0.254526 30:0.209908 31:0.089182 32:0.049497 33:0.030927 34:0.044235 35:0.141164 36:0.238303 
1 1:0.119874 2:0.074537 3:0.015864 4:0.019065 5:0.054802 6:0.087576 7:0.216854 8:0.267543 9:0.267543 10:0.21166 11:0.107778 12:0.031768 13:0.025909 14:0.068818 15:0.073695 16:0.214243 17:0.267543 18:0.267543 19:0.267543 20:0.267543 21:0.076745 22:0.041154 23:0.052164 24:0.07187 25:0.116797 26:0.191564 27:0.19934 28:0.24293 29:0.267543 30:0.0778 31:0.070652 32:0.114214 33:0.076843 34:0.190166 35:0.198948 36:0.18323 
1 1:0.32882 2:0.064299 3:0.027621 4:0.031665 5:0.066136 6:0.050294 7:0.065331 8:0.32882 9:0.32882 10:0.124136 11:0.057163 12:0.023668 13:0.021995 14:0.084333 15:0.083893 16:0.034949 17:0.253698 18:0.189363 19:0.32882 20:0.044866 21:0.022383 22:0.045019 23:0.082411 24:0.059136 25:0.069798 26:0.32882 27:0.32882 28:0.20214 29:0.044273 30:0.026111 31:0.025173 32:0.106752 33:0.106096 34:0.04316 35:0.208173 36:0.252792 
0.6409011385004073 1:0.203617 2:0.1603 3:0.072469 4:0.082753 5:0.026095 6:0.016588 7:0.070144 8:0.2594 9:0.317655 10:0.142533 11:0.074267 12:0.040514 13:0.068363 14:0.029941 15:0.032281 16:0.094003 17:0.112272 18:0.204525 19:0.233932 20:0.317655 21:0.259205 22:0.17477 23:0.031583 24:0.012442 25:0.076669 26:0.259903 27:0.317655 28:0.182081 29:0.252069 30:0.101108 31:0.145561 32:0.039695 33:0.036128 34:0.114154 35:0.163989 36:0.215388 
1 1:0.065624 2:0.176185 3:0.154567 4:0.057622 5:0.059334 6:0.046735 7:0.030494 8:0.235748 9:0.267468 10:0.192083 11:0.167498 12:0.181998 13:0.107502 14:0.104643 15:0.069904 16:0.091639 17:0.134143 18:0.208183 19:0.205898 20:0.267468 21:0.267468 22:0.055321 23:0.05991 24:0.047765 25:0.037183 26:0.209065 27:0.267468 28:0.235656 29:0.227339 30:0.22991 31:0.089745 32:0.104404 33:0.078814 34:0.114559 35:0.157735 36:0.267468 
1 1:0.340923 2:0.12474 3:0.00348 4:0.040424 5:0.056364 6:0.015529 7:0.0199 8:0.059648 9:0.340923 10:0.19601 11:0.070649 12:0.02005 13:0.062378 14:0.071583 15:0.024851 16:0.006357 17:0.042174 18:0.187361 19:0.340923 20:0.340923 21:0.01372 22:0.10064 23:0.13054 24:0.016322 25:0.009833 26:0.047637 27:0.340923 28:0.340923 29:0.158184 30:0.042586 31:0.15692 32:0.164876 33:0.038134 34:0.006633 35:0.039617 36:0.269399 
1 1:0.203225 2:0.051863 3:0.035413 4:0.00056 5:0.014331 6:0.001684 7:0.050768 8:0.257152 9:0.325198 10:0.160287 11:0.03442 12:0.026245 13:0.001598 14:0.009554 15:0.006089 16:0.143736 17:0.325198 18:0.325198 19:0.325198 20:0.059636 21:0.044799 22:0.002788 23:0.001322 24:0.000381 25:0.007493 26:0.104582 27:0.325198 28:0.325198 29:0.042176 30:0.040753 31:0.006968 32:0.001055 33:0 34:0.051614 35:0.26691 36:0.325198 
1 1:0.31528 2:0.191553 3:0.007885 4:0.001831 5:0.00075 6:0.003792 7:0.003705 8:0.032161 9:0.186219 10:0.31528 11:0.152936 12:0.03605 13:0.02112 14:0.047153 15:0.054189 16:0.024885 17:0.101423 18:0.31528 19:0.31528 20:0.31528 21:0.028352 22:0.011145 23:0.003183 24:0.004944 25:0.009998 26:0.049172 27:0.245146 28:0.31528 29:0.31528 30:0.088624 31:0.046785 32:0.063936 33:0.066679 34:0.021855 35:0.072859 36:0.31528 
1 1:0.177561 2:0.026977 3:0.022022 4:0.021009 5:0.053736 6:0.099974 7:0.244843 8:0.272701 9:0.272701 10:0.061277 11:0.009635 12:0.016467 13:0.03829 14:0.194557 15:0.272701 16:0.272701 17:0.12771 18:0.11188 19:0.272701 20:0.006435 21:0.009106 22:0.018551 23:0.026786 24:0.057932 25:0.189082 26:0.247559 27:0.272701 28:0.127976 29:0.006494 30:0.003882 31:0.043461 32:0.071996 33:0.207982 34:0.272701 35:0.245956 36:0.263819 
1 1:0.185378 2:0.317052 3:0.133011 4:0.02657 5:0.026837 6:0.005295 7:0.013318 8:0.037339 9:0.234274 10:0.16147 11:0.317052 12:0.270128 13:0.058629 14:0.046093 15:0.010084 16:0.053232 17:0.086003 18:0.123879 19:0.232692 20:0.317052 21:0.317052 22:0.053991 23:0.024184 24:0.012687 25:0.024294 26:0.042296 27:0.163669 28:0.203084 29:0.317052 30:0.317052 31:0.125282 32:0.054734 33:0.012653 34:0.009829 35:0.016326 36:0.077608 
1 1:0.253112 2:0.147525 3:0.088921 4:0.03133 5:0.063177 6:0.152391 7:0.131474 8:0.253112 9:0.253112 10:0.185779 11:0.066519 12:0.065903 13:0.032994 14:0.106376 15:0.145983 16:0.253112 17:0.253112 18:0.233067 19:0.253112 20:0.130018 21:0.089312 22:0.048201 23:0.06678 24:0.123365 25:0.085562 26:0.153744 27:0.253112 28:0.253112 29:0.098969 30:0.071579 31:0.052414 32:0.119703 33:0.123714 34:0.177025 35:0.240692 36:0.253112 
1 1:0.213612 2:0.167911 3:0.057913 4:0.076443 5:0.189532 6:0.076509 7:0.18196 8:0.200788 9:0.146675 10:0.140327 11:0.151871 12:0.13046 13:0.071864 14:0.051461 15:0.017331 16:0.099984 17:0.213654 18:0.095375 19:0.278395 20:0.278395 21:0.223905 22:0.135317 23:0.278395 24:0.145948 25:0.204767 26:0.156635 27:0.11665 28:0.210559 29:0.278395 30:0.278395 31:0.106468 32:0.113899 33:0.017798 34:0.082685 35:0.094775 36:0.052322 
1 1:0.057912 2:0.07319 3:0.101325 4:0.075955 5:0.14809 6:0.239118 7:0.1938 8:0.239118 9:0.158272 10:0.058403 11:0.165848 12:0.239118 13:0.228439 14:0.136254 15:0.172401 16:0.036181 17:0.049361 18:0.057301 19:0.22519 20:0.239118 21:0.239118 22:0.239118 23:0.239118 24:0.189007 25:0.077453 26:0.109879 27:0.097907 28:0.084684 29:0.18974 30:0.239118 31:0.239118 32:0.239118 33:0.116101 34:0.025272 35:0.034842 36:0.074397 
1 1:0.179095 2:0.135788 3:0.026171 4:0.013017 5:0.042651 6:0.120776 7:0.322904 8:0.182906 9:0.12078 10:0.104267 11:0.073985 12:0.016308 13:0.004012 14:0.081991 15:0.239226 16:0.322904 17:0.246007 18:0.094591 19:0.322904 20:0.252189 21:0.044311 22:0.015486 23:0.025445 24:0.048852 25:0.080539 26:0.047928 27:0.13 28:0.322904 29:0.174672 30:0.06483 31:0.022205 32:0.112568 33:0.110803 34:0.272807 35:0.172919 36:0.234186 
1 1:0.018056 2:0.019839 3:0.007308 4:0.013133 5:0.086657 6:0.304446 7:0.304446 8:0.09032 9:0.032753 10:0.021843 11:0.019574 12:0.006193 13:0.00718 14:0.075875 15:0.304446 16:0.304446 17:0.196044 18:0.08899 19:0.039953 20:0.053813 21:0.040072 22:0.093883 23:0.134428 24:0.138557 25:0.201246 26:0.135264 27:0.048081 28:0.090469 29:0.083312 30:0.122681 31:0.193782 32:0.304446 33:0.304446 34:0.304446 35:0.229412 36:0.209179 
1 1:0.144862 2:0.10474 3:0.028811 4:0.100103 5:0.087372 6:0.039912 7:0.237273 8:0.237273 9:0.237273 10:0.150774 11:0.082432 12:0.041101 13:0.042348 14:0.064155 15:0.057894 16:0.150174 17:0.121458 18:0.159553 19:0.237273 20:0.237273 21:0.17147 22:0.200371 23:0.218518 24:0.15731 25:0.237273 26:0.237273 27:0.216232 28:0.237273 29:0.215461 30:0.110872 31:0.118331 32:0.127559 33:0.14592 34:0.237273 35:0.095768 36:0.165562 
0.172618654688487 1:0.2582 2:0.193082 3:0.082896 4:0.042589 5:0.080139 6:0.176127 7:0.136819 8:0.167907 9:0.207025 10:0.130135 11:0.19937 12:0.161341 13:0.115411 14:0.190235 15:0.190843 16:0.127669 17:0.066405 18:0.092806 19:0.2582 20:0.2582 21:0.151809 22:0.03406 23:0.09879 24:0.048824 25:0.035592 26:0.185447 27:0.2582 28:0.2582 29:0.2582 30:0.2582 31:0.113486 32:0.186141 33:0.085833 34:0.05296 35:0.049171 36:0.165768 
1 1:0.301758 2:0.144066 3:0.016425 4:0.026519 5:0.021841 6:0.007297 7:0.00704 8:0.016578 9:0.301758 10:0.301758 11:0.297969 12:0.060557 13:0.025277 14:0.027124 15:0.018887 16:0.012051 17:0.028842 18:0.122483 19:0.301758 20:0.292421 21:0.144537 22:0.019487 23:0.037153 24:0.005526 25:0.016478 26:0.016829 27:0.294965 28:0.301758 29:0.301758 30:0.301758 31:0.064513 32:0.022447 33:0.002969 34:0.011067 35:0.025588 36:0.160099 
1 1:0.101266 2:0.154752 3:0.111555 4:0.061173 5:0.063209 6:0.050587 7:0.135789 8:0.255394 9:0.245236 10:0.160388 11:0.17775 12:0.160119 13:0.121625 14:0.092137 15:0.158211 16:0.198862 17:0.178551 18:0.227962 19:0.175563 20:0.255394 21:0.255394 22:0.108809 23:0.053816 24:0.033947 25:0.04578 26:0.126041 27:0.140175 28:0.198867 29:0.255394 30:0.255394 31:0.237952 32:0.111578 33:0.066454 34:0.066341 35:0.178695 36:0.217764 
1 1:0.268603 2:0.128853 3:0.026222 4:0.045148 5:0.016469 6:0.025219 7:0.057423 8:0.268603 9:0.268603 10:0.217819 11:0.109352 12:0.068243 13:0.098361 14:0.078713 15:0.146249 16:0.268603 17:0.248101 18:0.184727 19:0.268603 20:0.268603 21:0.086554 22:0.032377 23:0.034661 24:0.012105 25:0.011785 26:0.127323 27:0.249899 28:0.268603 29:0.268603 30:0.144788 31:0.057289 32:0.030851 33:0.093126 34:0.124484 35:0.166269 36:0.184137 
1 1:0.313325 2:0.107459 3:0.0618 4:0.003551 5:0.014692 6:0.032086 7:0.03639 8:0.154046 9:0.313325 10:0.311457 11:0.153341 12:0.128132 13:0.044977 14:0.04608 15:0.048287 16:0.034584 17:0.121457 18:0.313325 19:0.313325 20:0.189989 21:0.093541 22:0.024144 23:0.009674 24:0.005753 25:0.004291 26:0.080454 27:0.313325 28:0.313325 29:0.233478 30:0.178296 31:0.039543 32:0.013646 33:0.010189 34:0.011938 35:0.049579 36:0.252963 
1 1:0.04358 2:0.103212 3:0.094636 4:0.035843 5:0.029627 6:0.059908 7:0.287061 8:0.287061 9:0.144086 10:0.223456 11:0.084183 12:0.090357 13:0.05094 14:0.054004 15:0.083941 16:0.24649 17:0.225917 18:0.221118 19:0.17565 20:0.287061 21:0.287061 22:0.067275 23:0.044655 24:0.054428 25:0.260771 26:0.287061 27:0.108185 28:0.252027 29:0.14909 30:0.151386 31:0.04748 32:0.064902 33:0.08528 34:0.132871 35:0.106192 36:0.165186 
1 1:0.056594 2:0.013357 3:0.01183 4:0.002507 5:0.012116 6:0.039201 7:0.243542 8:0.278447 9:0.241268 10:0.099166 11:0.062596 12:0.0219 13:0.012815 14:0.037392 15:0.063229 16:0.261442 17:0.278447 18:0.212392 19:0.278447 20:0.148519 21:0.011255 22:0.004706 23:0.014602 24:0.011156 25:0.048493 26:0.278447 27:0.278447 28:0.278447 29:0.278447 30:0.077544 31:0.027143 32:0.044411 33:0.025467 34:0.095763 35:0.278447 36:0.278447 
1 1:0.28913 2:0.055523 3:0.01423 4:0.005706 5:0.019149 6:0.005071 7:0.019356 8:0.027453 9:0.28913 10:0.28913 11:0.156401 12:0.049579 13:0.009705 14:0.035997 15:0.017913 16:0.030066 17:0.059764 18:0.268476 19:0.28913 20:0.28913 21:0.181229 22:0.030236 23:0.039368 24:0.009601 25:0.01502 26:0.048775 27:0.28913 28:0.28913 29:0.28913 30:0.28913 31:0.053253 32:0.05775 33:0.022993 34:0.034571 35:0.072288 36:0.28913 
0.9117503994883642 1:0.225333 2:0.326851 3:0.15986 4:0.020148 5:0.019118 6:0.004631 7:0.009311 8:0.080157 9:0.195338 10:0.20786 11:0.326851 12:0.27478 13:0.030012 14:0.024034 15:0.023328 16:0.013309 17:0.071621 18:0.102973 19:0.279546 20:0.326851 21:0.258163 22:0.027334 23:0.028492 24:0.000697 25:0.00039 26:0.006595 27:0.083417 28:0.163515 29:0.326851 30:0.326851 31:0.101887 32:0.109435 33:0.017823 34:0.003925 35:0.025516 36:0.026598 
1 1:0.26984 2:0.156424 3:0.031245 4:0.001637 5:0.013737 6:0.04316 7:0.040516 8:0.083322 9:0.34869 10:0.112856 11:0.067295 12:0.009719 13:0.004181 14:0.022222 15:0.055926 16:0.026437 17:0.0495 18:0.247727 19:0.34869 20:0.34869 21:0.215792 22:0.000686 23:0.032513 24:0.084318 25:0.059971 26:0.131027 27:0.34869 28:0.24867 29:0.283129 30:0.039956 31:0.003726 32:0.050512 33:0.109607 34:0.047144 35:0.063942 36:0.275281 
1 1:0.266372 2:0.128883 3:0.002123 4:0.008001 5:0.018349 6:0.013277 7:0.035808 8:0.28717 9:0.28717 10:0.247037 11:0.160959 12:0.017108 13:0.051283 14:0.084798 15:0.062586 16:0.163517 17:0.28717 18:0.196463 19:0.28717 20:0.28717 21:0.016826 22:0.011224 23:0.017421 24:0.004411 25:0.015629 26:0.195102 27:0.1944 28:0.28717 29:0.28717 30:0.057851 31:0.06113 32:0.10571 33:0.047218 34:0.076204 35:0.226411 36:0.098725 
1 1:0.190222 2:0.110692 3:0.016755 4:0.004874 5:0.008855 6:0.050901 7:0.04668 8:0.192295 9:0.322328 10:0.08598 11:0.103668 12:0.050471 13:0.019653 14:0.01432 15:0.074797 16:0.059639 17:0.196549 18:0.241618 19:0.322328 20:0.322328 21:0.082656 22:0.006054 23:0.022638 24:0.104403 25:0.079013 26:0.231964 27:0.322328 28:0.264812 29:0.322328 30:0.134669 31:0.029172 32:0.027932 33:0.152242 34:0.090911 35:0.16326 36:0.181585 
1 1:0.108989 2:0.004855 3:0.00058 4:0.000483 5:0.011389 6:0.054379 7:0.309378 8:0.309378 9:0.309378 10:0.046935 11:0.015643 12:0.011629 13:0.009151 14:0.019806 15:0.058837 16:0.297239 17:0.309378 18:0.186239 19:0.171664 20:0.010007 21:0.008001 22:0.004244 23:0.01612 24:0.007056 25:0.137667 26:0.309378 27:0.309378 28:0.075049 29:0.033612 30:0.032093 31:0.038286 32:0.055684 33:0.028475 34:0.156731 35:0.309378 36:0.309378 
1 1:0.049515 2:0.069749 3:0.061595 4:0.060893 5:0.098279 6:0.103908 7:0.160227 8:0.157956 9:0.188553 10:0.141291 11:0.142174 12:0.133263 13:0.104414 14:0.168411 15:0.150438 16:0.170363 17:0.074898 18:0.147128 19:0.137142 20:0.240392 21:0.240392 22:0.109785 23:0.128952 24:0.126292 25:0.133544 26:0.237942 27:0.240392 28:0.240392 29:0.240392 30:0.240392 31:0.189206 32:0.206842 33:0.176238 34:0.171963 35:0.135702 36:0.240392 
1 1:0.164405 2:0.148232 3:0.120976 4:0.034821 5:0.085796 6:0.06726 7:0.249066 8:0.219676 9:0.18222 10:0.143108 11:0.108901 12:0.107585 13:0.050087 14:0.103689 15:0.051145 16:0.126235 17:0.193137 18:0.200844 19:0.249066 20:0.249066 21:0.212157 22:0.037675 23:0.104147 24:0.05393 25:0.249066 26:0.249066 27:0.249066 28:0.149553 29:0.105843 30:0.065762 31:0.071527 32:0.15296 33:0.120126 34:0.249066 35:0.249066 36:0.220581 
1 1:0.099548 2:0.056858 3:0.010669 4:0.005711 5:0.008124 6:0.006621 7:0.101172 8:0.279003 9:0.279003 10:0.132478 11:0.089526 12:0.061722 13:0.068793 14:0.024869 15:0.036202 16:0.104843 17:0.279003 18:0.279003 19:0.279003 20:0.279003 21:0.040694 22:0.014892 23:0.012301 24:0.008446 25:0.031582 26:0.279003 27:0.205891 28:0.279003 29:0.279003 30:0.110788 31:0.101015 32:0.023522 33:0.015204 34:0.039112 35:0.279003 36:0.279003 
1 1:0.103766 2:0.048403 3:0.060858 4:0.179327 5:0.182128 6:0.135661 7:0.222378 8:0.170866 9:0.161491 10:0.081746 11:0.039635 12:0.068234 13:0.078731 14:0.062958 15:0.09653 16:0.210297 17:0.156864 18:0.130464 19:0.252328 20:0.242209 21:0.22522 22:0.252328 23:0.252328 24:0.154037 25:0.130414 26:0.121283 27:0.230089 28:0.159313 29:0.240105 30:0.252328 31:0.190344 32:0.118362 33:0.092675 34:0.112163 35:0.132468 36:0.171821 
1 1:0.100512 2:0.019936 3:0.006757 4:0.001761 5:0.005534 6:0.002949 7:0.015082 8:0.307859 9:0.307859 10:0.140369 11:0.032014 12:0.012104 13:0.00599 14:0.02077 15:0.010639 16:0.131946 17:0.27208 18:0.307859 19:0.307859 20:0.067148 21:0.019803 22:0.00348 23:0.00874 24:0.008592 25:0.029923 26:0.307859 27:0.307859 28:0.307859 29:0.077573 30:0.01333 31:0.010808 32:0.008338 33:0.020224 34:0.086441 35:0.307859 36:0.307859 
1 1:0.077488 2:0.022953 3:0.008347 4:0.008699 5:0.02258 6:0.027162 7:0.075088 8:0.281164 9:0.281164 10:0.059261 11:0.016394 12:0.011074 13:0.027524 14:0.046723 15:0.073632 16:0.120124 17:0.281164 18:0.259449 19:0.281164 20:0.281164 21:0.042177 22:0.01741 23:0.02088 24:0.003691 25:0.019639 26:0.281164 27:0.281164 28:0.216212 29:0.281164 30:0.111671 31:0.105018 32:0.052102 33:0.0739 34:0.133219 35:0.281164 36:0.281164 
1 1:0.296326 2:0.073081 3:0.018667 4:0.006492 5:0.014447 6:0.005251 7:0.010192 8:0.03143 9:0.296326 10:0.296326 11:0.055269 12:0.025107 13:0.021298 14:0.048005 15:0.01802 16:0.017074 17:0.071736 18:0.296326 19:0.296326 20:0.296326 21:0.156558 22:0.016194 23:0.037863 24:0.011775 25:0.02052 26:0.038249 27:0.296326 28:0.291597 29:0.296326 30:0.230491 31:0.06809 32:0.105663 33:0.025358 34:0.02616 35:0.063095 36:0.296326 
1 1:0.093856 2:0.018631 3:0.010274 4:0.008393 5:0.036472 6:0.096569 7:0.059286 8:0.223099 9:0.287685 10:0.161229 11:0.062998 12:0.091499 13:0.042129 14:0.028146 15:0.061119 16:0.080711 17:0.186197 18:0.287685 19:0.183071 20:0.277081 21:0.176207 22:0.020666 23:0.045161 24:0.032949 25:0.031774 26:0.282198 27:0.287685 28:0.287685 29:0.287685 30:0.287685 31:0.097103 32:0.039507 33:0.024757 34:0.044239 35:0.139979 36:0.287685 
1 1:0.091968 2:0.071123 3:0.163457 4:0.069246 5:0.104419 6:0.190991 7:0.291797 8:0.260494 9:0.190027 10:0.04984 11:0.026151 12:0.067406 13:0.037241 14:0.078531 15:0.145505 16:0.291797 17:0.291797 18:0.13212 19:0.137635 20:0.104455 21:0.123949 22:0.044121 23:0.150362 24:0.194144 25:0.263729 26:0.205208 27:0.196687 28:0.085082 29:0.049847 30:0.065699 31:0.00979 32:0.039117 33:0.169746 34:0.291797 35:0.291797 36:0.137089 
1 1:0.198612 2:0.070903 3:0.010627 4:0.005372 5:0.006437 6:0.02812 7:0.09753 8:0.283525 9:0.283525 10:0.171846 11:0.113719 12:0.04224 13:0.017338 14:0.012158 15:0.069894 16:0.143547 17:0.283525 18:0.235689 19:0.283525 20:0.22118 21:0.0653 22:0.016842 23:0.005942 24:0.033991 25:0.048097 26:0.283525 27:0.283525 28:0.283525 29:0.248891 30:0.095143 31:0.043244 32:0.0148 33:0.088086 34:0.101998 35:0.283525 36:0.158606 
1 1:0.21546 2:0.085435 3:0.070259 4:0.053765 5:0.104395 6:0.161216 7:0.252535 8:0.175631 9:0.204463 10:0.117799 11:0.051029 12:0.031489 13:0.135154 14:0.252535 15:0.252535 16:0.252535 17:0.182561 18:0.096809 19:0.252535 20:0.25162 21:0.110576 22:0.06772 23:0.057802 24:0.07088 25:0.141768 26:0.087765 27:0.179226 28:0.244327 29:0.155794 30:0.109211 31:0.130655 32:0.251857 33:0.126965 34:0.252535 35:0.064576 36:0.142146 
1 1:0.140383 2:0.088556 3:0.070535 4:0.040443 5:0.127088 6:0.076633 7:0.263921 8:0.263921 9:0.184844 10:0.237771 11:0.132147 12:0.045059 13:0.041259 14:0.09937 15:0.124942 16:0.263921 17:0.263921 18:0.137118 19:0.263921 20:0.263921 21:0.178164 22:0.071493 23:0.138581 24:0.079176 25:0.112711 26:0.138147 27:0.168183 28:0.263921 29:0.203503 30:0.09926 31:0.052885 32:0.119361 33:0.138388 34:0.189738 35:0.171812 36:0.148436 
1 1:0.182464 2:0.099108 3:0.054838 4:0.022261 5:0.109646 6:0.209632 7:0.242157 8:0.242157 9:0.242157 10:0.242157 11:0.142019 12:0.135737 13:0.027735 14:0.095466 15:0.091642 16:0.188396 17:0.181975 18:0.209089 19:0.184986 20:0.242157 21:0.242157 22:0.067304 23:0.132887 24:0.242157 25:0.140903 26:0.125634 27:0.242157 28:0.167706 29:0.242157 30:0.192461 31:0.070698 32:0.096077 33:0.119217 34:0.062621 35:0.041507 36:0.082061 
1 1:0.234248 2:0.079427 3:0.110517 4:0.017615 5:0.100407 6:0.052243 7:0.217198 8:0.252077 9:0.252077 10:0.054479 11:0.017383 12:0.09946 13:0.082808 14:0.191647 15:0.057278 16:0.065813 17:0.079559 18:0.089456 19:0.252077 20:0.211162 21:0.252077 22:0.027201 23:0.170922 24:0.057628 25:0.182728 26:0.189448 27:0.252077 28:0.159396 29:0.06448 30:0.252077 31:0.23794 32:0.252077 33:0.044211 34:0.096643 35:0.184374 36:0.248363 
1 1:0.284523 2:0.263992 3:0.035458 4:0.012565 5:0.100882 6:0.016864 7:0.284523 8:0.255611 9:0.284523 10:0.202524 11:0.098375 12:0.02025 13:0.011702 14:0.110226 15:0.013627 16:0.096776 17:0.12005 18:0.171995 19:0.284523 20:0.284523 21:0.09414 22:0.016895 23:0.131398 24:0.020364 25:0.220328 26:0.122419 27:0.284523 28:0.248433 29:0.201907 30:0.034038 31:0.019049 32:0.145679 33:0.017179 34:0.087268 35:0.066851 36:0.140103 
1 1:0.250845 2:0.219384 3:0.07598 4:0.10014 5:0.06216 6:0.206863 7:0.250845 8:0.110014 9:0.250845 10:0.137286 11:0.078378 12:0.035357 13:0.080913 14:0.125603 15:0.127745 16:0.132213 17:0.099947 18:0.199924 19:0.250845 20:0.250845 21:0.145328 22:0.209972 23:0.192889 24:0.098965 25:0.1856 26:0.14859 27:0.250845 28:0.221718 29:0.122274 30:0.102521 31:0.142576 32:0.205313 33:0.090383 34:0.070071 35:0.10792 36:0.185417 
1 1:0.25767 2:0.25767 3:0.091974 4:0.029738 5:0.027691 6:0.14073 7:0.25767 8:0.25767 9:0.25767 10:0.226958 11:0.096262 12:0.072422 13:0.07982 14:0.25767 15:0.238532 16:0.189832 17:0.130977 18:0.220329 19:0.25767 20:0.25767 21:0.144325 22:0.037669 23:0.025365 24:0.066834 25:0.128562 26:0.048055 27:0.18877 28:0.168416 29:0.17846 30:0.164208 31:0.055951 32:0.063621 33:0.089921 34:0.089951 35:0.044088 36:0.10502 
1 1:0.181989 2:0.089098 3:0.034325 4:0.003538 5:0.012995 6:0.008508 7:0.256131 8:0.256131 9:0.256131 10:0.223879 11:0.111445 12:0.049893 13:0.04829 14:0.094806 15:0.029597 16:0.218275 17:0.256131 18:0.256131 19:0.256131 20:0.256131 21:0.195312 22:0.013743 23:0.011799 24:0.001783 25:0.075024 26:0.123193 27:0.216048 28:0.256131 29:0.256131 30:0.16921 31:0.048979 32:0.093469 33:0.022231 34:0.113527 35:0.122222 36:0.256131 
1 1:0.263492 2:0.218534 3:0.010552 4:0.017178 5:0.123401 6:0.205607 7:0.263492 8:0.263492 9:0.263492 10:0.191673 11:0.067884 12:0.04277 13:0.022798 14:0.057542 15:0.071758 16:0.150159 17:0.179873 18:0.182513 19:0.263492 20:0.263492 21:0.058203 22:0.046525 23:0.164987 24:0.242529 25:0.08567 26:0.263492 27:0.263492 28:0.182454 29:0.137872 30:0.091475 31:0.037533 32:0.079363 33:0.071372 34:0.043761 35:0.041795 36:0.140883 
1 1:0.222032 2:0.196794 3:0.159947 4:0.108406 5:0.093062 6:0.086689 7:0.228834 8:0.228834 9:0.228834 10:0.202473 11:0.228834 12:0.078193 13:0.063511 14:0.030947 15:0.105456 16:0.202393 17:0.165212 18:0.228834 19:0.228834 20:0.228834 21:0.228834 22:0.179774 23:0.120479 24:0.02305 25:0.153766 26:0.174274 27:0.169239 28:0.192611 29:0.228834 30:0.127016 31:0.099649 32:0.051817 33:0.019537 34:0.092613 35:0.107162 36:0.192613 
1 1:0.135127 2:0.088098 3:0.093572 4:0.056679 5:0.030308 6:0.09325 7:0.2476 8:0.2476 9:0.2476 10:0.2476 11:0.123604 12:0.070706 13:0.017418 14:0.037902 15:0.050026 16:0.239725 17:0.2476 18:0.23445 19:0.2476 20:0.2476 21:0.2476 22:0.100956 23:0.052131 24:0.06697 25:0.158015 26:0.131075 27:0.219301 28:0.2476 29:0.161115 30:0.156381 31:0.033844 32:0.047307 33:0.03488 34:0.093519 35:0.168863 36:0.2476 
1 1:0.206936 2:0.09782 3:0.075419 4:0.034351 5:0.052902 6:0.126329 7:0.172561 8:0.257224 9:0.257224 10:0.257224 11:0.149892 12:0.11154 13:0.111734 14:0.065806 15:0.125417 16:0.128251 17:0.106087 18:0.257224 19:0.257224 20:0.236613 21:0.172996 22:0.057683 23:0.063691 24:0.111004 25:0.089256 26:0.130526 27:0.177318 28:0.257224 29:0.190186 30:0.157709 31:0.169413 32:0.104945 33:0.225228 34:0.131741 35:0.020607 36:0.257224 
1 1:0.268416 2:0.214473 3:0.072612 4:0.063962 5:0.092697 6:0.123192 7:0.268416 8:0.268416 9:0.268416 10:0.268416 11:0.268416 12:0.012203 13:0.004425 14:0.045908 15:0.101008 16:0.076347 17:0.180711 18:0.268416 19:0.268416 20:0.268416 21:0.110965 22:0.04878 23:0.065872 24:0.071433 25:0.043853 26:0.063367 27:0.1197 28:0.268416 29:0.268416 30:0.030115 31:0.029221 32:0.048165 33:0.082324 34:0.026593 35:0.029561 36:0.133654 
1 1:0.173114 2:0.068991 3:0.08554 4:0.047314 5:0.006078 6:0.077592 7:0.268761 8:0.268761 9:0.212461 10:0.190449 11:0.052623 12:0.014168 13:0.016588 14:0.021047 15:0.031949 16:0.264113 17:0.251501 18:0.139062 19:0.268761 20:0.196784 21:0.173779 22:0.099694 23:0.014889 24:0.09053 25:0.268761 26:0.217367 27:0.268761 28:0.268761 29:0.217613 30:0.0441 31:0.012565 32:0.01263 33:0.029349 34:0.168758 35:0.127744 36:0.212853 
1 1:0.27144 2:0.042874 3:0.012702 4:0.005579 5:0.037291 6:0.115517 7:0.241585 8:0.27144 9:0.27144 10:0.164717 11:0.008778 12:0.021091 13:0.008501 14:0.030342 15:0.135407 16:0.27144 17:0.27144 18:0.199549 19:0.27144 20:0.108522 21:0.040907 22:0.025959 23:0.04021 24:0.131219 25:0.094702 26:0.183004 27:0.27144 28:0.27144 29:0.080716 30:0.101108 31:0.068009 32:0.040538 33:0.18445 34:0.145434 35:0.141457 36:0.268908 
1 1:0.050067 2:0.007761 3:0.003158 4:0.001211 5:0.012918 6:0.021178 7:0.102093 8:0.298342 9:0.298342 10:0.032122 11:0.010601 12:0.01055 13:0.003366 14:0.027132 15:0.071976 16:0.298342 17:0.298342 18:0.152468 19:0.298342 20:0.032906 21:0.014061 22:0.007189 23:0.004525 24:0.012606 25:0.041545 26:0.298342 27:0.298342 28:0.298342 29:0.078677 30:0.054206 31:0.015303 32:0.004825 33:0.068516 34:0.213478 35:0.298342 36:0.298342 
1 1:0.149753 2:0.123894 3:0.037958 4:0.063579 5:0.283958 6:0.283958 7:0.125209 8:0.077348 9:0.11974 10:0.047067 11:0.045668 12:0.048722 13:0.105589 14:0.283958 15:0.283958 16:0.081644 17:0.035007 18:0.048703 19:0.283958 20:0.271502 21:0.065668 22:0.10226 23:0.278792 24:0.218707 25:0.029648 26:0.078365 27:0.188498 28:0.114928 29:0.126239 30:0.089238 31:0.165043 32:0.283958 33:0.283958 34:0.038637 35:0.038899 36:0.038053 
1 1:0.131845 2:0.116743 3:0.02357 4:0.055463 5:0.015151 6:0.008097 7:0.03685 8:0.308317 9:0.308317 10:0.101191 11:0.054409 12:0.021937 13:0.081954 14:0.025614 15:0.005554 16:0.057369 17:0.157518 18:0.211278 19:0.308317 20:0.308317 21:0.143409 22:0.136398 23:0.045436 24:0.018192 25:0.068148 26:0.308317 27:0.308317 28:0.22467 29:0.224435 30:0.060816 31:0.169724 32:0.043078 33:0.007205 34:0.077339 35:0.21957 36:0.246531 
-1 1:0.104367 2:0.026279 3:0.017247 4:0.013882 5:0.009443 6:0.010864 7:0.020942 8:0.298032 9:0.358305 10:0.118941 11:0.025132 12:0.02336 13:0.015706 14:0.016594 15:0.025369 16:0.045844 17:0.358305 18:0.358305 19:0.358305 20:0.126967 21:0.008959 22:0.010085 23:0.014888 24:0.008604 25:0.011509 26:0.015563 27:0.263122 28:0.358305 29:0.116698 30:0.020508 31:0.014793 32:0.014845 33:0.022066 34:0.034017 35:0.060522 36:0.358305 
-1 1:0.272109 2:0.144438 3:0.070237 4:0.04915 5:0.044351 6:0.033737 7:0.079163 8:0.157324 9:0.272109 10:0.272109 11:0.061113 12:0.040365 13:0.038304 14:0.040985 15:0.032442 16:0.042707 17:0.259054 18:0.272109 19:0.272109 20:0.272109 21:0.232064 22:0.080378 23:0.215858 24:0.035329 25:0.168484 26:0.272109 27:0.272109 28:0.121855 29:0.129716 30:0.112429 31:0.076699 32:0.164835 33:0.028836 34:0.073112 35:0.131297 36:0.163638 
-1 1:0.065495 2:0.014956 3:0.009666 4:0.015776 5:0.028905 6:0.028732 7:0.055741 8:0.213121 9:0.253897 10:0.074192 11:0.025233 12:0.021423 13:0.050996 14:0.156072 15:0.303988 16:0.251662 17:0.303988 18:0.256027 19:0.303988 20:0.085843 21:0.014621 22:0.015607 23:0.017745 24:0.011529 25:0.014232 26:0.069396 27:0.303988 28:0.303988 29:0.203909 30:0.050671 31:0.066216 32:0.105446 33:0.280495 34:0.09295 35:0.017339 36:0.303988 
-1 1:0.148625 2:0.031895 3:0.013793 4:0.011281 5:0.024399 6:0.010953 7:0.016382 8:0.262227 9:0.345665 10:0.203745 11:0.025451 12:0.003856 13:0.011635 14:0.011035 15:0.04815 16:0.030849 17:0.345665 18:0.345665 19:0.29614 20:0.169726 21:0.009587 22:0.01316 23:0.063957 24:0.019095 25:0.017808 26:0.058036 27:0.18851 28:0.345665 29:0.345665 30:0.003806 31:0.007932 32:0.042352 33:0.046607 34:0.028295 35:0.083949 36:0.2965 
-1 1:0.096336 2:0.03079 3:0.01129 4:0.050727 5:0.104601 6:0.109916 7:0.136846 8:0.170389 9:0.199479 10:0.049606 11:0.021144 12:0.035489 13:0.113485 14:0.174464 15:0.203569 16:0.150544 17:0.102977 18:0.12947 19:0.382215 20:0.030885 21:0.006959 22:0.027267 23:0.053032 24:0.076844 25:0.104009 26:0.195454 27:0.382215 28:0.382215 29:0.061606 30:0.025462 31:0.042321 32:0.074421 33:0.16172 34:0.140853 35:0.179223 36:0.382215 
-1 1:0.057056 2:0.046215 3:0.034305 4:0.013406 5:0.119015 6:0.148549 7:0.227623 8:0.148132 9:0.123826 10:0.096963 11:0.042388 12:0.028991 13:0.018842 14:0.085848 15:0.173076 16:0.195652 17:0.191838 18:0.172341 19:0.192363 20:0.196661 21:0.109277 22:0.09538 23:0.231389 24:0.231389 25:0.171752 26:0.231389 27:0.231389 28:0.231389 29:0.173547 30:0.201512 31:0.105453 32:0.16971 33:0.231389 34:0.214305 35:0.231389 36:0.231389 
-1 1:0.17027 2:0.110608 3:0.041216 4:0.025889 5:0.044335 6:0.030607 7:0.121648 8:0.187546 9:0.29258 10:0.214398 11:0.096952 12:0.039877 13:0.042497 14:0.05758 15:0.042922 16:0.122763 17:0.18171 18:0.29258 19:0.29258 20:0.148255 21:0.026546 22:0.010154 23:0.090281 24:0.013087 25:0.210244 26:0.285705 27:0.29258 28:0.29258 29:0.222023 30:0.021051 31:0.030395 32:0.069806 33:0.021186 34:0.117919 35:0.219437 36:0.29258 
-1 1:0.244701 2:0.171827 3:0.073386 4:0.079824 5:0.09113 6:0.065944 7:0.20625 8:0.200755 9:0.244701 10:0.244701 11:0.192003 12:0.062107 13:0.092215 14:0.10496 15:0.179813 16:0.240101 17:0.183323 18:0.22927 19:0.179268 20:0.148992 21:0.089861 22:0.091524 23:0.118977 24:0.084617 25:0.140998 26:0.154582 27:0.230155 28:0.244701 29:0.171848 30:0.052795 31:0.073274 32:0.146402 33:0.128278 34:0.147348 35:0.197106 36:0.244701 
-0.2403874849545119 1:0.011231 2:0.000511 3:0.023257 4:0.039707 5:0.131312 6:0.218871 7:0.147774 8:0.051861 9:0.029413 10:0.009362 11:0.001865 12:0.004667 13:0.014038 14:0.109931 15:0.190419 16:0.125269 17:0.056675 18:0.026025 19:0.359688 20:0.018733 21:0.00198 22:0.014074 23:0.058184 24:0.138794 25:0.308262 26:0.359688 27:0.359688 28:0.359688 29:0.031759 30:0.000254 31:0.003879 32:0.045854 33:0.070102 34:0.159527 35:0.191814 36:0.359688 
-1 1:0.288714 2:0.11503 3:0.082986 4:0.05038 5:0.056293 6:0.052726 7:0.075782 8:0.288714 9:0.288714 10:0.288714 11:0.224923 12:0.082533 13:0.074887 14:0.076749 15:0.288714 16:0.288714 17:0.288714 18:0.288714 19:0.209623 20:0.071272 21:0.035904 22:0.034649 23:0.055497 24:0.024257 25:0.042281 26:0.120391 27:0.211428 28:0.174965 29:0.137475 30:0.04602 31:0.059117 32:0.104163 33:0.077028 34:0.099395 35:0.105444 36:0.133974 
-1 1:0.067673 2:0.018732 3:0.050475 4:0.077759 5:0.063189 6:0.058445 7:0.196811 8:0.314124 9:0.314124 10:0.101737 11:0.050657 12:0.052584 13:0.059109 14:0.033948 15:0.037655 16:0.143678 17:0.314124 18:0.314124 19:0.238915 20:0.196872 21:0.21557 22:0.176795 23:0.082459 24:0.035712 25:0.031992 26:0.073666 27:0.132316 28:0.314124 29:0.314124 30:0.170484 31:0.145314 32:0.067631 33:0.027966 34:0.040383 35:0.081924 36:0.182434 
-1 1:0.100093 2:0.03946 3:0.061245 4:0.039019 5:0.008565 6:0.019683 7:0.040917 8:0.290723 9:0.290723 10:0.174829 11:0.071559 12:0.028268 13:0.044451 14:0.084866 15:0.066759 16:0.047581 17:0.248852 18:0.290723 19:0.122509 20:0.22986 21:0.290723 22:0.233523 23:0.05479 24:0.054228 25:0.067394 26:0.219866 27:0.290723 28:0.148416 29:0.13384 30:0.080255 31:0.135225 32:0.290723 33:0.227919 34:0.070663 35:0.111407 36:0.203617 
-1 1:0.274157 2:0.09718 3:0.041812 4:0.040547 5:0.030763 6:0.032765 7:0.066603 8:0.127507 9:0.268894 10:0.274157 11:0.274157 12:0.153628 13:0.034884 14:0.029461 15:0.025469 16:0.068649 17:0.171553 18:0.274157 19:0.274157 20:0.22077 21:0.107072 22:0.037325 23:0.027376 24:0.00822 25:0.006971 26:0.133541 27:0.220219 28:0.274157 29:0.274157 30:0.274157 31:0.038649 32:0.024244 33:0.011778 34:0.030048 35:0.143366 36:0.274157 
-1 1:0.089089 2:0.007186 3:0.002745 4:0.007261 5:0.119921 6:0.308841 7:0.308841 8:0.109037 9:0.122132 10:0.165157 11:0.020467 12:0.013318 13:0.0069 14:0.065909 15:0.234643 16:0.308841 17:0.039836 18:0.220731 19:0.05706 20:0.012543 21:0.00382 22:0.01078 23:0.126678 24:0.308841 25:0.308841 26:0.230089 27:0.177845 28:0.065427 29:0.036626 30:0.012417 31:0.01855 32:0.143981 33:0.308841 34:0.308841 35:0.082133 36:0.067909 
-1 1:0.144768 2:0.072969 3:0.027455 4:0.023742 5:0.079123 6:0.206075 7:0.273219 8:0.273219 9:0.219488 10:0.223588 11:0.152606 12:0.081109 13:0.038855 14:0.053049 15:0.088388 16:0.116893 17:0.116801 18:0.273219 19:0.273219 20:0.271507 21:0.072671 22:0.053908 23:0.038986 24:0.05237 25:0.122461 26:0.170707 27:0.273219 28:0.273219 29:0.273219 30:0.058514 31:0.031205 32:0.028228 33:0.029193 34:0.065681 35:0.124952 36:0.273219 
-1 1:0.174934 2:0.159151 3:0.059481 4:0.00703 5:0.009279 6:0.020018 7:0.073694 8:0.299248 9:0.30332 10:0.160441 11:0.142455 12:0.057115 13:0.023099 14:0.068458 15:0.070133 16:0.135909 17:0.25154 18:0.237422 19:0.30332 20:0.238724 21:0.067381 22:0.001473 23:0.006367 24:0.009118 25:0.030877 26:0.093993 27:0.30332 28:0.30332 29:0.30332 30:0.063607 31:0.016138 32:0.061645 33:0.035456 34:0.039915 35:0.100091 36:0.30332 
-1 1:0.305941 2:0.072856 3:0.022379 4:0.02263 5:0.036149 6:0.007935 7:0.100331 8:0.305941 9:0.305941 10:0.268826 11:0.084411 12:0.02057 13:0.007178 14:0.046786 15:0.040618 16:0.140212 17:0.305941 18:0.305941 19:0.305941 20:0.057985 21:0.022375 22:0.014992 23:0.010369 24:0.011598 25:0.030457 26:0.105911 27:0.305941 28:0.305941 29:0.094963 30:0.021283 31:0.01189 32:0.028766 33:0.011514 34:0.039864 35:0.069168 36:0.305941 
-1 1:0.244903 2:0.216772 3:0.061626 4:0.053046 5:0.063946 6:0.054957 7:0.135717 8:0.244903 9:0.244903 10:0.24214 11:0.168459 12:0.10616 13:0.06871 14:0.122453 15:0.101722 16:0.19422 17:0.244903 18:0.244903 19:0.244903 20:0.228187 21:0.152628 22:0.102602 23:0.077313 24:0.057628 25:0.078847 26:0.064496 27:0.134455 28:0.244903 29:0.244903 30:0.244903 31:0.194668 32:0.113174 33:0.081733 34:0.093553 35:0.118706 36:0.093211 
-1 1:0.310032 2:0.07572 3:0.033421 4:0.010479 5:0.02153 6:0.005097 7:0.010857 8:0.279162 9:0.310032 10:0.310032 11:0.054115 12:0.02668 13:0.01083 14:0.033256 15:0.006756 16:0.009684 17:0.302623 18:0.310032 19:0.310032 20:0.17005 21:0.066844 22:0.022732 23:0.034072 24:0.018555 25:0.024548 26:0.059072 27:0.248071 28:0.310032 29:0.223225 30:0.061964 31:0.021696 32:0.059234 33:0.015077 34:0.012976 35:0.04858 36:0.276869 
-1 1:0.165551 2:0.323828 3:0.323828 4:0.059488 5:0.029659 6:0.001376 7:0.007636 8:0.038846 9:0.126827 10:0.143943 11:0.323828 12:0.323828 13:0.039813 14:0.014222 15:0.003648 16:0.006264 17:0.065404 18:0.245563 19:0.056049 20:0.316266 21:0.323828 22:0.073013 23:0.047748 24:0.005435 25:0.005644 26:0.008465 27:0.041014 28:0.055441 29:0.323828 30:0.323828 31:0.073966 32:0.036852 33:0.00796 34:0.009052 35:0.013295 36:0.057271 
-1 1:0.221265 2:0.160253 3:0.149021 4:0.083194 5:0.066858 6:0.109898 7:0.074794 8:0.124575 9:0.221265 10:0.221265 11:0.100902 12:0.124535 13:0.097992 14:0.109716 15:0.199516 16:0.140569 17:0.176506 18:0.221265 19:0.16007 20:0.160463 21:0.201262 22:0.156486 23:0.172181 24:0.188137 25:0.199699 26:0.159555 27:0.130328 28:0.164628 29:0.172665 30:0.171706 31:0.199452 32:0.196108 33:0.221265 34:0.213847 35:0.185639 36:0.117972 
-1 1:0.079521 2:0.047847 3:0.033201 4:0.094331 5:0.18759 6:0.225354 7:0.196855 8:0.186242 9:0.107157 10:0.141759 11:0.030737 12:0.054119 13:0.04689 14:0.169878 15:0.225354 16:0.225354 17:0.225354 18:0.158578 19:0.225354 20:0.11403 21:0.048431 22:0.142803 23:0.139541 24:0.191657 25:0.213579 26:0.224563 27:0.157166 28:0.225354 29:0.107984 30:0.184436 31:0.146919 32:0.117032 33:0.187843 34:0.225354 35:0.210436 36:0.223921 
-1 1:0.222895 2:0.022207 3:0.009651 4:0.00909 5:0.006575 6:0.001975 7:0.004623 8:0.117987 9:0.328975 10:0.280767 11:0.039779 12:0.013118 13:0.01111 14:0.00868 15:0.003021 16:0.008696 17:0.218252 18:0.328975 19:0.328975 20:0.24573 21:0.01151 22:0.010599 23:0.009507 24:0.003944 25:0.003346 26:0.014159 27:0.303436 28:0.328975 29:0.328975 30:0.02054 31:0.00895 32:0.013488 33:0.005171 34:0.010007 35:0.026296 36:0.328975 
-1 1:0.238098 2:0.174361 3:0.051782 4:0.046496 5:0.048336 6:0.08246 7:0.130366 8:0.176483 9:0.238098 10:0.238098 11:0.197203 12:0.065187 13:0.04641 14:0.098065 15:0.100068 16:0.194259 17:0.238098 18:0.238098 19:0.238098 20:0.133777 21:0.085641 22:0.132215 23:0.062906 24:0.083467 25:0.165182 26:0.153556 27:0.238098 28:0.238098 29:0.182281 30:0.163887 31:0.130387 32:0.116702 33:0.109399 34:0.168401 35:0.238098 36:0.238098 
-0.0116563113902497 1:0.078631 2:0.016165 3:0.062791 4:0.03015 5:0.216697 6:0.257555 7:0.225224 8:0.190755 9:0.257555 10:0.088829 11:0.017324 12:0.009067 13:0.012648 14:0.074048 15:0.209892 16:0.201718 17:0.233949 18:0.257555 19:0.125954 20:0.099951 21:0.041754 22:0.039475 23:0.188286 24:0.257555 25:0.257555 26:0.126451 27:0.049958 28:0.257555 29:0.255026 30:0.031141 31:0.024512 32:0.082169 33:0.257555 34:0.231406 35:0.114329 36:0.106074 
-1 1:0.266349 2:0.019345 3:0.004038 4:0.01838 5:0.027254 6:0.017763 7:0.100893 8:0.266349 9:0.266349 10:0.266349 11:0.047754 12:0.001118 13:0.002058 14:0.010032 15:0.012092 16:0.181535 17:0.266349 18:0.266349 19:0.111579 20:0.050827 21:0.070705 22:0.086196 23:0.081263 24:0.059418 25:0.135956 26:0.266349 27:0.259341 28:0.26067 29:0.234572 30:0.050865 31:0.014719 32:0.041491 33:0.069816 34:0.235999 35:0.266349 36:0.266349 
-1 1:0.190484 2:0.068959 3:0.026754 4:0.048711 5:0.066205 6:0.117331 7:0.156929 8:0.281075 9:0.293646 10:0.126626 11:0.039491 12:0.065202 13:0.053822 14:0.105421 15:0.198911 16:0.16983 17:0.220174 18:0.293646 19:0.22408 20:0.100352 21:0.021709 22:0.014968 23:0.012431 24:0.036188 25:0.075719 26:0.293646 27:0.293646 28:0.253996 29:0.077434 30:0.029844 31:0.018971 32:0.057214 33:0.099327 34:0.089297 35:0.293646 36:0.293646 
-1 1:0.04871 2:0.010402 3:0.005292 4:0.005606 5:0.010234 6:0.024611 7:0.325561 8:0.325561 9:0.206523 10:0.080091 11:0.006052 12:0.005615 13:0.005764 14:0.007867 15:0.0156 16:0.288048 17:0.325561 18:0.278902 19:0.070033 20:0.01603 21:0.007712 22:0.018355 23:0.02624 24:0.029512 25:0.325561 26:0.325561 27:0.109633 28:0.076912 29:0.003103 30:0.002341 31:0.006804 32:0.016134 33:0.022574 34:0.325561 35:0.325561 36:0.124299 
-1 1:0.025348 2:0.000632 3:0.000851 4:0.000929 5:0.001146 6:0.000578 7:0.052269 8:0.329266 9:0.329266 10:0.078388 11:0.000671 12:0.000444 13:0.000583 14:0.001377 15:3.3e-005 16:0.031169 17:0.329266 18:0.329266 19:0.329266 20:0.03619 21:0.042705 22:0.025333 23:0.012798 24:0.007735 25:0.080908 26:0.294701 27:0.201834 28:0.329266 29:0.097936 30:0.016307 31:0.007493 32:0.010573 33:0.00049 34:0.042137 35:0.278154 36:0.329266 
-1 1:0.312974 2:0.312974 3:0.192645 4:0.052725 5:0.017062 6:0.099125 7:0.183935 8:0.17227 9:0.312974 10:0.312974 11:0.130905 12:0.10427 13:0.091201 14:0.029759 15:0.064123 16:0.094106 17:0.058381 18:0.258935 19:0.312974 20:0.18448 21:0.06079 22:0.030328 23:0.068572 24:0.020757 25:0.030295 26:0.049589 27:0.17997 28:0.312974 29:0.186335 30:0.054506 31:0.034228 32:0.099847 33:0.017184 34:0.022221 35:0.031996 36:0.211688 
-1 1:0.142554 2:0.010763 3:0.020609 4:0.040202 5:0.059099 6:0.023311 7:0.109921 8:0.400194 9:0.400194 10:0.170382 11:0.004861 12:0.012472 13:0.038529 14:0.039198 15:0.049593 16:0.159181 17:0.400194 18:0.400194 19:0.125299 20:0.039414 21:0.163092 22:0.173443 23:0.086997 24:0.057938 25:0.074035 26:0.099083 27:0.154694 28:0.049217 29:0.03167 30:0.120652 31:0.185025 32:0.133589 33:0.098573 34:0.155135 35:0.146031 36:0.086579 
-1 1:0.099484 2:0.108543 3:0.108149 4:0.122568 5:0.15489 6:0.100217 7:0.142117 8:0.086866 9:0.173628 10:0.101202 11:0.139082 12:0.187292 13:0.210959 14:0.210959 15:0.210959 16:0.177135 17:0.173711 18:0.210959 19:0.195227 20:0.210959 21:0.1388 22:0.151653 23:0.149576 24:0.079959 25:0.062573 26:0.110916 27:0.182404 28:0.154951 29:0.210959 30:0.210959 31:0.210959 32:0.210959 33:0.205209 34:0.16148 35:0.210959 36:0.188378 
-1 1:0.256025 2:0.083003 3:0.038645 4:0.024965 5:0.036964 6:0.038138 7:0.181011 8:0.234898 9:0.256025 10:0.256025 11:0.097552 12:0.05718 13:0.044883 14:0.038435 15:0.018568 16:0.171434 17:0.144251 18:0.256025 19:0.192548 20:0.144658 21:0.150687 22:0.045614 23:0.085135 24:0.042263 25:0.256025 26:0.256025 27:0.185701 28:0.256025 29:0.163534 30:0.147463 31:0.063807 32:0.093875 33:0.044541 34:0.256025 35:0.256025 36:0.226381 
-1 1:0.257473 2:0.106588 3:0.070918 4:0.05719 5:0.048515 6:0.082444 7:0.1364 8:0.16444 9:0.263366 10:0.263366 11:0.142345 12:0.083762 13:0.02724 14:0.04591 15:0.057922 16:0.092201 17:0.2578 18:0.263366 19:0.263366 20:0.263366 21:0.175654 22:0.078585 23:0.034962 24:0.03488 25:0.049984 26:0.095459 27:0.263366 28:0.263366 29:0.263366 30:0.156333 31:0.032061 32:0.076861 33:0.03698 34:0.048394 35:0.194305 36:0.263366 
-1 1:0.03095 2:0.028978 3:0.052098 4:0.039661 5:0.115274 6:0.23334 7:0.247218 8:0.247218 9:0.088676 10:0.065488 11:0.057631 12:0.066098 13:0.058185 14:0.085787 15:0.219539 16:0.247218 17:0.247218 18:0.161691 19:0.070894 20:0.085033 21:0.247218 22:0.160252 23:0.218421 24:0.165493 25:0.155549 26:0.080138 27:0.050847 28:0.247218 29:0.215847 30:0.247218 31:0.144253 32:0.213237 33:0.183606 34:0.198641 35:0.189987 36:0.150311 
-1 1:0.318417 2:0.073709 3:0.029564 4:0.040797 5:0.008966 6:0.054693 7:0.237597 8:0.282472 9:0.298845 10:0.220802 11:0.047958 12:0.028921 13:0.052082 14:0.064969 15:0.051138 16:0.158844 17:0.249644 18:0.239755 19:0.09217 20:0.048077 21:0.043638 22:0.032783 23:0.064847 24:0.063829 25:0.318417 26:0.318417 27:0.089848 28:0.255652 29:0.208396 30:0.040081 31:0.043958 32:0.083925 33:0.0586 34:0.258359 35:0.148938 36:0.087798 
-1 1:0.236186 2:0.157921 3:0.075751 4:0.008755 5:0.030463 6:0.089821 7:0.249376 8:0.249376 9:0.249376 10:0.229464 11:0.124393 12:0.062631 13:0.02844 14:0.027992 15:0.010275 16:0.086972 17:0.249376 18:0.249376 19:0.249376 20:0.173429 21:0.028298 22:0.005046 23:0.028112 24:0.230335 25:0.249376 26:0.204479 27:0.249376 28:0.249376 29:0.211554 30:0.084387 31:0.047194 32:0.007197 33:0.008436 34:0.037024 35:0.128929 36:0.249376 
-1 1:0.214197 2:0.154342 3:0.139771 4:0.123642 5:0.257445 6:0.155227 7:0.065489 8:0.010003 9:0.111706 10:0.064561 11:0.094316 12:0.177632 13:0.257445 14:0.257445 15:0.257445 16:0.057255 17:0.01122 18:0.028201 19:0.225581 20:0.237723 21:0.257445 22:0.172297 23:0.1115 24:0.037785 25:0.044525 26:0.044839 27:0.159523 28:0.233858 29:0.22614 30:0.257445 31:0.257445 32:0.195198 33:0.049469 34:0.013839 35:0.013235 36:0.109754 
-1 1:0.140789 2:0.031384 3:0.009009 4:0.017448 5:0.011485 6:0.010242 7:0.029063 8:0.261532 9:0.347028 10:0.121784 11:0.036269 12:0.022919 13:0.012039 14:0.029475 15:0.0162 16:0.040021 17:0.181466 18:0.347028 19:0.226977 20:0.053174 21:0.036118 22:0.061929 23:0.051548 24:0.042263 25:0.086178 26:0.347028 27:0.347028 28:0.175992 29:0.067439 30:0.065051 31:0.078956 32:0.072632 33:0.018988 34:0.088496 35:0.347028 36:0.347028 
-1 1:0.292446 2:0.098723 3:0.01309 4:0.008378 5:0.019437 6:0.006352 7:0.015365 8:0.137608 9:0.292446 10:0.292446 11:0.096348 12:0.035496 13:0.003088 14:0.011896 15:0.016223 16:0.045966 17:0.2172 18:0.292446 19:0.292446 20:0.155169 21:0.050695 22:0.025873 23:0.055323 24:0.058498 25:0.270225 26:0.272108 27:0.207108 28:0.292446 29:0.245298 30:0.221586 31:0.021999 32:0.066865 33:0.026884 34:0.101503 35:0.0999 36:0.187394 
-1 1:0.285789 2:0.206273 3:0.061402 4:0.041077 5:0.127455 6:0.065244 7:0.06604 8:0.063533 9:0.164063 10:0.146402 11:0.116955 12:0.062429 13:0.045521 14:0.285789 15:0.285789 16:0.107229 17:0.122534 18:0.168676 19:0.285789 20:0.207401 21:0.131309 22:0.037639 23:0.114557 24:0.040824 25:0.039448 26:0.113098 27:0.217796 28:0.285789 29:0.157901 30:0.131338 31:0.059609 32:0.285789 33:0.285789 34:0.070036 35:0.080165 36:0.173888 
-1 1:0.309308 2:0.104448 3:0.003485 4:0.020177 5:0.030186 6:0.053544 7:0.069831 8:0.204495 9:0.283066 10:0.309308 11:0.118226 12:0.006779 13:0.005767 14:0.044907 15:0.017641 16:0.017814 17:0.053509 18:0.309308 19:0.309308 20:0.136965 21:0.069499 22:0.05272 23:0.089805 24:0.089451 25:0.063708 26:0.265607 27:0.309308 28:0.309308 29:0.128895 30:0.024962 31:0.033074 32:0.142418 33:0.077098 34:0.052757 35:0.069744 36:0.303548 
-1 1:0.275174 2:0.109973 3:0.051289 4:0.037841 5:0.097045 6:0.086752 7:0.115066 8:0.176709 9:0.275174 10:0.275174 11:0.149867 12:0.097649 13:0.05059 14:0.090227 15:0.056467 16:0.094646 17:0.188162 18:0.275174 19:0.166851 20:0.206053 21:0.121613 22:0.086388 23:0.132544 24:0.118717 25:0.112877 26:0.171881 27:0.222686 28:0.275174 29:0.225707 30:0.198208 31:0.085515 32:0.131867 33:0.10316 34:0.081547 35:0.163723 36:0.275174 
-1 1:0.273828 2:0.17982 3:0.052613 4:0.053198 5:0.11697 6:0.099535 7:0.12426 8:0.172752 9:0.273828 10:0.273828 11:0.0874 12:0.041064 13:0.028684 14:0.073847 15:0.034045 16:0.053078 17:0.096405 18:0.273828 19:0.273828 20:0.255792 21:0.162993 22:0.076473 23:0.183561 24:0.195398 25:0.120898 26:0.108194 27:0.248102 28:0.273828 29:0.222009 30:0.103569 31:0.017876 32:0.089085 33:0.059863 34:0.067644 35:0.051826 36:0.273828 
-1 1:0.114675 2:0.133697 3:0.036339 4:0.019592 5:0.034122 6:0.035126 7:0.079627 8:0.154695 9:0.19193 10:0.128829 11:0.135952 12:0.047906 13:0.048545 14:0.092756 15:0.067109 16:0.076511 17:0.112771 18:0.16059 19:0.341252 20:0.131185 21:0.085214 22:0.011067 23:0.020884 24:0.040231 25:0.110808 26:0.342645 27:0.342645 28:0.342645 29:0.131364 30:0.066384 31:0.025781 32:0.0896 33:0.067888 34:0.140609 35:0.342645 36:0.342645 
-1 1:0.162281 2:0.109186 3:0.080614 4:0.079254 5:0.097776 6:0.124828 7:0.219194 8:0.121441 9:0.16401 10:0.253534 11:0.100992 12:0.169157 13:0.11298 14:0.242257 15:0.106027 16:0.118755 17:0.095458 18:0.219094 19:0.255472 20:0.156004 21:0.16527 22:0.086026 23:0.116917 24:0.130312 25:0.190563 26:0.134594 27:0.255472 28:0.252456 29:0.138726 30:0.156573 31:0.118793 32:0.236846 33:0.132387 34:0.132212 35:0.14809 36:0.255472 
-1 1:0.106629 2:0.270036 3:0.270036 4:0.166733 5:0.016052 6:0.012197 7:0.004578 8:0.014415 9:0.025094 10:0.104749 11:0.270036 12:0.270036 13:0.12438 14:0.021093 15:0.016456 16:0.007963 17:0.044432 18:0.039287 19:0.270036 20:0.270036 21:0.263273 22:0.100373 23:0.003463 24:0.002032 25:0.043364 26:0.102166 27:0.270036 28:0.26424 29:0.270036 30:0.270036 31:0.132004 32:0.002234 33:0.003247 34:0.040119 35:0.127829 36:0.270036 
-0.4709541366150857 1:0.346393 2:0.128259 3:0.111269 4:0.063887 5:0.066643 6:0.121189 7:0.150043 8:0.071261 9:0.346393 10:0.346393 11:0.098447 12:0.11576 13:0.054949 14:0.106396 15:0.085494 16:0.122412 17:0.054331 18:0.346393 19:0.180162 20:0.167828 21:0.196901 22:0.138991 23:0.082425 24:0.105527 25:0.14543 26:0.130754 27:0.142703 28:0.159248 29:0.148924 30:0.153953 31:0.126269 32:0.139916 33:0.104122 34:0.13747 35:0.104251 36:0.177924 
-1 1:0.085958 2:0.04099 3:0.006031 4:0.004327 5:0.0057 6:0.038015 7:0.199734 8:0.164635 9:0.201063 10:0.106361 11:0.038047 12:0.022541 13:0.012516 14:0.035285 15:0.038419 16:0.096487 17:0.077174 18:0.169989 19:0.327811 20:0.239202 21:0.000777 22:1.4e-005 23:0.002479 24:0.121476 25:0.326186 26:0.208383 27:0.327811 28:0.327811 29:0.327811 30:0.014322 31:0.001742 32:0.003586 33:0.119429 34:0.166853 35:0.130241 36:0.327811 
-1 1:0.353331 2:0.016612 3:0.025678 4:0.114197 5:0.073802 6:0.016609 7:0.0069 8:0.035729 9:0.353331 10:0.15492 11:0.030102 12:0.036144 13:0.064506 14:0.051627 15:0.019979 16:0.020991 17:0.036985 18:0.175041 19:0.353331 20:0.352968 21:0.038097 22:0.016856 23:0.088848 24:0.010616 25:0.010155 26:0.045148 27:0.154902 28:0.353331 29:0.353331 30:0.112053 31:0.007936 32:0.030051 33:0.003343 34:0.007216 35:0.021524 36:0.332918 
-1 1:0.258095 2:0.103466 3:0.061793 4:0.044292 5:0.085271 6:0.052048 7:0.102278 8:0.231017 9:0.258095 10:0.258095 11:0.160888 12:0.053101 13:0.064241 14:0.060391 15:0.053281 16:0.131986 17:0.25158 18:0.258095 19:0.253038 20:0.141627 21:0.101047 22:0.108024 23:0.114582 24:0.064371 25:0.101852 26:0.171073 27:0.243517 28:0.258095 29:0.258095 30:0.124178 31:0.103207 32:0.057129 33:0.076693 34:0.12687 35:0.217517 36:0.258095 
-1 1:0.117393 2:0.079809 3:0.073253 4:0.046241 5:0.043765 6:0.023076 7:0.00631 8:0.020224 9:0.06872 10:0.178452 11:0.051372 12:0.033464 13:0.078891 14:0.170386 15:0.061314 16:0.043219 17:0.121349 18:0.17986 19:0.27976 20:0.27976 21:0.27923 22:0.132293 23:0.061335 24:0.071471 25:0.02216 26:0.031731 27:0.275211 28:0.27976 29:0.27976 30:0.225258 31:0.27976 32:0.277233 33:0.146366 34:0.117907 35:0.155793 36:0.27976 
-1 1:0.069334 2:0.035322 3:0.013502 4:0.023846 5:0.207454 6:0.252455 7:0.252455 8:0.17332 9:0.078086 10:0.140649 11:0.086549 12:0.05599 13:0.111952 14:0.252455 15:0.252455 16:0.252455 17:0.174474 18:0.190331 19:0.252455 20:0.096307 21:0.096118 22:0.02357 23:0.177021 24:0.10203 25:0.091944 26:0.05202 27:0.092406 28:0.252455 29:0.192224 30:0.159338 31:0.176477 32:0.232727 33:0.240269 34:0.13284 35:0.082086 36:0.213264 
-1 1:0.232717 2:0.126801 3:0.186638 4:0.051345 5:0.030485 6:0.070216 7:0.240047 8:0.240047 9:0.240047 10:0.114355 11:0.127838 12:0.136968 13:0.032328 14:0.029007 15:0.165864 16:0.240047 17:0.151651 18:0.219158 19:0.240047 20:0.230783 21:0.240047 22:0.120118 23:0.051338 24:0.059028 25:0.161875 26:0.142344 27:0.240047 28:0.183067 29:0.240047 30:0.196163 31:0.064663 32:0.038639 33:0.092709 34:0.180137 35:0.09774 36:0.16096 
-0.808544628349764 1:0.17764 2:0.082377 3:0.052315 4:0.034902 5:0.048216 6:0.036026 7:0.07702 8:0.088058 9:0.20136 10:0.170244 11:0.098218 12:0.101027 13:0.045752 14:0.07994 15:0.055142 16:0.065291 17:0.116779 18:0.234591 19:0.360816 20:0.117337 21:0.079192 22:0.021782 23:0.046233 24:0.054514 25:0.126646 26:0.178407 27:0.360816 28:0.360816 29:0.104827 30:0.089171 31:0.041964 32:0.117126 33:0.069477 34:0.123961 35:0.337775 36:0.360816 
-1 1:0.223755 2:0.184829 3:0.178004 4:0.200304 5:0.223755 6:0.08539 7:0.149898 8:0.194869 9:0.223755 10:0.189337 11:0.090139 12:0.070524 13:0.068199 14:0.110353 15:0.016429 16:0.138136 17:0.223755 18:0.223755 19:0.181171 20:0.223755 21:0.223755 22:0.206926 23:0.168693 24:0.058236 25:0.135898 26:0.17576 27:0.165732 28:0.192494 29:0.137907 30:0.140757 31:0.090213 32:0.059914 33:0.041726 34:0.121092 35:0.223755 36:0.223755 
-1 1:0.084191 2:0.051687 3:0.054887 4:0.069588 5:0.078976 6:0.101571 7:0.076009 8:0.112214 9:0.101531 10:0.062508 11:0.077393 12:0.117315 13:0.13819 14:0.231839 15:0.10891 16:0.047135 17:0.069725 18:0.069233 19:0.334068 20:0.308542 21:0.088448 22:0.085441 23:0.093773 24:0.121151 25:0.104802 26:0.082898 27:0.26637 28:0.334068 29:0.334068 30:0.334068 31:0.139341 32:0.094652 33:0.090447 34:0.083401 35:0.06586 36:0.310995 
-1 1:0.059377 2:0.198303 3:0.296212 4:0.296212 5:0.073441 6:0.019517 7:0.017827 8:0.008961 9:0.026434 10:0.057903 11:0.218654 12:0.296212 13:0.296212 14:0.100147 15:0.020825 16:0.035572 17:0.016416 18:0.033197 19:0.061691 20:0.25981 21:0.296212 22:0.294029 23:0.088027 24:0.023025 25:0.023573 26:0.012773 27:0.039499 28:0.078902 29:0.296212 30:0.296212 31:0.296212 32:0.065176 33:0.006826 34:0.025429 35:0.015053 36:0.03759 
-1 1:0.299569 2:0.065014 3:0.002141 4:0.000205 5:0.014048 6:0.030596 7:0.044414 8:0.200311 9:0.299569 10:0.258588 11:0.064393 12:0.010127 13:0.002591 14:0.032686 15:0.011468 16:0.017341 17:0.299569 18:0.299569 19:0.299569 20:0.161923 21:0.030852 22:0.031571 23:0.035647 24:0.040013 25:0.040511 26:0.237155 27:0.299569 28:0.299569 29:0.152109 30:0.06192 31:0.024363 32:0.01337 33:0.015752 34:0.036353 35:0.201872 36:0.299569 
-0.1937276313676471 1:0.325334 2:0.088776 3:0.019311 4:0.014152 5:0.045859 6:0.051303 7:0.096219 8:0.361797 9:0.361797 10:0.361797 11:0.066922 12:0.037108 13:0.036514 14:0.036594 15:0.024257 16:0.206855 17:0.361797 18:0.361797 19:0.11083 20:0.076277 21:0.032465 22:0.075836 23:0.090002 24:0.072705 25:0.052494 26:0.06619 27:0.119145 28:0.153405 29:0.057585 30:0.044918 31:0.116992 32:0.088963 33:0.067172 34:0.063993 35:0.113075 36:0.173837 
-1 1:0.249422 2:0.097622 3:0.205797 4:0.028189 5:0.226238 6:0.044401 7:0.042822 8:0.176724 9:0.226267 10:0.249422 11:0.109935 12:0.047431 13:0.050778 14:0.249422 15:0.038113 16:0.069702 17:0.135059 18:0.249422 19:0.249422 20:0.248593 21:0.249422 22:0.072016 23:0.249422 24:0.060166 25:0.081682 26:0.162298 27:0.249422 28:0.249422 29:0.150137 30:0.078958 31:0.01736 32:0.109743 33:0.017095 34:0.028302 35:0.067069 36:0.236047 
-1 1:0.276762 2:0.216528 3:0.123354 4:0.037668 5:0.106374 6:0.029794 7:0.050574 8:0.059818 9:0.270897 10:0.276762 11:0.069693 12:0.111697 13:0.07213 14:0.040615 15:0.011529 16:0.03283 17:0.062815 18:0.276762 19:0.276762 20:0.231885 21:0.134922 22:0.04302 23:0.091942 24:0.059898 25:0.09378 26:0.126481 27:0.276762 28:0.276762 29:0.144625 30:0.167178 31:0.119059 32:0.242538 33:0.063213 34:0.093583 35:0.176614 36:0.276762 
-1 1:0.168342 2:0.020508 3:0.01833 4:0.017177 5:0.026911 6:0.013412 7:0.022815 8:0.090404 9:0.211251 10:0.310677 11:0.0319 12:0.008571 13:0.004173 14:0.008554 15:0.010446 16:0.096609 17:0.180932 18:0.332044 19:0.332044 20:0.332044 21:0.027289 22:0.003336 23:0.005384 24:0.003739 25:0.007076 26:0.011739 27:0.332044 28:0.332044 29:0.332044 30:0.012713 31:0.001495 32:0.007982 33:0.007243 34:0.007227 35:0.009779 36:0.332044 
-1 1:0.269243 2:0.103966 3:0.02089 4:0.005437 5:0.031065 6:0.057471 7:0.067021 8:0.250185 9:0.269243 10:0.269243 11:0.104843 12:0.023198 13:0.013699 14:0.034702 15:0.070997 16:0.114213 17:0.237051 18:0.269243 19:0.20068 20:0.085534 21:0.025573 22:0.026908 23:0.080609 24:0.05149 25:0.215523 26:0.269243 27:0.269243 28:0.263922 29:0.149156 30:0.067913 31:0.048394 32:0.084318 33:0.034805 34:0.189225 35:0.269243 36:0.269243 
-1 1:0.294801 2:0.08677 3:0.022913 4:0.016403 5:0.03556 6:0.007768 7:0.023352 8:0.154564 9:0.294801 10:0.294801 11:0.051942 12:0.008556 13:0.001457 14:0.018905 15:0.005481 16:0.082167 17:0.294801 18:0.294801 19:0.294801 20:0.162604 21:0.045882 22:0.026337 23:0.026776 24:0.007537 25:0.026584 26:0.162041 27:0.294801 28:0.294801 29:0.157077 30:0.050377 31:0.004465 32:0.011923 33:0.020082 34:0.117047 35:0.269139 36:0.294801 
-1 1:0.156835 2:0.133444 3:0.090084 4:0.046394 5:0.035584 6:0.065623 7:0.135045 8:0.228326 9:0.222613 10:0.251092 11:0.052945 12:0.048401 13:0.03153 14:0.030482 15:0.052924 16:0.13625 17:0.303118 18:0.303118 19:0.303118 20:0.236496 21:0.114189 22:0.150906 23:0.032223 24:0.054995 25:0.140319 26:0.113616 27:0.263583 28:0.303118 29:0.112291 30:0.033568 31:0.022355 32:0.03205 33:0.043461 34:0.153292 35:0.171426 36:0.303118 
-1 1:0.245352 2:0.245352 3:0.187334 4:0.145392 5:0.206863 6:0.107637 7:0.109698 8:0.128964 9:0.245352 10:0.245352 11:0.198119 12:0.08416 13:0.076344 14:0.111559 15:0.077333 16:0.052825 17:0.081992 18:0.245352 19:0.245352 20:0.245352 21:0.170818 22:0.133039 23:0.19426 24:0.057204 25:0.0905 26:0.061185 27:0.245352 28:0.245352 29:0.245352 30:0.142554 31:0.034827 32:0.106761 33:0.047857 34:0.036817 35:0.054043 36:0.192023 
-1 1:0.175356 2:0.212677 3:0.148695 4:0.187968 5:0.135571 6:0.218525 7:0.216543 8:0.078649 9:0.079767 10:0.100925 11:0.120725 12:0.130725 13:0.173312 14:0.136687 15:0.189993 16:0.189249 17:0.096564 18:0.060772 19:0.203623 20:0.218525 21:0.218525 22:0.218525 23:0.189607 24:0.218525 25:0.138592 26:0.077519 27:0.064383 28:0.218525 29:0.218525 30:0.218525 31:0.218525 32:0.155394 33:0.120854 34:0.130842 35:0.107644 36:0.08401 
-1 1:0.105164 2:0.310447 3:0.310447 4:0.138762 5:0.091846 6:0.009507 7:0.025337 8:0.231472 9:0.215238 10:0.172318 11:0.182921 12:0.116717 13:0.034036 14:0.048837 15:0.021493 16:0.137826 17:0.310447 18:0.310447 19:0.140643 20:0.166822 21:0.286774 22:0.117455 23:0.072314 24:0.032512 25:0.092577 26:0.17299 27:0.106909 28:0.111395 29:0.095419 30:0.062231 31:0.028198 32:0.077094 33:0.099138 34:0.245061 35:0.246243 36:0.098593 
