svm_type c_svc
kernel_type linear
nr_class 2
total_sv 134
rho -0.50727
label 4 8
probA -2.28643
probB 0.15662
nr_sv 68 66
SV
1 1:0.095512 2:0.204773 3:0.206345 4:0.204928 5:0.145475 6:0.107317 7:0.057789 8:0.046718 9:0.043146 10:0.175406 11:0.299352 12:0.299352 13:0.160759 14:0.120713 15:0.014549 16:0.034277 17:0.038612 18:0.049269 19:0.223187 20:0.299352 21:0.299352 22:0.196762 23:0.120794 24:0.082383 25:0.014587 26:0.019105 27:0.046439 28:0.262923 29:0.299352 30:0.299352 31:0.120086 32:0.085329 33:0.020433 34:0.01061 35:0.001032 36:0.056198 
1 1:0.106054 2:0.133499 3:0.0659 4:0.019662 5:0.008658 6:0.01098 7:0.010215 8:0.022576 9:0.051145 10:0.233742 11:0.222588 12:0.092306 13:0.071919 14:0.061041 15:0.043976 16:0.018407 17:0.080484 18:0.19821 19:0.286822 20:0.286822 21:0.286822 22:0.201835 23:0.084567 24:0.027538 25:0.02011 26:0.059672 27:0.111973 28:0.286822 29:0.286822 30:0.286822 31:0.286822 32:0.125941 33:0.100029 34:0.120382 35:0.234796 36:0.231876 
1 1:0.163989 2:0.302991 3:0.08175 4:0.024501 5:0.067091 6:0.022128 7:0.014071 8:0.0263 9:0.044752 10:0.302991 11:0.302991 12:0.172405 13:0.090894 14:0.106896 15:0.049787 16:0.018554 17:0.064583 18:0.136899 19:0.302991 20:0.302991 21:0.218824 22:0.030318 23:0.02764 24:0.013767 25:0.010735 26:0.051365 27:0.223481 28:0.292202 29:0.302991 30:0.290277 31:0.097999 32:0.086626 33:0.050165 34:0.01739 35:0.065442 36:0.180663 
1 1:0.320245 2:0.320245 3:0.078638 4:0.011758 5:0.018878 6:0.003322 7:0.00599 8:0.026997 9:0.09861 10:0.320245 11:0.320245 12:0.152634 13:0.032922 14:0.040515 15:0.030311 16:0.026173 17:0.02662 18:0.128666 19:0.320245 20:0.320245 21:0.127667 22:0.051947 23:0.056534 24:0.026474 25:0.022878 26:0.046026 27:0.171985 28:0.320245 29:0.320245 30:0.156307 31:0.034496 32:0.071308 33:0.055693 34:0.036367 35:0.043446 36:0.148812 
1 1:0.046569 2:0.323796 3:0.323796 4:0.046649 5:0.025265 6:0.016283 7:0.010119 8:0.014519 9:0.028625 10:0.151027 11:0.323796 12:0.323796 13:0.014705 14:0.014386 15:0.009781 16:0.006191 17:0.008922 18:0.044105 19:0.024217 20:0.323796 21:0.323796 22:0.323796 23:0.068374 24:0.005934 25:0.002735 26:0.00275 27:0.011389 28:0.035657 29:0.323796 30:0.323796 31:0.116757 32:0.024085 33:0.001829 34:0.004498 35:0.009363 36:0.018998 
1 1:0.253852 2:0.21475 3:0.188879 4:0.100195 5:0.253852 6:0.243345 7:0.07522 8:0.110485 9:0.167171 10:0.253852 11:0.253852 12:0.197505 13:0.0921 14:0.170596 15:0.171297 16:0.093339 17:0.149452 18:0.158089 19:0.253852 20:0.253852 21:0.122586 22:0.019452 23:0.044349 24:0.065801 25:0.036472 26:0.070045 27:0.229516 28:0.253852 29:0.253852 30:0.104219 31:0.021494 32:0.03831 33:0.03971 34:0.037055 35:0.073571 36:0.146041 
1 1:0.342003 2:0.035805 3:0.019586 4:0.029495 5:0.047372 6:0.061535 7:0.035114 8:0.033846 9:0.342003 10:0.342003 11:0.062663 12:0.028777 13:0.037454 14:0.093096 15:0.093837 16:0.05749 17:0.065212 18:0.342003 19:0.342003 20:0.041667 21:0.015596 22:0.004133 23:0.011533 24:0.017833 25:0.009177 26:0.061905 27:0.342003 28:0.342003 29:0.083894 30:0.014181 31:0.004365 32:0.010179 33:0.021229 34:0.006805 35:0.067065 36:0.342003 
1 1:0.117133 2:0.323692 3:0.208651 4:0.026802 5:0.046055 6:0.017431 7:0.01512 8:0.028887 9:0.041065 10:0.216026 11:0.323838 12:0.323838 13:0.027008 14:0.018476 15:0.008643 16:0.022546 17:0.037071 18:0.142511 19:0.247867 20:0.323838 21:0.323838 22:0.033054 23:0.026849 24:0.01153 25:0.002465 26:0.006936 27:0.038057 28:0.24292 29:0.323838 30:0.323838 31:0.046745 32:0.017735 33:0.004745 34:0.01218 35:0.014275 36:0.053279 
1 1:0.291145 2:0.333263 3:0.093721 4:0.028235 5:0.048389 6:0.021317 7:0.090192 8:0.093987 9:0.127813 10:0.248357 11:0.333263 12:0.216131 13:0.042798 14:0.055613 15:0.014416 16:0.050858 17:0.054859 18:0.098696 19:0.333263 20:0.333263 21:0.109637 22:0.019494 23:0.027179 24:0.008733 25:0.079373 26:0.088831 27:0.14851 28:0.296538 29:0.333263 30:0.141114 31:0.015055 32:0.024292 33:0.018909 34:0.06603 35:0.050907 36:0.128859 
1 1:0.110614 2:0.327553 3:0.111882 4:0.012147 5:0.000938 6:0.000172 7:0.004365 8:0.01531 9:0.034978 10:0.222051 11:0.335637 12:0.335637 13:0.047568 14:0.003164 15:0.00046 16:0.010199 17:0.007046 18:0.061192 19:0.19914 20:0.335637 21:0.330123 22:0.011028 23:0.003087 24:0 25:0.005589 26:0.018678 27:0.043094 28:0.328548 29:0.335637 30:0.300944 31:0.04058 32:0.006001 33:0.000266 34:0.009963 35:0.01435 36:0.073374 
0.5925632845421264 1:0.115211 2:0.344379 3:0.139848 4:0.014242 5:0.017968 6:0.004784 7:0.01152 8:0.031628 9:0.073051 10:0.219484 11:0.344379 12:0.308381 13:0.007213 14:0.017749 15:0.001674 16:0.007839 17:0.084629 18:0.193363 19:0.168262 20:0.344379 21:0.344379 22:0.018788 23:0.009357 24:0.005833 25:0.005825 26:0.00318 27:0.044606 28:0.150865 29:0.344379 30:0.344379 31:0.02383 32:0.013285 33:0.00338 34:0.004724 35:0.001819 36:0.050143 
0.6151380489001478 1:0.305016 2:0.305016 3:0.305016 4:0.128357 5:0.021964 6:0.010929 7:0.056764 8:0.059009 9:0.097212 10:0.305016 11:0.305016 12:0.305016 13:0.047228 14:0.01274 15:0.01436 16:0.035073 17:0.065647 18:0.19259 19:0.305016 20:0.305016 21:0.163596 22:0.034398 23:0.007944 24:0.001756 25:0.026924 26:0.036817 27:0.083939 28:0.254066 29:0.237907 30:0.107001 31:0.019008 32:0.004646 33:0.000485 34:0.014295 35:0.022926 36:0.057961 
1 1:0.328827 2:0.305053 3:0.076786 4:0.053077 5:0.029953 6:0.006077 7:0.003264 8:0.002753 9:0.081024 10:0.328827 11:0.328827 12:0.076413 13:0.03189 14:0.042997 15:0.007811 16:0.012824 17:0.037005 18:0.176836 19:0.328827 20:0.328827 21:0.055985 22:0.046823 23:0.025516 24:0.011048 25:0.003571 26:0.021028 27:0.164145 28:0.328827 29:0.328827 30:0.096898 31:0.021191 32:0.010053 33:0.002327 34:0.010749 35:0.061425 36:0.204041 
1 1:0.33221 2:0.127431 3:0.060633 4:0.064767 5:0.113534 6:0.098893 7:0.098727 8:0.120863 9:0.308685 10:0.33221 11:0.118843 12:0.065225 13:0.036754 14:0.040093 15:0.058117 16:0.07283 17:0.112055 18:0.33221 19:0.33221 20:0.055386 21:0.041286 22:0.017327 23:0.023549 24:0.016071 25:0.031798 26:0.034058 27:0.33221 28:0.33221 29:0.061196 30:0.045877 31:0.022846 32:0.012537 33:0.003439 34:0.010671 35:0.02069 36:0.33221 
1 1:0.331934 2:0.057488 3:0.019093 4:0.003974 5:0.005123 6:0.004977 7:0.004234 8:0.02579 9:0.331934 10:0.331934 11:0.214461 12:0.12735 13:0.006469 14:0.021231 15:0.092788 16:0.026489 17:0.069401 18:0.331934 19:0.331934 20:0.010715 21:0.001962 22:0.001251 23:0.004761 24:0.008389 25:0.020088 26:0.088968 27:0.331934 28:0.331934 29:0.08438 30:0.042071 31:0.003981 32:0.007022 33:0.077225 34:0.034363 35:0.096728 36:0.331934 
1 1:0.098086 2:0.136013 3:0.187607 4:0.173321 5:0.207376 6:0.170133 7:0.152998 8:0.086627 9:0.078361 10:0.089106 11:0.100903 12:0.149236 13:0.207399 14:0.312186 15:0.312186 16:0.076068 17:0.116069 18:0.136057 19:0.216456 20:0.289716 21:0.312186 22:0.150257 23:0.094405 24:0.080491 25:0.090398 26:0.035608 27:0.086737 28:0.125439 29:0.139497 30:0.192965 31:0.12343 32:0.276228 33:0.091884 34:0.061054 35:0.057608 36:0.125653 
1 1:0.31893 2:0.091727 3:0.035555 4:0.004943 5:0.007981 6:0.003898 7:0.005859 8:0.114396 9:0.31893 10:0.31893 11:0.063953 12:0.040791 13:0.011775 14:0.017344 15:0.02368 16:0.023818 17:0.114738 18:0.31893 19:0.31893 20:0.155391 21:0.045898 22:0.041712 23:0.060439 24:0.080441 25:0.055616 26:0.154965 27:0.31893 28:0.31893 29:0.082041 30:0.034792 31:0.016785 32:0.08352 33:0.153659 34:0.09875 35:0.160966 36:0.31893 
1 1:0.251767 2:0.171256 3:0.112146 4:0.105169 5:0.251767 6:0.208076 7:0.106678 8:0.064161 9:0.251767 10:0.251767 11:0.231969 12:0.201307 13:0.199748 14:0.251767 15:0.251767 16:0.215969 17:0.116694 18:0.231109 19:0.251767 20:0.10554 21:0.042172 22:0.030925 23:0.019455 24:0.014741 25:0.035452 26:0.050033 27:0.251767 28:0.210051 29:0.10954 30:0.07671 31:0.050744 32:0.021362 33:0.02588 34:0.063975 35:0.068823 36:0.194837 
1 1:0.23091 2:0.20317 3:0.021517 4:0.041556 5:0.215624 6:0.274597 7:0.274597 8:0.274597 9:0.274597 10:0.147644 11:0.100228 12:0.043765 13:0.050609 14:0.193795 15:0.240456 16:0.274597 17:0.110165 18:0.145243 19:0.217563 20:0.25049 21:0.046245 22:0.06395 23:0.06023 24:0.084209 25:0.222274 26:0.166572 27:0.240433 28:0.083317 29:0.07688 30:0.075199 31:0.096873 32:0.066079 33:0.061363 34:0.08103 35:0.046996 36:0.072426 
1 1:0.302472 2:0.302472 3:0.121469 4:0.044985 5:0.02211 6:0.009534 7:0.011672 8:0.014902 9:0.143125 10:0.302472 11:0.302472 12:0.152327 13:0.018707 14:0.020068 15:0.027114 16:0.044415 17:0.039132 18:0.102019 19:0.302472 20:0.302472 21:0.10129 22:0.009849 23:0.086039 24:0.1099 25:0.071292 26:0.052044 27:0.190856 28:0.302472 29:0.302472 30:0.158246 31:0.047945 32:0.13695 33:0.198309 34:0.131513 35:0.065088 36:0.085149 
1 1:0.332319 2:0.264919 3:0.038663 4:0.03516 5:0.040155 6:0.040781 7:0.046697 8:0.108487 9:0.3133 10:0.332319 11:0.199449 12:0.048123 13:0.080424 14:0.077467 15:0.063791 16:0.049357 17:0.04661 18:0.161377 19:0.332319 20:0.137479 21:0.010848 22:0.004343 23:0.006533 24:0.003023 25:0.016002 26:0.075442 27:0.332319 28:0.332319 29:0.173786 30:0.008727 31:0.007839 32:0.012958 33:0.004608 34:0.00824 35:0.029207 36:0.332319 
1 1:0.318102 2:0.121005 3:0.064262 4:0.019515 5:0.010673 6:0.002426 7:0.04445 8:0.132652 9:0.318102 10:0.318102 11:0.119963 12:0.050197 13:0.038556 14:0.006775 15:0.005292 16:0.030457 17:0.233795 18:0.318102 19:0.318102 20:0.143869 21:0.05562 22:0.019205 23:0.008971 24:0.000189 25:0.036839 26:0.067265 27:0.318102 28:0.318102 29:0.151101 30:0.038684 31:0.034738 32:0.008998 33:0.000412 34:0.030976 35:0.133067 36:0.318102 
1 1:0.151832 2:0.204407 3:0.158331 4:0.07938 5:0.178057 6:0.162772 7:0.218247 8:0.225505 9:0.225505 10:0.225505 11:0.180554 12:0.20329 13:0.157854 14:0.144676 15:0.145679 16:0.167207 17:0.225505 18:0.225505 19:0.225505 20:0.225505 21:0.217711 22:0.054288 23:0.107742 24:0.035401 25:0.098823 26:0.127932 27:0.138198 28:0.168764 29:0.204294 30:0.217882 31:0.078635 32:0.048444 33:0.03036 34:0.0431 35:0.086778 36:0.160674 
1 1:0.327758 2:0.212055 3:0.068159 4:0.030285 5:0.016399 6:0.016235 7:0.016814 8:0.018058 9:0.125344 10:0.327758 11:0.230494 12:0.045476 13:0.02089 14:0.023109 15:0.017514 16:0.029534 17:0.024337 18:0.23396 19:0.327758 20:0.166198 21:0.003208 22:0.005426 23:0.038983 24:0.046169 25:0.112899 26:0.3018 27:0.292447 28:0.327758 29:0.158326 30:0.055669 31:0.021524 32:0.067753 33:0.138056 34:0.16383 35:0.137281 36:0.261406 
1 1:0.287311 2:0.287311 3:0.287311 4:0.272171 5:0.05466 6:0.009006 7:0.007045 8:0.028154 9:0.218775 10:0.287311 11:0.287311 12:0.287311 13:0.246056 14:0.098909 15:0.027912 16:0.00538 17:0.018741 18:0.199201 19:0.232527 20:0.209211 21:0.057914 22:0.0433 23:0.00919 24:0.006876 25:0.009327 26:0.022384 27:0.159176 28:0.253101 29:0.22779 30:0.076161 31:0.046037 32:0.028422 33:0.014032 34:0.009924 35:0.018895 36:0.101847 
1 1:0.219935 2:0.247489 3:0.247489 4:0.124083 5:0.08048 6:0.033518 7:0.048285 8:0.137074 9:0.215546 10:0.247489 11:0.247489 12:0.247489 13:0.120127 14:0.06381 15:0.047137 16:0.033793 17:0.169283 18:0.247489 19:0.247489 20:0.247489 21:0.247489 22:0.073834 23:0.029851 24:0.017955 25:0.011156 26:0.045941 27:0.164718 28:0.247489 29:0.247489 30:0.209078 31:0.058455 32:0.020342 33:0.011173 34:0.019638 35:0.10179 36:0.199624 
1 1:0.282342 2:0.271999 3:0.09278 4:0.109112 5:0.097964 6:0.077698 7:0.137258 8:0.162094 9:0.23919 10:0.282342 11:0.189337 12:0.110938 13:0.134296 14:0.146629 15:0.051718 16:0.064325 17:0.159596 18:0.282342 19:0.282342 20:0.282342 21:0.074746 22:0.03842 23:0.048117 24:0.01471 25:0.066081 26:0.141672 27:0.189866 28:0.282342 29:0.167881 30:0.073172 31:0.071105 32:0.067735 33:0.010681 34:0.040716 35:0.099524 36:0.247997 
1 1:0.269388 2:0.101259 3:0.013 4:0.001861 5:0.00473 6:0.009731 7:0.00571 8:0.009819 9:0.115062 10:0.347233 11:0.131303 12:0.015833 13:0.003286 14:0.008056 15:0.006726 16:0.005585 17:0.00857 18:0.19477 19:0.347233 20:0.347233 21:0.016387 22:0.009575 23:0.017841 24:0.018503 25:0.003977 26:0.040621 27:0.347233 28:0.347233 29:0.339153 30:0.033403 31:0.011781 32:0.021404 33:0.015894 34:0.013875 35:0.033198 36:0.347233 
1 1:0.241029 2:0.320111 3:0.092585 4:0.080909 5:0.094183 6:0.02802 7:0.03227 8:0.092693 9:0.09566 10:0.320111 11:0.320111 12:0.17693 13:0.033212 14:0.059791 15:0.029805 16:0.022932 17:0.11217 18:0.197509 19:0.320111 20:0.320111 21:0.197061 22:0.056291 23:0.025997 24:0.01231 25:0.024636 26:0.084595 27:0.087336 28:0.320111 29:0.320111 30:0.137506 31:0.019701 32:0.024681 33:0.018294 34:0.013767 35:0.066063 36:0.076462 
1 1:0.153374 2:0.119051 3:0.025808 4:0.00429 5:0.059542 6:0.146033 7:0.187608 8:0.159896 9:0.131335 10:0.291723 11:0.154483 12:0.034654 13:0.032979 14:0.196412 15:0.291723 16:0.291723 17:0.084698 18:0.152823 19:0.291723 20:0.291723 21:0.001745 22:0.001715 23:0.009229 24:0.027888 25:0.047332 26:0.055828 27:0.22617 28:0.291723 29:0.291723 30:0.003232 31:0.024252 32:0.041264 33:0.141033 34:0.140391 35:0.050172 36:0.251092 
1 1:0.053986 2:0.290031 3:0.239391 4:0.042995 5:0.016001 6:0.005267 7:0.000572 8:0.008605 9:0.027234 10:0.029544 11:0.368084 12:0.368084 13:0.131435 14:0.020926 15:0.006064 16:9.6e-005 17:0.001352 18:0.010883 19:0.059418 20:0.368084 21:0.368084 22:0.05132 23:0.006767 24:0.000463 25:0.000822 26:0.006332 27:0.018393 28:0.025744 29:0.368084 30:0.368084 31:0.097571 32:0.023753 33:0.005132 34:0.002313 35:0.000958 36:0.002168 
1 1:0.227114 2:0.129791 3:0.029561 4:0.011283 5:0.016507 6:0.066256 7:0.282336 8:0.282336 9:0.282336 10:0.282336 11:0.062776 12:0.013047 13:0.007603 14:0.005696 15:0.018556 16:0.282336 17:0.282336 18:0.282336 19:0.218277 20:0.159162 21:0.042594 22:0.020152 23:0.005068 24:0.021051 25:0.069153 26:0.110423 27:0.282336 28:0.282336 29:0.096123 30:0.04119 31:0.02041 32:0.023646 33:0.017494 34:0.077165 35:0.102907 36:0.282336 
1 1:0.298582 2:0.063221 3:0.016743 4:0.009635 5:0.016543 6:0.01049 7:0.012257 8:0.01579 9:0.137639 10:0.368775 11:0.211217 12:0.017299 13:0.017705 14:0.013182 15:0.012021 16:0.023795 17:0.026577 18:0.125776 19:0.368775 20:0.22851 21:0.039647 22:0.015064 23:0.021043 24:0.011007 25:0.021749 26:0.01805 27:0.362478 28:0.368775 29:0.368775 30:0.085961 31:0.034614 32:0.027632 33:0.024821 34:0.029273 35:0.021735 36:0.279976 
1 1:0.342365 2:0.100116 3:0.003165 4:0.000721 5:0.003078 6:0.001651 7:0.003014 8:0.045404 9:0.342365 10:0.342365 11:0.119632 12:0.011947 13:0.003022 14:0.005464 15:0.002564 16:0.006795 17:0.226394 18:0.342365 19:0.342365 20:0.113837 21:0.029935 22:0.010386 23:0.027689 24:0.014932 25:0.007849 26:0.059099 27:0.321085 28:0.285331 29:0.137814 30:0.055676 31:0.020485 32:0.027259 33:0.017622 34:0.011272 35:0.141257 36:0.293138 
1 1:0.04579 2:0.104672 3:0.079035 4:0.007829 5:0.004503 6:0.00291 7:0.008913 8:0.01466 9:0.031407 10:0.071734 11:0.399103 12:0.399103 13:0.005052 14:0.006023 15:0.021097 16:0.023696 17:0.021948 18:0.055839 19:0.044093 20:0.399103 21:0.399103 22:0.004523 23:0.043373 24:0.001519 25:0.003092 26:0.008382 27:0.018028 28:0.061697 29:0.399103 30:0.399103 31:0.01818 32:0.012581 33:0.012884 34:0.012424 35:0.008127 36:0.029912 
1 1:0.179877 2:0.283593 3:0.283593 4:0.208712 5:0.170501 6:0.057193 7:0.056017 8:0.061676 9:0.072292 10:0.26522 11:0.283593 12:0.263534 13:0.214382 14:0.182719 15:0.065807 16:0.034285 17:0.015863 18:0.030222 19:0.283593 20:0.283593 21:0.210939 22:0.039751 23:0.021635 24:0.011718 25:0.02394 26:0.018133 27:0.079437 28:0.283593 29:0.283593 30:0.169684 31:0.053429 32:0.017573 33:0.010501 34:0.001123 35:0.010537 36:0.043397 
1 1:0.248484 2:0.248484 3:0.129785 4:0.142948 5:0.248484 6:0.132155 7:0.230317 8:0.136037 9:0.248484 10:0.248484 11:0.207111 12:0.086335 13:0.166561 14:0.197123 15:0.072922 16:0.248484 17:0.236579 18:0.231029 19:0.248484 20:0.248484 21:0.020107 22:0.020824 23:0.021176 24:0.020155 25:0.061254 26:0.051542 27:0.151261 28:0.236243 29:0.168459 30:0.041233 31:0.07521 32:0.024119 33:0.027833 34:0.070545 35:0.065258 36:0.111971 
1 1:0.182829 2:0.070046 3:0.04371 4:0.029545 5:0.033183 6:0.032408 7:0.293692 8:0.293692 9:0.174528 10:0.193686 11:0.110255 12:0.041816 13:0.062319 14:0.082427 15:0.061211 16:0.293692 17:0.240496 18:0.090583 19:0.293692 20:0.246021 21:0.084787 22:0.053468 23:0.024678 24:0.021584 25:0.224095 26:0.134658 27:0.293692 28:0.28358 29:0.157933 30:0.066265 31:0.086173 32:0.088714 33:0.049642 34:0.222776 35:0.144177 36:0.149151 
0.3779561155134493 1:0.287195 2:0.093503 3:0.003004 4:0.004165 5:0.039946 6:0.112803 7:0.287195 8:0.230798 9:0.287195 10:0.287195 11:0.133437 12:0.022437 13:0.009589 14:0.031754 15:0.143495 16:0.287195 17:0.219778 18:0.272365 19:0.287195 20:0.073104 21:0.006232 22:0.003397 23:0.012031 24:0.058796 25:0.16919 26:0.023207 27:0.244917 28:0.287195 29:0.108999 30:0.008545 31:0.005386 32:0.007774 33:0.07323 34:0.168124 35:0.041035 36:0.188204 
0.210626836774502 1:0.345275 2:0.174295 3:0.040079 4:0.14075 5:0.119782 6:0.03415 7:0.021793 8:0.156784 9:0.335566 10:0.345275 11:0.137102 12:0.024234 13:0.043227 14:0.039977 15:0.043496 16:0.017888 17:0.052292 18:0.195772 19:0.345275 20:0.203404 21:0.043831 22:0.011595 23:0.019748 24:0.009641 25:0.017587 26:0.117543 27:0.31702 28:0.345275 29:0.182023 30:0.036287 31:0.006268 32:0.015782 33:0.004004 34:0.006589 35:0.056437 36:0.228202 
1 1:0.065314 2:0.15139 3:0.105169 4:0.052691 5:0.051213 6:0.065087 7:0.049856 8:0.04401 9:0.051521 10:0.199274 11:0.27083 12:0.232306 13:0.072699 14:0.069515 15:0.067359 16:0.054515 17:0.046678 18:0.096377 19:0.27083 20:0.27083 21:0.27083 22:0.218034 23:0.157737 24:0.157745 25:0.138286 26:0.167368 27:0.140748 28:0.260118 29:0.27083 30:0.27083 31:0.190539 32:0.200434 33:0.153955 34:0.126643 35:0.107367 36:0.140769 
1 1:0.252148 2:0.169974 3:0.146156 4:0.289723 5:0.170178 6:0.052508 7:0.045 8:0.092334 9:0.090821 10:0.289723 11:0.289723 12:0.109677 13:0.085919 14:0.052077 15:0.02678 16:0.067699 17:0.20786 18:0.19986 19:0.289723 20:0.289723 21:0.095077 22:0.133136 23:0.052486 24:0.016223 25:0.025528 26:0.035429 27:0.224255 28:0.289723 29:0.289723 30:0.153388 31:0.045407 32:0.03914 33:0.016521 34:0.010378 35:0.036483 36:0.15425 
0.2716113308749418 1:0.301914 2:0.277404 3:0.094756 4:0.051859 5:0.03176 6:0.083161 7:0.115557 8:0.097001 9:0.180309 10:0.301914 11:0.301914 12:0.051142 13:0.093054 14:0.063383 15:0.05218 16:0.070478 17:0.136161 18:0.207257 19:0.301914 20:0.301914 21:0.049027 22:0.006172 23:0.01374 24:0.013341 25:0.033204 26:0.069997 27:0.278624 28:0.301914 29:0.280465 30:0.019621 31:0.016259 32:0.011836 33:0.011425 34:0.028137 35:0.049538 36:0.210961 
1 1:0.196143 2:0.09571 3:0.018818 4:0.035004 5:0.14081 6:0.10487 7:0.049709 8:0.129735 9:0.221075 10:0.318693 11:0.23511 12:0.039236 13:0.067431 14:0.128636 15:0.080716 16:0.073488 17:0.101875 18:0.150077 19:0.341549 20:0.341549 21:0.01116 22:0.014349 23:0.07402 24:0.028188 25:0.041705 26:0.133573 27:0.304541 28:0.341549 29:0.341549 30:0.025167 31:0.02647 32:0.06099 33:0.042306 34:0.03619 35:0.055788 36:0.165112 
1 1:0.339931 2:0.093498 3:0.01745 4:0.003311 5:0.01005 6:0.003891 7:0.007985 8:0.027162 9:0.337543 10:0.339931 11:0.077576 12:0.012811 13:0.002407 14:0.021619 15:0.001993 16:0.002748 17:0.006067 18:0.339931 19:0.339931 20:0.027923 21:0.011839 22:0.007419 23:0.01641 24:0.026493 25:0.064513 26:0.195967 27:0.339931 28:0.339931 29:0.031245 30:0.007648 31:0.0078 32:0.032072 33:0.01507 34:0.040225 35:0.092926 36:0.339931 
1 1:0.259655 2:0.184139 3:0.182286 4:0.018216 5:0.019861 6:0.016047 7:0.02994 8:0.040097 9:0.216114 10:0.259655 11:0.259655 12:0.259655 13:0.006649 14:0.007307 15:0.006105 16:0.011536 17:0.061765 18:0.259655 19:0.259655 20:0.259655 21:0.259655 22:0.008301 23:0.009238 24:0.00435 25:0.014478 26:0.025568 27:0.259655 28:0.259655 29:0.254992 30:0.259655 31:0.007263 32:0.011538 33:0.001511 34:0.00437 35:0.026094 36:0.259655 
1 1:0.171822 2:0.004527 3:3e-006 4:0 5:0.001521 6:0.00049 7:0.002075 8:0.225641 9:0.347141 10:0.18572 11:0.007268 12:1.3e-005 13:0 14:0.000428 15:0.002084 16:0.000383 17:0.201228 18:0.347141 19:0.23236 20:0.012875 21:0.001875 22:0.001233 23:0.002615 24:0.004571 25:0.005739 26:0.266491 27:0.347141 28:0.335984 29:0.017877 30:0.002947 31:0.000946 32:0.002998 33:0.002739 34:0.004272 35:0.347141 36:0.347141 
0.5645663086753211 1:0.330778 2:0.05951 3:0.049274 4:0.00337 5:0.004772 6:0.000794 7:0.017674 8:0.097982 9:0.330778 10:0.330778 11:0.128269 12:0.15173 13:0.01307 14:0.006703 15:0.003384 16:0.021484 17:0.153953 18:0.330778 19:0.330778 20:0.057598 21:0.06551 22:0.005836 23:0.001467 24:0.001469 25:0.001489 26:0.006991 27:0.330778 28:0.330778 29:0.098687 30:0.150968 31:0.010709 32:0.005385 33:0.002261 34:0.00347 35:0.03482 36:0.330778 
1 1:0.277061 2:0.231843 3:0.175406 4:0.097476 5:0.01774 6:0.040319 7:0.034495 8:0.055165 9:0.277061 10:0.277061 11:0.244041 12:0.156308 13:0.095032 14:0.031277 15:0.024282 16:0.018403 17:0.047582 18:0.167602 19:0.277061 20:0.277061 21:0.277061 22:0.108488 23:0.013825 24:0.04081 25:0.018345 26:0.062297 27:0.277061 28:0.277061 29:0.269471 30:0.170515 31:0.115771 32:0.027508 33:0.027744 34:0.021068 35:0.049095 36:0.142618 
1 1:0.190263 2:0.12881 3:0.019982 4:0.022729 5:0.031847 6:0.026134 7:0.146705 8:0.108213 9:0.129953 10:0.278646 11:0.248853 12:0.084984 13:0.005759 14:0.010898 15:0.004954 16:0.011247 17:0.007869 18:0.263775 19:0.278646 20:0.247754 21:0.014478 22:0.010296 23:0.08344 24:0.074638 25:0.278646 26:0.278646 27:0.278646 28:0.278646 29:0.278646 30:0.102305 31:0.001796 32:0.039407 33:0.003648 34:0.166785 35:0.131787 36:0.278646 
1 1:0.318571 2:0.022859 3:0.008809 4:0.003864 5:0.014231 6:0.016133 7:0.022009 8:0.100897 9:0.318571 10:0.318571 11:0.136602 12:0.014106 13:0.004209 14:0.020054 15:0.028751 16:0.025453 17:0.092199 18:0.318571 19:0.318571 20:0.02867 21:0.002275 22:0.000506 23:0.003738 24:0.006089 25:0.009508 26:0.197447 27:0.318571 28:0.318571 29:0.282578 30:0.007894 31:0.001952 32:0.007685 33:0.010769 34:0.009481 35:0.154221 36:0.318571 
0.2261517748453603 1:0.293126 2:0.286815 3:0.137616 4:0.059569 5:0.011797 6:0.00371 7:0.012902 8:0.047113 9:0.293126 10:0.293126 11:0.293126 12:0.17945 13:0.07732 14:0.012461 15:0 16:0.016475 17:0.088516 18:0.293126 19:0.293126 20:0.161991 21:0.087453 22:0.001488 23:0.003887 24:0.001096 25:0.003953 26:0.011967 27:0.293126 28:0.293126 29:0.150393 30:0.11145 31:0.008941 32:0.008917 33:0.002179 34:0.00921 35:0.026058 36:0.293126 
1 1:0.201436 2:0.170171 3:0.148352 4:0.018029 5:0.023304 6:0.004949 7:0.026786 8:0.045334 9:0.148569 10:0.271361 11:0.271361 12:0.241506 13:0.01096 14:0.084224 15:0.029018 16:0.020509 17:0.023977 18:0.271361 19:0.271361 20:0.271361 21:0.271361 22:0.006762 23:0.011292 24:0.003778 25:0.00957 26:0.019619 27:0.271361 28:0.271361 29:0.271361 30:0.271361 31:0.007941 32:0.031938 33:0.014206 34:0.009462 35:0.024185 36:0.271361 
1 1:0.209424 2:0.147975 3:0.122874 4:0.00524 5:0.001863 6:0.00763 7:0.042944 8:0.05388 9:0.135603 10:0.271246 11:0.271246 12:0.269417 13:0.002544 14:0.008704 15:0.002716 16:0.040151 17:0.071392 18:0.270638 19:0.271246 20:0.271246 21:0.271246 22:0.034813 23:0.018446 24:0.00459 25:0.031968 26:0.032947 27:0.271246 28:0.271246 29:0.271246 30:0.271246 31:0.007709 32:0.006094 33:0.002643 34:0.020394 35:0.025288 36:0.271246 
1 1:0.286962 2:0.187452 3:0.134604 4:0.00033 5:0.00936 6:0.012233 7:0.012152 8:0.069872 9:0.286962 10:0.286962 11:0.231535 12:0.189797 13:0.046442 14:0.023435 15:0.013355 16:0.009694 17:0.156012 18:0.286962 19:0.286962 20:0.26016 21:0.139696 22:0.000102 23:0.002605 24:0.001172 25:0.000458 26:0.01359 27:0.286962 28:0.286962 29:0.228991 30:0.145876 31:0.021136 32:0.008249 33:0.001356 34:0.001753 35:0.035431 36:0.286962 
1 1:0.216646 2:0.192246 3:0.067674 4:0.008879 5:0.036716 6:0.005945 7:0.003376 8:0.004367 9:0.110601 10:0.304248 11:0.304248 12:0.124696 13:0.003813 14:0.004895 15:0.000933 16:0.002218 17:0.003912 18:0.23617 19:0.304248 20:0.304248 21:0.236312 22:0.00724 23:0.016834 24:0.005583 25:0.002979 26:0.002204 27:0.294295 28:0.304248 29:0.304248 30:0.180217 31:0.001063 32:0.003431 33:0.003958 34:0.005295 35:0.006301 36:0.304248 
1 1:0.283138 2:0.283138 3:0.206638 4:0.130361 5:0.131899 6:0.041807 7:0.017188 8:0.100395 9:0.099701 10:0.283138 11:0.283138 12:0.283138 13:0.140991 14:0.075365 15:0.039028 16:0.059773 17:0.089234 18:0.090533 19:0.283138 20:0.283138 21:0.166069 22:0.063678 23:0.102786 24:0.04392 25:0.013046 26:0.082483 27:0.092808 28:0.283138 29:0.283138 30:0.223437 31:0.078282 32:0.086013 33:0.036699 34:0.024018 35:0.040387 36:0.054585 
1 1:0.333397 2:0.130041 3:0.034061 4:0.047997 5:0.030864 6:0.010619 7:0.078067 8:0.092542 9:0.304397 10:0.333397 11:0.311136 12:0.042903 13:0.116384 14:0.054323 15:0.023937 16:0.073375 17:0.091699 18:0.333397 19:0.333397 20:0.053603 21:0.004511 22:0.019338 23:0.024404 24:0.031739 25:0.054317 26:0.051565 27:0.242377 28:0.333397 29:0.165824 30:0.005018 31:0.025156 32:0.024009 33:0.025014 34:0.056768 35:0.055823 36:0.278769 
1 1:0.264302 2:0.264302 3:0.264302 4:0.084941 5:0.047767 6:0.042241 7:0.059008 8:0.144949 9:0.264302 10:0.264302 11:0.264302 12:0.264302 13:0.086989 14:0.094714 15:0.081694 16:0.05242 17:0.11111 18:0.264302 19:0.264302 20:0.156153 21:0.208088 22:0.005385 23:0.006242 24:0.014323 25:0.016246 26:0.044558 27:0.264302 28:0.222781 29:0.123149 30:0.130345 31:0.008752 32:0.020234 33:0.027141 34:0.017661 35:0.036599 36:0.264302 
1 1:0.267575 2:0.264104 3:0.127533 4:0.033863 5:0.15974 6:0.02367 7:0.101649 8:0.258254 9:0.267575 10:0.267575 11:0.228159 12:0.204831 13:0.064387 14:0.150561 15:0.054195 16:0.083848 17:0.173729 18:0.267575 19:0.267575 20:0.236455 21:0.098294 22:0.027349 23:0.067569 24:0.012642 25:0.046926 26:0.130838 27:0.267575 28:0.20112 29:0.16503 30:0.106237 31:0.037988 32:0.062497 33:0.038745 34:0.0467 35:0.079106 36:0.178543 
1 1:0.339315 2:0.118097 3:0.103658 4:0.100519 5:0.02615 6:0.003584 7:0.003671 8:0.086744 9:0.339315 10:0.339315 11:0.044012 12:0.070633 13:0.106143 14:0.031422 15:0.003307 16:0.002759 17:0.028949 18:0.339315 19:0.339315 20:0.029866 21:0.010851 22:0.019388 23:0.00634 24:0.001303 25:0.007073 26:0.095663 27:0.339315 28:0.339315 29:0.017042 30:0.017231 31:0.018577 32:0.006124 33:0.001742 34:0.005765 35:0.028846 36:0.339315 
1 1:0.340721 2:0.070202 3:0.083269 4:0.085422 5:0.026438 6:0.017047 7:0.001827 8:0.061953 9:0.340721 10:0.340721 11:0.098986 12:0.124229 13:0.043979 14:0.019929 15:0.006796 16:0.003323 17:0.011697 18:0.340721 19:0.340721 20:0.036249 21:0.009461 22:0.016394 23:0.01036 24:0.008398 25:0.007245 26:0.06586 27:0.340721 28:0.340721 29:0.060355 30:0.077025 31:0.013285 32:0.005359 33:0.004598 34:0.002463 35:0.008492 36:0.340721 
1 1:0.287308 2:0.006154 3:0.001861 4:0.000912 5:0.003067 6:0.00104 7:0.009562 8:0.067067 9:0.362196 10:0.331721 11:0.010059 12:0.004299 13:0.001555 14:0.007056 15:0.008709 16:0.02862 17:0.058839 18:0.362196 19:0.361966 20:0.021723 21:0.006141 22:0.006061 23:0.015428 24:0.01739 25:0.024096 26:0.032769 27:0.362196 28:0.362196 29:0.025096 30:0.005683 31:0.014933 32:0.022217 33:0.016791 34:0.038785 35:0.042099 36:0.362196 
1 1:0.321037 2:0.14993 3:0.105523 4:0.291948 5:0.127079 6:0.025676 7:0.126737 8:0.132894 9:0.321037 10:0.321037 11:0.174704 12:0.059927 13:0.080228 14:0.054146 15:0.034711 16:0.073872 17:0.111442 18:0.321037 19:0.321037 20:0.100108 21:0.053099 22:0.135671 23:0.049863 24:0.009783 25:0.069791 26:0.107689 27:0.219711 28:0.321037 29:0.132879 30:0.047342 31:0.065524 32:0.027722 33:0.011658 34:0.030532 35:0.062622 36:0.133944 
1 1:0.260723 2:0.323308 3:0.047986 4:0.095349 5:0.096893 6:0.085385 7:0.068769 8:0.051488 9:0.093101 10:0.323308 11:0.323308 12:0.029561 13:0.029382 14:0.024431 15:0.043729 16:0.038512 17:0.124234 18:0.243522 19:0.323308 20:0.323308 21:0.072501 22:0.045395 23:0.027719 24:0.033021 25:0.046619 26:0.067464 27:0.139591 28:0.323308 29:0.323308 30:0.060108 31:0.044309 32:0.022814 33:0.039943 34:0.050173 35:0.044869 36:0.157796 
1 1:0.284848 2:0.0256 3:0.012121 4:0.011356 5:0.022529 6:0.004438 7:0.011294 8:0.0488 9:0.359395 10:0.332803 11:0.029213 12:0.003664 13:0.007868 14:0.016827 15:0.003514 16:0.008794 17:0.13765 18:0.359395 19:0.359395 20:0.022498 21:0.006524 22:0.002785 23:0.024486 24:0.001404 25:0.001781 26:0.046983 27:0.359395 28:0.359395 29:0.035419 30:0.006289 31:0.006744 32:0.014869 33:0.003386 34:0.002132 35:0.019027 36:0.359395 
1 1:0.178648 2:0.187282 3:0.077699 4:0.178769 5:0.290772 6:0.115435 7:0.04263 8:0.100298 9:0.104811 10:0.269092 11:0.237878 12:0.109805 13:0.176006 14:0.290772 15:0.113025 16:0.02062 17:0.056621 18:0.101253 19:0.290772 20:0.290772 21:0.063214 22:0.085395 23:0.197574 24:0.042556 25:0.033773 26:0.091506 27:0.16771 28:0.290772 29:0.290772 30:0.101961 31:0.095145 32:0.135362 33:0.039596 34:0.018926 35:0.051375 36:0.133526 
1 1:0.043516 2:0.192962 3:0.056672 4:0.015752 5:0.019807 6:0.023403 7:0.035389 8:0.044759 9:0.034516 10:0.210077 11:0.399668 12:0.143609 13:0.009924 14:0.020484 15:0.029302 16:0.048069 17:0.069773 18:0.108527 19:0.142196 20:0.399668 21:0.397834 22:0.010358 23:0.015393 24:0.006242 25:0.008867 26:0.023492 27:0.030271 28:0.227387 29:0.399668 30:0.386249 31:0.0225 32:0.019613 33:0.003829 34:0.003074 35:0.009664 36:0.037626 
-1 1:0.219737 2:0.071979 3:0.081359 4:0.040953 5:0.041152 6:0.00822 7:0.060492 8:0.222146 9:0.275231 10:0.20409 11:0.122971 12:0.122839 13:0.0879 14:0.07099 15:0.038641 16:0.087923 17:0.196754 18:0.275231 19:0.275231 20:0.255922 21:0.0986 22:0.030142 23:0.029995 24:0.005976 25:0.033583 26:0.253831 27:0.275231 28:0.275231 29:0.275231 30:0.169492 31:0.037754 32:0.039014 33:0.035727 34:0.036753 35:0.202403 36:0.275231 
-1 1:0.307622 2:0.307622 3:0.307622 4:0.055398 5:0.046892 6:0.047552 7:0.012458 8:0.006756 9:0.09338 10:0.180176 11:0.307622 12:0.307622 13:0.230378 14:0.152865 15:0.11112 16:0.030471 17:0.062918 18:0.110649 19:0.054383 20:0.105135 21:0.281493 22:0.096636 23:0.109161 24:0.024494 25:0.010833 26:0.0043 27:0.023408 28:0.028819 29:0.105875 30:0.307622 31:0.307622 32:0.218474 33:0.046606 34:0.010681 35:0.016581 36:0.039407 
-1 1:0.295327 2:0.295327 3:0.295327 4:0.036045 5:0.016298 6:0.007861 7:0.023448 8:0.052441 9:0.120141 10:0.295327 11:0.295327 12:0.167553 13:0.026803 14:0.01723 15:0.012046 16:0.054397 17:0.053738 18:0.182676 19:0.295327 20:0.295327 21:0.212733 22:0.024618 23:0.026827 24:0.004183 25:0.010972 26:0.037403 27:0.082666 28:0.295327 29:0.295327 30:0.202396 31:0.018196 32:0.02171 33:0.00427 34:0.016937 35:0.04209 36:0.159621 
-1 1:0.178645 2:0.153957 3:0.145085 4:0.051962 5:0.075364 6:0.140637 7:0.127324 8:0.145443 9:0.182825 10:0.148566 11:0.257979 12:0.285692 13:0.221281 14:0.120531 15:0.096835 16:0.0701 17:0.120465 18:0.118652 19:0.157511 20:0.285692 21:0.285692 22:0.090621 23:0.096151 24:0.213075 25:0.09975 26:0.069226 27:0.163259 28:0.120834 29:0.285692 30:0.285692 31:0.207751 32:0.09813 33:0.106323 34:0.050377 35:0.061612 36:0.065869 
-1 1:0.26465 2:0.26465 3:0.116921 4:0.05167 5:0.039005 6:0.050735 7:0.084258 8:0.193847 9:0.260284 10:0.26465 11:0.177622 12:0.108723 13:0.058215 14:0.044222 15:0.044559 16:0.094532 17:0.26465 18:0.26465 19:0.26465 20:0.1636 21:0.08315 22:0.065539 23:0.032191 24:0.07267 25:0.109319 26:0.212238 27:0.223895 28:0.26465 29:0.084616 30:0.055813 31:0.037261 32:0.021762 33:0.039343 34:0.096975 35:0.26465 36:0.26465 
-0.6448808976587798 1:0.084823 2:0.322776 3:0.322776 4:0.068764 5:0.039704 6:0.01477 7:0.010517 8:0.019252 9:0.031719 10:0.083935 11:0.209842 12:0.322776 13:0.122281 14:0.07495 15:0.032019 16:0.02762 17:0.066262 18:0.051627 19:0.255554 20:0.322776 21:0.322776 22:0.119395 23:0.085967 24:0.033444 25:0.019782 26:0.029585 27:0.082259 28:0.128613 29:0.316203 30:0.322776 31:0.18 32:0.101008 33:0.048429 34:0.057524 35:0.079203 36:0.093849 
-1 1:0.142798 2:0.161071 3:0.05348 4:0.065277 5:0.097223 6:0.115256 7:0.074782 8:0.048831 9:0.10975 10:0.09102 11:0.219755 12:0.311138 13:0.188422 14:0.143932 15:0.145284 16:0.066375 17:0.033619 18:0.101484 19:0.311138 20:0.153445 21:0.025888 22:0.034997 23:0.057834 24:0.113973 25:0.063545 26:0.09961 27:0.311138 28:0.311138 29:0.311138 30:0.311138 31:0.063662 32:0.066551 33:0.07452 34:0.042604 35:0.041297 36:0.311138 
-1 1:0.200591 2:0.133809 3:0.065072 4:0.060859 5:0.088778 6:0.101747 7:0.066896 8:0.112172 9:0.18065 10:0.265556 11:0.265556 12:0.204196 13:0.140915 14:0.169517 15:0.075966 16:0.039177 17:0.039091 18:0.174645 19:0.265556 20:0.232149 21:0.238854 22:0.176212 23:0.123934 24:0.051599 25:0.01687 26:0.040348 27:0.115772 28:0.265556 29:0.265556 30:0.265556 31:0.265556 32:0.179414 33:0.020674 34:0.009104 35:0.040311 36:0.174405 
-1 1:0.062243 2:0.097796 3:0.026117 4:0.01874 5:0.068724 6:0.08729 7:0.120755 8:0.260981 9:0.260981 10:0.167236 11:0.184739 12:0.0703 13:0.030643 14:0.050034 15:0.12459 16:0.156963 17:0.260981 18:0.196843 19:0.260981 20:0.260981 21:0.068224 22:0.041497 23:0.071212 24:0.091252 25:0.074508 26:0.223294 27:0.260981 28:0.260981 29:0.260981 30:0.108066 31:0.113391 32:0.086512 33:0.128088 34:0.131452 35:0.240745 36:0.250734 
-1 1:0.119949 2:0.032053 3:5.1e-005 4:0.003637 5:0.024366 6:0.056139 7:0.08179 8:0.338923 9:0.285146 10:0.193315 11:0.015332 12:0.001095 13:0.007184 14:0.03308 15:0.089328 16:0.115297 17:0.338923 18:0.338923 19:0.06659 20:0.002874 21:9.6e-005 22:0.001307 23:0.011303 24:0.013022 25:0.035049 26:0.338923 27:0.338923 28:0.111829 29:0.005744 30:0.000418 31:0.00145 32:0.013979 33:0.013927 34:0.080228 35:0.338923 36:0.338923 
-1 1:0.171193 2:0.234452 3:0.11675 4:0.012664 5:0.024784 6:0.078292 7:0.170849 8:0.10954 9:0.199051 10:0.256812 11:0.171329 12:0.073488 13:0.000207 14:0.032543 15:0.028628 16:0.1114 17:0.251776 18:0.256812 19:0.256812 20:0.256812 21:0.132892 22:0.071304 23:0.101239 24:0.172065 25:0.256812 26:0.153383 27:0.176669 28:0.256812 29:0.256812 30:0.1907 31:0.041159 32:0.05504 33:0.050086 34:0.078483 35:0.068286 36:0.256812 
-1 1:0.088575 2:0.095924 3:0.117777 4:0.052538 5:0.074451 6:0.046359 7:0.086004 8:0.121315 9:0.098424 10:0.1257 11:0.200352 12:0.175981 13:0.122203 14:0.146435 15:0.095451 16:0.155611 17:0.249551 18:0.077234 19:0.321528 20:0.321528 21:0.220225 22:0.120008 23:0.08141 24:0.021344 25:0.074591 26:0.092425 27:0.142467 28:0.321528 29:0.321528 30:0.321528 31:0.129976 32:0.126196 33:0.039448 34:0.099402 35:0.104349 36:0.149425 
-1 1:0.339775 2:0.08677 3:0.030915 4:0.02213 5:0.019109 6:0.018243 7:0.033686 8:0.034807 9:0.133247 10:0.344951 11:0.150205 12:0.059908 13:0.030956 14:0.041834 15:0.02201 16:0.023139 17:0.060048 18:0.177912 19:0.344951 20:0.223135 21:0.136159 22:0.044899 23:0.029801 24:0.006444 25:0.002926 26:0.030493 27:0.291416 28:0.344951 29:0.327956 30:0.189843 31:0.08949 32:0.050775 33:0.005364 34:0.004971 35:0.058967 36:0.338193 
-1 1:0.0782 2:0.129629 3:0.215723 4:0.155483 5:0.210728 6:0.058877 7:0.04014 8:0.032279 9:0.079525 10:0.132714 11:0.221045 12:0.291036 13:0.206538 14:0.233481 15:0.107046 16:0.046075 17:0.038231 18:0.117769 19:0.225753 20:0.291036 21:0.291036 22:0.070108 23:0.091623 24:0.043426 25:0.021877 26:0.032095 27:0.141605 28:0.291036 29:0.291036 30:0.291036 31:0.1127 32:0.09623 33:0.066094 34:0.045541 35:0.033911 36:0.169017 
-1 1:0.121937 2:0.038758 3:0.039326 4:0.049887 5:0.041658 6:0.045563 7:0.081658 8:0.280815 9:0.282154 10:0.132096 11:0.055007 12:0.031613 13:0.038403 14:0.069026 15:0.038868 16:0.141115 17:0.296065 18:0.296065 19:0.296065 20:0.272334 21:0.068841 22:0.05252 23:0.057194 24:0.056875 25:0.069831 26:0.161103 27:0.296065 28:0.296065 29:0.201209 30:0.03519 31:0.035341 32:0.049703 33:0.051057 34:0.129776 35:0.220756 36:0.296065 
-1 1:0.260604 2:0.210288 3:0.087606 4:0.11433 5:0.082552 6:0.020268 7:0.020164 8:0.082604 9:0.260604 10:0.247968 11:0.122505 12:0.260604 13:0.260604 14:0.260604 15:0.087676 16:0.006324 17:0.08005 18:0.260604 19:0.166525 20:0.083474 21:0.161777 22:0.218911 23:0.157487 24:0.046431 25:0.055986 26:0.049078 27:0.099556 28:0.144922 29:0.114993 30:0.260604 31:0.260604 32:0.260604 33:0.116938 34:0.054965 35:0.046434 36:0.108759 
-1 1:0.352672 2:0.352672 3:0.02641 4:0.000749 5:0.004543 6:0.006144 7:0.008092 8:0.008874 9:0.044592 10:0.352672 11:0.352672 12:0.018173 13:0.002095 14:0.002573 15:0.003242 16:0.002029 17:0.003436 18:0.055821 19:0.352672 20:0.352672 21:0.057172 22:0.025708 23:0.022837 24:0.009222 25:0.017326 26:0.01895 27:0.05522 28:0.352672 29:0.3247 30:0.01974 31:0.006374 32:0.007867 33:0.000836 34:0.001329 35:0.005698 36:0.07252 
-1 1:0.176402 2:0.230979 3:0.217878 4:0.064305 5:0.056751 6:0.020658 7:0.117493 8:0.085572 9:0.148693 10:0.242272 11:0.120428 12:0.136734 13:0.049 14:0.06319 15:0.029176 16:0.108096 17:0.046469 18:0.115818 19:0.303364 20:0.303364 21:0.303364 22:0.087667 23:0.09941 24:0.047302 25:0.129479 26:0.107029 27:0.191559 28:0.303364 29:0.303364 30:0.236376 31:0.04278 32:0.078055 33:0.042193 34:0.098421 35:0.075283 36:0.248621 
-1 1:0.265731 2:0.265731 3:0.142173 4:0.047609 5:0.035447 6:0.053614 7:0.028558 8:0.092826 9:0.130345 10:0.265731 11:0.265731 12:0.09748 13:0.036336 14:0.067529 15:0.089175 16:0.080252 17:0.137135 18:0.187851 19:0.265731 20:0.265731 21:0.18111 22:0.089315 23:0.118862 24:0.133899 25:0.062766 26:0.100319 27:0.17426 28:0.25026 29:0.265731 30:0.108177 31:0.043771 32:0.108492 33:0.16884 34:0.158215 35:0.191775 36:0.265731 
-1 1:0.299577 2:0.132156 3:0.041664 4:0.299577 5:0.299577 6:0.200641 7:0.031705 8:0.036758 9:0.172221 10:0.290326 11:0.107119 12:0.064097 13:0.171281 14:0.15896 15:0.040486 16:0.028408 17:0.044366 18:0.21038 19:0.299577 20:0.130254 21:0.022483 22:0.02113 23:0.034441 24:0.012155 25:0.021268 26:0.113937 27:0.299577 28:0.299577 29:0.144436 30:0.025195 31:0.018325 32:0.02433 33:0.009235 34:0.024592 35:0.135475 36:0.299577 
-1 1:0.332256 2:0.218845 3:0.028813 4:0.021154 5:0.011462 6:0.004307 7:0.009964 8:0.018114 9:0.14263 10:0.332256 11:0.214436 12:0.021186 13:0.013033 14:0.016071 15:0 16:0.012049 17:0.032203 18:0.206063 19:0.332256 20:0.140066 21:0.033286 22:0.067814 23:0.215938 24:0.057086 25:0.105667 26:0.167665 27:0.332256 28:0.332256 29:0.164561 30:0.005182 31:0.00832 32:0.114286 33:0.009078 34:0.009084 35:0.137219 36:0.332256 
-1 1:0.18514 2:0.121406 3:0.090061 4:0.099855 5:0.101731 6:0.031147 7:0.041633 8:0.226376 9:0.339901 10:0.208689 11:0.089008 12:0.053061 13:0.054323 14:0.064236 15:0.039081 16:0.037501 17:0.15184 18:0.339901 19:0.27379 20:0.083397 21:0.016779 22:0.029465 23:0.029724 24:0.007243 25:0.010028 26:0.223248 27:0.339901 28:0.339901 29:0.069449 30:0.014497 31:0.011457 32:0.022159 33:0.015113 34:0.012696 35:0.245361 36:0.339901 
-1 1:0.181232 2:0.35357 3:0.35357 4:0.071656 5:0.038505 6:0.030698 7:0.024625 8:0.025152 9:0.03972 10:0.135562 11:0.35357 12:0.35357 13:0.115781 14:0.103347 15:0.042078 16:0.029456 17:0.028719 18:0.080667 19:0.235667 20:0.35357 21:0.239496 22:0.055334 23:0.070768 24:0.06452 25:0.045916 26:0.033157 27:0.074935 28:0.111646 29:0.211939 30:0.175705 31:0.133987 32:0.155225 33:0.059758 34:0.033922 35:0.034155 36:0.074903 
-1 1:0.315342 2:0.315342 3:0.066287 4:0.008369 5:0.005032 6:0 7:0.005113 8:0.004224 9:0.189715 10:0.315342 11:0.315342 12:0.049113 13:0.013117 14:0.023821 15:0.001294 16:0.012957 17:0.063745 18:0.143961 19:0.315342 20:0.148649 21:0.045079 22:0.021859 23:0.128568 24:0.00255 25:0.101902 26:0.24963 27:0.315342 28:0.315342 29:0.135551 30:0.043474 31:0.041468 32:0.051389 33:0.008197 34:0.015717 35:0.062085 36:0.299161 
-1 1:0.060961 2:0.101055 3:0.07862 4:0.07428 5:0.105967 6:0.046085 7:0.028593 8:0.031448 9:0.051308 10:0.180338 11:0.362194 12:0.254482 13:0.07626 14:0.038333 15:0.038942 16:0.032711 17:0.029855 18:0.064589 19:0.092977 20:0.319714 21:0.286506 22:0.175838 23:0.209812 24:0.163455 25:0.0459 26:0.045953 27:0.053209 28:0.302189 29:0.362194 30:0.362194 31:0.168227 32:0.100332 33:0.081429 34:0.022106 35:0.007146 36:0.093176 
-1 1:0.205196 2:0.246562 3:0.246562 4:0.198472 5:0.049024 6:0.065067 7:0.065385 8:0.082801 9:0.186915 10:0.246562 11:0.246562 12:0.204286 13:0.11502 14:0.041691 15:0.039127 16:0.042253 17:0.061675 18:0.142737 19:0.227296 20:0.246562 21:0.246562 22:0.196655 23:0.154857 24:0.090417 25:0.053208 26:0.091141 27:0.222704 28:0.246562 29:0.246562 30:0.13761 31:0.048386 32:0.075261 33:0.035546 34:0.047713 35:0.135256 36:0.246562 
-1 1:0.350476 2:0.250902 3:0.100871 4:0.039708 5:0.019028 6:0.017835 7:0.011683 8:0.048191 9:0.120542 10:0.302309 11:0.251211 12:0.121485 13:0.042465 14:0.044223 15:0.033609 16:0.01502 17:0.066149 18:0.21849 19:0.350476 20:0.228634 21:0.057191 22:0.029063 23:0.023645 24:0.008649 25:0.002666 26:0.01699 27:0.212227 28:0.350476 29:0.328483 30:0.104478 31:0.032723 32:0.044419 33:0.01448 34:0.00317 35:0.022921 36:0.29013 
-1 1:0.37367 2:0.041398 3:0.006168 4:0.004975 5:0.010099 6:0.005756 7:0.030037 8:0.085629 9:0.232052 10:0.37367 11:0.106106 12:0.015686 13:0.005758 14:0.011582 15:0.00235 16:0.022014 17:0.073456 18:0.336081 19:0.37367 20:0.072208 21:0.001683 22:0.003071 23:0.010566 24:0.004106 25:0.029872 26:0.128085 27:0.276289 28:0.37367 29:0.135461 30:0.005851 31:0.006614 32:0.010344 33:0.002151 34:0.030256 35:0.061207 36:0.347931 
-1 1:0.245823 2:0.300622 3:0.145257 4:0.121604 5:0.072949 6:0.063868 7:0.09206 8:0.026088 9:0.100701 10:0.249213 11:0.316677 12:0.12429 13:0.109976 14:0.051979 15:0.031945 16:0.050973 17:0.02681 18:0.097269 19:0.316677 20:0.316677 21:0.132779 22:0.09578 23:0.045493 24:0.057435 25:0.068063 26:0.048928 27:0.170541 28:0.316677 29:0.316677 30:0.040722 31:0.036575 32:0.017869 33:0.026576 34:0.028097 35:0.022318 36:0.316677 
-1 1:0.214093 2:0.175829 3:0.094133 4:0.093137 5:0.212029 6:0.012076 7:0.084456 8:0.088757 9:0.169319 10:0.201719 11:0.120025 12:0.082654 13:0.130342 14:0.25898 15:0.075976 16:0.200917 17:0.116206 18:0.190216 19:0.289467 20:0.289467 21:0.148725 22:0.01429 23:0.032893 24:0.002787 25:0.055443 26:0.111038 27:0.286438 28:0.289467 29:0.289467 30:0.079584 31:0.013465 32:0.067741 33:0.017805 34:0.068234 35:0.127785 36:0.289467 
-1 1:0.294139 2:0.105762 3:0.041455 4:0.04756 5:0.040065 6:0.027893 7:0.029572 8:0.069487 9:0.190075 10:0.32104 11:0.134157 12:0.056869 13:0.033476 14:0.039957 15:0.021999 16:0.014076 17:0.0619 18:0.288358 19:0.32104 20:0.316475 21:0.080326 22:0.030898 23:0.036317 24:0.036166 25:0.009601 26:0.052441 27:0.32104 28:0.32104 29:0.32104 30:0.038959 31:0.021603 32:0.043416 33:0.04188 34:0.024546 35:0.040277 36:0.32104 
-1 1:0.283567 2:0.178752 3:0.059394 4:0.03313 5:0.057614 6:0.002877 7:0.046071 8:0.084772 9:0.17314 10:0.315233 11:0.224655 12:0.096747 13:0.062672 14:0.084267 15:0.010415 16:0.030236 17:0.08365 18:0.255929 19:0.315233 20:0.315233 21:0.115372 22:0.002478 23:0.017928 24:0 25:0.03572 26:0.081721 27:0.18961 28:0.315233 29:0.315233 30:0.127283 31:0.009705 32:0.013435 33:0 34:0.019686 35:0.149096 36:0.315233 
-0.2621337778553489 1:0.228183 2:0.080488 3:0.068028 4:0.108113 5:0.085627 6:0.068731 7:0.21306 8:0.210256 9:0.231975 10:0.248239 11:0.172953 12:0.114237 13:0.108129 14:0.051176 15:0.05029 16:0.195471 17:0.248239 18:0.248239 19:0.166248 20:0.167173 21:0.112571 22:0.0999 23:0.129588 24:0.092669 25:0.157452 26:0.191944 27:0.157215 28:0.248239 29:0.248239 30:0.17953 31:0.073554 32:0.111009 33:0.079158 34:0.187288 35:0.215749 36:0.182313 
-0.136449902077034 1:0.059194 2:0.014719 3:0.009018 4:0.001133 5:0.001117 6:0.021073 7:0.087603 8:0.346686 9:0.346686 10:0.069049 11:0.021898 12:0.008075 13:0.002402 14:0.003533 15:0.012296 16:0.041589 17:0.2729 18:0.346686 19:0.139376 20:0.019266 21:0.00679 22:0.000809 23:0.018513 24:0.02214 25:0.034301 26:0.346686 27:0.346686 28:0.196705 29:0.02367 30:0.00564 31:0.000775 32:0.015022 33:0.004381 34:0.014259 35:0.346686 36:0.346686 
-1 1:0.242854 2:0.22172 3:0.159404 4:0.127621 5:0.108388 6:0.014058 7:0.039927 8:0.167648 9:0.198955 10:0.242854 11:0.242854 12:0.121278 13:0.051719 14:0.050582 15:0.019068 16:0.064122 17:0.22759 18:0.225763 19:0.242854 20:0.242854 21:0.184277 22:0.067424 23:0.117619 24:0.091866 25:0.102337 26:0.159513 27:0.20759 28:0.242854 29:0.242854 30:0.172803 31:0.052814 32:0.059605 33:0.082705 34:0.118597 35:0.196607 36:0.223397 
-1 1:0.34579 2:0.327966 3:0.205755 4:0.079833 5:0.031433 6:0.009228 7:0.007428 8:0.040193 9:0.094416 10:0.360404 11:0.077465 12:0.013536 13:0.028053 14:0.022589 15:0.006312 16:0.016948 17:0.045139 18:0.168975 19:0.360404 20:0.077353 21:0.046829 22:0.020012 23:0.033611 24:0.006137 25:0.012911 26:0.063726 27:0.360404 28:0.360404 29:0.042088 30:0.020484 31:0.013963 32:0.02151 33:0.002869 34:0.011668 35:0.063898 36:0.360404 
-1 1:0.081087 2:0.064264 3:0.092735 4:0.120295 5:0.06316 6:0.048654 7:0.020101 8:0.050431 9:0.053229 10:0.132718 11:0.11591 12:0.080888 13:0.067007 14:0.067359 15:0.029614 16:0.032642 17:0.041958 18:0.094716 19:0.46903 20:0.167492 21:0.07786 22:0.055647 23:0.027265 24:0.01279 25:0.004427 26:0.054031 27:0.374629 28:0.46903 29:0.203353 30:0.053831 31:0.030477 32:0.040972 33:0.008624 34:0.022031 35:0.03631 36:0.46903 
-1 1:0.336755 2:0.071018 3:0.014717 4:0.001012 5:0.01169 6:0.00644 7:0.027116 8:0.035295 9:0.194296 10:0.382563 11:0.101943 12:0.007847 13:0.002227 14:0.008091 15:0.002143 16:0.015418 17:0.03991 18:0.224018 19:0.382563 20:0.243063 21:0.0057 22:0 23:0.014452 24:0.003895 25:0.022547 26:0.032909 27:0.259206 28:0.382563 29:0.343384 30:0.012063 31:0 32:0.01589 33:0.002337 34:0.009848 35:0.033595 36:0.297218 
-1 1:0.26289 2:0.155519 3:0.170573 4:0.184395 5:0.097431 6:0.033919 7:0.037636 8:0.059117 9:0.26289 10:0.26289 11:0.199245 12:0.176568 13:0.192515 14:0.150015 15:0.080516 16:0.109241 17:0.043897 18:0.26289 19:0.26289 20:0.149113 21:0.138445 22:0.102836 23:0.043687 24:0.02957 25:0.065247 26:0.099143 27:0.26289 28:0.26289 29:0.181928 30:0.21085 31:0.100189 32:0.075968 33:0.048617 34:0.105529 35:0.123091 36:0.26289 
-1 1:0.261409 2:0.261409 3:0.261409 4:0.176889 5:0.064128 6:0.030253 7:0.04174 8:0.048603 9:0.101459 10:0.261409 11:0.261409 12:0.167213 13:0.124627 14:0.083332 15:0.035271 16:0.058282 17:0.114717 18:0.195964 19:0.261409 20:0.261409 21:0.261409 22:0.102194 23:0.066723 24:0.022284 25:0.036144 26:0.083469 27:0.16684 28:0.261409 29:0.224673 30:0.086945 31:0.134924 32:0.110344 33:0.079359 34:0.063573 35:0.124038 36:0.24367 
-1 1:0.166033 2:0.294727 3:0.294727 4:0.067119 5:0.072378 6:0.055737 7:0.041509 8:0.056218 9:0.085923 10:0.237887 11:0.294727 12:0.294727 13:0.056429 14:0.087454 15:0.043981 16:0.029058 17:0.073167 18:0.110792 19:0.205538 20:0.294727 21:0.294727 22:0.087654 23:0.038715 24:0.020943 25:0.035386 26:0.057472 27:0.126937 28:0.226072 29:0.294727 30:0.294727 31:0.083602 32:0.065781 33:0.034477 34:0.03551 35:0.063269 36:0.142192 
-1 1:0.069528 2:0.105218 3:0.056385 4:0.0506 5:0.032071 6:0.014711 7:0.018284 8:0.016014 9:0.052794 10:0.148109 11:0.1364 12:0.068463 13:0.046619 14:0.026568 15:0.024807 16:0.030333 17:0.051619 18:0.10618 19:0.358779 20:0.358779 21:0.119878 22:0.057573 23:0.086343 24:0.015973 25:0.036527 26:0.078187 27:0.351632 28:0.358779 29:0.358779 30:0.229624 31:0.078394 32:0.128961 33:0.017378 34:0.028964 35:0.172689 36:0.358779 
-1 1:0.088077 2:0.292996 3:0.292996 4:0.103741 5:0.045812 6:0.006428 7:0.006216 8:0.023715 9:0.040964 10:0.292996 11:0.292996 12:0.292996 13:0.189474 14:0.074979 15:0.001914 16:0.007759 17:0.036812 18:0.057404 19:0.076658 20:0.292996 21:0.292996 22:0.118327 23:0.053209 24:0.008614 25:0.025097 26:0.021166 27:0.047408 28:0.292996 29:0.292996 30:0.292996 31:0.108179 32:0.126607 33:0.01655 34:0.026628 35:0.051814 36:0.109175 
-1 1:0.254514 2:0.24143 3:0.108521 4:0.030313 5:0.04416 6:0.022606 7:0.009963 8:0.029865 9:0.084727 10:0.244501 11:0.23633 12:0.124027 13:0.038246 14:0.044815 15:0.018546 16:0.011619 17:0.038281 18:0.139698 19:0.286338 20:0.285391 21:0.286338 22:0.080863 23:0.044768 24:0.004158 25:0.00616 26:0.075467 27:0.286338 28:0.286338 29:0.286338 30:0.286338 31:0.104083 32:0.040866 33:0.00085 34:0.007374 35:0.112139 36:0.286338 
-1 1:0.269453 2:0.080224 3:0.029299 4:0.00651 5:0.016568 6:3.7e-005 7:0.011118 8:0.022137 9:0.190512 10:0.34977 11:0.090951 12:0.019896 13:0.001787 14:0.00941 15:0.001783 16:0.009139 17:0.034243 18:0.238797 19:0.409574 20:0.059247 21:0.012095 22:0.007234 23:0.010854 24:0.018032 25:0.006763 26:0.02633 27:0.409574 28:0.409574 29:0.068459 30:0.006399 31:0.001282 32:0.010338 33:0.003743 34:0.002859 35:0.093004 36:0.409574 
-1 1:0.311241 2:0.186717 3:0.143228 4:0.126936 5:0.038469 6:0.040002 7:0.00691 8:0.012191 9:0.067214 10:0.316601 11:0.267449 12:0.153224 13:0.190963 14:0.041995 15:0.021651 16:0.100795 17:0.049916 18:0.14818 19:0.316601 20:0.254981 21:0.103051 22:0.064666 23:0.021727 24:0.042472 25:0.024946 26:0.034985 27:0.228414 28:0.316601 29:0.286468 30:0.102561 31:0.075286 32:0.029788 33:0.027774 34:0.058643 35:0.109367 36:0.316601 
-1 1:0.222119 2:0.201247 3:0.156006 4:0.140405 5:0.210896 6:0.16501 7:0.067042 8:0.058307 9:0.190004 10:0.222119 11:0.222119 12:0.174159 13:0.218229 14:0.151876 15:0.141327 16:0.091826 17:0.063533 18:0.198368 19:0.222119 20:0.222119 21:0.216157 22:0.179746 23:0.17337 24:0.107039 25:0.054312 26:0.092298 27:0.103744 28:0.222119 29:0.222119 30:0.212444 31:0.218163 32:0.106683 33:0.049245 34:0.058766 35:0.051548 36:0.154697 
-1 1:0.284067 2:0.21546 3:0.067985 4:0.067016 5:0.062683 6:0.004311 7:0.030448 8:0.117948 9:0.284067 10:0.284067 11:0.239726 12:0.128071 13:0.026319 14:0.070973 15:0.000995 16:0.02926 17:0.089131 18:0.284067 19:0.284067 20:0.244644 21:0.091217 22:0.012261 23:0.062288 24:0.034466 25:0.033588 26:0.058868 27:0.276576 28:0.284067 29:0.284067 30:0.165878 31:0.017431 32:0.05919 33:0.014729 34:0.034379 35:0.041035 36:0.284067 
-1 1:0.272927 2:0.128162 3:0.019684 4:0.037493 5:0.201135 6:0.008126 7:0.009787 8:0.028292 9:0.193832 10:0.267418 11:0.129531 12:0.03055 13:0.020562 14:0.072573 15:0.004098 16:0.011032 17:0.063889 18:0.246329 19:0.332993 20:0.264525 21:0.038425 22:0.008776 23:0.026898 24:0.013295 25:0.029944 26:0.144061 27:0.332993 28:0.332993 29:0.111642 30:0.028437 31:0.005337 32:0.012848 33:0.016597 34:0.054061 35:0.332993 36:0.332993 
-1 1:0.281159 2:0.236582 3:0.122413 4:0.05557 5:0.123802 6:0.052594 7:0.02283 8:0.033404 9:0.105939 10:0.281159 11:0.281159 12:0.12588 13:0.046454 14:0.081806 15:0.038556 16:0.024994 17:0.051414 18:0.10298 19:0.281159 20:0.281159 21:0.206837 22:0.072487 23:0.076234 24:0.007014 25:0.051293 26:0.103201 27:0.225027 28:0.281159 29:0.281159 30:0.281159 31:0.074994 32:0.045007 33:0.007448 34:0.049426 35:0.112794 36:0.281159 
-1 1:0.262604 2:0.022689 3:0.003724 4:0.000633 5:0.015389 6:0.003684 7:0.020385 8:0.103449 9:0.349548 10:0.211806 11:0.025793 12:0.03687 13:0 14:0.022819 15:0.00412 16:0.027991 17:0.210196 18:0.349548 19:0.349548 20:0.027252 21:0.009696 22:0.002702 23:0.008801 24:0.012631 25:0.021205 26:0.178982 27:0.349548 28:0.329683 29:0.034464 30:0.004603 31:0 32:0.012916 33:0.007672 34:0.029517 35:0.260342 36:0.349548 
-1 1:0.257724 2:0.289705 3:0.289705 4:0.176363 5:0.192641 6:0.021618 7:0.009512 8:0.030963 9:0.128078 10:0.199568 11:0.289705 12:0.289705 13:0.123512 14:0.155441 15:0.0495 16:0.034848 17:0.052895 18:0.122166 19:0.179036 20:0.289705 21:0.289705 22:0.091708 23:0.08217 24:0.010188 25:0.012678 26:0.011079 27:0.067823 28:0.081866 29:0.289705 30:0.289705 31:0.063786 32:0.062 33:0.009286 34:0.029068 35:0.025872 36:0.063763 
-1 1:0.256354 2:0.036553 3:0.009281 4:0.020989 5:0.017905 6:0.037175 7:0.258731 8:0.258731 9:0.258731 10:0.258731 11:0.258731 12:0.258731 13:0.019647 14:0.017014 15:0.018593 16:0.149953 17:0.258731 18:0.258731 19:0.125754 20:0.03393 21:0.014738 22:0.063317 23:0.102727 24:0.077026 25:0.222523 26:0.258731 27:0.192557 28:0.167339 29:0.13796 30:0.075529 31:0.048046 32:0.094463 33:0.04642 34:0.161027 35:0.183096 36:0.228686 
-1 1:0.20747 2:0.175808 3:0.244701 4:0.309185 5:0.309185 6:0.087408 7:0.122305 8:0.073448 9:0.146383 10:0.292713 11:0.145777 12:0.111363 13:0.014054 14:0.04025 15:0.01996 16:0.011751 17:0.029092 18:0.13947 19:0.309185 20:0.237695 21:0.120874 22:0.151622 23:0.225852 24:0.021942 25:0.077581 26:0.069488 27:0.211242 28:0.309185 29:0.192163 30:0.097354 31:0.003601 32:0.008372 33:0.00526 34:0.006172 35:0.01836 36:0.203323 
-1 1:0.280477 2:0.280477 3:0.251859 4:0.067554 5:0.045002 6:0.010004 7:0.036379 8:0.050661 9:0.085237 10:0.280477 11:0.280477 12:0.280477 13:0.174713 14:0.044764 15:0.021853 16:0.009014 17:0.045172 18:0.077516 19:0.280477 20:0.280477 21:0.238992 22:0.043012 23:0.025645 24:0.003787 25:0.053019 26:0.05615 27:0.136106 28:0.280477 29:0.280477 30:0.238899 31:0.085829 32:0.040227 33:0.010397 34:0.022715 35:0.06428 36:0.108791 
-1 1:0.312445 2:0.312445 3:0.158609 4:0.028697 5:0.036382 6:0.026504 7:0.023152 8:0.146176 9:0.312445 10:0.312445 11:0.312445 12:0.251349 13:0.067682 14:0.056379 15:0.046437 16:0.055274 17:0.133169 18:0.312445 19:0.189482 20:0.116222 21:0.082984 22:0.003059 23:0.070092 24:0.028521 25:0.050592 26:0.104754 27:0.257055 28:0.166983 29:0.091082 30:0.067455 31:0.008273 32:0.115854 33:0.036779 34:0.080854 35:0.129138 36:0.216624 
-1 1:0.160888 2:0.157216 3:0.058602 4:0.071621 5:0.164951 6:0.080452 7:0.098976 8:0.079781 9:0.057211 10:0.32604 11:0.32604 12:0.151424 13:0.042136 14:0.042092 15:0.022052 16:0.026605 17:0.089541 18:0.09961 19:0.32604 20:0.32604 21:0.200362 22:0.05726 23:0.123013 24:0.08166 25:0.143073 26:0.067909 27:0.084036 28:0.32604 29:0.32604 30:0.2544 31:0.021689 32:0.039731 33:0.067482 34:0.055018 35:0.098465 36:0.140094 
-1 1:0.261771 2:0.125942 3:0.076874 4:0.009435 5:0.015049 6:0.002694 7:0.00435 8:0.02959 9:0.301364 10:0.25733 11:0.107352 12:0.11421 13:0.00499 14:0.015484 15:0.003897 16:0.00719 17:0.049763 18:0.321033 19:0.388596 20:0.049791 21:0.017868 22:0.000773 23:0.004432 24:0.000606 25:0.003263 26:0.055511 27:0.388596 28:0.388596 29:0.024587 30:0.01958 31:0.002407 32:0.016193 33:0.019533 34:0.00821 35:0.074058 36:0.388596 
-1 1:0.30375 2:0.003468 3:0.003158 4:1.5e-005 5:0.005219 6:0.001819 7:0.124776 8:0.22363 9:0.30375 10:0.30375 11:0.003226 12:0.001499 13:0.001561 14:0.012143 15:0.015176 16:0.105637 17:0.25754 18:0.30375 19:0.30375 20:0.001339 21:0.003615 22:0 23:0.004202 24:0.000839 25:0.102443 26:0.181313 27:0.30375 28:0.30375 29:0.000763 30:0.002284 31:8.2e-005 32:0.005536 33:0.002673 34:0.094297 35:0.251006 36:0.30375 
-1 1:0.315998 2:0.315998 3:0.067722 4:0.019042 5:0.022878 6:0.00671 7:0.012606 8:0.103547 9:0.238574 10:0.315998 11:0.315998 12:0.117953 13:0.009737 14:0.021159 15:0.000679 16:0.015578 17:0.091236 18:0.264154 19:0.305416 20:0.242682 21:0.084039 22:0.028338 23:0.093626 24:0.023881 25:0.048248 26:0.134192 27:0.170261 28:0.315998 29:0.17636 30:0.071412 31:0.000618 32:0.122837 33:0.002942 34:0.060205 35:0.143598 36:0.192893 
-1 1:0.247247 2:0.216196 3:0.125097 4:0.047841 5:0.133303 6:0.055997 7:0.247247 8:0.247247 9:0.212079 10:0.247247 11:0.247247 12:0.198023 13:0.198612 14:0.247247 15:0.088228 16:0.247247 17:0.247247 18:0.247247 19:0.247247 20:0.126292 21:0.098689 22:0.028779 23:0.044015 24:0.027465 25:0.035963 26:0.0713 27:0.163923 28:0.247247 29:0.091628 30:0.058408 31:0.049873 32:0.047889 33:0.02758 34:0.032431 35:0.066208 36:0.151141 
-1 1:0.265954 2:0.16566 3:0.245855 4:0.038309 5:0.196165 6:0.042934 7:0.062818 8:0.039319 9:0.226869 10:0.2443 11:0.230342 12:0.154921 13:0.029361 14:0.232848 15:0.041645 16:0.082756 17:0.029233 18:0.15437 19:0.265954 20:0.14937 21:0.242058 22:0.031982 23:0.072235 24:0.04836 25:0.072924 26:0.051044 27:0.265954 28:0.265954 29:0.160525 30:0.191743 31:0.061764 32:0.116881 33:0.135811 34:0.184866 35:0.043825 36:0.265954 
-1 1:0.26296 2:0.028068 3:0.007345 4:0.000543 5:0.003561 6:0.002909 7:0.008066 8:0.007849 9:0.367891 10:0.267595 11:0.01379 12:0.007556 13:0 14:0.012478 15:0.006872 16:0.008354 17:0.015805 18:0.369078 19:0.381332 20:0.006034 21:0.001149 22:0.001654 23:0.003437 24:0.002556 25:0.007013 26:0.006349 27:0.381332 28:0.381332 29:0.005391 30:0.001357 31:0.001871 32:0.009485 33:0.006538 34:0.006021 35:0.010191 36:0.381332 
-1 1:0.16329 2:0.173405 3:0.113459 4:0.045871 5:0.034348 6:0.089721 7:0.093389 8:0.096321 9:0.193565 10:0.254864 11:0.254864 12:0.251317 13:0.023804 14:0.056226 15:0.114985 16:0.254864 17:0.090564 18:0.254864 19:0.082929 20:0.076798 21:0.054477 22:0.027818 23:0.044157 24:0.214705 25:0.254864 26:0.162459 27:0.133184 28:0.218572 29:0.227681 30:0.115441 31:0.014415 32:0.078768 33:0.254864 34:0.254864 35:0.254864 36:0.15825 
-1 1:0.220125 2:0.253697 3:0.217583 4:0.023517 5:0.051409 6:0.039903 7:0.026883 8:0.040193 9:0.075553 10:0.253697 11:0.251837 12:0.143012 13:0.053596 14:0.253697 15:0.229222 16:0.253697 17:0.253697 18:0.253697 19:0.253697 20:0.253697 21:0.089679 22:0.015928 23:0.019639 24:0.014702 25:0.012741 26:0.015938 27:0.056073 28:0.253697 29:0.253697 30:0.106879 31:0.040877 32:0.041985 33:0.036808 34:0.054884 35:0.099399 36:0.253697 
-0.815149122534686 1:0.066168 2:0.235692 3:0.293862 4:0.239156 5:0.092639 6:0.027755 7:0.012189 8:0.006664 9:0.035438 10:0.206487 11:0.254116 12:0.293862 13:0.193967 14:0.059713 15:0.033806 16:0.027989 17:0.018208 18:0.092751 19:0.096932 20:0.293862 21:0.293862 22:0.253647 23:0.10963 24:0.019727 25:0.002967 26:0.027394 27:0.045899 28:0.242439 29:0.293862 30:0.293862 31:0.101466 32:0.097966 33:0.012321 34:0.013133 35:0.041758 36:0.148332 
