svm_type c_svc
kernel_type linear
nr_class 2
total_sv 134
rho -0.267761
label 2 8
probA -2.79608
probB 0.418358
nr_sv 69 65
SV
0.1328644154668005 1:0.35099 2:0.030022 3:0.006018 4:0.003146 5:0.000509 6:8e-006 7:0.004317 8:0.05449 9:0.35099 10:0.35099 11:0.027255 12:0.012555 13:0.005616 14:0.001322 15:0.004008 16:0.003445 17:0.038611 18:0.35099 19:0.344752 20:0.017614 21:0.002709 22:0.003088 23:0.005325 24:0.00049 25:0.024271 26:0.041942 27:0.35099 28:0.35099 29:0.020769 30:0.002275 31:0.000374 32:0.004281 33:0.001305 34:0.015648 35:0.074078 36:0.35099 
1 1:0.087732 2:0.172128 3:0.223383 4:0.155271 5:0.119338 6:0.175297 7:0.183867 8:0.240137 9:0.240137 10:0.164206 11:0.240137 12:0.229277 13:0.104074 14:0.163739 15:0.181806 16:0.202706 17:0.240137 18:0.240137 19:0.065921 20:0.04657 21:0.051154 22:0.04173 23:0.042244 24:0.057672 25:0.095648 26:0.240137 27:0.240137 28:0.104495 29:0.106836 30:0.133969 31:0.042878 32:0.064594 33:0.10161 34:0.12423 35:0.240137 36:0.240137 
1 1:0.350703 2:0.022351 3:0.017856 4:0.012371 5:0.006872 6:0.013922 7:0.007305 8:0.01555 9:0.350703 10:0.340839 11:0.034482 12:0.023931 13:0.010462 14:0.009017 15:0.008333 16:0.005583 17:0.021866 18:0.350703 19:0.350703 20:0.059761 21:0.027718 22:0.017562 23:0.019825 24:0.011144 25:0.019074 26:0.003893 27:0.350703 28:0.350703 29:0.060877 30:0.046336 31:0.020298 32:0.042033 33:0.008338 34:0.020702 35:0.035538 36:0.350703 
1 1:0.168947 2:0.050011 3:0.016904 4:0.010325 5:0.012121 6:0.030969 7:0.049061 8:0.206339 9:0.34099 10:0.134897 11:0.054258 12:0.010904 13:0.016307 14:0.016967 15:0.024177 16:0.089014 17:0.317157 18:0.34099 19:0.173003 20:0.033256 21:0.009888 22:0.03393 23:0.055149 24:0.052277 25:0.056124 26:0.300301 27:0.34099 28:0.233017 29:0.047337 30:0.008728 31:0.031521 32:0.086305 33:0.049001 34:0.089109 35:0.34099 36:0.34099 
1 1:0.287266 2:0.118417 3:0.076257 4:0.061416 5:0.046218 6:0.023787 7:0.016145 8:0.186773 9:0.304728 10:0.219087 11:0.089405 12:0.062222 13:0.011127 14:0.0171 15:0.037666 16:0.077007 17:0.304728 18:0.304728 19:0.182816 20:0.02665 21:0.009658 22:0.007877 23:0.016036 24:0.012806 25:0.041684 26:0.304728 27:0.304728 28:0.302434 29:0.033932 30:0.01515 31:0.005558 32:0.015911 33:0.020773 34:0.07297 35:0.304728 36:0.304728 
1 1:0.120468 2:0.03594 3:0.004306 4:0.001095 5:0.00276 6:0.002516 7:0.010478 8:0.286454 9:0.365441 10:0.145452 11:0.039244 12:0.002712 13:0.000651 14:0.003484 15:0.008733 16:0.01351 17:0.289264 18:0.365441 19:0.116678 20:0.019536 21:0.006034 22:0.005898 23:0.012221 24:0.009917 25:0.012088 26:0.274379 27:0.365441 28:0.174415 29:0.023275 30:0.002949 31:0.008272 32:0.036673 33:0.039358 34:0.016829 35:0.365441 36:0.365441 
1 1:0.171022 2:0.052142 3:0.014633 4:0.014859 5:0.027613 6:0.017436 7:0.06167 8:0.11522 9:0.2745 10:0.145686 11:0.048375 12:0.014928 13:0.017255 14:0.012269 15:0.009326 16:0.041761 17:0.133593 18:0.2745 19:0.241104 20:0.070979 21:0.046007 22:0.166726 23:0.2745 24:0.2745 25:0.204725 26:0.176684 27:0.2745 28:0.2745 29:0.123358 30:0.064627 31:0.120554 32:0.212131 33:0.152503 34:0.177751 35:0.2745 36:0.2745 
1 1:0.112519 2:0.019228 3:0.011867 4:0.009509 5:0.017952 6:0.056823 7:0.279126 8:0.279126 9:0.279126 10:0.065237 11:0.031297 12:0.019162 13:0.022174 14:0.022208 15:0.063413 16:0.226143 17:0.279126 18:0.225525 19:0.214289 20:0.080823 21:0.008587 22:0.023761 23:0.055363 24:0.078806 25:0.232181 26:0.279126 27:0.279126 28:0.142864 29:0.082227 30:0.012598 31:0.059148 32:0.098995 33:0.098396 34:0.279126 35:0.279126 36:0.279126 
1 1:0.32109 2:0.027603 3:0.001407 4:0.000735 5:0.001326 6:0.002724 7:0.014125 8:0.140436 9:0.32109 10:0.32109 11:0.065324 12:0.011772 13:0.020775 14:0.001592 15:0.036977 16:0.058138 17:0.123862 18:0.32109 19:0.269814 20:0.057486 21:0.009842 22:0.011926 23:0.010315 24:0.013173 25:0.028696 26:0.167167 27:0.32109 28:0.304934 29:0.082033 30:0.023727 31:0.034473 32:0.011094 33:0.090817 34:0.119359 35:0.32109 36:0.32109 
1 1:0.116545 2:0.129435 3:0.059921 4:0.024179 5:0.020456 6:0.034319 7:0.12758 8:0.32948 9:0.278212 10:0.10325 11:0.127381 12:0.077973 13:0.077821 14:0.078522 15:0.064642 16:0.099613 17:0.294207 18:0.239412 19:0.124025 20:0.082119 21:0.047511 22:0.023132 23:0.045896 24:0.06516 25:0.147646 26:0.32948 27:0.32948 28:0.130607 29:0.068791 30:0.049486 31:0.043993 32:0.037713 33:0.045881 34:0.195447 35:0.32948 36:0.32948 
1 1:0.115022 2:0.066216 3:0.031932 4:0.010575 5:0.022065 6:0.008899 7:0.048641 8:0.354888 9:0.354888 10:0.09699 11:0.057293 12:0.060592 13:0.054581 14:0.066761 15:0.051253 16:0.172929 17:0.220556 18:0.251071 19:0.090646 20:0.026286 21:0.014081 22:0.004315 23:0.007867 24:0.010284 25:0.055749 26:0.354888 27:0.354888 28:0.112645 29:0.035705 30:0.055372 31:0.03157 32:0.023112 33:0.031416 34:0.138372 35:0.354888 36:0.354888 
1 1:0.06699 2:0.005739 3:0.006053 4:0.004871 5:0.010625 6:0.014908 7:0.147512 8:0.337012 9:0.337012 10:0.075233 11:0.004893 12:0.003558 13:0.002735 14:0.007662 15:0.013234 16:0.074755 17:0.337012 18:0.307911 19:0.034531 20:0.001341 21:0.003 22:0.005315 23:0.018774 24:0.026549 25:0.222345 26:0.337012 27:0.260228 28:0.062246 29:0.001452 30:0.000857 31:0.001085 32:0.009457 33:0.016652 34:0.241802 35:0.337012 36:0.337012 
0.8196721790550213 1:0.064312 2:0.002422 3:0.000799 4:0.002329 5:0.011207 6:0.027926 7:0.25781 8:0.331392 9:0.308427 10:0.006028 11:0.00054 12:0.003537 13:0.004388 14:0.012311 15:0.052516 16:0.27494 17:0.234411 18:0.044703 19:0.065471 20:0.004937 21:0.003674 22:0.001912 23:0.007521 24:0.016686 25:0.331392 26:0.331392 27:0.331392 28:0.032512 29:0.001126 30:0.007436 31:0.010275 32:0.023163 33:0.033642 34:0.331392 35:0.331392 36:0.167484 
1 1:0.232904 2:0.032496 3:0.02051 4:0.006162 5:0.008426 6:0.019154 7:0.063037 8:0.269316 9:0.269316 10:0.1444 11:0.047711 12:0.007876 13:0.005842 14:0.005594 15:0.02177 16:0.078821 17:0.24399 18:0.269316 19:0.269316 20:0.085549 21:0.039777 22:0.015215 23:0.027943 24:0.104155 25:0.171732 26:0.269316 27:0.269316 28:0.269316 29:0.240701 30:0.018758 31:0.011401 32:0.026402 33:0.130611 34:0.261648 35:0.269316 36:0.269316 
1 1:0.047818 2:0.014963 3:0.015886 4:0.004846 5:0.008924 6:0.0366 7:0.354306 8:0.354306 9:0.12204 10:0.066727 11:0.02023 12:0.019927 13:0.01233 14:0.009061 15:0.023944 16:0.194597 17:0.339828 18:0.158268 19:0.015923 20:0.007746 21:0.011396 22:0.013267 23:0.024573 24:0.04834 25:0.354306 26:0.354306 27:0.077179 28:0.02814 29:0.004573 30:0.00643 31:0.003475 32:0.013851 33:0.031524 34:0.354306 35:0.354306 36:0.167723 
0.579274840533457 1:0.058786 2:0.019977 3:0.016169 4:0.017258 5:0.01889 6:0.019902 7:0.094789 8:0.391621 9:0.227754 10:0.047558 11:0.018246 12:0.030274 13:0.139927 14:0.107702 15:0.040253 16:0.045182 17:0.343669 18:0.100081 19:0.088099 20:0.031897 21:0.013309 22:0.003078 23:0.014319 24:0.026614 25:0.104021 26:0.391621 27:0.339745 28:0.112202 29:0.039241 30:0.015005 31:0.036452 32:0.058846 33:0.022845 34:0.128112 35:0.391621 36:0.362326 
1 1:0.089513 2:0.021687 3:0.004036 4:0.002044 5:0.003528 6:0.008487 7:0.043759 8:0.351866 9:0.351866 10:0.155917 11:0.056227 12:0.011028 13:0.000103 14:0.004025 15:0.012799 16:0.022674 17:0.211082 18:0.351866 19:0.079869 20:0.012504 21:0.00366 22:0.002948 23:0.005896 24:0.03823 25:0.101837 26:0.351866 27:0.351866 28:0.158586 29:0.019083 30:0.003254 31:0 32:0.006568 33:0.020167 34:0.045516 35:0.351866 36:0.351866 
1 1:0.077009 2:0.029657 3:0.006691 4:0.009523 5:0.06209 6:0.137541 7:0.188653 8:0.175034 9:0.16917 10:0.0528 11:0.027237 12:0.015489 13:0.009167 14:0.031582 15:0.040416 16:0.070227 17:0.12578 18:0.133265 19:0.141109 20:0.133568 21:0.03585 22:0.03412 23:0.233949 24:0.298302 25:0.298302 26:0.298302 27:0.298302 28:0.168641 29:0.088289 30:0.02019 31:0.018833 32:0.110131 33:0.245987 34:0.298302 35:0.298302 36:0.298302 
1 1:0.065765 2:0.08954 3:0.07985 4:0.044645 5:0.052826 6:0.041429 7:0.322285 8:0.322906 9:0.105181 10:0.103716 11:0.211021 12:0.179356 13:0.068737 14:0.065035 15:0.028765 16:0.098675 17:0.195476 18:0.111491 19:0.087571 20:0.126739 21:0.120115 22:0.093878 23:0.069288 24:0.041115 25:0.322906 26:0.322906 27:0.114766 28:0.09342 29:0.178565 30:0.126795 31:0.10517 32:0.078563 33:0.039079 34:0.322906 35:0.322906 36:0.188633 
1 1:0.171125 2:0.18976 3:0.158631 4:0.079115 5:0.048885 6:0.008667 7:0.017889 8:0.256573 9:0.271292 10:0.162248 11:0.26364 12:0.200531 13:0.105385 14:0.105679 15:0.02219 16:0.079762 17:0.270187 18:0.271292 19:0.195357 20:0.057304 21:0.041147 22:0.01696 23:0.017908 24:0.010463 25:0.036138 26:0.271292 27:0.271292 28:0.271292 29:0.094808 30:0.061342 31:0.022864 32:0.037792 33:0.017333 34:0.135725 35:0.271292 36:0.271292 
1 1:0.103873 2:0.010672 3:0.007057 4:0.023025 5:0.098257 6:0.09698 7:0.060254 8:0.109174 9:0.3305 10:0.098751 11:0.0162 12:0.014837 13:0.054789 14:0.128525 15:0.123004 16:0.074409 17:0.078087 18:0.180801 19:0.091893 20:0.007165 21:0.008856 22:0.074777 23:0.358395 24:0.358395 25:0.082112 26:0.113963 27:0.300041 28:0.141759 29:0.014067 30:0.020982 31:0.13619 32:0.358395 33:0.358395 34:0.129794 35:0.119124 36:0.20943 
1 1:0.047519 2:0.014344 3:0.023066 4:0.159324 5:0.249898 6:0.240632 7:0.105754 8:0.149265 9:0.123356 10:0.012985 11:0.009789 12:0.030186 13:0.249356 14:0.268077 15:0.233048 16:0.091766 17:0.054248 18:0.077444 19:0.084003 20:0.028968 21:0.021176 22:0.098846 23:0.075355 24:0.155537 25:0.268077 26:0.268077 27:0.268077 28:0.030048 29:0.022129 30:0.052033 31:0.227553 32:0.221448 33:0.094443 34:0.268077 35:0.268077 36:0.268077 
1 1:0.188623 2:0.098534 3:0.03521 4:0.018256 5:0.015519 6:0.018171 7:0.082464 8:0.274477 9:0.274477 10:0.148751 11:0.061164 12:0.032219 13:0.024388 14:0.0391 15:0.034366 16:0.122748 17:0.190222 18:0.274477 19:0.274477 20:0.241009 21:0.130712 22:0.009219 23:0.079858 24:0.067467 25:0.167985 26:0.274477 27:0.274477 28:0.142148 29:0.127752 30:0.192439 31:0.106607 32:0.073673 33:0.053309 34:0.226418 35:0.274477 36:0.274477 
1 1:0.149018 2:0.070329 3:0.054811 4:0.032306 5:0.042351 6:0.034259 7:0.067848 8:0.178621 9:0.186525 10:0.187881 11:0.059283 12:0.024122 13:0.01915 14:0.028819 15:0.019874 16:0.097835 17:0.18239 18:0.21292 19:0.228861 20:0.195738 21:0.127427 22:0.198347 23:0.206096 24:0.147481 25:0.241481 26:0.241481 27:0.241481 28:0.241481 29:0.129904 30:0.122337 31:0.128687 32:0.241481 33:0.193793 34:0.241481 35:0.241481 36:0.241481 
1 1:0.237931 2:0.073588 3:0.030655 4:0.004081 5:0.008018 6:0.022861 7:0.135981 8:0.299542 9:0.299542 10:0.122305 11:0.109456 12:0.064254 13:0.017478 14:0.004258 15:0.012939 16:0.209224 17:0.299542 18:0.216425 19:0.12873 20:0.04996 21:0.061001 22:0.032713 23:0.021251 24:0.074325 25:0.189276 26:0.299542 27:0.299542 28:0.08131 29:0.035929 30:0.02129 31:0.014715 32:0.015152 33:0.022588 34:0.299542 35:0.299542 36:0.299542 
1 1:0.091776 2:0.054393 3:0.008847 4:0.005271 5:0.012943 6:0.019436 7:0.019201 8:0.26525 9:0.31746 10:0.154404 11:0.051937 12:0.021312 13:0.006158 14:0.015856 15:0.028916 16:0.045742 17:0.306906 18:0.31746 19:0.251913 20:0.116853 21:0.020482 22:0.018544 23:0.014082 24:0.012035 25:0.011505 26:0.249781 27:0.31746 28:0.31746 29:0.202194 30:0.017648 31:0.001294 32:0.005321 33:0.005116 34:0.054677 35:0.31746 36:0.31746 
1 1:0.145546 2:0.058822 3:0.055186 4:0.02147 5:0.012323 6:0.004508 7:0.01095 8:0.047178 9:0.13658 10:0.143896 11:0.034903 12:0.07856 13:0.015044 14:0.007527 15:0.010713 16:0.029307 17:0.044639 18:0.244665 19:0.327638 20:0.327638 21:0.327638 22:0.093913 23:0.081758 24:0.000933 25:0.007322 26:0.074208 27:0.255772 28:0.327638 29:0.327638 30:0.327638 31:0.059091 32:0.066157 33:0.001445 34:0.026983 35:0.098436 36:0.327638 
1 1:0.280797 2:0.061193 3:0.048469 4:0.018328 5:0.005743 6:0.027467 7:0.027455 8:0.01894 9:0.255396 10:0.280797 11:0.048618 12:0.029778 13:0.031429 14:0.020265 15:0.041875 16:0.0488 17:0.027362 18:0.280797 19:0.280797 20:0.252728 21:0.127444 22:0.068123 23:0.077375 24:0.197471 25:0.138506 26:0.142858 27:0.280797 28:0.280797 29:0.183961 30:0.095352 31:0.042607 32:0.163784 33:0.265006 34:0.164048 35:0.155355 36:0.280797 
1 1:0.105129 2:0.032334 3:0.015813 4:0.007122 5:0.009735 6:0.023507 7:0.07144 8:0.287007 9:0.287007 10:0.134897 11:0.037593 12:0.013332 13:0.010103 14:0.023185 15:0.01809 16:0.061993 17:0.287007 18:0.287007 19:0.094013 20:0.042451 21:0.017078 22:0.026379 23:0.131826 24:0.183133 25:0.287007 26:0.287007 27:0.287007 28:0.2104 29:0.069004 30:0.013997 31:0.030896 32:0.08264 33:0.163176 34:0.258545 35:0.287007 36:0.287007 
1 1:0.163087 2:0.047481 3:0.015163 4:0.008241 5:0.027335 6:0.022495 7:0.030671 8:0.333275 9:0.333275 10:0.173744 11:0.052916 12:0.018472 13:0.019866 14:0.057386 15:0.030703 16:0.047223 17:0.213652 18:0.333275 19:0.137442 20:0.024155 21:0.006685 22:0.001706 23:0.009805 24:0.002921 25:0.014028 26:0.333275 27:0.333275 28:0.308459 29:0.039582 30:0.008201 31:0.006505 32:0.015306 33:0.005519 34:0.015531 35:0.309684 36:0.333275 
1 1:0.336343 2:0.020839 3:0.009433 4:0.007104 5:0.018661 6:0.016972 7:0.03797 8:0.155711 9:0.336343 10:0.336343 11:0.015197 12:0.005331 13:0.00429 14:0.008125 15:0.017881 16:0.067348 17:0.203264 18:0.336343 19:0.336343 20:0.030441 21:0.007369 22:0.004461 23:0.003982 24:0.010342 25:0.003685 26:0.070273 27:0.336343 28:0.336343 29:0.06843 30:0.025246 31:0.005346 32:0.001972 33:0.011464 34:0.01836 35:0.079472 36:0.336343 
1 1:0.070796 2:0.023008 3:0.012312 4:0.003117 5:0.006619 6:0.009841 7:0.065281 8:0.339004 9:0.339004 10:0.064696 11:0.014863 12:0.003416 13:0.00532 14:0.015311 15:0.035204 16:0.139264 17:0.339004 18:0.339004 19:0.103195 20:0.018099 21:0.000604 22:7e-006 23:0.005818 24:0.003106 25:0.040095 26:0.339004 27:0.339004 28:0.163214 29:0.009316 30:0.000119 31:0.000892 32:0.010302 33:0.009334 34:0.047476 35:0.339004 36:0.339004 
0.0394570080035083 1:0.038739 2:0.006243 3:0.003858 4:0.001834 5:0.002546 6:0.032687 7:0.117766 8:0.321035 9:0.350712 10:0.025083 11:0.004578 12:0.009476 13:0.003188 14:0.00017 15:0.040232 16:0.20166 17:0.295869 18:0.285924 19:0.075896 20:0.008453 21:0.000752 22:0.000334 23:0 24:0.007168 25:0.069299 26:0.350712 27:0.350712 28:0.171077 29:0.014482 30:0.001894 31:0.00054 32:0 33:0.011293 34:0.09651 35:0.350712 36:0.350712 
0.07972150321569986 1:0.111795 2:0.071123 3:0.065775 4:0.071291 5:0.055909 6:0.052677 7:0.091112 8:0.301919 9:0.271868 10:0.072329 11:0.060399 12:0.091787 13:0.089437 14:0.080099 15:0.061807 16:0.10195 17:0.173273 18:0.193565 19:0.301919 20:0.09977 21:0.025203 22:0.097519 23:0.092531 24:0.078264 25:0.133893 26:0.301919 27:0.301919 28:0.301919 29:0.067115 30:0.023659 31:0.057979 32:0.040077 33:0.077744 34:0.248199 35:0.301919 36:0.301919 
1 1:0.309523 2:0.066679 3:0.017914 4:0.005556 5:0.006691 6:0.015705 7:0.020672 8:0.041188 9:0.334782 10:0.366628 11:0.103894 12:0.032034 13:0.018214 14:0.011194 15:0.024116 16:0.025731 17:0.043585 18:0.294895 19:0.366628 20:0.0429 21:0.003018 22:0.000601 23:0.002195 24:0.00399 25:0.006058 26:0.020161 27:0.366628 28:0.366628 29:0.060732 30:0.004816 31:0.000916 32:0.004397 33:0.008382 34:0.005106 35:0.025157 36:0.366628 
1 1:0.100965 2:0.030634 3:0.019753 4:0.021448 5:0.046461 6:0.020711 7:0.020493 8:0.176652 9:0.354809 10:0.179004 11:0.048117 12:0.027026 13:0.012177 14:0.039943 15:0.02091 16:0.062242 17:0.298382 18:0.354809 19:0.122956 20:0.014708 21:0.012161 22:0.004063 23:0.005871 24:0.004839 25:0.012193 26:0.354809 27:0.354809 28:0.21967 29:0.023973 30:0.003365 31:0.003438 32:0.00352 33:0.00205 34:0.013223 35:0.354809 36:0.354809 
1 1:0.053433 2:0.013336 3:0.003017 4:0.00385 5:0.022468 6:0.064319 7:0.360053 8:0.360053 9:0.116563 10:0.040344 11:0.012951 12:0.006912 13:0.006935 14:0.021281 15:0.048414 16:0.178718 17:0.231172 18:0.097345 19:0.048906 20:0.012216 21:0.004932 22:0.025665 23:0.10242 24:0.121572 25:0.360053 26:0.360053 27:0.148574 28:0.049492 29:0.012097 30:0.005943 31:0.017357 32:0.063067 33:0.057701 34:0.360053 35:0.360053 36:0.19219 
1 1:0.043768 2:0.014287 3:0.007149 4:0.005429 5:0.00622 6:0.011069 7:0.311823 8:0.311823 9:0.24629 10:0.04411 11:0.010049 12:0.003412 13:0.005696 14:0.009308 15:0.01866 16:0.23004 17:0.311823 18:0.148768 19:0.041774 20:0.024897 21:0.017622 22:0.006892 23:0.00973 24:0.01457 25:0.311823 26:0.311823 27:0.263036 28:0.073295 29:0.016235 30:0.00402 31:0.004462 32:0.010157 33:0.020717 34:0.311823 35:0.311823 36:0.311823 
1 1:0.22223 2:0.063527 3:0.098488 4:0.07755 5:0.065908 6:0.107181 7:0.152155 8:0.318608 9:0.318608 10:0.128023 11:0.058653 12:0.085894 13:0.083893 14:0.047743 15:0.107586 16:0.171745 17:0.241947 18:0.196955 19:0.199504 20:0.052827 21:0.068863 22:0.058256 23:0.041504 24:0.051596 25:0.089791 26:0.318608 27:0.318608 28:0.123807 29:0.051256 30:0.073352 31:0.076779 32:0.031244 33:0.054214 34:0.091572 35:0.318608 36:0.318608 
1 1:0.091445 2:0.030711 3:0.039313 4:0.027047 5:0.045396 6:0.03313 7:0.216778 8:0.2893 9:0.213015 10:0.119984 11:0.054635 12:0.032708 13:0.074229 14:0.097221 15:0.121499 16:0.165326 17:0.230842 18:0.172674 19:0.168572 20:0.069709 21:0.047405 22:0.068344 23:0.066168 24:0.050774 25:0.240028 26:0.2893 27:0.2893 28:0.261007 29:0.166724 30:0.047229 31:0.089244 32:0.103071 33:0.087848 34:0.2893 35:0.2893 36:0.2893 
1 1:0.299339 2:0.083685 3:0.006389 4:0.016752 5:0.005227 6:0.005183 7:0.054244 8:0.26141 9:0.299339 10:0.205975 11:0.039352 12:0.005963 13:0.011199 14:0.007087 15:0.008352 16:0.033364 17:0.299339 18:0.299339 19:0.299339 20:0.197764 21:0.013089 22:0.030262 23:0.017926 24:0.009877 25:0.064455 26:0.139112 27:0.283869 28:0.299339 29:0.094544 30:0.007095 31:0.025888 32:0.031805 33:0.007919 34:0.026773 35:0.299339 36:0.299339 
0.4692873219596582 1:0.262812 2:0.003122 3:0.001992 4:0.001121 5:0.001115 6:0.00152 7:0.137402 8:0.27463 9:0.281195 10:0.209645 11:0.009696 12:0.00255 13:0.001468 14:0.004209 15:0.00879 16:0.123848 17:0.197086 18:0.280123 19:0.281195 20:0.035143 21:0.076225 22:0.025892 23:0.006352 24:0.00962 25:0.147967 26:0.270772 27:0.281195 28:0.281195 29:0.111114 30:0.057189 31:0.040849 32:0.017975 33:0.032741 34:0.246648 35:0.281195 36:0.281195 
0.8567090302996564 1:0.093334 2:0.046884 3:0.01566 4:0.010479 5:0.011288 6:0.011608 7:0.04424 8:0.13169 9:0.283842 10:0.070002 11:0.035429 12:0.012023 13:0.019281 14:0.017909 15:0.013369 16:0.067114 17:0.117141 18:0.246862 19:0.283842 20:0.283842 21:0.091471 22:0.029698 23:0.213752 24:0.218382 25:0.130426 26:0.283842 27:0.283842 28:0.135316 29:0.083275 30:0.076146 31:0.143246 32:0.283842 33:0.283842 34:0.145845 35:0.20735 36:0.283842 
1 1:0.320035 2:0.011816 3:0.002214 4:0.012304 5:0.002578 6:0.060792 7:0.22941 8:0.195931 9:0.320035 10:0.299208 11:0.021123 12:0.002859 13:0.075891 14:0.010176 15:0.052941 16:0.120521 17:0.142977 18:0.284108 19:0.320035 20:0.027686 21:0.002098 22:0.015236 23:0.008795 24:0.04209 25:0.140765 26:0.117901 27:0.320035 28:0.320035 29:0.044217 30:0.01367 31:0.097298 32:0.017502 33:0.040189 34:0.082545 35:0.126525 36:0.320035 
1 1:0.274988 2:0.117897 3:0.002849 4:0.004382 5:0.003594 6:0.002958 7:0.069953 8:0.274988 9:0.274988 10:0.205229 11:0.041148 12:0.004862 13:0.001629 14:0.003499 15:0.004932 16:0.172808 17:0.274988 18:0.274988 19:0.274988 20:0.176447 21:0.04484 22:0.041421 23:0.025402 24:0.014862 25:0.069482 26:0.274988 27:0.274988 28:0.256457 29:0.094562 30:0.042125 31:0.034205 32:0.03505 33:0.019633 34:0.169305 35:0.274988 36:0.274988 
1 1:0.318375 2:0.006212 3:0.00295 4:0.000923 5:0.002477 6:1.8e-005 7:0.036106 8:0.171144 9:0.318375 10:0.318375 11:0.007751 12:0.004879 13:0.001984 14:0.004288 15:0.001562 16:0.082751 17:0.131967 18:0.318375 19:0.318375 20:0.033239 21:0.032332 22:0.009223 23:0.030039 24:0.005426 25:0.052116 26:0.208786 27:0.318375 28:0.318375 29:0.064234 30:0.057217 31:0.011556 32:0.038717 33:0.004394 34:0.172169 35:0.206714 36:0.318375 
1 1:0.108516 2:0.016631 3:0.003645 4:0.001329 5:0.014545 6:0.010148 7:0.093346 8:0.331375 9:0.331375 10:0.118529 11:0.012398 12:0.002428 13:0.000685 14:0.0096 15:0.018837 16:0.145716 17:0.331375 18:0.331375 19:0.113986 20:0.019899 21:0.034047 22:0.015155 23:0.013112 24:0.018536 25:0.052364 26:0.331375 27:0.331375 28:0.176272 29:0.038628 30:0.027662 31:0.014689 32:0.020587 33:0.021818 34:0.093541 35:0.331375 36:0.331375 
1 1:0.308568 2:0.022919 3:0.009309 4:0.010457 5:0.008888 6:0.010564 7:0.030791 8:0.174702 9:0.308568 10:0.308568 11:0.026543 12:0.008269 13:0.007656 14:0.008782 15:0.005184 16:0.027173 17:0.193212 18:0.308568 19:0.308568 20:0.050239 21:0.0053 22:0.003286 23:0.018539 24:0.00887 25:0.035923 26:0.245996 27:0.308568 28:0.308568 29:0.04647 30:0.005687 31:0.005888 32:0.014026 33:0.003832 34:0.037097 35:0.308568 36:0.308568 
1 1:0.262849 2:0.007195 3:0.003899 4:0.001237 5:0.001081 6:0.005639 7:0.207028 8:0.262849 9:0.262849 10:0.234146 11:0.004901 12:0.003479 13:0.002028 14:0.001121 15:0.003096 16:0.182158 17:0.262849 18:0.262849 19:0.260982 20:0.018093 21:0.008571 22:0.000619 23:0.001923 24:0.008432 25:0.194034 26:0.262849 27:0.262849 28:0.262849 29:0.009543 30:0.00442 31:0.000864 32:0.003248 33:0.003444 34:0.262849 35:0.262849 36:0.262849 
1 1:0.269887 2:0.032435 3:0.009772 4:0.00373 5:0.003437 6:0.007178 7:0.156238 8:0.240561 9:0.269887 10:0.232329 11:0.035453 12:0.014659 13:0.016141 14:0.030534 15:0.052019 16:0.12163 17:0.091856 18:0.250489 19:0.269887 20:0.269887 21:0.156447 22:0.032758 23:0.031824 24:0.025281 25:0.138925 26:0.207063 27:0.269887 28:0.269887 29:0.269887 30:0.172192 31:0.105504 32:0.083594 33:0.123642 34:0.156466 35:0.094066 36:0.269887 
1 1:0.290203 2:0.05568 3:0.013914 4:0.003033 5:0.005471 6:0.009468 7:0.24582 8:0.184305 9:0.290203 10:0.277008 11:0.021204 12:0.023106 13:0.00658 14:0.030022 15:0.051729 16:0.113777 17:0.128346 18:0.258833 19:0.290203 20:0.261303 21:0.041538 22:0.036863 23:0.064599 24:0.026005 25:0.188686 26:0.171988 27:0.290203 28:0.290203 29:0.051421 30:0.02231 31:0.044794 32:0.138722 33:0.107088 34:0.137097 35:0.142044 36:0.290203 
0.434037719028477 1:0.298921 2:0.006416 3:0.004894 4:0.003219 5:0.002688 6:0.004223 7:0.019586 8:0.227632 9:0.298921 10:0.298167 11:0.007404 12:0.003527 13:0.001383 14:0.004761 15:0.009109 16:0.061282 17:0.198556 18:0.298921 19:0.298921 20:0.016885 21:0.003208 22:0.000438 23:0.006394 24:0.001038 25:0.021006 26:0.288704 27:0.298921 28:0.298921 29:0.016573 30:0.001398 31:0.000931 32:0.005009 33:0.001428 34:0.11486 35:0.298921 36:0.298921 
1 1:0.269176 2:0.015146 3:0.003252 4:0.002767 5:0.004349 6:0.029117 7:0.269176 8:0.198857 9:0.269176 10:0.236347 11:0.006661 12:0.004921 13:0.003837 14:0.012225 15:0.004057 16:0.17735 17:0.188873 18:0.242645 19:0.269176 20:0.020692 21:0.003044 22:0.006125 23:0.009767 24:0.023159 25:0.269176 26:0.220456 27:0.269176 28:0.269176 29:0.007083 30:0.008242 31:0.008951 32:0.008088 33:0.003459 34:0.269176 35:0.269176 36:0.269176 
1 1:0.257156 2:0.005504 3:0.002937 4:0.003484 5:0.008675 6:0.001455 7:0.27021 8:0.208016 9:0.27021 10:0.208356 11:0.005107 12:0.002966 13:0.004194 14:0.010888 15:0.000939 16:0.27021 17:0.205211 18:0.27021 19:0.27021 20:0.010856 21:0.006793 22:0.015466 23:0.008562 24:0.005179 25:0.27021 26:0.164982 27:0.27021 28:0.27021 29:0.008509 30:0.006632 31:0.013731 32:0.009149 33:0.006452 34:0.27021 35:0.209255 36:0.27021 
0.5312078746672952 1:0.315073 2:0.002859 3:0.00654 4:0.008265 5:0.009899 6:0.014188 7:0.013382 8:0.148667 9:0.315073 10:0.282507 11:0.007137 12:0.004985 13:0.007137 14:0.013308 15:0.007306 16:0.035964 17:0.220008 18:0.315073 19:0.315073 20:0.002253 21:0.000889 22:0.011015 23:0.01687 24:0.07455 25:0.040527 26:0.194115 27:0.315073 28:0.315073 29:0.004474 30:0.003329 31:0.007742 32:0.012493 33:0.025404 34:0.062714 35:0.315073 36:0.315073 
1 1:0.105875 2:0.030347 3:0.012371 4:0.004263 5:0.009276 6:0.007058 7:0.323697 8:0.323697 9:0.223804 10:0.034491 11:0.009656 12:0.014584 13:0.005033 14:0.010676 15:0.00766 16:0.323697 17:0.323697 18:0.126854 19:0.044336 20:0.020229 21:0.008489 22:0.007404 23:0.009481 24:0.005566 25:0.323697 26:0.323697 27:0.128657 28:0.063533 29:0.00782 30:0.009969 31:0.01096 32:0.010689 33:0.016121 34:0.323697 35:0.323697 36:0.233136 
0.5971524785348632 1:0.282334 2:0.044015 3:0.003553 4:0.001899 5:0.002976 6:0.028767 7:0.276598 8:0.282334 9:0.282334 10:0.17826 11:0.021295 12:0.005191 13:0.002465 14:0.005784 15:0.011294 16:0.080092 17:0.226308 18:0.282334 19:0.282334 20:0.092565 21:0.01512 22:0.007119 23:0.014552 24:0.027536 25:0.139946 26:0.263932 27:0.282334 28:0.282334 29:0.07157 30:0.036313 31:0.013623 32:0.014044 33:0.017055 34:0.079703 35:0.278567 36:0.282334 
1 1:0.07558 2:0.029229 3:0.005605 4:0.001198 5:0.013794 6:0.010671 7:0.142641 8:0.350111 9:0.336019 10:0.05377 11:0.023329 12:0.004051 13:0.00085 14:0.00396 15:0.032582 16:0.199138 17:0.296812 18:0.244342 19:0.11341 20:0.036649 21:0.026542 22:0.006555 23:0.008851 24:0.011674 25:0.088615 26:0.350111 27:0.350111 28:0.11182 29:0.027802 30:0.011585 31:0.002237 32:0.00623 33:0.01273 34:0.121784 35:0.350111 36:0.350111 
1 1:0.193717 2:0.002209 3:0.000792 4:0.000861 5:0.003353 6:0.003333 7:0.087869 8:0.31511 9:0.31511 10:0.139286 11:0.005941 12:0.00206 13:0.002203 14:0.002088 15:0.002891 16:0.104368 17:0.31511 18:0.31511 19:0.164744 20:0.004752 21:0.002214 22:0.003483 23:0.006963 24:0.003913 25:0.092271 26:0.31511 27:0.31511 28:0.233531 29:0.007351 30:0.002171 31:0.00396 32:0.006522 33:0.00266 34:0.19093 35:0.31511 36:0.31511 
1 1:0.092262 2:0.020552 3:0.012606 4:0.004223 5:0.014414 6:0.025429 7:0.049607 8:0.256995 9:0.345076 10:0.09029 11:0.02345 12:0.016053 13:0.007992 14:0.025557 15:0.035364 16:0.075451 17:0.233244 18:0.345076 19:0.129398 20:0.015847 21:0.006961 22:0.002016 23:0.078299 24:0.048683 25:0.232396 26:0.345076 27:0.345076 28:0.087064 29:0.016532 30:0.014468 31:0.003474 32:0.043119 33:0.039412 34:0.203831 35:0.345076 36:0.345076 
1 1:0.283196 2:0.008327 3:0.003907 4:0.005497 5:0.01142 6:0.022583 7:0.155638 8:0.163557 9:0.283196 10:0.213134 11:0.007504 12:0.01163 13:0.031215 14:0.061598 15:0.02708 16:0.08541 17:0.079356 18:0.226899 19:0.283196 20:0.148478 21:0.1324 22:0.176772 23:0.11099 24:0.076205 25:0.162716 26:0.130216 27:0.283196 28:0.283196 29:0.129671 30:0.206869 31:0.256933 32:0.264883 33:0.046897 34:0.101007 35:0.086461 36:0.283196 
1 1:0.293768 2:0.0279 3:0.013478 4:0.003455 5:0.006706 6:0.030741 7:0.258493 8:0.223467 9:0.293768 10:0.24847 11:0.029545 12:0.008262 13:0.003415 14:0.019421 15:0.091889 16:0.16045 17:0.107285 18:0.293768 19:0.293768 20:0.068233 21:0.042452 22:0.019683 23:0.066522 24:0.0647 25:0.205572 26:0.156194 27:0.293768 28:0.293768 29:0.053325 30:0.017684 31:0.007118 32:0.123086 33:0.137151 34:0.18524 35:0.10904 36:0.293768 
1 1:0.205984 2:0.010708 3:0.000962 4:0.002327 5:0.011489 6:0.014315 7:0.264374 8:0.264374 9:0.264374 10:0.16985 11:0.009954 12:0.007757 13:0.005313 14:0.019687 15:0.027764 16:0.187403 17:0.224533 18:0.25717 19:0.264374 20:0.007878 21:0.001176 22:0.011017 23:0.030672 24:0.032252 25:0.264374 26:0.264374 27:0.264374 28:0.264374 29:0.009997 30:0.002358 31:0.011309 32:0.03102 33:0.020371 34:0.264374 35:0.264374 36:0.264374 
1 1:0.300277 2:0.020737 3:0.005351 4:0.001986 5:0.005822 6:0.002783 7:0.164973 8:0.109197 9:0.300277 10:0.300277 11:0.018673 12:0.010362 13:0.005684 14:0.00386 15:0.003492 16:0.099693 17:0.145839 18:0.280314 19:0.300277 20:0.041475 21:0.011477 22:0.00429 23:0.009682 24:0.012928 25:0.236805 26:0.160961 27:0.300277 28:0.300277 29:0.028388 30:0.005498 31:0.005277 32:0.005095 33:0.01414 34:0.201295 35:0.300277 36:0.300277 
1 1:0.08887 2:0.030066 3:0.014083 4:0.010816 5:0.014332 6:0.023631 7:0.301654 8:0.301654 9:0.299959 10:0.051711 11:0.024752 12:0.010555 13:0.006272 14:0.017795 15:0.037951 16:0.219933 17:0.256023 18:0.14781 19:0.104521 20:0.02208 21:0.008279 22:0.00531 23:0.004554 24:0.009438 25:0.301654 26:0.301654 27:0.298217 28:0.133914 29:0.015775 30:0.010237 31:0.002432 32:0.012568 33:0.014121 34:0.301654 35:0.301654 36:0.301654 
1 1:0.265001 2:0.009022 3:0.002629 4:0.001033 5:0.026296 6:0.009762 7:0.216753 8:0.265001 9:0.265001 10:0.213865 11:0.011355 12:0.005827 13:0.001703 14:0.0036 15:0.013743 16:0.181902 17:0.197254 18:0.192446 19:0.265001 20:0.031237 21:0.008151 22:0.007299 23:0.134737 24:0.019716 25:0.265001 26:0.265001 27:0.265001 28:0.265001 29:0.033696 30:0.012624 31:0.007091 32:0.024754 33:0.016707 34:0.265001 35:0.265001 36:0.265001 
1 1:0.161535 2:0.087853 3:0.07074 4:0.040949 5:0.049338 6:0.037149 7:0.067049 8:0.202034 9:0.330003 10:0.120503 11:0.070013 12:0.11153 13:0.044692 14:0.036086 15:0.074156 16:0.095577 17:0.25368 18:0.330003 19:0.252639 20:0.096538 21:0.049017 22:0.090391 23:0.109646 24:0.124173 25:0.067587 26:0.247153 27:0.330003 28:0.207892 29:0.060302 30:0.064234 31:0.040468 32:0.081184 33:0.097284 34:0.054199 35:0.330003 36:0.330003 
1 1:0.144465 2:0.091436 3:0.042603 4:0.043315 5:0.063855 6:0.074127 7:0.07239 8:0.094867 9:0.209539 10:0.138618 11:0.083345 12:0.098248 13:0.046001 14:0.047328 15:0.048822 16:0.057269 17:0.076849 18:0.148552 19:0.267255 20:0.267255 21:0.121283 22:0.133471 23:0.267255 24:0.250854 25:0.142848 26:0.113775 27:0.267255 28:0.267255 29:0.250009 30:0.201033 31:0.15713 32:0.267255 33:0.221231 34:0.079225 35:0.106172 36:0.267255 
1 1:0.061634 2:0.028141 3:0.017755 4:0.034559 5:0.029352 6:0.040112 7:0.272872 8:0.390865 9:0.183844 10:0.055433 11:0.041965 12:0.014465 13:0.023673 14:0.018138 15:0.037177 16:0.234953 17:0.390865 18:0.15245 19:0.067929 20:0.041705 21:0.022995 22:0.065203 23:0.046486 24:0.053986 25:0.132369 26:0.390865 27:0.081412 28:0.12941 29:0.034387 30:0.022967 31:0.047383 32:0.038467 33:0.048659 34:0.265976 35:0.390865 36:0.216227 
-1 1:0.339517 2:0.034769 3:0.002673 4:0.007914 5:0.015931 6:0.011289 7:0.064625 8:0.272518 9:0.339517 10:0.339517 11:0.021344 12:0.002524 13:0.003597 14:0.013208 15:0.008457 16:0.055394 17:0.339517 18:0.339517 19:0.117576 20:0.032456 21:0.057935 22:0.012144 23:0.02848 24:0.051613 25:0.114278 26:0.216722 27:0.259699 28:0.181149 29:0.030371 30:0.019076 31:0.003497 32:0.036777 33:0.026166 34:0.107794 35:0.265148 36:0.262597 
-1 1:0.335528 2:0.238082 3:0.014469 4:0.000265 5:0.002815 6:0.004589 7:0.002894 8:0.015411 9:0.215895 10:0.335528 11:0.324481 12:0.026599 13:0.006321 14:0.001587 15:0.000914 16:0.001219 17:0.010422 18:0.274738 19:0.335528 20:0.181569 21:0.017893 22:0.000381 23:0.002161 24:0.000305 25:0.000638 26:0.028704 27:0.282506 28:0.335528 29:0.241328 30:0.032997 31:0.010164 32:0.001951 33:6.1e-005 34:0.002359 35:0.025188 36:0.29483 
-1 1:0.286905 2:0.134415 3:0.012807 4:0.023005 5:0.115461 6:0.030518 7:0.04761 8:0.109313 9:0.273685 10:0.286905 11:0.158988 12:0.018795 13:0.028616 14:0.060236 15:0.044897 16:0.074841 17:0.125864 18:0.286905 19:0.286905 20:0.096519 21:0.089734 22:0.056157 23:0.080091 24:0.088822 25:0.140746 26:0.244978 27:0.221234 28:0.286905 29:0.137134 30:0.129412 31:0.079986 32:0.154516 33:0.115701 34:0.19977 35:0.261216 36:0.242759 
-1 1:0.16829 2:0.062904 3:0.021417 4:0.009579 5:0.034597 6:0.017194 7:0.102763 8:0.303858 9:0.303858 10:0.303858 11:0.153641 12:0.068356 13:0.033672 14:0.051609 15:0.01737 16:0.051879 17:0.299421 18:0.303858 19:0.150683 20:0.061868 21:0.016791 22:0.011669 23:0.028333 24:0.035828 25:0.123945 26:0.303858 27:0.279891 28:0.232125 29:0.131047 30:0.062855 31:0.044489 32:0.069656 33:0.031748 34:0.077225 35:0.248669 36:0.303858 
-1 1:0.263247 2:0.002976 3:0.005743 4:0.003241 5:0.003532 6:0.000736 7:0.002011 8:0.072836 9:0.377965 10:0.242444 11:0.002928 12:0.000319 13:5.6e-005 14:0.003971 15:0.000228 16:0.001745 17:0.054601 18:0.377965 19:0.210844 20:0.010783 21:0.001832 22:0.000748 23:0.032506 24:0.004084 25:0.018945 26:0.377965 27:0.377965 28:0.17974 29:0.005496 30:0.001795 31:1.3e-005 32:0.025617 33:0.003504 34:0.027337 35:0.256343 36:0.377965 
-1 1:0.241748 2:0.009145 3:0.001559 4:0.006199 5:0.016998 6:0.00068 7:0.008669 8:0.190042 9:0.33635 10:0.33635 11:0.021169 12:0.007061 13:0.004821 14:0.024749 15:0.021871 16:0.043874 17:0.28634 18:0.33635 19:0.33635 20:0.052428 21:0.00343 22:0.002818 23:0.010399 24:0 25:0.001564 26:0.073303 27:0.33635 28:0.33635 29:0.068488 30:0.001252 31:0.002192 32:0.01267 33:0.002939 34:0.011416 35:0.104385 36:0.33635 
-1 1:0.157016 2:0.025441 3:0.028841 4:0.039733 5:0.060298 6:0.121528 7:0.226686 8:0.207232 9:0.184824 10:0.133603 11:0.027253 12:0.135604 13:0.260535 14:0.260535 15:0.232706 16:0.127662 17:0.116852 18:0.144501 19:0.203214 20:0.015225 21:0.017938 22:0.021587 23:0.013407 24:0.022109 25:0.181664 26:0.260535 27:0.260535 28:0.253552 29:0.035052 30:0.159843 31:0.171337 32:0.191153 33:0.120739 34:0.161325 35:0.260535 36:0.260535 
-1 1:0.316673 2:0.145022 3:0.029163 4:0.00712 5:0.008454 6:0.002434 7:0.006569 8:0.077167 9:0.316673 10:0.316673 11:0.15949 12:0.025774 13:0.004039 14:0.006477 15:0.005444 16:0.016118 17:0.117338 18:0.316673 19:0.316673 20:0.085992 21:0.01787 22:0.000214 23:0.0027 24:0.002272 25:0.012858 26:0.13348 27:0.316673 28:0.316673 29:0.072926 30:0.003925 31:0.003215 32:0.009995 33:0.019964 34:0.054782 35:0.302991 36:0.316673 
-0.1679472663320795 1:0.269167 2:0.2569 3:0.120434 4:0.180025 5:0.071636 6:0.009157 7:0.061965 8:0.106234 9:0.201823 10:0.269167 11:0.269167 12:0.052453 13:0.017926 14:0.011366 15:0.010279 16:0.029583 17:0.070156 18:0.140072 19:0.269167 20:0.228712 21:0.269167 22:0.269167 23:0.119701 24:0.027542 25:0.07009 26:0.099285 27:0.091909 28:0.269167 29:0.269167 30:0.089821 31:0.072827 32:0.084987 33:0.03945 34:0.218826 35:0.176629 36:0.152151 
-1 1:0.241729 2:0.093677 3:0.153668 4:0.071647 5:0.049227 6:0.095082 7:0.166792 8:0.225334 9:0.241729 10:0.241729 11:0.134591 12:0.086892 13:0.07616 14:0.075641 15:0.061485 16:0.142967 17:0.241729 18:0.241729 19:0.241729 20:0.208102 21:0.151423 22:0.113537 23:0.065435 24:0.037828 25:0.108899 26:0.241729 27:0.241729 28:0.241729 29:0.154896 30:0.110675 31:0.130612 32:0.110574 33:0.069212 34:0.157426 35:0.180182 36:0.241729 
-1 1:0.291308 2:0.219129 3:0.047984 4:0.009559 5:0.022574 6:0.012958 7:0.020919 8:0.120717 9:0.291308 10:0.291308 11:0.291308 12:0.104425 13:0.028855 14:0.039617 15:0.00299 16:0.038919 17:0.153944 18:0.291308 19:0.291308 20:0.137869 21:0.01862 22:0.002206 23:0.01959 24:0.028879 25:0.040178 26:0.201188 27:0.291308 28:0.181691 29:0.1488 30:0.042408 31:0.008159 32:0.025554 33:0.027828 34:0.087862 35:0.291109 36:0.291308 
-1 1:0.097087 2:0.029895 3:0.01224 4:0.010284 5:0.009754 6:0.019194 7:0.127607 8:0.323369 9:0.323369 10:0.046862 11:0.009545 12:0.001691 13:0.000686 14:0.009025 15:0.033653 16:0.182261 17:0.323369 18:0.323369 19:0.140667 20:0.021334 21:0.002698 22:0.006619 23:0.040051 24:0.027776 25:0.19304 26:0.323369 27:0.323369 28:0.085829 29:0.014389 30:0.000168 31:0.000158 32:0.035403 33:0.02406 34:0.16384 35:0.323369 36:0.323369 
-1 1:0.321841 2:0.122429 3:0.06035 4:0.03615 5:0.022126 6:0.00704 7:0.034196 8:0.102 9:0.321841 10:0.321841 11:0.189808 12:0.096326 13:0.037881 14:0.034091 15:0.017752 16:0.027854 17:0.103162 18:0.321841 19:0.321841 20:0.160992 21:0.075183 22:0.04509 23:0.02635 24:0.016858 25:0.076009 26:0.101336 27:0.278139 28:0.321841 29:0.321841 30:0.112358 31:0.049147 32:0.043947 33:0.057861 34:0.033016 35:0.110358 36:0.135818 
-1 1:0.087016 2:0.025215 3:0.008327 4:0.018021 5:0.053835 6:0.025761 7:0.177762 8:0.315454 9:0.315454 10:0.161612 11:0.043517 12:0.006906 13:0.006746 14:0.045024 15:0.051237 16:0.28451 17:0.315454 18:0.315454 19:0.095873 20:0.048297 21:0.020871 22:0.012723 23:0.034523 24:0.039376 25:0.095623 26:0.298177 27:0.315454 28:0.044297 29:0.039167 30:0.047207 31:0.039584 32:0.054674 33:0.110746 34:0.245529 35:0.315454 36:0.215793 
-1 1:0.11463 2:0.022074 3:0.00777 4:0.003677 5:0.005918 6:0.001234 7:0.339934 8:0.339934 9:0.276378 10:0.286204 11:0.016308 12:0.012993 13:0.00633 14:0.008282 15:0.001574 16:0.247651 17:0.339934 18:0.339934 19:0.04174 20:0.008998 21:0.007211 22:0.009449 23:0.011886 24:0.004232 25:0.055746 26:0.163652 27:0.09378 28:0.140868 29:0.012796 30:0.017767 31:0.021424 32:0.018948 33:0.011139 34:0.085377 35:0.339934 36:0.339934 
-1 1:0.214808 2:0.093525 3:0.023058 4:0.049859 5:0.045537 6:0.024404 7:0.096258 8:0.201411 9:0.273497 10:0.192168 11:0.082676 12:0.019634 13:0.034453 14:0.043919 15:0.049123 16:0.220545 17:0.273497 18:0.273497 19:0.122126 20:0.07597 21:0.059623 22:0.047991 23:0.050407 24:0.034391 25:0.273497 26:0.273497 27:0.273497 28:0.220012 29:0.084448 30:0.171549 31:0.071854 32:0.064677 33:0.079946 34:0.273497 35:0.273497 36:0.243239 
-1 1:0.056976 2:0.009331 3:0.014725 4:0.011376 5:0.043294 6:0.138149 7:0.206146 8:0.299812 9:0.299812 10:0.148985 11:0.0273 12:0.008618 13:0.007912 14:0.04599 15:0.155564 16:0.299812 17:0.299812 18:0.299812 19:0.079554 20:0.016359 21:0.006812 22:0.002604 23:0.022188 24:0.145345 25:0.212881 26:0.185177 27:0.174885 28:0.183964 29:0.029212 30:0.008831 31:0.005229 32:0.023765 33:0.119995 34:0.277336 35:0.275699 36:0.299812 
-0.3714371044323576 1:0.085318 2:0.050789 3:0.023595 4:0.062513 5:0.063045 6:0.123891 7:0.359178 8:0.359178 9:0.09662 10:0.040153 11:0.030551 12:0.012598 13:0.018635 14:0.032324 15:0.105218 16:0.359178 17:0.359178 18:0.193229 19:0.064716 20:0.046602 21:0.018117 22:0.018648 23:0.015879 24:0.035007 25:0.254541 26:0.179803 27:0.084438 28:0.037497 29:0.02115 30:0.013989 31:0.016928 32:0.022311 33:0.071967 34:0.359178 35:0.359178 36:0.07807 
-1 1:0.28993 2:0.232793 3:0.034986 4:0.023493 5:0.019779 6:0.007247 7:0.019888 8:0.068092 9:0.28993 10:0.28993 11:0.216994 12:0.021058 13:0.011533 14:0.031618 15:0.013496 16:0.054687 17:0.079961 18:0.28993 19:0.28993 20:0.28993 21:0.164756 22:0.078364 23:0.038527 24:0.021004 25:0.02288 26:0.055002 27:0.111935 28:0.28993 29:0.28993 30:0.19053 31:0.074699 32:0.093513 33:0.058266 34:0.151024 35:0.07479 36:0.266914 
-1 1:0.265419 2:0.145056 3:0.059756 4:0.041817 5:0.049998 6:0.031085 7:0.068647 8:0.14072 9:0.265419 10:0.265419 11:0.143526 12:0.05005 13:0.022863 14:0.066672 15:0.088059 16:0.123727 17:0.242859 18:0.265419 19:0.265419 20:0.265419 21:0.258023 22:0.169719 23:0.074367 24:0.017176 25:0.044021 26:0.065557 27:0.191304 28:0.265419 29:0.156546 30:0.089388 31:0.055591 32:0.061037 33:0.108889 34:0.15783 35:0.221796 36:0.265419 
-1 1:0.239441 2:0.213825 3:0.13913 4:0.078902 5:0.025984 6:0.033335 7:0.059215 8:0.080153 9:0.239441 10:0.239441 11:0.239441 12:0.239441 13:0.129772 14:0.043969 15:0.057705 16:0.082956 17:0.076835 18:0.239441 19:0.239441 20:0.201907 21:0.158373 22:0.091435 23:0.063434 24:0.023196 25:0.100207 26:0.169561 27:0.239441 28:0.239441 29:0.230603 30:0.197207 31:0.174309 32:0.087774 33:0.064889 34:0.164391 35:0.165598 36:0.239441 
-1 1:0.0563 2:0.001963 3:0.005219 4:0.003204 5:0.025632 6:0.022747 7:0.073782 8:0.348637 9:0.348637 10:0.094705 11:0.000858 12:0.003034 13:0.000956 14:0.023431 15:0.025153 16:0.25534 17:0.348637 18:0.348637 19:0.074836 20:0.01295 21:0.019783 22:0.00864 23:0.028009 24:0.050576 25:0.069304 26:0.212657 27:0.225717 28:0.087862 29:0.007425 30:0.009274 31:0.005438 32:0.03494 33:0.075142 34:0.348637 35:0.348637 36:0.238186 
-1 1:0.175264 2:0.072971 3:0.037472 4:0.024494 5:0.020152 6:0.004642 7:0.127617 8:0.335436 9:0.275373 10:0.12203 11:0.066441 12:0.04009 13:0.014336 14:0.009012 15:0.011273 16:0.06994 17:0.242076 18:0.163692 19:0.070264 20:0.024628 21:0.010961 22:0.001278 23:0.038902 24:0.105095 25:0.335436 26:0.335436 27:0.279943 28:0.119877 29:0.046546 30:0.019729 31:0.000254 32:0.059032 33:0.057111 34:0.335436 35:0.335436 36:0.267571 
-1 1:0.039604 2:0.008633 3:0.00034 4:0.003896 5:0.028846 6:0.028426 7:0.328385 8:0.328385 9:0.115338 10:0.033143 11:0.012956 12:0.001849 13:0.008117 14:0.016948 15:0.044552 16:0.328385 17:0.328385 18:0.14566 19:0.041805 20:0.020351 21:0.002642 22:0.011266 23:0.058414 24:0.099997 25:0.328385 26:0.328385 27:0.109081 28:0.053544 29:0.031445 30:0.017961 31:0.013906 32:0.051252 33:0.095458 34:0.328385 35:0.328385 36:0.221092 
-1 1:0.25548 2:0.077422 3:0.07285 4:0.169595 5:0.152879 6:0.140328 7:0.19971 8:0.118318 9:0.16059 10:0.131227 11:0.039932 12:0.023699 13:0.093825 14:0.128163 15:0.184606 16:0.126959 17:0.137613 18:0.132412 19:0.285587 20:0.051702 21:0.055276 22:0.045312 23:0.062082 24:0.078713 25:0.264866 26:0.285587 27:0.285587 28:0.285587 29:0.153602 30:0.055363 31:0.046621 32:0.08193 33:0.134118 34:0.083208 35:0.285587 36:0.285587 
-1 1:0.354041 2:0.189564 3:0.008078 4:0.005014 5:0.006669 6:0.003861 7:0.022266 8:0.056688 9:0.177195 10:0.354041 11:0.116234 12:0.006434 13:9.3e-005 14:0.00337 15:0.007652 16:0.025809 17:0.043069 18:0.354041 19:0.354041 20:0.215072 21:0.014311 22:0.021726 23:0.024182 24:0.006217 25:0.011372 26:0.085658 27:0.289252 28:0.354041 29:0.129464 30:0.008985 31:0.000405 32:0.006569 33:0.002572 34:0.00586 35:0.037997 36:0.354041 
-1 1:0.041992 2:0.004115 3:0.00426 4:0.00222 5:0.004219 6:0.001249 7:0.146998 8:0.392787 9:0.319083 10:0.061374 11:0.020435 12:0.010351 13:0.003909 14:0.002336 15:0.002148 16:0.378575 17:0.392787 18:0.323321 19:0.044842 20:0.013575 21:0.012273 22:0.010494 23:0.022645 24:0.009928 25:0.055246 26:0.207219 27:0.124796 28:0.061338 29:0.015252 30:0.007918 31:0.018359 32:0.021152 33:0.021012 34:0.206194 35:0.392787 36:0.208278 
-1 1:0.053189 2:0.07134 3:0.084256 4:0.138834 5:0.138257 6:0.089055 7:0.141947 8:0.175121 9:0.218352 10:0.060655 11:0.156857 12:0.153404 13:0.238699 14:0.157283 15:0.12571 16:0.192726 17:0.200155 18:0.235575 19:0.281421 20:0.085877 21:0.043783 22:0.04804 23:0.068856 24:0.019564 25:0.070388 26:0.248955 27:0.281421 28:0.281421 29:0.160339 30:0.101805 31:0.100971 32:0.077496 33:0.077675 34:0.131788 35:0.281421 36:0.281421 
-1 1:0.317407 2:0.14575 3:0.010993 4:0.000293 5:0.001793 6:0.000222 7:0.009343 8:0.153737 9:0.172842 10:0.317407 11:0.078597 12:0.012106 13:0.001435 14:0.001615 15:1.5e-005 16:0.004205 17:0.054217 18:0.313252 19:0.317407 20:0.072153 21:0.001468 22:0 23:0.003431 24:0.00689 25:0.034731 26:0.317407 27:0.317407 28:0.317407 29:0.032225 30:0.002327 31:0.004587 32:0.005389 33:0.006115 34:0.029499 35:0.317407 36:0.317407 
-1 1:0.101687 2:0.037772 3:0.039917 4:0.009389 5:0.032704 6:0.040553 7:0.190962 8:0.291063 9:0.291996 10:0.27653 11:0.043925 12:0.032761 13:0.024459 14:0.015445 15:0.150215 16:0.235001 17:0.291996 18:0.291996 19:0.038791 20:0.015108 21:0.006404 22:0.003453 23:0.012938 24:0.029973 25:0.142685 26:0.250967 27:0.291996 28:0.150146 29:0.007478 30:0.011521 31:0.012384 32:0.014175 33:0.131154 34:0.252158 35:0.291996 36:0.291996 
-1 1:0.09364 2:0.083687 3:0.048694 4:0.02738 5:0.054006 6:0.043153 7:0.195984 8:0.272806 9:0.272806 10:0.202993 11:0.133529 12:0.021068 13:0.017249 14:0.052146 15:0.036273 16:0.189543 17:0.272806 18:0.272806 19:0.137935 20:0.03985 21:0.071161 22:0.054426 23:0.056926 24:0.08699 25:0.272806 26:0.272806 27:0.272806 28:0.168265 29:0.057237 30:0.026497 31:0.030179 32:0.091059 33:0.101398 34:0.272806 35:0.272806 36:0.272806 
-1 1:0.119162 2:0.084623 3:0.051557 4:0.023593 5:0.021831 6:0.046594 7:0.065078 8:0.284033 9:0.317611 10:0.180499 11:0.115524 12:0.077811 13:0.017812 14:0.030324 15:0.093943 16:0.138629 17:0.162912 18:0.2439 19:0.168205 20:0.039131 21:0.030469 22:0.010631 23:0.017976 24:0.022238 25:0.035247 26:0.338627 27:0.338627 28:0.338627 29:0.074195 30:0.02894 31:0.010183 32:0.023556 33:0.040931 34:0.037111 35:0.338627 36:0.338627 
-1 1:0.052474 2:0.022487 3:0.008894 4:0.005815 5:0.015607 6:0.015486 7:0.148603 8:0.337004 9:0.337004 10:0.077398 11:0.041133 12:0.032935 13:0.001271 14:0.017077 15:0.032854 16:0.056742 17:0.337004 18:0.337004 19:0.04089 20:0.005583 21:0.003373 22:0.003129 23:0.056479 24:0.036547 25:0.127488 26:0.337004 27:0.337004 28:0.129951 29:0.072886 30:0.046027 31:0.005812 32:0.035925 33:0.020343 34:0.01429 35:0.337004 36:0.337004 
-1 1:0.121407 2:0.063306 3:0.040844 4:0.012986 5:0.011137 6:0.038736 7:0.172311 8:0.285643 9:0.285643 10:0.183056 11:0.125899 12:0.107849 13:0.029952 14:0.031441 15:0.047753 16:0.185644 17:0.266861 18:0.285643 19:0.125429 20:0.060159 21:0.122208 22:0.057815 23:0.053266 24:0.03666 25:0.204047 26:0.285643 27:0.285643 28:0.2397 29:0.157395 30:0.077099 31:0.027248 32:0.045835 33:0.047467 34:0.16295 35:0.285643 36:0.285643 
-1 1:0.352268 2:0.11892 3:2.3e-005 4:0.000403 5:0.004842 6:0.001221 7:0.000617 8:0.286765 9:0.26693 10:0.352268 11:0.086157 12:0 13:0.001748 14:0.011119 15:0.002123 16:0.005129 17:0.117041 18:0.203784 19:0.110103 20:0.019772 21:0.002324 22:0.002782 23:0.009139 24:0.019633 25:0.016727 26:0.352268 27:0.352268 28:0.087056 29:0.016403 30:0.000587 31:0.002785 32:0.011388 33:0.007703 34:0.011911 35:0.352268 36:0.352268 
-1 1:0.156919 2:0.108966 3:0.045395 4:0.028464 5:0.041432 6:0.015348 7:0.180095 8:0.328845 9:0.328845 10:0.266541 11:0.063328 12:0.036051 13:0.016393 14:0.042229 15:0.020547 16:0.060438 17:0.288744 18:0.328845 19:0.105176 20:0.036079 21:0.04826 22:0.04699 23:0.050737 24:0.031862 25:0.103887 26:0.233965 27:0.309101 28:0.196448 29:0.032279 30:0.0437 31:0.014949 32:0.022683 33:0.060975 34:0.182789 35:0.252137 36:0.328845 
-1 1:0.094595 2:0.01723 3:0.014747 4:0.001207 5:0.014265 6:0.007414 7:0.103865 8:0.324784 9:0.324784 10:0.151228 11:0.03127 12:0.002484 13:0.004718 14:0.021675 15:0.009218 16:0.098253 17:0.324784 18:0.324784 19:0.078192 20:0.024081 21:0.023939 22:0.005231 23:0.030286 24:0.015603 25:0.116416 26:0.324784 27:0.324784 28:0.22053 29:0.128132 30:0.0095 31:0.00851 32:0.029059 33:0.016898 34:0.099653 35:0.324784 36:0.324784 
-1 1:0.056692 2:0.025148 3:0.010274 4:0.012638 5:0.014527 6:0.032689 7:0.326095 8:0.326095 9:0.112933 10:0.074577 11:0.050079 12:0.026734 13:0.031373 14:0.074406 15:0.153142 16:0.287385 17:0.271762 18:0.103561 19:0.043466 20:0.021172 21:0.009642 22:0.024181 23:0.140314 24:0.038612 25:0.326095 26:0.326095 27:0.233392 28:0.108401 29:0.055055 30:0.027354 31:0.030993 32:0.120405 33:0.119763 34:0.245702 35:0.326095 36:0.237936 
-1 1:0.198574 2:0.066475 3:0.014444 4:0.012961 5:0.038522 6:0.02538 7:0.031596 8:0.282186 9:0.343933 10:0.286028 11:0.189054 12:0.014475 13:0.008892 14:0.030925 15:0.0212 16:0.041326 17:0.311327 18:0.343933 19:0.137016 20:0.063766 21:0.026858 22:0.009707 23:0.035807 24:0.036074 25:0.048974 26:0.190788 27:0.343933 28:0.18783 29:0.08867 30:0.027054 31:0.024918 32:0.055967 33:0.033355 34:0.06008 35:0.247297 36:0.343933 
-1 1:0.155681 2:0.182888 3:0.040942 4:0.010974 5:0.039446 6:0.031187 7:0.1462 8:0.171717 9:0.270257 10:0.230986 11:0.185353 12:0.084045 13:0.016142 14:0.034066 15:0.039012 16:0.105925 17:0.099381 18:0.233596 19:0.106537 20:0.053476 21:0.015402 22:0.019268 23:0.054726 24:0.068254 25:0.293013 26:0.293013 27:0.293013 28:0.293013 29:0.100408 30:0.027866 31:0.004509 32:0.044642 33:0.03799 34:0.293013 35:0.293013 36:0.293013 
-1 1:0.298613 2:0.065044 3:0.040151 4:0.001574 5:0.018815 6:0.00343 7:0.013921 8:0.120322 9:0.298613 10:0.27451 11:0.049101 12:0.034166 13:0.003546 14:0.014581 15:0.022779 16:0.054859 17:0.298613 18:0.298613 19:0.298613 20:0.160112 21:0.047346 22:0.010473 23:0.057734 24:0.022138 25:0.032292 26:0.105203 27:0.298613 28:0.273891 29:0.102315 30:0.026444 31:0.000197 32:0.017294 33:0.093954 34:0.202137 35:0.298613 36:0.298613 
-1 1:0.296408 2:0.0668 3:0.018166 4:0.001369 5:0.00932 6:0.000267 7:0.003943 8:0.306859 9:0.306859 10:0.306859 11:0.037088 12:0.02187 13:0.016683 14:0.012325 15:0.000539 16:0.011642 17:0.306859 18:0.306859 19:0.100454 20:0.029519 21:0.022399 22:0.022312 23:0.023021 24:0.012923 25:0.01776 26:0.306859 27:0.306859 28:0.171497 29:0.025994 30:0.054895 31:0.077274 32:0.037057 33:0.018175 34:0.023465 35:0.306859 36:0.306859 
-1 1:0.072434 2:0.026592 3:0.019541 4:0.015881 5:0.087599 6:0.009695 7:0.083644 8:0.331702 9:0.331702 10:0.121257 11:0.050712 12:0.024669 13:0.018163 14:0.027828 15:0.030358 16:0.077054 17:0.331702 18:0.331702 19:0.077452 20:0.031765 21:0.0311 22:0.016022 23:0.099381 24:0.036142 25:0.331702 26:0.331702 27:0.197376 28:0.134933 29:0.073615 30:0.056864 31:0.051774 32:0.149493 33:0.0631 34:0.137983 35:0.331702 36:0.214527 
-1 1:0.074583 2:0.025576 3:0.000978 4:0.005475 5:0.016716 6:0.021938 7:0.114573 8:0.308168 9:0.308168 10:0.079343 11:0.017702 12:0.009398 13:0.023692 14:0.078473 15:0.072812 16:0.167123 17:0.308168 18:0.308168 19:0.064234 20:0.030392 21:0.002426 22:0.017304 23:0.070562 24:0.066658 25:0.308168 26:0.308168 27:0.278774 28:0.047045 29:0.012164 30:0.011311 31:0.028835 32:0.110063 33:0.100372 34:0.308168 35:0.308168 36:0.228906 
-1 1:0.116635 2:0.031799 3:0.00069 4:0.004793 5:0.053205 6:0.264078 7:0.264078 8:0.264078 9:0.264078 10:0.224974 11:0.057379 12:0.007061 13:0.005666 14:0.0283 15:0.063915 16:0.09987 17:0.264078 18:0.264078 19:0.135782 20:0.032404 21:0.002136 22:0.022715 23:0.105652 24:0.264078 25:0.2376 26:0.216997 27:0.175881 28:0.179536 29:0.043574 30:0 31:0.000569 32:0.103941 33:0.250165 34:0.189817 35:0.214579 36:0.260086 
-1 1:0.119596 2:0.090902 3:0.060265 4:0.077285 5:0.049396 6:0.075336 7:0.215633 8:0.333402 9:0.333402 10:0.228532 11:0.182283 12:0.058685 13:0.073385 14:0.03848 15:0.011878 16:0.084211 17:0.333402 18:0.333402 19:0.051657 20:0.010699 21:0.032028 22:0.051479 23:0.046595 24:0.054455 25:0.094008 26:0.178586 27:0.31524 28:0.078841 29:0.026198 30:0.00384 31:0.006749 32:0.034319 33:0.029828 34:0.100457 35:0.283337 36:0.333402 
-1 1:0.244704 2:0.066517 3:0.048919 4:0.054047 5:0.043737 6:0.040319 7:0.080821 8:0.297597 9:0.321967 10:0.321967 11:0.070466 12:0.069379 13:0.139905 14:0.105247 15:0.091162 16:0.061126 17:0.321967 18:0.321967 19:0.25342 20:0.142507 21:0.072647 22:0.057991 23:0.040678 24:0.050706 25:0.125621 26:0.089933 27:0.165898 28:0.263867 29:0.161864 30:0.176788 31:0.124376 32:0.071886 33:0.04455 34:0.10644 35:0.105089 36:0.20135 
-1 1:0.113173 2:0.113677 3:0.036324 4:0.086603 5:0.131984 6:0.201028 7:0.164561 8:0.073195 9:0.187901 10:0.138656 11:0.090899 12:0.077372 13:0.158775 14:0.14779 15:0.218609 16:0.197172 17:0.062759 18:0.202387 19:0.175999 20:0.126617 21:0.049194 22:0.08364 23:0.219438 24:0.208092 25:0.197364 26:0.233966 27:0.233966 28:0.180003 29:0.11447 30:0.121246 31:0.161987 32:0.233966 33:0.154035 34:0.233966 35:0.233966 36:0.233966 
-1 1:0.146139 2:0.01961 3:0.014702 4:0.019482 5:0.038688 6:0.050774 7:0.081149 8:0.312244 9:0.389538 10:0.234852 11:0.020412 12:0.015346 13:0.011319 14:0.029416 15:0.048289 16:0.064122 17:0.389538 18:0.389538 19:0.0805 20:0.024556 21:0.006687 22:0.008172 23:0.035578 24:0.051177 25:0.131454 26:0.389538 27:0.139884 28:0.11368 29:0.044224 30:0.01699 31:0.016036 32:0.034727 33:0.04278 34:0.109667 35:0.299478 36:0.165257 
-1 1:0.179308 2:0.058504 3:0.131767 4:0.121067 5:0.134716 6:0.113765 7:0.124972 8:0.210635 9:0.233989 10:0.112956 11:0.072898 12:0.114904 13:0.13294 14:0.233989 15:0.070068 16:0.099092 17:0.220502 18:0.165637 19:0.163472 20:0.141546 21:0.166615 22:0.121097 23:0.233989 24:0.177085 25:0.179225 26:0.233989 27:0.233989 28:0.128494 29:0.147691 30:0.108184 31:0.110048 32:0.233989 33:0.205496 34:0.156966 35:0.195841 36:0.225235 
-1 1:0.042793 2:0.02096 3:0.015405 4:0.006981 5:0.064406 6:0.154475 7:0.292271 8:0.27298 9:0.10699 10:0.060858 11:0.034235 12:0.022479 13:0.042246 14:0.056991 15:0.115395 16:0.173028 17:0.140074 18:0.107499 19:0.056177 20:0.008449 21:0.007448 22:0.002972 23:0.068094 24:0.215682 25:0.350065 26:0.350065 27:0.216375 28:0.068472 29:0.008399 30:0.013212 31:0.035347 32:0.136093 33:0.206513 34:0.350065 35:0.350065 36:0.225619 
-1 1:0.286675 2:0.061438 3:0.048716 4:0.027471 5:0.038096 6:0.037861 7:0.141673 8:0.254805 9:0.286675 10:0.286675 11:0.076619 12:0.146995 13:0.039406 14:0.04204 15:0.006971 16:0.10585 17:0.217452 18:0.286675 19:0.28565 20:0.019694 21:0.027826 22:0.0177 23:0.078848 24:0.053551 25:0.168167 26:0.193363 27:0.280898 28:0.286675 29:0.030609 30:0.026157 31:0.004841 32:0.07533 33:0.028476 34:0.149371 35:0.229672 36:0.286675 
-1 1:0.141191 2:0.033383 3:0.01765 4:0.006045 5:0.012 6:0.031809 7:0.159102 8:0.295222 9:0.295222 10:0.120349 11:0.03282 12:0.027718 13:0.011257 14:0.01608 15:0.058454 16:0.259733 17:0.295222 18:0.295222 19:0.226556 20:0.066683 21:0.005107 22:0.004214 23:0.022486 24:0.037243 25:0.134503 26:0.295222 27:0.295222 28:0.247506 29:0.054462 30:0.040334 31:0.019462 32:0.043422 33:0.048071 34:0.134585 35:0.295222 36:0.295222 
-1 1:0.168166 2:0.087787 3:0.032266 4:0.045222 5:0.182524 6:0.079933 7:0.181886 8:0.237145 9:0.193475 10:0.174354 11:0.117713 12:0.104484 13:0.055147 14:0.13169 15:0.050985 16:0.138792 17:0.149985 18:0.180074 19:0.237956 20:0.137131 21:0.036884 22:0.066362 23:0.237956 24:0.212622 25:0.209227 26:0.237956 27:0.237956 28:0.237956 29:0.218328 30:0.148655 31:0.069648 32:0.159082 33:0.140232 34:0.203888 35:0.159066 36:0.237956 
-1 1:0.072002 2:0.039296 3:0.047375 4:0.06247 5:0.08866 6:0.15978 7:0.274275 8:0.274275 9:0.117197 10:0.110059 11:0.037622 12:0.035769 13:0.068556 14:0.155213 15:0.068671 16:0.182792 17:0.274275 18:0.252314 19:0.089721 20:0.069523 21:0.088321 22:0.093786 23:0.120899 24:0.142699 25:0.274275 26:0.274275 27:0.19191 28:0.110753 29:0.063446 30:0.060068 31:0.050432 32:0.100948 33:0.236921 34:0.274275 35:0.274275 36:0.274275 
-1 1:0.063399 2:0.043268 3:0.036931 4:0.013332 5:0.106609 6:0.141742 7:0.209009 8:0.224161 9:0.222122 10:0.106684 11:0.090291 12:0.042286 13:0.015924 14:0.08014 15:0.110308 16:0.166748 17:0.166922 18:0.173859 19:0.078837 20:0.047809 21:0.029497 22:0.013283 23:0.149499 24:0.257163 25:0.282432 26:0.282432 27:0.282432 28:0.134331 29:0.052695 30:0.029243 31:0.005849 32:0.104114 33:0.282432 34:0.282432 35:0.282432 36:0.282432 
-1 1:0.28211 2:0.029525 3:0.005846 4:0.011519 5:0.142478 6:0.179363 7:0.136483 8:0.128595 9:0.29907 10:0.29907 11:0.077238 12:0.020807 13:0.007517 14:0.045085 15:0.112187 16:0.195946 17:0.164394 18:0.29907 19:0.129889 20:0.01106 21:0.002919 22:0.01281 23:0.10805 24:0.143983 25:0.16383 26:0.136014 27:0.29907 28:0.281163 29:0.056459 30:0.017168 31:0.014244 32:0.064941 33:0.152485 34:0.232422 35:0.189483 36:0.29907 
-1 1:0.301262 2:0.061195 3:0.018464 4:0.002763 5:0.008495 6:0.002014 7:0.052832 8:0.266716 9:0.301262 10:0.301262 11:0.059267 12:0.013157 13:0.002827 14:0.017257 15:0.024907 16:0.181422 17:0.301262 18:0.301262 19:0.11357 20:0.069299 21:0.025324 22:0.011858 23:0.032685 24:0.002259 25:0.081653 26:0.301262 27:0.301262 28:0.098831 29:0.055765 30:0.051786 31:0.01963 32:0.038562 33:0.021761 34:0.142849 35:0.301262 36:0.301262 
-1 1:0.140461 2:0.060442 3:0.052983 4:0.041772 5:0.08927 6:0.116597 7:0.186912 8:0.247262 9:0.247262 10:0.247262 11:0.127546 12:0.067168 13:0.045942 14:0.05464 15:0.101968 16:0.234263 17:0.247262 18:0.247262 19:0.153675 20:0.078082 21:0.086373 22:0.067917 23:0.117053 24:0.120979 25:0.225132 26:0.247262 27:0.230678 28:0.19896 29:0.123431 30:0.076912 31:0.050603 32:0.15145 33:0.106955 34:0.247262 35:0.247262 36:0.247262 
-1 1:0.044467 2:0.002729 3:0.004942 4:0.010577 5:0.024402 6:0.024066 7:0.215447 8:0.300244 9:0.300244 10:0.150366 11:0.003933 12:0.009322 13:0.000929 14:0.163847 15:0.043036 16:0.300244 17:0.300244 18:0.300244 19:0.056137 20:0.013555 21:0.014672 22:0.029044 23:0.042901 24:0.063226 25:0.182323 26:0.300244 27:0.251388 28:0.03979 29:0.010419 30:0.030089 31:0.009566 32:0.047236 33:0.098189 34:0.287386 35:0.300244 36:0.247041 
-1 1:0.314746 2:0.078707 3:0.029068 4:0.025785 5:0.021606 6:0.040308 7:0.065987 8:0.155092 9:0.314746 10:0.314746 11:0.04276 12:0.018975 13:0.026138 14:0.01536 15:0.010739 16:0.136593 17:0.314746 18:0.314746 19:0.314746 20:0.141593 21:0.073191 22:0.016771 23:0.083318 24:0.041039 25:0.030982 26:0.080611 27:0.274593 28:0.314746 29:0.096885 30:0.037011 31:0.004774 32:0.026457 33:0.01267 34:0.042006 35:0.116923 36:0.314746 
-1 1:0.244027 2:0.001545 3:0.012591 4:0.016295 5:0.15147 6:0.089663 7:0.195783 8:0.124813 9:0.258374 10:0.304793 11:0.001987 12:0.007784 13:0.00376 14:0.052946 15:0.042603 16:0.304793 17:0.284958 18:0.304793 19:0.270554 20:0.003252 21:0.009732 22:0 23:0.116161 24:0.002171 25:0.110624 26:0.039502 27:0.271153 28:0.304793 29:0.00075 30:0.002246 31:0 32:0.109841 33:0.037273 34:0.188441 35:0.108832 36:0.304793 
-1 1:0.091457 2:0.048732 3:0.011572 4:0.009541 5:0.040772 6:0.018003 7:0.129353 8:0.302806 9:0.302806 10:0.218804 11:0.033331 12:0.009887 13:0.026064 14:0.078964 15:0.084915 16:0.193602 17:0.302806 18:0.302806 19:0.122429 20:0.051705 21:0.005595 22:0.031381 23:0.048052 24:0.020093 25:0.162431 26:0.302806 27:0.269764 28:0.133736 29:0.041295 30:0.0043 31:0.048797 32:0.023132 33:0.06685 34:0.302806 35:0.302806 36:0.277881 
-1 1:0.144985 2:0.052293 3:0.027279 4:0.002068 5:0.017735 6:0.034255 7:0.173087 8:0.345253 9:0.345253 10:0.120314 11:0.028444 12:0.030166 13:0.032041 14:0.023971 15:0.054633 16:0.230561 17:0.345253 18:0.345253 19:0.061405 20:0.016992 21:0.008286 22:0.007479 23:0.013388 24:0.03427 25:0.137688 26:0.345253 27:0.141975 28:0.073858 29:0.009217 30:0.012871 31:0.000252 32:0.018815 33:0.040146 34:0.131557 35:0.345253 36:0.286062 
-1 1:0.06384 2:0.038449 3:0.046227 4:0.007321 5:0.107549 6:0.113621 7:0.276456 8:0.276456 9:0.176101 10:0.062971 11:0.112429 12:0.107475 13:0.023786 14:0.085617 15:0.276456 16:0.276456 17:0.276456 18:0.186479 19:0.107595 20:0.027053 21:0.028559 22:0.006532 23:0.160129 24:0.062622 25:0.236473 26:0.226635 27:0.189783 28:0.097426 29:0.05066 30:0.032075 31:0.003377 32:0.179845 33:0.145172 34:0.276456 35:0.276456 36:0.275018 
