svm_type c_svc
kernel_type linear
nr_class 2
total_sv 118
rho 0.13409
label 1 8
probA -2.52228
probB 0.186238
nr_sv 60 58
SV
1 1:0.339335 2:0.190308 3:0.013015 4:0.00446 5:0.004893 6:0.001929 7:0.003914 8:0.029903 9:0.287728 10:0.339335 11:0.183954 12:0.008454 13:0.00395 14:0.005192 15:0.003113 16:0.004111 17:0.04068 18:0.339335 19:0.339335 20:0.068352 21:0.016629 22:0.003244 23:0.013489 24:0 25:0.020375 26:0.142646 27:0.339335 28:0.339335 29:0.067404 30:0.015294 31:0.003293 32:0.005506 33:0.00322 34:0.012306 35:0.062644 36:0.339335 
1 1:0.196874 2:0.120594 3:0.142446 4:0.188583 5:0.178175 6:0.169528 7:0.210493 8:0.119527 9:0.214032 10:0.212473 11:0.163516 12:0.232799 13:0.232799 14:0.232799 15:0.117083 16:0.128016 17:0.121699 18:0.198511 19:0.205758 20:0.059283 21:0.077527 22:0.076207 23:0.076571 24:0.071964 25:0.121748 26:0.096797 27:0.232799 28:0.232799 29:0.115342 30:0.193401 31:0.232799 32:0.132372 33:0.065781 34:0.068149 35:0.13401 36:0.232799 
1 1:0.323646 2:0.191631 3:0.040809 4:0.004142 5:0.004186 6:0.003049 7:0.005529 8:0.019383 9:0.122151 10:0.323646 11:0.117771 12:0.014635 13:0.001867 14:0.002951 15:0.001282 16:0.005228 17:0.019638 18:0.198502 19:0.323646 20:0.323646 21:0.323646 22:0.050264 23:0.030022 24:0.050238 25:0.051123 26:0.061537 27:0.232232 28:0.323646 29:0.286427 30:0.061582 31:0.009796 32:0.015536 33:0.030079 34:0.024584 35:0.043644 36:0.323646 
1 1:0.119465 2:0.020881 3:0.01485 4:0.037859 5:0.068223 6:0.058658 7:0.277068 8:0.277068 9:0.277068 10:0.207639 11:0.052951 12:0.058722 13:0.132805 14:0.202459 15:0.068906 16:0.277068 17:0.277068 18:0.277068 19:0.18656 20:0.02506 21:0.007656 22:0.005544 23:0.011165 24:0.019546 25:0.057213 26:0.277068 27:0.277068 28:0.277068 29:0.052767 30:0.026406 31:0.014659 32:0.011569 33:0.008708 34:0.045201 35:0.217066 36:0.277068 
1 1:0.214494 2:0.264212 3:0.087967 4:0.030698 5:0.008831 6:0.00857 7:0.000489 8:0.063029 9:0.194129 10:0.322014 11:0.315665 12:0.120375 13:0.017113 14:0.014244 15:0.001443 16:0.008291 17:0.043792 18:0.182411 19:0.322014 20:0.1445 21:0.052081 22:0.029855 23:0.01316 24:0.006852 25:0.01578 26:0.243407 27:0.322014 28:0.322014 29:0.252649 30:0.081262 31:0.045532 32:0.021416 33:0.023935 34:0.0389 35:0.05353 36:0.322014 
1 1:0.133938 2:0.034465 3:0.015813 4:0.016602 5:0.017294 6:0.049605 7:0.106785 8:0.309695 9:0.309695 10:0.180186 11:0.136999 12:0.115226 13:0.072953 14:0.089115 15:0.029806 16:0.19841 17:0.309695 18:0.309695 19:0.190555 20:0.008586 21:0.01142 22:0.011631 23:0.016243 24:0.011074 25:0.023962 26:0.198559 27:0.309695 28:0.290432 29:0.085578 30:0.0355 31:0.023617 32:0.022245 33:0.011532 34:0.050253 35:0.309695 36:0.309695 
1 1:0.289351 2:0.019248 3:0.008772 4:0.006114 5:0.012702 6:0.007378 7:0.056595 8:0.298719 9:0.298719 10:0.24388 11:0.033255 12:0.002212 13:0.002116 14:0.004815 15:0.006101 16:0.070031 17:0.2792 18:0.298719 19:0.121644 20:0.046971 21:0.043103 22:0.056383 23:0.079807 24:0.066399 25:0.112083 26:0.298719 27:0.296351 28:0.101673 29:0.063364 30:0.030747 31:0.024928 32:0.032693 33:0.037032 34:0.280918 35:0.298719 36:0.298719 
1 1:0.274587 2:0.047999 3:0.274587 4:0.249226 5:0.160054 6:0.033772 7:0.076162 8:0.144487 9:0.255129 10:0.274587 11:0.024724 12:0.048747 13:0.061847 14:0.057892 15:0.012056 16:0.056991 17:0.101807 18:0.274587 19:0.226668 20:0.03881 21:0.032513 22:0.021387 23:0.062819 24:0.094229 25:0.212265 26:0.241938 27:0.239979 28:0.274587 29:0.032462 30:0.013678 31:0.004757 32:0.02016 33:0.046561 34:0.174243 35:0.274587 36:0.274587 
1 1:0.088773 2:0.069935 3:0.052851 4:0.032114 5:0.015047 6:0.063535 7:0.180188 8:0.328923 9:0.328923 10:0.051466 11:0.054566 12:0.025267 13:0.020707 14:0.021788 15:0.065181 16:0.1815 17:0.328923 18:0.229602 19:0.115026 20:0.059007 21:0.038248 22:0.029951 23:0.050674 24:0.02881 25:0.103084 26:0.328923 27:0.328923 28:0.162196 29:0.077718 30:0.030868 31:0.011521 32:0.039627 33:0.043976 34:0.137644 35:0.328923 36:0.328923 
1 1:0.117807 2:0.043883 3:0.022624 4:0.008193 5:0.033066 6:0.055545 7:0.049599 8:0.326331 9:0.326331 10:0.131828 11:0.064142 12:0.038581 13:0.017633 14:0.038361 15:0.067452 16:0.113538 17:0.326331 18:0.326331 19:0.101147 20:0.089103 21:0.046944 22:0.021886 23:0.018117 24:0.020539 25:0.058863 26:0.326331 27:0.326331 28:0.176668 29:0.063977 30:0.029844 31:0.008855 32:0.013637 33:0.045151 34:0.126545 35:0.326331 36:0.326331 
1 1:0.038029 2:0.002237 3:0.001056 4:0.002509 5:0.02106 6:0.024269 7:0.33867 8:0.33867 9:0.14158 10:0.049585 11:0.013182 12:0.001545 13:0.00066 14:0.010305 15:0.021553 16:0.31586 17:0.33867 18:0.161534 19:0.014964 20:0.00407 21:0.004299 22:0.012775 23:0.037637 24:0.054074 25:0.33867 26:0.33867 27:0.084353 28:0.044287 29:0.007995 30:0.00136 31:0.004102 32:0.023342 33:0.03288 34:0.33867 35:0.33867 36:0.16305 
1 1:0.109528 2:0.075472 3:0.085074 4:0.095088 5:0.09942 6:0.143426 7:0.188827 8:0.282956 9:0.217554 10:0.068667 11:0.046316 12:0.038155 13:0.039157 14:0.030266 15:0.050321 16:0.057563 17:0.215277 18:0.163879 19:0.112858 20:0.118957 21:0.282956 22:0.282956 23:0.264871 24:0.166898 25:0.18526 26:0.282956 27:0.244203 28:0.118645 29:0.056192 30:0.050537 31:0.055479 32:0.052875 33:0.07009 34:0.173594 35:0.282956 36:0.282956 
1 1:0.089697 2:0.039507 3:0.016466 4:0.035573 5:0.074341 6:0.083918 7:0.079077 8:0.190986 9:0.276969 10:0.161408 11:0.039995 12:0.006134 13:0.020062 14:0.029155 15:0.04524 16:0.058624 17:0.242518 18:0.288554 19:0.201963 20:0.054107 21:0.037126 22:0.065029 23:0.177203 24:0.207774 25:0.195251 26:0.288554 27:0.288554 28:0.288554 29:0.060941 30:0.029594 31:0.043088 32:0.087139 33:0.152881 34:0.248424 35:0.288554 36:0.288554 
1 1:0.299791 2:0.299791 3:0.250484 4:0.036462 5:0.022281 6:0.003432 7:0.010868 8:0.080286 9:0.299791 10:0.286925 11:0.181583 12:0.143492 13:0.06335 14:0.034106 15:0.002407 16:0.00517 17:0.034091 18:0.299791 19:0.299791 20:0.160223 21:0.104211 22:0.013699 23:0.010695 24:0.000229 25:0.006258 26:0.136186 27:0.299791 28:0.299791 29:0.062123 30:0.026248 31:0.01028 32:0.006674 33:0.00016 34:0.000897 35:0.066968 36:0.299791 
1 1:0.27839 2:0.27839 3:0.258497 4:0.067443 5:0.082818 6:0.113941 7:0.065723 8:0.059931 9:0.27839 10:0.252225 11:0.27839 12:0.27839 13:0.025135 14:0.069804 15:0.104183 16:0.101347 17:0.063494 18:0.116985 19:0.27839 20:0.262079 21:0.108701 22:0.042161 23:0.032869 24:0.070195 25:0.086611 26:0.087928 27:0.197186 28:0.110559 29:0.105307 30:0.082113 31:0.027456 32:0.053293 33:0.144556 34:0.27839 35:0.199702 36:0.103912 
1 1:0.17553 2:0.193091 3:0.163748 4:0.168161 5:0.104425 6:0.026743 7:0.070256 8:0.097481 9:0.205044 10:0.227552 11:0.213076 12:0.248608 13:0.167438 14:0.110935 15:0.01447 16:0.016406 17:0.080085 18:0.132958 19:0.248608 20:0.22934 21:0.144066 22:0.056701 23:0.091558 24:0.058333 25:0.168256 26:0.248608 27:0.248608 28:0.248608 29:0.237208 30:0.179616 31:0.049931 32:0.041813 33:0.018931 34:0.041235 35:0.248608 36:0.248608 
1 1:0.042122 2:0.048943 3:0.180026 4:0.239282 5:0.110534 6:0.071708 7:0.193199 8:0.169872 9:0.202789 10:0.018593 11:0.065926 12:0.228432 13:0.288058 14:0.133811 15:0.053276 16:0.072394 17:0.055604 18:0.04339 19:0.050738 20:0.010922 21:0.052383 22:0.072496 23:0.049388 24:0.063309 25:0.288058 26:0.288058 27:0.288058 28:0.055698 29:0.041469 30:0.171202 31:0.211366 32:0.108868 33:0.046331 34:0.288058 35:0.288058 36:0.288058 
1 1:0.128274 2:0.164096 3:0.107879 4:0.073527 5:0.108484 6:0.150688 7:0.091553 8:0.097559 9:0.129859 10:0.122548 11:0.106424 12:0.08268 13:0.056251 14:0.083478 15:0.113926 16:0.092544 17:0.206788 18:0.240344 19:0.171335 20:0.133585 21:0.091678 22:0.118298 23:0.264856 24:0.264856 25:0.264856 26:0.225964 27:0.189672 28:0.149098 29:0.070237 30:0.029618 31:0.036035 32:0.159031 33:0.264856 34:0.264856 35:0.264856 36:0.264856 
1 1:0.044539 2:0.059286 3:0.070621 4:0.043214 5:0.045896 6:0.083794 7:0.094605 8:0.222043 9:0.244614 10:0.059701 11:0.048922 12:0.045073 13:0.034432 14:0.042715 15:0.053106 16:0.070213 17:0.131943 18:0.160725 19:0.124974 20:0.218569 21:0.245189 22:0.147009 23:0.245189 24:0.182185 25:0.245189 26:0.245189 27:0.245189 28:0.177635 29:0.245189 30:0.222788 31:0.115214 32:0.17851 33:0.102008 34:0.245189 35:0.245189 36:0.245189 
1 1:0.172208 2:0.118616 3:0.09532 4:0.06575 5:0.021654 6:0.021123 7:0.122963 8:0.293617 9:0.230548 10:0.202618 11:0.182793 12:0.124884 13:0.113043 14:0.065152 15:0.04355 16:0.041154 17:0.253537 18:0.170526 19:0.157457 20:0.256908 21:0.194124 22:0.097221 23:0.042502 24:0.037291 25:0.180589 26:0.293617 27:0.290919 28:0.199715 29:0.086811 30:0.056784 31:0.057932 32:0.050051 33:0.030254 34:0.077886 35:0.293617 36:0.293617 
1 1:0.071786 2:0.029833 3:0.008747 4:0.003469 5:0.006882 6:0.011569 7:0.05859 8:0.285007 9:0.285007 10:0.069292 11:0.030154 12:0.004559 13:0.009104 14:0.011328 15:0.058885 16:0.161013 17:0.285007 18:0.285007 19:0.120929 20:0.216734 21:0.206092 22:0.131683 23:0.030357 24:0.004913 25:0.059624 26:0.285007 27:0.285007 28:0.285007 29:0.211442 30:0.097272 31:0.074404 32:0.015082 33:0.070268 34:0.173862 35:0.285007 36:0.285007 
1 1:0.333593 2:0.052749 3:0.019984 4:0.014756 5:0.023728 6:0.011229 7:0.017887 8:0.023574 9:0.146298 10:0.333593 11:0.066492 12:0.014304 13:0.005957 14:0.022108 15:0.010621 16:0.020591 17:0.04861 18:0.220262 19:0.333593 20:0.294371 21:0.171439 22:0.078652 23:0.050186 24:0.048922 25:0.036836 26:0.054822 27:0.253407 28:0.333593 29:0.316777 30:0.176257 31:0.063185 32:0.057921 33:0.046922 34:0.066752 35:0.12717 36:0.333593 
1 1:0.162979 2:0.079842 3:0.080681 4:0.06283 5:0.054485 6:0.124044 7:0.159689 8:0.216582 9:0.222433 10:0.150822 11:0.058198 12:0.068999 13:0.033803 14:0.049297 15:0.080675 16:0.052697 17:0.146994 18:0.18396 19:0.246859 20:0.236002 21:0.246859 22:0.117919 23:0.169326 24:0.21933 25:0.246859 26:0.166685 27:0.246859 28:0.246859 29:0.160096 30:0.246859 31:0.096661 32:0.156233 33:0.108071 34:0.067645 35:0.195756 36:0.246859 
1 1:0.201347 2:0.033442 3:0.028568 4:0.021703 5:0.018984 6:0.014237 7:0.058472 8:0.304545 9:0.304545 10:0.240042 11:0.057518 12:0.022882 13:0.030589 14:0.044758 15:0.025329 16:0.051849 17:0.304545 18:0.304545 19:0.196799 20:0.013049 21:0.011159 22:0.021739 23:0.023196 24:0.036057 25:0.050953 26:0.304545 27:0.304545 28:0.304545 29:0.043769 30:0.012969 31:0.023127 32:0.019917 33:0.010163 34:0.022985 35:0.304545 36:0.304545 
0.5256253620815891 1:0.281363 2:0.057733 3:0.025534 4:0.012402 5:0.012802 6:0.002148 7:0.019481 8:0.145951 9:0.281363 10:0.281363 11:0.038307 12:0.022455 13:0.009186 14:0.012243 15:0.010278 16:0.013789 17:0.043286 18:0.281363 19:0.281363 20:0.280085 21:0.281363 22:0.154426 23:0.120881 24:0.009671 25:0.056361 26:0.230303 27:0.281363 28:0.281363 29:0.142642 30:0.155643 31:0.134478 32:0.108267 33:0.013097 34:0.031102 35:0.074872 36:0.281363 
1 1:0.117154 2:0.041775 3:0.018013 4:0.021477 5:0.038109 6:0.041205 7:0.17279 8:0.28658 9:0.28658 10:0.143823 11:0.031474 12:0.010807 13:0.005023 14:0.010176 15:0.008707 16:0.036234 17:0.189009 18:0.28658 19:0.244549 20:0.169333 21:0.040735 22:0.061382 23:0.236513 24:0.2858 25:0.124491 26:0.28658 27:0.28658 28:0.24405 29:0.065902 30:0.025832 31:0.026295 32:0.106855 33:0.081442 34:0.046965 35:0.252053 36:0.28658 
1 1:0.18568 2:0.088905 3:0.091014 4:0.032985 5:0.078656 6:0.054294 7:0.128299 8:0.099314 9:0.202043 10:0.141532 11:0.125068 12:0.126706 13:0.073452 14:0.086826 15:0.080662 16:0.096909 17:0.112672 18:0.137455 19:0.289114 20:0.239108 21:0.057988 22:0.040894 23:0.077239 24:0.104286 25:0.289114 26:0.248332 27:0.289114 28:0.289114 29:0.255864 30:0.080696 31:0.035874 32:0.052995 33:0.077028 34:0.180789 35:0.289114 36:0.289114 
1 1:0.039952 2:0.012509 3:0.007789 4:0.003211 5:0.024161 6:0.050766 7:0.282601 8:0.305069 9:0.169157 10:0.028478 11:0.005389 12:0.003279 13:0.000437 14:0.038285 15:0.099238 16:0.305069 17:0.283476 18:0.127582 19:0.09232 20:0.032741 21:0.021432 22:0.012573 23:0.067126 24:0.054302 25:0.305069 26:0.305069 27:0.305069 28:0.0921 29:0.009586 30:0.006886 31:0.003179 32:0.028282 33:0.055248 34:0.305069 35:0.305069 36:0.305069 
1 1:0.320668 2:0.215098 3:0.078708 4:0.120805 5:0.112988 6:0.055857 7:0.020326 8:0.060868 9:0.162793 10:0.365128 11:0.197179 12:0.062236 13:0.018404 14:0.035531 15:0.039847 16:0.047847 17:0.068887 18:0.101524 19:0.365128 20:0.365128 21:0.074489 22:0.041095 23:0.083249 24:0.028172 25:0.009996 26:0.024651 27:0.095494 28:0.365128 29:0.356869 30:0.078866 31:0.00912 32:0.024186 33:0.02325 34:0.023622 35:0.025433 36:0.150425 
1 1:0.346868 2:0.081084 3:0.018063 4:0.01226 5:0.005064 6:0.009511 7:0.016828 8:0.027978 9:0.220998 10:0.325226 11:0.039275 12:0.020046 13:0.012662 14:0.009588 15:0.01815 16:0.018981 17:0.073008 18:0.346868 19:0.346868 20:0.237216 21:0.061099 22:0.031585 23:0.029928 24:0.020048 25:0.021905 26:0.055266 27:0.346868 28:0.346868 29:0.122247 30:0.064342 31:0.019683 32:0.017554 33:0.022021 34:0.018316 35:0.130888 36:0.346868 
0.07681114321909915 1:0.290816 2:0.054309 3:0.052517 4:0.036236 5:0.014688 6:0.00334 7:0.00906 8:0.014053 9:0.093908 10:0.344879 11:0.07406 12:0.053645 13:0.07986 14:0.077947 15:0.02211 16:0.008599 17:0.010148 18:0.111304 19:0.426965 20:0.303393 21:0.044559 22:0.020791 23:0.019354 24:0.008937 25:0.006311 26:0.008248 27:0.250133 28:0.426965 29:0.186358 30:0.004586 31:0.030313 32:0.040479 33:0.003909 34:0.003004 35:0.013446 36:0.426965 
1 1:0.092091 2:0.075192 3:0.117578 4:0.049074 5:0.050562 6:0.018462 7:0.023784 8:0.273843 9:0.273843 10:0.095029 11:0.044144 12:0.077855 13:0.046281 14:0.046822 15:0.025466 16:0.054704 17:0.195981 18:0.229064 19:0.174877 20:0.273843 21:0.273843 22:0.137905 23:0.111371 24:0.014975 25:0.062662 26:0.273843 27:0.273843 28:0.138143 29:0.141219 30:0.193007 31:0.108462 32:0.122968 33:0.095372 34:0.263074 35:0.273843 36:0.273843 
1 1:0.072604 2:0.036079 3:0.021151 4:0.029876 5:0.083579 6:0.117208 7:0.171856 8:0.200064 9:0.207087 10:0.088375 11:0.040875 12:0.034707 13:0.01277 14:0.053017 15:0.077057 16:0.108677 17:0.138267 18:0.163056 19:0.125663 20:0.069254 21:0.035421 22:0.09264 23:0.278078 24:0.278078 25:0.213356 26:0.278078 27:0.278078 28:0.127185 29:0.058418 30:0.056969 31:0.025888 32:0.278078 33:0.278078 34:0.246895 35:0.278078 36:0.278078 
1 1:0.059947 2:0.01494 3:0.030689 4:0.019795 5:0.046382 6:0.060207 7:0.10999 8:0.330594 9:0.293792 10:0.029059 11:0.025349 12:0.092582 13:0.101377 14:0.126958 15:0.054558 16:0.031529 17:0.177892 18:0.165094 19:0.12679 20:0.058728 21:0.036091 22:0.021584 23:0.093728 24:0.153811 25:0.319825 26:0.330594 27:0.330594 28:0.160605 29:0.059518 30:0.064204 31:0.062661 32:0.113886 33:0.09701 34:0.160568 35:0.330594 36:0.330594 
1 1:0.201668 2:0.022185 3:0.028752 4:0.048764 5:0.077741 6:0.078609 7:0.03366 8:0.047839 9:0.281439 10:0.208784 11:0.037246 12:0.037021 13:0.064621 14:0.061674 15:0.062631 16:0.051275 17:0.060394 18:0.359116 19:0.393437 20:0.044086 21:0.024027 22:0.022286 23:0.035879 24:0.038927 25:0.029901 26:0.074846 27:0.393437 28:0.393437 29:0.115228 30:0.017566 31:0.021892 32:0.019894 33:0.040025 34:0.037366 35:0.120048 36:0.393437 
1 1:0.146461 2:0.087685 3:0.069824 4:0.085588 5:0.042769 6:0.040514 7:0.103245 8:0.103837 9:0.364052 10:0.120632 11:0.071737 12:0.038725 13:0.041534 14:0.028645 15:0.073942 16:0.142317 17:0.165715 18:0.325326 19:0.276661 20:0.215497 21:0.151305 22:0.052988 23:0.056962 24:0.040939 25:0.085794 26:0.171372 27:0.364052 28:0.281231 29:0.090916 30:0.074007 31:0.04248 32:0.030673 33:0.071986 34:0.152444 35:0.188185 36:0.364052 
1 1:0.177747 2:0.047046 3:0.021127 4:0.009946 5:0.004957 6:0.00316 7:0.012729 8:0.068195 9:0.281003 10:0.152551 11:0.100376 12:0.066174 13:0.04175 14:0.038277 15:0.001216 16:0.004436 17:0.060241 18:0.281003 19:0.281003 20:0.281003 21:0.199583 22:0.077312 23:0.126991 24:0.007131 25:0.026232 26:0.214493 27:0.281003 28:0.281003 29:0.281003 30:0.281003 31:0.15997 32:0.219259 33:0.053916 34:0.051411 35:0.121837 36:0.281003 
0.1316594742828746 1:0.269425 2:0.032704 3:0.007031 4:0.006942 5:0.01608 6:0.026703 7:0.221469 8:0.197907 9:0.269425 10:0.200582 11:0.010864 12:0.002816 13:0.002785 14:0.004272 15:0.005513 16:0.188254 17:0.120728 18:0.269425 19:0.269425 20:0.048258 21:0.02127 22:0.035703 23:0.093982 24:0.136489 25:0.269425 26:0.242618 27:0.269425 28:0.269425 29:0.0236 30:0.009126 31:0.012311 32:0.026173 33:0.029938 34:0.269425 35:0.265443 36:0.269425 
1 1:0.307746 2:0.108138 3:0.011376 4:0.004306 5:0.007277 6:0.005974 7:0.009162 8:0.01 9:0.111663 10:0.334533 11:0.138487 12:0.006043 13:0.005645 14:0.007931 15:0.00415 16:0.005983 17:0.003557 18:0.298402 19:0.334533 20:0.334533 21:0.131836 22:0.043422 23:0.013628 24:0.002452 25:0.003428 26:0.018834 27:0.294614 28:0.334533 29:0.319294 30:0.009209 31:0.011379 32:0.006356 33:0.000886 34:0.00605 35:0.022876 36:0.334533 
1 1:0.25989 2:0.060314 3:0.045375 4:0.012921 5:0.027253 6:0.124331 7:0.133199 8:0.257278 9:0.25989 10:0.25989 11:0.035177 12:0.037238 13:0.015302 14:0.029114 15:0.028015 16:0.159488 17:0.21333 18:0.25989 19:0.25989 20:0.062559 21:0.072491 22:0.026944 23:0.067766 24:0.144451 25:0.141856 26:0.25989 27:0.25989 28:0.25989 29:0.029824 30:0.068424 31:0.038264 32:0.089293 33:0.050122 34:0.25989 35:0.25989 36:0.25989 
1 1:0.071944 2:0.016334 3:0.006903 4:0.062426 5:0.275464 6:0.197343 7:0.275464 8:0.148808 9:0.134956 10:0.078166 11:0.006582 12:0.002616 13:0.006089 14:0.028412 15:0.023398 16:0.07531 17:0.117817 18:0.123475 19:0.21763 20:0.055979 21:0.008672 22:0.069764 23:0.219416 24:0.264652 25:0.275464 26:0.275464 27:0.275464 28:0.275464 29:0.022577 30:0.00468 31:0.010162 32:0.068258 33:0.066089 34:0.275464 35:0.275464 36:0.275464 
1 1:0.219322 2:0.054845 3:0.063239 4:0.050866 5:0.052829 6:0.015367 7:0.005454 8:0.004878 9:0.190431 10:0.313463 11:0.036999 12:0.031204 13:0.020635 14:0.027811 15:0.007707 16:0.004699 17:0.004276 18:0.313463 19:0.313463 20:0.122768 21:0.153382 22:0.188198 23:0.313463 24:0.194113 25:0.005347 26:0.033657 27:0.313463 28:0.313463 29:0.105011 30:0.088793 31:0.077429 32:0.258331 33:0.062016 34:0.002762 35:0.004355 36:0.313463 
1 1:0.073603 2:0.076344 3:0.236917 4:0.032935 5:0.028353 6:0.018781 7:0.117758 8:0.301426 9:0.287185 10:0.093858 11:0.02048 12:0.01801 13:0.013862 14:0.016374 15:0.005528 16:0.065443 17:0.301426 18:0.197173 19:0.066355 20:0.004003 21:0.012024 22:0.010773 23:0.029137 24:0.091079 25:0.301426 26:0.301426 27:0.292363 28:0.193934 29:0.053389 30:0.016713 31:0.007503 32:0.028945 33:0.029751 34:0.301426 35:0.301426 36:0.301426 
1 1:0.304706 2:0.198467 3:0.016812 4:0.008672 5:0.011474 6:0.010269 7:0.009155 8:0.013694 9:0.180398 10:0.304706 11:0.243678 12:0.020695 13:0.009824 14:0.008874 15:0.013714 16:0.011897 17:0.014677 18:0.304706 19:0.304706 20:0.304706 21:0.116709 22:0.019227 23:0.03417 24:0.019774 25:0.008416 26:0.031021 27:0.304706 28:0.304706 29:0.304706 30:0.086918 31:0.028305 32:0.026468 33:0.026321 34:0.022149 35:0.034563 36:0.304706 
1 1:0.276862 2:0.014798 3:0.00683 4:0.002696 5:0.006465 6:0.010321 7:0.133792 8:0.228975 9:0.276862 10:0.276862 11:0.020335 12:0.006851 13:0.002781 14:0.006586 15:0.01198 16:0.184946 17:0.202435 18:0.276862 19:0.276862 20:0.105763 21:0.125667 22:0.027909 23:0.055109 24:0.017991 25:0.124649 26:0.181666 27:0.276862 28:0.276862 29:0.066011 30:0.098823 31:0.044002 32:0.026618 33:0.013335 34:0.253306 35:0.276862 36:0.276862 
0.1586465224402281 1:0.28208 2:0.020541 3:0.022896 4:0.007123 5:0.009429 6:0.002922 7:0.030293 8:0.264957 9:0.289206 10:0.289206 11:0.029887 12:0.016777 13:0.015769 14:0.008651 15:0.00629 16:0.092434 17:0.182455 18:0.289206 19:0.289206 20:0.0511 21:0.056945 22:0.01321 23:0.098514 24:0.119151 25:0.048997 26:0.289206 27:0.289206 28:0.289206 29:0.039481 30:0.026994 31:0.017179 32:0.024409 33:0.019145 34:0.186056 35:0.249679 36:0.289206 
1 1:0.336592 2:0.085635 3:0.013119 4:0.008499 5:0.009293 6:0.006131 7:0.007613 8:0.028764 9:0.178832 10:0.336592 11:0.077479 12:0.008426 13:0.008459 14:0.008729 15:0.008858 16:0.010487 17:0.024619 18:0.336592 19:0.336592 20:0.24466 21:0.211218 22:0.033733 23:0.022826 24:0.010238 25:0.026214 26:0.084644 27:0.336592 28:0.336592 29:0.193395 30:0.031522 31:0.013796 32:0.014788 33:0.013475 34:0.02242 35:0.049181 36:0.336592 
1 1:0.264867 2:0.008821 3:0.00515 4:0.002788 5:0.002698 6:0.001811 7:0.264867 8:0.199837 9:0.264867 10:0.264867 11:0.009755 12:0.003784 13:0.00377 14:0.00663 15:0.003769 16:0.264867 17:0.137231 18:0.264867 19:0.264867 20:0.050122 21:0.055002 22:0.010167 23:0.037076 24:0.004207 25:0.264867 26:0.176504 27:0.264867 28:0.264867 29:0.080712 30:0.05489 31:0.023181 32:0.038089 33:0.002373 34:0.264867 35:0.21614 36:0.264867 
1 1:0.292306 2:0.103155 3:0.054115 4:0.01055 5:0.018029 6:0.015284 7:0.052973 8:0.073782 9:0.292306 10:0.292306 11:0.061057 12:0.048991 13:0.004268 14:0.021708 15:0.017085 16:0.060634 17:0.104183 18:0.292306 19:0.292306 20:0.231452 21:0.094145 22:0.031737 23:0.094688 24:0.050872 25:0.210653 26:0.210037 27:0.292306 28:0.292306 29:0.153616 30:0.18231 31:0.084228 32:0.099676 33:0.077246 34:0.084485 35:0.13839 36:0.292306 
1 1:0.235229 2:0.061774 3:0.194713 4:0.081287 5:0.187538 6:0.018309 7:0.144457 8:0.171409 9:0.202387 10:0.272299 11:0.04075 12:0.037211 13:0.009741 14:0.016385 15:0.001775 16:0.013094 17:0.121649 18:0.272299 19:0.272299 20:0.124387 21:0.167319 22:0.069854 23:0.14503 24:0.047183 25:0.217348 26:0.272299 27:0.272299 28:0.272299 29:0.110779 30:0.103649 31:0.049388 32:0.099711 33:0.016771 34:0.039666 35:0.270899 36:0.272299 
1 1:0.284545 2:0.040087 3:0.035071 4:0.031367 5:0.007041 6:0.002844 7:0.00216 8:0.009996 9:0.284545 10:0.284545 11:0.058075 12:0.024984 13:0.039752 14:0.01295 15:0.003473 16:0.004244 17:0.01318 18:0.284545 19:0.284545 20:0.266936 21:0.284545 22:0.192254 23:0.040828 24:0.000673 25:0.011011 26:0.016295 27:0.284545 28:0.284545 29:0.228328 30:0.219845 31:0.207545 32:0.067076 33:0.003985 34:0.006252 35:0.013018 36:0.284545 
1 1:0.185764 2:0.07556 3:0.269774 4:0.11843 5:0.046078 6:0.008975 7:0.094742 8:0.269774 9:0.269774 10:0.253378 11:0.037554 12:0.032646 13:0.022476 14:0.020711 15:0.006113 16:0.10558 17:0.127683 18:0.192664 19:0.215025 20:0.043104 21:0.035676 22:0.02243 23:0.046754 24:0.070168 25:0.269774 26:0.269774 27:0.269774 28:0.269774 29:0.101917 30:0.05227 31:0.013207 32:0.02807 33:0.028684 34:0.269774 35:0.269774 36:0.269774 
1 1:0.262116 2:0.075112 3:0.023578 4:0.02092 5:0.016095 6:0.044611 7:0.229238 8:0.17114 9:0.262116 10:0.262116 11:0.023062 12:0.012146 13:0.002502 14:0.011304 15:0.017622 16:0.183433 17:0.236849 18:0.262116 19:0.251146 20:0.074898 21:0.057183 22:0.053015 23:0.084607 24:0.125865 25:0.262116 26:0.186561 27:0.237172 28:0.262116 29:0.024514 30:0.017585 31:0.005932 32:0.040858 33:0.077535 34:0.262116 35:0.262116 36:0.262116 
1 1:0.119992 2:0.024289 3:0.007646 4:0.010801 5:0.050291 6:0.015042 7:0.262239 8:0.262239 9:0.262239 10:0.104723 11:0.005608 12:0.001071 13:0.002277 14:0.009329 15:0.007645 16:0.155835 17:0.224259 18:0.255162 19:0.168661 20:0.057251 21:0.19786 22:0.175542 23:0.206622 24:0.020196 25:0.262239 26:0.262239 27:0.262239 28:0.242854 29:0.00318 30:0.023628 31:0.033718 32:0.064853 33:0.005177 34:0.262239 35:0.262239 36:0.262239 
0.5257748870724589 1:0.239551 2:0.107374 3:0.27618 4:0.147938 5:0.035945 6:0.013717 7:0.119055 8:0.160446 9:0.269693 10:0.201226 11:0.032106 12:0.05765 13:0.02991 14:0.026816 15:0.012702 16:0.080318 17:0.11987 18:0.149216 19:0.27618 20:0.033541 21:0.072912 22:0.03832 23:0.039742 24:0.081681 25:0.27618 26:0.27618 27:0.27618 28:0.27618 29:0.101963 30:0.050873 31:0.013661 32:0.024958 33:0.047399 34:0.245356 35:0.27618 36:0.27618 
1 1:0.098137 2:0.015044 3:0.009301 4:0.016335 5:0.015463 6:0.015203 7:0.309721 8:0.309721 9:0.17719 10:0.048676 11:0.022205 12:0.018327 13:0.027617 14:0.033443 15:0.034254 16:0.309721 17:0.309721 18:0.083481 19:0.078912 20:0.100337 21:0.116088 22:0.041295 23:0.036445 24:0.019255 25:0.309721 26:0.309721 27:0.131819 28:0.103477 29:0.056336 30:0.101134 31:0.037742 32:0.026002 33:0.038752 34:0.309721 35:0.309721 36:0.309721 
1 1:0.22709 2:0.052343 3:0.038213 4:0.072996 5:0.069889 6:0.03143 7:0.150413 8:0.158727 9:0.268011 10:0.181403 11:0.076086 12:0.0786 13:0.179486 14:0.138101 15:0.119782 16:0.208819 17:0.173106 18:0.216287 19:0.268011 20:0.098383 21:0.003225 22:0.006706 23:0.023214 24:0.02818 25:0.198652 26:0.262245 27:0.268011 28:0.268011 29:0.101907 30:0.026876 31:0.083721 32:0.097932 33:0.091862 34:0.255434 35:0.268011 36:0.268011 
0.979938563289032 1:0.110583 2:0.068518 3:0.023643 4:0.029851 5:0.034106 6:0.009537 7:0.018641 8:0.124301 9:0.298871 10:0.09885 11:0.06324 12:0.023225 13:0.023108 14:0.06113 15:0.01974 16:0.011655 17:0.100511 18:0.276073 19:0.203893 20:0.298871 21:0.298871 22:0.131775 23:0.064078 24:0.129503 25:0.067826 26:0.265073 27:0.298871 28:0.298871 29:0.141559 30:0.087334 31:0.063694 32:0.075422 33:0.175933 34:0.088633 35:0.298871 36:0.298871 
1 1:0.148099 2:0.046868 3:0.037865 4:0.035164 5:0.029484 6:0.025773 7:0.03349 8:0.088613 9:0.284148 10:0.108807 11:0.056215 12:0.029293 13:0.043925 14:0.035015 15:0.037847 16:0.042567 17:0.092684 18:0.247919 19:0.236424 20:0.17636 21:0.108205 22:0.159908 23:0.284148 24:0.095469 25:0.114473 26:0.284148 27:0.284148 28:0.243951 29:0.155214 30:0.159523 31:0.24127 32:0.274704 33:0.167409 34:0.109692 35:0.185906 36:0.284148 
1 1:0.073747 2:0.026981 3:0.010895 4:0.01618 5:0.029649 6:0.056636 7:0.322018 8:0.35192 9:0.157497 10:0.044544 11:0.028477 12:0.028398 13:0.01029 14:0.027464 15:0.040529 16:0.212862 17:0.35192 18:0.167206 19:0.050699 20:0.026913 21:0.026011 22:0.028662 23:0.075262 24:0.141293 25:0.263555 26:0.35192 27:0.123515 28:0.065498 29:0.025126 30:0.031159 31:0.008303 32:0.041266 33:0.085349 34:0.35192 35:0.35192 36:0.169276 
-1 1:0.207938 2:0.024611 3:0.009671 4:0.005021 5:0.007104 6:0.002564 7:0.011073 8:0.043887 9:0.143117 10:0.185877 11:0.055249 12:0.025525 13:0.007315 14:0.007066 15:0.002302 16:0.011795 17:0.024017 18:0.128487 19:0.395435 20:0.319496 21:0.030622 22:0.039571 23:0.067167 24:0.004485 25:0.001621 26:0.028844 27:0.363487 28:0.395435 29:0.395435 30:0.024151 31:0.00779 32:0.061766 33:0.000481 34:0.004214 35:0.043451 36:0.395435 
-1 1:0.241914 2:0.189937 3:0.092681 4:0.013041 5:0.004823 6:0.000192 7:0.008852 8:0.02712 9:0.116038 10:0.29951 11:0.221133 12:0.037911 13:0.003196 14:0.002285 15:0.000417 16:0.017005 17:0.032308 18:0.29951 19:0.260509 20:0.29951 21:0.29951 22:0.178284 23:0.057464 24:0.039483 25:0.079706 26:0.066511 27:0.121319 28:0.29951 29:0.29951 30:0.167945 31:0.039289 32:0.019054 33:0.039643 34:0.127751 35:0.14734 36:0.29951 
-1 1:0.156659 2:0.059165 3:0.031082 4:0.031803 5:0.044045 6:0.052842 7:0.032879 8:0.114893 9:0.21207 10:0.227795 11:0.033627 12:0.018076 13:0.014403 14:0.026389 15:0.012025 16:0.016992 17:0.095878 18:0.378673 19:0.147641 20:0.059443 21:0.030832 22:0.035575 23:0.105745 24:0.061235 25:0.151403 26:0.378673 27:0.378673 28:0.216323 29:0.038186 30:0.004838 31:0.007267 32:0.067273 33:0.004027 34:0.055599 35:0.378673 36:0.378673 
-1 1:0.048899 2:0.01973 3:0.009306 4:0.029216 5:0.061357 6:0.117228 7:0.285941 8:0.285941 9:0.15007 10:0.077728 11:0.055434 12:0.033352 13:0.084246 14:0.110229 15:0.037259 16:0.285941 17:0.285941 18:0.262166 19:0.196836 20:0.021098 21:0.009995 22:0.042154 23:0.060587 24:0.080539 25:0.174832 26:0.285941 27:0.285941 28:0.285941 29:0.044514 30:0.031349 31:0.079467 32:0.118409 33:0.046776 34:0.103257 35:0.285941 36:0.285941 
-1 1:0.156463 2:0.155543 3:0.178576 4:0.134404 5:0.060658 6:0.084259 7:0.10043 8:0.11195 9:0.181319 10:0.218997 11:0.188306 12:0.130372 13:0.076024 14:0.046387 15:0.085573 16:0.112376 17:0.184186 18:0.232402 19:0.249242 20:0.249242 21:0.240148 22:0.079667 23:0.053098 24:0.07478 25:0.139016 26:0.111398 27:0.182824 28:0.249242 29:0.249242 30:0.249242 31:0.249242 32:0.135974 33:0.106483 34:0.09691 35:0.172024 36:0.19299 
-1 1:0.138389 2:0.064101 3:0.062542 4:0.166377 5:0.131163 6:0.156974 7:0.240367 8:0.095904 9:0.153012 10:0.131529 11:0.049651 12:0.070555 13:0.074706 14:0.123571 15:0.127685 16:0.198987 17:0.240367 18:0.240367 19:0.123576 20:0.129337 21:0.155987 22:0.194079 23:0.167696 24:0.213077 25:0.240367 26:0.172564 27:0.240367 28:0.182842 29:0.052005 30:0.105907 31:0.117578 32:0.170825 33:0.130109 34:0.240367 35:0.240367 36:0.240367 
-1 1:0.334418 2:0.326452 3:0.062252 4:0.001745 5:0.006575 6:0.016219 7:0.030344 8:0.058781 9:0.090891 10:0.334418 11:0.211887 12:0.048449 13:0.017236 14:0.011215 15:0.014003 16:0.01839 17:0.09913 18:0.266352 19:0.334418 20:0.30261 21:0.048373 22:0.009535 23:0.027014 24:0.020115 25:0.036784 26:0.119808 27:0.204724 28:0.334418 29:0.267118 30:0.074284 31:0.041511 32:0.026497 33:0.022803 34:0.018184 35:0.057384 36:0.246492 
-1 1:0.057825 2:0.025757 3:0.019012 4:0.033431 5:0.144855 6:0.108512 7:0.156544 8:0.315418 9:0.315418 10:0.117644 11:0.039418 12:0.026171 13:0.033566 14:0.086176 15:0.120463 16:0.231799 17:0.315418 18:0.315418 19:0.104137 20:0.07568 21:0.059508 22:0.06194 23:0.06183 24:0.040207 25:0.065379 26:0.307814 27:0.282763 28:0.148041 29:0.040774 30:0.014209 31:0.024384 32:0.050808 33:0.02813 34:0.090437 35:0.315418 36:0.315418 
-1 1:0.186172 2:0.285055 3:0.108281 4:0.024395 5:0.006518 6:0.021507 7:0.028996 8:0.027094 9:0.065078 10:0.263635 11:0.335004 12:0.055639 13:0.018575 14:0.017465 15:0.031485 16:0.030083 17:0.029227 18:0.080871 19:0.335004 20:0.335004 21:0.260578 22:0.039558 23:0.061862 24:0.034586 25:0.013245 26:0.0138 27:0.118577 28:0.335004 29:0.335004 30:0.335004 31:0.063916 32:0.027442 33:0.038672 34:0.024682 35:0.018703 36:0.09993 
-1 1:0.233489 2:0.20644 3:0.087546 4:0.176625 5:0.107988 6:0.051683 7:0.140304 8:0.166233 9:0.219599 10:0.154301 11:0.082398 12:0.029436 13:0.065306 14:0.022275 15:0.036706 16:0.155821 17:0.2597 18:0.2597 19:0.211397 20:0.097328 21:0.024551 22:0.051471 23:0.06439 24:0.078252 25:0.2597 26:0.2597 27:0.2597 28:0.249537 29:0.109475 30:0.021206 31:0.038067 32:0.034378 33:0.071487 34:0.2597 35:0.2597 36:0.2597 
-1 1:0.144975 2:0.124986 3:0.2296 4:0.277281 5:0.230758 6:0.065212 7:0.039043 8:0.187989 9:0.277281 10:0.166555 11:0.053147 12:0.028698 13:0.022421 14:0.045787 15:0.07745 16:0.132025 17:0.277281 18:0.277281 19:0.14663 20:0.277281 21:0.247166 22:0.141846 23:0.111709 24:0.036535 25:0.068181 26:0.102118 27:0.125932 28:0.203656 29:0.123015 30:0.029972 31:0.008144 32:0.031622 33:0.034183 34:0.10342 35:0.277281 36:0.277281 
-1 1:0.230762 2:0.252928 3:0.252928 4:0.022384 5:0.029548 6:0.028605 7:0.042216 8:0.071559 9:0.082326 10:0.252928 11:0.252928 12:0.164355 13:0.035433 14:0.044766 15:0.043201 16:0.031073 17:0.145311 18:0.174963 19:0.244476 20:0.252928 21:0.120443 22:0.041425 23:0.092952 24:0.107171 25:0.252928 26:0.252928 27:0.144504 28:0.252154 29:0.157933 30:0.07779 31:0.016368 32:0.065641 33:0.042704 34:0.235009 35:0.252928 36:0.241934 
-1 1:0.217074 2:0.090026 3:0.018867 4:0.034779 5:0.082753 6:0.053297 7:0.048061 8:0.315292 9:0.315292 10:0.315292 11:0.066892 12:0.002496 13:0.005994 14:0.060061 15:0.030882 16:0.026347 17:0.315292 18:0.315292 19:0.069783 20:0.024272 21:0.023615 22:0.008082 23:0.030391 24:0.043638 25:0.027584 26:0.315292 27:0.315292 28:0.102679 29:0.015998 30:0.00699 31:0.006386 32:0.026755 33:0.037261 34:0.030724 35:0.315292 36:0.315292 
-1 1:0.283056 2:0.2017 3:0.101912 4:0.108085 5:0.082914 6:0.116538 7:0.111703 8:0.13579 9:0.166049 10:0.283056 11:0.185747 12:0.092283 13:0.105922 14:0.0914 15:0.07619 16:0.083632 17:0.165292 18:0.283056 19:0.283056 20:0.239672 21:0.130887 22:0.084644 23:0.073294 24:0.054296 25:0.034702 26:0.084211 27:0.283056 28:0.283056 29:0.15475 30:0.041162 31:0.021261 32:0.05858 33:0.071964 34:0.069179 35:0.232535 36:0.283056 
-1 1:0.304461 2:0.08039 3:0.00429 4:0.003123 5:0.010644 6:0.001774 7:0.002105 8:0.096401 9:0.304461 10:0.304461 11:0.304461 12:0.119606 13:0.136786 14:0.072267 15:0.029584 16:0.012483 17:0.072775 18:0.304461 19:0.304461 20:0.034345 21:0.012395 22:0.007007 23:0.010658 24:0.012439 25:0.018244 26:0.227533 27:0.304461 28:0.304461 29:0.134 30:0.069818 31:0.054106 32:0.038624 33:0.026786 34:0.037876 35:0.138074 36:0.304461 
-1 1:0.258597 2:0.258355 3:0.09282 4:0.028289 5:0.033726 6:0.020616 7:0.019217 8:0.082928 9:0.273079 10:0.29802 11:0.240414 12:0.06865 13:0.010416 14:0.028731 15:0.013539 16:0.015278 17:0.125286 18:0.29802 19:0.29802 20:0.29802 21:0.14179 22:0.025544 23:0.04409 24:0.024989 25:0.024756 26:0.068782 27:0.220202 28:0.29802 29:0.29802 30:0.078249 31:0.030136 32:0.034774 33:0.009029 34:0.012469 35:0.08412 36:0.255812 
-1 1:0.204992 2:0.106886 3:0.049396 4:0.024259 5:0.059783 6:0.039839 7:0.161636 8:0.268739 9:0.290108 10:0.290108 11:0.143216 12:0.02532 13:0.030073 14:0.072592 15:0.051532 16:0.079848 17:0.290108 18:0.290108 19:0.244316 20:0.154827 21:0.066914 22:0.014449 23:0.061784 24:0.047042 25:0.062492 26:0.210314 27:0.290108 28:0.208027 29:0.129835 30:0.061258 31:0.062375 32:0.137763 33:0.158395 34:0.119075 35:0.165071 36:0.290108 
-1 1:0.041066 2:0.024966 3:0.012734 4:0.031328 5:0.04966 6:0.110008 7:0.251217 8:0.293054 9:0.172441 10:0.109957 11:0.030471 12:0.017898 13:0.012841 14:0.029591 15:0.039456 16:0.293054 17:0.293054 18:0.252282 19:0.091818 20:0.029354 21:0.026239 22:0.038945 23:0.069231 24:0.07218 25:0.293054 26:0.293054 27:0.293054 28:0.055077 29:0.022702 30:0.024857 31:0.011278 32:0.068226 33:0.083815 34:0.293054 35:0.293054 36:0.286537 
-1 1:0.305483 2:0.115823 3:0.072688 4:0.010356 5:0.016165 6:0.014433 7:0.025117 8:0.146111 9:0.305483 10:0.305483 11:0.183731 12:0.080129 13:0.054293 14:0.063969 15:0.012464 16:0.045668 17:0.236168 18:0.305483 19:0.305483 20:0.082354 21:0.048814 22:0.012247 23:0.033546 24:0.036633 25:0.043349 26:0.15811 27:0.305483 28:0.305483 29:0.16815 30:0.057811 31:0.017254 32:0.044192 33:0.046759 34:0.068974 35:0.156297 36:0.305483 
-1 1:0.147176 2:0.064918 3:0.077104 4:0.040466 5:0.047057 6:0.084122 7:0.116808 8:0.153386 9:0.172125 10:0.160747 11:0.1421 12:0.159264 13:0.074392 14:0.07114 15:0.117448 16:0.143348 17:0.15603 18:0.257534 19:0.185089 20:0.112747 21:0.018694 22:0.044212 23:0.107242 24:0.148964 25:0.174508 26:0.257534 27:0.257534 28:0.257534 29:0.257534 30:0.207947 31:0.084968 32:0.132259 33:0.187717 34:0.257534 35:0.257534 36:0.257534 
-1 1:0.294446 2:0.234493 3:0.140054 4:0.023701 5:0.022549 6:0.03193 7:0.027508 8:0.064144 9:0.294446 10:0.294446 11:0.294446 12:0.294446 13:0.057888 14:0.062495 15:0.053658 16:0.061241 17:0.118048 18:0.294446 19:0.262505 20:0.090443 21:0.075716 22:0.029608 23:0.045739 24:0.035745 25:0.055376 26:0.07267 27:0.285862 28:0.240247 29:0.240816 30:0.219111 31:0.053438 32:0.02195 33:0.00978 34:0.036476 35:0.088188 36:0.118694 
-1 1:0.08197 2:0.098345 3:0.096889 4:0.234105 5:0.234105 6:0.157653 7:0.106174 8:0.107034 9:0.130937 10:0.139218 11:0.151849 12:0.146537 13:0.234105 14:0.113297 15:0.106699 16:0.156323 17:0.121303 18:0.131026 19:0.184464 20:0.234105 21:0.209453 22:0.234105 23:0.183098 24:0.066177 25:0.102132 26:0.187606 27:0.234105 28:0.210925 29:0.155199 30:0.188699 31:0.152132 32:0.097855 33:0.109622 34:0.150374 35:0.234105 36:0.214714 
-1 1:0.327741 2:0.327741 3:0.076287 4:0.004089 5:0.00649 6:0 7:7.9e-005 8:0.006671 9:0.17576 10:0.327741 11:0.327741 12:0.063445 13:0.004989 14:0.020864 15:0 16:0.000594 17:0.020192 18:0.259962 19:0.327741 20:0.14866 21:0.026488 22:0.002061 23:0.004564 24:0.000581 25:0.00349 26:0.023103 27:0.327741 28:0.327741 29:0.053959 30:0.020952 31:0.004833 32:0.004768 33:0.001132 34:0.006543 35:0.0362 36:0.327741 
-0.801014214476232 1:0.354358 2:0.354358 3:0.019015 4:0.000852 5:0.071268 6:0.019203 7:0.027391 8:0.050728 9:0.354358 10:0.354358 11:0.267231 12:0.02942 13:0.001024 14:0.027609 15:0.004348 16:0.012689 17:0.166576 18:0.354358 19:0.234 20:0.101955 21:0.013398 22:0.019237 23:0.05798 24:0.070248 25:0.068577 26:0.073379 27:0.154165 28:0.257213 29:0.089029 30:0.012803 31:0.002938 32:0.045683 33:0.048712 34:0.06815 35:0.168837 36:0.196948 
-1 1:0.186984 2:0.091227 3:0.242431 4:0.064925 5:0.041991 6:0.015045 7:0.102161 8:0.319315 9:0.309949 10:0.192559 11:0.048333 12:0.013385 13:0.000274 14:0.022782 15:0.02671 16:0.319315 17:0.319315 18:0.319315 19:0.075112 20:0.07856 21:0.127766 22:0.071845 23:0.135993 24:0.088896 25:0.07335 26:0.145021 27:0.120816 28:0.104023 29:0.100762 30:0.041415 31:0.023311 32:0.049882 33:0.057416 34:0.229553 35:0.319315 36:0.221332 
-1 1:0.073477 2:0.041001 3:0.020449 4:0.059935 5:0.112754 6:0.102164 7:0.251602 8:0.251602 9:0.187081 10:0.202559 11:0.055888 12:0.009011 13:0.060943 14:0.120613 15:0.197718 16:0.251602 17:0.251602 18:0.251602 19:0.251602 20:0.251602 21:0.082834 22:0.065984 23:0.061053 24:0.031822 25:0.147208 26:0.155975 27:0.232584 28:0.251602 29:0.251602 30:0.053732 31:0.069272 32:0.056744 33:0.070245 34:0.128862 35:0.212433 36:0.251602 
-1 1:0.11995 2:0.041806 3:0.018552 4:0.003802 5:0.011158 6:0.007896 7:0.028592 8:0.333162 9:0.333162 10:0.199975 11:0.062218 12:0.013825 13:0.002521 14:0.007642 15:0.001241 16:0.024029 17:0.333162 18:0.333162 19:0.047248 20:0.026961 21:0.041192 22:0.032221 23:0.018657 24:0.025379 25:0.043144 26:0.329061 27:0.333162 28:0.19212 29:0.026965 30:0.031004 31:0.018503 32:0.015535 33:0.019119 34:0.033452 35:0.333162 36:0.333162 
-1 1:0.123409 2:0.077361 3:0.04247 4:0.031294 5:0.054135 6:0.122045 7:0.296766 8:0.296766 9:0.226472 10:0.169568 11:0.055862 12:0.080159 13:0.048855 14:0.068025 15:0.123528 16:0.296766 17:0.296766 18:0.296766 19:0.115121 20:0.083011 21:0.072525 22:0.074899 23:0.09674 24:0.108454 25:0.118503 26:0.177633 27:0.18706 28:0.135594 29:0.081295 30:0.082447 31:0.077874 32:0.118266 33:0.125275 34:0.165804 35:0.296766 36:0.295262 
-1 1:0.239235 2:0.072633 3:0.012003 4:0.046242 5:0.035857 6:0.085572 7:0.198542 8:0.201411 9:0.239235 10:0.239235 11:0.065023 12:0.015683 13:0.022276 14:0.027137 15:0.059151 16:0.095545 17:0.124565 18:0.239235 19:0.239235 20:0.077094 21:0.121756 22:0.169639 23:0.239235 24:0.19166 25:0.219106 26:0.239235 27:0.239235 28:0.239235 29:0.13638 30:0.193484 31:0.164841 32:0.15068 33:0.11336 34:0.113543 35:0.171272 36:0.239235 
-1 1:0.321162 2:0.184903 3:0.064879 4:0.036065 5:0.032941 6:0.004251 7:0.016875 8:0.036294 9:0.321162 10:0.321162 11:0.140496 12:0.095869 13:0.031289 14:0.018599 15:0.001062 16:0.005074 17:0.012316 18:0.321162 19:0.321162 20:0.283053 21:0.243327 22:0.097949 23:0.04854 24:0.02409 25:0.028823 26:0.051292 27:0.187845 28:0.289161 29:0.268622 30:0.191755 31:0.051758 32:0.033441 33:0.002494 34:0.009516 35:0.030534 36:0.142321 
-1 1:0.245414 2:0.020171 3:0.000932 4:0.000547 5:0.005814 6:0.001701 7:0.124494 8:0.307778 9:0.307778 10:0.093233 11:0.013472 12:0.008191 13:0.005077 14:0.016658 15:0.028042 16:0.307778 17:0.307778 18:0.250483 19:0.069674 20:0.008348 21:0.001434 22:0.006635 23:0.012815 24:0.015446 25:0.265258 26:0.307778 27:0.288634 28:0.021739 29:0.003278 30:0.004144 31:0.018189 32:0.029762 33:0.11067 34:0.307778 35:0.307778 36:0.109003 
-1 1:0.215143 2:0.154304 3:0.041858 4:0.001331 5:0.009218 6:0.018645 7:0.024969 8:0.102162 9:0.323515 10:0.323515 11:0.091508 12:0.017639 13:0.003264 14:0.00236 15:0.002285 16:0.034384 17:0.149892 18:0.323515 19:0.323515 20:0.176054 21:0.025739 22:0.000928 23:0.037782 24:0.010534 25:0.030205 26:0.11453 27:0.323515 28:0.323515 29:0.248703 30:0.040684 31:0.010736 32:0.02752 33:0.010485 34:0.051127 35:0.184665 36:0.323515 
-1 1:0.192251 2:0.213593 3:0.112233 4:0.063226 5:0.094185 6:0.06629 7:0.076172 8:0.211997 9:0.187353 10:0.274326 11:0.085262 12:0.032096 13:0.021425 14:0.053867 15:0.056042 16:0.14573 17:0.296639 18:0.296639 19:0.191639 20:0.083563 21:0.028741 22:0.03413 23:0.069601 24:0.055808 25:0.060405 26:0.285878 27:0.296639 28:0.296639 29:0.070024 30:0.020947 31:0.016386 32:0.05115 33:0.047042 34:0.100074 35:0.296639 36:0.296639 
-1 1:0.377295 2:0.094418 3:0.015678 4:0.005497 5:0.031125 6:0.007667 7:0.003611 8:0.015393 9:0.377295 10:0.377295 11:0.059839 12:0.010837 13:0.003376 14:0.05224 15:0.006833 16:0.005622 17:0.054002 18:0.377295 19:0.239917 20:0.078642 21:0.025934 22:0.011137 23:0.016 24:0.006745 25:0.013797 26:0.036516 27:0.342339 28:0.258676 29:0.108756 30:0.012805 31:0.004984 32:0.00812 33:0.001028 34:0.01274 35:0.043012 36:0.377295 
-0.156107597221058 1:0.148198 2:0.068835 3:0.052873 4:0.023745 5:0.153365 6:0.183081 7:0.202126 8:0.199063 9:0.222466 10:0.136412 11:0.043633 12:0.067367 13:0.065851 14:0.10451 15:0.189815 16:0.267024 17:0.267024 18:0.26351 19:0.156902 20:0.101591 21:0.057254 22:0.055734 23:0.108985 24:0.177264 25:0.157551 26:0.157841 27:0.225546 28:0.126316 29:0.049483 30:0.044906 31:0.064006 32:0.06206 33:0.253718 34:0.267024 35:0.267024 36:0.267024 
-1 1:0.191258 2:0.135342 3:0.046562 4:0.025104 5:0.044411 6:0.120157 7:0.105219 8:0.20557 9:0.243145 10:0.186575 11:0.150778 12:0.093248 13:0.039812 14:0.032254 15:0.0574 16:0.106122 17:0.216098 18:0.220677 19:0.15979 20:0.143088 21:0.052746 22:0.101111 23:0.185487 24:0.256982 25:0.256982 26:0.256982 27:0.256982 28:0.136052 29:0.063113 30:0.054217 31:0.027754 32:0.056633 33:0.216682 34:0.256982 35:0.256982 36:0.256982 
-1 1:0.145103 2:0.057984 3:0.06393 4:0.011039 5:0.059306 6:0.066567 7:0.214031 8:0.329397 9:0.329397 10:0.150991 11:0.069579 12:0.085342 13:0.03705 14:0.05512 15:0.05916 16:0.172595 17:0.329397 18:0.329397 19:0.174708 20:0.093253 21:0.105677 22:0.030909 23:0.056638 24:0.045243 25:0.064284 26:0.174011 27:0.251398 28:0.151852 29:0.113684 30:0.148406 31:0.088516 32:0.061934 33:0.049355 34:0.125827 35:0.238818 36:0.329397 
-1 1:0.084901 2:0.042765 3:0.085807 4:0.078436 5:0.123001 6:0.08112 7:0.273755 8:0.273755 9:0.273755 10:0.253154 11:0.036388 12:0.055404 13:0.041737 14:0.035696 15:0.009716 16:0.12984 17:0.273755 18:0.273755 19:0.098786 20:0.043674 21:0.022637 22:0.035615 23:0.075606 24:0.135594 25:0.273755 26:0.273755 27:0.239146 28:0.229321 29:0.0284 30:0.024099 31:0.070868 32:0.078979 33:0.080255 34:0.153827 35:0.273755 36:0.273755 
-1 1:0.104561 2:0.043565 3:0.066738 4:0.039911 5:0.038583 6:0.054061 7:0.234278 8:0.297017 9:0.297017 10:0.170289 11:0.033682 12:0.013983 13:0.024441 14:0.092126 15:0.13862 16:0.297017 17:0.297017 18:0.297017 19:0.125666 20:0.08257 21:0.093212 22:0.082453 23:0.060549 24:0.073637 25:0.118522 26:0.152431 27:0.14353 28:0.151482 29:0.046853 30:0.03976 31:0.031581 32:0.118734 33:0.17234 34:0.257114 35:0.297017 36:0.297017 
-1 1:0.128459 2:0.09317 3:0.104913 4:0.123387 5:0.11471 6:0.109602 7:0.135839 8:0.146461 9:0.131445 10:0.164321 11:0.164063 12:0.134875 13:0.086357 14:0.137878 15:0.161996 16:0.12653 17:0.115821 18:0.097936 19:0.211238 20:0.192666 21:0.136831 22:0.112942 23:0.109367 24:0.159366 25:0.246969 26:0.246969 27:0.246969 28:0.246969 29:0.193555 30:0.079086 31:0.051961 32:0.131316 33:0.242353 34:0.246969 35:0.246969 36:0.246969 
-1 1:0.10212 2:0.059412 3:0.061219 4:0.086672 5:0.09497 6:0.048986 7:0.128165 8:0.163205 9:0.118843 10:0.117032 11:0.159507 12:0.124339 13:0.081668 14:0.147489 15:0.023942 16:0.057228 17:0.076305 18:0.119914 19:0.173756 20:0.077947 21:0.059282 22:0.060313 23:0.193794 24:0.274735 25:0.274735 26:0.274735 27:0.274735 28:0.20509 29:0.165501 30:0.100856 31:0.042263 32:0.247722 33:0.210369 34:0.274735 35:0.274735 36:0.274735 
-1 1:0.110806 2:0.071788 3:0.084792 4:0.091576 5:0.113851 6:0.090134 7:0.086945 8:0.178581 9:0.194204 10:0.207231 11:0.073545 12:0.105976 13:0.075141 14:0.079193 15:0.107182 16:0.100752 17:0.12773 18:0.202317 19:0.083297 20:0.095174 21:0.115443 22:0.09441 23:0.257374 24:0.257374 25:0.257374 26:0.223034 27:0.209096 28:0.257374 29:0.12817 30:0.257374 31:0.114126 32:0.124723 33:0.225021 34:0.257374 35:0.157305 36:0.257374 
-1 1:0.103165 2:0.053884 3:0.011823 4:0.016391 5:0.051924 6:0.071414 7:0.19292 8:0.279753 9:0.270169 10:0.113772 11:0.121916 12:0.023865 13:0.016634 14:0.06053 15:0.106595 16:0.138866 17:0.279753 18:0.279753 19:0.158359 20:0.024422 21:0.053058 22:0.083162 23:0.119008 24:0.134434 25:0.279753 26:0.279753 27:0.279753 28:0.147526 29:0.019418 30:0.030066 31:0.031367 32:0.04682 33:0.063749 34:0.279753 35:0.279753 36:0.279753 
-0.77145142905204 1:0.088332 2:0.031683 3:0.033965 4:0.104139 5:0.36764 6:0.170763 7:0.078502 8:0.058964 9:0.125697 10:0.046531 11:0.025536 12:0.025754 13:0.020563 14:0.042499 15:0.032895 16:0.061795 17:0.090556 18:0.074234 19:0.077887 20:0.062386 21:0.10118 22:0.264253 23:0.36764 24:0.249303 25:0.36764 26:0.182584 27:0.202853 28:0.049283 29:0.029647 30:0.023593 31:0.034812 32:0.052674 33:0.138807 34:0.36764 35:0.276939 36:0.159652 
-1 1:0.175435 2:0.125494 3:0.047461 4:0.01826 5:0.16378 6:0.063077 7:0.081462 8:0.063826 9:0.165042 10:0.100096 11:0.058763 12:0.045757 13:0.031516 14:0.090415 15:0.027979 16:0.045184 17:0.059888 18:0.099864 19:0.310379 20:0.148406 21:0.058463 22:0.077502 23:0.310379 24:0.310379 25:0.310379 26:0.310379 27:0.310379 28:0.123719 29:0.065092 30:0.072161 31:0.044454 32:0.174786 33:0.193834 34:0.200647 35:0.254172 36:0.169546 
-1 1:0.156551 2:0.260073 3:0.251455 4:0.002566 5:0.008694 6:1.3e-005 7:0.001689 8:0.003156 9:0.097936 10:0.295012 11:0.295012 12:0.198394 13:0.002464 14:0.00286 15:6.7e-005 16:0.002366 17:0.007462 18:0.295012 19:0.169047 20:0.295012 21:0.295012 22:0.081336 23:0.134389 24:0.002034 25:0.004611 26:0.007247 27:0.096355 28:0.295012 29:0.295012 30:0.249177 31:0.006038 32:0.006524 33:0.001522 34:0.004283 35:0.018425 36:0.24122 
-1 1:0.261129 2:0.055945 3:0.172362 4:0.089607 5:0.341286 6:0.042843 7:0.098672 8:0.116 9:0.170409 10:0.078386 11:0.04352 12:0.080781 13:0.039722 14:0.019199 15:0.016118 16:0.035078 17:0.053679 18:0.095815 19:0.288374 20:0.060066 21:0.406163 22:0.411 23:0.411 24:0.066669 25:0.115418 26:0.135695 27:0.154501 28:0.051845 29:0.095941 30:0.105309 31:0.062961 32:0.045729 33:0.018638 34:0.045224 35:0.058481 36:0.041882 
-1 1:0.134026 2:0.044353 3:0.029257 4:0.079904 5:0.164763 6:0.10856 7:0.085189 8:0.174264 9:0.248815 10:0.170567 11:0.079228 12:0.031872 13:0.03103 14:0.092128 15:0.065711 16:0.063999 17:0.180758 18:0.261887 19:0.261887 20:0.194725 21:0.13046 22:0.10844 23:0.153862 24:0.080021 25:0.119715 26:0.261887 27:0.261887 28:0.261887 29:0.252981 30:0.102771 31:0.093358 32:0.238659 33:0.084506 34:0.079029 35:0.261887 36:0.261887 
-1 1:0.152515 2:0.029636 3:0.053668 4:0.068644 5:0.06407 6:0.044128 7:0.094415 8:0.119 9:0.191446 10:0.340461 11:0.130817 12:0.022653 13:0.016849 14:0.021966 15:0.022022 16:0.032322 17:0.140015 18:0.340461 19:0.340461 20:0.109379 21:0.046086 22:0.046594 23:0.110484 24:0.154692 25:0.11684 26:0.075824 27:0.340461 28:0.340461 29:0.256045 30:0.033476 31:0.01302 32:0.05101 33:0.062984 34:0.117416 35:0.071275 36:0.340461 
-1 1:0.259633 2:0.095934 3:0.085906 4:0.074732 5:0.055034 6:0.024914 7:0.088938 8:0.228869 9:0.259633 10:0.259633 11:0.089264 12:0.051723 13:0.03098 14:0.111657 15:0.036201 16:0.075496 17:0.259633 18:0.259633 19:0.238082 20:0.075588 21:0.082191 22:0.071617 23:0.148282 24:0.163511 25:0.259633 26:0.257185 27:0.259633 28:0.210684 29:0.073799 30:0.098886 31:0.055518 32:0.182372 33:0.102222 34:0.109975 35:0.182474 36:0.259633 
-1 1:0.06148 2:0.023224 3:0.01404 4:0.046942 5:0.134155 6:0.043388 7:0.066473 8:0.144296 9:0.142476 10:0.104272 11:0.025033 12:0.056581 13:0.045479 14:0.054055 15:0.067813 16:0.114593 17:0.226814 18:0.219107 19:0.291064 20:0.03911 21:0.005923 22:0.104636 23:0.269675 24:0.227158 25:0.219257 26:0.285469 27:0.291064 28:0.291064 29:0.055413 30:0.017162 31:0.010769 32:0.054198 33:0.083341 34:0.291064 35:0.291064 36:0.291064 
-1 1:0.235423 2:0.063022 3:0.023558 4:0.038877 5:0.042566 6:0.021281 7:0.056863 8:0.228775 9:0.308499 10:0.308499 11:0.017602 12:0.000861 13:0.000199 14:0.007289 15:0.004645 16:0.029501 17:0.212974 18:0.308499 19:0.219114 20:0.057436 21:0.031813 22:0.034621 23:0.064433 24:0.018119 25:0.049576 26:0.308499 27:0.308499 28:0.308499 29:0.021561 30:0.030734 31:0.001906 32:0.019639 33:0.009589 34:0.085352 35:0.308499 36:0.308499 
-1 1:0.109315 2:0.105597 3:0.123428 4:0.114258 5:0.124552 6:0.12471 7:0.200232 8:0.225503 9:0.194299 10:0.225503 11:0.07021 12:0.10918 13:0.06014 14:0.058051 15:0.102758 16:0.21371 17:0.225503 18:0.225503 19:0.205084 20:0.221302 21:0.144261 22:0.108563 23:0.106826 24:0.211771 25:0.158934 26:0.165487 27:0.192547 28:0.225503 29:0.146005 30:0.185122 31:0.111893 32:0.069869 33:0.14623 34:0.218088 35:0.2018 36:0.225503 
-1 1:0.069741 2:0.002794 3:0.004715 4:0.004045 5:0.160811 6:0 7:0.042617 8:0.015909 9:0.06945 10:0.147822 11:0.000711 12:0.002261 13:0.00027 14:0.357736 15:0 16:0.09096 17:0.030397 18:0.147822 19:0.280704 20:0.041911 21:0.070722 22:0.116346 23:0.357736 24:0 25:0.357736 26:0.312228 27:0.350206 28:0.158227 29:0.010672 30:0.033913 31:0.004045 32:0.357736 33:0 34:0.137801 35:0.050283 36:0.164024 
-0.7338120952808379 1:0.126758 2:0.101956 3:0.092677 4:0.105705 5:0.152538 6:0.085985 7:0.190622 8:0.226682 9:0.104717 10:0.217692 11:0.179368 12:0.172701 13:0.139046 14:0.106667 15:0.066956 16:0.220014 17:0.142778 18:0.214408 19:0.176919 20:0.105845 21:0.11444 22:0.108472 23:0.212602 24:0.090275 25:0.232631 26:0.232631 27:0.232631 28:0.232631 29:0.139141 30:0.109331 31:0.099518 32:0.159355 33:0.094161 34:0.232631 35:0.204593 36:0.232631 
-0.9360706163551139 1:0.26994 2:0.041075 3:0.010972 4:0.01533 5:0.036753 6:0.023173 7:0.090291 8:0.26994 9:0.26994 10:0.26994 11:0.045523 12:0.015429 13:0.010755 14:0.034957 15:0.014869 16:0.031167 17:0.257206 18:0.26994 19:0.064443 20:0.050324 21:0.048068 22:0.26994 23:0.26994 24:0.1362 25:0.140913 26:0.181403 27:0.158645 28:0.080946 29:0.054988 30:0.055025 31:0.150257 32:0.267252 33:0.26994 34:0.100968 35:0.1901 36:0.26994 
-1 1:0.116709 2:0.068507 3:0.032086 4:0.054935 5:0.099741 6:0.095356 7:0.241956 8:0.255799 9:0.231944 10:0.101082 11:0.033142 12:0.042942 13:0.100029 14:0.232092 15:0.245505 16:0.255799 17:0.255799 18:0.168128 19:0.110157 20:0.060253 21:0.044195 22:0.038231 23:0.137676 24:0.155062 25:0.255799 26:0.255799 27:0.255799 28:0.067394 29:0.037062 30:0.037504 31:0.037645 32:0.081504 33:0.108025 34:0.255799 35:0.255799 36:0.255799 
-1 1:0.100201 2:0.028689 3:0.045419 4:0.025831 5:0.150822 6:0.139912 7:0.304958 8:0.304958 9:0.254482 10:0.166678 11:0.063759 12:0.030234 13:0.024566 14:0.125747 15:0.158743 16:0.304958 17:0.304958 18:0.304958 19:0.135192 20:0.045105 21:0.040291 22:0.009244 23:0.070344 24:0.0922 25:0.165118 26:0.161268 27:0.127583 28:0.153434 29:0.061305 30:0.037297 31:0.030734 32:0.078331 33:0.135017 34:0.248149 35:0.244444 36:0.23781 
