svm_type c_svc
kernel_type linear
nr_class 2
total_sv 179
rho 3.60926
label 1 8
probA -2.25147
probB 0.0698908
nr_sv 70 109
SV
1 1:0.030022 2:0.007403 3:0.006601 4:0.004223 5:0.013308 6:0.153743 7:0.419277 8:0.185958 9:0.049631 10:0.04535 11:0.025295 12:0.021917 13:0.003266 14:0.027333 15:0.039962 16:0.179989 17:0.140018 18:0.05109 19:0.015273 20:0.001999 21:0.00036 22:0.000971 23:0.009761 24:0.196574 25:0.419277 26:0.35383 27:0.021935 28:0.016321 29:0.010197 30:0.004518 31:0.000899 32:0.006944 33:0.032759 34:0.419277 35:0.419277 36:0.066747 37:0.150078 38:0.075197 39:0.044248 40:0.05459 41:0.053095 42:0.034728 43:0.167671 44:0.247461 45:0.146669 46:0.073364 47:0.05981 48:0.091684 49:0.155146 50:0.129982 51:0.076327 52:0.181082 53:0.274509 54:0.110317 55:0.062264 56:0.072387 57:0.031825 58:0.018493 59:0.014814 60:0.030223 61:0.288363 62:0.288363 63:0.258424 64:0.213503 65:0.265259 66:0.179506 67:0.111383 68:0.077624 69:0.06237 70:0.288363 71:0.288363 72:0.288363 73:0.039982 74:0.086809 75:0.092792 76:0.043259 77:0.044351 78:0.041383 79:0.044922 80:0.046362 81:0.035701 82:0.125774 83:0.383192 84:0.383192 85:0.055097 86:0.035192 87:0.034176 88:0.017517 89:0.021262 90:0.083096 91:0.105457 92:0.32296 93:0.383192 94:0.087785 95:0.03553 96:0.020707 97:0.05162 98:0.055918 99:0.07359 100:0.102835 101:0.383192 102:0.383192 103:0.221814 104:0.051184 105:0.012784 106:0.024755 107:0.027807 108:0.065989 109:0.00441 110:0.001119 111:0.002276 112:0.002678 113:0.018153 114:0.126494 115:0.38275 116:0.196377 117:0.010785 118:0.00347 119:0.004783 120:0.001729 121:0.00136 122:0 123:0.027977 124:0.38275 125:0.38275 126:0.022902 127:0.004123 128:0.003818 129:0.002926 130:0.006632 131:0.044955 132:0.129925 133:0.38275 134:0.146065 135:0.015981 136:0.000903 137:0.00234 138:0.001386 139:0.000663 140:0.00115 141:0.197544 142:0.38275 143:0.356929 144:0.017004 145:0.052304 146:0.072622 147:0.022658 148:0.006536 149:0.000471 150:0.011239 151:0.292203 152:0.292203 153:0.090948 154:0.26724 155:0.292203 156:0.104287 157:0.020032 158:0.006996 159:0.012217 160:0.125927 161:0.156522 162:0.171155 163:0.114584 164:0.107226 165:0.039226 166:0.00799 167:0.000425 168:0.237747 169:0.292203 170:0.292203 171:0.151502 172:0.292203 173:0.292203 174:0.184744 175:0.084798 176:0.006455 177:0.037631 178:0.117715 179:0.163727 180:0.201854 181:0.257329 182:0.323155 183:0.323155 184:0.107586 185:0.020614 186:0.007777 187:0.034867 188:0.034478 189:0.105127 190:0.085312 191:0.323155 192:0.323155 193:0.26361 194:0.089877 195:0.029786 196:0.108783 197:0.088384 198:0.078335 199:0.240988 200:0.323155 201:0.193568 202:0.146568 203:0.023251 204:0.030757 205:0.055326 206:0.042282 207:0.061083 208:0.100797 209:0.205401 210:0.168412 211:0.12851 212:0.04736 213:0.085416 214:0.153829 215:0.096358 216:0.067583 217:0.009654 218:0.014512 219:0.001224 220:0.00699 221:0.092543 222:0.144013 223:0.348605 224:0.192484 225:0.038645 226:0.006041 227:0.005516 228:0.003824 229:0.011778 230:0.117035 231:0.348605 232:0.348605 233:0.250822 234:0.034521 235:0.019282 236:0.063578 237:0.022245 238:0.014166 239:0.143484 240:0.151274 241:0.137361 242:0.171027 243:0.089454 244:0.008366 245:0.008311 246:0.013359 247:0.027937 248:0.348605 249:0.348605 250:0.348605 251:0.114412 252:0.047443 253:0.082634 254:0.047792 255:0.034458 256:0.041433 257:0.154117 258:0.312254 259:0.312254 260:0.16849 261:0.132449 262:0.150356 263:0.185857 264:0.098822 265:0.083029 266:0.056549 267:0.095074 268:0.133783 269:0.150935 270:0.217589 271:0.033695 272:0.040005 273:0.033579 274:0.121674 275:0.312254 276:0.312254 277:0.312254 278:0.058765 279:0.034951 280:0.058399 281:0.099699 282:0.071378 283:0.186931 284:0.249866 285:0.22502 286:0.216041 287:0.083523 288:0.100744 289:0.210095 290:0.263933 291:0.169231 292:0.2312 293:0.116399 294:0.086168 295:0.158207 296:0.162603 297:0.154449 298:0.117368 299:0.127345 300:0.19487 301:0.263933 302:0.22079 303:0.142651 304:0.155044 305:0.10664 306:0.039778 307:0.069428 308:0.163728 309:0.141552 310:0.24223 311:0.263933 312:0.145614 313:0.129768 314:0.09756 315:0.125537 316:0.090832 317:0.101955 318:0.174195 319:0.263933 320:0.263933 321:0.120093 322:0.075345 323:0.078125 324:0.060187 
1 1:0.160432 2:0.107344 3:0.148797 4:0.133332 5:0.249288 6:0.122579 7:0.043994 8:0.05933 9:0.075726 10:0.249288 11:0.204128 12:0.104967 13:0.031842 14:0.119221 15:0.124544 16:0.096704 17:0.249288 18:0.249288 19:0.124815 20:0.137466 21:0.221717 22:0.101399 23:0.107107 24:0.150739 25:0.178161 26:0.16861 27:0.106617 28:0.21163 29:0.211558 30:0.202741 31:0.075419 32:0.118182 33:0.198332 34:0.249288 35:0.249288 36:0.19795 37:0.233615 38:0.079886 39:0.037814 40:0.025296 41:0.030698 42:0.032461 43:0.048828 44:0.252001 45:0.245087 46:0.252001 47:0.226622 48:0.183623 49:0.094618 50:0.081434 51:0.067647 52:0.056637 53:0.252001 54:0.252001 55:0.142154 56:0.202795 57:0.183364 58:0.110153 59:0.053164 60:0.052914 61:0.106743 62:0.23605 63:0.132606 64:0.252001 65:0.252001 66:0.252001 67:0.252001 68:0.069093 69:0.055472 70:0.027975 71:0.131772 72:0.173544 73:0.117004 74:0.283629 75:0.283629 76:0.217275 77:0.102449 78:0.056237 79:0.039565 80:0.079588 81:0.149694 82:0.093184 83:0.283629 84:0.283629 85:0.283629 86:0.076698 87:0.02174 88:0.028083 89:0.041667 90:0.073975 91:0.133545 92:0.283629 93:0.283629 94:0.216359 95:0.053514 96:0.062489 97:0.033608 98:0.052046 99:0.094783 100:0.094509 101:0.251524 102:0.283629 103:0.128109 104:0.036497 105:0.165359 106:0.076966 107:0.080412 108:0.108599 109:0.085767 110:0.083845 111:0.087894 112:0.042188 113:0.093794 114:0.128085 115:0.23105 116:0.181376 117:0.087256 118:0.04813 119:0.145082 120:0.220959 121:0.214995 122:0.222085 123:0.148522 124:0.23105 125:0.215699 126:0.100189 127:0.102207 128:0.103344 129:0.059385 130:0.05053 131:0.086063 132:0.059161 133:0.23105 134:0.23105 135:0.184128 136:0.112879 137:0.23105 138:0.228995 139:0.23105 140:0.23105 141:0.111147 142:0.23105 143:0.23105 144:0.178105 145:0.059045 146:0.235516 147:0.240234 148:0.240234 149:0.123154 150:0.044931 151:0.0779 152:0.049776 153:0.024273 154:0.128067 155:0.240234 156:0.240234 157:0.240234 158:0.112099 159:0.062806 160:0.026665 161:0.009251 162:0.078099 163:0.120798 164:0.240234 165:0.220818 166:0.240234 167:0.240234 168:0.08963 169:0.078557 170:0.081861 171:0.071269 172:0.21981 173:0.240234 174:0.240234 175:0.159961 176:0.211188 177:0.208794 178:0.138098 179:0.087463 180:0.131277 181:0.118146 182:0.205294 183:0.231696 184:0.173263 185:0.123569 186:0.153817 187:0.090638 188:0.060027 189:0.134212 190:0.082904 191:0.066092 192:0.11094 193:0.0474 194:0.128045 195:0.231696 196:0.190845 197:0.089254 198:0.082849 199:0.187386 200:0.213804 201:0.218817 202:0.07159 203:0.231696 204:0.231696 205:0.173566 206:0.116695 207:0.169667 208:0.231696 209:0.117749 210:0.094149 211:0.037227 212:0.231696 213:0.231696 214:0.231696 215:0.189036 216:0.231696 217:0.166994 218:0.107892 219:0.056369 220:0.070706 221:0.081442 222:0.051721 223:0.189522 224:0.26067 225:0.26067 226:0.233816 227:0.26067 228:0.153664 229:0.153166 230:0.26067 231:0.1202 232:0.2191 233:0.26067 234:0.26067 235:0.056473 236:0.030333 237:0.033232 238:0.082672 239:0.092112 240:0.16463 241:0.145224 242:0.215006 243:0.18795 244:0.116977 245:0.153295 246:0.065039 247:0.072763 248:0.087071 249:0.058958 250:0.121736 251:0.26067 252:0.204362 253:0.212749 254:0.21017 255:0.062658 256:0.106548 257:0.209852 258:0.136002 259:0.137196 260:0.24342 261:0.184071 262:0.24342 263:0.24342 264:0.111581 265:0.058771 266:0.171776 267:0.24342 268:0.24342 269:0.24342 270:0.24342 271:0.083059 272:0.05519 273:0.017507 274:0.007304 275:0.02548 276:0.027462 277:0.080913 278:0.24342 279:0.190411 280:0.24342 281:0.121636 282:0.017979 283:0.003157 284:0.019845 285:0.044746 286:0.091559 287:0.24342 288:0.24342 289:0.257625 290:0.257625 291:0.149637 292:0.034613 293:0.138552 294:0.180442 295:0.145269 296:0.195235 297:0.245541 298:0.257625 299:0.222035 300:0.100535 301:0.028324 302:0.160251 303:0.088252 304:0.13363 305:0.257625 306:0.257625 307:0.257625 308:0.202153 309:0.040768 310:0.008671 311:0.01371 312:0.025293 313:0.034898 314:0.102914 315:0.221477 316:0.257625 317:0.125144 318:0.045737 319:0.012917 320:0.024902 321:0.026437 322:0.025723 323:0.189413 324:0.257625 
1 1:0.079502 2:0.182241 3:0.150117 4:0.073913 5:0.069438 6:0.036852 7:0.019101 8:0.009782 9:0.031836 10:0.033703 11:0.249154 12:0.40461 13:0.172107 14:0.084164 15:0.090238 16:0.071648 17:0.011772 18:0.019297 19:0.060395 20:0.070038 21:0.046039 22:0.167985 23:0.096312 24:0.039116 25:0.021968 26:0.019017 27:0.036948 28:0.037158 29:0.273541 30:0.40461 31:0.40461 32:0.40461 33:0.115785 34:0.087727 35:0.028617 36:0.046896 37:0.00877 38:0.275615 39:0.318721 40:0.051078 41:0.014277 42:0.015772 43:0.011143 44:0.003166 45:0.003028 46:0.007714 47:0.292468 48:0.318721 49:0.24709 50:0.022922 51:0.003394 52:0.000617 53:0.003335 54:0.002012 55:0.053894 56:0.312724 57:0.318721 58:0.318721 59:0.09553 60:0.026526 61:0.030853 62:0.011607 63:0.034138 64:0.080716 65:0.318721 66:0.318721 67:0.199453 68:0.025648 69:0.007334 70:0.008731 71:0.010277 72:0.029955 73:0.004068 74:0.071842 75:0.371764 76:0.371764 77:0.057124 78:0.001252 79:0.0011 80:0.001829 81:0.001342 82:0.003293 83:0.001278 84:0.175631 85:0.371764 86:0.127065 87:0.004312 88:0.000835 89:0.000474 90:0.003378 91:0.028051 92:0.094568 93:0.371764 94:0.371764 95:0.01636 96:0.000885 97:0.000113 98:0.002845 99:0.005559 100:0.004066 101:0.005252 102:0.304888 103:0.371764 104:0.090781 105:0.016164 106:0.000109 107:0.000551 108:0.003361 109:0.06843 110:0.028448 111:0.022106 112:0.141802 113:0.09426 114:0.038027 115:0.018947 116:0.028297 117:0.059106 118:0.123445 119:0.044358 120:0.237058 121:0.308405 122:0.308405 123:0.243405 124:0.230445 125:0.152764 126:0.211901 127:0.244952 128:0.062182 129:0.008095 130:0.037847 131:0.04687 132:0.03396 133:0.020936 134:0.028806 135:0.16471 136:0.308405 137:0.124274 138:0.016693 139:0.162249 140:0.217293 141:0.19583 142:0.224592 143:0.21501 144:0.308405 145:0.27378 146:0.083861 147:0.202535 148:0.27378 149:0.20053 150:0.086319 151:0.120947 152:0.085605 153:0.27378 154:0.27378 155:0.204118 156:0.239087 157:0.188847 158:0.034428 159:0.01007 160:0.021924 161:0.028896 162:0.27378 163:0.27378 164:0.077767 165:0.015552 166:0.043479 167:0.063245 168:0.056436 169:0.097963 170:0.119466 171:0.27378 172:0.27378 173:0.132771 174:0.064022 175:0.024366 176:0.005365 177:0.007184 178:0.031982 179:0.07242 180:0.27378 181:0.288786 182:0.239061 183:0.288786 184:0.288786 185:0.031333 186:0.004422 187:0.007682 188:0.021296 189:0.224252 190:0.048042 191:0.043232 192:0.288786 193:0.288786 194:0.133086 195:0.035913 196:0.043493 197:0.046404 198:0.024544 199:0.288786 200:0.182356 201:0.160141 202:0.118401 203:0.014142 204:0.040682 205:0.129259 206:0.127402 207:0.288786 208:0.096718 209:0.059462 210:0.122416 211:0.129278 212:0.056411 213:0.138494 214:0.245858 215:0.178697 216:0.097524 217:0.352841 218:0.107903 219:0.003248 220:0.001608 221:0.001337 222:0.003151 223:0.003417 224:0.00656 225:0.197442 226:0.352841 227:0.17033 228:0.005248 229:0.004636 230:0.003368 231:0.013614 232:0.027546 233:0.051618 234:0.194576 235:0.352841 236:0.071493 237:0.005646 238:0.023016 239:0.090524 240:0.087721 241:0.067056 242:0.129848 243:0.352841 244:0.352841 245:0.148819 246:0.034491 247:0.070433 248:0.124327 249:0.110849 250:0.081969 251:0.150213 252:0.352841 253:0.260736 254:0.229592 255:0.03487 256:0.006962 257:0.006049 258:0.042503 259:0.128122 260:0.14728 261:0.260736 262:0.260736 263:0.154409 264:0.102781 265:0.017988 266:0.009353 267:0.051166 268:0.175993 269:0.170909 270:0.260736 271:0.260736 272:0.246964 273:0.116671 274:0.06475 275:0.094578 276:0.154875 277:0.19172 278:0.166098 279:0.218539 280:0.260736 281:0.241916 282:0.132596 283:0.050454 284:0.0548 285:0.097361 286:0.193898 287:0.139473 288:0.161047 289:0.218233 290:0.079827 291:0.07552 292:0.020771 293:0.012248 294:0.112302 295:0.251016 296:0.162995 297:0.251016 298:0.11149 299:0.057061 300:0.037226 301:0.023948 302:0.044411 303:0.251016 304:0.251016 305:0.251016 306:0.231594 307:0.251016 308:0.24244 309:0.075475 310:0.027572 311:0.048959 312:0.048288 313:0.083399 314:0.08164 315:0.240972 316:0.231846 317:0.251016 318:0.127905 319:0.042907 320:0.069174 321:0.152948 322:0.193723 323:0.203455 324:0.251016 
1 1:0.022699 2:0.014812 3:0.00677 4:0.004368 5:0.017221 6:0.111148 7:0.319965 8:0.319965 9:0.054356 10:0.069428 11:0.046256 12:0.040125 13:0.035434 14:0.039788 15:0.071818 16:0.193612 17:0.319965 18:0.13039 19:0.031473 20:0.008425 21:0.000512 22:0.005986 23:0.077718 24:0.162675 25:0.319965 26:0.319965 27:0.082644 28:0.048554 29:0.030758 30:0.014933 31:0.010482 32:0.194839 33:0.319965 34:0.315757 35:0.319965 36:0.104735 37:0.146608 38:0.090164 39:0.090127 40:0.086703 41:0.100294 42:0.086994 43:0.084476 44:0.162058 45:0.152134 46:0.096503 47:0.104893 48:0.068637 49:0.027009 50:0.056539 51:0.049067 52:0.050752 53:0.109436 54:0.080245 55:0.273849 56:0.307174 57:0.075034 58:0.023414 59:0.21707 60:0.384199 61:0.178487 62:0.236811 63:0.127251 64:0.384199 65:0.384199 66:0.10924 67:0.011618 68:0.047955 69:0.043774 70:0.088941 71:0.1314 72:0.115378 73:0.055116 74:0.107668 75:0.022832 76:0.002713 77:0.017205 78:0.014989 79:0.018371 80:0.030859 81:0.027487 82:0.190909 83:0.401487 84:0.047229 85:0.007243 86:0.016074 87:0.014779 88:0.017368 89:0.01825 90:0.068103 91:0.367378 92:0.4524 93:0.038154 94:0.000725 95:0.005829 96:0.004731 97:0.012521 98:0.020867 99:0.035911 100:0.4524 101:0.4524 102:0.126427 103:0.009368 104:0.007663 105:0.004426 106:0.003598 107:0.01221 108:0.058443 109:0.048542 110:0.009804 111:0.008581 112:0.03957 113:0.212667 114:0.184598 115:0.294566 116:0.299537 117:0.096351 118:0.04102 119:0.054451 120:0.042687 121:0.085262 122:0.299537 123:0.299537 124:0.190642 125:0.170636 126:0.052261 127:0.015218 128:0.002549 129:0.015735 130:0.041688 131:0.148057 132:0.155842 133:0.299537 134:0.191779 135:0.033848 136:0.011337 137:0.033978 138:0.051805 139:0.108823 140:0.299537 141:0.299537 142:0.299537 143:0.067262 144:0.029673 145:0.091486 146:0.280844 147:0.108156 148:0.066062 149:0.158602 150:0.255615 151:0.048149 152:0.032883 153:0.022028 154:0.305313 155:0.325737 156:0.128013 157:0.058932 158:0.050583 159:0.037264 160:0.022374 161:0.0212 162:0.021996 163:0.024595 164:0.177932 165:0.124525 166:0.118584 167:0.207915 168:0.325737 169:0.180692 170:0.024905 171:0.017891 172:0.092828 173:0.325737 174:0.176572 175:0.144974 176:0.166846 177:0.325737 178:0.168484 179:0.021147 180:0.007026 181:0.380874 182:0.41059 183:0.04955 184:0.018216 185:0.017614 186:0.00466 187:0.009657 188:0.025238 189:0.019379 190:0.387998 191:0.41059 192:0.117846 193:0.021347 194:0.015938 195:0.005082 196:0.00563 197:0.047681 198:0.038251 199:0.136822 200:0.41059 201:0.077334 202:0.079696 203:0.092267 204:0.123847 205:0.095844 206:0.034916 207:0.013248 208:0.179621 209:0.229958 210:0.043786 211:0.039766 212:0.047947 213:0.028487 214:0.079099 215:0.071891 216:0.05708 217:0.003871 218:0.000173 219:0.005627 220:0.009068 221:0.096671 222:0.306109 223:0.317557 224:0.182901 225:0.016091 226:0.007399 227:0.005767 228:0.012649 229:0.033771 230:0.277276 231:0.317557 232:0.317557 233:0.154465 234:0.008316 235:0.005839 236:0.004526 237:0.005103 238:0.010189 239:0.086143 240:0.206258 241:0.292557 242:0.185754 243:0.009774 244:0.016036 245:0.002662 246:0.000622 247:0.023119 248:0.22314 249:0.317557 250:0.317557 251:0.180547 252:0.001685 253:0.002466 254:0.013972 255:0.018646 256:0.040563 257:0.14386 258:0.330484 259:0.277778 260:0.05209 261:0.010022 262:0.022726 263:0.074846 264:0.061174 265:0.074351 266:0.138498 267:0.330484 268:0.330484 269:0.050735 270:0.02005 271:0.006424 272:0.00515 273:0 274:0.038993 275:0.194617 276:0.330484 277:0.193729 278:0.049929 279:0.031262 280:0.01376 281:0.018773 282:0.018045 283:0.065596 284:0.330484 285:0.330484 286:0.330484 287:0.054777 288:0.055813 289:0.080564 290:0.158282 291:0.102483 292:0.098891 293:0.113887 294:0.265715 295:0.265715 296:0.089367 297:0.04774 298:0.184558 299:0.105319 300:0.058213 301:0.068492 302:0.060422 303:0.067254 304:0.250133 305:0.151557 306:0.20039 307:0.055199 308:0.064603 309:0.07508 310:0.115785 311:0.265715 312:0.265715 313:0.265715 314:0.098695 315:0.069773 316:0.265715 317:0.193924 318:0.173795 319:0.186195 320:0.152255 321:0.088984 322:0.164467 323:0.198626 324:0.265715 
1 1:0.01476 2:0.000407 3:0.002025 4:0.004189 5:0.013598 6:0.24762 7:0.373248 8:0.151798 9:0.017149 10:0.003201 11:0.000236 12:0.005117 13:0.019512 14:0.079446 15:0.250569 16:0.321506 17:0.113051 18:0.014823 19:0.005184 20:0 21:0.001575 22:0.003568 23:0.032177 24:0.373248 25:0.373248 26:0.084951 27:0.011902 28:0.008016 29:0.002477 30:0.007525 31:0.026948 32:0.098467 33:0.373248 34:0.373248 35:0.085847 36:0.048874 37:0.004568 38:0.006525 39:0.024417 40:0.141194 41:0.262794 42:0.262794 43:0.208943 44:0.091427 45:0.014258 46:0.011515 47:0.066469 48:0.262794 49:0.262794 50:0.2627 51:0.19445 52:0.110669 53:0.035367 54:0.013261 55:0.043903 56:0.034842 57:0.066017 58:0.207595 59:0.262794 60:0.262794 61:0.262794 62:0.152838 63:0.131418 64:0.047679 65:0.112471 66:0.262794 67:0.262794 68:0.244204 69:0.078033 70:0.055643 71:0.039155 72:0.038281 73:0.018258 74:0.086445 75:0.295999 76:0.295999 77:0.137053 78:0.077984 79:0.023159 80:0.016338 81:0.014073 82:0.037807 83:0.068936 84:0.295999 85:0.295999 86:0.295999 87:0.254258 88:0.064804 89:0.04654 90:0.03016 91:0.031147 92:0.076794 93:0.295999 94:0.295999 95:0.08403 96:0.037082 97:0.013745 98:0.007133 99:0.008282 100:0.093618 101:0.123529 102:0.295999 103:0.295999 104:0.167702 105:0.164789 106:0.014236 107:0.021262 108:0.03404 109:0.003795 110:0.001527 111:0.008825 112:0.009674 113:0.089037 114:0.351552 115:0.351552 116:0.075498 117:0.014963 118:0.006116 119:0.001704 120:0.003802 121:0.015566 122:0.16714 123:0.351552 124:0.351552 125:0.045653 126:0.038896 127:0.001626 128:0.006856 129:0.03421 130:0.078587 131:0.188996 132:0.271442 133:0.150385 134:0.072562 135:0.008017 136:0.000309 137:0.000848 138:0.019305 139:0.157511 140:0.351552 141:0.351552 142:0.196637 143:0.022 144:0.003511 145:0.029101 146:0.015166 147:0.033978 148:0.134182 149:0.265455 150:0.356725 151:0.317102 152:0.110305 153:0.100105 154:0.040813 155:0.051695 156:0.160749 157:0.231763 158:0.163114 159:0.105631 160:0.060944 161:0.053383 162:0.046737 163:0.007342 164:0.010019 165:0.073209 166:0.308709 167:0.356725 168:0.356725 169:0.195162 170:0.032811 171:0.012547 172:0.047931 173:0.031019 174:0.07904 175:0.181257 176:0.212497 177:0.163327 178:0.086602 179:0.080743 180:0.049792 181:0.037277 182:0.059406 183:0.264577 184:0.290338 185:0.087079 186:0.094704 187:0.078758 188:0.117012 189:0.043961 190:0.109845 191:0.099138 192:0.193216 193:0.290338 194:0.071007 195:0.141376 196:0.203488 197:0.235502 198:0.073879 199:0.044166 200:0.020963 201:0.038414 202:0.100743 203:0.106661 204:0.207959 205:0.290338 206:0.282941 207:0.106378 208:0.042448 209:0.016682 210:0.018565 211:0.10185 212:0.098698 213:0.290338 214:0.290338 215:0.290338 216:0.094296 217:0.001507 218:0.004407 219:0.021604 220:0.132087 221:0.259713 222:0.191145 223:0.101473 224:0.019178 225:0.001538 226:0 227:0.000472 228:0.023491 229:0.360457 230:0.360457 231:0.360457 232:0.06448 233:0.004996 234:2.9e-005 235:0.005313 236:0.020844 237:0.028015 238:0.152315 239:0.360457 240:0.175952 241:0.066715 242:0.002641 243:0.001519 244:0.00941 245:0.008133 246:0.036233 247:0.360457 248:0.360457 249:0.131631 250:0.028475 251:0.00203 252:0.0048 253:0.003422 254:0.009169 255:0.08033 256:0.355008 257:0.355008 258:0.355008 259:0.034567 260:0.009908 261:0.003009 262:0.028942 263:0.018362 264:0.065237 265:0.170335 266:0.267399 267:0.100892 268:0.060432 269:0.075282 270:0.026894 271:0.038914 272:0.025077 273:0.082692 274:0.355008 275:0.355008 276:0.142571 277:0.033291 278:0.051229 279:0.057265 280:0.055873 281:0.016422 282:0.045094 283:0.22682 284:0.330065 285:0.079557 286:0.056824 287:0.105726 288:0.097006 289:0.041487 290:0.012765 291:0.015514 292:0.084691 293:0.16851 294:0.1624 295:0.280314 296:0.2769 297:0.058577 298:0.039037 299:0.023752 300:0.01592 301:0.085206 302:0.182084 303:0.280314 304:0.280314 305:0.264959 306:0.048954 307:0.082728 308:0.036871 309:0.030089 310:0.158429 311:0.254998 312:0.135327 313:0.17833 314:0.169469 315:0.078141 316:0.093698 317:0.124417 318:0.101173 319:0.187483 320:0.275124 321:0.280314 322:0.280314 323:0.117754 324:0.037618 
1 1:0.366083 2:0.366083 3:0.070926 4:0.001459 5:0.008991 6:4.9e-005 7:0.000424 8:0.004542 9:0.043043 10:0.366083 11:0.366083 12:0.077387 13:0.006089 14:0.023338 15:0.000409 16:0.001062 17:0.017491 18:0.052583 19:0.365068 20:0.366083 21:0.141321 22:0.025362 23:0.010311 24:0.003608 25:0.009068 26:0.012007 27:0.059303 28:0.247471 29:0.228206 30:0.081436 31:0.011596 32:0.008648 33:0.014001 34:0.016292 35:0.059681 36:0.166408 37:0.329751 38:0.329751 39:0.118771 40:0.048319 41:0.041334 42:0.004556 43:0.0058 44:0.027066 45:0.073134 46:0.191165 47:0.329751 48:0.320089 49:0.102259 50:0.078034 51:0.021567 52:0.011902 53:0.028129 54:0.054454 55:0.181351 56:0.113721 57:0.146357 58:0.109293 59:0.091141 60:0.102123 61:0.088344 62:0.09927 63:0.214537 64:0.045978 65:0.329751 66:0.329751 67:0.228709 68:0.165437 69:0.112769 70:0.10064 71:0.03246 72:0.039182 73:0.112843 74:0.355095 75:0.159542 76:0.026092 77:0.030561 78:0.010223 79:0.003361 80:0.009904 81:0.016976 82:0.355095 83:0.355095 84:0.077837 85:0.004938 86:0.004433 87:0.001458 88:0.000784 89:0.003932 90:0.043086 91:0.145979 92:0.355095 93:0.355095 94:0.046148 95:0.045446 96:0.013727 97:0.031938 98:0.008561 99:0.016189 100:0.355095 101:0.355095 102:0.139217 103:0.029381 104:0.041208 105:0.005099 106:0.036874 107:0.030681 108:0.119183 109:0.118539 110:0.231808 111:0.243133 112:0.12946 113:0.121901 114:0.08345 115:0.030467 116:0.021361 117:0.044035 118:0.243133 119:0.243133 120:0.17154 121:0.043384 122:0.038902 123:0.075119 124:0.091176 125:0.140843 126:0.243133 127:0.063056 128:0.123454 129:0.170631 130:0.153591 131:0.243133 132:0.243133 133:0.243133 134:0.098322 135:0.029667 136:0.18091 137:0.201812 138:0.130182 139:0.087388 140:0.118509 141:0.243133 142:0.243133 143:0.243133 144:0.1886 145:0.058107 146:0.042651 147:0.056507 148:0.060286 149:0.088706 150:0.162825 151:0.233729 152:0.10849 153:0.137517 154:0.001693 155:0.18823 156:0.29221 157:0.130639 158:0.203604 159:0.23809 160:0.29221 161:0.153164 162:0.054349 163:0.062565 164:0.033267 165:0.015622 166:0.019158 167:0.041659 168:0.14615 169:0.29221 170:0.257659 171:0.169008 172:0.049673 173:0.017766 174:0.032359 175:0.024704 176:0.081672 177:0.20298 178:0.29221 179:0.29221 180:0.29221 181:0.058008 182:0.287894 183:0.27264 184:0.044051 185:0.09239 186:0.057914 187:0.212024 188:0.159989 189:0.13194 190:0.163919 191:0.194491 192:0.082304 193:0.06839 194:0.065705 195:0.008083 196:0.062616 197:0.09524 198:0.205686 199:0.032629 200:0.025052 201:0.024052 202:0.012972 203:0.041483 204:0.054211 205:0.261448 206:0.350123 207:0.350123 208:0.08833 209:0.044411 210:0.027564 211:0.043386 212:0.026463 213:0.00303 214:0.13921 215:0.350123 216:0.350123 217:0.007807 218:0.003881 219:0.009854 220:0.020274 221:0.082617 222:0.324857 223:0.324857 224:0.148705 225:0.020255 226:0.028044 227:0.029804 228:0.026916 229:0.052781 230:0.133647 231:0.324857 232:0.21391 233:0.066123 234:0.028238 235:0.009893 236:0 237:0.000272 238:0.002682 239:0.052972 240:0.324857 241:0.324857 242:0.324857 243:0.033937 244:0.007619 245:0.010258 246:0.010708 247:0.025313 248:0.181988 249:0.324857 250:0.324857 251:0.102349 252:0.003626 253:0.126521 254:0.065228 255:0.034365 256:0.059433 257:0.117012 258:0.167321 259:0.180662 260:0.273534 261:0.245438 262:0.197986 263:0.025713 264:0.007586 265:0.009165 266:0.012447 267:0.050261 268:0.204774 269:0.32998 270:0.32998 271:0.054229 272:0.034143 273:0.027363 274:0.056192 275:0.257332 276:0.32998 277:0.32998 278:0.102802 279:0.078838 280:0.101293 281:0.031658 282:0.020233 283:0.038586 284:0.102826 285:0.206599 286:0.142016 287:0.104839 288:0.231482 289:0.050291 290:0.010637 291:0.008907 292:0.005122 293:0.008376 294:0.023446 295:0.06446 296:0.356551 297:0.356551 298:0.042269 299:0.01037 300:0.011895 301:0.009889 302:0.022805 303:0.102316 304:0.33148 305:0.356551 306:0.356551 307:0.031533 308:0.024195 309:0.025434 310:0.026865 311:0.048566 312:0.097253 313:0.053435 314:0.135162 315:0.110892 316:0.026754 317:0.013288 318:0.02664 319:0.033792 320:0.085977 321:0.263548 322:0.309559 323:0.356551 324:0.081629 
0.3786049152261187 1:0.3329 2:0.321991 3:0.024106 4:0.00058 5:0.016582 6:0.002516 7:0.001547 8:0.020452 9:0.261372 10:0.3329 11:0.3329 12:0.169063 13:0.01454 14:0.025176 15:0.000376 16:0.000179 17:0.020108 18:0.153323 19:0.3329 20:0.094449 21:0.065257 22:0.015791 23:0.008069 24:0.011622 25:0.016441 26:0.119894 27:0.291415 28:0.224137 29:0.318674 30:0.142826 31:0.054393 32:0.027705 33:0.005577 34:0.001118 35:0.055696 36:0.185797 37:0.150164 38:0.336074 39:0.336074 40:0.065933 41:0.029493 42:0.001755 43:0 44:0.001865 45:0.013777 46:0.047615 47:0.25534 48:0.336074 49:0.201107 50:0.057416 51:0.021659 52:0 53:0 54:0 55:0.106583 56:0.336074 57:0.268755 58:0.1186 59:0.032384 60:0.015821 61:0 62:0.015775 63:0.055579 64:0.058287 65:0.266342 66:0.336074 67:0.336074 68:0.038072 69:0.033396 70:0 71:0.002209 72:0.011577 73:0.009376 74:0.063847 75:0.412974 76:0.160565 77:0.022368 78:0.00812 79:0 80:0 81:5.9e-005 82:0.016875 83:0.086374 84:0.412974 85:0.247023 86:0.028738 87:0.001313 88:0 89:0 90:0.01215 91:0.010682 92:0.079847 93:0.412974 94:0.323014 95:0.019496 96:0.009838 97:0.001034 98:0 99:0.00088 100:0.027456 101:0.090018 102:0.412974 103:0.279779 104:0.109759 105:0.049469 106:0.016818 107:0.003264 108:0.014263 109:0.11539 110:0.06399 111:0.04471 112:0.020955 113:0.008196 114:0.016763 115:0.040228 116:0.303834 117:0.303834 118:0.214177 119:0.16924 120:0.068243 121:0.057429 122:0.046273 123:0.006416 124:0.02637 125:0.174413 126:0.303834 127:0.189578 128:0.08303 129:0.030567 130:0.005162 131:0.003832 132:0.054095 133:0.214456 134:0.303834 135:0.303834 136:0.189837 137:0.086551 138:0.079528 139:0.072264 140:0.049952 141:0.060299 142:0.2434 143:0.303834 144:0.303834 145:0.146322 146:0.212278 147:0.129021 148:0.074965 149:0.02519 150:0.020461 151:0.020071 152:0.040129 153:0.094038 154:0.063336 155:0.18508 156:0.313345 157:0.313345 158:0.063791 159:0.116138 160:0.103541 161:0.047801 162:0.033878 163:0.135092 164:0.173005 165:0.11405 166:0.07731 167:0.026217 168:0.055373 169:0.121142 170:0.169076 171:0.128019 172:0.07165 173:0.143338 174:0.29567 175:0.313345 176:0.067593 177:0.263537 178:0.313345 179:0.313345 180:0.132772 181:0.032651 182:0.072724 183:0.303735 184:0.303735 185:0.082294 186:0.072752 187:0.06296 188:0.038512 189:0.028845 190:0.091729 191:0.084487 192:0.303735 193:0.144356 194:0.174288 195:0.122397 196:0.055055 197:0.024453 198:0.040579 199:0.14459 200:0.0288 201:0.171944 202:0.218757 203:0.076496 204:0.146008 205:0.303735 206:0.303735 207:0.249772 208:0.303735 209:0.076947 210:0.069267 211:0.043017 212:0.067038 213:0.061152 214:0.078999 215:0.153952 216:0.303735 217:0.042419 218:0.010644 219:0.005194 220:0.000723 221:0.000621 222:0.013473 223:0.12132 224:0.351345 225:0.351345 226:0.020247 227:0.015672 228:0.027867 229:0.020537 230:0.011713 231:0.034884 232:0.199294 233:0.351345 234:0.140257 235:0.030538 236:1.8e-005 237:0.000169 238:4.8e-005 239:0.014874 240:0.001898 241:0.177579 242:0.351345 243:0.351345 244:0.011226 245:0.004626 246:0.001802 247:0.000785 248:0.021719 249:0.024091 250:0.351345 251:0.351345 252:0.13804 253:0.037792 254:0.06284 255:0.046237 256:0.032128 257:0.01423 258:0.047267 259:0.176767 260:0.334164 261:0.134663 262:0.040474 263:0.052599 264:0.032088 265:0.028516 266:0.024865 267:0.103558 268:0.334164 269:0.334164 270:0.12102 271:0.083649 272:0.040308 273:0.008429 274:0.001037 275:0.050474 276:0.080951 277:0.334164 278:0.334164 279:0.150415 280:0.169954 281:0.069024 282:0.030814 283:0.006686 284:0.109733 285:0.120428 286:0.334164 287:0.334164 288:0.144201 289:0.136795 290:0.014225 291:0.012256 292:0.018246 293:0.029565 294:0.08534 295:0.304167 296:0.304167 297:0.269834 298:0.304167 299:0.049979 300:0.009007 301:0.004715 302:0.009348 303:0.014114 304:0.138574 305:0.287582 306:0.304167 307:0.082339 308:0.027868 309:0.023467 310:0.011357 311:0.073985 312:0.08309 313:0.304167 314:0.304167 315:0.132179 316:0.256951 317:0.045278 318:0.016939 319:0.010378 320:0.021864 321:0.024671 322:0.140534 323:0.243491 324:0.223645 
1 1:0.096669 2:0.012769 3:0.011058 4:0.012979 5:0.023581 6:0.033537 7:0.151171 8:0.245702 9:0.249357 10:0.074548 11:0.021107 12:0.01611 13:0.014434 14:0.019562 15:0.019677 16:0.074426 17:0.207904 18:0.216318 19:0.1842 20:0.029883 21:0.029717 22:0.028539 23:0.036345 24:0.144895 25:0.331386 26:0.331386 27:0.331386 28:0.091192 29:0.024176 30:0.007701 31:0.034023 32:0.038508 33:0.087602 34:0.331386 35:0.331386 36:0.331386 37:0.175182 38:0.069142 39:0.068119 40:0.033697 41:0.042665 42:0.040378 43:0.124942 44:0.239753 45:0.281838 46:0.19563 47:0.092538 48:0.088092 49:0.041775 50:0.043868 51:0.027761 52:0.101087 53:0.168517 54:0.242474 55:0.110403 56:0.03722 57:0.041502 58:0.074125 59:0.099711 60:0.169584 61:0.288687 62:0.288687 63:0.288687 64:0.180545 65:0.095337 66:0.162995 67:0.106918 68:0.137027 69:0.137878 70:0.288687 71:0.288687 72:0.223125 73:0.12851 74:0.073714 75:0.088335 76:0.044052 77:0.054286 78:0.019744 79:0.051417 80:0.082261 81:0.157646 82:0.253157 83:0.160498 84:0.180915 85:0.110591 86:0.07125 87:0.047208 88:0.107878 89:0.090917 90:0.196401 91:0.195739 92:0.234468 93:0.237485 94:0.123719 95:0.14727 96:0.069863 97:0.115603 98:0.079925 99:0.09089 100:0.338626 101:0.338626 102:0.338626 103:0.284915 104:0.145018 105:0.077278 106:0.094427 107:0.056826 108:0.206952 109:0.047818 110:0.015063 111:0.010586 112:0.018691 113:0.020598 114:0.113781 115:0.318053 116:0.318053 117:0.122928 118:0.051142 119:0.008423 120:0.01006 121:0.016162 122:0.032256 123:0.10337 124:0.318053 125:0.318053 126:0.179197 127:0.046476 128:0.021509 129:0.020787 130:0.028097 131:0.031813 132:0.147936 133:0.318053 134:0.318053 135:0.060407 136:0.042443 137:0.006278 138:0.013385 139:0.016288 140:0.057417 141:0.236024 142:0.318053 143:0.318053 144:0.132424 145:0.030332 146:0.001305 147:0.007142 148:0.01004 149:0.032178 150:0.08258 151:0.248828 152:0.2817 153:0.24106 154:0.019596 155:0.012918 156:0.04459 157:0.041947 158:0.041708 159:0.064129 160:0.211703 161:0.216528 162:0.130412 163:0.036051 164:0.000826 165:0.006351 166:0.011045 167:0.08311 168:0.268389 169:0.2817 170:0.2817 171:0.234775 172:0.010541 173:0.007332 174:0.085836 175:0.188173 176:0.2817 177:0.278982 178:0.2817 179:0.2817 180:0.130181 181:0.036626 182:0.149118 183:0.214651 184:0.10987 185:0.063062 186:0.033999 187:0.081629 188:0.069397 189:0.040309 190:0.120169 191:0.301011 192:0.301011 193:0.186502 194:0.041015 195:0.021235 196:0.040167 197:0.016915 198:0.035316 199:0.015381 200:0.142572 201:0.301011 202:0.301011 203:0.301011 204:0.144471 205:0.112708 206:0.090819 207:0.039479 208:0.041784 209:0.301011 210:0.301011 211:0.300035 212:0.097802 213:0.093622 214:0.13287 215:0.121829 216:0.041678 217:0.08807 218:0.075471 219:0.084557 220:0.086667 221:0.062361 222:0.152786 223:0.390507 224:0.158627 225:0.032911 226:0.038386 227:0.043047 228:0.020856 229:0.037705 230:0.071431 231:0.308264 232:0.390507 233:0.390507 234:0.077467 235:0.060755 236:0.064917 237:0.068877 238:0.073307 239:0.069967 240:0.044216 241:0.041552 242:0.04526 243:0.046825 244:0.046706 245:0.060763 246:0.051785 247:0.034943 248:0.06668 249:0.104284 250:0.390507 251:0.361375 252:0.081723 253:0.010216 254:0.007349 255:0.007886 256:0.014015 257:0.052561 258:0.162795 259:0.285393 260:0.285393 261:0.080164 262:0.008278 263:0.014952 264:0.056049 265:0.134936 266:0.285393 267:0.285393 268:0.285393 269:0.202796 270:0.085732 271:0.007358 272:0.017684 273:0.027664 274:0.019537 275:0.035843 276:0.101083 277:0.285393 278:0.285393 279:0.07636 280:0.018379 281:0.029616 282:0.048755 283:0.065601 284:0.252296 285:0.285393 286:0.285393 287:0.222087 288:0.13477 289:0.015669 290:0.050402 291:0.195228 292:0.288379 293:0.288379 294:0.288379 295:0.095541 296:0.041927 297:0.037916 298:0.04896 299:0.081022 300:0.172055 301:0.125861 302:0.1306 303:0.245235 304:0.182316 305:0.151521 306:0.071495 307:0.036695 308:0.029236 309:0.037135 310:0.071647 311:0.288379 312:0.288379 313:0.253284 314:0.142067 315:0.082632 316:0.077225 317:0.030895 318:0.005292 319:0.009931 320:0.124612 321:0.288379 322:0.235556 323:0.245607 324:0.11725 
1 1:0.117015 2:0.075131 3:0.061382 4:0.04243 5:0.022001 6:0.014088 7:0.028198 8:0.040634 9:0.200871 10:0.093705 11:0.035472 12:0.012362 13:0.025289 14:0.047484 15:0.030057 16:0.064751 17:0.078539 18:0.212693 19:0.464434 20:0.042461 21:0.013413 22:0.007345 23:0.000899 24:0.010726 25:0.005917 26:0.098965 27:0.484016 28:0.351189 29:0.023277 30:0.006116 31:0.003801 32:0.007413 33:0.011896 34:0.030174 35:0.189565 36:0.484016 37:0.055009 38:0.015228 39:0.010981 40:0.032395 41:0.127602 42:0.127466 43:0.079771 44:0.105602 45:0.19309 46:0.048153 47:0.012431 48:0.015745 49:0.046593 50:0.167753 51:0.207431 52:0.131909 53:0.124099 54:0.088223 55:0.209531 56:0.007676 57:0.023592 58:0.016149 59:0.05226 60:0.044218 61:0.033054 62:0.322949 63:0.420356 64:0.420356 65:0.034757 66:0.039365 67:0.035521 68:0.079865 69:0.086996 70:0.092709 71:0.275473 72:0.420356 73:0.074261 74:0.038832 75:0.021818 76:0.039272 77:0.112538 78:0.113294 79:0.1237 80:0.100133 81:0.072494 82:0.218737 83:0.15784 84:0.116737 85:0.095668 86:0.134941 87:0.058768 88:0.092747 89:0.082856 90:0.149615 91:0.279147 92:0.123503 93:0.121963 94:0.106966 95:0.154823 96:0.174185 97:0.206717 98:0.115588 99:0.279147 100:0.279147 101:0.279147 102:0.279147 103:0.279147 104:0.279058 105:0.18297 106:0.16898 107:0.051513 108:0.12232 109:0.14801 110:0.011578 111:0.000249 112:0.000362 113:0.005273 114:0.021013 115:0.034263 116:0.135988 117:0.377333 118:0.095171 119:0.002553 120:0.000397 121:0.000144 122:0.002458 123:0.005098 124:0.015469 125:0.214379 126:0.377333 127:0.058505 128:0.010236 129:0 130:0 131:0.008479 132:0.042301 133:0.154244 134:0.377333 135:0.377333 136:0.027934 137:0.001583 138:0 139:0 140:0.008025 141:0.012472 142:0.119554 143:0.377333 144:0.377333 145:0.053999 146:0.000308 147:0.002361 148:0.000962 149:0.002908 150:0.001749 151:0.020477 152:0.332284 153:0.332284 154:0.216555 155:0.004708 156:0.004648 157:0.0044 158:0.006652 159:0.026431 160:0.079543 161:0.332284 162:0.332284 163:0.023849 164:0 165:0 166:0 167:0.00546 168:0.004468 169:0.123873 170:0.332284 171:0.332284 172:0.128871 173:0.001664 174:0 175:0.000895 176:0.001088 177:0.01923 178:0.151821 179:0.332284 180:0.332284 181:0.134013 182:0.027355 183:0.03719 184:0.029269 185:0.039713 186:0.141272 187:0.249043 188:0.106014 189:0.197537 190:0.072117 191:0.163267 192:0.21073 193:0.081576 194:0.109879 195:0.258422 196:0.294137 197:0.079645 198:0.0332 199:0.107534 200:0.008934 201:0.004163 202:0.009391 203:0.01433 204:0.111591 205:0.294137 206:0.294137 207:0.294137 208:0.056965 209:0.015796 210:0.024605 211:0.021538 212:0.055753 213:0.294137 214:0.294137 215:0.294137 216:0.188104 217:0.027098 218:0.004644 219:0.00096 220:0.00182 221:0.009063 222:0.034431 223:0.259169 224:0.360734 225:0.275675 226:0.011099 227:0.001312 228:0.001282 229:0 230:0.002976 231:0.005355 232:0.191591 233:0.360734 234:0.360734 235:0.079106 236:0.045034 237:0.019548 238:0.006777 239:0.027064 240:0.032616 241:0.16688 242:0.353028 243:0.075048 244:0.01043 245:0.029017 246:0.067784 247:0.018192 248:0.021467 249:0.016009 250:0.139013 251:0.360734 252:0.315084 253:0.029082 254:0.000114 255:0.000378 256:0 257:0.001501 258:0.002514 259:0.088727 260:0.333766 261:0.333766 262:0.064652 263:0.00205 264:0 265:0.001635 266:0.001477 267:0.009196 268:0.117187 269:0.333766 270:0.333766 271:0.014089 272:0.003323 273:0.034988 274:0.011972 275:0.011269 276:0.011329 277:0.075825 278:0.333766 279:0.333766 280:0.022621 281:0.000816 282:0.002959 283:0.001801 284:0.013157 285:0.013413 286:0.265089 287:0.333766 288:0.333766 289:0.075949 290:0.01226 291:0 292:0.012847 293:0.017161 294:0.073604 295:0.231505 296:0.292371 297:0.237276 298:0.068704 299:0.01123 300:0 301:0.012897 302:0.057523 303:0.292371 304:0.292371 305:0.292371 306:0.189277 307:0.018478 308:0.002829 309:0 310:0.00584 311:0.038298 312:0.095965 313:0.292371 314:0.292371 315:0.109781 316:0.052635 317:0.003366 318:0.003938 319:0.010324 320:0.135332 321:0.292371 322:0.292371 323:0.292371 324:0.132614 
1 1:0.060367 2:0.281083 3:0.239966 4:0.167827 5:0.176513 6:0.107215 7:0.044981 8:0.00329 9:0.015024 10:0.074552 11:0.255929 12:0.242323 13:0.241908 14:0.273211 15:0.142431 16:0.004568 17:0 18:0.001455 19:0.14813 20:0.303981 21:0.303981 22:0.076847 23:0.012526 24:0.001697 25:0 26:0 27:0.014008 28:0.284847 29:0.303981 30:0.303981 31:0.141923 32:0.033939 33:0.005579 34:0 35:0 36:0.010682 37:0.056513 38:0.144757 39:0.187984 40:0.288088 41:0.288088 42:0.107763 43:0.003879 44:0 45:0.002019 46:0.012113 47:0.042951 48:0.171127 49:0.288088 50:0.288088 51:0.099255 52:0.006742 53:0 54:0.000668 55:0.288088 56:0.288088 57:0.288088 58:0.167547 59:0.065683 60:0.010284 61:0 62:0 63:0.020845 64:0.117699 65:0.288088 66:0.288088 67:0.288088 68:0.085463 69:0.026647 70:0.000556 71:0 72:0.009382 73:0.009731 74:0.017346 75:0.072666 76:0.294761 77:0.250807 78:0.121279 79:0.026724 80:0.007269 81:0.00231 82:0.095524 83:0.10305 84:0.177234 85:0.22081 86:0.174998 87:0.126182 88:0.053425 89:0.025116 90:0.02645 91:0.060589 92:0.144993 93:0.291038 94:0.334644 95:0.079104 96:0.060671 97:0.007961 98:0.000629 99:0.008019 100:0.242077 101:0.349811 102:0.349811 103:0.349811 104:0.101279 105:0.047252 106:0.014888 107:0.001229 108:0.071046 109:0.213867 110:0.302853 111:0.302853 112:0.089829 113:0.011395 114:0 115:0 116:0 117:0.022943 118:0.203803 119:0.302853 120:0.302853 121:0.21549 122:0.045978 123:0.000151 124:0 125:0 126:0.00918 127:0.302853 128:0.302853 129:0.159773 130:0.065848 131:0.009238 132:0.001648 133:0.001536 134:0.002602 135:0.071299 136:0.146539 137:0.302853 138:0.302853 139:0.234968 140:0.070196 141:0.017539 142:0.015756 143:0.009822 144:0.035629 145:0.283845 146:0.283845 147:0.262369 148:0.12216 149:0.037573 150:0.001198 151:0.000711 152:0.000238 153:0.027902 154:0.245924 155:0.283845 156:0.283845 157:0.200199 158:0.030472 159:0.008935 160:0.003083 161:0.00103 162:0.018131 163:0.149007 164:0.283845 165:0.200015 166:0.222396 167:0.142968 168:0.044231 169:0.024859 170:0.010738 171:0.035119 172:0.146377 173:0.2466 174:0.283845 175:0.283845 176:0.156387 177:0.043729 178:0.018205 179:0.006193 180:0.017838 181:0.020402 182:0.065443 183:0.18707 184:0.165028 185:0.016865 186:0.007495 187:0.000265 188:8.8e-005 189:0.002235 190:0.048803 191:0.112202 192:0.388744 193:0.388744 194:0.027431 195:0.010562 196:0.0001 197:0.001992 198:0.024003 199:0.008058 200:0.032721 201:0.294932 202:0.388744 203:0.10093 204:0.01251 205:0.001643 206:0.001016 207:0.00132 208:0.034389 209:0.072947 210:0.388744 211:0.388744 212:0.213474 213:0.061095 214:0.008639 215:0.022693 216:0.044172 217:0.200599 218:0.132065 219:0.010952 220:0.002429 221:0.001328 222:0.006125 223:0.011155 224:0.090691 225:0.166514 226:0.089796 227:0.106366 228:0.028462 229:0.017601 230:0.00993 231:0.018751 232:0.021932 233:0.039773 234:0.089122 235:0.194865 236:0.014354 237:5.7e-005 238:0 239:0.025395 240:0.006869 241:0.022307 242:0.438338 243:0.483662 244:0.198821 245:0.020076 246:0.002107 247:0.003678 248:0.056311 249:0.035729 250:0.081018 251:0.346361 252:0.483662 253:0.066594 254:0.071526 255:0.047239 256:0.073006 257:0.046702 258:0.03081 259:0.022783 260:0.02263 261:0.066924 262:0.020439 263:0.045856 264:0.310889 265:0.310889 266:0.080507 267:0.024053 268:0.006927 269:0.007446 270:0.025941 271:0.262262 272:0.044213 273:0.029352 274:0.06722 275:0.134457 276:0.130684 277:0.138978 278:0.310889 279:0.310889 280:0.053208 281:0.036388 282:0.308572 283:0.310889 284:0.310889 285:0.310889 286:0.096652 287:0.177704 288:0.115504 289:0.003587 290:0.024529 291:0.279111 292:0.279111 293:0.124638 294:0.029383 295:0.002834 296:0.004733 297:0.006353 298:0.053714 299:0.065673 300:0.279111 301:0.279111 302:0.25778 303:0.126245 304:0.027127 305:0.067477 306:0.09935 307:0.020124 308:0.036629 309:0.279111 310:0.279111 311:0.279111 312:0.279111 313:0.040431 314:0.015195 315:0.014523 316:0.057128 317:0.049544 318:0.232648 319:0.264587 320:0.239561 321:0.177635 322:0.064116 323:0.114326 324:0.111188 
1 1:0.045207 2:0.18454 3:0.221294 4:0.221294 5:0.167534 6:0.146371 7:0.174837 8:0.098248 9:0.109188 10:0.019392 11:0.141803 12:0.221294 13:0.221294 14:0.221294 15:0.221294 16:0.221294 17:0.128572 18:0.065635 19:0.080699 20:0.112623 21:0.206912 22:0.189704 23:0.137475 24:0.140241 25:0.150186 26:0.211133 27:0.15401 28:0.013972 29:0.111354 30:0.221294 31:0.221294 32:0.221294 33:0.183172 34:0.171203 35:0.154784 36:0.046787 37:0.001856 38:0.025657 39:0.04145 40:0.12864 41:0.302633 42:0.281059 43:0.128634 44:0.055436 45:0.012987 46:0.001144 47:0.00027 48:0.002852 49:0.183203 50:0.302633 51:0.302633 52:0.059951 53:0.01022 54:0.001709 55:0.000741 56:0.023768 57:0.08183 58:0.253835 59:0.302633 60:0.189881 61:0.124679 62:0.074249 63:0.017595 64:0.001912 65:0.000926 66:0.014209 67:0.246732 68:0.302633 69:0.302633 70:0.302633 71:0.102827 72:0.010601 73:0.009067 74:0.00222 75:0.008321 76:0.244834 77:0.372178 78:0.372178 79:0.064524 80:0.02218 81:0.008018 82:0.029313 83:0.011807 84:0.02422 85:0.030277 86:0.079526 87:0.085595 88:0.066957 89:0.046142 90:0.032221 91:0.026033 92:0.002883 93:0.002313 94:0.241094 95:0.372178 96:0.372178 97:0.372178 98:0.236155 99:0.078446 100:0.126293 101:0.07934 102:0.014858 103:0.02043 104:0.053153 105:0.111727 106:0.172735 107:0.093351 108:0.132632 109:0.147714 110:0.042674 111:0.051492 112:0.052433 113:0.076566 114:0.102488 115:0.178963 116:0.214103 117:0.247834 118:0.030746 119:0.026838 120:0.080405 121:0.175659 122:0.205693 123:0.18609 124:0.280025 125:0.260367 126:0.08343 127:0.16806 128:0.042958 129:0.021251 130:0.022423 131:0.030875 132:0.093914 133:0.280486 134:0.280486 135:0.280486 136:0.078038 137:0.032556 138:0.032443 139:0.065026 140:0.072784 141:0.17567 142:0.280486 143:0.280486 144:0.246259 145:0.011078 146:0.008028 147:0.047788 148:0.154937 149:0.232787 150:0.177322 151:0.239306 152:0.187874 153:0.060138 154:0.005572 155:0.000442 156:0.011431 157:0.078564 158:0.214285 159:0.298335 160:0.298335 161:0.298335 162:0.06209 163:0.036036 164:0.039915 165:0.041089 166:0.05985 167:0.045356 168:0.1272 169:0.298335 170:0.298335 171:0.115449 172:0.056198 173:0.077986 174:0.042519 175:0.06486 176:0.056769 177:0.195133 178:0.298335 179:0.298335 180:0.115391 181:0.018014 182:0.000807 183:0.001306 184:0.014451 185:0.050328 186:0.212306 187:0.291151 188:0.291151 189:0.123686 190:0.127771 191:0.068215 192:0.01373 193:0.014251 194:0.018738 195:0.070608 196:0.129828 197:0.186978 198:0.184325 199:0.054493 200:0.042961 201:0.015014 202:0.019155 203:0.13794 204:0.291151 205:0.291151 206:0.291151 207:0.169516 208:0.110224 209:0.123645 210:0.072956 211:0.052866 212:0.156608 213:0.291151 214:0.268119 215:0.291151 216:0.206471 217:0.073377 218:0.022216 219:0.0091 220:0.011965 221:0.050461 222:0.220667 223:0.271414 224:0.271414 225:0.183701 226:0.046802 227:0.045572 228:0.069441 229:0.045309 230:0.070763 231:0.21138 232:0.271414 233:0.271414 234:0.172616 235:0.236062 236:0.050098 237:0.022882 238:0.029336 239:0.099272 240:0.271414 241:0.271414 242:0.165531 243:0.129776 244:0.097878 245:0.047136 246:0.068341 247:0.057156 248:0.100414 249:0.271414 250:0.271414 251:0.246233 252:0.148587 253:0.050149 254:0.127631 255:0.131171 256:0.106919 257:0.11883 258:0.228499 259:0.237344 260:0.237344 261:0.109292 262:0.091052 263:0.19166 264:0.08807 265:0.213528 266:0.237344 267:0.237344 268:0.224134 269:0.121782 270:0.087446 271:0.046025 272:0.091073 273:0.100308 274:0.090876 275:0.147833 276:0.237344 277:0.237344 278:0.224705 279:0.087049 280:0.035809 281:0.097667 282:0.043822 283:0.2202 284:0.237344 285:0.237344 286:0.237344 287:0.152151 288:0.028177 289:0.039858 290:0.055859 291:0.022697 292:0.064809 293:0.254417 294:0.254417 295:0.166284 296:0.131099 297:0.054524 298:0.064492 299:0.197287 300:0.083241 301:0.052485 302:0.226613 303:0.254417 304:0.20843 305:0.16986 306:0.13817 307:0.015334 308:0.028991 309:0.032882 310:0.254417 311:0.254417 312:0.254417 313:0.126662 314:0.039525 315:0.015983 316:0.112966 317:0.171076 318:0.100065 319:0.254417 320:0.254417 321:0.244588 322:0.219272 323:0.177412 324:0.124329 
1 1:0.075076 2:0.059746 3:0.04949 4:0.082351 5:0.141989 6:0.146355 7:0.106017 8:0.161405 9:0.168184 10:0.093233 11:0.087565 12:0.095424 13:0.088867 14:0.199263 15:0.140376 16:0.073594 17:0.102921 18:0.153518 19:0.181906 20:0.074282 21:0.045598 22:0.102331 23:0.125673 24:0.177498 25:0.314051 26:0.314051 27:0.314051 28:0.184952 29:0.126459 30:0.107697 31:0.093447 32:0.227609 33:0.197328 34:0.228575 35:0.235139 36:0.275252 37:0.060322 38:0.058312 39:0.077116 40:0.057266 41:0.125237 42:0.097009 43:0.080485 44:0.061852 45:0.061659 46:0.153435 47:0.274866 48:0.327308 49:0.064403 50:0.103967 51:0.097918 52:0.119527 53:0.052821 54:0.129681 55:0.089493 56:0.346818 57:0.295428 58:0.132578 59:0.131039 60:0.072045 61:0.064499 62:0.054928 63:0.050915 64:0.103336 65:0.424854 66:0.424854 67:0.169009 68:0.046837 69:0.018291 70:0.034076 71:0.023486 72:0.076582 73:0.042897 74:0.241934 75:0.356204 76:0.043462 77:0.028965 78:0.030996 79:0.040112 80:0.012498 81:0.042818 82:0.03202 83:0.356204 84:0.356204 85:0.054873 86:0.03052 87:0.021827 88:0.020732 89:0.002313 90:0.024596 91:0.037476 92:0.356204 93:0.356204 94:0.063228 95:0.016567 96:0.006665 97:0.008455 98:0.00467 99:0.022482 100:0.147107 101:0.356204 102:0.356204 103:0.052015 104:0.037101 105:0.01619 106:0.016313 107:0.00263 108:0.039389 109:0.039069 110:0.016888 111:0.017351 112:0.011266 113:0.018681 114:0.073606 115:0.324182 116:0.324182 117:0.131204 118:0.060728 119:0.095447 120:0.089099 121:0.03001 122:0.042008 123:0.067425 124:0.198614 125:0.109655 126:0.05516 127:0.021298 128:0.012061 129:0.014848 130:0.005867 131:0.067343 132:0.324182 133:0.324182 134:0.324182 135:0.093338 136:0.049365 137:0.136448 138:0.180048 139:0.168366 140:0.076349 141:0.31944 142:0.324182 143:0.219287 144:0.081452 145:0.051839 146:0.306296 147:0.306296 148:0.115945 149:0.051815 150:0.022181 151:0.023011 152:0.026886 153:0.021779 154:0.04124 155:0.306296 156:0.306296 157:0.130836 158:0.019371 159:0.004736 160:0.006258 161:0.01035 162:0.012128 163:0.054704 164:0.306296 165:0.306296 166:0.306296 167:0.096495 168:0.05378 169:0.110015 170:0.066504 171:0.06386 172:0.125187 173:0.306296 174:0.306296 175:0.238885 176:0.041017 177:0.013891 178:0.009776 179:0.019019 180:0.034165 181:0.118411 182:0.267112 183:0.267112 184:0.139407 185:0.074975 186:0.017357 187:0.014026 188:0.016087 189:0.031142 190:0.259174 191:0.267112 192:0.267112 193:0.170739 194:0.241482 195:0.036297 196:0.014648 197:0.007659 198:0.056269 199:0.267112 200:0.267112 201:0.237135 202:0.136378 203:0.059663 204:0.010016 205:0.009789 206:0.024437 207:0.131709 208:0.267112 209:0.217472 210:0.202506 211:0.143734 212:0.267112 213:0.044078 214:0.004786 215:0.00888 216:0.137132 217:0.032265 218:0.007486 219:0.01172 220:0.02718 221:0.128414 222:0.315257 223:0.315257 224:0.139534 225:0.063721 226:0.016193 227:0.035868 228:0.082008 229:0.175727 230:0.307466 231:0.315257 232:0.315257 233:0.146561 234:0.082944 235:0.057079 236:0.019735 237:0.019854 238:0.067622 239:0.189839 240:0.24558 241:0.171163 242:0.064103 243:0.062505 244:0.013378 245:0.001795 246:0.016923 247:0.087894 248:0.315257 249:0.315257 250:0.200977 251:0.059109 252:0.046163 253:0.014805 254:0.101178 255:0.263868 256:0.282173 257:0.282173 258:0.197943 259:0.173047 260:0.068675 261:0.05941 262:0.080558 263:0.159381 264:0.282173 265:0.282173 266:0.115789 267:0.034102 268:0.021469 269:0.022743 270:0.032969 271:0.019238 272:0.033017 273:0.1148 274:0.23085 275:0.282173 276:0.282173 277:0.151301 278:0.084784 279:0.076579 280:0.039013 281:0.085138 282:0.254468 283:0.282173 284:0.21288 285:0.041678 286:0.033946 287:0.047191 288:0.077538 289:0.252511 290:0.252511 291:0.252511 292:0.252511 293:0.036041 294:0.004892 295:0.007293 296:0.098658 297:0.217211 298:0.252511 299:0.252511 300:0.252511 301:0.056054 302:0.07527 303:0.015303 304:0.006509 305:0.067036 306:0.232557 307:0.122582 308:0.133452 309:0.252511 310:0.252511 311:0.121959 312:0.006759 313:0.079712 314:0.163127 315:0.149433 316:0.161717 317:0.231161 318:0.252511 319:0.086153 320:0.060068 321:0.013187 322:0.089908 323:0.129927 324:0.122887 
1 1:0.296235 2:0.231751 3:0.02085 4:0.009942 5:0.006989 6:0 7:0 8:0.003656 9:0.044417 10:0.317322 11:0.133415 12:0.023759 13:0.013362 14:0.01476 15:0.00327 16:0.008367 17:0.022449 18:0.105129 19:0.456158 20:0.063896 21:0.001384 22:0.004146 23:0.000182 24:0 25:0 26:0.004016 27:0.333729 28:0.456158 29:0.062309 30:0.001943 31:0.006284 32:0.003314 33:0.000218 34:0.001745 35:0.007692 36:0.42973 37:0.234161 38:0.054076 39:0.008983 40:0.011288 41:0.035219 42:0.017436 43:0.023364 44:0.036677 45:0.140387 46:0.320019 47:0.137567 48:0.03254 49:0.028977 50:0.045013 51:0.032617 52:0.038249 53:0.037054 54:0.134563 55:0.421516 56:0.062567 57:0.001296 58:0.001268 59:0.010347 60:0.004943 61:0.008867 62:0.025645 63:0.421516 64:0.421516 65:0.195587 66:0.030847 67:0.006501 68:0.011974 69:0.038995 70:0.035566 71:0.098724 72:0.421516 73:0.122969 74:0.143913 75:0.138842 76:0.032568 77:0.017837 78:0.008423 79:0.010976 80:0.010602 81:0.025868 82:0.07569 83:0.318106 84:0.349311 85:0.140895 86:0.014391 87:0.00133 88:0.001781 89:0.006971 90:0.027286 91:0.349311 92:0.236614 93:0.337612 94:0.121728 95:0.017701 96:0.020673 97:0.018607 98:0.026197 99:0.080933 100:0.120211 101:0.349311 102:0.349311 103:0.334182 104:0.0368 105:0.025431 106:0.020083 107:0.01152 108:0.037733 109:0.412484 110:0.06303 111:0 112:0 113:0 114:0 115:0 116:0.000329 117:0.190801 118:0.412484 119:0.042641 120:0.00027 121:0.001472 122:0.00081 123:0.000562 124:0.002895 125:0.006546 126:0.283137 127:0.412484 128:0.221618 129:0.004601 130:0.003552 131:0.002167 132:0.002923 133:0.005241 134:0.038077 135:0.24585 136:0.412484 137:0.115437 138:0.056814 139:0.066608 140:0.02494 141:0.030833 142:0.037584 143:0.059374 144:0.233043 145:0.309078 146:0.016808 147:0.00199 148:0.011933 149:0.013582 150:0.031101 151:0.028912 152:0.042169 153:0.309078 154:0.309078 155:0.056229 156:0.019803 157:0.024933 158:0.045856 159:0.202039 160:0.107492 161:0.126507 162:0.309078 163:0.309078 164:0.009621 165:0.112993 166:0.210277 167:0.098732 168:0.087202 169:0.070255 170:0.086453 171:0.309078 172:0.09253 173:0.019726 174:0.076488 175:0.200629 176:0.156399 177:0.290894 178:0.144986 179:0.179401 180:0.201764 181:0.213155 182:0.141638 183:0.219188 184:0.15596 185:0.071701 186:0.157957 187:0.152933 188:0.078665 189:0.095316 190:0.149105 191:0.254742 192:0.254742 193:0.254742 194:0.102712 195:0.10124 196:0.178304 197:0.079009 198:0.055339 199:0.06481 200:0.034579 201:0.039195 202:0.077177 203:0.074872 204:0.205485 205:0.231125 206:0.238224 207:0.096642 208:0.180636 209:0.214686 210:0.254506 211:0.150822 212:0.072107 213:0.111603 214:0.24547 215:0.228921 216:0.18774 217:0.304113 218:0.120047 219:0.009596 220:0.008662 221:0.006792 222:0.011097 223:0.063599 224:0.304113 225:0.304113 226:0.195055 227:0.056784 228:0.11851 229:0.111215 230:0.062478 231:0.044701 232:0.179988 233:0.250826 234:0.155962 235:0.042644 236:0.022864 237:0.01196 238:0.009084 239:0.008887 240:0.012359 241:0.194733 242:0.304113 243:0.304113 244:0.024057 245:0.012982 246:0.044776 247:0.040652 248:0.063479 249:0.043567 250:0.304113 251:0.304113 252:0.294115 253:0.077288 254:0.009918 255:0.203167 256:0.245484 257:0.123724 258:0.05109 259:0.132265 260:0.210853 261:0.191501 262:0.093004 263:0.065048 264:0.111552 265:0.163921 266:0.107753 267:0.080756 268:0.076974 269:0.203429 270:0.24957 271:0.045253 272:0.007692 273:0.067687 274:0.059525 275:0.140113 276:0.115864 277:0.274797 278:0.274797 279:0.274797 280:0.100794 281:0.050908 282:0.044005 283:0.033044 284:0.255583 285:0.252037 286:0.172145 287:0.271253 288:0.274797 289:0.191962 290:0.083572 291:0.049755 292:0.061767 293:0.084715 294:0.110118 295:0.146354 296:0.25052 297:0.24407 298:0.25052 299:0.127658 300:0.091239 301:0.072966 302:0.082803 303:0.104784 304:0.129447 305:0.25052 306:0.25052 307:0.123406 308:0.073924 309:0.042244 310:0.081937 311:0.25052 312:0.25052 313:0.096786 314:0.185303 315:0.166225 316:0.25052 317:0.094477 318:0.081347 319:0.076941 320:0.25052 321:0.204607 322:0.093207 323:0.212882 324:0.250193 
1 1:0.105945 2:0.020969 3:0.014673 4:0.01683 5:0.094868 6:0.190653 7:0.147606 8:0.250041 9:0.265489 10:0.059802 11:0.010993 12:0.007231 13:0.026013 14:0.126153 15:0.206416 16:0.127803 17:0.225148 18:0.26493 19:0.100869 20:0.028303 21:0.005696 22:0.004204 23:0.067725 24:0.265489 25:0.265489 26:0.265489 27:0.265489 28:0.044511 29:0.001584 30:0.002501 31:0.01337 32:0.177862 33:0.265489 34:0.250091 35:0.265489 36:0.223635 37:0.109652 38:0.060869 39:0.040908 40:0.091984 41:0.223963 42:0.193702 43:0.166888 44:0.220987 45:0.237599 46:0.097532 47:0.088935 48:0.140336 49:0.095579 50:0.145337 51:0.095471 52:0.174683 53:0.237599 54:0.218112 55:0.06611 56:0.03934 57:0.016642 58:0.056735 59:0.237599 60:0.237599 61:0.237599 62:0.237599 63:0.235217 64:0.148687 65:0.237599 66:0.154384 67:0.063817 68:0.080293 69:0.096778 70:0.174311 71:0.237599 72:0.200598 73:0.06565 74:0.058504 75:0.175855 76:0.137018 77:0.112394 78:0.190427 79:0.157184 80:0.122252 81:0.126694 82:0.183644 83:0.158066 84:0.257293 85:0.17793 86:0.162023 87:0.275806 88:0.126237 89:0.040273 90:0.099437 91:0.275806 92:0.275806 93:0.160333 94:0.068814 95:0.027267 96:0.033707 97:0.046411 98:0.067316 99:0.193682 100:0.275806 101:0.275806 102:0.275806 103:0.098902 104:0.02631 105:0.055062 106:0.049699 107:0.017925 108:0.27517 109:0.046547 110:0.0106 111:0.00898 112:0.009962 113:0.027233 114:0.194138 115:0.297319 116:0.297319 117:0.195356 118:0.027146 119:0 120:0.003745 121:0.006255 122:0.061732 123:0.204007 124:0.201115 125:0.283417 126:0.205803 127:0.015642 128:0 129:0.006588 130:0.00956 131:0.021257 132:0.297319 133:0.297319 134:0.297319 135:0.10039 136:0.013822 137:0 138:0.002925 139:0.009914 140:0.037309 141:0.21708 142:0.297319 143:0.297319 144:0.173536 145:0.074077 146:0.022844 147:0.005647 148:0.006543 149:0.092046 150:0.19422 151:0.207854 152:0.270845 153:0.228119 154:0.154196 155:0.270845 156:0.167109 157:0.023254 158:0.034928 159:0.102316 160:0.108731 161:0.134754 162:0.136649 163:0.125451 164:0.049627 165:0.013483 166:0.014069 167:0.046983 168:0.114058 169:0.270845 170:0.270845 171:0.270845 172:0.270845 173:0.270845 174:0.270845 175:0.074587 176:0.039271 177:0.091206 178:0.092628 179:0.138468 180:0.270845 181:0.135443 182:0.221898 183:0.110113 184:0.015683 185:0.001705 186:0.006265 187:0.0059 188:0.005526 189:0.046079 190:0.31863 191:0.31863 192:0.157433 193:0.020295 194:0.000867 195:0.000558 196:0.001238 197:0.000218 198:0.081052 199:0.165885 200:0.31863 201:0.31863 202:0.14204 203:0.020373 204:0.035699 205:0.020703 206:0.034902 207:0.057495 208:0.31863 209:0.31863 210:0.31863 211:0.178595 212:0.015142 213:0.035576 214:0.033964 215:0.106554 216:0.268243 217:0.044299 218:0.000918 219:0.001055 220:0.01606 221:0.036416 222:0.247709 223:0.355616 224:0.209628 225:0.045094 226:0.018626 227:1.7e-005 228:7e-005 229:0.004983 230:0.027118 231:0.206768 232:0.355616 233:0.355616 234:0.056355 235:0.122371 236:0.006651 237:0.00082 238:0.019325 239:0.066762 240:0.142536 241:0.279826 242:0.115151 243:0.142959 244:0.038838 245:0.00025 246:5.5e-005 247:0.010914 248:0.071341 249:0.203591 250:0.355616 251:0.355616 252:0.076672 253:0.056085 254:0.048119 255:0.028887 256:0.020597 257:0.011236 258:0.032493 259:0.267913 260:0.267913 261:0.104811 262:0.250294 263:0.267913 264:0.261824 265:0.113093 266:0.121003 267:0.058658 268:0.135302 269:0.134833 270:0.110107 271:0.017337 272:0.018385 273:0.023129 274:0.026247 275:0.036016 276:0.049451 277:0.267913 278:0.267913 279:0.105842 280:0.11279 281:0.163167 282:0.126268 283:0.15042 284:0.267913 285:0.164423 286:0.267913 287:0.267913 288:0.267913 289:0.117311 290:0.241912 291:0.249507 292:0.15 293:0.104075 294:0.071182 295:0.045869 296:0.074974 297:0.091143 298:0.258571 299:0.258571 300:0.171457 301:0.162401 302:0.046933 303:0.062118 304:0.071388 305:0.258571 306:0.258571 307:0.107917 308:0.110086 309:0.07596 310:0.111525 311:0.258571 312:0.129886 313:0.120912 314:0.181446 315:0.23353 316:0.216919 317:0.075651 318:0.064909 319:0.08358 320:0.143908 321:0.080422 322:0.146398 323:0.258571 324:0.258571 
1 1:0.141283 2:0.185207 3:0.084439 4:0.074109 5:0.05485 6:0.061155 7:0.109749 8:0.266342 9:0.21034 10:0.266342 11:0.266342 12:0.162206 13:0.009935 14:0.010835 15:0.012332 16:0.04112 17:0.180739 18:0.135884 19:0.132998 20:0.105315 21:0.116784 22:0.266342 23:0.266342 24:0.104383 25:0.127619 26:0.266342 27:0.17957 28:0.266342 29:0.266342 30:0.086032 31:0.041463 32:0.063996 33:0.047866 34:0.084714 35:0.213406 36:0.224366 37:0.271514 38:0.271514 39:0.258302 40:0.066103 41:0.024917 42:0.017106 43:0.006057 44:0.00581 45:0.039507 46:0.271514 47:0.271514 48:0.271514 49:0.172162 50:0.057948 51:0.098393 52:0.052668 53:0.037416 54:0.079668 55:0.271514 56:0.271514 57:0.179727 58:0.075977 59:0.033407 60:0.040147 61:0.039634 62:0.04757 63:0.163493 64:0.128952 65:0.185924 66:0.271514 67:0.20403 68:0.146982 69:0.24165 70:0.155883 71:0.062261 72:0.091258 73:0.160995 74:0.119908 75:0.161109 76:0.059799 77:0.034311 78:0.071878 79:0.050014 80:0.083607 81:0.08985 82:0.178617 83:0.154691 84:0.086554 85:0.036302 86:0.028207 87:0.042235 88:0.049099 89:0.146401 90:0.154141 91:0.077563 92:0.261894 93:0.397025 94:0.121059 95:0.075708 96:0.118956 97:0.074372 98:0.045321 99:0.026641 100:0.397025 101:0.397025 102:0.397025 103:0.080207 104:0.031769 105:0.042586 106:0.027408 107:0.069736 108:0.157 109:0.065073 110:0.069842 111:0.158063 112:0.250718 113:0.250718 114:0.183093 115:0.080995 116:0.081716 117:0.057544 118:0.250718 119:0.162721 120:0.10589 121:0.126713 122:0.250718 123:0.117904 124:0.094301 125:0.117633 126:0.134855 127:0.150871 128:0.153653 129:0.242718 130:0.250718 131:0.250718 132:0.141387 133:0.060359 134:0.049542 135:0.114352 136:0.193013 137:0.250718 138:0.192004 139:0.113011 140:0.207244 141:0.124355 142:0.141236 143:0.158746 144:0.172757 145:0.155441 146:0.127024 147:0.070075 148:0.043111 149:0.036987 150:0.019064 151:0.046882 152:0.058504 153:0.104542 154:0.107328 155:0.194175 156:0.198374 157:0.291065 158:0.153317 159:0.107411 160:0.087528 161:0.052026 162:0.081678 163:0.13797 164:0.295241 165:0.188619 166:0.062235 167:0.036182 168:0.020401 169:0.061961 170:0.100275 171:0.156002 172:0.135791 173:0.340183 174:0.340183 175:0.340183 176:0.340183 177:0.115412 178:0.083757 179:0.065376 180:0.119671 181:0.026192 182:0.187341 183:0.317285 184:0.159621 185:0.046714 186:0.026628 187:0.014724 188:0.007571 189:0.008996 190:0.125764 191:0.317285 192:0.317285 193:0.099214 194:0.010981 195:0.004999 196:0.004428 197:0.008372 198:0.024695 199:0.012836 200:0.145394 201:0.317285 202:0.317285 203:0.27394 204:0.068438 205:0.016347 206:0.01051 207:0.01296 208:0.057047 209:0.286523 210:0.317285 211:0.317285 212:0.092346 213:0.043185 214:0.011476 215:0.034768 216:0.049685 217:0.270178 218:0.252427 219:0.156494 220:0.065475 221:0.032203 222:0.035071 223:0.023046 224:0.030101 225:0.149642 226:0.272328 227:0.307475 228:0.177756 229:0.032058 230:0.016418 231:0.043205 232:0.042683 233:0.074712 234:0.135142 235:0.228537 236:0.307475 237:0.261305 238:0.231501 239:0.132607 240:0.028464 241:0.009578 242:0.032261 243:0.100863 244:0.257067 245:0.307475 246:0.307475 247:0.119569 248:0.05216 249:0.016852 250:0.003264 251:0.022916 252:0.069713 253:0.207848 254:0.257958 255:0.12969 256:0.021908 257:0.008165 258:0.009724 259:0.015295 260:0.053224 261:0.112969 262:0.201687 263:0.254167 264:0.257958 265:0.257958 266:0.257958 267:0.167908 268:0.091341 269:0.069797 270:0.104612 271:0.257958 272:0.257958 273:0.201286 274:0.029989 275:0.010731 276:0.003911 277:0.002204 278:0.02936 279:0.102623 280:0.257958 281:0.237802 282:0.195454 283:0.158761 284:0.17966 285:0.140236 286:0.167575 287:0.147289 288:0.151271 289:0.04739 290:0.041133 291:0.160358 292:0.289805 293:0.289805 294:0.231632 295:0.101621 296:0.085537 297:0.108432 298:0.289805 299:0.075321 300:0.152735 301:0.199405 302:0.150245 303:0.140764 304:0.063492 305:0.101462 306:0.289805 307:0.119807 308:0.071415 309:0.068442 310:0.07448 311:0.151268 312:0.171387 313:0.178305 314:0.186749 315:0.234095 316:0.289805 317:0.111035 318:0.028087 319:0.011254 320:0.054987 321:0.085812 322:0.082589 323:0.145387 324:0.289805 
1 1:0.157847 2:0.282878 3:0.184937 4:0.040818 5:0.102566 6:0.033888 7:0.03026 8:0.037824 9:0.051302 10:0.154638 11:0.24423 12:0.282878 13:0.156376 14:0.268692 15:0.087033 16:0.103375 17:0.13978 18:0.220808 19:0.213444 20:0.18317 21:0.117285 22:0.065709 23:0.080611 24:0.102527 25:0.071449 26:0.107545 27:0.169321 28:0.100149 29:0.171535 30:0.282878 31:0.282878 32:0.197746 33:0.171315 34:0.130198 35:0.131496 36:0.176677 37:0.172687 38:0.224967 39:0.286715 40:0.091527 41:0.078843 42:0.029018 43:0.043354 44:0.107934 45:0.21718 46:0.288444 47:0.288444 48:0.280391 49:0.056608 50:0.026436 51:0.006615 52:0.028359 53:0.048118 54:0.112024 55:0.061546 56:0.215214 57:0.288444 58:0.288444 59:0.085082 60:0.051495 61:0.037544 62:0.056848 63:0.085298 64:0.237734 65:0.288444 66:0.288444 67:0.091999 68:0.067455 69:0.054332 70:0.032203 71:0.026333 72:0.1216 73:0.275658 74:0.275658 75:0.275658 76:0.128469 77:0.064791 78:0.045253 79:0.122981 80:0.032678 81:0.039297 82:0.063918 83:0.183449 84:0.197624 85:0.235589 86:0.175355 87:0.150366 88:0.237553 89:0.047 90:0.011081 91:0.275658 92:0.275658 93:0.05789 94:0.040158 95:0.050201 96:0.064295 97:0.147806 98:0.07527 99:0.275658 100:0.107866 101:0.047315 102:0.02322 103:0.028834 104:0.071152 105:0.14124 106:0.275658 107:0.158294 108:0.275658 109:0.055939 110:0.019456 111:0.027797 112:0.056204 113:0.069823 114:0.095379 115:0.186822 116:0.252105 117:0.096481 118:0.023887 119:0.019496 120:0.252704 121:0.293783 122:0.289363 123:0.126285 124:0.09585 125:0.087734 126:0.055213 127:0.014169 128:0.003015 129:0.023065 130:0.074354 131:0.129389 132:0.110366 133:0.293783 134:0.293783 135:0.070657 136:0.00427 137:0.001393 138:0.076366 139:0.293783 140:0.293783 141:0.171949 142:0.293783 143:0.293783 144:0.060838 145:0.013332 146:0.055465 147:0.292434 148:0.292434 149:0.292434 150:0.117589 151:0.087911 152:0.04408 153:0.026279 154:0.097289 155:0.079387 156:0.160213 157:0.095103 158:0.13137 159:0.163397 160:0.215085 161:0.094581 162:0.087617 163:0.005615 164:0.007074 165:0.059149 166:0.292434 167:0.292434 168:0.128925 169:0.292434 170:0.292434 171:0.045371 172:0.013733 173:0.009981 174:0.012003 175:0.028146 176:0.061074 177:0.118094 178:0.292434 179:0.292434 180:0.038676 181:0.142377 182:0.04547 183:0.035825 184:0.04571 185:0.06792 186:0.084169 187:0.212176 188:0.193263 189:0.336355 190:0.115923 191:0.025396 192:0.019252 193:0.020222 194:0.022029 195:0.032501 196:0.115629 197:0.223706 198:0.336355 199:0.030782 200:0.010044 201:0.013602 202:0.022528 203:0.038474 204:0.067866 205:0.336355 206:0.336355 207:0.297396 208:0.071278 209:0.015842 210:0.008946 211:0.021849 212:0.015213 213:0.025899 214:0.12318 215:0.336355 216:0.336355 217:0.003831 218:0.004082 219:0.022607 220:0.164788 221:0.195269 222:0.105277 223:0.295552 224:0.205198 225:0.019557 226:0.006987 227:0.00729 228:0.023562 229:0.107613 230:0.185109 231:0.269501 232:0.295552 233:0.295552 234:0.050589 235:0.002885 236:0.005447 237:0.02513 238:0.295552 239:0.295552 240:0.041772 241:0.046262 242:0.011088 243:0.002235 244:0.011396 245:0.017044 246:0.06112 247:0.263493 248:0.212028 249:0.271589 250:0.295552 251:0.183904 252:0.032339 253:0.008176 254:0.006409 255:0.005231 256:0.02006 257:0.040094 258:0.102865 259:0.346296 260:0.346296 261:0.042749 262:0.005919 263:0.002712 264:0.001592 265:0.010044 266:0.018977 267:0.062407 268:0.346296 269:0.270627 270:0.023105 271:0.012962 272:0.011515 273:0.02463 274:0.047216 275:0.035566 276:0.258419 277:0.346296 278:0.27026 279:0.044559 280:0.006392 281:0.002254 282:0.002454 283:0.015575 284:0.057557 285:0.344254 286:0.346296 287:0.187943 288:0.02369 289:0.01559 290:0.004887 291:0.008374 292:0.028084 293:0.048824 294:0.093666 295:0.352413 296:0.316681 297:0.213397 298:0.034605 299:0.005854 300:0.01042 301:0.0324 302:0.059692 303:0.07152 304:0.093504 305:0.367087 306:0.367087 307:0.01479 308:0.00432 309:0.007023 310:0.037588 311:0.18101 312:0.367087 313:0.367087 314:0.113941 315:0.058645 316:0.017704 317:0.009566 318:0.009505 319:0.046843 320:0.139076 321:0.219031 322:0.152233 323:0.082956 324:0.065261 
1 1:0.033076 2:0.011445 3:0.011506 4:0.022024 5:0.042366 6:0.187396 7:0.348217 8:0.22492 9:0.081506 10:0.035488 11:0.041027 12:0.045266 13:0.037374 14:0.057577 15:0.096009 16:0.302092 17:0.137083 18:0.036816 19:0.014137 20:0.000996 21:0.001739 22:0.012198 23:0.192616 24:0.348217 25:0.348217 26:0.260759 27:0.057622 28:0.015079 29:0.019658 30:0.05267 31:0.043926 32:0.152936 33:0.314376 34:0.348217 35:0.212227 36:0.061947 37:0.042769 38:0.064062 39:0.127399 40:0.049936 41:0.078048 42:0.044773 43:0.070137 44:0.042435 45:0.034372 46:0.07726 47:0.160544 48:0.377666 49:0.138775 50:0.096044 51:0.04518 52:0.042833 53:0.016137 54:0.032474 55:0.048293 56:0.12318 57:0.377666 58:0.171813 59:0.130488 60:0.136855 61:0.191897 62:0.101211 63:0.086586 64:0.231074 65:0.261822 66:0.377666 67:0.342857 68:0.199903 69:0.113541 70:0.069058 71:0.049162 72:0.159302 73:0.078699 74:0.235255 75:0.306576 76:0.139571 77:0.092885 78:0.051877 79:0.071201 80:0.037181 81:0.02528 82:0.089128 83:0.247644 84:0.306576 85:0.09632 86:0.114712 87:0.127196 88:0.306576 89:0.178881 90:0.084233 91:0.136604 92:0.133074 93:0.306576 94:0.146477 95:0.183342 96:0.174728 97:0.113597 98:0.040952 99:0.092532 100:0.039792 101:0.046501 102:0.063666 103:0.064716 104:0.152034 105:0.282952 106:0.306576 107:0.127512 108:0.063637 109:0.007903 110:0.004406 111:0.010226 112:0.018086 113:0.124559 114:0.268833 115:0.356524 116:0.140232 117:0.036726 118:0.013718 119:0.024268 120:0.083498 121:0.059892 122:0.14753 123:0.303639 124:0.356524 125:0.129176 126:0.04322 127:0.020008 128:0.010538 129:0.01573 130:0.015631 131:0.054502 132:0.218613 133:0.356524 134:0.101902 135:0.039299 136:0.016788 137:0.020347 138:0.063022 139:0.045986 140:0.157181 141:0.356524 142:0.356524 143:0.106721 144:0.033948 145:0.044736 146:0.129628 147:0.278014 148:0.172505 149:0.137769 150:0.189961 151:0.186484 152:0.055926 153:0.057881 154:0.118995 155:0.158511 156:0.278014 157:0.278014 158:0.196204 159:0.091761 160:0.07454 161:0.056894 162:0.120452 163:0.038578 164:0.102532 165:0.187617 166:0.107135 167:0.225413 168:0.278014 169:0.278014 170:0.099756 171:0.077823 172:0.045184 173:0.121576 174:0.229745 175:0.20465 176:0.213332 177:0.16964 178:0.146525 179:0.120822 180:0.09506 181:0.145583 182:0.089309 183:0.24598 184:0.24598 185:0.24598 186:0.24598 187:0.158776 188:0.103126 189:0.192965 190:0.064394 191:0.033602 192:0.029912 193:0.114221 194:0.238411 195:0.24598 196:0.24598 197:0.12063 198:0.086083 199:0.058582 200:0.08768 201:0.193822 202:0.239311 203:0.24598 204:0.218632 205:0.168219 206:0.116596 207:0.098148 208:0.095927 209:0.090418 210:0.060398 211:0.085667 212:0.180568 213:0.24598 214:0.18454 215:0.08616 216:0.074117 217:0.018264 218:0.006219 219:0.010806 220:0.025936 221:0.075721 222:0.230593 223:0.261771 224:0.032347 225:0.021722 226:0.007263 227:0.007098 228:0.018202 229:0.059217 230:0.246728 231:0.399997 232:0.399997 233:0.063259 234:0.014335 235:0.01603 236:0.007999 237:0.026085 238:0.061239 239:0.182809 240:0.157694 241:0.069991 242:0.024432 243:0.022504 244:0.010067 245:0.008161 246:0.014758 247:0.093644 248:0.274345 249:0.399997 250:0.399997 251:0.055938 252:0.017 253:0.005894 254:0.024756 255:0.040631 256:0.048078 257:0.193732 258:0.329308 259:0.329308 260:0.073032 261:0.025149 262:0.016051 263:0.038301 264:0.073638 265:0.073633 266:0.151492 267:0.261128 268:0.138544 269:0.086676 270:0.037353 271:0.002962 272:0.003393 273:0.008287 274:0.070194 275:0.267942 276:0.329308 277:0.329308 278:0.029341 279:0.003958 280:0.010525 281:0.011833 282:0.022403 283:0.071322 284:0.285755 285:0.329308 286:0.329308 287:0.030315 288:0.005359 289:0.041023 290:0.061448 291:0.157715 292:0.190986 293:0.311573 294:0.311573 295:0.206489 296:0.110954 297:0.048338 298:0.047826 299:0.06523 300:0.070903 301:0.092124 302:0.241092 303:0.252209 304:0.116863 305:0.054087 306:0.035663 307:0.01958 308:0.041081 309:0.080678 310:0.167853 311:0.311573 312:0.311573 313:0.279792 314:0.065063 315:0.018025 316:0.02508 317:0.03537 318:0.06817 319:0.106669 320:0.311573 321:0.246709 322:0.149577 323:0.048066 324:0.06863 
1 1:0.030344 2:0.021567 3:0.121809 4:0.296759 5:0.261654 6:0.054301 7:0.008202 8:0.010786 9:0.015273 10:0.015234 11:0.020921 12:0.180609 13:0.296759 14:0.279275 15:0.096899 16:0.03569 17:0.012159 18:0.001651 19:0.07372 20:0.056627 21:0.064392 22:0.296759 23:0.296759 24:0.281463 25:0.076853 26:0.016501 27:0.052211 28:0.195627 29:0.044434 30:0.06564 31:0.296759 32:0.296759 33:0.285969 34:0.090298 35:0.040725 36:0.146398 37:0.021923 38:0.050954 39:0.221297 40:0.236164 41:0.236164 42:0.167967 43:0.130831 44:0.05532 45:0.023755 46:0.016212 47:0.044909 48:0.155776 49:0.236164 50:0.236164 51:0.221479 52:0.230048 53:0.13161 54:0.066183 55:0.236164 56:0.053482 57:0.047748 58:0.073367 59:0.203609 60:0.222435 61:0.173385 62:0.19529 63:0.236164 64:0.108139 65:0.063938 66:0.038302 67:0.02081 68:0.140588 69:0.193255 70:0.236164 71:0.236164 72:0.236164 73:0.078999 74:0.02049 75:0.076613 76:0.268767 77:0.283173 78:0.193657 79:0.177844 80:0.128006 81:0.191885 82:0.215332 83:0.039091 84:0.058549 85:0.092053 86:0.071494 87:0.051247 88:0.052372 89:0.12906 90:0.29788 91:0.167144 92:0.027157 93:0.031936 94:0.018819 95:0.091595 96:0.135335 97:0.245089 98:0.28583 99:0.29788 100:0.280918 101:0.013683 102:0.021521 103:0.028451 104:0.048455 105:0.048995 106:0.060385 107:0.263271 108:0.29788 109:0.206755 110:0.154674 111:0.084872 112:0.154655 113:0.267949 114:0.267949 115:0.155475 116:0.024731 117:0.162053 118:0.267949 119:0.122658 120:0.049932 121:0.091403 122:0.211431 123:0.267949 124:0.168307 125:0.112663 126:0.267949 127:0.158256 128:0.267949 129:0.180875 130:0.075441 131:0.023056 132:0.068911 133:0.0548 134:0.030356 135:0.12277 136:0.267949 137:0.12938 138:0.099451 139:0.038393 140:0.083742 141:0.122406 142:0.11647 143:0.105358 144:0.267949 145:0.260578 146:0.037308 147:0.012617 148:0.00754 149:0.022784 150:0.079556 151:0.232306 152:0.231924 153:0.301036 154:0.07424 155:0.032533 156:0.024798 157:0.01475 158:0.008179 159:0.088871 160:0.301036 161:0.220375 162:0.165471 163:0.174318 164:0.057085 165:0.050301 166:0.010125 167:0.077649 168:0.151426 169:0.301036 170:0.271631 171:0.282579 172:0.051862 173:0.030541 174:0.025623 175:0.015406 176:0.019174 177:0.168648 178:0.301036 179:0.301036 180:0.127496 181:0.166445 182:0.065452 183:0.100695 184:0.067642 185:0.050929 186:0.089787 187:0.211238 188:0.22541 189:0.343003 190:0.127211 191:0.055826 192:0.120898 193:0.125823 194:0.132119 195:0.06507 196:0.046174 197:0.151114 198:0.343003 199:0.067583 200:0.073795 201:0.090585 202:0.085186 203:0.079121 204:0.152724 205:0.343003 206:0.343003 207:0.162066 208:0.072692 209:0.12054 210:0.212339 211:0.165941 212:0.143633 213:0.068689 214:0.233969 215:0.14427 216:0.045904 217:0.129591 218:0.249716 219:0.165763 220:0.046589 221:0.025646 222:0.028801 223:0.062243 224:0.093938 225:0.110997 226:0.190198 227:0.155396 228:0.162885 229:0.08014 230:0.249716 231:0.249716 232:0.249716 233:0.128754 234:0.162546 235:0.182324 236:0.134479 237:0.085117 238:0.091692 239:0.088578 240:0.052693 241:0.117084 242:0.198863 243:0.199361 244:0.169836 245:0.14889 246:0.115479 247:0.151223 248:0.249716 249:0.249716 250:0.249716 251:0.249716 252:0.177754 253:0.058293 254:0.05415 255:0.053675 256:0.020012 257:0.137057 258:0.247943 259:0.286079 260:0.131591 261:0.082552 262:0.025165 263:0.026343 264:0.023487 265:0.0181 266:0.041875 267:0.207997 268:0.286079 269:0.286079 270:0.060279 271:0.057648 272:0.04128 273:0.035618 274:0.036418 275:0.107601 276:0.286079 277:0.286079 278:0.266189 279:0.123538 280:0.099269 281:0.061141 282:0.074703 283:0.070603 284:0.130199 285:0.286079 286:0.286079 287:0.274782 288:0.193542 289:0.008844 290:0.013027 291:0.017602 292:0.025896 293:0.038709 294:0.128474 295:0.289876 296:0.289876 297:0.043069 298:0.026334 299:0.028226 300:0.040473 301:0.037994 302:0.049007 303:0.093072 304:0.289876 305:0.178016 306:0.026524 307:0.094591 308:0.067047 309:0.057474 310:0.109082 311:0.178859 312:0.289876 313:0.289876 314:0.265402 315:0.12499 316:0.03814 317:0.022504 318:0.019616 319:0.219488 320:0.289876 321:0.289876 322:0.289876 323:0.232399 324:0.067348 
0.6270859569756337 1:0.304239 2:0.240948 3:0.03082 4:0.006677 5:0.0106 6:0.001306 7:0.000268 8:0.006528 9:0.15804 10:0.304239 11:0.304239 12:0.079704 13:0.047612 14:0.032968 15:0.011959 16:0.002 17:0.006181 18:0.123338 19:0.304239 20:0.191762 21:0.018989 22:0.005391 23:0.000116 24:0 25:0.015505 26:0.304239 27:0.304239 28:0.304239 29:0.304239 30:0.064906 31:0.026943 32:0.00981 33:0.000416 34:0.010407 35:0.10987 36:0.304239 37:0.104732 38:0.193157 39:0.141752 40:0.096913 41:0.036093 42:0.022619 43:0.012412 44:0.014518 45:0.036858 46:0.041788 47:0.166205 48:0.367699 49:0.367699 50:0.100615 51:0.064787 52:0.030663 53:0.020762 54:0.01669 55:0.167093 56:0.18794 57:0.211754 58:0.340484 59:0.074599 60:0.017433 61:0.011849 62:0.033601 63:0.124037 64:0.106755 65:0.11505 66:0.367699 67:0.367699 68:0.184161 69:0.119788 70:0.03733 71:0.052946 72:0.072424 73:0.016035 74:0.106165 75:0.302414 76:0.302414 77:0.190688 78:0.097898 79:0.03877 80:0.034845 81:0.005311 82:0.008493 83:0.023354 84:0.241802 85:0.265825 86:0.302414 87:0.185446 88:0.059336 89:0.082521 90:0.009867 91:0.083519 92:0.066731 93:0.302414 94:0.302414 95:0.111355 96:0.125723 97:0.125059 98:0.139747 99:0.047097 100:0.039973 101:0.052457 102:0.130077 103:0.168765 104:0.136866 105:0.082251 106:0.244851 107:0.302414 108:0.035247 109:0.104921 110:0.016253 111:0.002706 112:0.002616 113:0.000552 114:0.001075 115:0.021562 116:0.347908 117:0.34503 118:0.078137 119:0.048584 120:0.016394 121:0.018085 122:0.0094 123:0.006606 124:0.040081 125:0.347908 126:0.24285 127:0.111113 128:0.033418 129:0.007819 130:0.005159 131:0.001864 132:0.001382 133:0.019599 134:0.347908 135:0.338555 136:0.070536 137:0.020825 138:0.006607 139:0.016517 140:0.011595 141:0.017613 142:0.236684 143:0.347908 144:0.347908 145:0.042101 146:0.045429 147:0.085462 148:0.294281 149:0.12083 150:0.036787 151:0.076161 152:0.197478 153:0.09291 154:0.064099 155:0.037339 156:0.205977 157:0.294281 158:0.195403 159:0.09368 160:0.063188 161:0.060423 162:0.043468 163:0.02063 164:0.013433 165:0.024776 166:0.178001 167:0.152215 168:0.143291 169:0.294281 170:0.294281 171:0.136689 172:0.044758 173:0.040028 174:0.131184 175:0.254792 176:0.244818 177:0.284414 178:0.294281 179:0.232574 180:0.056269 181:0.170407 182:0.109478 183:0.227227 184:0.227227 185:0.124923 186:0.136486 187:0.124782 188:0.146259 189:0.114941 190:0.099229 191:0.14457 192:0.170918 193:0.079257 194:0.075114 195:0.057832 196:0.178375 197:0.227227 198:0.075657 199:0.182074 200:0.115096 201:0.227227 202:0.207166 203:0.192504 204:0.227227 205:0.227227 206:0.227227 207:0.180591 208:0.167637 209:0.102553 210:0.143399 211:0.094013 212:0.090624 213:0.130805 214:0.219835 215:0.227227 216:0.214042 217:0.304573 218:0.192865 219:0.044416 220:0.01176 221:0.005486 222:0.000541 223:0.006995 224:0.304573 225:0.304573 226:0.304573 227:0.137229 228:0.038382 229:0.009599 230:0.010375 231:0.031084 232:0.304573 233:0.304573 234:0.304573 235:0.220623 236:0.190874 237:0.073791 238:0.04473 239:0.043031 240:0.021708 241:0.005872 242:0.026574 243:0.094348 244:0.302244 245:0.192446 246:0.085919 247:0.063318 248:0.032371 249:0.017222 250:0.046305 251:0.085631 252:0.177836 253:0.039487 254:0.037072 255:0.015515 256:0.017785 257:0.055653 258:0.221936 259:0.337868 260:0.337868 261:0.113921 262:0.015682 263:0.028928 264:0.055516 265:0.044063 266:0.12062 267:0.337868 268:0.337868 269:0.274045 270:0.061854 271:0.061681 272:0.055091 273:0.035174 274:0.032278 275:0.046314 276:0.191832 277:0.172637 278:0.112995 279:0.065829 280:0.011394 281:0.016533 282:0.020338 283:0.019371 284:0.122344 285:0.337868 286:0.337868 287:0.170869 288:0.054491 289:0.069179 290:0.047513 291:0.110415 292:0.095744 293:0.105379 294:0.310522 295:0.310522 296:0.275049 297:0.092818 298:0.095963 299:0.060812 300:0.05128 301:0.123864 302:0.088141 303:0.137816 304:0.229256 305:0.220683 306:0.12248 307:0.050294 308:0.024176 309:0.025634 310:0.033281 311:0.142707 312:0.310522 313:0.310522 314:0.248161 315:0.101779 316:0.101397 317:0.064694 318:0.03827 319:0.091403 320:0.109488 321:0.205124 322:0.310522 323:0.172456 324:0.108735 
0.3981561176744608 1:0.212675 2:0.29005 3:0.226301 4:0.029098 5:0.031274 6:0.002085 7:0.007703 8:0.031047 9:0.054246 10:0.25834 11:0.29005 12:0.233763 13:0.05562 14:0.040027 15:0.007959 16:0.00258 17:0.00305 18:0.028505 19:0.273566 20:0.29005 21:0.14673 22:0.024648 23:0.001535 24:0.014364 25:0.046616 26:0.250971 27:0.212972 28:0.29005 29:0.29005 30:0.273518 31:0.066736 32:0.027298 33:0.025793 34:0.024672 35:0.165843 36:0.175376 37:0.116691 38:0.338222 39:0.216224 40:0.038097 41:0.022432 42:0.021337 43:0.006413 44:0.003357 45:0.021611 46:0.115972 47:0.254248 48:0.338222 49:0.177677 50:0.058811 51:0.056291 52:0.03331 53:0.010555 54:0.036543 55:0.156293 56:0.338222 57:0.338222 58:0.100705 59:0.034368 60:0.030112 61:0.016276 62:0.047215 63:0.077497 64:0.157445 65:0.207988 66:0.338222 67:0.338222 68:0.068106 69:0.052879 70:0.039507 71:0.051549 72:0.057042 73:0.041859 74:0.075388 75:0.326898 76:0.270931 77:0.059028 78:0.030893 79:0.015665 80:0.006158 81:0.017351 82:0.014366 83:0.037262 84:0.326898 85:0.326898 86:0.279093 87:0.076327 88:0.009285 89:0.005309 90:0.012476 91:0.064875 92:0.083264 93:0.326898 94:0.306476 95:0.052809 96:0.031084 97:0.027457 98:0.025779 99:0.026043 100:0.026316 101:0.043099 102:0.271039 103:0.314328 104:0.326898 105:0.062541 106:0.024204 107:0.020536 108:0.017976 109:0.180531 110:0.082049 111:0.040936 112:0.015447 113:0.004694 114:0.018875 115:0.106803 116:0.30003 117:0.298437 118:0.30003 119:0.202491 120:0.103088 121:0.044369 122:0.047476 123:0.034714 124:0.072164 125:0.30003 126:0.30003 127:0.078547 128:0.012737 129:0.003357 130:0.006184 131:0.008255 132:0.019608 133:0.215346 134:0.30003 135:0.183101 136:0.148374 137:0.032914 138:0.030151 139:0.032412 140:0.067718 141:0.037532 142:0.217854 143:0.30003 144:0.295458 145:0.107665 146:0.114251 147:0.301277 148:0.119394 149:0.083285 150:0.039734 151:0.036797 152:0.162823 153:0.130662 154:0.113475 155:0.178149 156:0.303851 157:0.303851 158:0.107876 159:0.060506 160:0.050453 161:0.147701 162:0.087208 163:0.052486 164:0.038507 165:0.166825 166:0.11049 167:0.124635 168:0.053034 169:0.112878 170:0.303851 171:0.122256 172:0.04057 173:0.175822 174:0.303851 175:0.173088 176:0.133437 177:0.14485 178:0.23436 179:0.303851 180:0.117461 181:0.115352 182:0.163373 183:0.302549 184:0.212716 185:0.05668 186:0.121609 187:0.120926 188:0.081708 189:0.078198 190:0.061283 191:0.034613 192:0.050207 193:0.237977 194:0.302549 195:0.175348 196:0.106431 197:0.030976 198:0.037066 199:0.056035 200:0.147798 201:0.165887 202:0.066378 203:0.062463 204:0.302549 205:0.302549 206:0.219321 207:0.081641 208:0.053871 209:0.015712 210:0.011102 211:0.122321 212:0.302549 213:0.302549 214:0.269992 215:0.027813 216:0.033224 217:0.07996 218:0.04428 219:0.012581 220:0.014034 221:0.027887 222:0.053436 223:0.226424 224:0.350513 225:0.191566 226:0.104664 227:0.036142 228:0.033666 229:0.033153 230:0.052083 231:0.045143 232:0.350513 233:0.350513 234:0.350513 235:0.078474 236:0.0413 237:0.017962 238:0.029352 239:0.056074 240:0.116744 241:0.277796 242:0.232702 243:0.08795 244:0.096461 245:0.024893 246:0.032277 247:0.042143 248:0.060761 249:0.083832 250:0.203886 251:0.350513 252:0.180943 253:0.03607 254:0.035792 255:0.042344 256:0.058455 257:0.071563 258:0.036905 259:0.272326 260:0.331745 261:0.169498 262:0.018235 263:0.074315 264:0.050905 265:0.091879 266:0.10115 267:0.246549 268:0.331745 269:0.331745 270:0.153615 271:0.03679 272:0.020863 273:0.01432 274:0.019587 275:0.032682 276:0.040461 277:0.14712 278:0.331745 279:0.14589 280:0.042585 281:0.04028 282:0.008906 283:0.03317 284:0.054937 285:0.145644 286:0.331745 287:0.331745 288:0.175584 289:0.007954 290:0.018955 291:0.020042 292:0.027394 293:0.071157 294:0.316278 295:0.316278 296:0.173799 297:0.035228 298:0.017839 299:0.002015 300:0.012872 301:0.046596 302:0.247884 303:0.316278 304:0.285202 305:0.034234 306:0.014865 307:0.009346 308:0.006508 309:0.012129 310:0.01483 311:0.094392 312:0.300744 313:0.316278 314:0.20558 315:0.041327 316:0.011705 317:0.00328 318:0.014596 319:0.024741 320:0.243493 321:0.316278 322:0.316278 323:0.085456 324:0.018304 
0.4477295989952728 1:0.019895 2:0.004458 3:0.007222 4:0.0129 5:0.030009 6:0.316418 7:0.348754 8:0.172289 9:0.038724 10:0.042616 11:0.045558 12:0.043054 13:0.020773 14:0.030806 15:0.147499 16:0.348754 17:0.133819 18:0.041872 19:0.006762 20:0.000535 21:0.000773 22:0.010003 23:0.051324 24:0.348754 25:0.348754 26:0.191029 27:0.031164 28:0.01062 29:0.016667 30:0.010004 31:0.018451 32:0.068511 33:0.348754 34:0.348754 35:0.19713 36:0.027044 37:0.077506 38:0.100223 39:0.101861 40:0.062344 41:0.063689 42:0.080274 43:0.145284 44:0.067358 45:0.064474 46:0.0844 47:0.201077 48:0.323325 49:0.163997 50:0.09388 51:0.091713 52:0.044534 53:0.043439 54:0.083706 55:0.044415 56:0.09729 57:0.242498 58:0.099162 59:0.078374 60:0.208382 61:0.323325 62:0.199676 63:0.073488 64:0.172867 65:0.319348 66:0.323325 67:0.323325 68:0.128444 69:0.146446 70:0.138026 71:0.10164 72:0.177035 73:0.05344 74:0.224246 75:0.304999 76:0.191502 77:0.051486 78:0.058458 79:0.017572 80:0.023597 81:0.03875 82:0.09452 83:0.266562 84:0.304999 85:0.22045 86:0.055069 87:0.061203 88:0.238151 89:0.158863 90:0.070656 91:0.152432 92:0.221535 93:0.304999 94:0.21324 95:0.118148 96:0.126896 97:0.069576 98:0.029104 99:0.131934 100:0.084947 101:0.099378 102:0.201318 103:0.095379 104:0.106394 105:0.195615 106:0.304999 107:0.105729 108:0.076626 109:0.006641 110:0.001712 111:0.000876 112:0.011366 113:0.054311 114:0.311727 115:0.354316 116:0.126596 117:0.020494 118:0.002773 119:0.007817 120:0.027351 121:0.017155 122:0.119861 123:0.354316 124:0.354316 125:0.186272 126:0.009058 127:0.01348 128:0.007271 129:0.007913 130:0.037138 131:0.090731 132:0.172813 133:0.288128 134:0.098775 135:0.019481 136:0.002731 137:0.008479 138:0.032396 139:0.025614 140:0.185556 141:0.354316 142:0.354316 143:0.180405 144:0.00836 145:0.026648 146:0.050651 147:0.231085 148:0.067297 149:0.117451 150:0.203406 151:0.299884 152:0.1124 153:0.031455 154:0.117852 155:0.126096 156:0.299884 157:0.240351 158:0.101226 159:0.079383 160:0.08945 161:0.063969 162:0.098878 163:0.030131 164:0.02714 165:0.151488 166:0.07121 167:0.280278 168:0.299884 169:0.299884 170:0.103957 171:0.027501 172:0.098347 173:0.077318 174:0.226645 175:0.172151 176:0.22003 177:0.263637 178:0.171358 179:0.114696 180:0.066599 181:0.241792 182:0.159236 183:0.241792 184:0.241792 185:0.241792 186:0.150049 187:0.121127 188:0.060476 189:0.223725 190:0.136914 191:0.065355 192:0.082215 193:0.116463 194:0.241792 195:0.215845 196:0.241792 197:0.065532 198:0.107919 199:0.142773 200:0.122923 201:0.209681 202:0.241792 203:0.241792 204:0.156554 205:0.146997 206:0.119143 207:0.094838 208:0.091325 209:0.081848 210:0.083612 211:0.177772 212:0.236425 213:0.131819 214:0.129375 215:0.071689 216:0.101013 217:0.025427 218:0.022158 219:0.024879 220:0.067327 221:0.138733 222:0.283691 223:0.105408 224:0.050917 225:0.015042 226:0.022363 227:0.027291 228:0.024508 229:0.050493 230:0.247732 231:0.363761 232:0.363761 233:0.140072 234:0.026523 235:0.037571 236:0.015421 237:0.02326 238:0.063639 239:0.247342 240:0.363761 241:0.064147 242:0.023045 243:0.015196 244:0.049014 245:0.028967 246:0.043607 247:0.083209 248:0.222325 249:0.363761 250:0.33753 251:0.108379 252:0.039735 253:0.009198 254:0.007888 255:0.027469 256:0.03624 257:0.183979 258:0.334157 259:0.334157 260:0.039558 261:0.011619 262:0.035426 263:0.024451 264:0.055677 265:0.062297 266:0.155751 267:0.334157 268:0.194939 269:0.058984 270:0.024037 271:0.005849 272:0.007 273:0.017977 274:0.038057 275:0.168777 276:0.334157 277:0.334157 278:0.05059 279:0.00839 280:0.004243 281:0.009964 282:0.038884 283:0.057972 284:0.250465 285:0.334157 286:0.334157 287:0.037178 288:0.006746 289:0.071399 290:0.045911 291:0.087709 292:0.151649 293:0.302863 294:0.309585 295:0.247079 296:0.085151 297:0.05192 298:0.040657 299:0.040259 300:0.03653 301:0.113773 302:0.225093 303:0.238728 304:0.151835 305:0.04164 306:0.058553 307:0.014376 308:0.021014 309:0.072805 310:0.128018 311:0.309585 312:0.309585 313:0.309585 314:0.041448 315:0.027411 316:0.030064 317:0.039632 318:0.040746 319:0.114026 320:0.309585 321:0.309585 322:0.142786 323:0.033733 324:0.06585 
0.7036998509540671 1:0.12812 2:0.070495 3:0.102876 4:0.006104 5:0.217674 6:0.012746 7:0.069549 8:0.066443 9:0.129814 10:0.156059 11:0.120072 12:0.094578 13:0.028366 14:0.25426 15:0.007808 16:0.166712 17:0.12606 18:0.151961 19:0.15956 20:0.117947 21:0.106683 22:0.046708 23:0.268613 24:0.097582 25:0.167657 26:0.201074 27:0.191857 28:0.213119 29:0.306653 30:0.306653 31:0.215801 32:0.305033 33:0.170744 34:0.148251 35:0.155236 36:0.151601 37:0.024065 38:0.061212 39:0.046019 40:0.019636 41:0.056853 42:0.003103 43:0.021343 44:0.015131 45:0.016364 46:0.036977 47:0.377563 48:0.398821 49:0.070569 50:0.068008 51:0.008043 52:0.018525 53:0.014976 54:0.018087 55:0.020993 56:0.38789 57:0.398821 58:0.093954 59:0.053733 60:0.01348 61:0.020686 62:0.012458 63:0.016416 64:0.012605 65:0.398821 66:0.398821 67:0.141701 68:0.070781 69:0.033482 70:0.046903 71:0.03425 72:0.029722 73:0.054888 74:0.345067 75:0.345067 76:0.045874 77:0.022898 78:0.002244 79:0.007843 80:0.00526 81:0.015457 82:0.12124 83:0.345067 84:0.345067 85:0.050034 86:0.031039 87:0.006983 88:0.019226 89:0.001257 90:0.026302 91:0.040962 92:0.345067 93:0.345067 94:0.086416 95:0.043766 96:0.027359 97:0.029189 98:0.025844 99:0.017995 100:0.175621 101:0.328452 102:0.31315 103:0.067857 104:0.02665 105:0.011061 106:0.010245 107:0.008017 108:0.028782 109:0.037622 110:0.011163 111:0.008116 112:0.010113 113:0.014395 114:0.017604 115:0.043372 116:0.139103 117:0.087588 118:0.031016 119:0.080908 120:0.181809 121:0.080729 122:0.045875 123:0.079967 124:0.055026 125:0.047421 126:0.029087 127:0.096022 128:0.008259 129:0.004396 130:0.008295 131:0.008521 132:0.048706 133:0.190982 134:0.378342 135:0.378342 136:0.113316 137:0.054741 138:0.111705 139:0.092243 140:0.079645 141:0.378342 142:0.310184 143:0.378342 144:0.378342 145:0.02882 146:0.279698 147:0.295239 148:0.178831 149:0.053909 150:0.099537 151:0.066119 152:0.023063 153:0.015382 154:0.01769 155:0.295239 156:0.295239 157:0.130174 158:0.070577 159:0.087605 160:0.075206 161:0.036853 162:0.033988 163:0.077456 164:0.097746 165:0.288345 166:0.166219 167:0.125274 168:0.295239 169:0.295239 170:0.159907 171:0.091278 172:0.052034 173:0.082965 174:0.180479 175:0.121607 176:0.095079 177:0.294165 178:0.176398 179:0.172082 180:0.070472 181:0.021818 182:0.258404 183:0.258404 184:0.168966 185:0.243243 186:0.227892 187:0.111101 188:0.065005 189:0.053268 190:0.140403 191:0.18517 192:0.258404 193:0.148367 194:0.212913 195:0.142212 196:0.022818 197:0.012593 198:0.034111 199:0.02884 200:0.063694 201:0.157504 202:0.258404 203:0.258404 204:0.226069 205:0.121046 206:0.167152 207:0.058566 208:0.021795 209:0.057986 210:0.188466 211:0.258404 212:0.258404 213:0.245161 214:0.023715 215:0.01054 216:0.010058 217:0.036304 218:0.002797 219:0.002726 220:0.006176 221:0.018583 222:0.086915 223:0.15143 224:0.318252 225:0.304782 226:0.044929 227:0.00508 228:0.004024 229:0.015131 230:0.086644 231:0.318252 232:0.318252 233:0.318252 234:0.263115 235:0.027415 236:0.008002 237:0.008326 238:0.00931 239:0.05281 240:0.122558 241:0.144107 242:0.156624 243:0.082851 244:0.005191 245:0.001075 246:0.001269 247:0.010625 248:0.318252 249:0.318252 250:0.302844 251:0.139535 252:0.052191 253:0.037628 254:0.008281 255:0.015908 256:0.032205 257:0.142953 258:0.363949 259:0.315463 260:0.117538 261:0.054164 262:0.02865 263:0.009377 264:0.018523 265:0.035062 266:0.072971 267:0.337938 268:0.197101 269:0.140196 270:0.029883 271:0.008038 272:0.000318 273:0.004669 274:0.019949 275:0.363949 276:0.363949 277:0.254154 278:0.036964 279:0.00788 280:0.009946 281:0.002954 282:0.011341 283:0.028311 284:0.18969 285:0.363949 286:0.196181 287:0.059586 288:0.009046 289:0.032713 290:0.024022 291:0.092332 292:0.26147 293:0.26147 294:0.143913 295:0.26147 296:0.26147 297:0.068818 298:0.012637 299:0.058662 300:0.211668 301:0.26147 302:0.26147 303:0.089039 304:0.021724 305:0.030161 306:0.020403 307:0.021895 308:0.053657 309:0.071012 310:0.180545 311:0.26147 312:0.26147 313:0.26147 314:0.180974 315:0.069742 316:0.016268 317:0.114712 318:0.201373 319:0.26147 320:0.26147 321:0.114359 322:0.045351 323:0.049811 324:0.037443 
1 1:0.157266 2:0.0415 3:0.065019 4:0.082545 5:0.101577 6:0.147869 7:0.210505 8:0.262037 9:0.147015 10:0.193788 11:0.096844 12:0.109189 13:0.117015 14:0.139647 15:0.141679 16:0.075598 17:0.091517 18:0.14259 19:0.10566 20:0.014858 21:0.023465 22:0.033167 23:0.074353 24:0.132931 25:0.314019 26:0.314019 27:0.184296 28:0.193263 29:0.057345 30:0.079385 31:0.138498 32:0.126413 33:0.192407 34:0.314019 35:0.314019 36:0.249593 37:0.174569 38:0.192165 39:0.122066 40:0.11054 41:0.136294 42:0.182578 43:0.083892 44:0.09088 45:0.155321 46:0.225391 47:0.194937 48:0.098206 49:0.180063 50:0.186864 51:0.13428 52:0.090139 53:0.096984 54:0.149385 55:0.232113 56:0.178321 57:0.11086 58:0.219698 59:0.125908 60:0.218334 61:0.155587 62:0.092882 63:0.199994 64:0.232113 65:0.232113 66:0.232113 67:0.232113 68:0.150601 69:0.155216 70:0.142555 71:0.050161 72:0.143036 73:0.182447 74:0.141507 75:0.120079 76:0.142761 77:0.132314 78:0.068897 79:0.050957 80:0.059928 81:0.086135 82:0.246554 83:0.271916 84:0.271916 85:0.208325 86:0.074096 87:0.087339 88:0.072024 89:0.060997 90:0.099358 91:0.209327 92:0.271916 93:0.271916 94:0.236756 95:0.085173 96:0.057345 97:0.087161 98:0.049438 99:0.075632 100:0.238681 101:0.271916 102:0.271916 103:0.271916 104:0.067433 105:0.096816 106:0.102909 107:0.064915 108:0.088245 109:0.034255 110:0.00595 111:0.00278 112:0.006593 113:0.026655 114:0.053291 115:0.364066 116:0.364066 117:0.070501 118:0.093289 119:0.032765 120:0.021399 121:0.084698 122:0.064587 123:0.137959 124:0.364066 125:0.364066 126:0.12299 127:0.009529 128:0.000608 129:0.002034 130:0.003614 131:0.020648 132:0.071674 133:0.247236 134:0.207574 135:0.047212 136:0.010997 137:0.013145 138:0.014647 139:0.023177 140:0.045369 141:0.129325 142:0.364066 143:0.364066 144:0.060317 145:0.085615 146:0.126511 147:0.147833 148:0.11291 149:0.060022 150:0.098271 151:0.297614 152:0.164214 153:0.067941 154:0.086475 155:0.297614 156:0.297614 157:0.119178 158:0.05705 159:0.062462 160:0.098785 161:0.046215 162:0.045443 163:0.017264 164:0.092635 165:0.19118 166:0.050271 167:0.105684 168:0.109574 169:0.297614 170:0.297614 171:0.062593 172:0.045694 173:0.230966 174:0.297614 175:0.066866 176:0.152872 177:0.134039 178:0.297614 179:0.216918 180:0.089921 181:0.114533 182:0.260505 183:0.260505 184:0.156124 185:0.053757 186:0.074169 187:0.154373 188:0.064312 189:0.06683 190:0.152146 191:0.211003 192:0.207736 193:0.181361 194:0.077552 195:0.144724 196:0.26044 197:0.100527 198:0.094083 199:0.082465 200:0.211987 201:0.260505 202:0.073445 203:0.170372 204:0.198896 205:0.260505 206:0.161094 207:0.121173 208:0.131143 209:0.106294 210:0.06238 211:0.073301 212:0.134061 213:0.260505 214:0.260505 215:0.156859 216:0.088026 217:0.02282 218:0.002954 219:0.005963 220:0.021358 221:0.135461 222:0.222007 223:0.321079 224:0.27675 225:0.114235 226:0.063697 227:0.019181 228:0.013462 229:0.015269 230:0.105207 231:0.281146 232:0.348629 233:0.348629 234:0.169579 235:0.04066 236:0.02876 237:0.031129 238:0.074997 239:0.146114 240:0.173222 241:0.190192 242:0.126427 243:0.072609 244:0.208049 245:0.09782 246:0.052973 247:0.051633 248:0.050593 249:0.108367 250:0.348629 251:0.214342 252:0.101796 253:0.017512 254:0.01494 255:0.03758 256:0.011719 257:0.062681 258:0.193148 259:0.322108 260:0.271042 261:0.045012 262:0.028537 263:0.024919 264:0.097806 265:0.050974 266:0.157809 267:0.322108 268:0.322108 269:0.237808 270:0.065818 271:0.066368 272:0.028319 273:0.012976 274:0.007474 275:0.090752 276:0.284399 277:0.21141 278:0.054896 279:0.024398 280:0.02653 281:0.015526 282:0.023804 283:0.071119 284:0.322108 285:0.322108 286:0.322108 287:0.080155 288:0.014915 289:0.054674 290:0.042738 291:0.119818 292:0.098507 293:0.249506 294:0.249506 295:0.249506 296:0.147239 297:0.069701 298:0.110133 299:0.108696 300:0.089572 301:0.09021 302:0.214032 303:0.249506 304:0.239021 305:0.154464 306:0.066716 307:0.043763 308:0.040699 309:0.083278 310:0.133538 311:0.249506 312:0.249506 313:0.249506 314:0.095706 315:0.025143 316:0.151656 317:0.17704 318:0.169016 319:0.198508 320:0.249506 321:0.249506 322:0.153923 323:0.101432 324:0.126625 
0.58580457034048 1:0.099684 2:0.299874 3:0.299874 4:0.142377 5:0.048799 6:0.004245 7:0.011377 8:0.006496 9:0.016377 10:0.10478 11:0.299874 12:0.299874 13:0.182339 14:0.029391 15:0.017527 16:0.038408 17:0.022503 18:0.018456 19:0.299874 20:0.299874 21:0.238614 22:0.044509 23:0.001488 24:0.000188 25:0.012189 26:0.020261 27:0.18816 28:0.299874 29:0.299874 30:0.132722 31:0.05952 32:0.013927 33:0.004057 34:0.045862 35:0.070496 36:0.271137 37:0.043948 38:0.158865 39:0.156133 40:0.110684 41:0.038769 42:0.02934 43:0.044242 44:0.031945 45:0.01983 46:0.04877 47:0.179316 48:0.366263 49:0.204524 50:0.070381 51:0.05739 52:0.041578 53:0.03178 54:0.018199 55:0.205669 56:0.331901 57:0.352641 58:0.092069 59:0.029137 60:0.013073 61:0.045653 62:0.061089 63:0.162543 64:0.095372 65:0.36814 66:0.36814 67:0.282933 68:0.11918 69:0.073302 70:0.042326 71:0.049858 72:0.048572 73:0.016938 74:0.170897 75:0.307258 76:0.260791 77:0.040479 78:0.024089 79:0.012722 80:0.008818 81:0.008027 82:0.025204 83:0.20617 84:0.307258 85:0.307258 86:0.050362 87:0.016075 88:0.043988 89:0.021507 90:0.030275 91:0.03173 92:0.307258 93:0.307258 94:0.277798 95:0.153414 96:0.111701 97:0.062054 98:0.092781 99:0.034247 100:0.022323 101:0.084501 102:0.306519 103:0.239065 104:0.091104 105:0.086116 106:0.133656 107:0.207833 108:0.110782 109:0.328676 110:0.18254 111:0.09228 112:0.027068 113:0.001775 114:0.001598 115:0.031031 116:0.087205 117:0.328676 118:0.328676 119:0.236038 120:0.059108 121:0.085288 122:0.051598 123:0.020013 124:0.05343 125:0.113793 126:0.328676 127:0.328676 128:0.075179 129:0.063213 130:0.042705 131:0.042739 132:0.096926 133:0.091866 134:0.154454 135:0.275565 136:0.23281 137:0.09393 138:0.069249 139:0.152229 140:0.139977 141:0.098928 142:0.11248 143:0.134538 144:0.195027 145:0.106004 146:0.171627 147:0.299023 148:0.153081 149:0.063912 150:0.035821 151:0.04845 152:0.040443 153:0.097477 154:0.051693 155:0.299023 156:0.299023 157:0.252317 158:0.11559 159:0.078877 160:0.077596 161:0.050617 162:0.023998 163:0.038099 164:0.054086 165:0.186569 166:0.184857 167:0.143125 168:0.123919 169:0.219197 170:0.093471 171:0.035092 172:0.03944 173:0.084665 174:0.299023 175:0.224905 176:0.164054 177:0.299023 178:0.299023 179:0.170164 180:0.00888 181:0.037235 182:0.280131 183:0.280131 184:0.209587 185:0.22489 186:0.194006 187:0.16958 188:0.12413 189:0.027182 190:0.017267 191:0.03587 192:0.106058 193:0.115687 194:0.130935 195:0.250303 196:0.261247 197:0.206074 198:0.08512 199:0.021194 200:0.051524 201:0.176862 202:0.133553 203:0.175474 204:0.280131 205:0.280131 206:0.11978 207:0.001271 208:0.012951 209:0.009994 210:0.050761 211:0.063777 212:0.135762 213:0.280131 214:0.280131 215:0.033409 216:0.011658 217:0.102058 218:0.033713 219:0.012811 220:0.017891 221:0.061364 222:0.149585 223:0.111038 224:0.183849 225:0.120482 226:0.077969 227:0.040364 228:0.04018 229:0.042713 230:0.060362 231:0.08039 232:0.087683 233:0.127085 234:0.121831 235:0.225206 236:0.038507 237:0.00071 238:0.005201 239:0.094641 240:0.136412 241:0.254582 242:0.394352 243:0.394352 244:0.216359 245:0.025237 246:0.023364 247:0.01591 248:0.099395 249:0.05343 250:0.098288 251:0.394352 252:0.394352 253:0.048203 254:0.036637 255:0.047945 256:0.05951 257:0.116231 258:0.167961 259:0.206393 260:0.082347 261:0.052551 262:0.037699 263:0.017016 264:0.024848 265:0.095874 266:0.280854 267:0.365171 268:0.365171 269:0.113975 270:0.011864 271:0.107509 272:0.019661 273:0.024778 274:0.018115 275:0.103159 276:0.174872 277:0.136102 278:0.157737 279:0.169986 280:0.039247 281:0.017642 282:0.00898 283:0.035207 284:0.338368 285:0.365171 286:0.365171 287:0.105692 288:0.028465 289:0.019759 290:0.009194 291:0.029509 292:0.118748 293:0.246128 294:0.314345 295:0.314345 296:0.053658 297:0.001116 298:0.009288 299:0.005253 300:0.025936 301:0.070509 302:0.186789 303:0.314345 304:0.234412 305:0.012356 306:0.00779 307:0.022372 308:0.012789 309:0.023733 310:0.080282 311:0.314345 312:0.314345 313:0.314345 314:0.060767 315:0.002956 316:0.00965 317:0.004635 318:0.028433 319:0.108637 320:0.303252 321:0.314345 322:0.118199 323:0.019333 324:0.006734 
