svm_type c_svc
kernel_type linear
nr_class 2
total_sv 154
rho 5.36204
label 1 8
probA -2.52297
probB 0.0376354
nr_sv 63 91
SV
1 1:0.021102 2:0.005905 3:0.007123 4:0.007821 5:0.029972 6:0.142752 7:0.323777 8:0.323777 9:0.086686 10:0.020821 11:0.023035 12:0.023356 13:0.02492 14:0.037036 15:0.105663 16:0.323777 17:0.323777 18:0.121312 19:0.056632 20:0.037637 21:0.031237 22:0.010588 23:0.042104 24:0.172907 25:0.323777 26:0.323777 27:0.128731 28:0.007465 29:0.040357 30:0.050547 31:0.071534 32:0.072378 33:0.164248 34:0.323777 35:0.323777 36:0.061834 37:0.026806 38:0.033323 39:0.043895 40:0.088501 41:0.195544 42:0.141106 43:0.201939 44:0.282697 45:0.08988 46:0.021775 47:0.017566 48:0.04003 49:0.088384 50:0.222673 51:0.164515 52:0.11016 53:0.083842 54:0.025751 55:0.002172 56:0.055569 57:0.094573 58:0.201663 59:0.282697 60:0.204714 61:0.282697 62:0.282697 63:0.177113 64:0.099808 65:0.069893 66:0.083067 67:0.156265 68:0.282697 69:0.180329 70:0.088419 71:0.282697 72:0.282697 73:0.007415 74:0.004192 75:0.019257 76:0.138658 77:0.270354 78:0.169977 79:0.076662 80:0.032061 81:0.008787 82:0.022267 83:0.016279 84:0.261621 85:0.296266 86:0.296266 87:0.077699 88:0.015042 89:0.001052 90:0.009131 91:0.1144 92:0.168099 93:0.21296 94:0.296266 95:0.296266 96:0.126018 97:0.031207 98:0.077102 99:0.193967 100:0.039999 101:0.165787 102:0.296266 103:0.296266 104:0.296266 105:0.044975 106:0.005885 107:0.002835 108:0.012909 109:0.207614 110:0.097728 111:0.11325 112:0.052638 113:0.055595 114:0.160848 115:0.335779 116:0.331981 117:0.160535 118:0.027443 119:0.04993 120:0.066393 121:0.110318 122:0.071823 123:0.15231 124:0.335779 125:0.335779 126:0.105218 127:0.169713 128:0.249436 129:0.179647 130:0.158669 131:0.061891 132:0.128765 133:0.069278 134:0.041509 135:0.038128 136:0.116239 137:0.153773 138:0.13061 139:0.129294 140:0.048862 141:0.050627 142:0.131152 143:0.307237 144:0.040238 145:0.012858 146:0.028411 147:0.033129 148:0.074246 149:0.069256 150:0.055004 151:0.15061 152:0.369395 153:0.309725 154:0.228486 155:0.101369 156:0.046054 157:0.050646 158:0.056433 159:0.037788 160:0.026877 161:0.369395 162:0.369395 163:0.032111 164:0.053665 165:0.042368 166:0.055154 167:0.035613 168:0.028727 169:0.051681 170:0.312734 171:0.178155 172:0.209238 173:0.076349 174:0.03582 175:0.04136 176:0.037561 177:0.015375 178:0.013078 179:0.215642 180:0.369395 181:0.284082 182:0.284082 183:0.256019 184:0.142885 185:0.076211 186:0.024388 187:0.006725 188:0.087357 189:0.284082 190:0.149519 191:0.284082 192:0.284082 193:0.284082 194:0.090871 195:0.011892 196:0.008447 197:0.010344 198:0.039311 199:0.284082 200:0.218928 201:0.060409 202:0.011938 203:0.010001 204:0.005743 205:0.020001 206:0.072816 207:0.284082 208:0.183762 209:0.284082 210:0.106703 211:0.022212 212:0.017158 213:0.038894 214:0.116061 215:0.085198 216:0.112161 217:0.175205 218:0.282786 219:0.140378 220:0.128478 221:0.092336 222:0.137753 223:0.121188 224:0.112748 225:0.065631 226:0.173892 227:0.205286 228:0.130514 229:0.126546 230:0.097836 231:0.07512 232:0.063793 233:0.050954 234:0.048421 235:0.11241 236:0.246479 237:0.061636 238:0.110375 239:0.282786 240:0.282786 241:0.282786 242:0.282786 243:0.090096 244:0.073058 245:0.089078 246:0.082154 247:0.170462 248:0.282786 249:0.282786 250:0.14604 251:0.10979 252:0.040992 253:0.113722 254:0.147368 255:0.127293 256:0.154611 257:0.162009 258:0.210575 259:0.195322 260:0.087416 261:0.115058 262:0.248178 263:0.107698 264:0.111301 265:0.122721 266:0.159375 267:0.159178 268:0.144741 269:0.169145 270:0.248178 271:0.078613 272:0.058722 273:0.062568 274:0.102764 275:0.248178 276:0.248178 277:0.248178 278:0.172984 279:0.089999 280:0.198169 281:0.097892 282:0.087427 283:0.077137 284:0.248178 285:0.248178 286:0.171636 287:0.139275 288:0.221859 289:0.275252 290:0.075786 291:0.037517 292:0.029208 293:0.033129 294:0.032267 295:0.064285 296:0.213824 297:0.275252 298:0.246219 299:0.075879 300:0.020952 301:0.019447 302:0.047229 303:0.150194 304:0.275252 305:0.275252 306:0.275252 307:0.244833 308:0.093526 309:0.055156 310:0.057939 311:0.217505 312:0.071316 313:0.021456 314:0.16728 315:0.275252 316:0.191768 317:0.049733 318:0.031719 319:0.031211 320:0.145222 321:0.106685 322:0.141556 323:0.255452 324:0.275252 
1 1:0.081017 2:0.056712 3:0.082581 4:0.069437 5:0.122602 6:0.222121 7:0.285452 8:0.145018 9:0.098375 10:0.067039 11:0.051902 12:0.031072 13:0.051438 14:0.197104 15:0.245342 16:0.137348 17:0.080794 18:0.088525 19:0.104658 20:0.042809 21:0.013116 22:0.006737 23:0.005843 24:0.233114 25:0.285452 26:0.285452 27:0.25039 28:0.274138 29:0.158356 30:0.048806 31:0.033795 32:0.038955 33:0.115494 34:0.285452 35:0.285452 36:0.285452 37:0.011612 38:0.037951 39:0.062216 40:0.110339 41:0.275909 42:0.275909 43:0.158182 44:0.019332 45:0.019402 46:0.013751 47:0.122844 48:0.116729 49:0.108041 50:0.262301 51:0.275909 52:0.275909 53:0.010866 54:0.001723 55:0.275909 56:0.209244 57:0.121647 58:0.155472 59:0.15368 60:0.270476 61:0.11651 62:0.067373 63:0.112574 64:0.094201 65:0.090445 66:0.080901 67:0.174864 68:0.200999 69:0.275909 70:0.275909 71:0.0701 72:0.04079 73:0.087914 74:0.235624 75:0.128312 76:0.055459 77:0.148996 78:0.321843 79:0.321843 80:0.077068 81:0.019952 82:0.123818 83:0.105181 84:0.047123 85:0.025812 86:0.060897 87:0.042913 88:0.185307 89:0.148107 90:0.081825 91:0.021764 92:0.028694 93:0.014833 94:0.057644 95:0.113521 96:0.321843 97:0.321843 98:0.321843 99:0.039413 100:0.039462 101:0.034053 102:0.01504 103:0.024402 104:0.100429 105:0.048427 106:0.321843 107:0.321843 108:0.165314 109:0.024191 110:0.004151 111:0 112:0 113:0.000193 114:0.167367 115:0.29097 116:0.29097 117:0.110457 118:0.251998 119:0.137324 120:0.015959 121:0.00521 122:0.003733 123:0.036669 124:0.241363 125:0.29097 126:0.199559 127:0.010102 128:0.001035 129:0.001048 130:0.002276 131:0.028339 132:0.29097 133:0.29097 134:0.259612 135:0.046572 136:0.120677 137:0.083275 138:0.014165 139:0.007771 140:0.070398 141:0.29097 142:0.29097 143:0.266788 144:0.11481 145:0.271 146:0.271 147:0.097221 148:0.077196 149:0.037084 150:0.020973 151:0.045779 152:0.182137 153:0.247622 154:0.222018 155:0.156674 156:0.073004 157:0.107658 158:0.07239 159:0.103646 160:0.166581 161:0.271 162:0.206321 163:0.271 164:0.210246 165:0.045387 166:0.02278 167:0.056776 168:0.134532 169:0.130516 170:0.271 171:0.245618 172:0.108974 173:0.064105 174:0.020431 175:0.009704 176:0.00921 177:0.019589 178:0.172923 179:0.271 180:0.271 181:0.022108 182:0.031052 183:0.008954 184:0.029256 185:0.031356 186:0.09623 187:0.333955 188:0.333955 189:0.105669 190:0.02142 191:0.017797 192:0.005548 193:0.011416 194:0.02387 195:0.020459 196:0.323788 197:0.333955 198:0.151887 199:0.018649 200:0.012775 201:0.004466 202:0.010226 203:0.006973 204:0.031184 205:0.333955 206:0.333955 207:0.179495 208:0.045114 209:0.008919 210:0.007372 211:0.018657 212:0.004573 213:0.041097 214:0.333955 215:0.333955 216:0.155717 217:0.015801 218:0.005072 219:0.00508 220:0.010309 221:0.12496 222:0.360236 223:0.360236 224:0.078397 225:0.02046 226:0.012666 227:0.007486 228:0.006205 229:0.010047 230:0.158638 231:0.360236 232:0.238442 233:0.055422 234:0.018671 235:0.01326 236:0.004714 237:0.005456 238:0.023252 239:0.221169 240:0.360236 241:0.181601 242:0.013924 243:0.009413 244:0 245:0.000181 246:6.9e-005 247:0.004505 248:0.151959 249:0.360236 250:0.360236 251:0.05777 252:0.000157 253:0.041961 254:0.024009 255:0.021462 256:0.028348 257:0.096068 258:0.314315 259:0.314315 260:0.216165 261:0.102165 262:0.031575 263:0.009906 264:0.016664 265:0.012604 266:0.007155 267:0.063521 268:0.314315 269:0.314315 270:0.20973 271:0.005732 272:0.001504 273:0.002458 274:0.00809 275:0.099189 276:0.314315 277:0.314315 278:0.208957 279:0.025191 280:0.017351 281:0.00285 282:0.009674 283:0.00785 284:0.035577 285:0.121442 286:0.314315 287:0.314315 288:0.127224 289:0.014031 290:0.001676 291:0.004172 292:0.002816 293:0.001889 294:0.015019 295:0.250471 296:0.358403 297:0.155762 298:0.031946 299:0.001585 300:0.003298 301:0.004696 302:0.00156 303:0.024269 304:0.306913 305:0.358403 306:0.122296 307:0.020129 308:0.009356 309:0.004409 310:0.002978 311:0.0201 312:0.027899 313:0.345008 314:0.358403 315:0.136002 316:0.032626 317:0.018046 318:0.002265 319:0.002316 320:0.016871 321:0.049556 322:0.358403 323:0.358403 324:0.111947 
0.9377647973082129 1:0.228379 2:0.055303 3:0.002283 4:0.004551 5:0.013061 6:0.058319 7:0.292354 8:0.318844 9:0.202025 10:0.012777 11:0.009897 12:0.003511 13:0.019957 14:0.047357 15:0.094107 16:0.318844 17:0.179762 18:0.045263 19:0.281146 20:0.064333 21:0.001551 22:0.001246 23:0.002304 24:0.198958 25:0.318844 26:0.273089 27:0.159284 28:0.008766 29:0.007264 30:0.002616 31:0.003669 32:0.016794 33:0.318844 34:0.318844 35:0.181633 36:0.033585 37:0.015795 38:0.024013 39:0.029326 40:0.05358 41:0.099385 42:0.132739 43:0.149857 44:0.047211 45:0.012288 46:0.009662 47:0.012975 48:0.026372 49:0.02902 50:0.377322 51:0.377322 52:0.207784 53:0.016236 54:0.005878 55:0.008616 56:0.022257 57:0.030416 58:0.020567 59:0.053755 60:0.377322 61:0.377322 62:0.104869 63:0.010825 64:0.013749 65:0.013431 66:0.035667 67:0.025074 68:0.137223 69:0.377322 70:0.377322 71:0.049071 72:0.020183 73:0.000712 74:0.000631 75:0.003417 76:0.00744 77:0.366046 78:0.366046 79:0.22675 80:0.004671 81:0.003142 82:0.002707 83:0.003817 84:0.011706 85:0.016936 86:0.138554 87:0.304873 88:0.144709 89:0.015168 90:0.013119 91:0.003062 92:0.001051 93:0.004321 94:0.003699 95:0.071914 96:0.366046 97:0.366046 98:0.009559 99:0.005981 100:0.001577 101:0.001442 102:0.003921 103:0.002015 104:0.03668 105:0.366046 106:0.366046 107:0.013592 108:0.007714 109:0.070083 110:0.015897 111:0.003955 112:0.001991 113:0.003337 114:0.2352 115:0.42036 116:0.078052 117:0.032533 118:0.003046 119:0.004855 120:0.002646 121:0.00076 122:0.007861 123:0.42036 124:0.42036 125:0.081091 126:0.007265 127:0.007856 128:0.004549 129:0.004791 130:0.001175 131:0.017468 132:0.085765 133:0.095923 134:0.026133 135:0.012053 136:0.005188 137:0.005415 138:0.006016 139:0.006222 140:0.014921 141:0.42036 142:0.42036 143:0.140148 144:0.009958 145:0.01357 146:0.005597 147:0.014806 148:0.00691 149:0.017743 150:0.325641 151:0.325641 152:0.10075 153:0.024026 154:0.086804 155:0.011402 156:0.024814 157:0.013739 158:0.028295 159:0.109734 160:0.179808 161:0.087859 162:0.104767 163:0.124753 164:0.023153 165:0.012632 166:0.008626 167:0.008289 168:0.298816 169:0.325641 170:0.325641 171:0.116446 172:0.325641 173:0.103691 174:0.022811 175:0.011103 176:0.0099 177:0.041296 178:0.195288 179:0.325641 180:0.325641 181:0.050825 182:0.012595 183:0.0092 184:0.012775 185:0.040357 186:0.312001 187:0.294413 188:0.018536 189:0.079393 190:0.01067 191:0.011721 192:0.008824 193:0.021016 194:0.102824 195:0.312001 196:0.301511 197:0.004986 198:0.023751 199:0.312001 200:0.095747 201:0.02829 202:0.033057 203:0.063618 204:0.184407 205:0.030662 206:0.038392 207:0.312001 208:0.207769 209:0.135999 210:0.100692 211:0.142905 212:0.270859 213:0.312001 214:0.057013 215:0.010546 216:0.298151 217:0.031198 218:0.023777 219:0.033865 220:0.049323 221:0.15008 222:0.17014 223:0.118339 224:0.075413 225:0.039486 226:0.035199 227:0.03968 228:0.076504 229:0.219306 230:0.193632 231:0.362097 232:0.362097 233:0.362097 234:0.059335 235:0.038738 236:0.047071 237:0.101122 238:0.213072 239:0.196585 240:0.080022 241:0.04608 242:0.026584 243:0.022883 244:0.011939 245:0.023181 246:0.207222 247:0.362097 248:0.362097 249:0.094283 250:0.060515 251:0.03056 252:0.018558 253:0.212046 254:0.07491 255:0.022587 256:0.066049 257:0.051447 258:0.147336 259:0.344559 260:0.344559 261:0.188169 262:0.344559 263:0.322639 264:0.052766 265:0.039815 266:0.043085 267:0.036863 268:0.200516 269:0.344559 270:0.344559 271:0.031438 272:0.035176 273:0.062884 274:0.16384 275:0.122987 276:0.039767 277:0.043382 278:0.039786 279:0.040114 280:0.101725 281:0.126609 282:0.088256 283:0.128817 284:0.128508 285:0.057132 286:0.055644 287:0.045174 288:0.073318 289:0.377482 290:0.243314 291:0.064435 292:0.054916 293:0.063775 294:0.047495 295:0.008227 296:0.044945 297:0.377482 298:0.377482 299:0.29583 300:0.19884 301:0.225044 302:0.245906 303:0.157071 304:0.007811 305:0.018144 306:0.377482 307:0.093392 308:0.094523 309:0.064259 310:0.079394 311:0.065894 312:0.042442 313:0.027493 314:0.016842 315:0.114489 316:0.114365 317:0.075301 318:0.045471 319:0.051733 320:0.03755 321:0.020574 322:0.014474 323:0.010223 324:0.119282 
1 1:0.207953 2:0.10567 3:0.010232 4:0.00191 5:0.004599 6:0.003547 7:0.106232 8:0.309151 9:0.309151 10:0.21359 11:0.142646 12:0.040968 13:0.00897 14:0.004687 15:0.004344 16:0.069614 17:0.245091 18:0.224229 19:0.079289 20:0.027275 21:0.015455 22:0.009853 23:0.01238 24:0.026748 25:0.251341 26:0.309151 27:0.288618 28:0.117197 29:0.108508 30:0.055886 31:0.0135 32:0.005548 33:0.036034 34:0.299184 35:0.309151 36:0.302406 37:0.188135 38:0.244125 39:0.197275 40:0.074564 41:0.0212 42:0.001883 43:0.02475 44:0.085337 45:0.147353 46:0.164309 47:0.222293 48:0.244125 49:0.244125 50:0.241681 51:0.082302 52:0 53:0.002782 54:0.068856 55:0.244125 56:0.244125 57:0.167119 58:0.046683 59:0.003627 60:0.01729 61:0.172316 62:0.244125 63:0.226312 64:0.244125 65:0.244125 66:0.200536 67:0.199136 68:0.115116 69:0.005667 70:0.002991 71:0.020395 72:0.244125 73:0.06494 74:0.044899 75:0.114397 76:0.284311 77:0.284311 78:0.175296 79:0.01742 80:0.014939 81:0.03261 82:0.028471 83:0.024238 84:0.053113 85:0.284311 86:0.284311 87:0.227327 88:0.152803 89:0.069563 90:0.038277 91:0.191157 92:0.114867 93:0.132661 94:0.284311 95:0.284311 96:0.084803 97:0.038603 98:0.018759 99:0.165084 100:0.046557 101:0.053284 102:0.121628 103:0.284311 104:0.284311 105:0.263714 106:0.10645 107:0.038392 108:0.086825 109:0.078716 110:0.062843 111:0.058908 112:0.036146 113:0.031993 114:0.095543 115:0.281696 116:0.295902 117:0.231929 118:0.105597 119:0.147642 120:0.095721 121:0.027236 122:0.024126 123:0.170951 124:0.295902 125:0.295902 126:0.259836 127:0.100148 128:0.182567 129:0.148377 130:0.081845 131:0.040032 132:0.078647 133:0.148101 134:0.176255 135:0.144927 136:0.145792 137:0.19748 138:0.138525 139:0.090652 140:0.100395 141:0.170758 142:0.295902 143:0.230279 144:0.120938 145:0.180518 146:0.237531 147:0.146207 148:0.018704 149:0.007131 150:0.062249 151:0.237531 152:0.237531 153:0.157085 154:0.237531 155:0.237531 156:0.190803 157:0.087788 158:0.047543 159:0.010822 160:0.02493 161:0.061826 162:0.237531 163:0.183786 164:0.237531 165:0.161376 166:0.059809 167:0.046925 168:0.095306 169:0.197086 170:0.166724 171:0.1888 172:0.214644 173:0.237531 174:0.237531 175:0.196654 176:0.039247 177:0.064621 178:0.062666 179:0.167971 180:0.237531 181:0.147682 182:0.173128 183:0.153493 184:0.159048 185:0.115557 186:0.048126 187:0.045782 188:0.035716 189:0.216325 190:0.11292 191:0.18293 192:0.209068 193:0.232505 194:0.170044 195:0.10586 196:0.085512 197:0.028661 198:0.191034 199:0.249025 200:0.249025 201:0.249025 202:0.208861 203:0.04205 204:0.036117 205:0.048002 206:0.069709 207:0.227433 208:0.249025 209:0.249025 210:0.249025 211:0.249025 212:0.085165 213:0.030888 214:0.065086 215:0.031801 216:0.221737 217:0.109129 218:0.214902 219:0.142124 220:0.138424 221:0.075418 222:0.049421 223:0.111974 224:0.226069 225:0.15246 226:0.142256 227:0.158321 228:0.163656 229:0.205289 230:0.165211 231:0.144951 232:0.219854 233:0.216809 234:0.144522 235:0.092189 236:0.149896 237:0.211982 238:0.217389 239:0.073322 240:0.027461 241:0.136702 242:0.226069 243:0.193653 244:0.136772 245:0.158095 246:0.226069 247:0.226069 248:0.125569 249:0.104568 250:0.196205 251:0.226069 252:0.166419 253:0.234379 254:0.207218 255:0.179757 256:0.112394 257:0.069596 258:0.115726 259:0.141958 260:0.112915 261:0.195618 262:0.234379 263:0.234379 264:0.234379 265:0.234379 266:0.026335 267:0.097028 268:0.063313 269:0.150701 270:0.234379 271:0.234379 272:0.194923 273:0.197875 274:0.146624 275:0.065337 276:0.084537 277:0.129922 278:0.086098 279:0.163427 280:0.234379 281:0.234379 282:0.234379 283:0.182329 284:0.097419 285:0.060343 286:0.04274 287:0.046189 288:0.151019 289:0.279109 290:0.279109 291:0.279109 292:0.198663 293:0.030859 294:0.063179 295:0.050617 296:0.110863 297:0.262728 298:0.279109 299:0.279109 300:0.279109 301:0.240784 302:0.094612 303:0.048885 304:0.048656 305:0.03698 306:0.13269 307:0.17362 308:0.15147 309:0.27346 310:0.105647 311:0.125573 312:0.121795 313:0.082491 314:0.083256 315:0.123872 316:0.092087 317:0.110173 318:0.14796 319:0.086461 320:0.154343 321:0.145093 322:0.111051 323:0.044112 324:0.054783 
1 1:0.040633 2:0.039809 3:0.092342 4:0.172315 5:0.274294 6:0.274294 7:0.049276 8:0.048753 9:0.055382 10:0.07452 11:0.038389 12:0.081521 13:0.265249 14:0.274294 15:0.209553 16:0.127208 17:0.157383 18:0.095592 19:0.048881 20:0.023047 21:0.050215 22:0.143215 23:0.274294 24:0.274294 25:0.132667 26:0.071038 27:0.07843 28:0.135823 29:0.092762 30:0.091368 31:0.184178 32:0.274294 33:0.249271 34:0.19141 35:0.217771 36:0.219559 37:0.056079 38:0.019778 39:0.034935 40:0.107293 41:0.129076 42:0.337162 43:0.202105 44:0.088487 45:0.050013 46:0.059366 47:0.035637 48:0.033906 49:0.106518 50:0.157383 51:0.337162 52:0.337162 53:0.078814 54:0.039558 55:0.101864 56:0.064746 57:0.055469 58:0.124656 59:0.114097 60:0.270872 61:0.172287 62:0.11524 63:0.111612 64:0.105418 65:0.059237 66:0.032413 67:0.172419 68:0.145675 69:0.337162 70:0.337162 71:0.222185 72:0.057578 73:0.028364 74:0.036271 75:0.069265 76:0.197936 77:0.17615 78:0.286429 79:0.286429 80:0.057692 81:0.034888 82:0.034704 83:0.055629 84:0.156752 85:0.282865 86:0.250852 87:0.048287 88:0.053907 89:0.014405 90:0.024207 91:0.058708 92:0.047656 93:0.099579 94:0.155727 95:0.0855 96:0.286429 97:0.286429 98:0.254369 99:0.035458 100:0.071335 101:0.16396 102:0.286429 103:0.271532 104:0.080435 105:0.096121 106:0.285769 107:0.102448 108:0.026335 109:0.090487 110:0.028554 111:0.048564 112:0.065248 113:0.198124 114:0.205945 115:0.175845 116:0.141115 117:0.101916 118:0.192725 119:0.120319 120:0.063273 121:0.032141 122:0.072501 123:0.103831 124:0.159473 125:0.259217 126:0.247272 127:0.198163 128:0.175247 129:0.259217 130:0.091057 131:0.065516 132:0.045601 133:0.233801 134:0.259217 135:0.222095 136:0.259217 137:0.170209 138:0.184728 139:0.047013 140:0.015699 141:0.042518 142:0.143109 143:0.259217 144:0.259217 145:0.152662 146:0.104385 147:0.074933 148:0.065977 149:0.069932 150:0.168514 151:0.143088 152:0.175613 153:0.217112 154:0.094784 155:0.069099 156:0.083657 157:0.148767 158:0.122322 159:0.255715 160:0.255715 161:0.231231 162:0.111751 163:0.187906 164:0.071518 165:0.072697 166:0.089839 167:0.033887 168:0.141007 169:0.167688 170:0.255715 171:0.255715 172:0.108755 173:0.083727 174:0.118887 175:0.255715 176:0.064577 177:0.255715 178:0.255715 179:0.211615 180:0.234826 181:0.08825 182:0.070264 183:0.108862 184:0.128265 185:0.107609 186:0.259075 187:0.259075 188:0.259075 189:0.061813 190:0.100743 191:0.207065 192:0.259075 193:0.175248 194:0.080352 195:0.160755 196:0.259075 197:0.176761 198:0.038041 199:0.125459 200:0.091253 201:0.0924 202:0.185744 203:0.104032 204:0.254243 205:0.259075 206:0.223478 207:0.195311 208:0.149863 209:0.134994 210:0.112106 211:0.114955 212:0.12127 213:0.102352 214:0.136201 215:0.147448 216:0.164136 217:0.118416 218:0.248867 219:0.248867 220:0.131688 221:0.056176 222:0.035713 223:0.160679 224:0.167788 225:0.181916 226:0.244327 227:0.211795 228:0.248867 229:0.161048 230:0.025962 231:0.035323 232:0.080729 233:0.248867 234:0.248867 235:0.075252 236:0.167188 237:0.163277 238:0.158091 239:0.15333 240:0.154565 241:0.104746 242:0.073068 243:0.092894 244:0.157866 245:0.162997 246:0.248867 247:0.186081 248:0.128693 249:0.197611 250:0.128129 251:0.126111 252:0.180171 253:0.125368 254:0.071669 255:0.208662 256:0.229915 257:0.049575 258:0.10212 259:0.086188 260:0.234468 261:0.265078 262:0.057839 263:0.093183 264:0.187512 265:0.265078 266:0.079638 267:0.217804 268:0.136029 269:0.114971 270:0.141418 271:0.13038 272:0.151544 273:0.265078 274:0.265078 275:0.127717 276:0.152167 277:0.081833 278:0.11062 279:0.131696 280:0.110133 281:0.231722 282:0.265078 283:0.265078 284:0.151524 285:0.104711 286:0.044567 287:0.077696 288:0.083901 289:0.129202 290:0.122103 291:0.16037 292:0.243374 293:0.071482 294:0.164856 295:0.218397 296:0.212124 297:0.243374 298:0.199644 299:0.08065 300:0.074293 301:0.061418 302:0.056958 303:0.046701 304:0.147992 305:0.242639 306:0.243374 307:0.216866 308:0.243374 309:0.243374 310:0.243374 311:0.09316 312:0.064324 313:0.068256 314:0.142657 315:0.20148 316:0.197466 317:0.121802 318:0.103086 319:0.052173 320:0.026936 321:0.054301 322:0.095481 323:0.231034 324:0.243374 
1 1:0.012885 2:0.010848 3:0.018161 4:0.080644 5:0.331065 6:0.331065 7:0.142512 8:0.069891 9:0.008649 10:0.013755 11:0.00843 12:0.012359 13:0.035647 14:0.136062 15:0.252914 16:0.142223 17:0.12609 18:0.01484 19:0.007952 20:0.001362 21:0.001879 22:0.015952 23:0.110828 24:0.331065 25:0.331065 26:0.331065 27:0.033959 28:0.033507 29:0.006324 30:0.002274 31:0.001047 32:0.025972 33:0.162795 34:0.306763 35:0.331065 36:0.223524 37:0.003891 38:0.002147 39:0.009549 40:0.025458 41:0.182572 42:0.307067 43:0.119717 44:0.079485 45:0.011616 46:0.000477 47:0.001046 48:0.001747 49:0.05852 50:0.307067 51:0.307067 52:0.10454 53:0.012839 54:0.001636 55:0.192983 56:0.050924 57:0.019492 58:0.010634 59:0.08725 60:0.242385 61:0.155452 62:0.307067 63:0.307067 64:0.278509 65:0.11052 66:0.047624 67:0.052338 68:0.166283 69:0.307067 70:0.257419 71:0.036779 72:0.202174 73:0.000124 74:0.000145 75:0.000257 76:0.078035 77:0.327858 78:0.327858 79:0.171318 80:0.000513 81:0 82:0.011341 83:0.009942 84:0.012268 85:0.055605 86:0.209408 87:0.327858 88:0.173011 89:0.002401 90:0.003785 91:0.163333 92:0.12169 93:0.062589 94:0.075602 95:0.166353 96:0.327858 97:0.327858 98:0.001961 99:0.044132 100:0.03234 101:0.064188 102:0.055182 103:0.041926 104:0.202041 105:0.327858 106:0.327858 107:0.003996 108:0.00509 109:0.036878 110:0.009576 111:0.010821 112:0.019527 113:0.011716 114:0.14079 115:0.355601 116:0.3829 117:0.097869 118:0.059163 119:0.006959 120:0.003152 121:0.000778 122:0.001881 123:0.026062 124:0.260209 125:0.3829 126:0.3829 127:0.058687 128:0.018623 129:0.015852 130:0.014628 131:0.014108 132:0.016503 133:0.053679 134:0.122119 135:0.085361 136:0.034473 137:0.003275 138:0.004945 139:0.002978 140:0.005764 141:0.008701 142:0.04553 143:0.3829 144:0.3829 145:0.250678 146:0.033624 147:0.011013 148:0.005464 149:0.018025 150:0.023827 151:0.043583 152:0.344641 153:0.344641 154:0.344641 155:0.118322 156:0.039599 157:0.039031 158:0.044856 159:0.110118 160:0.069829 161:0.031735 162:0.344641 163:0.115032 164:0.003781 165:0.000776 166:0.000689 167:0.001924 168:0.002656 169:0.004831 170:0.214913 171:0.344641 172:0.344641 173:0.027611 174:0.005543 175:0.003423 176:0.003988 177:0.002402 178:0.000545 179:0.02814 180:0.344641 181:0.305197 182:0.230961 183:0.090677 184:0.078874 185:0.084953 186:0.217884 187:0.156584 188:0.000734 189:0.305197 190:0.305197 191:0.19249 192:0.111139 193:0.060238 194:0.136087 195:0.266316 196:0.113251 197:0.001964 198:0.097733 199:0.305197 200:0.095362 201:0.024175 202:0.010976 203:0.007833 204:0.003854 205:0.002296 206:0.007564 207:0.305197 208:0.305197 209:0.139711 210:0.049555 211:0.017826 212:0.025028 213:0.011332 214:0.005868 215:0.007808 216:0.305197 217:0.249091 218:0.091617 219:0.04484 220:0.058204 221:0.131371 222:0.166608 223:0.211093 224:0.256018 225:0.242447 226:0.130974 227:0.031772 228:0.02965 229:0.017467 230:0.065469 231:0.119571 232:0.216722 233:0.28636 234:0.28636 235:0.160346 236:0.119593 237:0.025837 238:0.013676 239:0.099864 240:0.101465 241:0.170554 242:0.26932 243:0.28636 244:0.11132 245:0.076876 246:0.021095 247:0.016412 248:0.067464 249:0.06189 250:0.149435 251:0.28636 252:0.28636 253:0.213434 254:0.042413 255:0.017863 256:0.027122 257:0.066242 258:0.061262 259:0.063511 260:0.364985 261:0.430538 262:0.430538 263:0.083694 264:0.060528 265:0.058472 266:0.124196 267:0.065691 268:0.031197 269:0.116346 270:0.430538 271:0.065939 272:0.053125 273:0.038755 274:0.043145 275:0.1293 276:0.039429 277:0.064397 278:0.192335 279:0.18508 280:0.082318 281:0.051735 282:0.07566 283:0.061279 284:0.196681 285:0.059543 286:0.08106 287:0.121871 288:0.103397 289:0.435787 290:0.037878 291:0.031736 292:0.023112 293:0.029145 294:0.024279 295:0.055762 296:0.097924 297:0.435787 298:0.435787 299:0.105855 300:0.040192 301:0.033337 302:0.024631 303:0.018063 304:0.082607 305:0.148696 306:0.435787 307:0.092932 308:0.024403 309:0.049216 310:0.023645 311:0.075755 312:0.031704 313:0.082532 314:0.140396 315:0.13649 316:0.127457 317:0.04246 318:0.066834 319:0.02065 320:0.062113 321:0.016876 322:0.071064 323:0.189258 324:0.207442 
1 1:0.059404 2:0.039191 3:0.026146 4:0.034417 5:0.143781 6:0.065119 7:0.120087 8:0.123818 9:0.078237 10:0.081793 11:0.072378 12:0.032032 13:0.124703 14:0.263169 15:0.263169 16:0.263169 17:0.263169 18:0.116561 19:0.112817 20:0.182823 21:0.162993 22:0.192059 23:0.177538 24:0.083151 25:0.116807 26:0.195437 27:0.079471 28:0.183337 29:0.247917 30:0.142775 31:0.263169 32:0.263169 33:0.263169 34:0.195902 35:0.175147 36:0.109743 37:0.014777 38:0.00973 39:0.001804 40:0.016674 41:0.080424 42:0.312795 43:0.360518 44:0.162284 45:0.02675 46:0.01012 47:0.004456 48:0.000861 49:0.003148 50:0.046101 51:0.360518 52:0.360518 53:0.106782 54:0.024183 55:0.02671 56:0.023465 57:0.00957 58:0.030766 59:0.111632 60:0.314011 61:0.267141 62:0.067259 63:0.023721 64:0.00913 65:0.006975 66:0.003212 67:0.011969 68:0.066588 69:0.360518 70:0.360518 71:0.074619 72:0.01504 73:0.016786 74:0.010021 75:0.012466 76:0.079616 77:0.123474 78:0.30693 79:0.30693 80:0.107264 81:0.061817 82:0.008846 83:0.003269 84:0.068045 85:0.30693 86:0.282816 87:0.145334 88:0.092536 89:0.045931 90:0.044608 91:0.02267 92:0.030356 93:0.027888 94:0.170567 95:0.199909 96:0.30693 97:0.30693 98:0.153774 99:0.043811 100:0.014754 101:0.020606 102:0.231796 103:0.30693 104:0.30693 105:0.060532 106:0.149248 107:0.059895 108:0.028669 109:0.138982 110:0.142932 111:0.142631 112:0.219799 113:0.126987 114:0.118428 115:0.077904 116:0.105355 117:0.069008 118:0.194912 119:0.179282 120:0.128581 121:0.254078 122:0.254078 123:0.254078 124:0.07067 125:0.093023 126:0.091008 127:0.236635 128:0.071921 129:0.079569 130:0.111475 131:0.062923 132:0.071175 133:0.119812 134:0.121528 135:0.254078 136:0.254078 137:0.128717 138:0.17028 139:0.224396 140:0.223413 141:0.159631 142:0.103094 143:0.202565 144:0.254078 145:0.047252 146:0.041301 147:0.039049 148:0.12969 149:0.31133 150:0.287733 151:0.112277 152:0.045905 153:0.029479 154:0.007694 155:0.014567 156:0.037484 157:0.080741 158:0.187581 159:0.316513 160:0.316513 161:0.090552 162:0.014148 163:0.162095 164:0.09955 165:0.137967 166:0.161289 167:0.185387 168:0.123977 169:0.040067 170:0.072393 171:0.27809 172:0.169018 173:0.077859 174:0.125349 175:0.129439 176:0.16495 177:0.277428 178:0.316513 179:0.060603 180:0.191928 181:0.006987 182:0.016252 183:0.017448 184:0.11013 185:0.160468 186:0.282865 187:0.282865 188:0.111667 189:0.020952 190:0.008149 191:0.012255 192:0.103836 193:0.282865 194:0.282865 195:0.114191 196:0.250136 197:0.05377 198:0.020483 199:0.056269 200:0.023385 201:0.041912 202:0.085406 203:0.168974 204:0.282865 205:0.282865 206:0.081844 207:0.0711 208:0.111004 209:0.039879 210:0.058066 211:0.270154 212:0.275632 213:0.243102 214:0.282865 215:0.090992 216:0.095261 217:0.361301 218:0.01408 219:0.010766 220:0.009837 221:0.003802 222:0.002931 223:0.033028 224:0.034501 225:0.306985 226:0.361301 227:0.018935 228:0.040164 229:0.025871 230:0.007517 231:0.006608 232:0.025061 233:0.059653 234:0.361301 235:0.361301 236:0.085251 237:0.012468 238:0.001194 239:0.005129 240:0.000898 241:0.010977 242:0.021521 243:0.30554 244:0.361301 245:0.062666 246:0.028933 247:0.002897 248:0.005178 249:0.003913 250:0.012145 251:0.054098 252:0.361301 253:0.348168 254:0.032189 255:0.051557 256:0.021365 257:0.011279 258:0.02591 259:0.010822 260:0.034163 261:0.348168 262:0.348168 263:0.034212 264:0.044818 265:0.01612 266:0.017336 267:0.062032 268:0.038611 269:0.039369 270:0.348168 271:0.348168 272:0.04425 273:0.016216 274:0.000945 275:0.005953 276:0.003515 277:0.003748 278:0.051371 279:0.348168 280:0.348168 281:0.058349 282:0.010694 283:7.9e-005 284:0.009779 285:0.003033 286:0.002934 287:0.036595 288:0.348168 289:0.274009 290:0.082813 291:0.069149 292:0.032679 293:0.052832 294:0.122209 295:0.195352 296:0.066407 297:0.295007 298:0.295007 299:0.236185 300:0.167892 301:0.097946 302:0.085986 303:0.112553 304:0.203261 305:0.061773 306:0.19596 307:0.295007 308:0.119548 309:0.047127 310:0.012042 311:0.011516 312:0.014956 313:0.02138 314:0.026679 315:0.295007 316:0.295007 317:0.295007 318:0.145389 319:0.037787 320:0.016089 321:0.019457 322:0.028769 323:0.019753 324:0.295007 
0.3449199867565239 1:0.017942 2:0.005385 3:0.009362 4:0.003283 5:0.010932 6:0.002575 7:0.083498 8:0.331927 9:0.246151 10:0.014122 11:0.007465 12:0.005289 13:0.002055 14:0.012931 15:0.0236 16:0.303234 17:0.331927 18:0.219864 19:0.087979 20:0.013109 21:0.017197 22:0.003706 23:0.007631 24:0.001306 25:0.023156 26:0.331927 27:0.331927 28:0.06119 29:0.029932 30:0.022281 31:0.000513 32:0.004677 33:0.045169 34:0.331927 35:0.331927 36:0.331927 37:0.029362 38:0.007879 39:0.008669 40:0.006028 41:0.010631 42:0.060644 43:0.324432 44:0.324432 45:0.116428 46:0.288745 47:0.097907 48:0.014571 49:0.01795 50:0.022245 51:0.083558 52:0.203866 53:0.206472 54:0.217623 55:0.040909 56:0.015718 57:0.013721 58:0.00743 59:0.005452 60:0.138943 61:0.324432 62:0.324432 63:0.114318 64:0.176144 65:0.056688 66:0.018425 67:0.028974 68:0.026588 69:0.185661 70:0.324432 71:0.324432 72:0.09568 73:0.317959 74:0.317959 75:0.014565 76:0.021274 77:0.023109 78:0.026217 79:0.050059 80:0.054206 81:0.134287 82:0.288089 83:0.317959 84:0.194134 85:0.204081 86:0.040089 87:0.017663 88:0.015781 89:0.004142 90:0.039159 91:0.210482 92:0.140259 93:0.051747 94:0.091857 95:0.033374 96:0.06118 97:0.317959 98:0.261707 99:0.084227 100:0.089501 101:0.157241 102:0.262383 103:0.317959 104:0.18398 105:0.023443 106:0.053991 107:0.050562 108:0.054195 109:0.114769 110:0.005479 111:0.003334 112:0.000529 113:0.0018 114:0.000671 115:0.00278 116:0.333028 117:0.333028 118:0.036872 119:0.015258 120:0.007788 121:0.000175 122:0.007718 123:0.023462 124:0.123193 125:0.333028 126:0.333028 127:0.146176 128:0.011433 129:0.003969 130:0.006212 131:0.014808 132:0.008174 133:0.00842 134:0.330922 135:0.333028 136:0.036131 137:0.005324 138:0.005103 139:0.016091 140:0.173979 141:0.10165 142:0.184778 143:0.333028 144:0.304602 145:0.01458 146:0.00578 147:0.003009 148:0.00092 149:0.00908 150:0.059313 151:0.315248 152:0.315248 153:0.088567 154:0.009393 155:0.007204 156:0.001946 157:0.004209 158:0.010857 159:0.080036 160:0.315248 161:0.315248 162:0.028991 163:0.030966 164:0.002175 165:0.000608 166:0.005451 167:0.172534 168:0.167329 169:0.315248 170:0.315248 171:0.137008 172:0.200069 173:0.024418 174:0 175:0.001731 176:0.061085 177:0.13606 178:0.315248 179:0.279045 180:0.252361 181:0.013252 182:0.02057 183:0.072902 184:0.06467 185:0.017619 186:0.045884 187:0.291756 188:0.291756 189:0.053184 190:0.015097 191:0.024673 192:0.211699 193:0.291756 194:0.167026 195:0.056764 196:0.19676 197:0.127679 198:0.053898 199:0.16727 200:0.051736 201:0.047825 202:0.047183 203:0.082311 204:0.08871 205:0.291756 206:0.224011 207:0.24119 208:0.071498 209:0.067062 210:0.112841 211:0.206571 212:0.269243 213:0.201767 214:0.291756 215:0.265955 216:0.119695 217:0.27667 218:0.055717 219:0.028097 220:0.024661 221:0.040827 222:0.029802 223:0.037981 224:0.15066 225:0.27667 226:0.155401 227:0.057541 228:0.034093 229:0.053507 230:0.27667 231:0.27667 232:0.27667 233:0.27667 234:0.27667 235:0.27667 236:0.064083 237:0.014838 238:0.010128 239:0.009817 240:0.010015 241:0.017898 242:0.0538 243:0.27667 244:0.27667 245:0.20159 246:0.022818 247:0.014341 248:0.040512 249:0.082376 250:0.133339 251:0.130874 252:0.27667 253:0.14855 254:0.012606 255:0.001917 256:0.007641 257:0.194635 258:0.205204 259:0.239739 260:0.282848 261:0.305406 262:0.305406 263:0.075099 264:0 265:0.002335 266:0.055882 267:0.100039 268:0.187043 269:0.184107 270:0.305406 271:0.285993 272:0.059612 273:0.003261 274:0.001084 275:0.013694 276:0.027897 277:0.045112 278:0.093508 279:0.305406 280:0.305406 281:0.059804 282:0.000115 283:0.000132 284:0.005313 285:0.003285 286:0.008397 287:0.095435 288:0.305406 289:0.28049 290:0.109276 291:0.041342 292:0.046859 293:0.102991 294:0.055663 295:0.22224 296:0.091878 297:0.28049 298:0.217492 299:0.11167 300:0.092929 301:0.147206 302:0.28049 303:0.28049 304:0.253432 305:0.138015 306:0.28049 307:0.28049 308:0.066683 309:0.01717 310:0.010823 311:0.015489 312:0.004023 313:0.002286 314:0.057317 315:0.28049 316:0.24579 317:0.071077 318:0.052411 319:0.035413 320:0.110254 321:0.114979 322:0.03518 323:0.050786 324:0.28049 
0.9218039446633281 1:0.02476 2:0.010838 3:0.011942 4:0.007799 5:0.037848 6:0.080056 7:0.339815 8:0.339815 9:0.144585 10:0.012592 11:0.008821 12:0.005789 13:0.018009 14:0.052253 15:0.121874 16:0.339815 17:0.339815 18:0.037198 19:0.026075 20:0.00771 21:0.003738 22:0.004233 23:0.041328 24:0.066193 25:0.339815 26:0.300998 27:0.055806 28:0.016766 29:0.005083 30:0.004705 31:0.019114 32:0.037872 33:0.1861 34:0.339815 35:0.339815 36:0.041328 37:0.019638 38:0.034743 39:0.012067 40:0.039139 41:0.102876 42:0.241239 43:0.306007 44:0.230297 45:0.021887 46:0.022935 47:0.055211 48:0.016962 49:0.04361 50:0.235244 51:0.306007 52:0.291024 53:0.139577 54:0.016864 55:0.024202 56:0.008311 57:0.005786 58:0.061563 59:0.087768 60:0.249812 61:0.306007 62:0.306007 63:0.033407 64:0.023845 65:0.017832 66:0.01401 67:0.071277 68:0.187826 69:0.306007 70:0.306007 71:0.160689 72:0.031688 73:0.007638 74:0.016088 75:0.005799 76:0.04097 77:0.339594 78:0.339594 79:0.144795 80:0.0364 81:0.007649 82:0.004098 83:0.00195 84:0.001274 85:0.021974 86:0.339594 87:0.339594 88:0.039225 89:0.00276 90:0.005994 91:0.022998 92:0.013604 93:0.014968 94:0.057827 95:0.223586 96:0.339594 97:0.28798 98:0.042265 99:0.02838 100:0.021678 101:0.005224 102:0.007462 103:0.033539 104:0.339594 105:0.339594 106:0.142784 107:0.019021 108:0.025514 109:0.032883 110:0.039563 111:0.061377 112:0.04225 113:0.108009 114:0.146076 115:0.254379 116:0.147857 117:0.094863 118:0.036086 119:0.023446 120:0.05325 121:0.053127 122:0.108246 123:0.401329 124:0.401329 125:0.401329 126:0.095988 127:0.025836 128:0.062084 129:0.13805 130:0.105505 131:0.090497 132:0.069737 133:0.048297 134:0.034706 135:0.069686 136:0.024811 137:0.046025 138:0.137257 139:0.093444 140:0.13605 141:0.212099 142:0.401329 143:0.171301 144:0.084942 145:0.010059 146:0.002177 147:0.006337 148:0.020184 149:0.029891 150:0.166065 151:0.324365 152:0.324365 153:0.027946 154:0.016877 155:0.011391 156:0.015252 157:0.05279 158:0.097057 159:0.155663 160:0.324365 161:0.324365 162:0.033528 163:0.006754 164:0.004963 165:0.013012 166:0.008819 167:0.035602 168:0.100701 169:0.324365 170:0.324365 171:0.033996 172:0.017046 173:0.008979 174:0.013211 175:0.070655 176:0.124306 177:0.226609 178:0.324365 179:0.324365 180:0.042647 181:0.040344 182:0.019271 183:0.015978 184:0.110185 185:0.188466 186:0.282312 187:0.275769 188:0.106877 189:0.040916 190:0.037396 191:0.012222 192:0.009042 193:0.073497 194:0.282312 195:0.282312 196:0.139938 197:0.035322 198:0.044518 199:0.03307 200:0.025433 201:0.032592 202:0.214031 203:0.282312 204:0.278542 205:0.282312 206:0.19151 207:0.053241 208:0.035316 209:0.025976 210:0.038194 211:0.222107 212:0.282312 213:0.282312 214:0.197379 215:0.082321 216:0.07885 217:0.048796 218:0.090579 219:0.204105 220:0.192832 221:0.167503 222:0.130587 223:0.063171 224:0.065612 225:0.088738 226:0.077457 227:0.089066 228:0.17591 229:0.135189 230:0.240813 231:0.240813 232:0.205509 233:0.089442 234:0.138325 235:0.158463 236:0.111605 237:0.128201 238:0.221151 239:0.240813 240:0.220397 241:0.13952 242:0.113156 243:0.157854 244:0.227156 245:0.093822 246:0.108683 247:0.240813 248:0.240813 249:0.240813 250:0.217786 251:0.129833 252:0.145756 253:0.024397 254:0.028629 255:0.024949 256:0.023599 257:0.107566 258:0.211804 259:0.224342 260:0.152829 261:0.071232 262:0.037133 263:0.030585 264:0.039645 265:0.11517 266:0.265602 267:0.309804 268:0.309804 269:0.309804 270:0.079306 271:0.058875 272:0.042788 273:0.029817 274:0.043092 275:0.206709 276:0.258168 277:0.162086 278:0.080989 279:0.068719 280:0.044019 281:0.053089 282:0.038042 283:0.065744 284:0.222878 285:0.309804 286:0.309804 287:0.245343 288:0.09936 289:0.037255 290:0.033885 291:0.07252 292:0.206522 293:0.236619 294:0.236619 295:0.236619 296:0.200323 297:0.072605 298:0.057261 299:0.034868 300:0.095298 301:0.236619 302:0.236619 303:0.181317 304:0.236619 305:0.194363 306:0.161279 307:0.060207 308:0.05554 309:0.091265 310:0.098775 311:0.143621 312:0.236619 313:0.198303 314:0.236619 315:0.093329 316:0.068999 317:0.040866 318:0.120276 319:0.193049 320:0.158249 321:0.178327 322:0.236619 323:0.236619 324:0.152312 
1 1:0.006724 2:0.023129 3:0.120518 4:0.275211 5:0.2885 6:0.189245 7:0.144575 8:0.060764 9:0.005797 10:0.01161 11:0.054912 12:0.168039 13:0.133263 14:0.237846 15:0.257957 16:0.192582 17:0.04956 18:0.00018 19:0.249658 20:0.2885 21:0.2885 22:0.134963 23:0.156232 24:0.110525 25:0.067143 26:0.022502 27:0.100133 28:0.227812 29:0.2885 30:0.2885 31:0.140442 32:0.040196 33:0.075425 34:0.078268 35:0.015777 36:0.018803 37:0.025894 38:0.099198 39:0.132492 40:0.093454 41:0.221914 42:0.275218 43:0.234157 44:0.046811 45:0.00162 46:0.024929 47:0.086898 48:0.173512 49:0.248241 50:0.169864 51:0.212297 52:0.23111 53:0.075917 54:0.006607 55:0.275218 56:0.275218 57:0.275218 58:0.099085 59:0.028257 60:0.075384 61:0.093924 62:0.022318 63:0.03126 64:0.216708 65:0.275218 66:0.275218 67:0.252022 68:0.061284 69:0.116878 70:0.105387 71:0.031269 72:0.009605 73:0.01053 74:0.038791 75:0.203489 76:0.286386 77:0.286386 78:0.136484 79:0.047474 80:0.020284 81:0.004281 82:0.031922 83:0.103045 84:0.28458 85:0.286386 86:0.280304 87:0.103319 88:0.029517 89:0.022376 90:0.031779 91:0.036907 92:0.286386 93:0.286386 94:0.286386 95:0.066332 96:0.047187 97:0.022398 98:0.0058 99:0.000729 100:0.054943 101:0.280383 102:0.286386 103:0.286386 104:0.040672 105:0.003065 106:0.000567 107:0.00208 108:0.024372 109:0.295669 110:0.288109 111:0.168095 112:0.017989 113:0.007726 114:0.005773 115:2e-006 116:0.029399 117:0.295669 118:0.280416 119:0.295669 120:0.226817 121:0.012152 122:0.000812 123:0.001528 124:0.000543 125:0.041597 126:0.173933 127:0.295669 128:0.087165 129:0.021384 130:0.00414 131:0.010707 132:0.001675 133:0.016569 134:0.154839 135:0.295669 136:0.238224 137:0.126715 138:0.039231 139:0.012902 140:0.02176 141:0.004585 142:0.053875 143:0.295669 144:0.295669 145:0.282825 146:0.282825 147:0.167292 148:0.02189 149:0.002291 150:0.007994 151:0.011001 152:0.054822 153:0.181017 154:0.223521 155:0.282825 156:0.230369 157:0.107658 158:0.065126 159:0.056938 160:0.032621 161:0.053254 162:0.050805 163:0.282825 164:0.159607 165:0.0438 166:0.018186 167:0.017988 168:0.011257 169:0.05264 170:0.282825 171:0.282825 172:0.282825 173:0.282825 174:0.150992 175:0.113601 176:0.06089 177:0.049411 178:0.036465 179:0.117631 180:0.276176 181:0.052512 182:0.284873 183:0.284873 184:0.284873 185:0.099825 186:0.050516 187:0.016732 188:0.014777 189:0.003552 190:0.08427 191:0.218663 192:0.284873 193:0.284873 194:0.019636 195:0.007503 196:0 197:0.004807 198:0.049297 199:0.18467 200:0.284873 201:0.284873 202:0.284873 203:0.129616 204:0.044337 205:0.015741 206:0.031953 207:0.070541 208:0.085807 209:0.141154 210:0.284873 211:0.284873 212:0.141888 213:0.022226 214:0.002037 215:0.009719 216:0.070041 217:0.29854 218:0.167434 219:0.055492 220:0.036641 221:0.046 222:0.016222 223:0.056891 224:0.265751 225:0.29854 226:0.1707 227:0.134482 228:0.114663 229:0.090601 230:0.09171 231:0.047091 232:0.147648 233:0.29854 234:0.29854 235:0.210597 236:0.18206 237:0.115255 238:0.183204 239:0.160342 240:0.060422 241:0.055458 242:0.097954 243:0.214995 244:0.114564 245:0.171283 246:0.199242 247:0.233157 248:0.178178 249:0.101365 250:0.073298 251:0.107814 252:0.150563 253:0.287983 254:0.08122 255:0.064058 256:0.048776 257:0.053327 258:0.050811 259:0.093327 260:0.287983 261:0.287983 262:0.287983 263:0.287983 264:0.094928 265:0.049014 266:0.015055 267:0.026933 268:0.06343 269:0.187449 270:0.287983 271:0.16733 272:0.147566 273:0.160161 274:0.140831 275:0.134033 276:0.117994 277:0.111954 278:0.153879 279:0.205876 280:0.150093 281:0.187588 282:0.145243 283:0.090868 284:0.087126 285:0.09491 286:0.188975 287:0.203312 288:0.18524 289:0.246325 290:0.246325 291:0.226081 292:0.232494 293:0.062281 294:0.012472 295:0.037321 296:0.100196 297:0.246325 298:0.100185 299:0.134641 300:0.246325 301:0.246325 302:0.244412 303:0.035298 304:0.023519 305:0.049834 306:0.135228 307:0.098988 308:0.178609 309:0.186868 310:0.246325 311:0.138722 312:0.048779 313:0.133245 314:0.140976 315:0.159624 316:0.116251 317:0.122296 318:0.189622 319:0.246325 320:0.246325 321:0.094306 322:0.067861 323:0.079462 324:0.188244 
1 1:0.139491 2:0.002769 3:0 4:0 5:0.003936 6:0.00478 7:0.086078 8:0.329731 9:0.329731 10:0.11329 11:0.005642 12:0.002251 13:0 14:0.004206 15:0.010999 16:0.097471 17:0.329731 18:0.329731 19:0.083266 20:0.005026 21:0 22:0 23:0.000392 24:0.008395 25:0.138389 26:0.329731 27:0.329731 28:0.121144 29:0.004901 30:0.000298 31:0 32:0 33:0.010817 34:0.191063 35:0.329731 36:0.329731 37:0.165536 38:0.052247 39:0.01915 40:0.000531 41:0.00453 42:0.022983 43:0.076274 44:0.261143 45:0.261143 46:0.152329 47:0.141992 48:0.146404 49:0.237824 50:0.183981 51:0.072957 52:0.156058 53:0.233094 54:0.121366 55:0.23712 56:0.042729 57:0.007363 58:0.006147 59:0.001399 60:0.015817 61:0.105806 62:0.261143 63:0.261143 64:0.24252 65:0.161422 66:0.147967 67:0.261143 68:0.14945 69:0.101529 70:0.142146 71:0.261143 72:0.261143 73:0.042306 74:0.067666 75:0.135477 76:0.287342 77:0.287342 78:0.093786 79:0.066137 80:0.065913 81:0.03098 82:0.128424 83:0.180817 84:0.117769 85:0.287342 86:0.287342 87:0.147772 88:0.024798 89:0.044606 90:0.062409 91:0.142297 92:0.145668 93:0.144179 94:0.287342 95:0.253513 96:0.129897 97:0.086761 98:0.083909 99:0.079994 100:0.287342 101:0.287342 102:0.087542 103:0.153547 104:0.138262 105:0.077139 106:0.033842 107:0.08405 108:0.236008 109:0.097899 110:0.009528 111:0.001564 112:0.00135 113:0.003891 114:0.03529 115:0.109489 116:0.330263 117:0.330263 118:0.152839 119:0.009378 120:0 121:0 122:0 123:0.003552 124:0.125178 125:0.330263 126:0.330263 127:0.20098 128:0.060076 129:0.01035 130:0.004644 131:0.009239 132:0.047456 133:0.070115 134:0.234104 135:0.330263 136:0.23754 137:0.059823 138:0.013489 139:0.000192 140:0.003437 141:0.010571 142:0.068027 143:0.330263 144:0.330263 145:0.210032 146:0.023828 147:0.008569 148:0.024061 149:0.010064 150:0.010062 151:0.056575 152:0.301546 153:0.301546 154:0.301546 155:0.111597 156:0.052676 157:0.265723 158:0.180217 159:0.084447 160:0.069516 161:0.167973 162:0.301546 163:0.219233 164:0.017007 165:0.021311 166:0.017504 167:0.019062 168:0.023805 169:0.045875 170:0.216675 171:0.301546 172:0.301546 173:0.051517 174:0.018962 175:0.125182 176:0.091224 177:0.059374 178:0.078399 179:0.13219 180:0.301546 181:0.25375 182:0.251206 183:0.073176 184:0.25375 185:0.252002 186:0.108943 187:0.074021 188:0.084545 189:0.189057 190:0.25375 191:0.25375 192:0.064087 193:0.081039 194:0.066782 195:0.033136 196:0.029973 197:0.18781 198:0.25375 199:0.25375 200:0.149037 201:0.021116 202:0.165945 203:0.108707 204:0.044876 205:0.066789 206:0.118037 207:0.25375 208:0.230019 209:0.155895 210:0.026419 211:0.065269 212:0.046633 213:0.033978 214:0.073743 215:0.25375 216:0.25375 217:0.269904 218:0.116143 219:0.07236 220:0.061578 221:0.031108 222:0.034699 223:0.062148 224:0.133139 225:0.269904 226:0.269904 227:0.19087 228:0.111741 229:0.076734 230:0.062603 231:0.038659 232:0.063735 233:0.141468 234:0.269904 235:0.174938 236:0.058946 237:0.124511 238:0.126419 239:0.13142 240:0.136524 241:0.137676 242:0.269904 243:0.269904 244:0.19645 245:0.234314 246:0.200095 247:0.163811 248:0.211098 249:0.1101 250:0.060873 251:0.154443 252:0.254175 253:0.278809 254:0.106172 255:0.135873 256:0.02794 257:0.063298 258:0.068535 259:0.07729 260:0.165468 261:0.278809 262:0.278809 263:0.076742 264:0.065938 265:0.013186 266:0.041422 267:0.080103 268:0.151216 269:0.203363 270:0.278809 271:0.278809 272:0.198278 273:0.160168 274:0.04507 275:0.117763 276:0.045477 277:0.045763 278:0.209841 279:0.278809 280:0.278809 281:0.173978 282:0.090098 283:0.008073 284:0.053925 285:0.047967 286:0.089463 287:0.198176 288:0.278809 289:0.277622 290:0.156794 291:0.034304 292:0.038933 293:0.030104 294:0.051818 295:0.13724 296:0.202647 297:0.277622 298:0.277622 299:0.197006 300:0.020768 301:0.042414 302:0.054164 303:0.07674 304:0.139221 305:0.256467 306:0.277622 307:0.277622 308:0.277622 309:0.083388 310:0.016897 311:0.061102 312:0.040553 313:0.101522 314:0.097088 315:0.205194 316:0.277622 317:0.277622 318:0.051926 319:0.025497 320:0.049782 321:0.021902 322:0.041839 323:0.079806 324:0.256835 
0.6482934641455979 1:0.137136 2:0.041915 3:0.009228 4:0.008675 5:0.054067 6:0.205808 7:0.236129 8:0.083389 9:0.148702 10:0.053286 11:0.01834 12:0.005063 13:0.013539 14:0.113775 15:0.460858 16:0.460858 17:0.078517 18:0.066955 19:0.183441 20:0.079574 21:0.041088 22:0.022122 23:0.016658 24:0.05653 25:0.057182 26:0.071414 27:0.167558 28:0.098153 29:0.062264 30:0.048493 31:0.043646 32:0.086471 33:0.249921 34:0.460858 35:0.063133 36:0.081561 37:0.001483 38:0.000166 39:0.000132 40:0.001769 41:0.032877 42:0.249324 43:0.39254 44:0.043452 45:0.003042 46:0 47:0 48:0 49:9e-006 50:0.068101 51:0.392183 52:0.39254 53:0.027752 54:1e-006 55:0.010157 56:0.005958 57:0.006009 58:0.008456 59:0.03516 60:0.192986 61:0.39254 62:0.055272 63:0.009846 64:0.000614 65:0.000835 66:0.001462 67:0.003182 68:0.01952 69:0.318835 70:0.39254 71:0.106912 72:0.00291 73:0 74:0 75:0 76:0 77:0.187949 78:0.368118 79:0.259336 80:0.006871 81:0 82:0.002972 83:0.000722 84:0.002824 85:0.007264 86:0.195611 87:0.368118 88:0.129105 89:0.002318 90:0.002972 91:0 92:0.002883 93:0.004076 94:0.009456 95:0.030016 96:0.368118 97:0.368118 98:0.107338 99:0.00356 100:0.003285 101:0.005077 102:0.01211 103:0.020791 104:0.111003 105:0.368118 106:0.368118 107:0.010536 108:0.004037 109:0.25699 110:0.074715 111:0.032855 112:0.018324 113:0.004636 114:0.022121 115:0.013778 116:0.165645 117:0.328695 118:0.289778 119:0.156912 120:0.076 121:0.037091 122:0.056268 123:0.100075 124:0.171392 125:0.079416 126:0.221319 127:0.328695 128:0.037201 129:0.00853 130:0.005628 131:0 132:0.002778 133:0.003143 134:0.323804 135:0.328695 136:0.328695 137:0.156378 138:0.033257 139:0.008218 140:0.008483 141:0.010745 142:0.011875 143:0.097119 144:0.328695 145:0.066386 146:0.033234 147:0.018094 148:0.008859 149:0.046693 150:0.157976 151:0.334233 152:0.090414 153:0.098498 154:0.032914 155:0.007198 156:0.007764 157:0.011617 158:0.024923 159:0.259758 160:0.334233 161:0.328497 162:0.070685 163:0.242707 164:0.044031 165:0.010362 166:0.001423 167:0.015033 168:0.022095 169:0.063087 170:0.079694 171:0.334233 172:0.22826 173:0.02326 174:0.015547 175:0.028485 176:0.025296 177:0.110597 178:0.334233 179:0.257432 180:0.334233 181:0.017078 182:0.015055 183:0.017128 184:0.0166 185:0.020045 186:0.298191 187:0.298191 188:0.280091 189:0.027058 190:0.013355 191:0.015505 192:0.024383 193:0.015165 194:0.080834 195:0.298191 196:0.298191 197:0.064144 198:0.018669 199:0.117988 200:0.033742 201:0.039841 202:0.039589 203:0.036387 204:0.200266 205:0.298191 206:0.298191 207:0.2089 208:0.095377 209:0.078665 210:0.121802 211:0.065567 212:0.087678 213:0.298191 214:0.233596 215:0.226796 216:0.174033 217:0.333704 218:0.078012 219:0.004806 220:0.001476 221:0 222:0 223:0.001387 224:0.162836 225:0.333704 226:0.333704 227:0.17882 228:0.011525 229:0 230:0.000196 231:0.000329 232:0.001233 233:0.043729 234:0.333704 235:0.333704 236:0.209141 237:0.024848 238:0.00341 239:0.008859 240:0 241:0 242:0.018314 243:0.227898 244:0.333704 245:0.333704 246:0.074048 247:0.000705 248:0.012307 249:0.000251 250:0.000123 251:0.006165 252:0.219345 253:0.340544 254:0.117015 255:0.007363 256:6.8e-005 257:0.001033 258:0.001968 259:0.003906 260:0.039322 261:0.340544 262:0.340544 263:0.097885 264:0.031991 265:0.041651 266:0.020542 267:0.056854 268:0.094167 269:0.077745 270:0.340544 271:0.340544 272:0.247814 273:0.044941 274:0.000536 275:0.00812 276:0.001053 277:0.000579 278:0.004584 279:0.223423 280:0.340544 281:0.153889 282:0.026125 283:0.017013 284:0.011615 285:0.004193 286:0.003794 287:0.018073 288:0.340544 289:0.270171 290:0.119878 291:0.070674 292:0.070804 293:0.032493 294:0.093023 295:0.178265 296:0.258171 297:0.270171 298:0.270171 299:0.270171 300:0.241253 301:0.097594 302:0.056284 303:0.082098 304:0.083033 305:0.270171 306:0.270171 307:0.270171 308:0.116595 309:0.029573 310:0.025855 311:0.015898 312:0.009655 313:0.008231 314:0.035651 315:0.270171 316:0.270171 317:0.270171 318:0.046839 319:0.011707 320:0.01869 321:0.013478 322:0.009212 323:0.054013 324:0.16626 
1 1:0.295992 2:0.295992 3:0.221089 4:0.059432 5:0.043215 6:0.000896 7:0.008539 8:0.061925 9:0.295992 10:0.24281 11:0.230113 12:0.245169 13:0.087968 14:0.062005 15:0.015732 16:0.095933 17:0.149459 18:0.200704 19:0.295992 20:0.086497 21:0.017692 22:0.005374 23:0.009325 24:0.013445 25:0.035642 26:0.121382 27:0.295992 28:0.140618 29:0.080084 30:0.033762 31:0.047787 32:0.111657 33:0.12258 34:0.212928 35:0.258256 36:0.227798 37:0.104424 38:0.129838 39:0.11706 40:0.073939 41:0.066899 42:0.041901 43:0.134918 44:0.089485 45:0.073475 46:0.28355 47:0.21038 48:0.09131 49:0.051123 50:0.039202 51:0.033442 52:0.069432 53:0.043941 54:0.164852 55:0.061226 56:0.072602 57:0.073626 58:0.19707 59:0.28355 60:0.275557 61:0.255821 62:0.142475 63:0.062072 64:0.28355 65:0.28355 66:0.246844 67:0.28355 68:0.28355 69:0.198646 70:0.079327 71:0.015906 72:0.111595 73:0.341607 74:0.091263 75:0.023638 76:0.007231 77:0.008674 78:0.014443 79:0.019605 80:0.025281 81:0.298053 82:0.341607 83:0.04148 84:0.006297 85:0.000891 86:0.003994 87:0.005975 88:0.00769 89:0.015398 90:0.341607 91:0.341607 92:0.233668 93:0.08489 94:0.088549 95:0.066451 96:0.03001 97:0.013696 98:0.011083 99:0.341607 100:0.341607 101:0.040005 102:0.005826 103:0.002997 104:0.001667 105:0.001951 106:0.001827 107:0.040022 108:0.341607 109:0.178544 110:0.066354 111:0.012265 112:0.002886 113:0.003485 114:0.005979 115:0.012316 116:0.028368 117:0.203277 118:0.115527 119:0.060373 120:0.023187 121:0.033126 122:0.05942 123:0.072305 124:0.043472 125:0.06595 126:0.182377 127:0.499105 128:0.028087 129:0.005402 130:0.000203 131:8e-006 132:0.001312 133:0.003848 134:0.016003 135:0.499105 136:0.296678 137:0.034006 138:0.013515 139:0.008962 140:0.009985 141:0.023634 142:0.006561 143:0.104001 144:0.499105 145:0.042286 146:0.022527 147:0.019784 148:0.067609 149:0.247908 150:0.249866 151:0.074492 152:0.047533 153:0.066195 154:0.065955 155:0.086788 156:0.07138 157:0.151618 158:0.317997 159:0.317997 160:0.119681 161:0.005873 162:0.008846 163:0.200961 164:0.045654 165:0.030734 166:0.029373 167:0.07885 168:0.198798 169:0.046523 170:0.104517 171:0.317997 172:0.273337 173:0.153762 174:0.106034 175:0.114922 176:0.230702 177:0.317997 178:0.11776 179:0.021664 180:0.317997 181:0.221326 182:0.155865 183:0.080526 184:0.126097 185:0.168178 186:0.273036 187:0.091655 188:0.010021 189:0.132849 190:0.263887 191:0.051819 192:0.017903 193:0.028236 194:0.024423 195:0.024604 196:0.01167 197:0.078634 198:0.273036 199:0.273036 200:0.273036 201:0.174373 202:0.242026 203:0.273036 204:0.273036 205:0.094934 206:0.005211 207:0.091295 208:0.273036 209:0.18114 210:0.078295 211:0.106362 212:0.084566 213:0.050405 214:0.012478 215:0.058 216:0.273036 217:0.301575 218:0.001541 219:0.00027 220:0.000127 221:0.000296 222:0.000351 223:0.001015 224:0.023485 225:0.453453 226:0.173571 227:0.00545 228:0.001332 229:0.00068 230:0.001367 231:0.001019 232:0.000517 233:0.064114 234:0.453453 235:0.130569 236:0.007085 237:0.000269 238:0.000551 239:0.005925 240:0.003514 241:0.002652 242:0.048765 243:0.453453 244:0.157888 245:0.011771 246:0 247:0 248:0.013249 249:0.006319 250:0.001431 251:0.049001 252:0.453453 253:0.157223 254:0.015751 255:0.009575 256:0.004961 257:0.009501 258:0.017023 259:0.002952 260:0.074263 261:0.38277 262:0.38277 263:0.177223 264:0.064845 265:0.049378 266:0.045748 267:0.100107 268:0.006626 269:0.027567 270:0.38277 271:0.152267 272:0.012461 273:0.000343 274:2.3e-005 275:0.004793 276:0.003165 277:0.007368 278:0.055426 279:0.38277 280:0.38277 281:0.084777 282:0.007525 283:0.002976 284:0.004241 285:0.002379 286:0.008779 287:0.035898 288:0.38277 289:0.332404 290:0.332404 291:0.132337 292:0.114902 293:0.075983 294:0.104713 295:0.005566 296:0.002135 297:0.170184 298:0.332404 299:0.221052 300:0.057112 301:0.042513 302:0.025443 303:0.009892 304:0.000791 305:0.007689 306:0.332404 307:0.332404 308:0.231546 309:0.022299 310:0.006865 311:0.0045 312:0.000685 313:0.00209 314:0.007972 315:0.278459 316:0.332404 317:0.122452 318:0.012816 319:0.002009 320:0.006583 321:0 322:0 323:0.013007 324:0.235316 
1 1:0.323024 2:0.068423 3:0.00792 4:0.00678 5:0.01845 6:0.010162 7:0.021969 8:0.072728 9:0.323024 10:0.236969 11:0.034959 12:0.007555 13:0.000493 14:0.012795 15:0.005764 16:0.023536 17:0.149267 18:0.323024 19:0.323024 20:0.090865 21:0.012374 22:0.010807 23:0.019114 24:0.039487 25:0.11418 26:0.323024 27:0.323024 28:0.323024 29:0.13816 30:0.036115 31:0.001811 32:0.013222 33:0.023836 34:0.060418 35:0.149221 36:0.323024 37:0.185192 38:0.018605 39:0.017041 40:0.007484 41:0.048594 42:0.08286 43:0.111684 44:0.266683 45:0.266683 46:0.118311 47:0.001693 48:0.021137 49:0.081508 50:0.159696 51:0.184245 52:0.176336 53:0.266683 54:0.230653 55:0.266683 56:0.188874 57:0.155116 58:0.04762 59:0.114509 60:0.126082 61:0.118004 62:0.158619 63:0.266683 64:0.07511 65:0.137624 66:0.225763 67:0.266683 68:0.266683 69:0.222606 70:0.100834 71:0.094051 72:0.061298 73:0.074351 74:0.00103 75:0.064278 76:0.262941 77:0.262941 78:0.250602 79:0.229947 80:0.148021 81:0.110787 82:0.117583 83:0.06853 84:0.053345 85:0.255447 86:0.262941 87:0.254891 88:0.144918 89:0.074145 90:0.06922 91:0.064839 92:0.048595 93:0.204637 94:0.262941 95:0.262941 96:0.15194 97:0.066237 98:0.048175 99:0.041935 100:0.262941 101:0.137065 102:0.092682 103:0.251579 104:0.153588 105:0.084211 106:0.065115 107:0.093792 108:0.160508 109:0.168156 110:0.042677 111:0.006189 112:0.002381 113:0.00568 114:0.025071 115:0.084017 116:0.303684 117:0.303684 118:0.27472 119:0.060933 120:0.01476 121:0.002449 122:0.004845 123:0.029763 124:0.095917 125:0.281448 126:0.303684 127:0.278859 128:0.075151 129:0.02764 130:0.00842 131:0.006641 132:0.012559 133:0.045915 134:0.243797 135:0.303684 136:0.204916 137:0.159624 138:0.053273 139:0.024008 140:0.009974 141:0.05504 142:0.130482 143:0.303684 144:0.303684 145:0.25305 146:0.119031 147:0.075853 148:0.023268 149:0.034031 150:0.069198 151:0.13901 152:0.239531 153:0.25305 154:0.081192 155:0.161291 156:0.191515 157:0.190627 158:0.128859 159:0.085368 160:0.075519 161:0.057259 162:0.066321 163:0.118431 164:0.215467 165:0.186818 166:0.169564 167:0.093682 168:0.203433 169:0.25305 170:0.25305 171:0.25305 172:0.049738 173:0.127141 174:0.25305 175:0.25305 176:0.181422 177:0.190342 178:0.177709 179:0.07777 180:0.05959 181:0.148617 182:0.140175 183:0.242373 184:0.262778 185:0.218464 186:0.05509 187:0.035912 188:0.060417 189:0.117315 190:0.262778 191:0.093207 192:0.061839 193:0.067305 194:0.03816 195:0.023536 196:0.05422 197:0.192384 198:0.262778 199:0.262778 200:0.204678 201:0.262778 202:0.262778 203:0.144286 204:0.066779 205:0.048897 206:0.046267 207:0.241249 208:0.262778 209:0.094193 210:0.063379 211:0.074554 212:0.052641 213:0.044524 214:0.109132 215:0.225815 216:0.262778 217:0.321948 218:0.367409 219:0.078475 220:0.017784 221:0.008575 222:0.003024 223:0.011648 224:0.033055 225:0.108436 226:0.352718 227:0.367409 228:0.08815 229:0.023366 230:0.007198 231:0.030798 232:0.04252 233:0.088954 234:0.088339 235:0.271086 236:0.367409 237:0.09635 238:0.010199 239:0.010075 240:0.00023 241:0.001587 242:0.000481 243:0.014756 244:0.306583 245:0.367409 246:0.066395 247:0.006133 248:0.005038 249:0.000499 250:0.008135 251:0.00887 252:0.010942 253:0.179866 254:0.32378 255:0.32378 256:0.224465 257:0.064952 258:0.103678 259:0.098108 260:0.09301 261:0.041503 262:0.034365 263:0.225048 264:0.32378 265:0.32378 266:0.130998 267:0.083828 268:0.066538 269:0.023561 270:0.023157 271:0.182191 272:0.32378 273:0.229502 274:0.053825 275:0.016454 276:0.002349 277:0.024708 278:0.03357 279:0.044706 280:0.11037 281:0.227577 282:0.281289 283:0.14577 284:0.04731 285:0.007414 286:0.024684 287:0.038478 288:0.108893 289:0.176164 290:0.136741 291:0.269923 292:0.269923 293:0.131271 294:0.031836 295:0.02303 296:0.038856 297:0.152585 298:0.227825 299:0.134454 300:0.146563 301:0.223875 302:0.120337 303:0.052127 304:0.063503 305:0.071744 306:0.211429 307:0.269923 308:0.168797 309:0.181537 310:0.162789 311:0.087567 312:0.009612 313:0.018902 314:0.056552 315:0.269923 316:0.269923 317:0.269923 318:0.199618 319:0.193368 320:0.097204 321:0.010818 322:0.002661 323:0.026745 324:0.259614 
1 1:0.150987 2:0.113333 3:0.129216 4:0.100694 5:0.148 6:0.086448 7:0.074148 8:0.053994 9:0.076699 10:0.168411 11:0.140255 12:0.094305 13:0.122378 14:0.309735 15:0.309735 16:0.309735 17:0.309735 18:0.089931 19:0.041897 20:0.03742 21:0.112618 22:0.151443 23:0.309735 24:0.106332 25:0.080914 26:0.069341 27:0.054868 28:0.087845 29:0.076783 30:0.116236 31:0.18288 32:0.295799 33:0.202834 34:0.206283 35:0.148675 36:0.11303 37:0.015815 38:0.010367 39:0.008349 40:0.014277 41:0.080453 42:0.243751 43:0.357801 44:0.205847 45:0.01918 46:0.00247 47:0.000698 48:0.000987 49:0.009001 50:0.104883 51:0.357801 52:0.357801 53:0.177118 54:0.011924 55:0.015192 56:0.013851 57:0.013849 58:0.020524 59:0.060461 60:0.139403 61:0.350413 62:0.071032 63:0.025211 64:0.004447 65:0.008047 66:0.00551 67:0.009296 68:0.049799 69:0.357801 70:0.357801 71:0.220929 72:0.019207 73:0.002859 74:0.008102 75:0.002655 76:0.026423 77:0.216679 78:0.305137 79:0.305137 80:0.109451 81:0.009245 82:0.061822 83:0.084612 84:0.02037 85:0.047507 86:0.163637 87:0.305137 88:0.190544 89:0.112307 90:0.057765 91:0.006087 92:0.002955 93:0.001431 94:0.018737 95:0.09075 96:0.305137 97:0.305137 98:0.305137 99:0.048686 100:0.064093 101:0.072719 102:0.096264 103:0.014165 104:0.068663 105:0.220362 106:0.305137 107:0.305137 108:0.128287 109:0.097759 110:0.021613 111:0.131175 112:0.228987 113:0.228987 114:0.125827 115:0.051726 116:0.107869 117:0.158533 118:0.118539 119:0.030683 120:0.145038 121:0.228987 122:0.21901 123:0.17284 124:0.095273 125:0.131958 126:0.208408 127:0.130543 128:0.044841 129:0.140668 130:0.228987 131:0.228987 132:0.20907 133:0.096126 134:0.178185 135:0.228987 136:0.162266 137:0.081453 138:0.125541 139:0.228987 140:0.228987 141:0.228987 142:0.110934 143:0.149976 144:0.228987 145:0.04609 146:0.04789 147:0.039873 148:0.074535 149:0.102966 150:0.172878 151:0.220244 152:0.110993 153:0.090287 154:0.038147 155:0.061063 156:0.034946 157:0.046128 158:0.088874 159:0.398002 160:0.398002 161:0.398002 162:0.072239 163:0.052798 164:0.054429 165:0.03386 166:0.096152 167:0.136489 168:0.099338 169:0.058708 170:0.081834 171:0.083403 172:0.046678 173:0.047264 174:0.02946 175:0.086997 176:0.202472 177:0.209908 178:0.398002 179:0.233506 180:0.074522 181:0.012639 182:0.007114 183:0.003196 184:0.005447 185:0.011118 186:0.143277 187:0.303175 188:0.303175 189:0.066009 190:0.142457 191:0.165045 192:0.127159 193:0.006317 194:0.012406 195:0.071577 196:0.303175 197:0.303175 198:0.217014 199:0.016591 200:0.004938 201:0.002825 202:0.014006 203:0.036617 204:0.10013 205:0.303175 206:0.303175 207:0.088695 208:0.134845 209:0.115496 210:0.029707 211:0.00153 212:0.004133 213:0.035139 214:0.260354 215:0.303175 216:0.301678 217:0.070446 218:0.043951 219:0.094594 220:0.150839 221:0.212682 222:0.225651 223:0.123042 224:0.222908 225:0.17854 226:0.174737 227:0.17051 228:0.136941 229:0.235155 230:0.213265 231:0.164574 232:0.115348 233:0.20867 234:0.235155 235:0.084471 236:0.073915 237:0.185269 238:0.235155 239:0.167824 240:0.110088 241:0.065842 242:0.131198 243:0.115577 244:0.235155 245:0.219257 246:0.177417 247:0.147415 248:0.113985 249:0.041643 250:0.08566 251:0.190988 252:0.235155 253:0.149517 254:0.189262 255:0.144815 256:0.139938 257:0.17042 258:0.116471 259:0.063203 260:0.101385 261:0.187267 262:0.079663 263:0.080868 264:0.100616 265:0.162518 266:0.249345 267:0.193299 268:0.183432 269:0.232576 270:0.168084 271:0.249345 272:0.249345 273:0.189733 274:0.058774 275:0.037571 276:0.0231 277:0.02723 278:0.090863 279:0.249345 280:0.249345 281:0.244239 282:0.167005 283:0.086662 284:0.101412 285:0.064424 286:0.09464 287:0.249345 288:0.249345 289:0.047072 290:0.012865 291:0.014378 292:0.053837 293:0.126231 294:0.097193 295:0.255601 296:0.299295 297:0.210173 298:0.091777 299:0.044651 300:0.014799 301:0.014351 302:0.056578 303:0.127328 304:0.299295 305:0.299295 306:0.299295 307:0.106053 308:0.043257 309:0.023983 310:0.027015 311:0.067023 312:0.028596 313:0.07703 314:0.299295 315:0.299295 316:0.233053 317:0.03846 318:0.047659 319:0.028138 320:0.110241 321:0.116099 322:0.196272 323:0.225087 324:0.299295 
1 1:0.007746 2:0.002814 3:0.008821 4:0.012349 5:0.101731 6:0.355929 7:0.365464 8:0.128532 9:0.01715 10:0.023249 11:0.005406 12:0.007248 13:0.004736 14:0.070419 15:0.270291 16:0.365464 17:0.365464 18:0.075887 19:0.006898 20:0.011415 21:0.016801 22:0.017334 23:0.027476 24:0.093342 25:0.182032 26:0.10762 27:0.025476 28:0.018372 29:0.006274 30:0.005307 31:0.004405 32:0.011789 33:0.143151 34:0.365464 35:0.365464 36:0.115368 37:0.176284 38:0.071723 39:0.079098 40:0.01647 41:0.029293 42:0.021798 43:0.279098 44:0.279098 45:0.214254 46:0.252979 47:0.159657 48:0.231395 49:0.201192 50:0.090991 51:0.015751 52:0.051905 53:0.093316 54:0.16945 55:0.143996 56:0.023082 57:0.006813 58:0.000364 59:0.002668 60:0.087803 61:0.279098 62:0.279098 63:0.279098 64:0.222285 65:0.07177 66:0.043018 67:0.030371 68:0.115174 69:0.10822 70:0.167714 71:0.279098 72:0.261206 73:0.091612 74:0.101704 75:0.223127 76:0.247734 77:0.229117 78:0.060206 79:0.043721 80:0.042561 81:0.054413 82:0.107958 83:0.065736 84:0.136502 85:0.194758 86:0.182797 87:0.086946 88:0.107326 89:0.247734 90:0.247734 91:0.077652 92:0.052512 93:0.090374 94:0.180087 95:0.247734 96:0.247734 97:0.158993 98:0.247734 99:0.074513 100:0.08247 101:0.034699 102:0.107048 103:0.18784 104:0.247734 105:0.247734 106:0.154331 107:0.181525 108:0.241773 109:0.035573 110:0.085154 111:0.062503 112:0.058046 113:0.041665 114:0.103366 115:0.154608 116:0.164934 117:0.096862 118:0.042416 119:0.048602 120:0.031888 121:0.02235 122:0.070885 123:0.318189 124:0.318189 125:0.318189 126:0.318189 127:0.10624 128:0.108856 129:0.070698 130:0.096878 131:0.092149 132:0.07498 133:0.058042 134:0.095745 135:0.097273 136:0.212092 137:0.102553 138:0.096556 139:0.086934 140:0.182015 141:0.289559 142:0.248261 143:0.318189 144:0.258021 145:0.018808 146:0.000856 147:0.002105 148:0.006077 149:0.0531 150:0.305518 151:0.25795 152:0.305518 153:0.147671 154:0.023084 155:0.001807 156:0.021341 157:0.075146 158:0.268324 159:0.305518 160:0.215625 161:0.305518 162:0.094578 163:0.039072 164:0.015615 165:0.031098 166:0.042845 167:0.161986 168:0.305518 169:0.108135 170:0.096144 171:0.072335 172:0.012662 173:0.013472 174:0.037005 175:0.112878 176:0.305518 177:0.305518 178:0.207481 179:0.048582 180:0.03288 181:0.025217 182:0.011107 183:0.059016 184:0.117468 185:0.257264 186:0.257264 187:0.183808 188:0.21737 189:0.0431 190:0.041609 191:0.012553 192:0.039934 193:0.049971 194:0.187244 195:0.257264 196:0.257264 197:0.257264 198:0.075659 199:0.054544 200:0.054082 201:0.099978 202:0.143594 203:0.238073 204:0.257264 205:0.21126 206:0.087656 207:0.094864 208:0.134739 209:0.066166 210:0.08709 211:0.058555 212:0.024967 213:0.257264 214:0.257264 215:0.257264 216:0.255715 217:0.250832 218:0.186863 219:0.123985 220:0.101832 221:0.071992 222:0.029673 223:0.043567 224:0.089037 225:0.244652 226:0.250832 227:0.250832 228:0.189407 229:0.09703 230:0.099567 231:0.098571 232:0.086978 233:0.149348 234:0.219558 235:0.250832 236:0.18783 237:0.104919 238:0.091822 239:0.174274 240:0.046531 241:0.10418 242:0.157955 243:0.250832 244:0.250832 245:0.207921 246:0.172499 247:0.10875 248:0.132897 249:0.106983 250:0.166726 251:0.130219 252:0.24261 253:0.147225 254:0.088941 255:0.115985 256:0.095435 257:0.161229 258:0.246637 259:0.070671 260:0.087576 261:0.098917 262:0.048216 263:0.062354 264:0.069478 265:0.122733 266:0.303985 267:0.303985 268:0.303985 269:0.170232 270:0.104934 271:0.107796 272:0.075224 273:0.108036 274:0.078134 275:0.084282 276:0.097028 277:0.111629 278:0.094119 279:0.105309 280:0.200034 281:0.079235 282:0.077158 283:0.089934 284:0.200889 285:0.281739 286:0.208247 287:0.303985 288:0.303985 289:0.071996 290:0.054495 291:0.036536 292:0.042776 293:0.120823 294:0.30023 295:0.237722 296:0.1879 297:0.230747 298:0.30023 299:0.139892 300:0.042479 301:0.022602 302:0.00288 303:0.112069 304:0.183789 305:0.165684 306:0.30023 307:0.141893 308:0.026121 309:0.007292 310:0.011037 311:0.057797 312:0.120158 313:0.104263 314:0.30023 315:0.30023 316:0.30023 317:0.134858 318:0.001275 319:0 320:0.007779 321:0.008154 322:0.017375 323:0.176392 324:0.30023 
1 1:0.015023 2:0.015912 3:0.022473 4:0.037669 5:0.193649 6:0.189098 7:0.099437 8:0.033779 9:0.016149 10:0.012184 11:0.006177 12:0.013286 13:0.016435 14:0.378762 15:0.38472 16:0.38472 17:0.199511 18:0.036331 19:0.028579 20:0.007138 21:0.008265 22:0.047481 23:0.205259 24:0.18895 25:0.053643 26:0.025587 27:0.025913 28:0.031664 29:0.013281 30:0.013948 31:0.046116 32:0.276929 33:0.38472 34:0.314689 35:0.115283 36:0.047133 37:0.001287 38:0.004364 39:0.002628 40:0.004581 41:0.117702 42:0.327529 43:0.327529 44:0.071643 45:0.010084 46:0.004775 47:0.010387 48:0.002816 49:0.015673 50:0.156583 51:0.327529 52:0.327529 53:0.073636 54:0.004797 55:0.0014 56:0.001043 57:0.000744 58:0.004881 59:0.138657 60:0.327529 61:0.312653 62:0.039818 63:0.008665 64:0.002171 65:0.001584 66:8.1e-005 67:0.014614 68:0.26969 69:0.327529 70:0.327529 71:0.068477 72:0.002799 73:0.00232 74:0.003622 75:0.000419 76:0.065507 77:0.346371 78:0.346371 79:0.219917 80:0.043869 81:0.000758 82:0.001304 83:0 84:0 85:0.164682 86:0.346371 87:0.123822 88:0.024448 89:0.001738 90:0.001304 91:0.001055 92:0.00077 93:0.000176 94:0.041373 95:0.346371 96:0.346371 97:0.234492 98:0.043957 99:0.002172 100:0.002146 101:0 102:4.1e-005 103:0.092034 104:0.346371 105:0.334381 106:0.01076 107:0.001269 108:0.002647 109:0.026513 110:0.012485 111:0.00713 112:0.049576 113:0.290906 114:0.290906 115:0.246838 116:0.059163 117:0.023949 118:0.035586 119:0.036851 120:0.024724 121:0.103955 122:0.290906 123:0.290906 124:0.206995 125:0.065918 126:0.02895 127:0.009045 128:0.004782 129:0.002209 130:0.012221 131:0.234727 132:0.290906 133:0.290906 134:0.105696 135:0.00959 136:0.039666 137:0.033711 138:0.047342 139:0.144113 140:0.290906 141:0.290906 142:0.290906 143:0.110996 144:0.0188 145:0.002164 146:0.00286 147:0.002841 148:0.008955 149:0.176787 150:0.3808 151:0.163533 152:0.008488 153:0.002268 154:0.000299 155:0.000489 156:0.002726 157:0.020864 158:0.3808 159:0.3808 160:0.306246 161:0.023015 162:0.006943 163:0.010093 164:0.006603 165:0.013441 166:0.050513 167:0.219786 168:0.173892 169:0.05901 170:0.016149 171:0.004483 172:0.002293 173:0.003786 174:0.020563 175:0.167693 176:0.3808 177:0.3808 178:0.063569 179:0.018538 180:0.006057 181:0 182:0 183:0.004846 184:0.03461 185:0.371909 186:0.371909 187:0.070815 188:0.014864 189:0.009129 190:0.001788 191:0 192:0.002636 193:0.040481 194:0.371909 195:0.276719 196:0.00507 197:0.002595 198:0.003894 199:0 200:0.004034 201:0.038325 202:0.155475 203:0.371909 204:0.371909 205:0.020746 206:0.014255 207:0.007101 208:0.001969 209:0.002389 210:0.029203 211:0.188426 212:0.371909 213:0.137136 214:0.005636 215:0.003845 216:0.003608 217:0.00489 218:0.004817 219:0.018733 220:0.058661 221:0.246613 222:0.290661 223:0.236825 224:0.04761 225:0.005213 226:0.014982 227:0.036578 228:0.088447 229:0.152091 230:0.290661 231:0.241219 232:0.138335 233:0.047921 234:0.00788 235:0.009963 236:0.018576 237:0.052755 238:0.210371 239:0.290661 240:0.290661 241:0.121928 242:0.028987 243:0.011623 244:0.034718 245:0.290661 246:0.290661 247:0.290661 248:0.290661 249:0.139285 250:0.039876 251:0.020807 252:0.005907 253:0.005862 254:0.009835 255:0.122036 256:0.160896 257:0.158468 258:0.055393 259:0.030225 260:0.018405 261:0.002742 262:0.002843 263:0.007718 264:0.228588 265:0.334277 266:0.334277 267:0.144288 268:0.016549 269:0.014261 270:0.001922 271:0.009128 272:0.198772 273:0.334277 274:0.319964 275:0.115853 276:0.017765 277:0.011595 278:0.008153 279:0.00199 280:0.051989 281:0.14301 282:0.334277 283:0.334277 284:0.334277 285:0.051439 286:0.003562 287:0.015051 288:0.017004 289:0.001486 290:0.016466 291:0.253238 292:0.312725 293:0.312725 294:0.102777 295:0.004306 296:0.005581 297:0.001311 298:0.00167 299:0.012585 300:0.202226 301:0.312725 302:0.312725 303:0.043159 304:0.001808 305:0.00091 306:0.001658 307:0.044813 308:0.0868 309:0.312725 310:0.312725 311:0.22431 312:0.037154 313:9e-006 314:0.010436 315:0.011825 316:0.004435 317:0.030038 318:0.312725 319:0.312725 320:0.18266 321:0.027796 322:0.001821 323:0.000648 324:0.002228 
1 1:0.215475 2:0.235449 3:0.189195 4:0.109753 5:0.120483 6:0.235449 7:0.105326 8:0.068166 9:0.081251 10:0.147177 11:0.187091 12:0.144011 13:0.169468 14:0.235449 15:0.235449 16:0.12765 17:0.077236 18:0.076199 19:0.184673 20:0.235449 21:0.195291 22:0.095478 23:0.113184 24:0.235449 25:0.140523 26:0.105479 27:0.104312 28:0.214069 29:0.235449 30:0.235449 31:0.205282 32:0.162836 33:0.158507 34:0.069263 35:0.062397 36:0.067979 37:0.021365 38:0.091776 39:0.113305 40:0.174179 41:0.195914 42:0.187441 43:0.053839 44:0.027513 45:0.025199 46:0.014152 47:0.083845 48:0.18263 49:0.328495 50:0.328495 51:0.081105 52:0.014926 53:0.010845 54:0.011315 55:0.044946 56:0.135622 57:0.174584 58:0.248461 59:0.204063 60:0.19976 61:0.056207 62:0.027546 63:0.024344 64:0.006329 65:0.06353 66:0.255069 67:0.328495 68:0.328495 69:0.328495 70:0.106174 71:0.023613 72:0.005712 73:0.00178 74:0.015918 75:0.069681 76:0.384336 77:0.384336 78:0.105756 79:0.003894 80:0.000195 81:5e-005 82:0.008119 83:0.009443 84:0.023064 85:0.094758 86:0.350381 87:0.120695 88:0.029147 89:0.015063 90:0.019796 91:0.004772 92:0.022763 93:0.113317 94:0.384336 95:0.384336 96:0.35503 97:0.069426 98:0.015007 99:0.00087 100:0.030841 101:0.032846 102:0.053078 103:0.133865 104:0.244684 105:0.109446 106:0.023861 107:0.026409 108:0.012877 109:0.109868 110:0.118271 111:0.119327 112:0.048831 113:0.052445 114:0.098664 115:0.094275 116:0.271611 117:0.155218 118:0.121111 119:0.197982 120:0.148422 121:0.08367 122:0.07908 123:0.082478 124:0.035059 125:0.110399 126:0.101658 127:0.05667 128:0.012278 129:0.029528 130:0.022982 131:0.035323 132:0.060535 133:0.113609 134:0.40676 135:0.40676 136:0.121196 137:0.047726 138:0.073034 139:0.055625 140:0.043775 141:0.041732 142:0.029427 143:0.40676 144:0.40676 145:0.047929 146:0.055083 147:0.065906 148:0.108134 149:0.153285 150:0.222659 151:0.073243 152:0.050719 153:0.048643 154:0.012185 155:0.00662 156:0.04833 157:0.179394 158:0.271233 159:0.288123 160:0.280615 161:0.152441 162:0.044121 163:0.104474 164:0.035586 165:0.046075 166:0.054278 167:0.044375 168:0.078614 169:0.050446 170:0.288123 171:0.288123 172:0.101337 173:0.05822 174:0.053091 175:0.166188 176:0.262332 177:0.288123 178:0.20966 179:0.288123 180:0.283336 181:0.005437 182:0.006535 183:0.022425 184:0.129967 185:0.330183 186:0.330183 187:0.188555 188:0.082369 189:0.014986 190:0.023672 191:0.019662 192:0.024131 193:0.057168 194:0.17353 195:0.258846 196:0.022947 197:0.028707 198:0.008307 199:0.050094 200:0.04534 201:0.071869 202:0.30551 203:0.330183 204:0.330183 205:0.152188 206:0.147453 207:0.06557 208:0.006137 209:0.016323 210:0.035252 211:0.156296 212:0.330183 213:0.330183 214:0.023198 215:0.020464 216:0.003856 217:0.030936 218:0.002914 219:0.000441 220:0.001155 221:0.00392 222:0.013185 223:0.052112 224:0.420774 225:0.420774 226:0.067846 227:0.011015 228:0.00833 229:0.005876 230:0.002989 231:0.005927 232:0.026695 233:0.420774 234:0.420774 235:0.031677 236:0.005804 237:0.000663 238:0.007022 239:0.014555 240:0.017657 241:0.038719 242:0.123308 243:0.182951 244:0.0326 245:0.008925 246:0.002734 247:0.007544 248:0.005099 249:0.008174 250:0.050282 251:0.247676 252:0.40147 253:0.068914 254:0.011933 255:0.008949 256:0.007796 257:0.003736 258:0.007508 259:0.03273 260:0.309526 261:0.309526 262:0.271477 263:0.138028 264:0.119647 265:0.199984 266:0.141438 267:0.110154 268:0.042699 269:0.309526 270:0.309526 271:0.047581 272:0.012139 273:0.016279 274:0.021868 275:0.010082 276:0.007283 277:0.037576 278:0.271675 279:0.309526 280:0.276708 281:0.1147 282:0.090203 283:0.123591 284:0.04824 285:0.007928 286:0.015233 287:0.201469 288:0.309526 289:0.263838 290:0.2563 291:0.263838 292:0.263838 293:0.263838 294:0.263838 295:0.025036 296:0.120683 297:0.218541 298:0.023509 299:0.06603 300:0.119972 301:0.263838 302:0.263838 303:0.115812 304:0.019087 305:0.008002 306:0.004792 307:0.263838 308:0.262456 309:0.228829 310:0.263838 311:0.097071 312:0.010251 313:0.006463 314:0.039154 315:0.187024 316:0.049619 317:0.093615 318:0.109135 319:0.121703 320:0.056873 321:0.014575 322:0.01204 323:0.002264 324:0.013595 
1 1:0.042339 2:0.03699 3:0.12863 4:0.185126 5:0.088375 6:0.03149 7:0.014325 8:0.054504 9:0.106339 10:0.047645 11:0.092955 12:0.299333 13:0.299333 14:0.299333 15:0.047073 16:0.021903 17:0.043746 18:0.043618 19:0.018899 20:0.099729 21:0.275955 22:0.269392 23:0.131482 24:0.0865 25:0.046732 26:0.164743 27:0.135792 28:0.131604 29:0.299333 30:0.299333 31:0.299333 32:0.299333 33:0.11388 34:0.04233 35:0.098094 36:0.0431 37:0.093059 38:0.140495 39:0.241078 40:0.233054 41:0.160506 42:0.225397 43:0.075065 44:0.047567 45:0.036043 46:0.111881 47:0.241078 48:0.100133 49:0.049439 50:0.152091 51:0.241078 52:0.154791 53:0.066852 54:0.024793 55:0.241078 56:0.241078 57:0.241078 58:0.233883 59:0.147799 60:0.106127 61:0.052888 62:0.06687 63:0.045058 64:0.228774 65:0.241078 66:0.163067 67:0.22355 68:0.241078 69:0.197318 70:0.128903 71:0.062895 72:0.038545 73:0.100797 74:0.199887 75:0.158795 76:0.135143 77:0.265548 78:0.200186 79:0.173795 80:0.053497 81:0.013932 82:0.037148 83:0.053373 84:0.185248 85:0.248079 86:0.220365 87:0.221128 88:0.151845 89:0.018887 90:0.022402 91:0.107623 92:0.187485 93:0.105647 94:0.296812 95:0.296812 96:0.202699 97:0.101994 98:0.027242 99:0.017676 100:0.039074 101:0.02095 102:0.183723 103:0.296812 104:0.296812 105:0.166826 106:0.089821 107:0.037207 108:0.047911 109:0.009357 110:0.045126 111:0.09656 112:0.099192 113:0.085896 114:0.139685 115:0.13847 116:0.302471 117:0.12689 118:0.056779 119:0.302471 120:0.24869 121:0.215021 122:0.100297 123:0.183898 124:0.203556 125:0.302471 126:0.119959 127:0.033669 128:0.034985 129:0.042654 130:0.032267 131:0.019737 132:0.056083 133:0.153803 134:0.302471 135:0.082239 136:0.059659 137:0.066491 138:0.082656 139:0.131705 140:0.056413 141:0.08943 142:0.302471 143:0.302471 144:0.266602 145:0.106343 146:0.264264 147:0.190486 148:0.132454 149:0.028404 150:0.054232 151:0.128028 152:0.264264 153:0.096028 154:0.074105 155:0.169046 156:0.161102 157:0.23303 158:0.251468 159:0.104951 160:0.259306 161:0.164851 162:0.034957 163:0.026947 164:0.054619 165:0.127568 166:0.16257 167:0.099377 168:0.110467 169:0.264264 170:0.264264 171:0.184553 172:0.038062 173:0.049634 174:0.094463 175:0.130336 176:0.158342 177:0.178471 178:0.264264 179:0.264264 180:0.101679 181:0.024878 182:0.067685 183:0.084518 184:0.249617 185:0.249617 186:0.122772 187:0.195282 188:0.133409 189:0.032287 190:0.034203 191:0.094954 192:0.177018 193:0.249617 194:0.23499 195:0.117951 196:0.144429 197:0.107232 198:0.064778 199:0.072769 200:0.131689 201:0.110403 202:0.124459 203:0.164775 204:0.193219 205:0.249617 206:0.249617 207:0.10302 208:0.174543 209:0.249617 210:0.209601 211:0.17173 212:0.160084 213:0.17525 214:0.249617 215:0.184612 216:0.10009 217:0.203152 218:0.216417 219:0.099171 220:0.030227 221:0.007326 222:0.002667 223:0.026476 224:0.059251 225:0.079214 226:0.258934 227:0.214892 228:0.257699 229:0.192149 230:0.070084 231:0.019922 232:0.097026 233:0.239311 234:0.165236 235:0.258934 236:0.258934 237:0.23521 238:0.154544 239:0.21462 240:0.075643 241:0.029374 242:0.077514 243:0.16948 244:0.258934 245:0.258934 246:0.258934 247:0.172881 248:0.162727 249:0.04184 250:0.03556 251:0.048754 252:0.092616 253:0.128911 254:0.074256 255:0.24549 256:0.24549 257:0.144286 258:0.092148 259:0.119077 260:0.237579 261:0.153068 262:0.225894 263:0.081546 264:0.134282 265:0.162251 266:0.1662 267:0.136709 268:0.185404 269:0.238651 270:0.24549 271:0.219068 272:0.241027 273:0.24549 274:0.21301 275:0.08539 276:0.041145 277:0.035664 278:0.064591 279:0.128078 280:0.24549 281:0.176109 282:0.125176 283:0.103864 284:0.071724 285:0.033768 286:0.022873 287:0.064914 288:0.24549 289:0.24062 290:0.114839 291:0.082611 292:0.080853 293:0.130391 294:0.190764 295:0.226278 296:0.184618 297:0.197098 298:0.24062 299:0.24062 300:0.208335 301:0.123529 302:0.131591 303:0.188808 304:0.1228 305:0.073754 306:0.096339 307:0.24062 308:0.085933 309:0.066011 310:0.082184 311:0.214818 312:0.124981 313:0.082822 314:0.069889 315:0.24062 316:0.196792 317:0.132139 318:0.169613 319:0.220451 320:0.24062 321:0.24062 322:0.081781 323:0.057111 324:0.106278 
1 1:0.09131 2:0.097887 3:0.083469 4:0.272941 5:0.272941 6:0.154372 7:0.045004 8:0.017203 9:0.053743 10:0.095949 11:0.079952 12:0.087055 13:0.213631 14:0.272941 15:0.155602 16:0.100258 17:0.056309 18:0.096357 19:0.198107 20:0.211096 21:0.243245 22:0.258122 23:0.272941 24:0.037599 25:0.077717 26:0.075318 27:0.089849 28:0.173726 29:0.099171 30:0.112989 31:0.254281 32:0.272941 33:0.164239 34:0.190426 35:0.146573 36:0.14955 37:0.02546 38:0.02571 39:0.030522 40:0.054221 41:0.31555 42:0.137876 43:0.047026 44:0.035721 45:0.031493 46:0.042521 47:0.030348 48:0.058484 49:0.129797 50:0.358534 51:0.358534 52:0.243791 53:0.073491 54:0.02229 55:0.056073 56:0.026357 57:0.031485 58:0.073199 59:0.214466 60:0.140873 61:0.07603 62:0.067409 63:0.056502 64:0.034589 65:0.012519 66:0.02545 67:0.049914 68:0.358534 69:0.358534 70:0.358534 71:0.200344 72:0.054223 73:0.092374 74:0.147401 75:0.116063 76:0.150974 77:0.289969 78:0.289969 79:0.193059 80:0.06736 81:0.024275 82:0.163183 83:0.289969 84:0.206674 85:0.204736 86:0.129706 87:0.095996 88:0.107823 89:0.082466 90:0.07419 91:0.006433 92:0.006909 93:0.021146 94:0.045789 95:0.151109 96:0.289969 97:0.289969 98:0.186137 99:0.024474 100:0.051551 101:0.082012 102:0.110988 103:0.084333 104:0.060804 105:0.232833 106:0.289969 107:0.257874 108:0.092335 109:0.211218 110:0.166372 111:0.181217 112:0.080505 113:0.037933 114:0.008495 115:0.041788 116:0.069673 117:0.091506 118:0.16696 119:0.076701 120:0.064577 121:0.050205 122:0.081863 123:0.088324 124:0.13099 125:0.149518 126:0.169646 127:0.381937 128:0.156494 129:0.109729 130:0.055873 131:0.035658 132:0.011005 133:0.056091 134:0.151566 135:0.381937 136:0.381937 137:0.162545 138:0.067249 139:0.035428 140:0.022468 141:0.070367 142:0.145125 143:0.188297 144:0.381937 145:0.077173 146:0.029201 147:0.039942 148:0.041341 149:0.1177 150:0.10813 151:0.095408 152:0.110945 153:0.111879 154:0.07129 155:0.027794 156:0.08433 157:0.05641 158:0.182729 159:0.331117 160:0.338731 161:0.18082 162:0.108756 163:0.338731 164:0.084147 165:0.059954 166:0.043251 167:0.08848 168:0.096635 169:0.091536 170:0.068362 171:0.338731 172:0.338731 173:0.157698 174:0.113264 175:0.084141 176:0.156783 177:0.123648 178:0.133861 179:0.065611 180:0.338731 181:0.016666 182:0.006044 183:0.025344 184:0.017573 185:0.05301 186:0.289236 187:0.289236 188:0.150226 189:0.03454 190:0.030334 191:0.032746 192:0.034866 193:0.01605 194:0.045544 195:0.289236 196:0.289236 197:0.27448 198:0.070467 199:0.289236 200:0.07303 201:0.062312 202:0.053611 203:0.069883 204:0.140239 205:0.203701 206:0.061385 207:0.212578 208:0.187042 209:0.093245 210:0.103718 211:0.139956 212:0.236612 213:0.289236 214:0.289236 215:0.149423 216:0.135644 217:0.351903 218:0.095533 219:0.017416 220:0.013749 221:0.006282 222:0.005171 223:0.015111 224:0.038336 225:0.320949 226:0.351903 227:0.131067 228:0.037067 229:0.011286 230:0.004128 231:0.012743 232:0.029051 233:0.033882 234:0.263691 235:0.351903 236:0.114314 237:0.026561 238:0.019843 239:0.006473 240:0.012931 241:0.011319 242:0.090207 243:0.351903 244:0.351903 245:0.121129 246:0.050511 247:0.016743 248:0.006263 249:0.014271 250:0.020484 251:0.088809 252:0.351903 253:0.347935 254:0.054589 255:0.026867 256:0.009941 257:0.012349 258:0.015724 259:0.023715 260:0.022792 261:0.312423 262:0.347935 263:0.078231 264:0.018942 265:0.013163 266:0.01849 267:0.01987 268:0.030395 269:0.028101 270:0.347935 271:0.347935 272:0.032447 273:0.025299 274:0.003491 275:0.007151 276:0.007666 277:0.024595 278:0.128736 279:0.347935 280:0.347935 281:0.02967 282:0.003078 283:0.000841 284:0.008967 285:0.002127 286:0.021621 287:0.129158 288:0.347935 289:0.306707 290:0.10576 291:0.039796 292:0.027874 293:0.025264 294:0.031872 295:0.040662 296:0.033775 297:0.306707 298:0.306707 299:0.205843 300:0.172608 301:0.136131 302:0.133528 303:0.113535 304:0.0457 305:0.0296 306:0.290026 307:0.306707 308:0.063559 309:0.009459 310:0.000237 311:0.005461 312:0.000308 313:0.008556 314:0.048426 315:0.306707 316:0.306707 317:0.250931 318:0.20426 319:0.015254 320:0.005611 321:0 322:0.004325 323:0.020252 324:0.306707 
1 1:0.114468 2:0.05208 3:0.03861 4:0.022553 5:0.008679 6:0.00271 7:0.035846 8:0.355651 9:0.263972 10:0.117592 11:0.028438 12:0.010216 13:0.001423 14:0.004974 15:0.001611 16:0.052789 17:0.355651 18:0.286234 19:0.111991 20:0.019213 21:0.009362 22:0.00462 23:0.004786 24:0.007668 25:0.061259 26:0.355651 27:0.355651 28:0.173693 29:0.020996 30:0.001872 31:0.000184 32:0.0015 33:0.003028 34:0.041111 35:0.355651 36:0.355651 37:0.210581 38:0.128491 39:0.052216 40:0.015579 41:0.010776 42:0.001997 43:0.025032 44:0.192953 45:0.297019 46:0.255039 47:0.297019 48:0.154492 49:0.20078 50:0.099879 51:0.000227 52:0.002259 53:0.012642 54:0.068726 55:0.29383 56:0.150479 57:0.031108 58:0.001318 59:8.6e-005 60:0.002983 61:0.064775 62:0.297019 63:0.297019 64:0.297019 65:0.297019 66:0.245764 67:0.033613 68:0.007011 69:0.000588 70:0.014746 71:0.146652 72:0.156083 73:0.096914 74:0.21421 75:0.221271 76:0.30358 77:0.194407 78:0 79:0 80:0 81:3.8e-005 82:0.025199 83:0.150853 84:0.30358 85:0.30358 86:0.158095 87:0 88:0 89:0 90:0.007885 91:0.285125 92:0.30358 93:0.30358 94:0.116091 95:0.039221 96:0 97:0 98:0.005378 99:0.008874 100:0.142272 101:0.30358 102:0.30358 103:0.204107 104:0.052728 105:0.000264 106:0 107:0.00222 108:0.015988 109:0.043113 110:0.005635 111:0.009071 112:0.007069 113:0.017597 114:0.028274 115:0.136549 116:0.360308 117:0.360308 118:0.072422 119:0.008007 120:0.005666 121:0.000492 122:0.009383 123:0.025462 124:0.145588 125:0.360308 126:0.360308 127:0.021858 128:0.004813 129:0.010689 130:0.003339 131:0.016006 132:0.04083 133:0.197229 134:0.353435 135:0.139431 136:0.01915 137:0.002371 138:0.006649 139:0.004003 140:0.013724 141:0.058051 142:0.246052 143:0.360308 144:0.218866 145:0.130438 146:0.068871 147:0.029253 148:0.002741 149:0.00484 150:0.016134 151:0.129068 152:0.291039 153:0.291039 154:0.266316 155:0.291039 156:0.291039 157:0.016185 158:0.010627 159:0.007693 160:0.027219 161:0.291039 162:0.209483 163:0.043574 164:0.016711 165:0.010171 166:0.011771 167:0.031917 168:0.115569 169:0.210004 170:0.291039 171:0.206571 172:0.132025 173:0.173292 174:0.13053 175:0.040985 176:0.081074 177:0.153282 178:0.153697 179:0.291039 180:0.158693 181:0.329377 182:0.329377 183:0.329377 184:0.028837 185:0.016311 186:0.009143 187:0.014188 188:0.065254 189:0.078107 190:0.310763 191:0.329377 192:0.240761 193:0.035646 194:0.014934 195:0.018499 196:0.007688 197:0.060261 198:0.067535 199:0.18576 200:0.297332 201:0.217414 202:0.068641 203:0.100264 204:0.12397 205:0.159676 206:0.21045 207:0.110321 208:0.143148 209:0.158188 210:0.109924 211:0.058083 212:0.085767 213:0.091043 214:0.071584 215:0.123929 216:0.083751 217:0.019295 218:0.003281 219:0.012862 220:0.020143 221:0.089912 222:0.249302 223:0.297235 224:0.297235 225:0.092368 226:0.024657 227:0.008218 228:0.009246 229:0.020715 230:0.049306 231:0.153916 232:0.297235 233:0.297235 234:0.142298 235:0.014449 236:0.000871 237:0.020449 238:0.036672 239:0.175381 240:0.297235 241:0.297235 242:0.170302 243:0.056179 244:0.009382 245:0.007058 246:0.019305 247:0.042939 248:0.148546 249:0.297235 250:0.297235 251:0.263801 252:0.063696 253:0.031413 254:0.029205 255:0.045111 256:0.060169 257:0.078137 258:0.26237 259:0.270704 260:0.244844 261:0.098235 262:0.041904 263:0.052433 264:0.088591 265:0.14361 266:0.258082 267:0.270704 268:0.270704 269:0.18536 270:0.057472 271:0.012694 272:0.02546 273:0.070965 274:0.112711 275:0.225926 276:0.270704 277:0.267218 278:0.097065 279:0.023461 280:0.008038 281:0.024634 282:0.146838 283:0.270704 284:0.270704 285:0.270704 286:0.145029 287:0.027195 288:0.008581 289:0.047169 290:0.053215 291:0.060358 292:0.12671 293:0.293017 294:0.293017 295:0.293017 296:0.190039 297:0.061266 298:0.036742 299:0.04168 300:0.065728 301:0.06938 302:0.241829 303:0.270979 304:0.138732 305:0.106482 306:0.049048 307:0.003788 308:0.020731 309:0.119826 310:0.293017 311:0.293017 312:0.293017 313:0.133441 314:0.019566 315:0.008725 316:0.007503 317:0.029554 318:0.050338 319:0.121754 320:0.293017 321:0.293017 322:0.096438 323:0.086514 324:0.017778 
1 1:0.019387 2:0.005517 3:0.003851 4:0.012423 5:0.027409 6:0.325818 7:0.35227 8:0.254281 9:0.054927 10:0.011997 11:0.013053 12:0.010516 13:0.022971 14:0.030661 15:0.23048 16:0.35227 17:0.05644 18:0.007932 19:0.014445 20:0.004879 21:0.01268 22:0.013231 23:0.066173 24:0.35227 25:0.35227 26:0.083752 27:0.013697 28:0.005946 29:0.004542 30:0.008765 31:0.010937 32:0.043405 33:0.35227 34:0.35227 35:0.063691 36:0.012322 37:0.037127 38:0.064107 39:0.085213 40:0.098648 41:0.140975 42:0.269789 43:0.261488 44:0.11205 45:0.038615 46:0.050642 47:0.033803 48:0.083103 49:0.067812 50:0.134138 51:0.077341 52:0.11905 53:0.081973 54:0.061251 55:0.063133 56:0.073904 57:0.10091 58:0.12563 59:0.198512 60:0.411579 61:0.411579 62:0.270669 63:0.124568 64:0.057071 65:0.06943 66:0.094105 67:0.148165 68:0.327261 69:0.161301 70:0.1923 71:0.123784 72:0.088292 73:0.004053 74:0.003448 75:0.011575 76:0.062075 77:0.408619 78:0.036876 79:0.013182 80:0.005664 81:0.004619 82:0.001121 83:0.000974 84:0.003254 85:0.270636 86:0.466054 87:0.06072 88:0.002618 89:0.000538 90:0.001105 91:0.002183 92:0.003452 93:0.010305 94:0.044179 95:0.466054 96:0.089946 97:0.022583 98:0.006751 99:0.002802 100:0.001824 101:0.000291 102:0.002863 103:0.104849 104:0.466054 105:0.269037 106:0.009054 107:0.001102 108:0.001896 109:0.019012 110:0.005956 111:0.013564 112:0.025989 113:0.063493 114:0.367076 115:0.367076 116:0.064085 117:0.034862 118:0.006073 119:0.002228 120:0.004776 121:0.016983 122:0.048033 123:0.367076 124:0.367076 125:0.168616 126:0.025889 127:0.04691 128:0.018991 129:0.009682 130:0.027386 131:0.038523 132:0.140836 133:0.126638 134:0.112951 135:0.087172 136:0.041734 137:0.009197 138:0.007437 139:0.018411 140:0.049445 141:0.367076 142:0.367076 143:0.272306 144:0.074569 145:0.008768 146:0.01224 147:0.013062 148:0.019974 149:0.028563 150:0.323416 151:0.363955 152:0.156408 153:0.028106 154:0.00728 155:0.017591 156:0.01627 157:0.035224 158:0.089702 159:0.069223 160:0.13947 161:0.060781 162:0.018022 163:0.012702 164:0.006714 165:0.005589 166:0.00783 167:0.044629 168:0.363955 169:0.363955 170:0.329898 171:0.04468 172:0.056161 173:0.03996 174:0.012877 175:0.021343 176:0.082889 177:0.267768 178:0.363955 179:0.282986 180:0.140455 181:0.002282 182:0.006071 183:0.011591 184:0.038583 185:0.408372 186:0.126732 187:0.019475 188:0.005213 189:0.002167 190:0.004653 191:0.001223 192:0.004801 193:0.031615 194:0.408372 195:0.408372 196:0.015797 197:0.000359 198:0.004582 199:0.061205 200:0.048242 201:0.022899 202:0.057755 203:0.249617 204:0.133994 205:0.046054 206:0.087163 207:0.086715 208:0.031751 209:0.020119 210:0.016126 211:0.054088 212:0.408372 213:0.408372 214:0.165843 215:0.03926 216:0.039371 217:0.137798 218:0.053255 219:0.018839 220:0.016594 221:0.027198 222:0.089761 223:0.127554 224:0.291062 225:0.279072 226:0.108753 227:0.035338 228:0.0366 229:0.040776 230:0.101371 231:0.326668 232:0.326668 233:0.326668 234:0.201425 235:0.089709 236:0.031005 237:0.010864 238:0.004845 239:0.04867 240:0.040444 241:0.092451 242:0.185086 243:0.170409 244:0.032861 245:0.018922 246:0.029974 247:0.033871 248:0.149975 249:0.247246 250:0.326668 251:0.326668 252:0.118427 253:0.009545 254:0.002828 255:0.00354 256:0.006759 257:0.034149 258:0.271792 259:0.31767 260:0.311635 261:0.059904 262:0.055877 263:0.021843 264:0.002763 265:0.001775 266:0.026374 267:0.165142 268:0.31767 269:0.31767 270:0.31767 271:0.018634 272:0.011347 273:0.005791 274:0.013534 275:0.045517 276:0.085419 277:0.246846 278:0.262592 279:0.087682 280:0.071242 281:0.02373 282:0.007941 283:0.012536 284:0.022888 285:0.027766 286:0.170507 287:0.31767 288:0.31767 289:0.062412 290:0.030981 291:0.010663 292:0.018565 293:0.033899 294:0.044369 295:0.042384 296:0.334101 297:0.334101 298:0.077634 299:0.024452 300:0.01463 301:0.032593 302:0.079922 303:0.334101 304:0.181162 305:0.15486 306:0.334101 307:0.046866 308:0.009309 309:0.009047 310:0.005676 311:0.008734 312:0.00701 313:0.033808 314:0.334101 315:0.334101 316:0.109268 317:0.016513 318:0.011533 319:0.012548 320:0.009578 321:0.048396 322:0.061259 323:0.334101 324:0.334101 
1 1:0.104997 2:0.108248 3:0.138131 4:0.1516 5:0.110352 6:0.098702 7:0.11363 8:0.085177 9:0.118367 10:0.26329 11:0.167312 12:0.099126 13:0.078283 14:0.09603 15:0.111501 16:0.129604 17:0.134941 18:0.234569 19:0.077252 20:0.075712 21:0.152899 22:0.26329 23:0.26329 24:0.26329 25:0.135483 26:0.065976 27:0.068507 28:0.216548 29:0.162018 30:0.144966 31:0.259517 32:0.26329 33:0.26329 34:0.160523 35:0.1932 36:0.133518 37:0.209153 38:0.082331 39:0.028952 40:0.022715 41:0.036614 42:0.054532 43:0.055136 44:0.135322 45:0.246594 46:0.246594 47:0.109124 48:0.054478 49:0.035612 50:0.063796 51:0.082215 52:0.066843 53:0.123229 54:0.246594 55:0.246594 56:0.176988 57:0.085225 58:0.090126 59:0.18257 60:0.198773 61:0.118742 62:0.246594 63:0.246594 64:0.246594 65:0.22109 66:0.15153 67:0.166371 68:0.20688 69:0.192251 70:0.11468 71:0.246594 72:0.246594 73:0.236798 74:0.093718 75:0.075979 76:0.142182 77:0.186851 78:0.139867 79:0.06038 80:0.048118 81:0.13148 82:0.213159 83:0.236798 84:0.236798 85:0.236798 86:0.236798 87:0.236798 88:0.102082 89:0.047721 90:0.090469 91:0.236798 92:0.113086 93:0.154088 94:0.236798 95:0.165483 96:0.116005 97:0.073054 98:0.103951 99:0.121783 100:0.230362 101:0.236798 102:0.236798 103:0.236798 104:0.147426 105:0.054693 106:0.036905 107:0.078986 108:0.090958 109:0.078153 110:0.048594 111:0.081831 112:0.163788 113:0.263122 114:0.181248 115:0.112544 116:0.154579 117:0.174024 118:0.126405 119:0.104664 120:0.073818 121:0.19813 122:0.263122 123:0.236321 124:0.208235 125:0.263122 126:0.213125 127:0.154295 128:0.032042 129:0.038817 130:0.052946 131:0.075147 132:0.078426 133:0.112958 134:0.232853 135:0.263122 136:0.263122 137:0.086275 138:0.038593 139:0.052214 140:0.077862 141:0.075265 142:0.153205 143:0.263122 144:0.263122 145:0.16465 146:0.137117 147:0.096033 148:0.065902 149:0.142323 150:0.193 151:0.169919 152:0.222101 153:0.184304 154:0.201045 155:0.11893 156:0.165296 157:0.21081 158:0.222101 159:0.222101 160:0.115805 161:0.172113 162:0.171786 163:0.166016 164:0.110033 165:0.095152 166:0.031694 167:0.063171 168:0.124476 169:0.133043 170:0.222101 171:0.222101 172:0.096465 173:0.119543 174:0.173652 175:0.161763 176:0.222101 177:0.222101 178:0.170898 179:0.209101 180:0.184462 181:0.108103 182:0.094056 183:0.247041 184:0.247041 185:0.247041 186:0.192192 187:0.068225 188:0.083487 189:0.077717 190:0.171609 191:0.124045 192:0.247041 193:0.247041 194:0.139747 195:0.039104 196:0.041491 197:0.141464 198:0.146041 199:0.07671 200:0.16618 201:0.247041 202:0.247041 203:0.247041 204:0.195711 205:0.136265 206:0.087859 207:0.186233 208:0.169314 209:0.142532 210:0.199014 211:0.169891 212:0.071954 213:0.020982 214:0.02961 215:0.111786 216:0.236621 217:0.183395 218:0.014699 219:0.012156 220:0.028031 221:0.03392 222:0.124829 223:0.134644 224:0.31059 225:0.31059 226:0.31059 227:0.102761 228:0.01229 229:0.011393 230:0.016261 231:0.036273 232:0.055557 233:0.289824 234:0.31059 235:0.108847 236:0.027127 237:0.015196 238:0.014343 239:0.012509 240:0.030746 241:0.06918 242:0.31059 243:0.31059 244:0.242776 245:0.097601 246:0.007423 247:0.011994 248:0.022801 249:0.067816 250:0.084191 251:0.229577 252:0.31059 253:0.264831 254:0.18395 255:0.067288 256:0.022754 257:0.034935 258:0.067015 259:0.092472 260:0.264831 261:0.264831 262:0.225426 263:0.20869 264:0.145492 265:0.096557 266:0.175852 267:0.196889 268:0.264831 269:0.264831 270:0.264831 271:0.194465 272:0.093558 273:0.013103 274:0.051616 275:0.066855 276:0.112304 277:0.119876 278:0.152325 279:0.264831 280:0.125492 281:0.052334 282:0.042982 283:0.167578 284:0.183859 285:0.090467 286:0.130527 287:0.135838 288:0.169579 289:0.236974 290:0.236974 291:0.236974 292:0.115732 293:0.185544 294:0.198097 295:0.236974 296:0.236974 297:0.236974 298:0.236974 299:0.236974 300:0.181611 301:0.05214 302:0.053981 303:0.061091 304:0.106811 305:0.223876 306:0.236974 307:0.106104 308:0.08273 309:0.076925 310:0.130769 311:0.184475 312:0.073493 313:0.171661 314:0.163278 315:0.141756 316:0.134032 317:0.144355 318:0.084578 319:0.042392 320:0.111659 321:0.070724 322:0.138407 323:0.181184 324:0.165232 
1 1:0.145383 2:0.045924 3:0.06262 4:0.181874 5:0.110699 6:0.053893 7:0.071031 8:0.362234 9:0.155777 10:0.039819 11:0.010512 12:0.03026 13:0.063187 14:0.044991 15:0.030255 16:0.11061 17:0.362234 18:0.118898 19:0.151714 20:0.034086 21:0.025569 22:0.044345 23:0.027144 24:0.01048 25:0.050486 26:0.362234 27:0.362234 28:0.125693 29:0.019759 30:0.008302 31:0.010408 32:0.006362 33:0.006879 34:0.147714 35:0.362234 36:0.362234 37:0.03003 38:0.012247 39:0.016592 40:0.021402 41:0.018087 42:0.023217 43:0.116643 44:0.411739 45:0.064106 46:0.048067 47:0.039235 48:0.019505 49:0.021758 50:0.013949 51:0.021446 52:0.026354 53:0.11966 54:0.043866 55:0.108825 56:0.047073 57:0.004202 58:0.015396 59:0.025292 60:0.024849 61:0.338414 62:0.411739 63:0.411739 64:0.085981 65:0.097695 66:0.029951 67:0.066322 68:0.06685 69:0.073212 70:0.267878 71:0.411739 72:0.202963 73:0.242137 74:0.114239 75:0.075997 76:0.107795 77:0.0579 78:0.045344 79:0.029429 80:0.061895 81:0.115934 82:0.259675 83:0.145682 84:0.103575 85:0.202055 86:0.17464 87:0.124783 88:0.09052 89:0.117441 90:0.259675 91:0.259675 92:0.225705 93:0.094473 94:0.17206 95:0.131717 96:0.128549 97:0.196732 98:0.259675 99:0.179004 100:0.259675 101:0.231313 102:0.128157 103:0.216863 104:0.106169 105:0.04795 106:0.062489 107:0.104082 108:0.259675 109:0.160531 110:0.082482 111:0.09534 112:0.068237 113:0.044234 114:0.010819 115:0.028712 116:0.357678 117:0.357678 118:0.210197 119:0.074722 120:0.072512 121:0.061482 122:0.030665 123:0.020071 124:0.086691 125:0.357678 126:0.357678 127:0.095142 128:0.135829 129:0.149034 130:0.124578 131:0.055843 132:0.03878 133:0.033489 134:0.064622 135:0.088561 136:0.140585 137:0.218241 138:0.357678 139:0.225319 140:0.059041 141:0.031878 142:0.038141 143:0.121589 144:0.134095 145:0.080782 146:0.062518 147:0.175664 148:0.070216 149:0.065058 150:0.02265 151:0.166207 152:0.328771 153:0.328771 154:0.03746 155:0.057306 156:0.290951 157:0.183061 158:0.119324 159:0.070362 160:0.195215 161:0.328771 162:0.107196 163:0.055501 164:0.162318 165:0.328771 166:0.202703 167:0.064995 168:0.0123 169:0.047597 170:0.081393 171:0.064891 172:0.028624 173:0.097797 174:0.328771 175:0.275512 176:0.080062 177:0.019112 178:0.052156 179:0.044503 180:0.016448 181:0.129517 182:0.143176 183:0.26613 184:0.26613 185:0.229969 186:0.176087 187:0.200678 188:0.26613 189:0.122743 190:0.259687 191:0.196933 192:0.087828 193:0.097155 194:0.05503 195:0.028789 196:0.067901 197:0.144971 198:0.26613 199:0.08595 200:0.172861 201:0.26613 202:0.26613 203:0.141422 204:0.055429 205:0.054369 206:0.060881 207:0.058564 208:0.214311 209:0.197767 210:0.148445 211:0.099327 212:0.101494 213:0.087819 214:0.068075 215:0.097759 216:0.153125 217:0.054047 218:0.120333 219:0.198781 220:0.0918 221:0.030101 222:0.028899 223:0.039476 224:0.041603 225:0.035615 226:0.074429 227:0.252224 228:0.407964 229:0.210577 230:0.02177 231:0.01209 232:0.024241 233:0.027867 234:0.014398 235:0.050603 236:0.304678 237:0.407964 238:0.106004 239:0.058805 240:0.02809 241:0.035672 242:0.03931 243:0.04562 244:0.078767 245:0.407964 246:0.407964 247:0.137517 248:0.016586 249:0.017344 250:0.022415 251:0.017181 252:0.024367 253:0.062481 254:0.279752 255:0.468521 256:0.278602 257:0.020107 258:0.008807 259:0.01126 260:0.023097 261:0.005266 262:0.040648 263:0.120848 264:0.468521 265:0.21104 266:0.022011 267:0.006946 268:0.00927 269:0.012877 270:0.013886 271:0.090976 272:0.218667 273:0.468521 274:0.10379 275:0.016914 276:0.02886 277:0.027364 278:0.01351 279:0.021742 280:0.041876 281:0.054979 282:0.180495 283:0.066194 284:0.029949 285:0.017618 286:0.022189 287:0.022188 288:0.027283 289:0.158111 290:0.24245 291:0.24245 292:0.24245 293:0.131686 294:0.043752 295:0.059736 296:0.085232 297:0.090385 298:0.24245 299:0.24245 300:0.21346 301:0.194255 302:0.203718 303:0.181055 304:0.103963 305:0.117316 306:0.146161 307:0.138732 308:0.15696 309:0.20758 310:0.239854 311:0.191075 312:0.062697 313:0.062689 314:0.088011 315:0.093111 316:0.238423 317:0.174388 318:0.141083 319:0.213949 320:0.179694 321:0.106683 322:0.118903 323:0.097684 324:0.106391 
