svm_type c_svc
kernel_type linear
nr_class 2
total_sv 206
rho 5.13409
label 1 8
probA -1.80656
probB 0.539853
nr_sv 88 118
SV
0.8919665384099094 1:0.2815 2:0.2815 3:0.06432 4:0.050356 5:0.017747 6:0.015372 7:0.028313 8:0.03983 9:0.218395 10:0.2815 11:0.2815 12:0.128678 13:0.064934 14:0.01529 15:0.014725 16:0.018248 17:0.080441 18:0.24793 19:0.2815 20:0.2815 21:0.145213 22:0.06022 23:0.015529 24:0.017997 25:0.040092 26:0.071142 27:0.2815 28:0.2815 29:0.2815 30:0.191275 31:0.089865 32:0.027293 33:0.039778 34:0.073408 35:0.087973 36:0.212452 37:0.257607 38:0.257607 39:0.13936 40:0.078434 41:0.043142 42:0.054569 43:0.07452 44:0.198941 45:0.257607 46:0.161817 47:0.232204 48:0.146767 49:0.118668 50:0.060797 51:0.088472 52:0.126843 53:0.174713 54:0.221769 55:0.257607 56:0.257607 57:0.257607 58:0.13393 59:0.074178 60:0.059314 61:0.103866 62:0.094137 63:0.135292 64:0.257607 65:0.257607 66:0.21433 67:0.069418 68:0.050925 69:0.038599 70:0.072205 71:0.104181 72:0.179249 73:0.25363 74:0.217536 75:0.251354 76:0.23035 77:0.123719 78:0.093391 79:0.101921 80:0.079529 81:0.182093 82:0.212944 83:0.268951 84:0.268951 85:0.118594 86:0.180464 87:0.121277 88:0.078089 89:0.051459 90:0.119584 91:0.268951 92:0.268951 93:0.151146 94:0.037906 95:0.02694 96:0.027985 97:0.041989 98:0.064627 99:0.219323 100:0.268951 101:0.268951 102:0.199396 103:0.026462 104:0.019855 105:0.017298 106:0.013952 107:0.014722 108:0.101912 109:0.124877 110:0.155665 111:0.082649 112:0.013257 113:0.019266 114:0.009959 115:0.018522 116:0.04569 117:0.105392 118:0.146712 119:0.308433 120:0.208268 121:0.029777 122:0.017171 123:0.023291 124:0.039359 125:0.054881 126:0.114019 127:0.198703 128:0.408868 129:0.408868 130:0.043546 131:0.024774 132:0.013678 133:0.012205 134:0.023021 135:0.084091 136:0.164227 137:0.408868 138:0.408868 139:0.054613 140:0.021858 141:0.020901 142:0.015155 143:0.022394 144:0.074416 145:0.150477 146:0.277135 147:0.178409 148:0.027718 149:0.018875 150:0.024082 151:0.050115 152:0.072771 153:0.151101 154:0.12599 155:0.11355 156:0.055861 157:0.01506 158:0.031178 159:0.104129 160:0.147196 161:0.167327 162:0.200184 163:0.187615 164:0.280679 165:0.280679 166:0.182929 167:0.117194 168:0.055656 169:0.065087 170:0.078809 171:0.157951 172:0.119842 173:0.169008 174:0.083038 175:0.280679 176:0.280679 177:0.280679 178:0.240831 179:0.189685 180:0.203256 181:0.177825 182:0.124507 183:0.04386 184:0.012241 185:0.068254 186:0.288767 187:0.294915 188:0.205629 189:0.189034 190:0.139167 191:0.160303 192:0.06946 193:0.031257 194:0.020359 195:0.029853 196:0.021658 197:0.013253 198:0.050461 199:0.063271 200:0.036257 201:0.020911 202:0.334935 203:0.334935 204:0.334935 205:0.334935 206:0.24438 207:0.18543 208:0.158749 209:0.147048 210:0.076742 211:0.077933 212:0.067634 213:0.111945 214:0.057395 215:0.047825 216:0.094834 217:0.068887 218:0.353594 219:0.353594 220:0.026319 221:0.002536 222:0.004273 223:0.002023 224:0.004321 225:0.023125 226:0.043077 227:0.353594 228:0.353594 229:0.046949 230:0.010631 231:0.002409 232:0.00658 233:0.002776 234:0.010418 235:0.039568 236:0.353594 237:0.353594 238:0.024061 239:0.012786 240:0.002002 241:0.003306 242:0.004312 243:0.015826 244:0.02742 245:0.304364 246:0.353594 247:0.10549 248:0.060728 249:0.000938 250:0.008271 251:0.00452 252:0.00452 253:0.051675 254:0.302293 255:0.302293 256:0.302293 257:0.182455 258:0.020695 259:0.021471 260:0.013835 261:0.026495 262:0.022367 263:0.055685 264:0.046848 265:0.302293 266:0.302293 267:0.174276 268:0.063191 269:0.034483 270:0.033089 271:0.009258 272:0.101016 273:0.158672 274:0.302293 275:0.302293 276:0.031222 277:0.006472 278:0.002031 279:0.001595 280:0.005402 281:0.00553 282:0.030782 283:0.302293 284:0.302293 285:0.218639 286:0.082807 287:0.040041 288:0.024538 289:0.046178 290:0.017427 291:0.00728 292:0.283474 293:0.283474 294:0.283474 295:0.139342 296:0.127292 297:0.099867 298:0.120257 299:0.067941 300:0.027241 301:0.038899 302:0.040642 303:0.045707 304:0.051266 305:0.130689 306:0.172381 307:0.063142 308:0.004674 309:0.000688 310:0.211642 311:0.283474 312:0.283474 313:0.283407 314:0.283474 315:0.220452 316:0.210702 317:0.026811 318:0.003687 319:0.005953 320:0.024629 321:0.024905 322:0.101363 323:0.278752 324:0.283474 
1 1:0.161589 2:0.063948 3:0.073184 4:0.027599 5:0.080553 6:0.063379 7:0.030571 8:0.043746 9:0.16877 10:0.178625 11:0.074007 12:0.075306 13:0.203234 14:0.302566 15:0.302566 16:0.121547 17:0.106801 18:0.13096 19:0.180373 20:0.054137 21:0.056729 22:0.037945 23:0.056041 24:0.060696 25:0.111435 26:0.119114 27:0.286658 28:0.259768 29:0.0748 30:0.058556 31:0.059352 32:0.239821 33:0.302566 34:0.257127 35:0.256059 36:0.302566 37:0.087363 38:0.055864 39:0.082065 40:0.303493 41:0.319712 42:0.27438 43:0.058549 44:0.054574 45:0.041635 46:0.047046 47:0.03202 48:0.060077 49:0.319712 50:0.319712 51:0.088802 52:0.01819 53:0.013724 54:0.018539 55:0.162134 56:0.063556 57:0.055873 58:0.071137 59:0.282607 60:0.272437 61:0.110883 62:0.100932 63:0.097149 64:0.085681 65:0.036604 66:0.036163 67:0.144193 68:0.319712 69:0.319712 70:0.14234 71:0.023599 72:0.031524 73:0.001306 74:0.000311 75:0.005876 76:0.28601 77:0.357499 78:0.035281 79:0.006511 80:0.002788 81:0.002336 82:0.006779 83:0.004136 84:0.006278 85:0.357499 86:0.357499 87:0.014304 88:0.003856 89:0.002085 90:0.007514 91:0.006078 92:8.3e-005 93:0.005091 94:0.237867 95:0.357499 96:0.275903 97:0.106786 98:0.005759 99:0.000775 100:0.010113 101:0.005868 102:0.025685 103:0.357499 104:0.357499 105:0.028857 106:0.008851 107:0.004512 108:0.011887 109:0.261295 110:0.085831 111:0.052106 112:0.039434 113:0.042006 114:0.060412 115:0.189562 116:0.261295 117:0.261295 118:0.261295 119:0.124806 120:0.08593 121:0.139392 122:0.140201 123:0.152819 124:0.251801 125:0.261295 126:0.261295 127:0.167043 128:0.161711 129:0.099768 130:0.04799 131:0.037141 132:0.009365 133:0.044494 134:0.097544 135:0.190361 136:0.176267 137:0.25343 138:0.261295 139:0.175496 140:0.105991 141:0.082681 142:0.062289 143:0.09093 144:0.214126 145:0.080931 146:0.033411 147:0.036721 148:0.047822 149:0.189601 150:0.2645 151:0.134933 152:0.065911 153:0.069545 154:0.050598 155:0.017421 156:0.031334 157:0.049811 158:0.319846 159:0.319846 160:0.319846 161:0.207312 162:0.032608 163:0.034051 164:0.110022 165:0.290843 166:0.07698 167:0.056842 168:0.087493 169:0.074104 170:0.031535 171:0.021757 172:0.059243 173:0.095638 174:0.257485 175:0.079315 176:0.079462 177:0.267292 178:0.319846 179:0.319846 180:0.075502 181:0.063236 182:0.022665 183:0.028203 184:0.119563 185:0.266686 186:0.266686 187:0.266686 188:0.207796 189:0.044514 190:0.082027 191:0.04382 192:0.066098 193:0.266686 194:0.266686 195:0.049109 196:0.053807 197:0.077588 198:0.070909 199:0.185863 200:0.057103 201:0.053797 202:0.057049 203:0.076912 204:0.114953 205:0.266686 206:0.266686 207:0.26062 208:0.266686 209:0.086718 210:0.053017 211:0.110221 212:0.112357 213:0.047867 214:0.153565 215:0.266686 216:0.266686 217:0.051687 218:0.100284 219:0.168732 220:0.09384 221:0.046353 222:0.010908 223:0.011656 224:0.01668 225:0.024034 226:0.029114 227:0.271039 228:0.427954 229:0.15382 230:0.037456 231:0.007787 232:0.006529 233:0.017648 234:0.011981 235:0.058458 236:0.184277 237:0.427954 238:0.196538 239:0.14627 240:0.011778 241:0.02451 242:0.007168 243:0.014185 244:0.022905 245:0.350595 246:0.427954 247:0.261782 248:0.050598 249:0.002821 250:0.003408 251:0.012073 252:0.003027 253:0.026983 254:0.325952 255:0.325952 256:0.148897 257:0.034449 258:0.012123 259:0.013547 260:0.017762 261:0.007252 262:0.047794 263:0.186337 264:0.325952 265:0.234313 266:0.147204 267:0.091718 268:0.256722 269:0.261112 270:0.067233 271:0.023142 272:0.325952 273:0.325952 274:0.118213 275:0.027214 276:0.010793 277:0.004522 278:0.023842 279:0.007302 280:0.022286 281:0.155338 282:0.25461 283:0.176752 284:0.164283 285:0.125728 286:0.019281 287:0.014143 288:0.008267 289:0.214182 290:0.061062 291:0.107232 292:0.136154 293:0.161719 294:0.152329 295:0.309364 296:0.309364 297:0.309364 298:0.309364 299:0.10012 300:0.031606 301:0.037235 302:0.066112 303:0.086771 304:0.204543 305:0.309364 306:0.309364 307:0.014557 308:0.033606 309:0.065125 310:0.145812 311:0.246122 312:0.207041 313:0.038888 314:0.015372 315:0.02311 316:0.100523 317:0.10986 318:0.077106 319:0.070468 320:0.157019 321:0.113136 322:0.047453 323:0.069503 324:0.131671 
1 1:0.05678 2:0.066775 3:0.136029 4:0.145568 5:0.170206 6:0.079225 7:0.180964 8:0.096067 9:0.05297 10:0.044057 11:0.124625 12:0.251318 13:0.251318 14:0.251318 15:0.102922 16:0.102978 17:0.059403 18:0.040461 19:0.150343 20:0.092715 21:0.113077 22:0.106782 23:0.18432 24:0.126424 25:0.251318 26:0.18531 27:0.13225 28:0.068853 29:0.123769 30:0.247907 31:0.251318 32:0.251318 33:0.251318 34:0.251318 35:0.251318 36:0.138238 37:0.063941 38:0.107442 39:0.225368 40:0.205377 41:0.190769 42:0.054444 43:0.054367 44:0.051078 45:0.093774 46:0.121419 47:0.094616 48:0.153691 49:0.225368 50:0.225368 51:0.147492 52:0.169378 53:0.096601 54:0.199945 55:0.032219 56:0.106309 57:0.225368 58:0.225368 59:0.208232 60:0.197163 61:0.225368 62:0.175111 63:0.094949 64:0.105434 65:0.160455 66:0.225368 67:0.225368 68:0.21211 69:0.225368 70:0.192118 71:0.113419 72:0.127116 73:0.126902 74:0.125704 75:0.080987 76:0.209881 77:0.246319 78:0.151546 79:0.152115 80:0.084791 81:0.141702 82:0.080794 83:0.130496 84:0.053836 85:0.194016 86:0.246319 87:0.205871 88:0.195295 89:0.08025 90:0.132956 91:0.206683 92:0.174511 93:0.169854 94:0.246319 95:0.203548 96:0.172047 97:0.128902 98:0.100659 99:0.124321 100:0.122296 101:0.112137 102:0.078758 103:0.246319 104:0.246319 105:0.246319 106:0.201764 107:0.102291 108:0.093328 109:0.228827 110:0.071156 111:0.058678 112:0.043033 113:0.091132 114:0.0651 115:0.098425 116:0.110575 117:0.174324 118:0.18429 119:0.087924 120:0.1361 121:0.201031 122:0.221704 123:0.188213 124:0.253277 125:0.173508 126:0.111291 127:0.262101 128:0.099978 129:0.094414 130:0.060614 131:0.086608 132:0.080901 133:0.039246 134:0.123007 135:0.197204 136:0.286125 137:0.238567 138:0.320635 139:0.320635 140:0.139138 141:0.110435 142:0.095311 143:0.122341 144:0.128427 145:0.049589 146:0.073941 147:0.112393 148:0.119644 149:0.075975 150:0.074243 151:0.090277 152:0.081558 153:0.044497 154:0.090118 155:0.098524 156:0.133046 157:0.088506 158:0.048781 159:0.097157 160:0.089626 161:0.137082 162:0.158266 163:0.205058 164:0.305557 165:0.307852 166:0.307852 167:0.041852 168:0.020357 169:0.03403 170:0.091282 171:0.199142 172:0.307852 173:0.243822 174:0.270985 175:0.120264 176:0.018668 177:0.034065 178:0.132225 179:0.307852 180:0.307852 181:0.12779 182:0.077285 183:0.073042 184:0.094179 185:0.070257 186:0.125548 187:0.109398 188:0.120189 189:0.159515 190:0.053521 191:0.040969 192:0.06145 193:0.256547 194:0.262958 195:0.11026 196:0.096544 197:0.051925 198:0.033724 199:0.290515 200:0.060854 201:0.025622 202:0.038297 203:0.034484 204:0.10741 205:0.30291 206:0.30291 207:0.30291 208:0.055854 209:0.0402 210:0.041017 211:0.20171 212:0.269901 213:0.172324 214:0.30291 215:0.30291 216:0.089123 217:0.020333 218:0.037043 219:0.104609 220:0.075284 221:0.038023 222:0.024028 223:0.008043 224:0.013117 225:0.015725 226:0.023446 227:0.084425 228:0.400747 229:0.400747 230:0.047158 231:0.016043 232:0.009532 233:0.014648 234:0.015702 235:0.003635 236:0.030075 237:0.400747 238:0.365556 239:0.089005 240:0.010942 241:0.010472 242:0.004723 243:0.003029 244:0.007238 245:0.0808 246:0.400747 247:0.400747 248:0.105939 249:0.020103 250:0.013813 251:0.005812 252:0.015019 253:0.100192 254:0.201721 255:0.312247 256:0.302179 257:0.009708 258:0.002553 259:0.010306 260:0.058413 261:0.108823 262:0.156077 263:0.12876 264:0.223534 265:0.04798 266:0.001211 267:0.014793 268:0.153968 269:0.312247 270:0.312247 271:0.047474 272:0.165029 273:0.312247 274:0.312247 275:0.03725 276:0.020806 277:0.027033 278:0.043799 279:0.069267 280:0.059163 281:0.098126 282:0.168942 283:0.066805 284:0.095324 285:0.064115 286:0.218785 287:0.243932 288:0.171154 289:0.061861 290:0.009389 291:0.001196 292:0.002285 293:0.005486 294:0.061787 295:0.324046 296:0.324046 297:0.303709 298:0.008946 299:0.0055 300:0.001577 301:0.018401 302:0.049739 303:0.170092 304:0.324046 305:0.237916 306:0.025668 307:0.017905 308:0.015149 309:0.034077 310:0.082434 311:0.142855 312:0.200453 313:0.324046 314:0.264405 315:0.103395 316:0.008634 317:0.003175 318:0.013056 319:0.048555 320:0.095409 321:0.324046 322:0.324046 323:0.126774 324:0.01077 
1 1:0.261691 2:0.137212 3:0.084584 4:0.073501 5:0.008394 6:0.012325 7:0.039918 8:0.108134 9:0.225524 10:0.290415 11:0.116648 12:0.056474 13:0.018869 14:0.005915 15:0.002888 16:0.039152 17:0.134359 18:0.290415 19:0.290415 20:0.25391 21:0.092469 22:0.07629 23:0.001047 24:0.023429 25:0.099682 26:0.202697 27:0.290415 28:0.290415 29:0.290415 30:0.15322 31:0.065804 32:0.022983 33:0.014677 34:0.075357 35:0.202616 36:0.290415 37:0.288976 38:0.170918 39:0.103403 40:0.008884 41:0.012916 42:0.007654 43:0.029254 44:0.05602 45:0.288976 46:0.188443 47:0.13739 48:0.097882 49:0.026609 50:0.039059 51:0.119395 52:0.145594 53:0.111449 54:0.225443 55:0.288976 56:0.26364 57:0.186957 58:0.029029 59:0.024741 60:0.0156 61:0.051022 62:0.195044 63:0.288976 64:0.288976 65:0.166326 66:0.115782 67:0.009878 68:0.013211 69:0.106039 70:0.135184 71:0.263258 72:0.288976 73:0.177652 74:0.051407 75:0.023716 76:0.040676 77:0.043857 78:0.139995 79:0.161618 80:0.161522 81:0.211246 82:0.255046 83:0.079269 84:0.032459 85:0.025006 86:0.044314 87:0.079257 88:0.108873 89:0.15559 90:0.262879 91:0.332599 92:0.08921 93:0.053461 94:0.01502 95:0.009843 96:0.08069 97:0.106604 98:0.255992 99:0.332599 100:0.332599 101:0.083642 102:0.062565 103:0.040687 104:0.004706 105:0.021556 106:0.101708 107:0.308295 108:0.332599 109:0.254068 110:0.129562 111:0.027747 112:0.026786 113:0.007954 114:0.015117 115:0.063057 116:0.170661 117:0.254068 118:0.254068 119:0.254068 120:0.113808 121:0.063917 122:0.022119 123:0.017286 124:0.036388 125:0.095779 126:0.216012 127:0.254068 128:0.09965 129:0.039067 130:0.032673 131:0.055816 132:0.121203 133:0.181594 134:0.254068 135:0.254068 136:0.254068 137:0.231077 138:0.108146 139:0.143088 140:0.162216 141:0.191837 142:0.195477 143:0.213574 144:0.242055 145:0.237339 146:0.190379 147:0.095551 148:0.044308 149:0.039799 150:0.049946 151:0.052573 152:0.165086 153:0.186606 154:0.243703 155:0.082663 156:0.047652 157:0.022522 158:0.050519 159:0.083378 160:0.129457 161:0.207046 162:0.243703 163:0.11653 164:0.119248 165:0.102041 166:0.243703 167:0.243703 168:0.238026 169:0.14389 170:0.16857 171:0.082062 172:0.110467 173:0.061136 174:0.089623 175:0.243703 176:0.243703 177:0.232096 178:0.243703 179:0.243703 180:0.206264 181:0.280938 182:0.058778 183:0.050019 184:0.027567 185:0.037594 186:0.052239 187:0.098948 188:0.143283 189:0.254721 190:0.280938 191:0.049661 192:0.064474 193:0.045399 194:0.023732 195:0.030232 196:0.093514 197:0.204439 198:0.280938 199:0.137515 200:0.051949 201:0.059679 202:0.138575 203:0.161287 204:0.131645 205:0.251416 206:0.280938 207:0.280938 208:0.26981 209:0.102938 210:0.075914 211:0.067171 212:0.07296 213:0.100778 214:0.13368 215:0.280938 216:0.280938 217:0.202021 218:0.081606 219:0.05838 220:0.061187 221:0.096462 222:0.220128 223:0.141946 224:0.114093 225:0.171705 226:0.107149 227:0.047224 228:0.09965 229:0.117419 230:0.145369 231:0.235105 232:0.235105 233:0.192212 234:0.129426 235:0.194614 236:0.13663 237:0.233178 238:0.137346 239:0.134285 240:0.18283 241:0.134204 242:0.150593 243:0.185294 244:0.112426 245:0.160591 246:0.235105 247:0.235105 248:0.167386 249:0.2174 250:0.205819 251:0.20366 252:0.188287 253:0.019145 254:0.043365 255:0.144451 256:0.241863 257:0.24605 258:0.20847 259:0.134155 260:0.081198 261:0.024325 262:0.033615 263:0.039795 264:0.10634 265:0.24605 266:0.24605 267:0.244661 268:0.21559 269:0.152012 270:0.074817 271:0.040809 272:0.184563 273:0.24605 274:0.24605 275:0.148882 276:0.154772 277:0.127389 278:0.089433 279:0.072678 280:0.063208 281:0.132833 282:0.22193 283:0.1735 284:0.199326 285:0.24605 286:0.24605 287:0.121549 288:0.087074 289:0.041946 290:0.036113 291:0.048021 292:0.141132 293:0.240197 294:0.240197 295:0.240197 296:0.225873 297:0.173928 298:0.137875 299:0.104296 300:0.059994 301:0.095316 302:0.221338 303:0.239308 304:0.109169 305:0.154203 306:0.240197 307:0.047258 308:0.054261 309:0.045469 310:0.115415 311:0.240197 312:0.240197 313:0.240197 314:0.132124 315:0.062092 316:0.057746 317:0.063214 318:0.035678 319:0.092748 320:0.240197 321:0.240197 322:0.240197 323:0.240197 324:0.113102 
0.2338698738598567 1:0.040579 2:0.144956 3:0.320752 4:0.259443 5:0.078737 6:0.009819 7:0.003529 8:0.013085 9:0.03035 10:0.043197 11:0.25563 12:0.320752 13:0.219135 14:0.12105 15:0.015289 16:0.006399 17:0.014166 18:0.019013 19:0.039361 20:0.225337 21:0.320752 22:0.320752 23:0.030202 24:0.004463 25:0.005308 26:0.006247 27:0.022376 28:0.064379 29:0.320752 30:0.320752 31:0.285514 32:0.107884 33:0.007747 34:0.00034 35:0.006014 36:0.013725 37:0.028139 38:0.306134 39:0.306134 40:0.172092 41:0.077884 42:0.005945 43:0.003086 44:0.002017 45:0.001392 46:0.146954 47:0.306134 48:0.306134 49:0.103926 50:0.060913 51:0.017089 52:0.003032 53:0.010809 54:0.048387 55:0.072317 56:0.306134 57:0.306134 58:0.244625 59:0.136537 60:0.008437 61:0.000711 62:0.005036 63:0.011323 64:0.117033 65:0.306134 66:0.306134 67:0.210853 68:0.157174 69:0.052586 70:0.019085 71:0.022923 72:0.036779 73:0.26177 74:0.26177 75:0.208664 76:0.057845 77:0.090048 78:0.04835 79:0.026717 80:0.032135 81:0.231125 82:0.26177 83:0.23055 84:0.067032 85:0.015274 86:0.087882 87:0.028508 88:0.037034 89:0.020607 90:0.253116 91:0.213035 92:0.26177 93:0.26177 94:0.182471 95:0.26177 96:0.126901 97:0.072794 98:0.050421 99:0.128763 100:0.26177 101:0.234302 102:0.185966 103:0.063768 104:0.171694 105:0.062681 106:0.084412 107:0.033791 108:0.136069 109:0.039251 110:0.1769 111:0.307051 112:0.307051 113:0.015953 114:0.015474 115:0.019669 116:0.004468 117:0.014224 118:0.07439 119:0.287305 120:0.307051 121:0.163375 122:0.097103 123:0.021839 124:0.017233 125:0.019437 126:0.030017 127:0.134755 128:0.256853 129:0.307051 130:0.286578 131:0.076294 132:0.06353 133:0.05288 134:0.002977 135:0.041664 136:0.132251 137:0.307051 138:0.307051 139:0.237372 140:0.096654 141:0.06124 142:0.040617 143:0.02325 144:0.035837 145:0.035127 146:0.187493 147:0.097233 148:0.06611 149:0.062543 150:0.01249 151:0.005361 152:0.014838 153:0.018535 154:0.083231 155:0.255549 156:0.212123 157:0.143237 158:0.045342 159:0.025843 160:0.046237 161:0.030198 162:0.054632 163:0.057675 164:0.341359 165:0.341359 166:0.320461 167:0.04318 168:0.025817 169:0.008855 170:0.021113 171:0.045895 172:0.106541 173:0.341359 174:0.341359 175:0.341359 176:0.1758 177:0.126268 178:0.122522 179:0.065565 180:0.154566 181:0.096274 182:0.134366 183:0.152793 184:0.094268 185:0.046658 186:0.089396 187:0.123859 188:0.053747 189:0.083196 190:0.069593 191:0.069301 192:0.05921 193:0.033483 194:0.064603 195:0.128943 196:0.079759 197:0.023072 198:0.031108 199:0.108072 200:0.301816 201:0.301816 202:0.301816 203:0.301816 204:0.301816 205:0.301816 206:0.117246 207:0.212253 208:0.036399 209:0.038354 210:0.046759 211:0.105543 212:0.301816 213:0.301816 214:0.19888 215:0.040875 216:0.051092 217:0.112046 218:0.206199 219:0.310725 220:0.08368 221:0.031217 222:0.018144 223:0.011853 224:0.003238 225:0.039949 226:0.053945 227:0.330037 228:0.330037 229:0.214075 230:0.040097 231:0.011275 232:0.008098 233:0.00225 234:0.011801 235:0.068218 236:0.330037 237:0.330037 238:0.050359 239:0.025948 240:0.006041 241:0.004125 242:0.005433 243:0.032565 244:0.033877 245:0.330037 246:0.330037 247:0.330037 248:0.105539 249:0.000871 250:0.003513 251:0.005976 252:0.023094 253:0.011068 254:0.095989 255:0.257019 256:0.328898 257:0.018781 258:0.005011 259:0.001939 260:0.001654 261:0.009185 262:0.014259 263:0.083225 264:0.332664 265:0.332664 266:0.17347 267:0.057073 268:0.022848 269:0.007662 270:0.031049 271:0.006355 272:0.037913 273:0.314802 274:0.332664 275:0.056597 276:0.003034 277:0.002545 278:0.001455 279:0.005526 280:0.008426 281:0.017653 282:0.332664 283:0.332664 284:0.332664 285:0.0466 286:0.007629 287:0.001722 288:0.013276 289:0.015556 290:0.083698 291:0.339158 292:0.263402 293:0.356735 294:0.205311 295:0.07124 296:0.018457 297:0.046587 298:0.004296 299:0.004858 300:0.008154 301:0.070022 302:0.356735 303:0.201475 304:0.042366 305:0.006114 306:0.008947 307:0.006079 308:0.015375 309:0.149998 310:0.356735 311:0.356735 312:0.115661 313:0.009431 314:0.001092 315:0.012868 316:0.001492 317:0.00017 318:0.001503 319:0.131298 320:0.356735 321:0.131884 322:0.013225 323:0.001416 324:0.002218 
1 1:0.145301 2:0.186283 3:0.119014 4:0.129785 5:0.110125 6:0.100753 7:0.083902 8:0.133861 9:0.183568 10:0.249176 11:0.072838 12:0.087997 13:0.092863 14:0.061764 15:0.053049 16:0.129711 17:0.228576 18:0.270505 19:0.270505 20:0.178356 21:0.081325 22:0.059052 23:0.106714 24:0.147492 25:0.094768 26:0.191532 27:0.270505 28:0.270505 29:0.216709 30:0.136632 31:0.113039 32:0.090992 33:0.190813 34:0.10859 35:0.220462 36:0.270505 37:0.277346 38:0.096 39:0.100596 40:0.053365 41:0.045121 42:0.031352 43:0.09686 44:0.1442 45:0.276106 46:0.203278 47:0.144791 48:0.150219 49:0.05615 50:0.051807 51:0.049711 52:0.078013 53:0.067629 54:0.128099 55:0.301698 56:0.301698 57:0.147953 58:0.039647 59:0.034627 60:0.106224 61:0.068403 62:0.165491 63:0.301698 64:0.301698 65:0.270725 66:0.211782 67:0.083271 68:0.033836 69:0.059005 70:0.07732 71:0.097064 72:0.301698 73:0.262761 74:0.114115 75:0.10878 76:0.049311 77:0.025356 78:0.024607 79:0.048424 80:0.062481 81:0.194817 82:0.262761 83:0.164264 84:0.081256 85:0.022799 86:0.028713 87:0.027708 88:0.022479 89:0.054173 90:0.241665 91:0.262761 92:0.196003 93:0.243924 94:0.262761 95:0.074868 96:0.06807 97:0.135236 98:0.082961 99:0.262761 100:0.262761 101:0.215673 102:0.095284 103:0.262455 104:0.080758 105:0.049019 106:0.089579 107:0.262761 108:0.262761 109:0.337628 110:0.063992 111:0.015504 112:0.007905 113:0.016163 114:0.020339 115:0.008842 116:0.076033 117:0.337628 118:0.337628 119:0.091888 120:0.024441 121:0.015802 122:0.017896 123:0.038767 124:0.016705 125:0.059033 126:0.337628 127:0.337628 128:0.09031 129:0.006624 130:0.001731 131:0.002157 132:0.002363 133:0.011808 134:0.124746 135:0.337628 136:0.337628 137:0.131083 138:0.024922 139:0.013259 140:0.009136 141:0.011047 142:0.03255 143:0.125375 144:0.337628 145:0.294393 146:0.12714 147:0.026933 148:0.00456 149:0.006682 150:0.018233 151:0.010084 152:0.022058 153:0.246282 154:0.275194 155:0.096937 156:0.063658 157:0.074375 158:0.050651 159:0.023151 160:0.049652 161:0.044352 162:0.294393 163:0.294393 164:0.178706 165:0.108706 166:0.092563 167:0.020362 168:0.014643 169:0.0249 170:0.0592 171:0.294393 172:0.294393 173:0.176859 174:0.294393 175:0.294393 176:0.143475 177:0.041846 178:0.092045 179:0.0615 180:0.294393 181:0.146398 182:0.121819 183:0.206626 184:0.30922 185:0.106089 186:0.049589 187:0.08446 188:0.05395 189:0.262723 190:0.08388 191:0.108942 192:0.124911 193:0.202931 194:0.037304 195:0.030119 196:0.04549 197:0.218182 198:0.176846 199:0.109998 200:0.214508 201:0.30922 202:0.30922 203:0.203904 204:0.073514 205:0.116921 206:0.072483 207:0.172937 208:0.072944 209:0.140652 210:0.225023 211:0.253389 212:0.054076 213:0.090461 214:0.144524 215:0.212768 216:0.090787 217:0.271061 218:0.096634 219:0.046453 220:0.023211 221:0.066672 222:0.050197 223:0.07772 224:0.135196 225:0.283344 226:0.283344 227:0.178919 228:0.177593 229:0.137719 230:0.10864 231:0.11542 232:0.134638 233:0.119503 234:0.283344 235:0.124588 236:0.123351 237:0.117912 238:0.085738 239:0.230438 240:0.124743 241:0.120264 242:0.075081 243:0.070923 244:0.130494 245:0.151136 246:0.283344 247:0.283344 248:0.283344 249:0.190726 250:0.162622 251:0.055842 252:0.083819 253:0.143643 254:0.084667 255:0.302523 256:0.268444 257:0.040113 258:0.034898 259:0.025277 260:0.031757 261:0.068665 262:0.067285 263:0.099971 264:0.351485 265:0.351485 266:0.05574 267:0.019159 268:0.02116 269:0.016652 270:0.026717 271:0.034821 272:0.072454 273:0.351485 274:0.351485 275:0.116392 276:0.038489 277:0.025541 278:0.009206 279:0.020586 280:0.024692 281:0.081116 282:0.351485 283:0.351485 284:0.069571 285:0.014167 286:0.015935 287:0.004731 288:0.008604 289:0.036499 290:0.255099 291:0.387197 292:0.387197 293:0.138799 294:0.053858 295:0.062962 296:0.02583 297:0.019432 298:0.024077 299:0.088345 300:0.184869 301:0.229477 302:0.12232 303:0.115778 304:0.128662 305:0.086604 306:0.015602 307:0.043252 308:0.156188 309:0.387197 310:0.387197 311:0.174133 312:0.047633 313:0.06448 314:0.016525 315:0.014261 316:0.018435 317:0.080409 318:0.151823 319:0.159847 320:0.170998 321:0.063736 322:0.051051 323:0.010222 324:0.008179 
1 1:0.018011 2:0.00054 3:9.9e-005 4:0.003072 5:0.032507 6:0.058925 7:0.348261 8:0.348261 9:0.041539 10:0.009381 11:0.000215 12:0 13:0.000884 14:0.022828 15:0.036342 16:0.348261 17:0.348261 18:0.019993 19:0.020544 20:0.001745 21:0.003103 22:0.004799 23:0.019587 24:0.091964 25:0.348261 26:0.348261 27:0.042742 28:0.01393 29:0.000117 30:0.001346 31:0.001381 32:0.009967 33:0.065096 34:0.348261 35:0.348261 36:0.040657 37:0.006413 38:0.000621 39:0 40:0.000444 41:0.011207 42:0.021019 43:0.350776 44:0.350776 45:0.023614 46:0.002355 47:0.000789 48:0 49:0.000346 50:0.010303 51:0.041515 52:0.350776 53:0.350776 54:0.04522 55:0.005526 56:1.6e-005 57:0 58:0.000978 59:0.005191 60:0.018985 61:0.350776 62:0.350776 63:0.026647 64:0.00113 65:0 66:0 67:0.00076 68:0.008329 69:0.072699 70:0.350776 71:0.350776 72:0.024789 73:0.013958 74:0.003508 75:0.000668 76:0.00043 77:0.028692 78:0.11015 79:0.334395 80:0.367408 81:0.11516 82:0.080932 83:0.021226 84:0.041909 85:0.016269 86:0.046696 87:0.081507 88:0.110911 89:0.138987 90:0.138336 91:0.001161 92:0.000322 93:7.5e-005 94:9.9e-005 95:0.026908 96:0.252021 97:0.367408 98:0.367408 99:0.069681 100:0.041653 101:0.003831 102:0.001928 103:0.006001 104:0.034493 105:0.179228 106:0.367408 107:0.367408 108:0.101705 109:0.119705 110:0.012313 111:0.013061 112:0.017787 113:0.03299 114:0.120991 115:0.302277 116:0.285114 117:0.16809 118:0.069377 119:0.001018 120:0.00555 121:0.002297 122:0.019745 123:0.095375 124:0.302277 125:0.302277 126:0.302277 127:0.302277 128:0.044938 129:0.014853 130:0.013894 131:0.013433 132:0.034001 133:0.111661 134:0.102737 135:0.302277 136:0.238589 137:0.040057 138:0.011112 139:0.004755 140:0.025614 141:0.072961 142:0.141364 143:0.302277 144:0.302277 145:0.017485 146:0.000101 147:0.000756 148:0.000473 149:0.009156 150:0.04313 151:0.297275 152:0.297275 153:0.187945 154:0.003343 155:0.000571 156:0.003276 157:0.000724 158:0.014697 159:0.086134 160:0.297275 161:0.297275 162:0.052366 163:0.05394 164:0.014233 165:0.013217 166:0.012427 167:0.109554 168:0.277772 169:0.161726 170:0.297275 171:0.297275 172:0.006426 173:0.013887 174:0.020593 175:0.012868 176:0.164026 177:0.297275 178:0.297275 179:0.297275 180:0.084971 181:0.000349 182:0.000306 183:0.001209 184:0.000323 185:0.004542 186:0.084106 187:0.336767 188:0.336767 189:0.022279 190:0.006695 191:0.000243 192:0 193:0.000929 194:0.00478 195:0.066327 196:0.336767 197:0.336767 198:0.022715 199:0.001976 200:0.008112 201:0.00588 202:0.005115 203:0.036664 204:0.237222 205:0.336767 206:0.336232 207:0.031417 208:0.00855 209:0.000527 210:0.000225 211:0.006858 212:0.004268 213:0.133958 214:0.336767 215:0.336767 216:0.017421 217:0.320855 218:0.09678 219:0.072854 220:0.037843 221:0.015997 222:0.007036 223:0.049558 224:0.08442 225:0.283849 226:0.301221 227:0.194289 228:0.207693 229:0.085288 230:0.054958 231:0.075456 232:0.054872 233:0.155274 234:0.327156 235:0.147295 236:0.108314 237:0.208799 238:0.126737 239:0.081064 240:0.054988 241:0.050837 242:0.016502 243:0.041414 244:0.140968 245:0.327156 246:0.327156 247:0.327156 248:0.113054 249:0.026719 250:0.022732 251:0.018281 252:0.053794 253:0.066087 254:0.119157 255:0.17687 256:0.075649 257:0.1647 258:0.265089 259:0.048826 260:0.090099 261:0.116316 262:0.029453 263:0.068205 264:0.101992 265:0.065615 266:0.237499 267:0.265089 268:0.256495 269:0.252983 270:0.095758 271:0.058271 272:0.265089 273:0.265089 274:0.132 275:0.097939 276:0.137663 277:0.057449 278:0.015225 279:0.035285 280:0.062117 281:0.141906 282:0.22097 283:0.069306 284:0.194783 285:0.265089 286:0.265089 287:0.265089 288:0.115832 289:0.008784 290:0.011642 291:0.008656 292:0.011865 293:0.046659 294:0.195944 295:0.340681 296:0.312972 297:0.048846 298:0.01371 299:0.001651 300:0.001006 301:0.004695 302:0.006494 303:0.087976 304:0.340681 305:0.340681 306:0.015631 307:0.019752 308:0.010689 309:0.014397 310:0.015009 311:0.077966 312:0.132027 313:0.340681 314:0.340681 315:0.059145 316:0.018468 317:0.001381 318:0.000782 319:0.002609 320:0.048571 321:0.059643 322:0.340681 323:0.340681 324:0.019088 
1 1:0.060076 2:0.068819 3:0.06707 4:0.247829 5:0.241779 6:0.070091 7:0.038275 8:0.043442 9:0.057932 10:0.149122 11:0.144323 12:0.180024 13:0.268054 14:0.268054 15:0.166978 16:0.065996 17:0.081213 18:0.143556 19:0.130664 20:0.126609 21:0.133521 22:0.155786 23:0.139745 24:0.095871 25:0.141063 26:0.167156 27:0.12776 28:0.148295 29:0.268054 30:0.268054 31:0.268054 32:0.268054 33:0.239643 34:0.158202 35:0.102388 36:0.062706 37:0.081868 38:0.108245 39:0.146812 40:0.262275 41:0.262275 42:0.165587 43:0.042081 44:0.047179 45:0.077968 46:0.027634 47:0.058786 48:0.200226 49:0.262275 50:0.262275 51:0.126851 52:0.028397 53:0.011514 54:0.020256 55:0.083404 56:0.226441 57:0.262275 58:0.262275 59:0.239752 60:0.197739 61:0.072389 62:0.056471 63:0.037522 64:0.043474 65:0.112177 66:0.262275 67:0.262275 68:0.262275 69:0.23577 70:0.040002 71:0.038254 72:0.035967 73:0.005497 74:0.016548 75:0.178858 76:0.356889 77:0.168681 78:0.021236 79:0.015634 80:0.001908 81:0.002897 82:0.014114 83:0.009311 84:0.217162 85:0.356889 86:0.162475 87:0.006406 88:0.017233 89:0.003832 90:0.005917 91:0.007794 92:0.024655 93:0.231596 94:0.356889 95:0.356889 96:0.072871 97:0.014975 98:0.01085 99:0.007061 100:0.014086 101:0.004498 102:0.18877 103:0.356889 104:0.356889 105:0.022836 106:0.007931 107:0.002481 108:0.008757 109:0.17326 110:0.133266 111:0.099174 112:0.073535 113:0.074066 114:0.165898 115:0.164988 116:0.169981 117:0.140811 118:0.168513 119:0.221805 120:0.221805 121:0.214838 122:0.096664 123:0.221805 124:0.221805 125:0.101683 126:0.082978 127:0.155471 128:0.221805 129:0.142352 130:0.14813 131:0.117676 132:0.149244 133:0.098351 134:0.111025 135:0.112939 136:0.221805 137:0.221805 138:0.221805 139:0.21524 140:0.099579 141:0.221805 142:0.195812 143:0.140878 144:0.173859 145:0.049472 146:0.150374 147:0.2813 148:0.289182 149:0.132541 150:0.14423 151:0.084518 152:0.039813 153:0.026633 154:0.023518 155:0.126458 156:0.289182 157:0.289182 158:0.289182 159:0.14181 160:0.031377 161:0.031411 162:0.019587 163:0.129093 164:0.162919 165:0.257302 166:0.289182 167:0.100057 168:0.132222 169:0.099744 170:0.096892 171:0.10138 172:0.047113 173:0.124635 174:0.289182 175:0.289182 176:0.177618 177:0.045165 178:0.021686 179:0.036055 180:0.032962 181:0.015864 182:0.049766 183:0.284909 184:0.31599 185:0.31599 186:0.06799 187:0.016396 188:0.010324 189:0.004546 190:0.012481 191:0.007461 192:0.198484 193:0.31599 194:0.31599 195:0.035468 196:0.008725 197:0.001556 198:0.005144 199:0.022413 200:0.05891 201:0.31599 202:0.31599 203:0.165915 204:0.017593 205:0.006324 206:0.002953 207:0.002398 208:0.022469 209:0.015284 210:0.31599 211:0.31599 212:0.187639 213:0.015106 214:0.005638 215:0.000104 216:0.009008 217:0.069586 218:0.18085 219:0.245506 220:0.142064 221:0.068218 222:0.034738 223:0.013935 224:0.036137 225:0.051218 226:0.111657 227:0.284906 228:0.284906 229:0.246564 230:0.059436 231:0.080722 232:0.071801 233:0.113023 234:0.115836 235:0.284906 236:0.284906 237:0.284906 238:0.101095 239:0.067894 240:0.017318 241:0.021803 242:0.049995 243:0.125453 244:0.154491 245:0.284906 246:0.284906 247:0.284906 248:0.177906 249:0.041244 250:0.048594 251:0.076887 252:0.076164 253:0.104023 254:0.135553 255:0.287644 256:0.287644 257:0.074212 258:0.101307 259:0.099558 260:0.17787 261:0.138616 262:0.040552 263:0.055141 264:0.287644 265:0.287644 266:0.153844 267:0.057932 268:0.03415 269:0.060268 270:0.036805 271:0.057389 272:0.098355 273:0.287644 274:0.287644 275:0.234294 276:0.069692 277:0.069542 278:0.122369 279:0.066942 280:0.033575 281:0.030702 282:0.251591 283:0.287644 284:0.287644 285:0.096344 286:0.11149 287:0.084254 288:0.020843 289:0.01521 290:0.026744 291:0.33069 292:0.353501 293:0.1264 294:0.020403 295:0.00551 296:0.000613 297:0.000828 298:0.017642 299:0.009287 300:0.302003 301:0.353501 302:0.120201 303:0.009752 304:0.004617 305:0.002163 306:0.009997 307:0.013766 308:0.013391 309:0.151416 310:0.353501 311:0.287283 312:0.056637 313:0.04826 314:0.018899 315:0.000583 316:0.008338 317:0.002382 318:0.177649 319:0.353501 320:0.34555 321:0.024175 322:0.009496 323:0.012004 324:0.006045 
1 1:0.071851 2:0.038597 3:0.025403 4:0.107151 5:0.153963 6:0.127874 7:0.229815 8:0.275065 9:0.240567 10:0.089778 11:0.026113 12:0.008766 13:0.045722 14:0.124965 15:0.104961 16:0.275065 17:0.275065 18:0.275065 19:0.084702 20:0.065593 21:0.076584 22:0.093587 23:0.14879 24:0.131705 25:0.267925 26:0.217423 27:0.193555 28:0.08002 29:0.044477 30:0.078181 31:0.160091 32:0.177259 33:0.102885 34:0.178846 35:0.275065 36:0.275065 37:0.17055 38:0.081363 39:0.045646 40:0.036363 41:0.07552 42:0.063727 43:0.143252 44:0.245634 45:0.245634 46:0.245634 47:0.225908 48:0.112781 49:0.047521 50:0.060718 51:0.042526 52:0.055711 53:0.144524 54:0.245634 55:0.053521 56:0.017006 57:0.076991 58:0.189381 59:0.245634 60:0.18852 61:0.164048 62:0.245634 63:0.245634 64:0.183276 65:0.101056 66:0.106705 67:0.131915 68:0.21435 69:0.182448 70:0.174362 71:0.245634 72:0.245634 73:0.246497 74:0.246497 75:0.181797 76:0.059652 77:0.065829 78:0.047963 79:0.057577 80:0.119205 81:0.212363 82:0.246497 83:0.246497 84:0.173996 85:0.110019 86:0.188186 87:0.052983 88:0.042185 89:0.096119 90:0.139056 91:0.246497 92:0.210371 93:0.122404 94:0.105244 95:0.086317 96:0.110651 97:0.139729 98:0.214231 99:0.246497 100:0.246497 101:0.239742 102:0.178638 103:0.130872 104:0.134842 105:0.030423 106:0.029394 107:0.112757 108:0.246497 109:0.042073 110:0.034092 111:0.0488 112:0.051882 113:0.068609 114:0.136381 115:0.262689 116:0.262689 117:0.203559 118:0.059859 119:0.055536 120:0.12645 121:0.222598 122:0.144036 123:0.110632 124:0.200852 125:0.238912 126:0.262689 127:0.033125 128:0.012981 129:0.005229 130:0.025033 131:0.046349 132:0.151498 133:0.262689 134:0.262689 135:0.195102 136:0.049714 137:0.034979 138:0.071223 139:0.123567 140:0.108819 141:0.262689 142:0.262689 143:0.262689 144:0.262689 145:0.041917 146:0.026423 147:0.072372 148:0.169792 149:0.173494 150:0.107471 151:0.092747 152:0.237875 153:0.257438 154:0.10967 155:0.024691 156:0.036758 157:0.103173 158:0.135507 159:0.117647 160:0.118065 161:0.257438 162:0.257438 163:0.062363 164:0.043472 165:0.080261 166:0.17243 167:0.126358 168:0.139539 169:0.182725 170:0.257438 171:0.257438 172:0.073452 173:0.073108 174:0.234398 175:0.257438 176:0.257438 177:0.08802 178:0.05114 179:0.257438 180:0.257438 181:0.175648 182:0.048385 183:0.0509 184:0.118753 185:0.098371 186:0.080891 187:0.099616 188:0.2407 189:0.271324 190:0.233375 191:0.070732 192:0.082561 193:0.136486 194:0.068287 195:0.034155 196:0.04055 197:0.146852 198:0.271324 199:0.074072 200:0.100751 201:0.271324 202:0.271324 203:0.271324 204:0.100551 205:0.062526 206:0.126519 207:0.188684 208:0.111149 209:0.046547 210:0.251074 211:0.271324 212:0.204088 213:0.107152 214:0.067782 215:0.132285 216:0.271324 217:0.116323 218:0.063548 219:0.02036 220:0.031363 221:0.035132 222:0.150512 223:0.250393 224:0.250393 225:0.120481 226:0.148218 227:0.104133 228:0.04809 229:0.044954 230:0.08727 231:0.250393 232:0.250393 233:0.250393 234:0.124501 235:0.250393 236:0.239426 237:0.095592 238:0.091828 239:0.09825 240:0.085836 241:0.073485 242:0.134234 243:0.190866 244:0.250393 245:0.250393 246:0.250393 247:0.197952 248:0.192008 249:0.166181 250:0.153404 251:0.131185 252:0.139354 253:0.083017 254:0.088308 255:0.057137 256:0.123918 257:0.155016 258:0.192992 259:0.174229 260:0.161149 261:0.073635 262:0.027878 263:0.098022 264:0.272284 265:0.276557 266:0.276557 267:0.258241 268:0.103981 269:0.050311 270:0.036414 271:0.130512 272:0.204367 273:0.106408 274:0.104337 275:0.178355 276:0.230346 277:0.154295 278:0.084815 279:0.054062 280:0.028559 281:0.079179 282:0.087501 283:0.274672 284:0.276557 285:0.276557 286:0.276557 287:0.03594 288:0.036361 289:0.00583 290:0.115362 291:0.272513 292:0.272513 293:0.272513 294:0.162176 295:0.112343 296:0.016397 297:0.012127 298:0.01677 299:0.050594 300:0.20523 301:0.272513 302:0.154081 303:0.121139 304:0.150218 305:0.047517 306:0.035559 307:0.001818 308:0.036367 309:0.152862 310:0.233682 311:0.272513 312:0.272513 313:0.271146 314:0.018581 315:0.012176 316:0.062197 317:0.049798 318:0.182781 319:0.133837 320:0.272513 321:0.2134 322:0.20967 323:0.095645 324:0.075218 
1 1:0.015872 2:0.001964 3:0.00128 4:0.000353 5:0.002699 6:0.008325 7:0.095919 8:0.391189 9:0.170624 10:0.010585 11:0.004308 12:0.00518 13:0.003343 14:0.010691 15:0.023434 16:0.021298 17:0.391189 18:0.210335 19:0.011652 20:0 21:8e-006 22:6e-006 23:0 24:0.030108 25:0.389758 26:0.391189 27:0.113486 28:0.002538 29:0.000653 30:0.000117 31:9.7e-005 32:0.000216 33:0.045155 34:0.311081 35:0.391189 36:0.187491 37:0.036541 38:0.013268 39:0.011233 40:0.011573 41:0.030325 42:0.039797 43:0.035173 44:0.389868 45:0.248886 46:0.04166 47:0.029453 48:0.032913 49:0.023278 50:0.04033 51:0.024825 52:0.061911 53:0.164313 54:0.11304 55:0.017594 56:0.004655 57:0.000354 58:0.00059 59:0.001781 60:0.037527 61:0.360801 62:0.389868 63:0.317752 64:0.031609 65:0.010733 66:0.004815 67:0.003396 68:0.005309 69:0.079377 70:0.389868 71:0.389868 72:0.173822 73:0.064817 74:0.069253 75:0.082944 76:0.074582 77:0.205537 78:0.112805 79:0.231239 80:0.145824 81:0.068556 82:0.019063 83:0.017284 84:0.012936 85:0.027391 86:0.166639 87:0.227956 88:0.362723 89:0.158972 90:0.01656 91:0.084864 92:0.043161 93:0.032719 94:0.030194 95:0.07272 96:0.287728 97:0.362723 98:0.362723 99:0.093231 100:0.065065 101:0.041522 102:0.055961 103:0.061199 104:0.107416 105:0.197317 106:0.362723 107:0.186357 108:0.039353 109:0.008039 110:0 111:0 112:0 113:0.000202 114:0.029281 115:0.330829 116:0.330829 117:0.048507 118:0 119:0 120:0 121:0 122:0.003891 123:0.105561 124:0.330829 125:0.330829 126:0.039341 127:0.019218 128:0.006025 129:0.005315 130:0.006145 131:0.016431 132:0.062995 133:0.273929 134:0.315453 135:0.045496 136:0.003803 137:0.004131 138:0.00582 139:0.024443 140:0.180453 141:0.330829 142:0.330829 143:0.330829 144:0.005141 145:0.000516 146:0.001011 147:0.004755 148:0.007387 149:0.026761 150:0.175054 151:0.284286 152:0.284286 153:0.042533 154:0.001909 155:0.001641 156:0.006685 157:0.024513 158:0.090302 159:0.255361 160:0.284286 161:0.284286 162:0.025234 163:0.000486 164:0.008599 165:0.044676 166:0.110247 167:0.284286 168:0.284286 169:0.284286 170:0.146526 171:0.000274 172:0.000378 173:0.010403 174:0.102977 175:0.284286 176:0.284286 177:0.284286 178:0.185016 179:0.020869 180:0 181:0.00762 182:0.003742 183:0.006008 184:0.0293 185:0.156448 186:0.30932 187:0.30932 188:0.143726 189:0.007888 190:0.018252 191:0.008632 192:0.01914 193:0.026953 194:0.079933 195:0.234659 196:0.248395 197:0.038794 198:0.014376 199:0.00017 200:0.003001 201:0.118595 202:0.30932 203:0.30932 204:0.30932 205:0.29695 206:0.00894 207:0.000193 208:0.006484 209:0.004641 210:0.045577 211:0.172094 212:0.306689 213:0.30932 214:0.148187 215:0.011923 216:0.007525 217:0.068849 218:0.030722 219:0.023063 220:0.02593 221:0.052459 222:0.105271 223:0.168784 224:0.232838 225:0.089476 226:0.02458 227:0.024077 228:0.03404 229:0.314097 230:0.378457 231:0.378457 232:0.268951 233:0.123627 234:0.023768 235:0.036227 236:0.017763 237:0.015135 238:0.047285 239:0.057525 240:0.074073 241:0.17822 242:0.201373 243:0.055148 244:0.020529 245:0.018028 246:0.041448 247:0.378457 248:0.378457 249:0.085893 250:0.077235 251:0.128055 252:0.047316 253:0.002498 254:0.010968 255:0.083258 256:0.326215 257:0.326215 258:0.319787 259:0.067441 260:0.011792 261:0.00149 262:0.001865 263:0.011792 264:0.253125 265:0.326215 266:0.17506 267:0.087138 268:0.003863 269:5e-006 270:0 271:0.003656 272:0.006783 273:0.123731 274:0.326215 275:0.326215 276:0.052831 277:0.013979 278:0.013913 279:0.004837 280:0.002531 281:0.014125 282:0.326215 283:0.326215 284:0.127518 285:0.01701 286:0.002992 287:0.003012 288:0.00077 289:0 290:0.010837 291:0.340159 292:0.340159 293:0.284768 294:0.127834 295:0.005996 296:0.00015 297:0 298:0.003641 299:0.009576 300:0.181981 301:0.340159 302:0.249805 303:0.176959 304:0.019505 305:0.001462 306:0.003641 307:0.00976 308:0.089825 309:0.340159 310:0.340159 311:0.056605 312:0.004786 313:0 314:0 315:0.001372 316:0.014764 317:0.083057 318:0.268369 319:0.302457 320:0.102735 321:0.022458 322:0.005567 323:0.001724 324:0.005796 
0.03156216378598689 1:0.097138 2:0.274174 3:0.277073 4:0.277073 5:0.154063 6:0.025433 7:0.01824 8:0.013427 9:0.032389 10:0.077717 11:0.277073 12:0.277073 13:0.157056 14:0.190591 15:0.079181 16:0.021153 17:0.013217 18:0.027158 19:0.277073 20:0.277073 21:0.277073 22:0.095628 23:0.033632 24:0.006464 25:0.020922 26:0.019429 27:0.097959 28:0.234484 29:0.277073 30:0.277073 31:0.181231 32:0.084359 33:0.031828 34:0.024969 35:0.021881 36:0.057498 37:0.169633 38:0.266847 39:0.266847 40:0.098128 41:0.183025 42:0.07003 43:0.036625 44:0.053548 45:0.151387 46:0.266847 47:0.266847 48:0.111072 49:0.027372 50:0.036844 51:0.041358 52:0.064486 53:0.10067 54:0.266847 55:0.266847 56:0.266847 57:0.266847 58:0.085555 59:0.059091 60:0.030716 61:0.016544 62:0.030296 63:0.163488 64:0.266847 65:0.266847 66:0.096761 67:0.019377 68:0.020168 69:0.090013 70:0.095037 71:0.112768 72:0.266847 73:0.246248 74:0.224704 75:0.025528 76:0.050178 77:0.047843 78:0.08305 79:0.10258 80:0.161393 81:0.246248 82:0.246248 83:0.12121 84:0.054624 85:0.130718 86:0.08466 87:0.116242 88:0.078414 89:0.174124 90:0.246248 91:0.186531 92:0.186296 93:0.045874 94:0.046336 95:0.052148 96:0.181074 97:0.216608 98:0.246248 99:0.246248 100:0.154668 101:0.215813 102:0.13465 103:0.17464 104:0.094807 105:0.141648 106:0.129409 107:0.246248 108:0.246248 109:0.305231 110:0.305231 111:0.083224 112:0.039788 113:0.011583 114:0.003121 115:0.005951 116:0.006058 117:0.174689 118:0.305231 119:0.260926 120:0.111566 121:0.123754 122:0.045878 123:0.024955 124:0.026799 125:0.028715 126:0.171982 127:0.305231 128:0.305231 129:0.140038 130:0.038689 131:0.013869 132:0.002604 133:0.005419 134:0.012637 135:0.178441 136:0.305231 137:0.305231 138:0.229212 139:0.041146 140:0.010328 141:0.007536 142:0.024054 143:0.080988 144:0.246952 145:0.259327 146:0.129482 147:0.036556 148:0.03028 149:0.013855 150:0.015988 151:0.012085 152:0.01984 153:0.092736 154:0.148041 155:0.209319 156:0.109409 157:0.046334 158:0.036338 159:0.097972 160:0.066006 161:0.086991 162:0.139961 163:0.340892 164:0.344772 165:0.262613 166:0.014894 167:0.004797 168:0.02241 169:0.02248 170:0.038015 171:0.116949 172:0.344772 173:0.344772 174:0.344772 175:0.089437 176:0.059978 177:0.133954 178:0.124831 179:0.136087 180:0.194313 181:0.043574 182:0.102318 183:0.080064 184:0.058465 185:0.04578 186:0.13379 187:0.187475 188:0.164384 189:0.090615 190:0.041162 191:0.101509 192:0.058012 193:0.057359 194:0.035293 195:0.101369 196:0.182412 197:0.12084 198:0.082801 199:0.269192 200:0.286395 201:0.286395 202:0.095874 203:0.083097 204:0.286395 205:0.286395 206:0.286395 207:0.151459 208:0.124682 209:0.061033 210:0.03283 211:0.032809 212:0.036533 213:0.286395 214:0.286395 215:0.248561 216:0.171647 217:0.059388 218:0.134203 219:0.110812 220:0.045462 221:0.017862 222:0.004169 223:0.001704 224:0.006014 225:0.017442 226:0.119491 227:0.423079 228:0.362323 229:0.020113 230:0.003794 231:0.001241 232:0.005506 233:0.024117 234:0.025458 235:0.046263 236:0.226726 237:0.423079 238:0.129193 239:0.072763 240:0.007793 241:0.005278 242:0.003418 243:0.009589 244:0.078161 245:0.423079 246:0.423079 247:0.09475 248:0.071428 249:0.000456 250:0.002058 251:0.005029 252:0.007056 253:0.082607 254:0.34272 255:0.34272 256:0.004388 257:0.000809 258:0.00393 259:0.004899 260:0.009437 261:0.015933 262:0.173308 263:0.34272 264:0.30152 265:0.013901 266:0.053588 267:0.08983 268:0.063051 269:0.027235 270:0.068611 271:0.097666 272:0.34272 273:0.34272 274:0.013259 275:0.017327 276:0.009411 277:0.026587 278:0.024391 279:0.024324 280:0.107094 281:0.34272 282:0.20879 283:0.011615 284:0.106878 285:0.159403 286:0.177267 287:0.066686 288:0.056563 289:0.156322 290:0.273087 291:0.113719 292:0.016781 293:0.120617 294:0.273087 295:0.273087 296:0.120423 297:0.099368 298:0.138911 299:0.022482 300:0.003445 301:0.001561 302:0.031953 303:0.252066 304:0.273087 305:0.188637 306:0.172445 307:0.03751 308:0.118444 309:0.030312 310:0.024358 311:0.243509 312:0.273087 313:0.273087 314:0.116931 315:0.042723 316:0.122949 317:0.029418 318:0.007855 319:0.045029 320:0.149726 321:0.236279 322:0.273087 323:0.206503 324:0.135141 
1 1:0.157389 2:0.244098 3:0.197527 4:0.062556 5:0.085551 6:0.052774 7:0.084205 8:0.06939 9:0.157616 10:0.160415 11:0.204642 12:0.098582 13:0.086188 14:0.116131 15:0.096433 16:0.151946 17:0.084024 18:0.195281 19:0.229081 20:0.19639 21:0.134922 22:0.087578 23:0.039225 24:0.111392 25:0.235046 26:0.244098 27:0.244098 28:0.195375 29:0.173383 30:0.071669 31:0.107884 32:0.137727 33:0.244098 34:0.244098 35:0.244098 36:0.244098 37:0.131643 38:0.171191 39:0.087644 40:0.065738 41:0.081969 42:0.087963 43:0.099443 44:0.071607 45:0.121204 46:0.11633 47:0.12395 48:0.092153 49:0.079001 50:0.144443 51:0.087003 52:0.169796 53:0.184183 54:0.201753 55:0.203208 56:0.19412 57:0.038339 58:0.058158 59:0.138416 60:0.264323 61:0.172008 62:0.204374 63:0.264323 64:0.264323 65:0.264323 66:0.075531 67:0.066332 68:0.103632 69:0.264323 70:0.186494 71:0.264323 72:0.264323 73:0.106607 74:0.087733 75:0.072118 76:0.050445 77:0.100132 78:0.059596 79:0.160307 80:0.227512 81:0.186724 82:0.242544 83:0.212976 84:0.115776 85:0.038098 86:0.039093 87:0.024618 88:0.070865 89:0.16088 90:0.204221 91:0.282018 92:0.218763 93:0.106556 94:0.076979 95:0.044106 96:0.104049 97:0.179223 98:0.276473 99:0.282018 100:0.282018 101:0.273427 102:0.124879 103:0.06073 104:0.018514 105:0.022481 106:0.077617 107:0.212514 108:0.282018 109:0.192693 110:0.088362 111:0.067011 112:0.074785 113:0.021767 114:0.038524 115:0.106343 116:0.12234 117:0.193768 118:0.193681 119:0.118896 120:0.087197 121:0.072005 122:0.039629 123:0.105868 124:0.188069 125:0.14585 126:0.227651 127:0.303506 128:0.247686 129:0.148574 130:0.125954 131:0.032843 132:0.038073 133:0.05183 134:0.063017 135:0.284416 136:0.303506 137:0.303506 138:0.303506 139:0.182736 140:0.031854 141:0.044072 142:0.066156 143:0.048826 144:0.299241 145:0.075016 146:0.100541 147:0.06727 148:0.03316 149:0.018152 150:0.047953 151:0.03887 152:0.046146 153:0.074934 154:0.310255 155:0.286703 156:0.104157 157:0.030903 158:0.014184 159:0.037853 160:0.025481 161:0.070644 162:0.256146 163:0.098777 164:0.346072 165:0.346072 166:0.10459 167:0.00985 168:0.012343 169:0.01983 170:0.017599 171:0.057843 172:0.346072 173:0.346072 174:0.346072 175:0.112975 176:0.064404 177:0.05958 178:0.061182 179:0.075514 180:0.21546 181:0.249041 182:0.14746 183:0.045918 184:0.020003 185:0.026776 186:0.044622 187:0.053537 188:0.102691 189:0.249041 190:0.123192 191:0.057198 192:0.053229 193:0.031555 194:0.039322 195:0.057688 196:0.058587 197:0.084158 198:0.229677 199:0.249041 200:0.249041 201:0.249041 202:0.152526 203:0.249041 204:0.222214 205:0.14463 206:0.163448 207:0.249041 208:0.101798 209:0.158289 210:0.183386 211:0.21733 212:0.249041 213:0.242519 214:0.129732 215:0.110085 216:0.215002 217:0.100414 218:0.19118 219:0.085678 220:0.012293 221:0.003247 222:0.005882 223:0.005393 224:0.008329 225:0.028025 226:0.169909 227:0.373471 228:0.262616 229:0.019818 230:0.003176 231:0.004154 232:0.003713 233:0.00302 234:0.024104 235:0.373471 236:0.373471 237:0.221946 238:0.004488 239:0.025752 240:0.000846 241:0.002709 242:0.004356 243:0.01507 244:0.373471 245:0.373471 246:0.302916 247:0.018438 248:0.032743 249:0.011531 250:0.022679 251:0.012622 252:0.027869 253:0.090674 254:0.302782 255:0.302782 256:0.053796 257:0.013409 258:0.007073 259:0.010316 260:0.001783 261:0.021043 262:0.085518 263:0.302782 264:0.302782 265:0.239025 266:0.096333 267:0.04374 268:0.03866 269:0.016713 270:0.036945 271:0.19714 272:0.302782 273:0.302782 274:0.156224 275:0.090417 276:0.026284 277:0.041964 278:0.011046 279:0.043944 280:0.124821 281:0.175648 282:0.288766 283:0.302782 284:0.187175 285:0.074846 286:0.067994 287:0.046677 288:0.106541 289:0.083837 290:0.238671 291:0.284733 292:0.276699 293:0.192047 294:0.105908 295:0.061829 296:0.037474 297:0.045276 298:0.119751 299:0.284733 300:0.194295 301:0.12955 302:0.156102 303:0.098147 304:0.044672 305:0.02703 306:0.04206 307:0.284733 308:0.174931 309:0.194489 310:0.284733 311:0.134211 312:0.077409 313:0.072817 314:0.060996 315:0.232127 316:0.284733 317:0.284733 318:0.133535 319:0.036978 320:0.029309 321:0.026603 322:0.02826 323:0.016844 324:0.173878 
1 1:0.051446 2:0.342588 3:0.342588 4:0.045999 5:0.01017 6:0 7:0 8:0.000666 9:0.007403 10:0.057994 11:0.342588 12:0.342588 13:0.038093 14:0.020694 15:0.003278 16:0.003131 17:0.00142 18:0.001212 19:0.026452 20:0.342588 21:0.342588 22:0.140291 23:0.065097 24:0.058642 25:0.028117 26:0.009225 27:0.009497 28:0.115524 29:0.342588 30:0.342588 31:0.04686 32:0.016365 33:0.020913 34:0.035273 35:0.013333 36:0.027643 37:0.146532 38:0.309879 39:0.309879 40:0.148944 41:0.080043 42:0.039399 43:0.017865 44:0.001208 45:0.002121 46:0.136784 47:0.309879 48:0.309879 49:0.203927 50:0.109153 51:0.082593 52:0.036409 53:0.009035 54:0.004568 55:0.180709 56:0.309879 57:0.264408 58:0.111783 59:0.090261 60:0.077925 61:0.078098 62:0.02491 63:0.04519 64:0.054982 65:0.15469 66:0.217728 67:0.164945 68:0.140716 69:0.211709 70:0.236296 71:0.144237 72:0.059243 73:0.117033 74:0.288122 75:0.288122 76:0.11691 77:0.068051 78:0.043055 79:0.029901 80:0.018753 81:0.024671 82:0.288122 83:0.288122 84:0.181758 85:0.026645 86:0.023752 87:0.004683 88:0.010244 89:0.011665 90:0.057345 91:0.28053 92:0.288122 93:0.200112 94:0.086745 95:0.073698 96:0.115013 97:0.167426 98:0.185463 99:0.170869 100:0.288122 101:0.288122 102:0.083685 103:0.044213 104:0.051412 105:0.015775 106:0.03219 107:0.100038 108:0.288122 109:0.038426 110:0.213032 111:0.281832 112:0.281832 113:0.253879 114:0.211183 115:0.110582 116:0.039071 117:0.032552 118:0.148338 119:0.248992 120:0.174707 121:0.076367 122:0.050338 123:0.087477 124:0.134306 125:0.069271 126:0.121282 127:0.281832 128:0.281832 129:0.192986 130:0.24385 131:0.133723 132:0.099174 133:0.077742 134:0.035212 135:0.048977 136:0.281832 137:0.281832 138:0.120379 139:0.062666 140:0.05693 141:0.078498 142:0.074338 143:0.052288 144:0.107734 145:0.16375 146:0.193886 147:0.088994 148:0.098931 149:0.080727 150:0.055467 151:0.085397 152:0.048062 153:0.102017 154:0.069324 155:0.188671 156:0.224862 157:0.223575 158:0.095405 159:0.092872 160:0.154986 161:0.115987 162:0.049665 163:0.317579 164:0.317579 165:0.209243 166:0.29361 167:0.093549 168:0.054307 169:0.032632 170:0.032856 171:0.095664 172:0.113339 173:0.317579 174:0.317579 175:0.317579 176:0.109131 177:0.055227 178:0.018148 179:0.023628 180:0.023007 181:0.188087 182:0.294582 183:0.174219 184:0.08729 185:0.052557 186:0.047669 187:0.077883 188:0.101944 189:0.100649 190:0.294582 191:0.262137 192:0.075061 193:0.136205 194:0.195696 195:0.052394 196:0.044874 197:0.080035 198:0.172272 199:0.098154 200:0.294582 201:0.294582 202:0.294582 203:0.191135 204:0.092158 205:0.029109 206:0.04698 207:0.029767 208:0.073088 209:0.122225 210:0.132535 211:0.294582 212:0.294582 213:0.104941 214:0.0418 215:0.039778 216:0.042497 217:0.293715 218:0.293715 219:0.128553 220:0.152066 221:0.066197 222:0.059888 223:0.107379 224:0.051904 225:0.039773 226:0.293715 227:0.293715 228:0.184293 229:0.165031 230:0.131743 231:0.075936 232:0.045626 233:0.019474 234:0.065208 235:0.047405 236:0.115179 237:0.293715 238:0.293715 239:0.163476 240:0.049763 241:0.06377 242:0.03144 243:0.021308 244:0.025825 245:0.139042 246:0.293715 247:0.293715 248:0.281273 249:0.047834 250:0.024864 251:0.005254 252:0.013641 253:0.087902 254:0.1512 255:0.2915 256:0.264221 257:0.054575 258:0.022975 259:0.003497 260:0.007526 261:0.029973 262:0.029808 263:0.120612 264:0.342843 265:0.342843 266:0.044213 267:0.016242 268:0.002805 269:0.005512 270:0.006031 271:0.01429 272:0.11352 273:0.342843 274:0.342843 275:0.107523 276:0.011478 277:0.005547 278:0.003827 279:0.00757 280:0.028453 281:0.126106 282:0.342843 283:0.342843 284:0.20442 285:0.01146 286:0.009346 287:0.009164 288:0.007992 289:0.023749 290:0.098208 291:0.338734 292:0.338734 293:0.111941 294:0.037497 295:0.008977 296:0.013552 297:0.002875 298:0.010336 299:0.014663 300:0.110133 301:0.338734 302:0.298482 303:0.032836 304:0.005514 305:0.006048 306:0.004976 307:0.014129 308:0.043967 309:0.264557 310:0.338734 311:0.308996 312:0.008211 313:0.002967 314:0.003844 315:0.003299 316:0.003363 317:0.000705 318:0.130063 319:0.338734 320:0.330626 321:0.042615 322:0.001846 323:0.00233 324:0.003514 
0.7398274126541924 1:0.263015 2:0.263015 3:0.123658 4:0.133071 5:0.02763 6:0.011962 7:0.034907 8:0.046261 9:0.085768 10:0.120071 11:0.087537 12:0.047499 13:0.069914 14:0.053243 15:0.250579 16:0.215333 17:0.128318 18:0.078035 19:0.263015 20:0.236982 21:0.108912 22:0.031034 23:0.000169 24:0.039846 25:0.144311 26:0.263015 27:0.263015 28:0.263015 29:0.263015 30:0.106843 31:0.086386 32:0.01218 33:0.25044 34:0.244246 35:0.152237 36:0.220828 37:0.071411 38:0.013015 39:0.007686 40:0.007563 41:0.066995 42:0.255301 43:0.255301 44:0.140112 45:0.103874 46:0.226008 47:0.029858 48:0.006012 49:0.012887 50:0.069066 51:0.177641 52:0.178673 53:0.172576 54:0.255301 55:0.255301 56:0.255301 57:0.086716 58:0.065674 59:0.021025 60:0.255301 61:0.231053 62:0.158493 63:0.176948 64:0.255301 65:0.255301 66:0.121456 67:0.036488 68:0.119517 69:0.111524 70:0.159876 71:0.172878 72:0.255301 73:0.142826 74:0.02127 75:0.024676 76:0.06576 77:0.17187 78:0.127161 79:0.126147 80:0.163905 81:0.212697 82:0.02232 83:0.009446 84:0.032693 85:0.189316 86:0.258901 87:0.221039 88:0.09934 89:0.116428 90:0.077893 91:0.258901 92:0.196905 93:0.156617 94:0.092032 95:0.258901 96:0.163601 97:0.157023 98:0.144503 99:0.243381 100:0.117183 101:0.049214 102:0.04638 103:0.155838 104:0.258901 105:0.203169 106:0.180828 107:0.258901 108:0.258901 109:0.289554 110:0.090619 111:0.034911 112:0.010996 113:0.000338 114:0.020756 115:0.085962 116:0.254816 117:0.289554 118:0.289554 119:0.289554 120:0.063048 121:0.042646 122:0.001309 123:0.050835 124:0.046743 125:0.05559 126:0.289554 127:0.289554 128:0.050637 129:0.028147 130:0.055014 131:0.025203 132:0.047425 133:0.103657 134:0.127004 135:0.289554 136:0.289554 137:0.248148 138:0.194166 139:0.06602 140:0.035379 141:0.025704 142:0.030809 143:0.062712 144:0.289554 145:0.285887 146:0.285887 147:0.070057 148:0.029344 149:0.013835 150:0.023366 151:0.021808 152:0.024793 153:0.091636 154:0.285887 155:0.285887 156:0.155794 157:0.115489 158:0.100424 159:0.013195 160:0.015791 161:0.031316 162:0.089493 163:0.285235 164:0.285887 165:0.285887 166:0.087524 167:0.021308 168:0.002999 169:0.003478 170:0.016185 171:0.078035 172:0.270697 173:0.285887 174:0.285887 175:0.285887 176:0.089567 177:0.01023 178:0.02989 179:0.053633 180:0.08625 181:0.259958 182:0.259958 183:0.149468 184:0.094921 185:0.080669 186:0.018519 187:0.023684 188:0.064498 189:0.18109 190:0.174206 191:0.091658 192:0.031576 193:0.01322 194:0.04741 195:0.032119 196:0.095506 197:0.259958 198:0.259958 199:0.25773 200:0.259958 201:0.259958 202:0.259958 203:0.053251 204:0.030787 205:0.133388 206:0.153266 207:0.174445 208:0.155376 209:0.111822 210:0.045394 211:0.039157 212:0.019553 213:0.105055 214:0.259958 215:0.259958 216:0.259958 217:0.03706 218:0.062186 219:0.165681 220:0.149587 221:0.030202 222:0.027448 223:0.049183 224:0.033922 225:0.03834 226:0.055568 227:0.299696 228:0.345695 229:0.176591 230:0.054712 231:0.012771 232:0.01523 233:0.019203 234:0.026887 235:0.013236 236:0.114795 237:0.345695 238:0.345695 239:0.16356 240:0.003143 241:0.002602 242:0.0012 243:0.003573 244:0.040043 245:0.345695 246:0.345695 247:0.345695 248:0.215479 249:0.031492 250:0.003359 251:7e-006 252:0 253:0.053985 254:0.312774 255:0.312774 256:0.146215 257:0.023708 258:0.002123 259:0.006834 260:0.009851 261:0.015104 262:0.097257 263:0.312774 264:0.312774 265:0.215655 266:0.077793 267:0.025505 268:0.062891 269:0.093908 270:0.056699 271:0.076773 272:0.312774 273:0.312774 274:0.217786 275:0.103566 276:0.024815 277:0.006512 278:0.003425 279:0.001657 280:0.100898 281:0.263669 282:0.312774 283:0.189248 284:0.154194 285:0.028258 286:0.032493 287:0.045956 288:0.014528 289:0.075397 290:0.150992 291:0.152916 292:0.191429 293:0.089481 294:0.127977 295:0.226092 296:0.241543 297:0.080309 298:0.057249 299:0.071306 300:0.051173 301:0.03949 302:0.082693 303:0.249401 304:0.249401 305:0.249401 306:0.129255 307:0.049038 308:0.11865 309:0.180435 310:0.204569 311:0.249401 312:0.187372 313:0.110622 314:0.117238 315:0.030383 316:0.100972 317:0.249401 318:0.249401 319:0.119224 320:0.249401 321:0.249401 322:0.168568 323:0.154166 324:0.074254 
1 1:0.289484 2:0.238121 3:0.085882 4:0.018691 5:0.014313 6:0.00345 7:0.017031 8:0.077548 9:0.203476 10:0.166577 11:0.3037 12:0.3037 13:0.082479 14:0.011593 15:0.000996 16:0.000553 17:0.040804 18:0.116443 19:0.3037 20:0.3037 21:0.146692 22:0.0054 23:0 24:0.001897 25:0.023571 26:0.108272 27:0.27846 28:0.25752 29:0.3037 30:0.3037 31:0.039442 32:0.004799 33:0.000126 34:0.002971 35:0.055164 36:0.123234 37:0.267613 38:0.267613 39:0.267613 40:0.080389 41:0.020307 42:0.006186 43:0.002038 44:0.012665 45:0.062893 46:0.267613 47:0.267613 48:0.102724 49:0.094754 50:0.079079 51:0.052905 52:0.036552 53:0.108009 54:0.267613 55:0.264569 56:0.267613 57:0.267613 58:0.098131 59:0.018283 60:0.018972 61:0.015254 62:0.032215 63:0.078768 64:0.267613 65:0.209837 66:0.182341 67:0.15484 68:0.141104 69:0.118029 70:0.046133 71:0.114541 72:0.249036 73:0.183831 74:0.071833 75:0.046003 76:0.098086 77:0.082241 78:0.063605 79:0.061871 80:0.187435 81:0.256934 82:0.235022 83:0.125685 84:0.131053 85:0.143213 86:0.123249 87:0.077261 88:0.069731 89:0.109417 90:0.256934 91:0.24941 92:0.09072 93:0.144459 94:0.235943 95:0.185218 96:0.115071 97:0.110029 98:0.21817 99:0.256934 100:0.22266 101:0.256934 102:0.256934 103:0.256934 104:0.13115 105:0.058161 106:0.088717 107:0.086518 108:0.120126 109:0.320691 110:0.168791 111:0.036843 112:0.002187 113:0 114:0.000141 115:0.005385 116:0.058154 117:0.332594 118:0.341534 119:0.245917 120:0.063568 121:0.009719 122:0.004352 123:9e-006 124:0.002632 125:0.0433 126:0.233402 127:0.341534 128:0.125417 129:0.012809 130:0.002222 131:0.003011 132:0.004309 133:0.004885 134:0.030191 135:0.341534 136:0.341534 137:0.168523 138:0.004525 139:0.002971 140:0.003246 141:0.001396 142:0.002755 143:0.018357 144:0.341534 145:0.376744 146:0.123824 147:0.044079 148:0.022153 149:0.007214 150:0.004365 151:0.0108 152:0.020147 153:0.14016 154:0.376744 155:0.070187 156:0.036525 157:0.027564 158:0.031247 159:0.020559 160:0.018419 161:0.045799 162:0.358718 163:0.376744 164:0.17719 165:0.004874 166:0.009018 167:0.004337 168:0.005957 169:0.005335 170:0.009133 171:0.205334 172:0.376744 173:0.137532 174:0.046356 175:0.092088 176:0.046863 177:0.036142 178:0.00751 179:0.045651 180:0.376744 181:0.283344 182:0.069932 183:0.072765 184:0.0996 185:0.08699 186:0.036643 187:0.036115 188:0.088709 189:0.283344 190:0.138152 191:0.125563 192:0.225241 193:0.283344 194:0.101955 195:0.046679 196:0.02696 197:0.042913 198:0.130826 199:0.283344 200:0.099172 201:0.148924 202:0.283344 203:0.224352 204:0.086375 205:0.016737 206:0.098026 207:0.283344 208:0.098531 209:0.044762 210:0.167845 211:0.283344 212:0.283344 213:0.168977 214:0.031512 215:0.074333 216:0.15561 217:0.316457 218:0.207557 219:0.03884 220:0.009343 221:0.014358 222:0.02009 223:0.022255 224:0.090909 225:0.316457 226:0.316457 227:0.136441 228:0.003408 229:0.008601 230:0.012168 231:0.020251 232:0.022236 233:0.095395 234:0.316457 235:0.205645 236:0.166986 237:0.062101 238:0.020004 239:0.024523 240:0.017406 241:0.038543 242:0.260545 243:0.316457 244:0.132375 245:0.032268 246:0.021592 247:0.015737 248:0.128675 249:0.131931 250:0.122372 251:0.316457 252:0.316457 253:0.335519 254:0.136093 255:0.018022 256:0.05039 257:0.021 258:0.064442 259:0.034905 260:0.027672 261:0.112343 262:0.335519 263:0.158635 264:0.273457 265:0.335519 266:0.100591 267:0.103307 268:0.025142 269:0.045885 270:0.162983 271:0.079055 272:0.109745 273:0.116319 274:0.110584 275:0.132686 276:0.148224 277:0.091735 278:0.069781 279:0.076649 280:0.083892 281:0.261121 282:0.335519 283:0.335519 284:0.226986 285:0.094999 286:0.050098 287:0.019574 288:0.041375 289:0.109035 290:0.146476 291:0.288242 292:0.288242 293:0.125197 294:0.057519 295:0.012455 296:0.030607 297:0.071813 298:0.03706 299:0.090391 300:0.191602 301:0.288242 302:0.288242 303:0.254923 304:0.041863 305:0.019804 306:0.028905 307:0.097956 308:0.252539 309:0.288242 310:0.288242 311:0.119079 312:0.05045 313:0.020333 314:0.009524 315:0.028497 316:0.102561 317:0.1714 318:0.164335 319:0.105539 320:0.237845 321:0.288242 322:0.111405 323:0.025333 324:0.060507 
1 1:0.201794 2:0.243076 3:0.197774 4:0.230427 5:0.242743 6:0.069644 7:0.06801 8:0.0529 9:0.08686 10:0.10576 11:0.177772 12:0.167472 13:0.22203 14:0.243076 15:0.129862 16:0.077347 17:0.052787 18:0.023466 19:0.243076 20:0.243076 21:0.166368 22:0.145739 23:0.105953 24:0.016886 25:0.034098 26:0.066472 27:0.243076 28:0.243076 29:0.200481 30:0.149771 31:0.220156 32:0.178002 33:0.044386 34:0.086697 35:0.164495 36:0.199325 37:0.141451 38:0.168048 39:0.160456 40:0.17746 41:0.179763 42:0.227481 43:0.173166 44:0.083696 45:0.046724 46:0.046961 47:0.050363 48:0.107028 49:0.118862 50:0.137002 51:0.227481 52:0.227481 53:0.223118 54:0.146132 55:0.227481 56:0.174636 57:0.137006 58:0.17185 59:0.150952 60:0.098009 61:0.16845 62:0.198139 63:0.172242 64:0.083995 65:0.046866 66:0.095191 67:0.227481 68:0.227481 69:0.195453 70:0.227481 71:0.215611 72:0.163669 73:0.038077 74:0.026705 75:0.094236 76:0.086302 77:0.179862 78:0.169038 79:0.223079 80:0.210764 81:0.176346 82:0.09745 83:0.072708 84:0.200878 85:0.107102 86:0.223079 87:0.109023 88:0.129176 89:0.14881 90:0.173503 91:0.13756 92:0.080742 93:0.099195 94:0.207218 95:0.223079 96:0.167947 97:0.223079 98:0.201977 99:0.204815 100:0.223079 101:0.209812 102:0.223079 103:0.104819 104:0.135758 105:0.108558 106:0.151337 107:0.223079 108:0.223079 109:0.293621 110:0.176173 111:0.04929 112:0.048861 113:0.015808 114:0.022507 115:0.058961 116:0.105817 117:0.246766 118:0.223949 119:0.078589 120:0.039747 121:0.068864 122:0.058499 123:0.03556 124:0.080207 125:0.144698 126:0.168525 127:0.293621 128:0.184443 129:0.076085 130:0.116649 131:0.051756 132:0.078337 133:0.13466 134:0.217263 135:0.293621 136:0.290426 137:0.092415 138:0.093635 139:0.22659 140:0.146189 141:0.117586 142:0.206653 143:0.24178 144:0.293621 145:0.198794 146:0.14961 147:0.067734 148:0.101168 149:0.140318 150:0.051563 151:0.091044 152:0.141079 153:0.120575 154:0.056927 155:0.090993 156:0.110736 157:0.236225 158:0.236225 159:0.096135 160:0.075796 161:0.070133 162:0.047713 163:0.17784 164:0.198292 165:0.136302 166:0.202914 167:0.205837 168:0.17713 169:0.236225 170:0.236225 171:0.233022 172:0.031885 173:0.191191 174:0.236225 175:0.236225 176:0.236225 177:0.236225 178:0.228808 179:0.113269 180:0.044212 181:0.174914 182:0.159158 183:0.127531 184:0.237531 185:0.237531 186:0.077471 187:0.057361 188:0.061523 189:0.128046 190:0.237531 191:0.237531 192:0.230506 193:0.139693 194:0.05106 195:0.039338 196:0.060945 197:0.12454 198:0.224685 199:0.075119 200:0.157168 201:0.237531 202:0.237531 203:0.237531 204:0.196148 205:0.118988 206:0.080784 207:0.103329 208:0.138616 209:0.190422 210:0.152095 211:0.220327 212:0.145995 213:0.105091 214:0.109078 215:0.183066 216:0.22227 217:0.259194 218:0.070286 219:0.021598 220:0.078255 221:0.180122 222:0.089691 223:0.093237 224:0.116018 225:0.191329 226:0.14907 227:0.080279 228:0.091396 229:0.276204 230:0.345749 231:0.126612 232:0.136783 233:0.125972 234:0.166692 235:0.032163 236:0.013093 237:0.008899 238:0.078024 239:0.367702 240:0.104524 241:0.073362 242:0.061111 243:0.034544 244:0.091828 245:0.077876 246:0.12103 247:0.367702 248:0.367702 249:0.165886 250:0.105602 251:0.052321 252:0.048435 253:0.110987 254:0.060459 255:0.05342 256:0.107987 257:0.090042 258:0.21962 259:0.255432 260:0.148612 261:0.140238 262:0.015695 263:0.024845 264:0.042776 265:0.03067 266:0.035021 267:0.300914 268:0.284119 269:0.063467 270:0.028927 271:0.11278 272:0.076403 273:0.104003 274:0.209525 275:0.300914 276:0.300914 277:0.300914 278:0.098508 279:0.059851 280:0.0188 281:0.010783 282:0.015906 283:0.01163 284:0.281844 285:0.300914 286:0.300914 287:0.048769 288:0.013702 289:0.028519 290:0.073032 291:0.151621 292:0.114164 293:0.122597 294:0.357532 295:0.313372 296:0.068836 297:0.063196 298:0.053159 299:0.103655 300:0.127872 301:0.12563 302:0.156787 303:0.102364 304:0.080517 305:0.099336 306:0.090607 307:0.023614 308:0.059162 309:0.077592 310:0.03603 311:0.357532 312:0.357532 313:0.357532 314:0.03972 315:0.03739 316:0.079598 317:0.142463 318:0.160569 319:0.106248 320:0.273845 321:0.196379 322:0.120876 323:0.062627 324:0.07422 
0.2314962811284116 1:0.243157 2:0.154119 3:0.180118 4:0.105309 5:0.089027 6:0.042898 7:0.073348 8:0.198757 9:0.243157 10:0.243157 11:0.145406 12:0.169798 13:0.052439 14:0.216731 15:0.052286 16:0.084503 17:0.174204 18:0.227952 19:0.243157 20:0.143475 21:0.163193 22:0.177414 23:0.064372 24:0.050453 25:0.100879 26:0.14412 27:0.243157 28:0.243157 29:0.18757 30:0.243157 31:0.067626 32:0.201913 33:0.022286 34:0.044158 35:0.107014 36:0.243157 37:0.173999 38:0.156603 39:0.179659 40:0.023615 41:0.218029 42:0.030326 43:0.060796 44:0.042033 45:0.118376 46:0.247414 47:0.173142 48:0.198689 49:0.019738 50:0.194829 51:0.066885 52:0.067047 53:0.056972 54:0.179543 55:0.230387 56:0.248175 57:0.248175 58:0.059816 59:0.248175 60:0.013041 61:0.046035 62:0.072787 63:0.120448 64:0.248175 65:0.248175 66:0.248175 67:0.053358 68:0.205413 69:0.05191 70:0.150391 71:0.247441 72:0.220474 73:0.194712 74:0.108353 75:0.163143 76:0.059717 77:0.113542 78:0.081565 79:0.086188 80:0.096726 81:0.183374 82:0.206589 83:0.115238 84:0.133133 85:0.075671 86:0.108315 87:0.045681 88:0.164677 89:0.164341 90:0.229702 91:0.236679 92:0.236679 93:0.163035 94:0.032012 95:0.05234 96:0.085271 97:0.217704 98:0.236679 99:0.236679 100:0.236679 101:0.236679 102:0.20032 103:0.105252 104:0.065627 105:0.118284 106:0.236679 107:0.212312 108:0.236679 109:0.071906 110:0.065642 111:0.066903 112:0.066835 113:0.043905 114:0.041241 115:0.078154 116:0.06685 117:0.093727 118:0.107371 119:0.091351 120:0.148627 121:0.085812 122:0.073237 123:0.024291 124:0.032407 125:0.039768 126:0.091018 127:0.185381 128:0.326218 129:0.177886 130:0.078503 131:0.086876 132:0.057454 133:0.10851 134:0.07493 135:0.075213 136:0.454653 137:0.454653 138:0.454653 139:0.125277 140:0.056555 141:0.033203 142:0.046758 143:0.033011 144:0.17879 145:0.031219 146:0.04453 147:0.043604 148:0.020582 149:0.022345 150:0.002507 151:0.007192 152:0.007108 153:0.017477 154:0.210518 155:0.097797 156:0.039145 157:0.013757 158:0.015823 159:0.00321 160:0.015335 161:0.025757 162:0.109924 163:0.334956 164:0.397668 165:0.25553 166:0.037613 167:0.010453 168:0.005451 169:0.008125 170:0.004628 171:0.05359 172:0.397668 173:0.397668 174:0.397668 175:0.031703 176:0.016611 177:0.047774 178:0.046838 179:0.082264 180:0.306427 181:0.191808 182:0.043099 183:0.010653 184:0.002555 185:0.003162 186:0.012385 187:0.039886 188:0.07251 189:0.171537 190:0.054199 191:0.022993 192:0.012733 193:0.00617 194:0.004693 195:0.021065 196:0.048406 197:0.073667 198:0.103165 199:0.303138 200:0.303138 201:0.149861 202:0.020163 203:0.112504 204:0.303138 205:0.234389 206:0.296899 207:0.303138 208:0.146505 209:0.022246 210:0.007478 211:0.022117 212:0.204493 213:0.303138 214:0.26311 215:0.237796 216:0.26656 217:0.10419 218:0.177503 219:0.127565 220:0.018945 221:0.004556 222:0.002673 223:0.005493 224:0.005522 225:0.016557 226:0.26572 227:0.345621 228:0.302493 229:0.013958 230:0.001773 231:0.000812 232:0.001997 233:0.001681 234:0.013445 235:0.345621 236:0.345621 237:0.304597 238:0.029497 239:0.011609 240:0.000787 241:0.00059 242:0.002217 243:0.05814 244:0.270427 245:0.345621 246:0.345621 247:0.070088 248:0.041758 249:0.013661 250:0.00595 251:0.00263 252:0.015513 253:0.307722 254:0.307722 255:0.188211 256:0.007399 257:0.001746 258:0.00356 259:0.006666 260:0.012894 261:0.031793 262:0.307722 263:0.307722 264:0.276835 265:0.044985 266:0.027322 267:0.046771 268:0.031478 269:0.050067 270:0.083828 271:0.284242 272:0.307722 273:0.28833 274:0.035201 275:0.063136 276:0.04327 277:0.036822 278:0.029724 279:0.039832 280:0.17647 281:0.26206 282:0.146275 283:0.168197 284:0.238747 285:0.077773 286:0.052765 287:0.046808 288:0.047413 289:0.267497 290:0.252764 291:0.13657 292:0.159681 293:0.258762 294:0.290245 295:0.09693 296:0.10275 297:0.12174 298:0.041795 299:0.011434 300:0.016028 301:0.147085 302:0.290245 303:0.290245 304:0.091065 305:0.063378 306:0.053447 307:0.053297 308:0.105876 309:0.180086 310:0.290245 311:0.290245 312:0.104921 313:0.019272 314:0.016551 315:0.015884 316:0.008786 317:0.014266 318:0.05667 319:0.290245 320:0.290245 321:0.15857 322:0.007747 323:0.005372 324:0.005717 
1 1:0.090596 2:0.227464 3:0.206267 4:0.073139 5:0.209695 6:0.159673 7:0.188086 8:0.1008 9:0.068313 10:0.05871 11:0.090691 12:0.050756 13:0.086828 14:0.227464 15:0.222402 16:0.227464 17:0.179726 18:0.227464 19:0.196123 20:0.227464 21:0.227464 22:0.162712 23:0.122561 24:0.123056 25:0.093203 26:0.122453 27:0.209287 28:0.141733 29:0.158997 30:0.121988 31:0.227464 32:0.227464 33:0.177001 34:0.16952 35:0.097561 36:0.109836 37:0.052709 38:0.029555 39:0.015844 40:0.177865 41:0.290319 42:0.179153 43:0.109185 44:0.134685 45:0.231614 46:0.021612 47:0.023784 48:0.074087 49:0.324415 50:0.324415 51:0.148225 52:0.04556 53:0.054576 54:0.081031 55:0.024905 56:0.049669 57:0.048287 58:0.324415 59:0.324415 60:0.147491 61:0.060741 62:0.032404 63:0.029943 64:0.045218 65:0.075343 66:0.164236 67:0.324415 68:0.324415 69:0.142094 70:0.017582 71:0.02783 72:0.027758 73:0.00307 74:0.095301 75:0.22928 76:0.270228 77:0.270228 78:0.083715 79:0.089949 80:0.046122 81:0.004118 82:0.045264 83:0.187474 84:0.270228 85:0.270228 86:0.21684 87:0.134399 88:0.116109 89:0.0926 90:0.025128 91:0.045182 92:0.10403 93:0.270228 94:0.270228 95:0.270228 96:0.077731 97:0.020465 98:0.034895 99:0.043758 100:0.074583 101:0.137161 102:0.270228 103:0.270228 104:0.247255 105:0.116044 106:0.057459 107:0.07083 108:0.080415 109:0.25526 110:0.174258 111:0.235245 112:0.169348 113:0.070843 114:0.091256 115:0.035032 116:0.170772 117:0.25526 118:0.25526 119:0.208092 120:0.160264 121:0.25526 122:0.203923 123:0.114968 124:0.058181 125:0.102194 126:0.25526 127:0.147837 128:0.043657 129:0.082899 130:0.106846 131:0.079453 132:0.06663 133:0.03787 134:0.081035 135:0.239717 136:0.159003 137:0.252331 138:0.25526 139:0.211397 140:0.077301 141:0.067031 142:0.075138 143:0.112812 144:0.173242 145:0.032297 146:0.062013 147:0.078565 148:0.262687 149:0.262687 150:0.14608 151:0.046129 152:0.024356 153:0.017939 154:0.114905 155:0.168185 156:0.177269 157:0.262687 158:0.262687 159:0.153723 160:0.032062 161:0.021155 162:0.029531 163:0.044142 164:0.21292 165:0.262687 166:0.262687 167:0.144587 168:0.120211 169:0.047649 170:0.027409 171:0.016492 172:0.212305 173:0.262687 174:0.262687 175:0.262687 176:0.262687 177:0.200623 178:0.03361 179:0.014057 180:0.020251 181:0.123855 182:0.135786 183:0.165129 184:0.261203 185:0.261203 186:0.110168 187:0.037639 188:0.043558 189:0.067078 190:0.090605 191:0.084485 192:0.160026 193:0.261203 194:0.261203 195:0.250773 196:0.088372 197:0.07542 198:0.103563 199:0.174499 200:0.122074 201:0.10844 202:0.189578 203:0.261203 204:0.261203 205:0.055304 206:0.018831 207:0.033875 208:0.116801 209:0.03172 210:0.050595 211:0.112688 212:0.261203 213:0.261203 214:0.259372 215:0.132365 216:0.173778 217:0.016296 218:0.035604 219:0.115875 220:0.103203 221:0.047719 222:0.027071 223:0.022012 224:0.011036 225:0.011641 226:0.017724 227:0.231007 228:0.361604 229:0.327313 230:0.044046 231:0.020934 232:0.030085 233:0.023414 234:0.012997 235:0.019118 236:0.119963 237:0.361604 238:0.248437 239:0.105587 240:0.028732 241:0.007709 242:0.002963 243:0.008217 244:0.006274 245:0.180254 246:0.361604 247:0.361604 248:0.361604 249:0.164578 250:0.013352 251:0.006241 252:0.001277 253:0.016526 254:0.258817 255:0.275175 256:0.246796 257:0.047607 258:0.017158 259:0.014043 260:0.018085 261:0.007564 262:0.100602 263:0.204393 264:0.275175 265:0.186319 266:0.212619 267:0.111979 268:0.03671 269:0.073236 270:0.076086 271:0.013086 272:0.128352 273:0.275175 274:0.275175 275:0.275175 276:0.097074 277:0.010565 278:0.016147 279:0.010063 280:0.092209 281:0.124899 282:0.242694 283:0.275175 284:0.275175 285:0.161107 286:0.10675 287:0.122299 288:0.131073 289:0.083873 290:0.057343 291:0.069508 292:0.089911 293:0.251142 294:0.251142 295:0.101517 296:0.077721 297:0.079846 298:0.169091 299:0.061323 300:0.040754 301:0.038965 302:0.196623 303:0.251142 304:0.224133 305:0.135223 306:0.213393 307:0.106999 308:0.052646 309:0.080301 310:0.130049 311:0.251142 312:0.251142 313:0.220552 314:0.185104 315:0.20207 316:0.251142 317:0.251142 318:0.138947 319:0.06216 320:0.198665 321:0.106058 322:0.120226 323:0.095091 324:0.251142 
1 1:0.103399 2:0.061043 3:0.102514 4:0.074628 5:0.067751 6:0.080814 7:0.213622 8:0.231189 9:0.231189 10:0.097829 11:0.083822 12:0.099667 13:0.109522 14:0.097376 15:0.145051 16:0.231189 17:0.132527 18:0.149485 19:0.164407 20:0.231189 21:0.231189 22:0.065408 23:0.117871 24:0.124622 25:0.230291 26:0.231189 27:0.210523 28:0.181479 29:0.196928 30:0.131675 31:0.119075 32:0.16328 33:0.180188 34:0.231189 35:0.231189 36:0.231189 37:0.130547 38:0.139668 39:0.084341 40:0.050406 41:0.137046 42:0.148135 43:0.146587 44:0.130694 45:0.144228 46:0.144661 47:0.165289 48:0.096222 49:0.152494 50:0.192569 51:0.115795 52:0.135443 53:0.180355 54:0.155661 55:0.248643 56:0.248643 57:0.105638 58:0.127783 59:0.143924 60:0.170668 61:0.182945 62:0.248643 63:0.248643 64:0.248643 65:0.248643 66:0.09524 67:0.065465 68:0.115268 69:0.099016 70:0.162626 71:0.195973 72:0.248643 73:0.140817 74:0.136441 75:0.082261 76:0.126401 77:0.1265 78:0.098838 79:0.155953 80:0.181646 81:0.163572 82:0.244759 83:0.157233 84:0.086073 85:0.040115 86:0.080565 87:0.178816 88:0.20682 89:0.211789 90:0.244759 91:0.222504 92:0.244759 93:0.117779 94:0.042865 95:0.058631 96:0.084715 97:0.175617 98:0.190432 99:0.196457 100:0.244759 101:0.244759 102:0.159563 103:0.033559 104:0.022297 105:0.107122 106:0.165057 107:0.244759 108:0.244759 109:0.250585 110:0.274434 111:0.11242 112:0.020372 113:0.044626 114:0.032704 115:0.029361 116:0.046662 117:0.12334 118:0.274434 119:0.274434 120:0.10189 121:0.048308 122:0.05909 123:0.038802 124:0.060352 125:0.110754 126:0.241046 127:0.274434 128:0.274434 129:0.193729 130:0.06943 131:0.009392 132:0.004691 133:0.004056 134:0.073802 135:0.208657 136:0.274434 137:0.274434 138:0.274434 139:0.241111 140:0.06061 141:0.019743 142:0.029192 143:0.07405 144:0.21416 145:0.214862 146:0.236486 147:0.087383 148:0.067483 149:0.066014 150:0.05253 151:0.081069 152:0.077373 153:0.152079 154:0.128032 155:0.148677 156:0.120317 157:0.078425 158:0.082774 159:0.059657 160:0.090532 161:0.063559 162:0.111265 163:0.255555 164:0.287508 165:0.287508 166:0.287508 167:0.12223 168:0.068711 169:0.084591 170:0.048394 171:0.109858 172:0.270386 173:0.287508 174:0.287508 175:0.258929 176:0.126106 177:0.069364 178:0.120442 179:0.139958 180:0.176327 181:0.137039 182:0.139105 183:0.091568 184:0.052386 185:0.052363 186:0.035797 187:0.114668 188:0.177357 189:0.151038 190:0.185192 191:0.0944 192:0.033966 193:0.005819 194:0.010922 195:0.03976 196:0.109493 197:0.226397 198:0.229206 199:0.28476 200:0.28476 201:0.234103 202:0.062625 203:0.047569 204:0.024326 205:0.280412 206:0.28476 207:0.28476 208:0.128947 209:0.030703 210:0.012798 211:0 212:0.002714 213:0.039265 214:0.261833 215:0.28476 216:0.28476 217:0.156069 218:0.12669 219:0.129525 220:0.077856 221:0.014166 222:0.006495 223:0.0022 224:0.034012 225:0.070294 226:0.100714 227:0.197526 228:0.383823 229:0.257159 230:0.040689 231:0.007299 232:0.004967 233:0.017467 234:0.026855 235:0.090014 236:0.094799 237:0.333213 238:0.227708 239:0.127495 240:0.018543 241:0.011511 242:0.005334 243:0.024969 244:0.03404 245:0.376837 246:0.383823 247:0.383823 248:0.160636 249:0.011623 250:0.005894 251:0.002422 252:0.007947 253:0.043023 254:0.272134 255:0.316369 256:0.166086 257:0.026899 258:0.007503 259:0.007308 260:0.01249 261:0.020923 262:0.125758 263:0.307731 264:0.316369 265:0.066026 266:0.01253 267:0.010374 268:0.062972 269:0.145266 270:0.136216 271:0.041381 272:0.316369 273:0.316369 274:0.190302 275:0.041725 276:0.015525 277:0.011406 278:0.020875 279:0.023321 280:0.085951 281:0.316369 282:0.297438 283:0.017254 284:0.092217 285:0.156791 286:0.150216 287:0.173778 288:0.098425 289:0.132772 290:0.12853 291:0.07369 292:0.008551 293:0.002718 294:0.018569 295:0.255046 296:0.27559 297:0.27476 298:0.022056 299:0.004025 300:0.003407 301:0 302:0.000202 303:0.017021 304:0.242406 305:0.27559 306:0.27559 307:0.045814 308:0.064192 309:0.025767 310:0.000258 311:0.198647 312:0.27559 313:0.27559 314:0.27559 315:0.125148 316:0.009529 317:0 318:0 319:0 320:0.105872 321:0.249429 322:0.27559 323:0.27559 324:0.118397 
1 1:0.270502 2:0.270502 3:0.258094 4:0.086886 5:0.118348 6:0.038941 7:0.062833 8:0.079715 9:0.184139 10:0.270502 11:0.270502 12:0.270502 13:0.135124 14:0.077722 15:0.034228 16:0.078635 17:0.10891 18:0.118411 19:0.199409 20:0.224066 21:0.217974 22:0.195081 23:0.270502 24:0.107812 25:0.071294 26:0.054294 27:0.082251 28:0.109243 29:0.117538 30:0.164118 31:0.169217 32:0.21828 33:0.0785 34:0.114517 35:0.112901 36:0.062384 37:0.166922 38:0.283433 39:0.283433 40:0.283433 41:0.067885 42:0.022953 43:0.041658 44:0.046392 45:0.028345 46:0.283433 47:0.283433 48:0.19812 49:0.112434 50:0.039202 51:0.016866 52:0.037379 53:0.102559 54:0.211094 55:0.129197 56:0.178797 57:0.256421 58:0.237134 59:0.091537 60:0.053973 61:0.107277 62:0.129997 63:0.069341 64:0.283433 65:0.283433 66:0.107657 67:0.074925 68:0.036269 69:0.02621 70:0.087253 71:0.131452 72:0.166422 73:0.282072 74:0.261334 75:0.044791 76:0.007161 77:0.021241 78:0.015656 79:0.011547 80:0.149526 81:0.282072 82:0.282072 83:0.282072 84:0.199149 85:0.023946 86:0.046656 87:0.036671 88:0.017527 89:0.086689 90:0.244597 91:0.282072 92:0.282072 93:0.062001 94:0.009884 95:0.009957 96:0.010796 97:0.024413 98:0.076965 99:0.184405 100:0.282072 101:0.282072 102:0.241815 103:0.041723 104:0.02551 105:0.012403 106:0.008883 107:0.041785 108:0.219522 109:0.075533 110:0.069706 111:0.066115 112:0.087298 113:0.18344 114:0.05511 115:0.028709 116:0.047658 117:0.067193 118:0.241738 119:0.0722 120:0.035283 121:0.043532 122:0.118053 123:0.052353 124:0.055126 125:0.052806 126:0.089596 127:0.34883 128:0.34883 129:0.187226 130:0.05985 131:0.071385 132:0.031466 133:0.038792 134:0.087852 135:0.280934 136:0.34883 137:0.34883 138:0.188112 139:0.044307 140:0.110159 141:0.109574 142:0.08782 143:0.147832 144:0.34883 145:0.153305 146:0.036509 147:0.030576 148:0.02671 149:0.046489 150:0.026361 151:0.048273 152:0.056037 153:0.07362 154:0.201478 155:0.105651 156:0.073418 157:0.041113 158:0.049605 159:0.021551 160:0.035465 161:0.077568 162:0.153673 163:0.262221 164:0.070946 165:0.084309 166:0.082163 167:0.142186 168:0.213259 169:0.262221 170:0.178985 171:0.262221 172:0.262221 173:0.118956 174:0.214766 175:0.262221 176:0.262221 177:0.262221 178:0.262221 179:0.262221 180:0.262221 181:0.252723 182:0.122415 183:0.048702 184:0.019681 185:0.011796 186:0.004333 187:0.011588 188:0.078561 189:0.235629 190:0.245973 191:0.163145 192:0.045243 193:0.018695 194:0.008228 195:0.001325 196:0.028463 197:0.054931 198:0.169214 199:0.293716 200:0.103331 201:0.120541 202:0.175869 203:0.162532 204:0.238905 205:0.171518 206:0.293716 207:0.293716 208:0.293716 209:0.11952 210:0.028405 211:0.055601 212:0.08005 213:0.088699 214:0.110897 215:0.293716 216:0.293716 217:0.247842 218:0.247842 219:0.221416 220:0.114427 221:0.0945 222:0.051605 223:0.051476 224:0.049571 225:0.157351 226:0.247842 227:0.247842 228:0.247842 229:0.10928 230:0.148792 231:0.15555 232:0.110608 233:0.138221 234:0.220001 235:0.089031 236:0.080365 237:0.22374 238:0.247842 239:0.247842 240:0.135086 241:0.062337 242:0.042456 243:0.068415 244:0.078596 245:0.114531 246:0.247842 247:0.247842 248:0.208809 249:0.12928 250:0.112072 251:0.099203 252:0.089578 253:0.160555 254:0.0361 255:0.07875 256:0.086317 257:0.110488 258:0.193275 259:0.160227 260:0.074549 261:0.090989 262:0.071199 263:0.034373 264:0.08986 265:0.315879 266:0.315879 267:0.315879 268:0.224565 269:0.111756 270:0.067832 271:0.020024 272:0.047493 273:0.216963 274:0.292844 275:0.17016 276:0.104362 277:0.062125 278:0.027697 279:0.01943 280:0.010314 281:0.041881 282:0.221146 283:0.315879 284:0.315879 285:0.226295 286:0.061098 287:0.014748 288:0.005622 289:0.085602 290:0.03583 291:0.032172 292:0.256237 293:0.276914 294:0.276914 295:0.121426 296:0.244431 297:0.154044 298:0.153935 299:0.053116 300:0.014677 301:0.083367 302:0.17297 303:0.153401 304:0.083027 305:0.235758 306:0.200812 307:0.034151 308:0.028286 309:0.033463 310:0.276914 311:0.276914 312:0.276914 313:0.071298 314:0.045937 315:0.030866 316:0.146928 317:0.04862 318:0.033379 319:0.191773 320:0.276914 321:0.276914 322:0.096336 323:0.093928 324:0.076329 
1 1:0.018598 2:0.00046 3:0.006749 4:0.025261 5:0.314413 6:0.314413 7:0.044782 8:0.036547 9:0.041565 10:0.01706 11:0.002678 12:0.004504 13:0.043038 14:0.314413 15:0.314413 16:0.160223 17:0.031631 18:0.022319 19:0.069979 20:0.009946 21:0.019685 22:0.035033 23:0.314413 24:0.314413 25:0.159748 26:0.148974 27:0.150435 28:0.031836 29:0.005068 30:0.014687 31:0.024383 32:0.314413 33:0.314413 34:0.286062 35:0.089178 36:0.04458 37:0.009886 38:0.003597 39:0.000915 40:0.010499 41:0.220794 42:0.330121 43:0.2589 44:0.039504 45:0.017916 46:0.010078 47:0.001042 48:0 49:0.002067 50:0.322629 51:0.330121 52:0.316204 53:0.032533 54:0.01004 55:0.017377 56:0.002916 57:0.004583 58:0.014321 59:0.047336 60:0.293672 61:0.330121 62:0.129655 63:0.040605 64:0.017001 65:0.005343 66:0.001978 67:0.010226 68:0.071537 69:0.330121 70:0.330121 71:0.122762 72:0.022033 73:0.079963 74:0.020654 75:0.006452 76:0.013882 77:0.187214 78:0.28646 79:0.280002 80:0.090863 81:0.122853 82:0.125422 83:0.054741 84:0.066991 85:0.28646 86:0.28646 87:0.179679 88:0.129762 89:0.091758 90:0.22779 91:0.09949 92:0.063398 93:0.013895 94:0.005526 95:0.057709 96:0.28646 97:0.28646 98:0.166719 99:0.075523 100:0.234684 101:0.272 102:0.109152 103:0.124435 104:0.123123 105:0.094393 106:0.201777 107:0.120741 108:0.153462 109:0.144687 110:0.036873 111:0.043722 112:0.040006 113:0.181065 114:0.217881 115:0.154096 116:0.257792 117:0.257792 118:0.069701 119:0.029886 120:0.041048 121:0.036549 122:0.128708 123:0.174599 124:0.19584 125:0.148977 126:0.092811 127:0.257792 128:0.178532 129:0.120448 130:0.057434 131:0.053286 132:0.109955 133:0.083698 134:0.257792 135:0.257792 136:0.250241 137:0.257792 138:0.257792 139:0.140213 140:0.078996 141:0.092874 142:0.109446 143:0.173895 144:0.257792 145:0.054389 146:0.034761 147:0.03935 148:0.032147 149:0.0311 150:0.089816 151:0.156425 152:0.121636 153:0.103574 154:0.048265 155:0.051095 156:0.057691 157:0.034195 158:0.02207 159:0.204118 160:0.262077 161:0.105459 162:0.065819 163:0.234592 164:0.199461 165:0.243448 166:0.234769 167:0.151318 168:0.103922 169:0.145544 170:0.148698 171:0.262077 172:0.18318 173:0.191806 174:0.262077 175:0.262077 176:0.205745 177:0.161813 178:0.262077 179:0.222518 180:0.215816 181:0.045444 182:0.072924 183:0.043609 184:0.01194 185:0.008042 186:0.198293 187:0.29699 188:0.110592 189:0.048654 190:0.139578 191:0.208429 192:0.074991 193:0.008446 194:0.009916 195:0.073678 196:0.176099 197:0.088755 198:0.097157 199:0.152935 200:0.186964 201:0.186097 202:0.219353 203:0.045557 204:0.195568 205:0.29699 206:0.29699 207:0.177533 208:0.203215 209:0.129131 210:0.047467 211:0.001909 212:7.3e-005 213:0.093656 214:0.29699 215:0.29699 216:0.29699 217:0.249649 218:0.198473 219:0.089866 220:0.028621 221:0.021546 222:0.042154 223:0.032064 224:0.130653 225:0.249649 226:0.239181 227:0.249649 228:0.249649 229:0.172432 230:0.070893 231:0.023134 232:0.058921 233:0.103918 234:0.249649 235:0.243256 236:0.182659 237:0.084065 238:0.074249 239:0.08977 240:0.073016 241:0.067406 242:0.161238 243:0.198619 244:0.249649 245:0.249649 246:0.179211 247:0.249649 248:0.165791 249:0.031164 250:0.138279 251:0.160286 252:0.172122 253:0.051482 254:0.071725 255:0.173671 256:0.295739 257:0.119075 258:0.027861 259:0.043914 260:0.039992 261:0.082606 262:0.041717 263:0.120294 264:0.321785 265:0.321785 266:0.11608 267:0.045307 268:0.149884 269:0.0809 270:0.036904 271:0.026392 272:0.062812 273:0.275056 274:0.321785 275:0.201662 276:0.00749 277:0.056343 278:0.042952 279:0.028703 280:0.065343 281:0.245031 282:0.321785 283:0.321785 284:0.179743 285:0.058359 286:0.193055 287:0.038338 288:0.024356 289:0.045469 290:0.129025 291:0.183852 292:0.17016 293:0.014504 294:0.060918 295:0.288905 296:0.238686 297:0.065837 298:0.044978 299:0.016114 300:0.002549 301:0 302:0 303:0.044458 304:0.288905 305:0.288905 306:0.210554 307:0.068853 308:0.175969 309:0.288905 310:0.151735 311:0.064505 312:0.286393 313:0.288905 314:0.126257 315:0.041024 316:0.012264 317:0.005833 318:0.001088 319:0 320:0.052693 321:0.288905 322:0.288905 323:0.217457 324:0.069057 
1 1:0.076558 2:0.02109 3:0.014196 4:0.000672 5:0.051118 6:0.251713 7:0.251713 8:0.251713 9:0.223733 10:0.087952 11:0.030103 12:0.017353 13:0.00199 14:0.10118 15:0.251713 16:0.251713 17:0.203804 18:0.170539 19:0.048842 20:0.045015 21:0.046632 22:0.075086 23:0.084357 24:0.251713 25:0.251713 26:0.251713 27:0.195236 28:0.081855 29:0.071386 30:0.092329 31:0.17076 32:0.138345 33:0.251713 34:0.251713 35:0.233251 36:0.185548 37:0.060105 38:0.032037 39:0.014724 40:0.044472 41:0.194234 42:0.23765 43:0.157852 44:0.114975 45:0.107707 46:0.123271 47:0.085847 48:0.08656 49:0.127654 50:0.196439 51:0.179078 52:0.098281 53:0.213023 54:0.23765 55:0.075624 56:0.070975 57:0.068218 58:0.079771 59:0.187596 60:0.23765 61:0.23765 62:0.197025 63:0.119461 64:0.154657 65:0.174716 66:0.213213 67:0.145484 68:0.23765 69:0.23765 70:0.219844 71:0.23765 72:0.23765 73:0.064793 74:0.138358 75:0.206338 76:0.164841 77:0.059275 78:0.024157 79:0.075699 80:0.198231 81:0.144024 82:0.186708 83:0.243297 84:0.243297 85:0.127331 86:0.032551 87:0.028536 88:0.065972 89:0.13922 90:0.188565 91:0.079635 92:0.243297 93:0.243297 94:0.243297 95:0.193175 96:0.113377 97:0.087723 98:0.097485 99:0.109528 100:0.243297 101:0.243297 102:0.243297 103:0.243297 104:0.212941 105:0.17983 106:0.124543 107:0.032018 108:0.098536 109:0.043704 110:0.072057 111:0.06478 112:0.096947 113:0.055415 114:0.205042 115:0.248196 116:0.23599 117:0.114612 118:0.093428 119:0.116388 120:0.15109 121:0.243373 122:0.110863 123:0.115708 124:0.153988 125:0.096826 126:0.078206 127:0.201763 128:0.179396 129:0.130071 130:0.127816 131:0.099779 132:0.179708 133:0.19033 134:0.208014 135:0.220259 136:0.248196 137:0.248196 138:0.248196 139:0.248196 140:0.11365 141:0.081016 142:0.115161 143:0.122098 144:0.248196 145:0.027992 146:0.041696 147:0.085668 148:0.106604 149:0.101195 150:0.090063 151:0.094162 152:0.060985 153:0.02509 154:0.076554 155:0.095646 156:0.108275 157:0.084979 158:0.121609 159:0.101108 160:0.115377 161:0.119427 162:0.08365 163:0.320479 164:0.320479 165:0.272656 166:0.148859 167:0.104731 168:0.057852 169:0.074786 170:0.109978 171:0.13729 172:0.320479 173:0.320479 174:0.320479 175:0.127805 176:0.139812 177:0.119643 178:0.16474 179:0.196963 180:0.27102 181:0.082001 182:0.103565 183:0.077445 184:0.069783 185:0.107785 186:0.12069 187:0.094914 188:0.060686 189:0.06098 190:0.075417 191:0.094026 192:0.046142 193:0.079991 194:0.120721 195:0.185803 196:0.204296 197:0.111676 198:0.052562 199:0.256668 200:0.256668 201:0.220987 202:0.122799 203:0.177003 204:0.20732 205:0.198468 206:0.18092 207:0.256668 208:0.169561 209:0.107611 210:0.073373 211:0.22185 212:0.246279 213:0.231713 214:0.256668 215:0.256668 216:0.219963 217:0.058555 218:0.045829 219:0.059046 220:0.042922 221:0.03137 222:0.041502 223:0.025561 224:0.047439 225:0.063487 226:0.131373 227:0.295914 228:0.412055 229:0.091845 230:0.02589 231:0.016983 232:0.014234 233:0.026546 234:0.079742 235:0.040331 236:0.134451 237:0.412055 238:0.167122 239:0.100408 240:0.035754 241:0.026985 242:0.039334 243:0.048584 244:0.065127 245:0.412055 246:0.412055 247:0.305919 248:0.110793 249:0.008638 250:0.0022 251:0.011655 252:0.028229 253:0.199226 254:0.321441 255:0.288618 256:0.034511 257:0.009921 258:0.004221 259:0.009291 260:0.018355 261:0.035651 262:0.321441 263:0.321441 264:0.154599 265:0.018573 266:0.087316 267:0.068352 268:0.04442 269:0.054672 270:0.095616 271:0.103919 272:0.321441 273:0.321441 274:0.100933 275:0.027933 276:0.005952 277:0.002201 278:0.003255 279:0.010285 280:0.212602 281:0.321441 282:0.133679 283:0.030618 284:0.271252 285:0.18526 286:0.03586 287:0.033622 288:0.062915 289:0.236266 290:0.297271 291:0.074712 292:0.094084 293:0.310251 294:0.193431 295:0.091466 296:0.082446 297:0.120863 298:0.044268 299:0.033095 300:0.028853 301:0.205318 302:0.310251 303:0.152351 304:0.058403 305:0.058492 306:0.054915 307:0.090261 308:0.16915 309:0.019515 310:0.065623 311:0.310251 312:0.310251 313:0.133975 314:0.04073 315:0.055477 316:0.014639 317:0.025088 318:0.036114 319:0.164646 320:0.310251 321:0.310251 322:0.142383 323:0.025742 324:0.01135 
1 1:0.050818 2:0.042736 3:0.02119 4:0.182908 5:0.242864 6:0.183372 7:0.123888 8:0.081307 9:0.095057 10:0.073194 11:0.052437 12:0.030556 13:0.113025 14:0.117703 15:0.061429 16:0.17656 17:0.269646 18:0.263348 19:0.062575 20:0.084452 21:0.032855 22:0.269646 23:0.269646 24:0.269646 25:0.111405 26:0.051988 27:0.077771 28:0.055546 29:0.077052 30:0.019291 31:0.138736 32:0.267039 33:0.230683 34:0.269646 35:0.269646 36:0.269646 37:0.050849 38:0.017314 39:0.012392 40:0.037603 41:0.060413 42:0.06029 43:0.236412 44:0.320206 45:0.210308 46:0.079463 47:0.020271 48:0.003859 49:0.015968 50:0.042575 51:0.040505 52:0.226338 53:0.320206 54:0.241695 55:0.040344 56:0.020419 57:0.005783 58:0.032126 59:0.040944 60:0.072589 61:0.320206 62:0.320206 63:0.202496 64:0.122329 65:0.049971 66:0.024661 67:0.028161 68:0.023565 69:0.049191 70:0.320206 71:0.320206 72:0.277054 73:0.078291 74:0.019634 75:0.011269 76:0.009219 77:0.033931 78:0.028899 79:0.212531 80:0.292194 81:0.236116 82:0.292194 83:0.096467 84:0.03116 85:0.015454 86:0.052727 87:0.05649 88:0.137502 89:0.292194 90:0.292194 91:0.128548 92:0.057954 93:0.035439 94:0.016808 95:0.03173 96:0.051344 97:0.292194 98:0.292194 99:0.234156 100:0.09886 101:0.042907 102:0.026228 103:0.011624 104:0.042063 105:0.100966 106:0.292194 107:0.292194 108:0.254444 109:0.23507 110:0.182937 111:0.039325 112:0.095119 113:0.196319 114:0.154818 115:0.052582 116:0.026019 117:0.088753 118:0.239896 119:0.099041 120:0.02079 121:0.055611 122:0.09325 123:0.148886 124:0.148817 125:0.127232 126:0.171769 127:0.303508 128:0.270485 129:0.041314 130:0.050693 131:0.022535 132:0.041109 133:0.108447 134:0.158466 135:0.303508 136:0.303508 137:0.200926 138:0.018474 139:0.041641 140:0.025412 141:0.114152 142:0.190286 143:0.277354 144:0.303508 145:0.153439 146:0.081206 147:0.017225 148:0.035909 149:0.023613 150:0.052771 151:0.17298 152:0.283468 153:0.16035 154:0.120519 155:0.089149 156:0.017954 157:0.016234 158:0.007426 159:0.012324 160:0.125632 161:0.283468 162:0.283468 163:0.283468 164:0.160383 165:0.029027 166:0.118015 167:0.092511 168:0.173451 169:0.15398 170:0.23903 171:0.283468 172:0.218093 173:0.141531 174:0.040938 175:0.132657 176:0.142139 177:0.16373 178:0.105249 179:0.283468 180:0.283468 181:0.080344 182:0.03887 183:0.015102 184:0.004249 185:0.007254 186:0.015047 187:0.160057 188:0.359822 189:0.268176 190:0.027118 191:0.007221 192:0.002868 193:0.000167 194:0.003512 195:0.031822 196:0.292419 197:0.359822 198:0.185006 199:0.094999 200:0.057073 201:0.031353 202:0.026099 203:0.043391 204:0.052363 205:0.111761 206:0.359822 207:0.282315 208:0.057318 209:0.029487 210:0.015262 211:0.010479 212:0.019101 213:0.09861 214:0.303634 215:0.359822 216:0.182725 217:0.221505 218:0.093219 219:0.039712 220:0.034069 221:0.011334 222:0.030343 223:0.190979 224:0.168144 225:0.240214 226:0.18753 227:0.146878 228:0.04537 229:0.094907 230:0.053588 231:0.127822 232:0.240214 233:0.240214 234:0.240214 235:0.240214 236:0.159572 237:0.096463 238:0.098993 239:0.048891 240:0.040421 241:0.166065 242:0.164325 243:0.240214 244:0.169544 245:0.240214 246:0.240214 247:0.240214 248:0.148043 249:0.083083 250:0.170438 251:0.21272 252:0.173017 253:0.147902 254:0.108118 255:0.095218 256:0.282456 257:0.154549 258:0.184007 259:0.162071 260:0.187952 261:0.282456 262:0.05956 263:0.068679 264:0.147756 265:0.282456 266:0.190849 267:0.130443 268:0.059179 269:0.107503 270:0.101443 271:0.070588 272:0.261751 273:0.282456 274:0.282456 275:0.176052 276:0.093079 277:0.069636 278:0.100046 279:0.041567 280:0.012415 281:0.081555 282:0.282456 283:0.282456 284:0.172568 285:0.027872 286:0.016169 287:0.021206 288:0.006313 289:0.140988 290:0.132436 291:0.254877 292:0.15039 293:0.086106 294:0.058595 295:0.063717 296:0.263496 297:0.09825 298:0.251118 299:0.121934 300:0.119976 301:0.044582 302:0.042308 303:0.148395 304:0.221069 305:0.263496 306:0.186821 307:0.105771 308:0.15388 309:0.263496 310:0.263496 311:0.164646 312:0.012267 313:0.008941 314:0.012796 315:0.043158 316:0.263496 317:0.212946 318:0.263496 319:0.111723 320:0.06098 321:0.042411 322:0.023109 323:0.178301 324:0.263496 
1 1:0.221059 2:0.126357 3:0.065129 4:0.037363 5:0.04622 6:0.062429 7:0.171803 8:0.257289 9:0.209969 10:0.240455 11:0.13504 12:0.069622 13:0.01014 14:0.064214 15:0.078331 16:0.184784 17:0.147975 18:0.251084 19:0.264202 20:0.1741 21:0.134582 22:0.110515 23:0.022702 24:0.097431 25:0.225069 26:0.264202 27:0.264202 28:0.264202 29:0.153101 30:0.111522 31:0.031309 32:0.030547 33:0.096661 34:0.163464 35:0.162905 36:0.264202 37:0.13463 38:0.137357 39:0.088226 40:0.028174 41:0.075243 42:0.120107 43:0.206027 44:0.141875 45:0.129762 46:0.060811 47:0.10653 48:0.186534 49:0.062514 50:0.144029 51:0.232035 52:0.232035 53:0.19701 54:0.054635 55:0.232035 56:0.203485 57:0.140683 58:0.066509 59:0.064375 60:0.098348 61:0.210261 62:0.129888 63:0.232035 64:0.232035 65:0.232035 66:0.232035 67:0.110253 68:0.232035 69:0.232035 70:0.232035 71:0.167826 72:0.130673 73:0.05679 74:0.07401 75:0.171433 76:0.09089 77:0.144357 78:0.23324 79:0.23324 80:0.23324 81:0.067451 82:0.06881 83:0.036539 84:0.082971 85:0.05975 86:0.23324 87:0.159573 88:0.23324 89:0.23324 90:0.086855 91:0.189355 92:0.148479 93:0.179892 94:0.095621 95:0.23324 96:0.23324 97:0.225359 98:0.23324 99:0.105434 100:0.146442 101:0.033094 102:0.069256 103:0.04145 104:0.23324 105:0.101822 106:0.231695 107:0.23324 108:0.153525 109:0.20477 110:0.077325 111:0.047854 112:0.052231 113:0.01861 114:0.027242 115:0.047806 116:0.099411 117:0.260694 118:0.24225 119:0.236704 120:0.104206 121:0.030133 122:0.035328 123:0.015979 124:0.033045 125:0.055382 126:0.280345 127:0.193952 128:0.375648 129:0.180825 130:0.040139 131:0.046771 132:0.05967 133:0.070375 134:0.084153 135:0.162909 136:0.2465 137:0.375648 138:0.375648 139:0.076995 140:0.08728 141:0.028299 142:0.068979 143:0.063131 144:0.167119 145:0.178331 146:0.294258 147:0.231352 148:0.024383 149:0.018557 150:0.013801 151:0.038389 152:0.035266 153:0.135348 154:0.188886 155:0.294258 156:0.294258 157:0.083908 158:0.063579 159:0.070029 160:0.0494 161:0.034639 162:0.060663 163:0.223027 164:0.294258 165:0.294258 166:0.071875 167:0.035678 168:0.03082 169:0.02747 170:0.030164 171:0.102914 172:0.294258 173:0.294258 174:0.294258 175:0.22359 176:0.033119 177:0.053712 178:0.028887 179:0.048395 180:0.106502 181:0.208216 182:0.173787 183:0.186799 184:0.127602 185:0.139668 186:0.10596 187:0.071401 188:0.116549 189:0.105763 190:0.126689 191:0.027709 192:0.025949 193:0.024018 194:0.083947 195:0.034509 196:0.151035 197:0.239704 198:0.1589 199:0.252501 200:0.252501 201:0.252501 202:0.252501 203:0.074697 204:0.080149 205:0.085816 206:0.252501 207:0.252501 208:0.214568 209:0.046248 210:0.043785 211:0.07181 212:0.095624 213:0.150807 214:0.252501 215:0.252501 216:0.252501 217:0.266247 218:0.306619 219:0.125563 220:0.021496 221:0.024606 222:0.015724 223:0.081059 224:0.121729 225:0.113596 226:0.124666 227:0.306619 228:0.223152 229:0.047148 230:0.049307 231:0.009538 232:0.100192 233:0.244335 234:0.169242 235:0.259635 236:0.306619 237:0.038617 238:0.019014 239:0.023412 240:0.011546 241:0.11841 242:0.264709 243:0.220569 244:0.097815 245:0.095155 246:0.034316 247:0.013897 248:0.025556 249:0.003352 250:0.113096 251:0.306619 252:0.306619 253:0.181125 254:0.26469 255:0.26469 256:0.063106 257:0.033885 258:0.024184 259:0.041209 260:0.170484 261:0.175909 262:0.26469 263:0.26469 264:0.26469 265:0.148011 266:0.020396 267:0.018635 268:0.019421 269:0.05309 270:0.119641 271:0.244907 272:0.107336 273:0.099607 274:0.027772 275:0.020005 276:0.002201 277:0.045232 278:0.26469 279:0.26469 280:0.26469 281:0.26469 282:0.26469 283:0.050559 284:0.026552 285:0.019026 286:0.027303 287:0.095121 288:0.241409 289:0.251897 290:0.214907 291:0.183172 292:0.13618 293:0.026045 294:0.0721 295:0.126221 296:0.183919 297:0.195609 298:0.111057 299:0.032624 300:0.021373 301:0.043741 302:0.084395 303:0.247063 304:0.251897 305:0.24632 306:0.147846 307:0.209338 308:0.251897 309:0.217315 310:0.071666 311:0.142559 312:0.203886 313:0.176121 314:0.10389 315:0.116539 316:0.049615 317:0.04928 318:0.036508 319:0.135788 320:0.251897 321:0.251897 322:0.251897 323:0.125831 324:0.064518 
