svm_type c_svc
kernel_type linear
nr_class 2
total_sv 139
rho -1.23938
label 5 8
probA -1.90236
probB 0.0301184
nr_sv 69 70
SV
1 1:0.069689 2:0.176132 3:0.203408 4:0.263839 5:0.263839 6:0.22659 7:0.0481 8:0.017086 9:0.021778 10:0.228651 11:0.263839 12:0.263839 13:0.18262 14:0.113376 15:0.054617 16:0.021171 17:0.026449 18:0.045433 19:0.160765 20:0.213365 21:0.231576 22:0.263839 23:0.21709 24:0.104186 25:0.07358 26:0.056329 27:0.070479 28:0.210074 29:0.263839 30:0.215442 31:0.149325 32:0.145851 33:0.053859 34:0.025489 35:0.049082 36:0.082034 
1 1:0.110297 2:0.086076 3:0.050469 4:0.049953 5:0.087329 6:0.113969 7:0.055643 8:0.077449 9:0.05079 10:0.168537 11:0.152428 12:0.061183 13:0.076897 14:0.121227 15:0.156315 16:0.086281 17:0.201208 18:0.160919 19:0.12268 20:0.165736 21:0.158888 22:0.123139 23:0.245495 24:0.245495 25:0.195503 26:0.193523 27:0.112506 28:0.13746 29:0.245495 30:0.245495 31:0.237373 32:0.245495 33:0.245495 34:0.194289 35:0.245495 36:0.245495 
1 1:0.173496 2:0.271232 3:0.162262 4:0.267624 5:0.184368 6:0.072813 7:0.107123 8:0.054318 9:0.117705 10:0.262856 11:0.271232 12:0.244045 13:0.092359 14:0.059137 15:0.021202 16:0.039538 17:0.011264 18:0.050783 19:0.271232 20:0.271232 21:0.234962 22:0.271232 23:0.14929 24:0.034936 25:0.043915 26:0.03838 27:0.146321 28:0.250843 29:0.271232 30:0.203905 31:0.060329 32:0.030295 33:0.016514 34:0.016406 35:0.0162 36:0.038437 
1 1:0.258509 2:0.291346 3:0.291346 4:0.14945 5:0.061672 6:0.048128 7:0.011314 8:0.005938 9:0.02562 10:0.291346 11:0.291346 12:0.291346 13:0.090065 14:0.040483 15:0.019403 16:0.006151 17:0.000881 18:0.03398 19:0.291346 20:0.291346 21:0.25703 22:0.138416 23:0.056233 24:0.046193 25:0.001704 26:0.017122 27:0.094665 28:0.291346 29:0.291346 30:0.13525 31:0.037932 32:0.019595 33:0.01301 34:0.001363 35:0.007022 36:0.07491 
1 1:0.273822 2:0.162146 3:0.035902 4:0.010099 5:0.050477 6:0.048302 7:0.04407 8:0.044698 9:0.121125 10:0.328782 11:0.247525 12:0.044592 13:0.009488 14:0.017796 15:0.018366 16:0.011331 17:0.015427 18:0.193108 19:0.328782 20:0.328782 21:0.047446 22:0.014634 23:0.054693 24:0.041674 25:0.030488 26:0.082131 27:0.311415 28:0.328782 29:0.323643 30:0.053754 31:0.035582 32:0.051102 33:0.029421 34:0.026713 35:0.058965 36:0.328782 
1 1:0.086203 2:0.316921 3:0.316921 4:0.138468 5:0.143387 6:0.061193 7:0.059471 8:0.038487 9:0.023465 10:0.056165 11:0.316921 12:0.316921 13:0.086163 14:0.077971 15:0.026371 16:0.027026 17:0.026927 18:0.059242 19:0.166455 20:0.316921 21:0.316921 22:0.033129 23:0.08424 24:0.050899 25:0.052134 26:0.048296 27:0.066661 28:0.210753 29:0.316921 30:0.316921 31:0.06667 32:0.058373 33:0.028887 34:0.031237 35:0.026562 36:0.108417 
1 1:0.300811 2:0.071417 3:0.006316 4:0.003936 5:0.004762 6:0.003845 7:0.006365 8:0.016154 9:0.187391 10:0.300811 11:0.300811 12:0.021734 13:0.003982 14:0.003699 15:0.00389 16:0.016467 17:0.034806 18:0.207715 19:0.300811 20:0.300811 21:0.096986 22:0.005431 23:0.017742 24:0.000527 25:0.010888 26:0.050352 27:0.232037 28:0.300811 29:0.300811 30:0.039535 31:0.005486 32:0.019575 33:0.011233 34:0.203698 35:0.278387 36:0.300811 
1 1:0.286114 2:0.140083 3:0.185919 4:0.065254 5:0.129682 6:0.093934 7:0.156091 8:0.290886 9:0.290886 10:0.290886 11:0.078976 12:0.032463 13:0.009483 14:0.050311 15:0.011751 16:0.093143 17:0.290886 18:0.290886 19:0.177859 20:0.176063 21:0.250223 22:0.116797 23:0.125373 24:0.070309 25:0.029408 26:0.121834 27:0.13919 28:0.290886 29:0.05303 30:0.043531 31:0.051912 32:0.041082 33:0.024803 34:0.025496 35:0.118765 36:0.247542 
1 1:0.263159 2:0.263159 3:0.073703 4:0.018527 5:0.045954 6:0.066817 7:0.08299 8:0.221206 9:0.263159 10:0.263159 11:0.196659 12:0.069647 13:0.033506 14:0.11948 15:0.12552 16:0.16157 17:0.263159 18:0.263159 19:0.263159 20:0.263159 21:0.05437 22:0.012821 23:0.029108 24:0.013416 25:0.014551 26:0.107775 27:0.263159 28:0.230152 29:0.223937 30:0.030862 31:0.011897 32:0.043542 33:0.044676 34:0.061512 35:0.123475 36:0.249066 
1 1:0.239319 2:0.087489 3:0.07922 4:0.044424 5:0.025523 6:0.019306 7:0.01984 8:0.162271 9:0.345745 10:0.339536 11:0.046669 12:0.01846 13:0.011496 14:0.037343 15:0.035988 16:0.036264 17:0.144589 18:0.345745 19:0.318753 20:0.034999 21:0.007025 22:0.005239 23:0.019339 24:0.028224 25:0.033735 26:0.176726 27:0.345745 28:0.345745 29:0.019278 30:0.003285 31:0.001265 32:0.008755 33:0.005649 34:0.010555 35:0.134257 36:0.345745 
1 1:0.105844 2:0.323722 3:0.27618 4:0.087687 5:0.053718 6:0.018257 7:0.015034 8:0.028935 9:0.031214 10:0.249265 11:0.323722 12:0.323722 13:0.060951 14:0.043288 15:0.003743 16:0.009807 17:0.030719 18:0.063042 19:0.193964 20:0.323722 21:0.323722 22:0.053647 23:0.05829 24:0.014536 25:0.019424 26:0.015365 27:0.035482 28:0.196273 29:0.323722 30:0.323722 31:0.035924 32:0.034376 33:0.012536 34:0.028235 35:0.024438 36:0.03863 
1 1:0.305463 2:0.176525 3:0.12991 4:0.063815 5:0.036771 6:0.03459 7:0.108714 8:0.17679 9:0.165824 10:0.305463 11:0.227957 12:0.128234 13:0.069452 14:0.022521 15:0.064997 16:0.135086 17:0.144562 18:0.235985 19:0.305463 20:0.305463 21:0.13182 22:0.038149 23:0.034469 24:0.006105 25:0.023537 26:0.05436 27:0.136586 28:0.305463 29:0.305463 30:0.162714 31:0.05743 32:0.043217 33:0.013906 34:0.025423 35:0.06636 36:0.244879 
1 1:0.298525 2:0.104695 3:0.15664 4:0.102988 5:0.076816 6:0.080003 7:0.065779 8:0.037917 9:0.278297 10:0.298525 11:0.148172 12:0.29555 13:0.289086 14:0.19158 15:0.102141 16:0.015129 17:0.095605 18:0.298525 19:0.298525 20:0.054335 21:0.036825 22:0.012736 23:0.008831 24:0.015425 25:0.019723 26:0.023961 27:0.233104 28:0.298525 29:0.06736 30:0.064238 31:0.021505 32:0.035973 33:0.029269 34:0.006408 35:0.054151 36:0.293421 
1 1:0.288477 2:0.173641 3:0.036626 4:0.011756 5:0.019447 6:0.010462 7:0.011336 8:0.163512 9:0.288477 10:0.288477 11:0.288477 12:0.129297 13:0.016462 14:0.037162 15:0.011703 16:0.009418 17:0.073806 18:0.237249 19:0.288477 20:0.104534 21:0.005561 22:0.000624 23:0.010784 24:0.011835 25:0.04948 26:0.243736 27:0.288477 28:0.288477 29:0.288477 30:0.037545 31:0.011022 32:0.037204 33:0.030836 34:0.100248 35:0.147814 36:0.288477 
1 1:0.079359 2:0.175888 3:0.076327 4:0.039766 5:0.108738 6:0.187227 7:0.043039 8:0.023509 9:0.050081 10:0.127888 11:0.337772 12:0.260958 13:0.028446 14:0.019264 15:0.010636 16:0.009902 17:0.017707 18:0.039168 19:0.224623 20:0.337772 21:0.254066 22:0.038301 23:0.240015 24:0.337772 25:0.135045 26:0.028362 27:0.117591 28:0.163181 29:0.337772 30:0.337772 31:0.048904 32:0.045514 33:0.024584 34:0.019247 35:0.018233 36:0.051974 
1 1:0.244085 2:0.022453 3:0.002398 4:0.0037 5:0.017567 6:0.036035 7:0.148999 8:0.321088 9:0.321088 10:0.321088 11:0.061049 12:0.009273 13:0.006362 14:0.012944 15:0.016814 16:0.084896 17:0.196221 18:0.321088 19:0.240531 20:0.039987 21:0.012878 22:0.017301 23:0.029572 24:0.02501 25:0.025677 26:0.246709 27:0.321088 28:0.321088 29:0.066767 30:0.027768 31:0.019964 32:0.025448 33:0.030287 34:0.063337 35:0.124491 36:0.307634 
0.5049268433740843 1:0.310772 2:0.310772 3:0.098462 4:0.049044 5:0.062808 6:0.025631 7:0.051093 8:0.073211 9:0.100377 10:0.310772 11:0.310772 12:0.108223 13:0.060338 14:0.054968 15:0.021937 16:0.037934 17:0.092028 18:0.253627 19:0.310772 20:0.310772 21:0.06419 22:0.021322 23:0.036335 24:0.013561 25:0.051566 26:0.053186 27:0.163113 28:0.310772 29:0.310772 30:0.048926 31:0.023139 32:0.030156 33:0.012549 34:0.027836 35:0.049758 36:0.22584 
1 1:0.109089 2:0.094321 3:0.017391 4:0.233738 5:0.255906 6:0.255906 7:0.175621 8:0.124206 9:0.079493 10:0.201868 11:0.15423 12:0.024409 13:0.097474 14:0.214361 15:0.255906 16:0.255906 17:0.21571 18:0.115087 19:0.255906 20:0.183399 21:0.03424 22:0.129145 23:0.14984 24:0.173341 25:0.143713 26:0.153459 27:0.200451 28:0.205901 29:0.191365 30:0.044868 31:0.102372 32:0.097388 33:0.174698 34:0.138461 35:0.105384 36:0.105646 
1 1:0.291593 2:0.119802 3:0.019136 4:0.004153 5:0.006995 6:0.011413 7:0.037446 8:0.214627 9:0.291593 10:0.291593 11:0.089717 12:0.032113 13:0.04539 14:0.020368 15:0.008257 16:0.056298 17:0.201473 18:0.291593 19:0.291593 20:0.10357 21:0.012536 22:0.002303 23:0.030012 24:0.009242 25:0.045526 26:0.291593 27:0.291593 28:0.291593 29:0.08749 30:0.018514 31:0.034551 32:0.040773 33:0.005343 34:0.064995 35:0.291593 36:0.291593 
1 1:0.16598 2:0.335139 3:0.242275 4:0.029417 5:0.026964 6:0.012573 7:0.007457 8:0.011831 9:0.026905 10:0.207211 11:0.335139 12:0.335139 13:0.050897 14:0.036527 15:0.020181 16:0.016457 17:0.024617 18:0.062563 19:0.171495 20:0.335139 21:0.335139 22:0.021657 23:0.037883 24:0.003591 25:0.000892 26:0.013652 27:0.045061 28:0.174995 29:0.335139 30:0.335139 31:0.030911 32:0.041368 33:0.008975 34:3e-006 35:0.01151 36:0.048988 
0.4885362867105107 1:0.328276 2:0.18261 3:0.042392 4:0.021458 5:0.003582 6:0.001146 7:0.014083 8:0.047698 9:0.240906 10:0.328276 11:0.139312 12:0.015446 13:0.007857 14:0.005394 15:0.001436 16:0.005767 17:0.071206 18:0.328276 19:0.328276 20:0.231911 21:0.043397 22:0.052702 23:0.067358 24:0.137518 25:0.185583 26:0.053376 27:0.312089 28:0.328276 29:0.088964 30:0.017138 31:0.0203 32:0.020973 33:0.01746 34:0.025305 35:0.050713 36:0.328276 
1 1:0.244818 2:0.244818 3:0.15339 4:0.147474 5:0.07904 6:0.016632 7:0.020768 8:0.059107 9:0.071674 10:0.244818 11:0.244818 12:0.237387 13:0.027799 14:0.041286 15:0.007645 16:0.046213 17:0.095037 18:0.145623 19:0.244818 20:0.224791 21:0.181561 22:0.184813 23:0.117856 24:0.04963 25:0.030244 26:0.064936 27:0.111977 28:0.244818 29:0.244818 30:0.244818 31:0.202035 32:0.187753 33:0.131223 34:0.115325 35:0.218499 36:0.244818 
1 1:0.357184 2:0.026949 3:0.021229 4:0.010278 5:0.01523 6:0.063815 7:0.052938 8:0.125517 9:0.357184 10:0.357184 11:0.018108 12:0.009242 13:0.014793 14:0.01206 15:0.019346 16:0.044065 17:0.142661 18:0.357184 19:0.226805 20:0.029644 21:0.041711 22:0.045876 23:0.074512 24:0.050755 25:0.087169 26:0.161205 27:0.357184 28:0.244201 29:0.048915 30:0.055954 31:0.074117 32:0.067183 33:0.032813 34:0.055715 35:0.078331 36:0.357184 
1 1:0.179646 2:0.116624 3:0.117385 4:0.031684 5:0.019756 6:0.081963 7:0.075351 8:0.053505 9:0.150663 10:0.266587 11:0.170158 12:0.055228 13:0.1861 14:0.266587 15:0.266587 16:0.089013 17:0.026288 18:0.235038 19:0.266587 20:0.266587 21:0.266587 22:0.222448 23:0.07511 24:0.034712 25:0.045618 26:0.033025 27:0.175646 28:0.266587 29:0.266587 30:0.078047 31:0.074365 32:0.082765 33:0.148417 34:0.04536 35:0.019789 36:0.256876 
1 1:0.289755 2:0.289755 3:0.194141 4:0.026702 5:0.007385 6:0.001937 7:0.010346 8:0.031573 9:0.14687 10:0.289755 11:0.289755 12:0.181315 13:0.029463 14:0.010418 15:0.018682 16:0.021936 17:0.060111 18:0.213454 19:0.289755 20:0.289755 21:0.146768 22:0.040038 23:0.02818 24:0.05295 25:0.128019 26:0.146438 27:0.199323 28:0.25484 29:0.251401 30:0.088205 31:0.043883 32:0.024836 33:0.072907 34:0.153438 35:0.191248 36:0.200386 
1 1:0.225878 2:0.084947 3:0.06223 4:0.179524 5:0.226294 6:0.207811 7:0.226294 8:0.226294 9:0.226294 10:0.226294 11:0.153089 12:0.080982 13:0.208597 14:0.226294 15:0.193737 16:0.226294 17:0.226294 18:0.226294 19:0.219961 20:0.075107 21:0.045187 22:0.060989 23:0.0822 24:0.104363 25:0.131065 26:0.154681 27:0.175629 28:0.214521 29:0.12618 30:0.055802 31:0.059622 32:0.092768 33:0.095576 34:0.096854 35:0.095241 36:0.184682 
1 1:0.189086 2:0.115949 3:0.13597 4:0.038199 5:0.038189 6:0.00552 7:0.098257 8:0.167592 9:0.249727 10:0.303265 11:0.303265 12:0.159388 13:0.068398 14:0.016029 15:0.003844 16:0.031826 17:0.091635 18:0.209005 19:0.303265 20:0.130622 21:0.144092 22:0.030328 23:0.014712 24:0.011376 25:0.044025 26:0.174606 27:0.303265 28:0.303265 29:0.292364 30:0.087102 31:0.027436 32:0.012775 33:0.00497 34:0.026649 35:0.157274 36:0.303265 
1 1:0.178477 2:0.272577 3:0.272577 4:0.177071 5:0.266689 6:0.225172 7:0.072456 8:0.20741 9:0.118608 10:0.272577 11:0.272577 12:0.272577 13:0.07683 14:0.039187 15:0.019045 16:0.015228 17:0.023508 18:0.145189 19:0.200547 20:0.272577 21:0.272577 22:0.072489 23:0.048058 24:0.046021 25:0.016001 26:0.014406 27:0.080808 28:0.212398 29:0.248714 30:0.165726 31:0.022209 32:0.026867 33:0.009075 34:0.011366 35:0.005882 36:0.085788 
1 1:0.239519 2:0.264991 3:0.264991 4:0.231391 5:0.20515 6:0.106902 7:0.022919 8:0.03759 9:0.126457 10:0.264991 11:0.264991 12:0.264991 13:0.179445 14:0.157858 15:0.036426 16:0.00652 17:0.025067 18:0.101505 19:0.264991 20:0.264991 21:0.260769 22:0.122372 23:0.07267 24:0.054417 25:0.008081 26:0.022526 27:0.10253 28:0.202314 29:0.264991 30:0.16936 31:0.054431 32:0.04735 33:0.019452 34:0.003795 35:0.013943 36:0.078136 
1 1:0.250892 2:0.250892 3:0.073559 4:0.040409 5:0.066 6:0.05934 7:0.134114 8:0.250892 9:0.250892 10:0.250892 11:0.162866 12:0.052702 13:0.100668 14:0.038189 15:0.019526 16:0.080715 17:0.250892 18:0.250892 19:0.250892 20:0.250892 21:0.130246 22:0.077997 23:0.077753 24:0.018715 25:0.048971 26:0.112747 27:0.236308 28:0.250892 29:0.177722 30:0.090453 31:0.075938 32:0.10003 33:0.03591 34:0.180632 35:0.185818 36:0.250892 
1 1:0.293988 2:0.293988 3:0.025828 4:0.030126 5:0.019122 6:0.031481 7:0.068063 8:0.125052 9:0.169913 10:0.293988 11:0.293988 12:0.016971 13:0.018357 14:0.012715 15:0.011752 16:0.020425 17:0.04594 18:0.194172 19:0.293988 20:0.293988 21:0.010695 22:0.006623 23:0.025132 24:0.031533 25:0.080991 26:0.199393 27:0.277411 28:0.293988 29:0.293988 30:0.00299 31:0.002004 32:0.017452 33:0.004849 34:0.070869 35:0.178392 36:0.223962 
1 1:0.131049 2:0.313051 3:0.177841 4:0.05586 5:0.026277 6:0.01574 7:0.033298 8:0.043708 9:0.092505 10:0.252916 11:0.313051 12:0.277473 13:0.024642 14:0.013217 15:0.004615 16:0.032315 17:0.030069 18:0.076369 19:0.287142 20:0.313051 21:0.313051 22:0.043039 23:0.017597 24:0.011653 25:0.022449 26:0.041461 27:0.134009 28:0.284239 29:0.313051 30:0.304543 31:0.044472 32:0.01597 33:0.003557 34:0.012693 35:0.04374 36:0.100516 
1 1:0.267008 2:0.262921 3:0.22714 4:0.103175 5:0.126645 6:0.137105 7:0.084291 8:0.190701 9:0.267008 10:0.267008 11:0.267008 12:0.174464 13:0.081273 14:0.035621 15:0.043356 16:0.054508 17:0.100985 18:0.267008 19:0.267008 20:0.264537 21:0.168169 22:0.061011 23:0.039989 24:0.034489 25:0.041671 26:0.037688 27:0.201531 28:0.224687 29:0.229037 30:0.175583 31:0.075953 32:0.029536 33:0.024033 34:0.031196 35:0.029085 36:0.123227 
1 1:0.319251 2:0.058855 3:0.063011 4:0.039304 5:0.014213 6:0.014252 7:0.049228 8:0.10617 9:0.319251 10:0.319251 11:0.08707 12:0.024973 13:0.098467 14:0.215345 15:0.113352 16:0.032483 17:0.074192 18:0.319251 19:0.319251 20:0.047724 21:0.049558 22:0.061574 23:0.04641 24:0.028854 25:0.0506 26:0.115919 27:0.314024 28:0.319251 29:0.093273 30:0.124137 31:0.076065 32:0.063127 33:0.059179 34:0.042503 35:0.106254 36:0.319251 
1 1:0.285797 2:0.285797 3:0.050386 4:0.063432 5:0.02611 6:0.01831 7:0.075814 8:0.2043 9:0.280033 10:0.285797 11:0.285797 12:0.064749 13:0.015231 14:0.008622 15:0.01971 16:0.070525 17:0.192922 18:0.285797 19:0.285797 20:0.248056 21:0.052306 22:0.03197 23:0.021833 24:0.011828 25:0.070808 26:0.066198 27:0.198613 28:0.285797 29:0.185437 30:0.06545 31:0.040399 32:0.028239 33:0.027277 34:0.093457 35:0.071728 36:0.272665 
1 1:0.212593 2:0.343305 3:0.02049 4:0.020676 5:0.033534 6:0.032119 7:0.01307 8:0.024905 9:0.06183 10:0.343305 11:0.343305 12:0.04304 13:0.0304 14:0.047443 15:0.032225 16:0.010268 17:0.05471 18:0.092054 19:0.343305 20:0.343305 21:0.039359 22:0.013163 23:0.04432 24:0.01941 25:0.048928 26:0.113191 27:0.160914 28:0.343305 29:0.343305 30:0.068268 31:0.018732 32:0.0561 33:0.047192 34:0.089331 35:0.149338 36:0.123604 
1 1:0.038862 2:0.189586 3:0.200054 4:0.027655 5:0.008036 6:0.000151 7:0 8:0 9:0.007354 10:0.096668 11:0.449586 12:0.270637 13:0.026438 14:0.009943 15:0 16:0 17:0 18:0.026963 19:0.155965 20:0.449586 21:0.208578 22:0.027197 23:0.01806 24:0.002264 25:0 26:0.001508 27:0.040598 28:0.15078 29:0.449586 30:0.363204 31:0.01479 32:0.006546 33:0 34:0 35:0 36:0.034492 
1 1:0.135394 2:0.214747 3:0.120945 4:0.013601 5:0.036164 6:0.080612 7:0.110436 8:0.285602 9:0.190038 10:0.254108 11:0.285602 12:0.254618 13:0.027549 14:0.025691 15:0.070337 16:0.041038 17:0.073324 18:0.091227 19:0.238177 20:0.285602 21:0.211166 22:0.034016 23:0.027809 24:0.046483 25:0.07737 26:0.285602 27:0.214271 28:0.185038 29:0.285602 30:0.285602 31:0.103901 32:0.044687 33:0.090439 34:0.040733 35:0.050583 36:0.066866 
1 1:0.196613 2:0.329679 3:0.267958 4:0.069377 5:0.06581 6:0.044937 7:0.062887 8:0.097418 9:0.118181 10:0.271918 11:0.329679 12:0.329679 13:0.101862 14:0.082386 15:0.016186 16:0.011821 17:0.036344 18:0.069841 19:0.244195 20:0.329679 21:0.191428 22:0.020496 23:0.026604 24:0.019246 25:0.02604 26:0.056636 27:0.08433 28:0.210322 29:0.329679 30:0.223216 31:0.032373 32:0.012127 33:0.003246 34:0.010542 35:0.018864 36:0.044985 
0.8577908575727984 1:0.332548 2:0.332548 3:0.104847 4:0.031209 5:0.03128 6:0.017168 7:0.045127 8:0.100363 9:0.218734 10:0.332548 11:0.332548 12:0.091517 13:0.034599 14:0.038641 15:0.01924 16:0.114021 17:0.118405 18:0.15787 19:0.309254 20:0.302587 21:0.097809 22:0.034793 23:0.065974 24:0.060414 25:0.057255 26:0.059637 27:0.139764 28:0.303187 29:0.237429 30:0.036409 31:0.034004 32:0.0565 33:0.031211 34:0.082682 35:0.088144 36:0.125927 
1 1:0.252859 2:0.252859 3:0.145333 4:0.03364 5:0.058988 6:0.09989 7:0.252859 8:0.218555 9:0.252859 10:0.252859 11:0.252859 12:0.252859 13:0.144345 14:0.058212 15:0.021987 16:0.044725 17:0.074357 18:0.185223 19:0.220252 20:0.083228 21:0.047915 22:0.018812 23:0.016583 24:0.033449 25:0.252859 26:0.162976 27:0.252859 28:0.252859 29:0.190658 30:0.176217 31:0.049791 32:0.022113 33:0.009744 34:0.043815 35:0.037287 36:0.219672 
1 1:0.097476 2:0.124756 3:0.116457 4:0.053303 5:0.050369 6:0.024155 7:0.026424 8:0.039765 9:0.044886 10:0.129437 11:0.305743 12:0.271075 13:0.085251 14:0.041166 15:0.013063 16:0.03561 17:0.052874 18:0.046882 19:0.305743 20:0.305743 21:0.305743 22:0.10682 23:0.070039 24:0.036861 25:0.048212 26:0.018261 27:0.109551 28:0.305743 29:0.305743 30:0.305743 31:0.305743 32:0.184899 33:0.061537 34:0.077082 35:0.074948 36:0.112837 
1 1:0.163171 2:0.139344 3:0.237659 4:0.176195 5:0.186167 6:0.112569 7:0.211139 8:0.235119 9:0.197273 10:0.237659 11:0.208849 12:0.237659 13:0.193071 14:0.125655 15:0.062723 16:0.079937 17:0.205587 18:0.237659 19:0.080906 20:0.07957 21:0.054514 22:0.096825 23:0.180594 24:0.153641 25:0.172325 26:0.188224 27:0.131418 28:0.222301 29:0.069128 30:0.020661 31:0.047572 32:0.097176 33:0.116332 34:0.138656 35:0.237659 36:0.199556 
1 1:0.067079 2:0.018481 3:0.014085 4:0.000727 5:0.010617 6:0.050968 7:0.170518 8:0.33508 9:0.33508 10:0.141403 11:0.029985 12:0.023079 13:0.007439 14:0.021667 15:0.018332 16:0.128673 17:0.33508 18:0.33508 19:0.047929 20:0.000239 21:0.000532 22:0.005763 23:0.024195 24:0.063927 25:0.145691 26:0.33508 27:0.271286 28:0.169188 29:0.003509 30:0.002305 31:0.003474 32:0.019429 33:0.0188 34:0.061815 35:0.33508 36:0.33508 
1 1:0.290995 2:0.251429 3:0.063977 4:0.053837 5:0.035299 6:0.029956 7:0.021822 8:0.0341 9:0.290995 10:0.290995 11:0.170557 12:0.038554 13:0.072422 14:0.019332 15:0.01747 16:0.013652 17:0.064961 18:0.290995 19:0.290995 20:0.290995 21:0.085369 22:0.070459 23:0.03439 24:0.075772 25:0.099614 26:0.079668 27:0.290995 28:0.290995 29:0.290995 30:0.049479 31:0.062017 32:0.014392 33:0.035276 34:0.021404 35:0.048678 36:0.272168 
1 1:0.334614 2:0.098312 3:0.001761 4:0.01007 5:0.018826 6:0.039248 7:0.24361 8:0.123864 9:0.22585 10:0.334614 11:0.325501 12:0.005534 13:0.006368 14:0.011398 15:0.022845 16:0.102615 17:0.049712 18:0.217548 19:0.334614 20:0.100771 21:0.021169 22:0.010765 23:0.033545 24:0.014489 25:0.027946 26:0.018812 27:0.217456 28:0.334614 29:0.263884 30:0.105475 31:0.015071 32:0.139985 33:0.031035 34:0.108209 35:0.058662 36:0.259334 
1 1:0.268178 2:0.268178 3:0.21587 4:0.017207 5:0.012542 6:0.006362 7:0.075346 8:0.234544 9:0.268178 10:0.268178 11:0.268178 12:0.139824 13:0.044695 14:0.039331 15:0.038096 16:0.264402 17:0.268178 18:0.268178 19:0.268178 20:0.168603 21:0.033538 22:0.006159 23:0.013187 24:0.00348 25:0.029726 26:0.058441 27:0.223656 28:0.268178 29:0.136407 30:0.025578 31:0.009874 32:0.013668 33:0.010137 34:0.053203 35:0.093067 36:0.180473 
1 1:0.229185 2:0.262586 3:0.15828 4:0.020184 5:0.065592 6:0.0497 7:0.033662 8:0.021464 9:0.217828 10:0.265098 11:0.265098 12:0.219428 13:0.014766 14:0.043221 15:0.022358 16:0.012176 17:0.015469 18:0.265098 19:0.265098 20:0.265098 21:0.264116 22:0.008964 23:0.031981 24:0.006895 25:0.005743 26:0.01335 27:0.265098 28:0.265098 29:0.265098 30:0.198551 31:0.00373 32:0.01246 33:0.007472 34:0.010057 35:0.010792 36:0.265098 
1 1:0.262322 2:0.139922 3:0.073551 4:0.016865 5:0.04975 6:0.133896 7:0.199242 8:0.249773 9:0.262322 10:0.262322 11:0.189383 12:0.083019 13:0.009381 14:0.068774 15:0.210795 16:0.262322 17:0.262322 18:0.262322 19:0.170333 20:0.067676 21:0.046083 22:0.004085 23:0.012808 24:0.066984 25:0.083905 26:0.16126 27:0.262322 28:0.21657 29:0.106051 30:0.047379 31:0.002096 32:0.01264 33:0.08944 34:0.121081 35:0.224632 36:0.262322 
1 1:0.287035 2:0.124384 3:0.003058 4:0.003581 5:0.022213 6:0.047273 7:0.221733 8:0.258724 9:0.287035 10:0.287035 11:0.108588 12:0.001141 13:0.001006 14:0.014023 15:0.008587 16:0.039277 17:0.260497 18:0.287035 19:0.275931 20:0.099291 21:0.003503 22:0.001212 23:0.005158 24:0.014339 25:0.103864 26:0.143617 27:0.287035 28:0.287035 29:0.073385 30:0.004493 31:0.002407 32:0.003801 33:0.002312 34:0.033981 35:0.283507 36:0.287035 
1 1:0.11179 2:0.109916 3:0.187788 4:0.180587 5:0.251274 6:0.251274 7:0.201814 8:0.19385 9:0.064444 10:0.095768 11:0.107344 12:0.145761 13:0.068857 14:0.194471 15:0.251274 16:0.233002 17:0.21349 18:0.088841 19:0.044409 20:0.026112 21:0.027486 22:0.070523 23:0.251274 24:0.251274 25:0.251274 26:0.185874 27:0.081864 28:0.032614 29:0.01917 30:0.008228 31:0.017581 32:0.137006 33:0.251274 34:0.251274 35:0.219702 36:0.081985 
1 1:0.300896 2:0.097617 3:0.077249 4:0.032037 5:0.010186 6:0.010958 7:0.07042 8:0.123104 9:0.300896 10:0.300896 11:0.075541 12:0.050585 13:0.009182 14:0.008619 15:0.019086 16:0.218956 17:0.120538 18:0.300896 19:0.300896 20:0.055094 21:0.01895 22:0.013286 23:0.081565 24:0.147982 25:0.300896 26:0.183437 27:0.300896 28:0.300896 29:0.043225 30:0.011458 31:0.004236 32:0.018143 33:0.014271 34:0.060852 35:0.044741 36:0.300896 
1 1:0.09418 2:0.037054 3:0.070904 4:0.037812 5:0.2638 6:0.2638 7:0.196735 8:0.251686 9:0.139837 10:0.207229 11:0.00508 12:0.013527 13:0.021261 14:0.145143 15:0.14892 16:0.177123 17:0.2638 18:0.261955 19:0.164914 20:0.008232 21:0.003073 22:0.00653 23:0.055742 24:0.07159 25:0.189054 26:0.2638 27:0.224834 28:0.2638 29:0.001307 30:0.00387 31:0.002271 32:0.026398 33:0.044623 34:0.24604 35:0.2638 36:0.2638 
0.8060649689046411 1:0.306371 2:0.090101 3:0.014515 4:0.005199 5:0.020542 6:0.116146 7:0.306371 8:0.211501 9:0.306371 10:0.306371 11:0.11476 12:0.013792 13:0.00264 14:0.015648 15:0.049861 16:0.112149 17:0.082125 18:0.306371 19:0.306371 20:0.084079 21:0.023025 22:0.026696 23:0.026873 24:0.019099 25:0.049583 26:0.057807 27:0.306371 28:0.306371 29:0.087802 30:0.020385 31:0.053866 32:0.086046 33:0.022857 34:0.106981 35:0.064422 36:0.306371 
1 1:0.273409 2:0.207334 3:0.273409 4:0.102077 5:0.273409 6:0.196621 7:0.14932 8:0.034175 9:0.136823 10:0.273409 11:0.262399 12:0.051699 13:0.010933 14:0.115531 15:0.041325 16:0.019956 17:0.006264 18:0.16932 19:0.273409 20:0.273409 21:0.200128 22:0.088729 23:0.060348 24:0.024966 25:0.088314 26:0.039705 27:0.210634 28:0.273409 29:0.273409 30:0.02674 31:0.004245 32:0.018668 33:0.011674 34:0.014112 35:0.008243 36:0.20438 
1 1:0.190016 2:0.115078 3:0.055549 4:0.053346 5:0.092422 6:0.068983 7:0.119197 8:0.149515 9:0.199709 10:0.178073 11:0.111565 12:0.08223 13:0.093958 14:0.209547 15:0.154776 16:0.103748 17:0.111318 18:0.165597 19:0.256269 20:0.256269 21:0.169096 22:0.046623 23:0.072426 24:0.048086 25:0.221558 26:0.232993 27:0.256269 28:0.256269 29:0.189563 30:0.061947 31:0.03015 32:0.102766 33:0.14685 34:0.256269 35:0.256269 36:0.256269 
0.3128975437744553 1:0.259729 2:0.255773 3:0.120367 4:0.00863 5:0.017371 6:0.021533 7:0.241046 8:0.154778 9:0.235359 10:0.259729 11:0.259729 12:0.093169 13:0.004196 14:0.00757 15:0.028191 16:0.19154 17:0.137138 18:0.259729 19:0.259729 20:0.259729 21:0.157113 22:0.004445 23:0.011528 24:0.001849 25:0.039865 26:0.037026 27:0.259729 28:0.259729 29:0.259729 30:0.08893 31:0.004575 32:0.009133 33:0.003022 34:0.041467 35:0.04498 36:0.259729 
1 1:0.280735 2:0.12047 3:0.0937 4:0.030458 5:0.019313 6:0.032417 7:0.065856 8:0.115785 9:0.280735 10:0.280735 11:0.143948 12:0.130931 13:0.057695 14:0.033877 15:0.025104 16:0.082348 17:0.056272 18:0.280735 19:0.280735 20:0.154326 21:0.104491 22:0.015717 23:0.00493 24:0.019062 25:0.073213 26:0.171611 27:0.280735 28:0.280735 29:0.143271 30:0.137135 31:0.040313 32:0.014707 33:0.037619 34:0.280735 35:0.280735 36:0.280735 
1 1:0.199833 2:0.002285 3:0.008007 4:0.005481 5:0.042209 6:0.031083 7:0.175507 8:0.277574 9:0.343696 10:0.333492 11:0.001845 12:0.010751 13:0.007047 14:0.038176 15:0.125204 16:0.220937 17:0.193437 18:0.343696 19:0.150187 20:0.004529 21:0.002117 22:0.000675 23:0.00174 24:0.003617 25:0.006684 26:0.123074 27:0.343696 28:0.343696 29:0.004992 30:0.001088 31:0.000143 32:0.00251 33:0.014535 34:0.013851 35:0.048233 36:0.343696 
1 1:0.226803 2:0.028887 3:0.018103 4:0.018691 5:0.026939 6:0.082118 7:0.267393 8:0.154442 9:0.267393 10:0.246821 11:0.009173 12:0.021651 13:0.032628 14:0.028412 15:0.050202 16:0.107646 17:0.172604 18:0.267393 19:0.267393 20:0.008081 21:0.003421 22:0.029108 23:0.079148 24:0.191034 25:0.267393 26:0.267393 27:0.267393 28:0.267393 29:0.006127 30:0.008558 31:0.029359 32:0.073757 33:0.084723 34:0.220209 35:0.237809 36:0.267393 
1 1:0.149533 2:0.005331 3:0.002802 4:0.004577 5:0.010819 6:0.017162 7:0.08429 8:0.339823 9:0.339823 10:0.301127 11:0.006896 12:0.000744 13:0.001883 14:0.001972 15:0.000432 16:0.002974 17:0.176735 18:0.339823 19:0.149623 20:0.007936 21:0.0061 22:0.023971 23:0.089293 24:0.085833 25:0.134373 26:0.28425 27:0.339823 28:0.322273 29:0.002176 30:0.000734 31:0.000233 32:0.002596 33:0.002366 34:0.003795 35:0.161705 36:0.339823 
1 1:0.169964 2:0.167494 3:0.273237 4:0.145373 5:0.074466 6:0.019131 7:0.063518 8:0.10615 9:0.258067 10:0.273237 11:0.254253 12:0.143411 13:0.114156 14:0.035147 15:0.012475 16:0.010967 17:0.027831 18:0.273237 19:0.273237 20:0.110759 21:0.273237 22:0.119867 23:0.102349 24:0.019212 25:0.049672 26:0.145045 27:0.273237 28:0.273237 29:0.260735 30:0.046295 31:0.023335 32:0.013156 33:0.007428 34:0.009064 35:0.040231 36:0.273237 
1 1:0.200995 2:0.006654 3:0.001215 4:0.040157 5:0.054433 6:0.004693 7:0.115804 8:0.353535 9:0.353535 10:0.353134 11:0.001754 12:0.001344 13:0.002166 14:0.010563 15:0.000523 16:0.14391 17:0.353535 18:0.353535 19:0.020419 20:0.010506 21:0.009507 22:0.005228 23:0.013805 24:0.010843 25:0.031225 26:0.211391 27:0.157289 28:0.059428 29:0.006183 30:0.006656 31:0.006794 32:0.006903 33:0.002913 34:0.033495 35:0.30782 36:0.348694 
1 1:0.134371 2:0.091286 3:0.023443 4:0.019297 5:0.01399 6:0.110153 7:0.270148 8:0.105244 9:0.203465 10:0.197306 11:0.039114 12:0.011475 13:0.03669 14:0.045212 15:0.059277 16:0.258134 17:0.130279 18:0.270148 19:0.215226 20:0.039043 21:0.000804 22:0.003035 23:0.026596 24:0.183972 25:0.270148 26:0.259057 27:0.270148 28:0.270148 29:0.020341 30:0.004082 31:0.013537 32:0.088513 33:0.195686 34:0.270148 35:0.258773 36:0.270148 
1 1:0.087956 2:0.020842 3:0.011908 4:0.004832 5:0.054391 6:0.058269 7:0.14856 8:0.340027 9:0.340027 10:0.070441 11:0.021873 12:0.014461 13:0.00884 14:0.059935 15:0.074411 16:0.086646 17:0.340027 18:0.340027 19:0.062644 20:0.023007 21:0.004101 22:0.00608 23:0.021147 24:0.027784 25:0.189682 26:0.340027 27:0.219441 28:0.099384 29:0.04846 30:0.004405 31:0.011 32:0.028929 33:0.040387 34:0.153149 35:0.340027 36:0.340027 
1 1:0.33368 2:0.047853 3:0.010865 4:0.017245 5:0.039358 6:0.064663 7:0.107152 8:0.189988 9:0.33368 10:0.33368 11:0.014666 12:0.012365 13:0.007682 14:0.010366 15:0.007023 16:0.053232 17:0.16229 18:0.33368 19:0.266334 20:0.01197 21:0.00407 22:0.00512 23:0.013793 24:0.029169 25:0.024003 26:0.222693 27:0.33368 28:0.33368 29:0.008225 30:0.006271 31:0.003057 32:0.004053 33:0.003233 34:0.002539 35:0.09498 36:0.33368 
1 1:0.303451 2:0.303451 3:0.119635 4:0.104717 5:0.077439 6:0.116447 7:0.224437 8:0.125793 9:0.212078 10:0.303451 11:0.303451 12:0.163892 13:0.033154 14:0.020321 15:0.030836 16:0.064795 17:0.076775 18:0.29192 19:0.278818 20:0.303451 21:0.099366 22:0.06383 23:0.053075 24:0.066314 25:0.089674 26:0.100325 27:0.096884 28:0.152836 29:0.255867 30:0.059052 31:0.026318 32:0.025541 33:0.062061 34:0.107196 35:0.099499 36:0.103035 
1 1:0.241709 2:0.241709 3:0.158963 4:0.241709 5:0.241709 6:0.18581 7:0.127362 8:0.14074 9:0.130274 10:0.241709 11:0.241709 12:0.077168 13:0.139283 14:0.15936 15:0.133693 16:0.071106 17:0.215793 18:0.241709 19:0.241709 20:0.241709 21:0.135764 22:0.096004 23:0.115933 24:0.094054 25:0.088045 26:0.089891 27:0.078243 28:0.241709 29:0.238473 30:0.073972 31:0.06188 32:0.081485 33:0.11141 34:0.078591 35:0.058146 36:0.116807 
1 1:0.098638 2:0.356356 3:0.356356 4:0.076932 5:0.013249 6:0.004245 7:0.001913 8:0.000388 9:0.013549 10:0.102997 11:0.356356 12:0.356356 13:0.048687 14:0.015347 15:0.002776 16:0.001972 17:0.002072 18:0.014225 19:0.178121 20:0.356356 21:0.342138 22:0.033882 23:0.015613 24:0.005681 25:0.002806 26:0.000863 27:0.046118 28:0.067747 29:0.356356 30:0.210172 31:0.053741 32:0.027607 33:0.006476 34:0.006838 35:0.003487 36:0.013534 
-1 1:0.239325 2:0.269615 3:0.220109 4:0.121787 5:0.031191 6:0.082413 7:0.175521 8:0.193428 9:0.154029 10:0.269615 11:0.269615 12:0.186801 13:0.122431 14:0.053402 15:0.015425 16:0.021911 17:0.020295 18:0.086188 19:0.169658 20:0.173597 21:0.161006 22:0.074788 23:0.145043 24:0.044169 25:0.235267 26:0.269615 27:0.269615 28:0.178807 29:0.165667 30:0.109165 31:0.048628 32:0.120618 33:0.039588 34:0.110787 35:0.203292 36:0.20023 
-1 1:0.122894 2:0.221738 3:0.1747 4:0.199748 5:0.135098 6:0.206396 7:0.072988 8:0.167059 9:0.216285 10:0.231738 11:0.231738 12:0.231738 13:0.231738 14:0.117029 15:0.116059 16:0.036019 17:0.09502 18:0.231738 19:0.16296 20:0.141229 21:0.113473 22:0.118478 23:0.06585 24:0.198035 25:0.102459 26:0.150079 27:0.231738 28:0.155055 29:0.220563 30:0.195053 31:0.210305 32:0.097697 33:0.09355 34:0.075206 35:0.078239 36:0.165507 
-1 1:0.039112 2:0.430105 3:0.430105 4:0.117878 5:0.03204 6:0.010884 7:0.010804 8:0.015556 9:0.026962 10:0.022836 11:0.212269 12:0.430105 13:0.08948 14:0.053992 15:0.026154 16:0.024284 17:0.025895 18:0.020338 19:0.066188 20:0.352267 21:0.430105 22:0.053613 23:0.023844 24:0.012593 25:0.010612 26:0.055601 27:0.058591 28:0.051576 29:0.091478 30:0.146232 31:0.044257 32:0.018962 33:0.020279 34:0.028321 35:0.053696 36:0.041091 
-1 1:0.266202 2:0.266202 3:0.266202 4:0.108281 5:0.130689 6:0.104329 7:0.14211 8:0.176747 9:0.266202 10:0.266202 11:0.266202 12:0.12901 13:0.082418 14:0.08416 15:0.072242 16:0.1622 17:0.138484 18:0.266202 19:0.205348 20:0.121023 21:0.06611 22:0.07454 23:0.061254 24:0.103238 25:0.16954 26:0.127716 27:0.158388 28:0.253271 29:0.117677 30:0.027278 31:0.085016 32:0.067843 33:0.077342 34:0.091019 35:0.080154 36:0.257669 
-1 1:0.259375 2:0.125325 3:0.038011 4:0.012446 5:0.007991 6:0.022616 7:0.058834 8:0.076398 9:0.259375 10:0.259375 11:0.259375 12:0.144895 13:0.07514 14:0.016929 15:0.01446 16:0.146421 17:0.186252 18:0.259375 19:0.259375 20:0.259375 21:0.117986 22:0.011259 23:0.005027 24:0.016197 25:0.081287 26:0.204186 27:0.259375 28:0.259375 29:0.259375 30:0.218145 31:0.047052 32:0.006315 33:0.005863 34:0.090506 35:0.161967 36:0.259375 
-1 1:0.042215 2:0.017629 3:0.0108 4:0.013935 5:0.039153 6:0.180536 7:0.313259 8:0.313259 9:0.313259 10:0.132073 11:0.016902 12:0.00953 13:0.012774 14:0.012474 15:0.022401 16:0.043276 17:0.313259 18:0.313259 19:0.031353 20:0.007853 21:0.014339 22:0.031389 23:0.153398 24:0.11854 25:0.080852 26:0.255167 27:0.313259 28:0.130515 29:0.010402 30:0.0212 31:0.029669 32:0.134583 33:0.109121 34:0.044668 35:0.301589 36:0.313259 
-1 1:0.15898 2:0.085201 3:0.060382 4:0.070468 5:0.223407 6:0.267789 7:0.251457 8:0.181489 9:0.102037 10:0.132086 11:0.100045 12:0.084244 13:0.055438 14:0.084657 15:0.226825 16:0.090029 17:0.061433 18:0.074927 19:0.267789 20:0.172322 21:0.062859 22:0.105794 23:0.216805 24:0.267789 25:0.210803 26:0.139373 27:0.193988 28:0.267789 29:0.267789 30:0.099329 31:0.034522 32:0.064409 33:0.154909 34:0.095399 35:0.118514 36:0.267789 
-1 1:0.170886 2:0.082235 3:0.032689 4:0.036314 5:0.082056 6:0.146628 7:0.130619 8:0.221746 9:0.279869 10:0.094955 11:0.117063 12:0.064745 13:0.037376 14:0.114112 15:0.131607 16:0.105763 17:0.204532 18:0.279869 19:0.279869 20:0.079476 21:0.030773 22:0.026218 23:0.044429 24:0.060537 25:0.148398 26:0.279869 27:0.279869 28:0.265157 29:0.219579 30:0.155448 31:0.049093 32:0.076821 33:0.072707 34:0.111945 35:0.279869 36:0.279869 
-1 1:0.084606 2:0.086978 3:0.058803 4:0.040413 5:0.104763 6:0.154276 7:0.179749 8:0.252638 9:0.245163 10:0.120259 11:0.076061 12:0.024381 13:0.038651 14:0.031868 15:0.074853 16:0.15141 17:0.252638 18:0.206885 19:0.252638 20:0.192061 21:0.105747 22:0.067668 23:0.141945 24:0.252638 25:0.222996 26:0.244083 27:0.252638 28:0.252638 29:0.194441 30:0.057116 31:0.043177 32:0.059695 33:0.078493 34:0.10208 35:0.252638 36:0.252638 
-1 1:0.294741 2:0.062995 3:0.019 4:0.007966 5:0.024241 6:0.018926 7:0.036672 8:0.219541 9:0.32637 10:0.32637 11:0.076338 12:0.01351 13:0 14:0.015365 15:0.008103 16:0.092667 17:0.235278 18:0.32637 19:0.11387 20:0.055885 21:0.018512 22:0.003346 23:0.032825 24:0.021362 25:0.077707 26:0.32637 27:0.32637 28:0.199043 29:0.043935 30:0.01145 31:0 32:0.026981 33:0.008271 34:0.105075 35:0.260944 36:0.32637 
-0.7581592162235751 1:0.185519 2:0.148079 3:0.1122 4:0.051965 5:0.128634 6:0.264498 7:0.154299 8:0.211771 9:0.256237 10:0.032108 11:0.044004 12:0.049319 13:0.046603 14:0.070998 15:0.17051 16:0.234906 17:0.175995 18:0.08591 19:0.264498 20:0.231702 21:0.044249 22:0.021268 23:0.078322 24:0.189889 25:0.148421 26:0.264498 27:0.264498 28:0.136466 29:0.107268 30:0.022885 31:0.07776 32:0.086617 33:0.11304 34:0.206375 35:0.264498 36:0.264498 
-1 1:0.199782 2:0.019081 3:0.009008 4:0.009609 5:0.0093 6:0.039663 7:0.068877 8:0.100506 9:0.328511 10:0.328511 11:0.018222 12:0.013063 13:0.009499 14:0.015364 15:0.044969 16:0.051462 17:0.045957 18:0.328511 19:0.328511 20:0.084207 21:0.005758 22:0.019197 23:0.090227 24:0.087314 25:0.200289 26:0.22613 27:0.328511 28:0.19122 29:0.048744 30:0.059207 31:0.035608 32:0.113906 33:0.123616 34:0.222602 35:0.238442 36:0.315704 
-1 1:0.31979 2:0.31979 3:0.280596 4:0.049432 5:0.054715 6:0.012895 7:0.000353 8:0.024814 9:0.121602 10:0.118513 11:0.31979 12:0.31979 13:0.118451 14:0.097862 15:0.066108 16:0.027663 17:0.047627 18:0.057929 19:0.31979 20:0.31979 21:0.131159 22:0.009433 23:0.010515 24:0.001119 25:0.001366 26:0.001132 27:0.06041 28:0.236972 29:0.31979 30:0.233065 31:0.015491 32:0.013891 33:0.005368 34:0.004518 35:0.000674 36:0.027878 
-1 1:0.153421 2:0.059125 3:0.020457 4:0.019622 5:0.039488 6:0.093431 7:0.155934 8:0.312009 9:0.242778 10:0.153754 11:0.091676 12:0.032219 13:0.022455 14:0.020435 15:0.038325 16:0.149886 17:0.325833 18:0.237736 19:0.325833 20:0.086698 21:0.049391 22:0.01677 23:0.039845 24:0.092775 25:0.077831 26:0.212333 27:0.325833 28:0.209741 29:0.044137 30:0.034305 31:0.012478 32:0.030868 33:0.057556 34:0.098007 35:0.325833 36:0.325833 
-1 1:0.196439 2:0.096673 3:0.036033 4:0.009529 5:0.020452 6:0.022491 7:0.030523 8:0.089952 9:0.213361 10:0.297585 11:0.140008 12:0.056561 13:0.012024 14:0.021674 15:0.036389 16:0.037785 17:0.042222 18:0.196496 19:0.344761 20:0.086661 21:0.026324 22:0.001036 23:0.00678 24:0.008979 25:0.01407 26:0.327877 27:0.344761 28:0.344761 29:0.144964 30:0.043905 31:0.003571 32:0.024074 33:0.034678 34:0.039695 35:0.344761 36:0.344761 
-1 1:0.262454 2:0.262454 3:0.177831 4:0.128601 5:0.139127 6:0.057178 7:0.034363 8:0.0703 9:0.139192 10:0.262454 11:0.262454 12:0.158976 13:0.150007 14:0.173214 15:0.060662 16:0.035515 17:0.08623 18:0.262454 19:0.084558 20:0.073881 21:0.167854 22:0.22758 23:0.197605 24:0.208431 25:0.142567 26:0.050722 27:0.063996 28:0.236949 29:0.231925 30:0.257161 31:0.247838 32:0.084471 33:0.023792 34:0.012047 35:0.017628 36:0.137177 
-1 1:0.240306 2:0.334498 3:0.105645 4:0.016775 5:0.004157 6:0.001769 7:0.004084 8:0.013696 9:0.08091 10:0.334498 11:0.334498 12:0.142971 13:0.008945 14:0.010042 15:0.000908 16:0.001278 17:0.009304 18:0.116798 19:0.334498 20:0.334498 21:0.077117 22:0.009725 23:0.018167 24:0.013144 25:0.036222 26:0.058889 27:0.180311 28:0.334498 29:0.334498 30:0.08731 31:0.018183 32:0.030882 33:0.010472 34:0.024513 35:0.061049 36:0.214342 
-1 1:0.301238 2:0.201848 3:0.037679 4:0.007345 5:0.005727 6:0.000481 7:9.2e-005 8:0.012625 9:0.14648 10:0.293315 11:0.23394 12:0.045078 13:0.003998 14:0.005696 15:0.001216 16:0.001904 17:0.025181 18:0.159583 19:0.301238 20:0.140893 21:0.121314 22:0.067652 23:0.163095 24:0.231315 25:0.105623 26:0.211012 27:0.301238 28:0.301238 29:0.172808 30:0.081537 31:0.016887 32:0.148418 33:0.167437 34:0.08912 35:0.201796 36:0.301238 
-1 1:0.290016 2:0.178173 3:0.084612 4:0.041473 5:0.06338 6:0.042868 7:0.054835 8:0.229111 9:0.290016 10:0.290016 11:0.235081 12:0.158718 13:0.085931 14:0.043045 15:0.065224 16:0.075402 17:0.290016 18:0.290016 19:0.094111 20:0.134855 21:0.134359 22:0.096872 23:0.118627 24:0.130931 25:0.136021 26:0.097767 27:0.18896 28:0.120605 29:0.142662 30:0.13824 31:0.160963 32:0.116377 33:0.129262 34:0.134841 35:0.142347 36:0.277254 
-1 1:0.293002 2:0.293002 3:0.14962 4:0.140717 5:0.11498 6:0.03498 7:0.035952 8:0.139542 9:0.25045 10:0.293002 11:0.293002 12:0.250116 13:0.178507 14:0.066521 15:0.024198 16:0.082853 17:0.19357 18:0.293002 19:0.131561 20:0.134813 21:0.048194 22:0.045401 23:0.097282 24:0.077496 25:0.089391 26:0.132989 27:0.150915 28:0.187812 29:0.175789 30:0.078299 31:0.047558 32:0.066184 33:0.056458 34:0.118697 35:0.134807 36:0.256412 
-0.6151258413646779 1:0.069311 2:0.017998 3:0.003919 4:0.002737 5:0.065602 6:0.057305 7:0.133571 8:0.333546 9:0.333546 10:0.056297 11:0.019718 12:0.029444 13:0.026372 14:0.046141 15:0.016837 16:0.022423 17:0.333546 18:0.333546 19:0.089181 20:0.028234 21:0.028369 22:0.062202 23:0.099947 24:0.096116 25:0.130879 26:0.333546 27:0.333546 28:0.098489 29:0.04248 30:0.054309 31:0.034625 32:0.032906 33:0.019043 34:0.033882 35:0.333546 36:0.333546 
-1 1:0.277512 2:0.277512 3:0.164249 4:0.053141 5:0.023057 6:0.015406 7:0.01717 8:0.039605 9:0.243855 10:0.277512 11:0.277512 12:0.161349 13:0.21673 14:0.126724 15:0.0603 16:0.051758 17:0.041636 18:0.277512 19:0.242968 20:0.223581 21:0.153963 22:0.06361 23:0.029587 24:0.04519 25:0.077617 26:0.061306 27:0.141584 28:0.277512 29:0.277512 30:0.089092 31:0.028401 32:0.026108 33:0.038926 34:0.096666 35:0.07533 36:0.271376 
-1 1:0.130486 2:0.124629 3:0.100301 4:0.064764 5:0.042259 6:0.09655 7:0.064576 8:0.0665 9:0.111248 10:0.246795 11:0.209484 12:0.121044 13:0.056395 14:0.040198 15:0.084548 16:0.058302 17:0.049917 18:0.147993 19:0.342939 20:0.342939 21:0.239782 22:0.071432 23:0.024648 24:0.062278 25:0.07735 26:0.092503 27:0.223447 28:0.342939 29:0.342939 30:0.165009 31:0.040727 32:0.02269 33:0.031167 34:0.044645 35:0.080926 36:0.342939 
-1 1:0.285829 2:0.285829 3:0.257841 4:0.094553 5:0.141018 6:0.036883 7:0.018454 8:0.063674 9:0.149244 10:0.285829 11:0.285829 12:0.248556 13:0.126009 14:0.167637 15:0.060747 16:0.05532 17:0.031815 18:0.127877 19:0.103352 20:0.125816 21:0.194914 22:0.090704 23:0.192731 24:0.083649 25:0.059662 26:0.07224 27:0.10369 28:0.214133 29:0.285829 30:0.285829 31:0.192352 32:0.141005 33:0.047295 34:0.041309 35:0.027651 36:0.099486 
-1 1:0.178959 2:0.221761 3:0.102745 4:0.028672 5:0.06654 6:0.078958 7:0.073014 8:0.055456 9:0.079837 10:0.341552 11:0.341552 12:0.207289 13:0.08292 14:0.100627 15:0.060506 16:0.042277 17:0.07377 18:0.110737 19:0.341552 20:0.341552 21:0.15768 22:0.03169 23:0.062686 24:0.026689 25:0.033664 26:0.013593 27:0.082312 28:0.341552 29:0.341552 30:0.165569 31:0.056961 32:0.092096 33:0.022601 34:0.022296 35:0.012446 36:0.128789 
-1 1:0.099503 2:0.011066 3:0.00668 4:0.003583 5:0.012641 6:0.031686 7:0.20213 8:0.28797 9:0.28797 10:0.197238 11:0.031026 12:0.025377 13:0.015931 14:0.037984 15:0.048785 16:0.152848 17:0.28797 18:0.28797 19:0.151813 20:0.065288 21:0.046184 22:0.016208 23:0.057372 24:0.093402 25:0.28797 26:0.28797 27:0.28797 28:0.242264 29:0.143072 30:0.078424 31:0.029488 32:0.065759 33:0.06198 34:0.147376 35:0.236374 36:0.28797 
-1 1:0.222194 2:0.066679 3:0.039323 4:0.03757 5:0.030543 6:0.084801 7:0.241865 8:0.272309 9:0.272309 10:0.153101 11:0.053625 12:0.041401 13:0.03442 14:0.059188 15:0.203751 16:0.272309 17:0.213778 18:0.272309 19:0.215014 20:0.061615 21:0.018708 22:0.037782 23:0.028778 24:0.010522 25:0.153614 26:0.272309 27:0.272309 28:0.254705 29:0.061263 30:0.024831 31:0.037837 32:0.048867 33:0.038455 34:0.099227 35:0.272309 36:0.272309 
-1 1:0.16042 2:0.198365 3:0.084773 4:0.070921 5:0.090299 6:0.059212 7:0.0534 8:0.044155 9:0.031685 10:0.298147 11:0.298147 12:0.086611 13:0.031624 14:0.025821 15:0.034115 16:0.040269 17:0.058294 18:0.109011 19:0.201054 20:0.298147 21:0.274512 22:0.298147 23:0.279914 24:0.053393 25:0.029973 26:0.008586 27:0.018848 28:0.298147 29:0.298147 30:0.298147 31:0.195322 32:0.11219 33:0.023306 34:0.021947 35:0.020329 36:0.047918 
-1 1:0.278172 2:0.080964 3:0.020929 4:0.014215 5:0.067993 6:0.046905 7:0.147832 8:0.128389 9:0.251661 10:0.278172 11:0.141218 12:0.052659 13:0.066882 14:0.106014 15:0.089668 16:0.239558 17:0.241536 18:0.278172 19:0.278172 20:0.10353 21:0.02245 22:0.015365 23:0.024057 24:0.027662 25:0.107733 26:0.247389 27:0.278172 28:0.278172 29:0.191087 30:0.013012 31:0 32:0.015967 33:0.015785 34:0.092915 35:0.215044 36:0.278172 
-1 1:0.281911 2:0.281911 3:0.118518 4:0.033975 5:0.0473 6:0.025895 7:0.054001 8:0.110894 9:0.281911 10:0.281911 11:0.281911 12:0.131073 13:0.034576 14:0.027428 15:0.026413 16:0.059759 17:0.171856 18:0.281911 19:0.192266 20:0.258815 21:0.132791 22:0.082722 23:0.08332 24:0.07196 25:0.047428 26:0.074425 27:0.154664 28:0.281911 29:0.281911 30:0.176647 31:0.056832 32:0.043194 33:0.089354 34:0.059686 35:0.095958 36:0.214072 
-1 1:0.17603 2:0.155068 3:0.092408 4:0.122279 5:0.123251 6:0.08686 7:0.11537 8:0.179111 9:0.150098 10:0.190296 11:0.163255 12:0.143953 13:0.160071 14:0.105974 15:0.079386 16:0.103183 17:0.148718 18:0.131814 19:0.315632 20:0.315632 21:0.152012 22:0.08193 23:0.106601 24:0.052583 25:0.075335 26:0.125708 27:0.147112 28:0.315632 29:0.315632 30:0.153315 31:0.063238 32:0.092555 33:0.052247 34:0.061415 35:0.169589 36:0.306412 
-1 1:0.203351 2:0.103699 3:0.084805 4:0.050008 5:0.193432 6:0.13029 7:0.095526 8:0.072261 9:0.194042 10:0.258995 11:0.258995 12:0.133161 13:0.033525 14:0.193159 15:0.038332 16:0.129069 17:0.154908 18:0.258995 19:0.258995 20:0.140266 21:0.114688 22:0.005222 23:0.121929 24:0.019194 25:0.051535 26:0.130973 27:0.258995 28:0.258995 29:0.258995 30:0.258995 31:0.08066 32:0.205489 33:0.015458 34:0.049043 35:0.08916 36:0.258995 
-1 1:0.307315 2:0.105624 3:0.01956 4:0.028393 5:0.010308 6:0.012729 7:0.044166 8:0.080517 9:0.307315 10:0.307315 11:0.307315 12:0.063335 13:0.058549 14:0.063586 15:0.028807 16:0.085311 17:0.148022 18:0.307315 19:0.307315 20:0.0873 21:0.016247 22:0.005037 23:0.008717 24:0.005485 25:0.015966 26:0.083143 27:0.307315 28:0.307315 29:0.21214 30:0.013809 31:0.006967 32:0.015025 33:0.0065 34:0.035042 35:0.149926 36:0.307315 
-1 1:0.164313 2:0.224009 3:0.197028 4:0.068072 5:0.062578 6:0.071467 7:0.112244 8:0.144061 9:0.184339 10:0.183511 11:0.224009 12:0.207554 13:0.152122 14:0.224009 15:0.190524 16:0.100189 17:0.128922 18:0.224009 19:0.224009 20:0.224009 21:0.086787 22:0.023226 23:0.06953 24:0.103152 25:0.181857 26:0.187511 27:0.177973 28:0.224009 29:0.224009 30:0.108964 31:0.064284 32:0.115475 33:0.10381 34:0.164733 35:0.213939 36:0.224009 
-1 1:0.158492 2:0.054105 3:0.027571 4:0.014203 5:0.036846 6:0.061857 7:0.150759 8:0.275428 9:0.334338 10:0.15906 11:0.020087 12:0.002868 13:0.000501 14:0.026079 15:0.02571 16:0.029225 17:0.334338 18:0.334338 19:0.093664 20:0.039504 21:0.013258 22:0.004878 23:0.028881 24:0.045294 25:0.151558 26:0.334338 27:0.334338 28:0.127658 29:0.014816 30:0.001897 31:0.000228 32:0.010501 33:0.0149 34:0.016075 35:0.334338 36:0.334338 
-1 1:0.203484 2:0.113131 3:0.052885 4:0.039314 5:0.054495 6:0.090547 7:0.236545 8:0.243443 9:0.163866 10:0.244955 11:0.244955 12:0.200511 13:0.12576 14:0.1865 15:0.207663 16:0.151782 17:0.244955 18:0.244955 19:0.141777 20:0.10371 21:0.090866 22:0.058547 23:0.071463 24:0.050132 25:0.088391 26:0.220254 27:0.221669 28:0.244955 29:0.131184 30:0.132447 31:0.065397 32:0.079776 33:0.04386 34:0.092201 35:0.239465 36:0.244955 
-1 1:0.202255 2:0.298926 3:0.298926 4:0.164447 5:0.044728 6:0.014598 7:0.04045 8:0.049472 9:0.081179 10:0.218028 11:0.298926 12:0.298926 13:0.103715 14:0.045642 15:0.022497 16:0.028283 17:0.05396 18:0.055003 19:0.22523 20:0.298926 21:0.298926 22:0.130779 23:0.030026 24:0.015847 25:0.043659 26:0.049271 27:0.065788 28:0.197289 29:0.298926 30:0.284989 31:0.143892 32:0.033816 33:0.031418 34:0.014669 35:0.033098 36:0.033535 
-1 1:0.287037 2:0.158853 3:0.071825 4:0.030097 5:0.018425 6:0.03378 7:0.032033 8:0.063195 9:0.148778 10:0.287037 11:0.268075 12:0.107546 13:0.011994 14:0.05036 15:0.034742 16:0.025629 17:0.054176 18:0.154671 19:0.287037 20:0.287037 21:0.0349 22:0.041486 23:0.07289 24:0.112973 25:0.214951 26:0.24663 27:0.287037 28:0.287037 29:0.287037 30:0.118742 31:0.02584 32:0.119858 33:0.0891 34:0.074469 35:0.123641 36:0.244305 
-1 1:0.158731 2:0.178325 3:0.046293 4:0.021684 5:0.018267 6:0.008119 7:0.036179 8:0.075726 9:0.164178 10:0.328788 11:0.34955 12:0.079368 13:0.024108 14:0.017791 15:0.003948 16:0.052287 17:0.089723 18:0.130373 19:0.34955 20:0.34955 21:0.136064 22:0.020486 23:0.0193 24:0.012253 25:0.007376 26:0.013327 27:0.211998 28:0.34955 29:0.34955 30:0.222992 31:0.024716 32:0.027489 33:0.001559 34:0.003918 35:0.006534 36:0.180825 
-1 1:0.320816 2:0.320816 3:0.116106 4:0.03721 5:0.031715 6:0.013233 7:0.041553 8:0.069168 9:0.186806 10:0.320816 11:0.282179 12:0.10721 13:0.040621 14:0.042506 15:0.024339 16:0.03406 17:0.069565 18:0.199108 19:0.320816 20:0.273774 21:0.086699 22:0.024467 23:0.036268 24:0.010982 25:0.043326 26:0.063013 27:0.179088 28:0.320816 29:0.215993 30:0.050303 31:0.022847 32:0.042302 33:0.014104 34:0.032678 35:0.076195 36:0.320816 
-1 1:0.183509 2:0.13517 3:0.092373 4:0.093838 5:0.093742 6:0.08826 7:0.065451 8:0.066523 9:0.114657 10:0.223949 11:0.223384 12:0.098738 13:0.092801 14:0.081821 15:0.119278 16:0.056011 17:0.0932 18:0.134726 19:0.362624 20:0.362624 21:0.157734 22:0.060185 23:0.071032 24:0.055592 25:0.038919 26:0.036274 27:0.159626 28:0.362624 29:0.362624 30:0.189336 31:0.088481 32:0.050293 33:0.047695 34:0.015787 35:0.03838 36:0.279663 
-0.04610220918199603 1:0.114376 2:0.214216 3:0.252913 4:0.252913 5:0.149389 6:0.090546 7:0.122912 8:0.091866 9:0.166338 10:0.130394 11:0.079105 12:0.089786 13:0.0948 14:0.143092 15:0.207184 16:0.252913 17:0.252913 18:0.221991 19:0.176156 20:0.151709 21:0.212844 22:0.128875 23:0.088261 24:0.051221 25:0.065405 26:0.125089 27:0.189302 28:0.222943 29:0.138161 30:0.106755 31:0.024523 32:0.073853 33:0.107664 34:0.252913 35:0.252913 36:0.20006 
-1 1:0.316597 2:0.316597 3:0.096634 4:0.0162 5:0.051423 6:0.064732 7:0.076914 8:0.07319 9:0.168277 10:0.316597 11:0.316597 12:0.114543 13:0.062417 14:0.121692 15:0.028327 16:0.016247 17:0.052769 18:0.138738 19:0.198681 20:0.101946 21:0.027878 22:0.00319 23:0.023255 24:0.030062 25:0.061593 26:0.316597 27:0.316597 28:0.144951 29:0.09238 30:0.073563 31:0.009498 32:0.022508 33:0.029583 34:0.042437 35:0.300216 36:0.316597 
-1 1:0.158431 2:0.263792 3:0.266443 4:0.266443 5:0.173042 6:0.034633 7:0.074697 8:0.06026 9:0.063367 10:0.160212 11:0.266443 12:0.266443 13:0.076695 14:0.042485 15:0.034681 16:0.08217 17:0.091607 18:0.088532 19:0.266104 20:0.266443 21:0.266443 22:0.100311 23:0.148391 24:0.065545 25:0.054159 26:0.12019 27:0.124204 28:0.266443 29:0.266443 30:0.266443 31:0.044403 32:0.023245 33:0.005256 34:0.026738 35:0.058664 36:0.122979 
-1 1:0.131022 2:0.065168 3:0.02364 4:0.052672 5:0.165964 6:0.159569 7:0.15094 8:0.228899 9:0.284246 10:0.144243 11:0.048091 12:0.023262 13:0.036681 14:0.075468 15:0.069487 16:0.110674 17:0.235188 18:0.298171 19:0.298171 20:0.040132 21:0.017741 22:0.010666 23:0.017209 24:0.041204 25:0.116675 26:0.298171 27:0.298171 28:0.298171 29:0.104854 30:0.043562 31:0.03074 32:0.044601 33:0.01306 34:0.064958 35:0.298171 36:0.298171 
-1 1:0.30267 2:0.30267 3:0.219813 4:0.07154 5:0.050743 6:0.006935 7:0.006582 8:0.015163 9:0.092563 10:0.30267 11:0.30267 12:0.167928 13:0.029569 14:0.067249 15:0.017195 16:0.023441 17:0.028187 18:0.115234 19:0.30267 20:0.30267 21:0.176198 22:0.065245 23:0.043502 24:0.030265 25:0.021226 26:0.021395 27:0.155615 28:0.30267 29:0.292116 30:0.081638 31:0.018169 32:0.053583 33:0.042756 34:0.051848 35:0.09042 36:0.266779 
-1 1:0.101063 2:0.296039 3:0.296039 4:0.024613 5:0.041311 6:0.024032 7:0.028512 8:0.026979 9:0.027775 10:0.252003 11:0.296039 12:0.190179 13:0.024808 14:0.05986 15:0.054454 16:0.049743 17:0.043351 18:0.053905 19:0.296039 20:0.296039 21:0.161992 22:0.023471 23:0.095254 24:0.056504 25:0.066694 26:0.070894 27:0.247578 28:0.296039 29:0.296039 30:0.085674 31:0.031668 32:0.093225 33:0.081284 34:0.108052 35:0.145856 36:0.296039 
-0.5388403748888325 1:0.07228 2:0.021293 3:0.01874 4:0.006716 5:0.019421 6:0.126346 7:0.319475 8:0.319475 9:0.12511 10:0.022971 11:0.011065 12:0.009396 13:0.002537 14:0.012313 15:0.080769 16:0.319475 17:0.319475 18:0.12342 19:0.0773 20:0.030812 21:0.038502 22:0.022568 23:0.024218 24:0.177614 25:0.319475 26:0.26974 27:0.158579 28:0.034969 29:0.010795 30:0.016126 31:0.006137 32:0.021481 33:0.240991 34:0.319475 35:0.319475 36:0.150015 
-1 1:0.267225 2:0.16518 3:0.153885 4:0.133791 5:0.267225 6:0.153935 7:0.267225 8:0.267225 9:0.267225 10:0.267225 11:0.220832 12:0.160286 13:0.163503 14:0.121445 15:0.063018 16:0.094792 17:0.112538 18:0.189679 19:0.186594 20:0.233522 21:0.121852 22:0.075617 23:0.071685 24:0.04453 25:0.050846 26:0.111428 27:0.108158 28:0.221612 29:0.201931 30:0.147577 31:0.045943 32:0.105657 33:0.062916 34:0.067326 35:0.071404 36:0.128467 
-1 1:0.238011 2:0.238011 3:0.238011 4:0.205595 5:0.198461 6:0.098103 7:0.051273 8:0.037884 9:0.139131 10:0.238011 11:0.216291 12:0.238011 13:0.237534 14:0.171988 15:0.102339 16:0.092885 17:0.062828 18:0.206179 19:0.208741 20:0.180398 21:0.23604 22:0.214089 23:0.161592 24:0.05305 25:0.081794 26:0.095287 27:0.088534 28:0.215885 29:0.108751 30:0.191999 31:0.109221 32:0.157114 33:0.052944 34:0.098002 35:0.095601 36:0.132939 
-1 1:0.28869 2:0.007085 3:0.00424 4:0.009172 5:0.019414 6:0.008598 7:0.08821 8:0.28869 9:0.28869 10:0.272211 11:0.011491 12:0.00683 13:0.005953 14:0.008221 15:0.004028 16:0.073431 17:0.28869 18:0.28869 19:0.262557 20:0.002636 21:0.00021 22:0.00042 23:0.002787 24:0.000169 25:0.074517 26:0.271901 27:0.28869 28:0.28869 29:0.005006 30:0.00081 31:0.0009 32:0.001915 33:0 34:0.101977 35:0.28869 36:0.28869 
-1 1:0.28592 2:0.197161 3:0.050542 4:0.006804 5:0.026912 6:0.024966 7:0.069984 8:0.140697 9:0.282901 10:0.28592 11:0.270372 12:0.086087 13:0.008778 14:0.014205 15:0.002828 16:0.05843 17:0.18483 18:0.28592 19:0.28592 20:0.042772 21:0.015322 22:0.029486 23:0.060494 24:0.032828 25:0.073513 26:0.178496 27:0.28592 28:0.28592 29:0.140992 30:0.024118 31:0.033785 32:0.037979 33:0.069209 34:0.085468 35:0.28088 36:0.28592 
-1 1:0.15297 2:0.166897 3:0.13144 4:0.083519 5:0.014881 6:0.01133 7:0.102113 8:0.068559 9:0.080774 10:0.291429 11:0.258208 12:0.171475 13:0.106299 14:0.0409 15:0.004927 16:0.085653 17:0.132321 18:0.148619 19:0.318875 20:0.318875 21:0.203741 22:0.097759 23:0.066426 24:0.030835 25:0.129989 26:0.085015 27:0.221602 28:0.318875 29:0.318875 30:0.197712 31:0.075102 32:0.102438 33:0.021074 34:0.053583 35:0.093481 36:0.233889 
-1 1:0.276068 2:0.129842 3:0.171394 4:0.079706 5:0.276068 6:0.092969 7:0.081197 8:0.104968 9:0.276068 10:0.276068 11:0.227085 12:0.186264 13:0.111808 14:0.276068 15:0.069785 16:0.053035 17:0.164074 18:0.276068 19:0.19729 20:0.18769 21:0.102421 22:0.060906 23:0.068231 24:0.035507 25:0.071544 26:0.107052 27:0.157188 28:0.234292 29:0.276068 30:0.133426 31:0.047303 32:0.054091 33:0.020188 34:0.046479 35:0.100128 36:0.159791 
-1 1:0.293485 2:0.158923 3:0.029194 4:0.003488 5:0.01183 6:0.044427 7:0.037307 8:0.110889 9:0.274827 10:0.293485 11:0.161942 12:0.029408 13:0.001405 14:0.00624 15:0.008946 16:0.027776 17:0.181742 18:0.293485 19:0.293485 20:0.100601 21:0.019822 22:0.000164 23:0.006566 24:0.007169 25:0.222277 26:0.293485 27:0.293485 28:0.293485 29:0.101842 30:0.027105 31:0.003701 32:0.063632 33:0.009548 34:0.049383 35:0.227638 36:0.293485 
-1 1:0.166018 2:0.231481 3:0.255572 4:0.205263 5:0.132177 6:0.050639 7:0.043998 8:0.0476 9:0.164973 10:0.255572 11:0.255572 12:0.255572 13:0.22749 14:0.044764 15:0.0459 16:0.035563 17:0.039825 18:0.189112 19:0.231175 20:0.228579 21:0.196016 22:0.15778 23:0.189475 24:0.070346 25:0.064947 26:0.075621 27:0.161616 28:0.255572 29:0.255572 30:0.184041 31:0.118663 32:0.070608 33:0.04637 34:0.05421 35:0.043267 36:0.174711 
-1 1:0.135622 2:0.04863 3:0.056674 4:0.036777 5:0.041227 6:0.028048 7:0.029984 8:0.027128 9:0.153255 10:0.208754 11:0.062827 12:0.100679 13:0.026521 14:0.049065 15:0.020704 16:0.034827 17:0.028804 18:0.27999 19:0.358499 20:0.13638 21:0.145879 22:0.065961 23:0.100996 24:0.003496 25:0.06169 26:0.080722 27:0.358499 28:0.358499 29:0.303773 30:0.348147 31:0.048985 32:0.03588 33:0.006672 34:0.053049 35:0.054482 36:0.358499 
-1 1:0.255212 2:0.236834 3:0.242447 4:0.218491 5:0.203484 6:0.097252 7:0.067314 8:0.051586 9:0.136639 10:0.255212 11:0.255212 12:0.255212 13:0.255212 14:0.250426 15:0.05135 16:0.045919 17:0.084495 18:0.105443 19:0.255212 20:0.102283 21:0.122679 22:0.147331 23:0.125014 24:0.084667 25:0.060789 26:0.069894 27:0.141022 28:0.2399 29:0.187362 30:0.179496 31:0.14648 32:0.10933 33:0.053214 34:0.07005 35:0.097633 36:0.086959 
-1 1:0.236826 2:0.149708 3:0.128306 4:0.129997 5:0.145495 6:0.190536 7:0.179358 8:0.157654 9:0.172639 10:0.236826 11:0.2027 12:0.236826 13:0.189286 14:0.13469 15:0.135631 16:0.103635 17:0.057645 18:0.194999 19:0.151589 20:0.235279 21:0.236255 22:0.18924 23:0.137272 24:0.09554 25:0.11342 26:0.121872 27:0.169388 28:0.1506 29:0.236826 30:0.236826 31:0.194463 32:0.112671 33:0.081276 34:0.079747 35:0.060249 36:0.08633 
-1 1:0.215062 2:0.189042 3:0.201732 4:0.20382 5:0.165414 6:0.025772 7:0.040934 8:0.055001 9:0.105071 10:0.24091 11:0.204676 12:0.24091 13:0.194562 14:0.109016 15:0.04132 16:0.032664 17:0.037267 18:0.127905 19:0.204192 20:0.24091 21:0.234449 22:0.186309 23:0.159067 24:0.064207 25:0.071204 26:0.070357 27:0.154446 28:0.24091 29:0.24091 30:0.24091 31:0.240461 32:0.129045 33:0.043677 34:0.03585 35:0.047579 36:0.233701 
-1 1:0.217107 2:0.11184 3:0.101602 4:0.036463 5:0.110631 6:0.116913 7:0.191007 8:0.121509 9:0.206155 10:0.265923 11:0.093073 12:0.029742 13:0.013559 14:0.136049 15:0.136553 16:0.259014 17:0.230283 18:0.273229 19:0.221515 20:0.07795 21:0.048234 22:0.005699 23:0.082442 24:0.026096 25:0.144729 26:0.273229 27:0.273229 28:0.273229 29:0.092289 30:0.044517 31:0.025458 32:0.091542 33:0.031764 34:0.149911 35:0.257662 36:0.273229 
-1 1:0.204343 2:0.114983 3:0.145344 4:0.135533 5:0.163025 6:0.09772 7:0.142525 8:0.139348 9:0.157173 10:0.25531 11:0.181296 12:0.192373 13:0.108867 14:0.084907 15:0.076964 16:0.100931 17:0.093623 18:0.218617 19:0.25531 20:0.25531 21:0.174533 22:0.196783 23:0.234457 24:0.117495 25:0.123164 26:0.093728 27:0.153546 28:0.25531 29:0.25531 30:0.152463 31:0.143074 32:0.103507 33:0.055696 34:0.060173 35:0.055398 36:0.25531 
-1 1:0.179833 2:0.276403 3:0.276403 4:0.237174 5:0.276403 6:0.276403 7:0.17561 8:0.045876 9:0.146079 10:0.276403 11:0.276403 12:0.15617 13:0.044567 14:0.052615 15:0.093855 16:0.015468 17:0.014485 18:0.132618 19:0.131335 20:0.276403 21:0.267856 22:0.181505 23:0.145112 24:0.101356 25:0.023335 26:0.055994 27:0.093064 28:0.141575 29:0.230552 30:0.118789 31:0.062463 32:0.046965 33:0.017451 34:0.02412 35:0.01949 36:0.05737 
-1 1:0.329002 2:0.005373 3:0.004791 4:0.00163 5:0.008433 6:0.017371 7:0.329002 8:0.329002 9:0.329002 10:0.329002 11:0.008332 12:0.003461 13:0.001854 14:0.020889 15:0.008159 16:0.236811 17:0.329002 18:0.329002 19:0.079038 20:0.002894 21:0.004046 22:0.000858 23:0.009217 24:0 25:0.041564 26:0.048917 27:0.103545 28:0.202577 29:0.002306 30:0.004688 31:0.000507 32:0.009515 33:0 34:0.066655 35:0.137387 36:0.310239 
-1 1:0.238837 2:0.168946 3:0.13696 4:0.085141 5:0.175476 6:0.045982 7:0.163459 8:0.184034 9:0.223723 10:0.239897 11:0.161813 12:0.083511 13:0.065652 14:0.202289 15:0.101996 16:0.140645 17:0.234887 18:0.239897 19:0.179193 20:0.138459 21:0.162084 22:0.056054 23:0.162359 24:0.032667 25:0.147312 26:0.228599 27:0.232281 28:0.225519 29:0.089183 30:0.081582 31:0.027324 32:0.135846 33:0.026157 34:0.164711 35:0.239897 36:0.239897 
-0.6139460979982835 1:0.089021 2:0.064104 3:0.073661 4:0.04617 5:0.075874 6:0.074216 7:0.123895 8:0.048047 9:0.10144 10:0.087957 11:0.052091 12:0.054863 13:0.047645 14:0.044082 15:0.036295 16:0.064527 17:0.081621 18:0.177814 19:0.321912 20:0.321912 21:0.321912 22:0.162592 23:0.285621 24:0.059916 25:0.145249 26:0.068002 27:0.262385 28:0.321912 29:0.157449 30:0.287921 31:0.108264 32:0.10723 33:0.068623 34:0.0649 35:0.111387 36:0.321912 
-1 1:0.281982 2:0.0643 3:0.046628 4:0.128648 5:0.063231 6:0.077275 7:0.221743 8:0.182543 9:0.281982 10:0.281982 11:0.15926 12:0.135604 13:0.135312 14:0.053262 15:0.075961 16:0.120603 17:0.281982 18:0.281982 19:0.281982 20:0.121027 21:0.084496 22:0.092753 23:0.029488 24:0.048251 25:0.116776 26:0.057281 27:0.281982 28:0.238134 29:0.201855 30:0.10767 31:0.113724 32:0.068485 33:0.038985 34:0.058543 35:0.063954 36:0.232034 
-1 1:0.17504 2:0.327294 3:0.152232 4:0.06613 5:0.049124 6:0.021953 7:0.019769 8:0.022323 9:0.045515 10:0.260214 11:0.327294 12:0.309502 13:0.034249 14:0.023823 15:0.01177 16:0.018277 17:0.037158 18:0.093573 19:0.327294 20:0.327294 21:0.139775 22:0.026809 23:0.055975 24:0.015408 25:0.047285 26:0.048851 27:0.089212 28:0.327294 29:0.327294 30:0.272402 31:0.012872 32:0.013634 33:0.004834 34:0.013637 35:0.014727 36:0.054017 
-1 1:0.233018 2:0.218132 3:0.170645 4:0.105916 5:0.128341 6:0.105743 7:0.061949 8:0.120493 9:0.095597 10:0.287065 11:0.297454 12:0.240227 13:0.083029 14:0.080626 15:0.063915 16:0.063884 17:0.159025 18:0.143084 19:0.140826 20:0.203968 21:0.221964 22:0.092632 23:0.121098 24:0.085928 25:0.099705 26:0.047808 27:0.076068 28:0.20357 29:0.320115 30:0.320115 31:0.158372 32:0.172032 33:0.074516 34:0.080047 35:0.06933 36:0.162304 
-0.3980427606791248 1:0.063753 2:0.034551 3:0.05129 4:0.039013 5:0.056175 6:0.186096 7:0.253985 8:0.253985 9:0.194938 10:0.121707 11:0.067117 12:0.068861 13:0.073675 14:0.097414 15:0.253985 16:0.253985 17:0.253985 18:0.253985 19:0.21595 20:0.150373 21:0.113396 22:0.062709 23:0.073397 24:0.08982 25:0.121422 26:0.21543 27:0.194857 28:0.253985 29:0.149587 30:0.108572 31:0.074765 32:0.060954 33:0.102936 34:0.200079 35:0.253985 36:0.253985 
