svm_type c_svc
kernel_type linear
nr_class 2
total_sv 117
rho 2.40049
label 1 8
probA -2.70125
probB -0.108804
nr_sv 49 68
SV
1 1:0.314167 2:0.161769 3:0.008777 4:0.010996 5:0.004597 6:0.020932 7:0.041954 8:0.08727 9:0.219944 10:0.314167 11:0.092788 12:0.041795 13:0.03092 14:0.010323 15:0.021159 16:0.041225 17:0.072156 18:0.314167 19:0.265556 20:0.082227 21:0.015714 22:0.037779 23:0.001787 24:0.112361 25:0.175217 26:0.305779 27:0.314167 28:0.298774 29:0.124692 30:0.068954 31:0.082345 32:0.02992 33:0.06858 34:0.153959 35:0.19639 36:0.314167 37:0.230254 38:0.048754 39:0.116295 40:0.099637 41:0.035021 42:0.032905 43:0.021817 44:0.039372 45:0.243183 46:0.070714 47:0.152723 48:0.349354 49:0.349354 50:0.222583 51:0.077565 52:0.023335 53:0.02499 54:0.098594 55:0.103217 56:0.06385 57:0.128112 58:0.222559 59:0.173514 60:0.084837 61:0.049034 62:0.038374 63:0.095926 64:0.038947 65:0.081082 66:0.349354 67:0.349354 68:0.349354 69:0.096663 70:0.015632 71:0.012532 72:0.016786 73:0.04797 74:0.16869 75:0.313335 76:0.289167 77:0.196866 78:0.039069 79:0.00569 80:0.023117 81:0.014646 82:0.126108 83:0.313335 84:0.237236 85:0.169641 86:0.0876 87:0.013651 88:0.011672 89:0.028116 90:0.049646 91:0.037866 92:0.106573 93:0.313335 94:0.313335 95:0.136864 96:0.00957 97:0.00047 98:0.014978 99:0.003542 100:0.086769 101:0.313335 102:0.313335 103:0.313335 104:0.038291 105:0.003009 106:0.003688 107:0.018348 108:0.027494 109:0.085934 110:0.009918 111:0.002309 112:0.006151 113:0.000282 114:0.023142 115:0.050952 116:0.380996 117:0.26767 118:0.142248 119:0.035445 120:0.01886 121:0.013957 122:0.005949 123:0.011981 124:0.061569 125:0.214912 126:0.247512 127:0.049476 128:0.004718 129:0.002243 130:0.003722 131:0.002237 132:0.013998 133:0.038164 134:0.380996 135:0.380996 136:0.21751 137:0.044309 138:0.021539 139:0.000403 140:0.000171 141:0.002787 142:0.027351 143:0.380996 144:0.380996 145:0.111224 146:0.047347 147:0.134787 148:0.14326 149:0.085805 150:0.025937 151:0.024019 152:0.039541 153:0.089331 154:0.033062 155:0.028864 156:0.339823 157:0.339823 158:0.259712 159:0.048406 160:0.002528 161:0.004342 162:0.025725 163:0.288891 164:0.122143 165:0.23994 166:0.14003 167:0.039677 168:0.020638 169:0.022853 170:0.116293 171:0.339823 172:0.131368 173:0.14054 174:0.339823 175:0.339823 176:0.188751 177:0.059729 178:0.02058 179:0.014106 180:0.083125 181:0.006782 182:0.011024 183:0.374689 184:0.38588 185:0.161076 186:0.018531 187:0.001597 188:0.003056 189:0.008533 190:0.015806 191:0.036726 192:0.264069 193:0.38588 194:0.035401 195:0.008552 196:0.010739 197:0.016865 198:0.023412 199:0.016509 200:0.037118 201:0.38588 202:0.38588 203:0.166469 204:0.032247 205:0.010679 206:0.006186 207:0.017715 208:0.009928 209:0.022903 210:0.072736 211:0.344757 212:0.057625 213:0.018618 214:0.018652 215:0.016467 216:0.008096 217:0.031577 218:0.019713 219:0.016927 220:0.016447 221:0.027182 222:0.07138 223:0.078486 224:0.382392 225:0.382392 226:0.234378 227:0.045793 228:0.011611 229:0.006893 230:0.020583 231:0.031492 232:0.041478 233:0.382392 234:0.382392 235:0.027069 236:0.023512 237:0.036571 238:0.028502 239:0.124947 240:0.28051 241:0.201471 242:0.148105 243:0.098064 244:0.088453 245:0.033471 246:0.009794 247:0.024768 248:0.107822 249:0.140921 250:0.121082 251:0.230179 252:0.241546 253:0.207345 254:0.067476 255:0.070143 256:0.052735 257:0.080964 258:0.145842 259:0.052252 260:0.129149 261:0.31656 262:0.102884 263:0.100775 264:0.31656 265:0.31656 266:0.237526 267:0.31656 268:0.090259 269:0.022779 270:0.074944 271:0.056116 272:0.010394 273:0.006251 274:0.014255 275:0.089968 276:0.31656 277:0.134052 278:0.076814 279:0.091705 280:0.019875 281:0.011179 282:0.065795 283:0.067134 284:0.217116 285:0.31656 286:0.31656 287:0.021577 288:0.024715 289:0.037598 290:0.079573 291:0.37374 292:0.37374 293:0.226627 294:0.333238 295:0.088629 296:0.010352 297:0.022151 298:0.044119 299:0.084496 300:0.080306 301:0.179479 302:0.066772 303:0.044783 304:0.033447 305:0.014893 306:0.014468 307:0.040409 308:0.095822 309:0.122115 310:0.103897 311:0.223136 312:0.37374 313:0.37374 314:0.036875 315:0.03756 316:0.119116 317:0.259817 318:0.087309 319:0.02258 320:0.06053 321:0.084203 322:0.103068 323:0.038151 324:0.037837 
1 1:0.285508 2:0.108928 3:0.01914 4:0.007982 5:0.030585 6:0.001087 7:0.069882 8:0.225436 9:0.285508 10:0.285508 11:0.195115 12:0.053983 13:0.011171 14:0.040282 15:0.004437 16:0.011764 17:0.043134 18:0.285508 19:0.128371 20:0.067588 21:0.02842 22:0.02097 23:0.024289 24:0.016305 25:0.285508 26:0.285508 27:0.285508 28:0.254909 29:0.258505 30:0.110134 31:0.022488 32:0.036027 33:0.01209 34:0.065114 35:0.240974 36:0.285508 37:0.219244 38:0.140489 39:0.05683 40:0.015475 41:0.042077 42:0.020973 43:0.064617 44:0.096713 45:0.130715 46:0.232483 47:0.229482 48:0.151354 49:0.068316 50:0.0597 51:0.047534 52:0.118392 53:0.205852 54:0.215778 55:0.142269 56:0.395737 57:0.267452 58:0.026041 59:0.02791 60:0.016594 61:0.025704 62:0.07916 63:0.095984 64:0.209263 65:0.395737 66:0.395737 67:0.113094 68:0.04535 69:0.016462 70:0.024642 71:0.0718 72:0.068896 73:0.196185 74:0.159405 75:0.099525 76:0.040545 77:0.014877 78:0.007283 79:0.017969 80:0.041892 81:0.117834 82:0.3293 83:0.262001 84:0.143136 85:0.032827 86:0.021208 87:0.00624 88:0.018641 89:0.029237 90:0.134755 91:0.257155 92:0.3293 93:0.3293 94:0.060853 95:0.009496 96:0.001654 97:0.002064 98:0.010415 99:0.074064 100:0.3293 101:0.3293 102:0.238142 103:0.048177 104:0.034723 105:0.046242 106:0.027022 107:0.075523 108:0.3293 109:0.022856 110:0.00546 111:0.00275 112:0.00155 113:0.004503 114:0.013206 115:0.185951 116:0.331246 117:0.215572 118:0.08039 119:0.109922 120:0.066905 121:0.011032 122:0.010407 123:0.018241 124:0.050819 125:0.240978 126:0.212885 127:0.024252 128:0.00325 129:0.000536 130:0.000778 131:0.017752 132:0.068955 133:0.331246 134:0.331246 135:0.192905 136:0.0613 137:0.068855 138:0.075099 139:0.039759 140:0.136204 141:0.238216 142:0.331246 143:0.331246 144:0.320638 145:0.053947 146:0.26644 147:0.244268 148:0.031835 149:0.011891 150:0.012158 151:0.006313 152:0.039237 153:0.052228 154:0.042394 155:0.294142 156:0.294142 157:0.06759 158:0.016842 159:0.013811 160:0.011456 161:0.005076 162:0.009567 163:0.031198 164:0.175257 165:0.294142 166:0.133147 167:0.267118 168:0.294142 169:0.110077 170:0.160362 171:0.101873 172:0.02792 173:0.294142 174:0.294142 175:0.20935 176:0.220303 177:0.241085 178:0.105434 179:0.01434 180:0.010779 181:0.123236 182:0.307012 183:0.307012 184:0.053861 185:0.021689 186:0.016146 187:0.021701 188:0.00744 189:0.026994 190:0.307012 191:0.307012 192:0.279305 193:0.14094 194:0.113499 195:0.068827 196:0.027162 197:0.051458 198:0.16279 199:0.056091 200:0.307012 201:0.223132 202:0.102457 203:0.118125 204:0.130644 205:0.108599 206:0.02319 207:0.024895 208:0.049982 209:0.135525 210:0.167382 211:0.207179 212:0.307012 213:0.247544 214:0.064859 215:0.012146 216:0.033111 217:0.008453 218:0.002808 219:0.001853 220:0.002449 221:0.011907 222:0.060494 223:0.345115 224:0.345115 225:0.042457 226:0.013705 227:0.007314 228:0.010253 229:0.022283 230:0.118001 231:0.220652 232:0.345115 233:0.345115 234:0.113231 235:0.019602 236:0.022112 237:0.022857 238:0.040258 239:0.024324 240:0.05368 241:0.282693 242:0.290285 243:0.05628 244:0.013216 245:0.005047 246:0.002666 247:0.006468 248:0.039881 249:0.120257 250:0.345115 251:0.345115 252:0.099085 253:0.004438 254:0.018597 255:0.069191 256:0.057443 257:0.210872 258:0.284272 259:0.284272 260:0.257774 261:0.04402 262:0.019122 263:0.05036 264:0.096821 265:0.083624 266:0.150934 267:0.284272 268:0.284272 269:0.082946 270:0.03693 271:0.002296 272:0.000228 273:3.6e-005 274:0.009862 275:0.063591 276:0.284272 277:0.284272 278:0.284272 279:0.028549 280:0.019327 281:0.017114 282:0.000564 283:0.011415 284:0.060052 285:0.284272 286:0.284272 287:0.284272 288:0.089949 289:0.080476 290:0.077815 291:0.044044 292:0.076014 293:0.11028 294:0.183117 295:0.251641 296:0.128809 297:0.112952 298:0.064966 299:0.049215 300:0.04626 301:0.128871 302:0.284929 303:0.284929 304:0.17373 305:0.042536 306:0.063902 307:0.157989 308:0.077692 309:0.004872 310:0.018051 311:0.062822 312:0.143775 313:0.284929 314:0.284929 315:0.279454 316:0.284929 317:0.197616 318:0.10366 319:0.131771 320:0.095354 321:0.225008 322:0.225203 323:0.172788 324:0.172147 
1 1:0.061738 2:0.068912 3:0.219821 4:0.314943 5:0.250257 6:0.052126 7:0.064081 8:0.026902 9:0.030955 10:0.142186 11:0.164182 12:0.286694 13:0.2018 14:0.077552 15:0.072887 16:0.055757 17:0.039945 18:0.033914 19:0.096151 20:0.258091 21:0.314943 22:0.286052 23:0.080334 24:0.006492 25:0.013473 26:0.038027 27:0.090532 28:0.066255 29:0.314943 30:0.314943 31:0.314943 32:0.074575 33:0.016388 34:0.009746 35:0.028988 36:0.021559 37:0.041355 38:0.080752 39:0.332744 40:0.297874 41:0.071955 42:0.029745 43:0.006304 44:0.008576 45:0.013936 46:0.035958 47:0.110897 48:0.332744 49:0.332744 50:0.12684 51:0.031316 52:0.0053 53:0.005358 54:0.018976 55:0.013562 56:0.111244 57:0.332744 58:0.332744 59:0.141031 60:0.025557 61:0.006405 62:0.009678 63:0.006669 64:0.030038 65:0.088328 66:0.332744 67:0.332744 68:0.197142 69:0.062346 70:0.021149 71:0.028132 72:0.035507 73:0.12464 74:0.222587 75:0.281076 76:0.281076 77:0.206811 78:0.048991 79:0.037021 80:0.104802 81:0.060197 82:0.147881 83:0.161152 84:0.281076 85:0.281076 86:0.213631 87:0.076537 88:0.057216 89:0.158611 90:0.053743 91:0.112203 92:0.187364 93:0.281076 94:0.263368 95:0.155589 96:0.09476 97:0.03316 98:0.056664 99:0.077201 100:0.102693 101:0.087149 102:0.13309 103:0.194564 104:0.234352 105:0.219192 106:0.044799 107:0.059042 108:0.051063 109:0.043251 110:0.330191 111:0.330191 112:0.059286 113:0.017168 114:0.00117 115:0.000665 116:0.023483 117:0.045831 118:0.018752 119:0.330191 120:0.330191 121:0.220542 122:0.045691 123:0.006757 124:0.000962 125:0.007318 126:0.007389 127:0.082149 128:0.330191 129:0.330191 130:0.065166 131:0.016064 132:0.004919 133:0.001137 134:0.010993 135:0.013855 136:0.124275 137:0.330191 138:0.330191 139:0.175343 140:0.080777 141:0.024567 142:0.003158 143:0.000471 144:0.001888 145:0.013103 146:0.212564 147:0.291616 148:0.291616 149:0.27082 150:0.028619 151:0.009119 152:0.007372 153:0.003955 154:0.012832 155:0.053175 156:0.220066 157:0.291616 158:0.291616 159:0.055576 160:0.03152 161:0.031303 162:0.028975 163:0.093551 164:0.231507 165:0.291616 166:0.291616 167:0.199319 168:0.021902 169:0.020125 170:0.016034 171:0.016691 172:0.032473 173:0.049228 174:0.110969 175:0.291616 176:0.249095 177:0.050811 178:0.105182 179:0.14727 180:0.090236 181:0.074999 182:0.158774 183:0.234511 184:0.234511 185:0.214435 186:0.115761 187:0.056705 188:0.061807 189:0.066768 190:0.09704 191:0.082285 192:0.117198 193:0.211117 194:0.234511 195:0.234511 196:0.059333 197:0.066812 198:0.053423 199:0.055505 200:0.054372 201:0.086614 202:0.125443 203:0.234511 204:0.181214 205:0.234511 206:0.234511 207:0.234511 208:0.146119 209:0.065651 210:0.202842 211:0.208098 212:0.234511 213:0.234511 214:0.16375 215:0.182084 216:0.168727 217:0.258046 218:0.295585 219:0.295585 220:0.048003 221:0.00865 222:0.004286 223:0.000457 224:0.002071 225:0.028948 226:0.295585 227:0.295585 228:0.295585 229:0.066692 230:0.042959 231:0.01234 232:0.003429 233:0.000564 234:0.025314 235:0.295585 236:0.295585 237:0.262537 238:0.03343 239:0.022998 240:0.032204 241:0.002941 242:0.005863 243:0.074892 244:0.295585 245:0.295585 246:0.211892 247:0.012819 248:0.030853 249:0.013165 250:0.006519 251:0.031866 252:0.096322 253:0.258512 254:0.258512 255:0.258512 256:0.184753 257:0.081919 258:0.016082 259:0.031904 260:0.023908 261:0.071999 262:0.170345 263:0.149092 264:0.147483 265:0.110691 266:0.073904 267:0.038516 268:0.115313 269:0.258512 270:0.258512 271:0.258512 272:0.258512 273:0.138105 274:0.035267 275:0.056586 276:0.013088 277:0.032573 278:0.057995 279:0.127794 280:0.258512 281:0.258512 282:0.258512 283:0.076024 284:0.162309 285:0.023275 286:0.039677 287:0.193554 288:0.244161 289:0.055001 290:0.031647 291:0.029152 292:0.006677 293:0.021569 294:0.041938 295:0.127186 296:0.274756 297:0.168095 298:0.040218 299:0.02113 300:0.05575 301:0.084465 302:0.047809 303:0.109133 304:0.180854 305:0.204546 306:0.09017 307:0.230541 308:0.200281 309:0.24787 310:0.0295 311:0.127318 312:0.102115 313:0.123021 314:0.255888 315:0.249509 316:0.274756 317:0.191398 318:0.063825 319:0.044726 320:0.125574 321:0.274756 322:0.274756 323:0.274756 324:0.274756 
1 1:0.003328 2:0.040368 3:0.058223 4:0.132155 5:0.425951 6:0.100226 7:0.001597 8:4.5e-005 9:0.001934 10:0.00054 11:0.006916 12:0.025316 13:0.283453 14:0.425951 15:0.058114 16:0.000742 17:0.000678 18:0 19:0.009985 20:0.100166 21:0.067893 22:0.16269 23:0.425951 24:0.131198 25:0.005092 26:0.000844 27:0.003537 28:0.00889 29:0.061706 30:0.065885 31:0.268522 32:0.425951 33:0.118882 34:0.004383 35:0.010171 36:0 37:0.018837 38:0.060864 39:0.173002 40:0.295786 41:0.295786 42:0.011979 43:0.000253 44:0.001684 45:0.002144 46:0.079647 47:0.225215 48:0.295786 49:0.114133 50:0.024204 51:0.004935 52:0.003406 53:0.005198 54:0.009688 55:0.07421 56:0.274761 57:0.295786 58:0.294915 59:0.295786 60:0.047904 61:0.00192 62:0.011798 63:0.005794 64:0.198877 65:0.295786 66:0.295786 67:0.230013 68:0.097352 69:0.040657 70:0.006529 71:0.032724 72:0.067039 73:0.068837 74:0.188342 75:0.206507 76:0.094025 77:0.065735 78:0.015599 79:0.011323 80:0.004474 81:0.008302 82:0.182936 83:0.232568 84:0.187986 85:0.277178 86:0.277178 87:0.028484 88:0.024171 89:0.028551 90:0.1084 91:0.10601 92:0.277178 93:0.277178 94:0.277178 95:0.194075 96:0.053129 97:0.022045 98:0.038153 99:0.052365 100:0.069436 101:0.277178 102:0.277178 103:0.277178 104:0.277178 105:0.042767 106:0.060308 107:0.058493 108:0.0483 109:0.010727 110:0.047124 111:0.048768 112:0.306767 113:0.306767 114:0.07479 115:0.011144 116:0.006967 117:0.006578 118:0.023392 119:0.090594 120:0.143275 121:0.306767 122:0.306767 123:0.102666 124:0.012486 125:0.014003 126:0.002251 127:0.034503 128:0.061755 129:0.097158 130:0.306767 131:0.306767 132:0.169805 133:0.050843 134:0.053212 135:0.017354 136:0.161764 137:0.175371 138:0.233026 139:0.2805 140:0.306767 141:0.183224 142:0.06941 143:0.091618 144:0.042527 145:0.045981 146:0.193505 147:0.25703 148:0.18755 149:0.17788 150:0.030718 151:0.004601 152:0.007732 153:0.00939 154:0.09471 155:0.25703 156:0.25703 157:0.185585 158:0.130777 159:0.086118 160:0.01458 161:0.050032 162:0.067831 163:0.22918 164:0.218296 165:0.25703 166:0.248013 167:0.142308 168:0.046184 169:0.032503 170:0.035801 171:0.077281 172:0.190392 173:0.25703 174:0.25703 175:0.25703 176:0.25703 177:0.196803 178:0.084437 179:0.064301 180:0.086918 181:0.0835 182:0.259151 183:0.259151 184:0.209788 185:0.172664 186:0.108237 187:0.022661 188:0.064505 189:0.066586 190:0.061313 191:0.259151 192:0.259151 193:0.259151 194:0.163973 195:0.034912 196:0.042073 197:0.053192 198:0.029224 199:0.09539 200:0.219892 201:0.259151 202:0.169272 203:0.259151 204:0.259151 205:0.137886 206:0.074577 207:0.051789 208:0.056495 209:0.1635 210:0.259151 211:0.151253 212:0.131546 213:0.204147 214:0.160597 215:0.047669 216:0.028838 217:0.134982 218:0.197837 219:0.242042 220:0.242042 221:0.210001 222:0.120009 223:0.040197 224:0.043388 225:0.039883 226:0.242042 227:0.242042 228:0.242042 229:0.156526 230:0.152346 231:0.155459 232:0.076794 233:0.131813 234:0.111575 235:0.242042 236:0.242042 237:0.242042 238:0.127629 239:0.050264 240:0.027367 241:0.005643 242:0.011854 243:0.087147 244:0.242042 245:0.192528 246:0.242042 247:0.103297 248:0.126123 249:0.086529 250:0.075262 251:0.180813 252:0.215335 253:0.22352 254:0.22352 255:0.22352 256:0.135474 257:0.098812 258:0.057805 259:0.03834 260:0.081173 261:0.14251 262:0.22352 263:0.174907 264:0.205014 265:0.22352 266:0.22352 267:0.203002 268:0.111207 269:0.07098 270:0.094762 271:0.22352 272:0.149818 273:0.17254 274:0.145251 275:0.201839 276:0.095542 277:0.100078 278:0.191714 279:0.153809 280:0.147972 281:0.077281 282:0.22352 283:0.22352 284:0.18906 285:0.143082 286:0.148246 287:0.190425 288:0.110176 289:0.036129 290:0.05127 291:0.091421 292:0.118133 293:0.177757 294:0.297802 295:0.297802 296:0.164307 297:0.026891 298:0.048566 299:0.036383 300:0.089608 301:0.044002 302:0.085322 303:0.2171 304:0.297802 305:0.213588 306:0.043571 307:0.018076 308:0.01018 309:0.093092 310:0.065188 311:0.081355 312:0.184517 313:0.297802 314:0.297802 315:0.09379 316:0.054512 317:0.026995 318:0.049696 319:0.022664 320:0.112359 321:0.294636 322:0.297802 323:0.297802 324:0.078447 
1 1:0.287507 2:0.287507 3:0.062116 4:0.035542 5:0.040945 6:0.040703 7:0.033052 8:0.050626 9:0.156566 10:0.117309 11:0.099174 12:0.215079 13:0.287507 14:0.228214 15:0.111696 16:0.049148 17:0.071825 18:0.102048 19:0.216739 20:0.287507 21:0.21154 22:0.175958 23:0.110775 24:0.042339 25:0.052262 26:0.070538 27:0.131898 28:0.151814 29:0.287507 30:0.287507 31:0.287507 32:0.169998 33:0.066779 34:0.037112 35:0.047379 36:0.08716 37:0.015509 38:0.051293 39:0.27405 40:0.27405 41:0.27405 42:0.247327 43:0.029839 44:0.0183 45:0.016175 46:0.01894 47:0.031051 48:0.236464 49:0.27405 50:0.252237 51:0.184399 52:0.023808 53:0.006223 54:0.017225 55:0.096915 56:0.27405 57:0.27405 58:0.27405 59:0.235477 60:0.14498 61:0.042536 62:0.027333 63:0.03729 64:0.046004 65:0.060185 66:0.158951 67:0.164203 68:0.256068 69:0.156516 70:0.098411 71:0.0491 72:0.017359 73:0.009575 74:0.05422 75:0.260454 76:0.260454 77:0.238464 78:0.101184 79:0.044572 80:0.023933 81:0.012949 82:0.076891 83:0.193772 84:0.260454 85:0.18626 86:0.125945 87:0.114682 88:0.097934 89:0.052942 90:0.037753 91:0.003928 92:0.007967 93:0.116624 94:0.225711 95:0.260454 96:0.248878 97:0.260454 98:0.157373 99:0.022152 100:0.018562 101:0.020349 102:0.242589 103:0.167279 104:0.260454 105:0.260454 106:0.2543 107:0.152583 108:0.036503 109:0.061411 110:0.157985 111:0.13593 112:0.222314 113:0.273413 114:0.102154 115:0.061788 116:0.057259 117:0.03365 118:0.075192 119:0.273413 120:0.273413 121:0.267587 122:0.258108 123:0.160355 124:0.133761 125:0.084701 126:0.030807 127:0.037741 128:0.028519 129:0.036357 130:0.119556 131:0.244081 132:0.184679 133:0.17221 134:0.190284 135:0.068882 136:0.018149 137:0.03402 138:0.038056 139:0.116018 140:0.210845 141:0.255733 142:0.273413 143:0.273413 144:0.064801 145:0.098368 146:0.309714 147:0.309714 148:0.136089 149:0.121989 150:0.176946 151:0.220714 152:0.167486 153:0.057045 154:0.036164 155:0.026023 156:0.056288 157:0.056789 158:0.152483 159:0.163595 160:0.199967 161:0.129034 162:0.026152 163:0.020375 164:0.040232 165:0.020852 166:0.060643 167:0.099998 168:0.269427 169:0.309714 170:0.309714 171:0.049407 172:0.022484 173:0.033111 174:0.028079 175:0.090091 176:0.276619 177:0.229128 178:0.279162 179:0.179364 180:0.047827 181:0.008316 182:0.004675 183:0.035419 184:0.08008 185:0.254723 186:0.297668 187:0.297668 188:0.121671 189:0.026475 190:0.01738 191:0.011358 192:0.15307 193:0.119499 194:0.297668 195:0.297668 196:0.204019 197:0.058885 198:0.019655 199:0.018048 200:0.023489 201:0.092664 202:0.195796 203:0.297668 204:0.217296 205:0.143841 206:0.055987 207:0.035276 208:0.0212 209:0.009788 210:0.072958 211:0.150522 212:0.297668 213:0.297668 214:0.218713 215:0.086511 216:0.032941 217:0.070774 218:0.051461 219:0.05823 220:0.06741 221:0.078846 222:0.150394 223:0.221361 224:0.274607 225:0.153856 226:0.056858 227:0.030638 228:0.037535 229:0.034281 230:0.075272 231:0.238769 232:0.367473 233:0.367473 234:0.195134 235:0.06641 236:0.047451 237:0.047287 238:0.0573 239:0.072547 240:0.088039 241:0.136367 242:0.116956 243:0.1138 244:0.098789 245:0.055091 246:0.051721 247:0.057832 248:0.085271 249:0.178281 250:0.367473 251:0.347347 252:0.20558 253:0.017397 254:0.018868 255:0.007107 256:0.010364 257:0.033217 258:0.118304 259:0.332071 260:0.332071 261:0.059581 262:0.033619 263:0.036941 264:0.020023 265:0.053809 266:0.138314 267:0.075336 268:0.309234 269:0.242094 270:0.073507 271:0.033577 272:0.017911 273:0.015896 274:0.030485 275:0.035265 276:0.153741 277:0.332071 278:0.332071 279:0.092925 280:0.032976 281:0.0151 282:0.010805 283:0.044044 284:0.103106 285:0.261612 286:0.332071 287:0.332071 288:0.082258 289:0.053058 290:0.028506 291:0.053372 292:0.133909 293:0.304927 294:0.093233 295:0.18702 296:0.182925 297:0.075482 298:0.024969 299:0.004318 300:0.038662 301:0.079248 302:0.155121 303:0.204271 304:0.292014 305:0.189327 306:0.045493 307:0.057474 308:0.01934 309:0.037004 310:0.082162 311:0.239609 312:0.304927 313:0.304927 314:0.304927 315:0.091846 316:0.025657 317:0.009048 318:0.038885 319:0.028756 320:0.11213 321:0.304927 322:0.304927 323:0.197335 324:0.046962 
1 1:0.089676 2:0.113634 3:0.132295 4:0.106749 5:0.163384 6:0.117584 7:0.076251 8:0.063059 9:0.069564 10:0.21902 11:0.21902 12:0.21902 13:0.152708 14:0.21902 15:0.211795 16:0.143343 17:0.08814 18:0.150428 19:0.104152 20:0.178654 21:0.21902 22:0.21902 23:0.200533 24:0.08439 25:0.077482 26:0.087188 27:0.125253 28:0.155602 29:0.21902 30:0.21902 31:0.21902 32:0.202266 33:0.153836 34:0.21902 35:0.204641 36:0.209593 37:0.158493 38:0.163006 39:0.157595 40:0.077149 41:0.079887 42:0.075034 43:0.0641 44:0.124834 45:0.131521 46:0.110098 47:0.113917 48:0.21224 49:0.326915 50:0.326915 51:0.241566 52:0.06107 53:0.202894 54:0.178873 55:0.093716 56:0.106517 57:0.136832 58:0.203484 59:0.185047 60:0.075802 61:0.101172 62:0.082005 63:0.081567 64:0.05812 65:0.075068 66:0.19543 67:0.326915 68:0.326915 69:0.171186 70:0.067057 71:0.053712 72:0.067954 73:0.029936 74:0.060358 75:0.218215 76:0.290414 77:0.290414 78:0.19562 79:0.044421 80:0.053309 81:0.041146 82:0.019942 83:0.050557 84:0.189644 85:0.290414 86:0.290414 87:0.119841 88:0.058348 89:0.061112 90:0.028875 91:0.016437 92:0.034584 93:0.184951 94:0.290414 95:0.290414 96:0.109012 97:0.079143 98:0.06977 99:0.043063 100:0.014997 101:0.03593 102:0.14179 103:0.290414 104:0.290414 105:0.142426 106:0.205549 107:0.129494 108:0.052189 109:0.097634 110:0.170355 111:0.2042 112:0.199422 113:0.111727 114:0.069529 115:0.048766 116:0.048905 117:0.101213 118:0.122279 119:0.154932 120:0.231242 121:0.204086 122:0.162158 123:0.108863 124:0.175638 125:0.168206 126:0.176487 127:0.120839 128:0.180114 129:0.220055 130:0.10817 131:0.153505 132:0.093852 133:0.037394 134:0.062062 135:0.137953 136:0.228144 137:0.241171 138:0.241171 139:0.218623 140:0.241171 141:0.241171 142:0.190529 143:0.143636 144:0.171666 145:0.035794 146:0.10969 147:0.21862 148:0.17258 149:0.121872 150:0.038469 151:0.056564 152:0.04669 153:0.041245 154:0.028088 155:0.178526 156:0.288812 157:0.288812 158:0.288812 159:0.125382 160:0.088246 161:0.042608 162:0.062116 163:0.122629 164:0.288812 165:0.288812 166:0.163262 167:0.174895 168:0.119593 169:0.092076 170:0.078213 171:0.066762 172:0.088837 173:0.288812 174:0.288812 175:0.186536 176:0.086387 177:0.161507 178:0.16842 179:0.111471 180:0.120072 181:0.035943 182:0.072978 183:0.12142 184:0.279149 185:0.279149 186:0.239593 187:0.148533 188:0.066989 189:0.080151 190:0.023832 191:0.021206 192:0.032494 193:0.18213 194:0.279149 195:0.279149 196:0.218079 197:0.06793 198:0.037542 199:0.05609 200:0.109161 201:0.140317 202:0.078247 203:0.113821 204:0.279149 205:0.279149 206:0.109359 207:0.111215 208:0.035617 209:0.021964 210:0.025041 211:0.069733 212:0.279149 213:0.279149 214:0.279149 215:0.089549 216:0.043719 217:0.073897 218:0.077192 219:0.093706 220:0.076158 221:0.233083 222:0.15584 223:0.064473 224:0.080772 225:0.115668 226:0.100932 227:0.26125 228:0.218425 229:0.162616 230:0.265143 231:0.265143 232:0.265143 233:0.265143 234:0.118434 235:0.064743 236:0.052416 237:0.032494 238:0.066304 239:0.14764 240:0.178908 241:0.124788 242:0.153426 243:0.156383 244:0.079196 245:0.051442 246:0.036107 247:0.104789 248:0.190857 249:0.265143 250:0.265143 251:0.265143 252:0.150188 253:0.058159 254:0.24773 255:0.189399 256:0.054932 257:0.162882 258:0.175106 259:0.239894 260:0.297089 261:0.113341 262:0.044655 263:0.176958 264:0.169415 265:0.035963 266:0.045006 267:0.13014 268:0.297089 269:0.297089 270:0.132202 271:0.026253 272:0.0121 273:0.015471 274:0.013037 275:0.048305 276:0.089014 277:0.297089 278:0.297089 279:0.106547 280:0.022665 281:0.010545 282:0.010561 283:0.005729 284:0.04079 285:0.089739 286:0.297089 287:0.297089 288:0.122 289:0.025437 290:0.027951 291:0.041441 292:0.016608 293:0.043462 294:0.264532 295:0.328797 296:0.172687 297:0.070598 298:0.051502 299:0.029581 300:0.022371 301:0.048273 302:0.139874 303:0.328797 304:0.328797 305:0.140336 306:0.055366 307:0.010903 308:0.004764 309:0.005028 310:0.019869 311:0.106447 312:0.163083 313:0.328797 314:0.328797 315:0.067971 316:0.057722 317:0.021811 318:0.01073 319:0.074576 320:0.187285 321:0.244954 322:0.328797 323:0.194413 324:0.061871 
1 1:0.063297 2:0.247796 3:0.336084 4:0.071821 5:0.010939 6:0 7:0.004744 8:0.006492 9:0.006433 10:0.190012 11:0.338492 12:0.291148 13:0.043086 14:0.009414 15:0.001972 16:0.003668 17:0.010242 18:0.029564 19:0.168091 20:0.338492 21:0.338492 22:0.057094 23:0.013102 24:0 25:0.008038 26:0.021373 27:0.034526 28:0.28392 29:0.338492 30:0.338492 31:0.038005 32:0.006327 33:0.007084 34:0.00805 35:0.016113 36:0.017502 37:0.151804 38:0.311264 39:0.311264 40:0.145273 41:0.020547 42:0.007973 43:0.001318 44:0.008191 45:0.036388 46:0.039477 47:0.269476 48:0.311264 49:0.311264 50:0.097837 51:0.009452 52:0.002905 53:0.002061 54:0.010956 55:0.216653 56:0.311264 57:0.224381 58:0.03754 59:0.009658 60:0.019102 61:0.005281 62:0.011641 63:0.009027 64:0.045911 65:0.289189 66:0.311264 67:0.311264 68:0.05779 69:0.014554 70:0.001836 71:0.00247 72:0.001173 73:0.006225 74:0.037964 75:0.339579 76:0.343395 77:0.207086 78:0.010795 79:0.006012 80:5.6e-005 81:0.001739 82:0.016654 83:0.019056 84:0.210002 85:0.343395 86:0.240273 87:0.014161 88:0.012896 89:0.015217 90:0.010461 91:0.004123 92:0.055509 93:0.343395 94:0.343395 95:0.09775 96:0.005718 97:0.004762 98:0.001578 99:0.002835 100:0.016452 101:0.047952 102:0.343395 103:0.343395 104:0.083462 105:0.019606 106:0.049905 107:0.024269 108:0.017785 109:0.268935 110:0.319117 111:0.319117 112:0.050461 113:0.011027 114:0 115:0.002449 116:0.022662 117:0.075705 118:0.257142 119:0.319117 120:0.306595 121:0.044868 122:0.011672 123:0.011908 124:0.007624 125:0.022876 126:0.061989 127:0.319117 128:0.319117 129:0.156204 130:0.019959 131:0.000106 132:0 133:0 134:0.017986 135:0.104726 136:0.319117 137:0.300188 138:0.070372 139:0.01096 140:0.002971 141:0.001641 142:0.001226 143:0.01098 144:0.079427 145:0.25626 146:0.291521 147:0.175772 148:0.063423 149:0.03821 150:0.054284 151:0.016086 152:0.029089 153:0.029008 154:0.052398 155:0.180999 156:0.291521 157:0.291521 158:0.291521 159:0.23726 160:0.032797 161:0.012728 162:0.003179 163:0.291521 164:0.291521 165:0.097224 166:0.020078 167:0.028559 168:0.029151 169:0.013347 170:0.016431 171:0.055728 172:0.071586 173:0.153479 174:0.09558 175:0.120306 176:0.291521 177:0.291521 178:0.197777 179:0.084162 180:0.060499 181:0.005765 182:0.04088 183:0.328844 184:0.328844 185:0.328844 186:0.217607 187:0.030948 188:0.004838 189:0.006258 190:0.051392 191:0.05046 192:0.218288 193:0.216301 194:0.15105 195:0.110751 196:0.082091 197:0.027499 198:0.054059 199:0.008995 200:0.014511 201:0.028823 202:0.115141 203:0.328844 204:0.328844 205:0.131133 206:0.031151 207:0.01885 208:0.090429 209:0.032209 210:0.042253 211:0.073055 212:0.307646 213:0.328844 214:0.062339 215:0.024471 216:0.06569 217:0.347075 218:0.31039 219:0.017175 220:0.006901 221:0.001289 222:0.00028 223:0.002695 224:0.019145 225:0.202512 226:0.347075 227:0.347075 228:0.042803 229:0.014141 230:0.008451 231:0.002149 232:0.010627 233:0.027439 234:0.105374 235:0.347075 236:0.115733 237:0.008092 238:0.015828 239:0.014256 240:0.004901 241:0.035877 242:0.164501 243:0.263376 244:0.321979 245:0.206101 246:0.029635 247:0.023098 248:0.026913 249:0.013796 250:0.077509 251:0.190866 252:0.2449 253:0.327227 254:0.327227 255:0.080258 256:0.015082 257:0.013446 258:0.021377 259:0.030045 260:0.050546 261:0.0873 262:0.116458 263:0.206967 264:0.070561 265:0.030733 266:0.308313 267:0.327227 268:0.265437 269:0.134254 270:0.13418 271:0.181708 272:0.138291 273:0.033937 274:0.013911 275:0.019123 276:0.023891 277:0.059045 278:0.124736 279:0.226506 280:0.113196 281:0.078373 282:0.033236 283:0.045716 284:0.212224 285:0.327227 286:0.188405 287:0.148048 288:0.191818 289:0.007028 290:0.009387 291:0.005681 292:0.010179 293:0.218992 294:0.362452 295:0.151319 296:0.019329 297:0.015729 298:0.0302 299:0.020454 300:0.024882 301:0.042243 302:0.215046 303:0.362452 304:0.157143 305:0.027318 306:0.016763 307:0.013108 308:0.008117 309:0.003042 310:0.009078 311:0.115815 312:0.362452 313:0.361487 314:0.044008 315:0.025166 316:0.009456 317:0.010831 318:0.012921 319:0.019397 320:0.130401 321:0.362452 322:0.362452 323:0.162916 324:0.028096 
1 1:0.38484 2:0.38484 3:0.089036 4:0.017337 5:0.019491 6:0.00374 7:0.007645 8:0.014628 9:0.044201 10:0.38484 11:0.38484 12:0.071152 13:0.025102 14:0.030313 15:0.012072 16:0.007275 17:0.015533 18:0.066942 19:0.38484 20:0.220658 21:0.015606 22:0.006706 23:0.005869 24:0.011889 25:0.030743 26:0.064545 27:0.086556 28:0.363585 29:0.151242 30:0.020812 31:0.017099 32:0.026701 33:0.023109 34:0.036341 35:0.052313 36:0.102028 37:0.361511 38:0.361511 39:0.189096 40:0.043853 41:0.053409 42:0.053653 43:0.050639 44:0.025777 45:0.098467 46:0.307115 47:0.361511 48:0.311802 49:0.053636 50:0.088521 51:0.065137 52:0.106939 53:0.043994 54:0.073771 55:0.337364 56:0.195544 57:0.061486 58:0.040914 59:0.044687 60:0.060852 61:0.066232 62:0.048274 63:0.181351 64:0.192578 65:0.213084 66:0.088636 67:0.061787 68:0.045475 69:0.062827 70:0.102522 71:0.038015 72:0.087904 73:0.080821 74:0.152711 75:0.145991 76:0.042492 77:0.07701 78:0.034104 79:0.040156 80:0.026828 81:0.050273 82:0.077742 83:0.046517 84:0.361391 85:0.448864 86:0.144716 87:0.072352 88:0.024084 89:0.016316 90:0.08088 91:0.071668 92:0.130751 93:0.29806 94:0.068197 95:0.039106 96:0.03349 97:0.033486 98:0.021028 99:0.032784 100:0.064283 101:0.145206 102:0.448864 103:0.448864 104:0.062953 105:0.036319 106:0.005976 107:0.006859 108:0.046727 109:0.28808 110:0.090881 111:0.027757 112:0.01724 113:0.029477 114:0.074938 115:0.083139 116:0.111442 117:0.168273 118:0.230689 119:0.08953 120:0.044946 121:0.033508 122:0.034981 123:0.03848 124:0.096897 125:0.110847 126:0.188389 127:0.333295 128:0.06844 129:0.013667 130:0.004895 131:0.017706 132:0.064125 133:0.058207 134:0.143158 135:0.333295 136:0.333295 137:0.298605 138:0.246811 139:0.139938 140:0.060599 141:0.050522 142:0.084358 143:0.255781 144:0.333295 145:0.129672 146:0.053973 147:0.015418 148:0.009886 149:0.005781 150:0.011563 151:0.01788 152:0.022584 153:0.08959 154:0.184637 155:0.275627 156:0.084929 157:0.018404 158:0.010134 159:0.013566 160:0.01137 161:0.010141 162:0.070032 163:0.417025 164:0.312281 165:0.215841 166:0.139567 167:0.07148 168:0.044129 169:0.024558 170:0.049304 171:0.189674 172:0.417025 173:0.417025 174:0.236529 175:0.087267 176:0.047465 177:0.037493 178:0.021699 179:0.014405 180:0.210789 181:0.039005 182:0.235299 183:0.338625 184:0.028577 185:0.005928 186:0.004448 187:0.003442 188:0.002665 189:0.011016 190:0.015486 191:0.195305 192:0.339132 193:0.286266 194:0.009008 195:0.000866 196:0.000909 197:0.002026 198:0.009026 199:0.339132 200:0.339132 201:0.339132 202:0.023385 203:0.002627 204:0.002244 205:0.002749 206:0.00132 207:0.039741 208:0.070463 209:0.339132 210:0.339132 211:0.077893 212:0.003986 213:0.000115 214:0.000248 215:0.001577 216:0.016854 217:0.293771 218:0.028893 219:0.013583 220:0.012393 221:0.010432 222:0.010439 223:0.021202 224:0.066952 225:0.293771 226:0.285389 227:0.145238 228:0.153318 229:0.147118 230:0.167732 231:0.16035 232:0.096714 233:0.178457 234:0.293771 235:0.293771 236:0.092898 237:0.029375 238:0.02227 239:0.027428 240:0.007251 241:0.013817 242:0.026496 243:0.293771 244:0.293771 245:0.117615 246:0.07666 247:0.098118 248:0.194009 249:0.211866 250:0.107795 251:0.093399 252:0.293771 253:0.226553 254:0.176649 255:0.15382 256:0.155697 257:0.151754 258:0.185258 259:0.149237 260:0.053452 261:0.073449 262:0.324989 263:0.324989 264:0.119751 265:0.1102 266:0.090126 267:0.15234 268:0.264123 269:0.060822 270:0.120738 271:0.04528 272:0.034032 273:0.038064 274:0.064924 275:0.11598 276:0.232783 277:0.324989 278:0.095323 279:0.039054 280:0.052924 281:0.038491 282:0.030012 283:0.052159 284:0.086048 285:0.275182 286:0.324989 287:0.175124 288:0.036032 289:0.324979 290:0.324979 291:0.277223 292:0.06155 293:0.037325 294:0.05522 295:0.119752 296:0.034347 297:0.125094 298:0.152574 299:0.324979 300:0.324979 301:0.072616 302:0.020073 303:0.016604 304:0.00485 305:0.003314 306:0.033069 307:0.065191 308:0.075061 309:0.075828 310:0.077655 311:0.14171 312:0.286012 313:0.324979 314:0.116897 315:0.043334 316:0.034723 317:0.146759 318:0.213807 319:0.11794 320:0.123937 321:0.197277 322:0.206874 323:0.058206 324:0.012824 
1 1:0.01421 2:0.187967 3:0.274161 4:0.192718 5:0.102836 6:0.043482 7:0.014984 8:0.002649 9:0.00515 10:0.082962 11:0.350976 12:0.282225 13:0.133517 14:0.060022 15:0.026204 16:0.000418 17:0.000596 18:0.001908 19:0.112808 20:0.350976 21:0.350976 22:0.080606 23:0.02991 24:0.006466 25:0.002504 26:0.002135 27:0.019005 28:0.324501 29:0.350976 30:0.323853 31:0.03997 32:0.00325 33:0.001945 34:0.008933 35:0.018191 36:0.0425 37:0.086457 38:0.357889 39:0.195658 40:0.049669 41:0.020896 42:0.00353 43:0.001101 44:0.002398 45:0.006987 46:0.111087 47:0.357889 48:0.255318 49:0.050095 50:0.029601 51:7e-005 52:0.001052 53:0.008933 54:0.011962 55:0.334278 56:0.357889 57:0.150886 58:0.033957 59:0.000653 60:0.003159 61:0.033315 62:0.036288 63:0.066154 64:0.34075 65:0.357889 66:0.302416 67:0.029238 68:0.000135 69:0.002429 70:0.026163 71:0.028664 72:0.042572 73:0.067168 74:0.211937 75:0.217442 76:0.035177 77:0.019364 78:0.00074 79:0.000206 80:0.006707 81:0.010036 82:0.123737 83:0.334585 84:0.372273 85:0.105522 86:0.025798 87:0.003471 88:0.002095 89:0.002427 90:0.031972 91:0.206015 92:0.372273 93:0.280156 94:0.023693 95:0.00017 96:0.000375 97:0.000608 98:0.008136 99:0.007163 100:0.220661 101:0.372273 102:0.372273 103:0.174631 104:0.010073 105:0.005102 106:0.01976 107:0.008987 108:0.044347 109:0.105867 110:0.38331 111:0.145927 112:0.019092 113:0.003768 114:0.001491 115:0.00587 116:0.00998 117:0.027798 118:0.20651 119:0.38331 120:0.214799 121:0.027864 122:0.003169 123:0.00209 124:0.007611 125:0.014812 126:0.039167 127:0.230758 128:0.38331 129:0.160772 130:0.027572 131:0.00355 132:0.001699 133:0.008477 134:0.016796 135:0.050875 136:0.228833 137:0.38331 138:0.38331 139:0.024998 140:0.004491 141:0.00221 142:0.005609 143:0.007664 144:0.021001 145:0.242304 146:0.377445 147:0.120086 148:0.022085 149:0.000319 150:0.001524 151:0.011566 152:0.013162 153:0.029565 154:0.288002 155:0.377445 156:0.152955 157:0.012342 158:0.000824 159:0.003328 160:0.01094 161:0.009709 162:0.016094 163:0.217542 164:0.377445 165:0.260149 166:0.008399 167:0.002321 168:0.000317 169:0.000483 170:0.001276 171:0.008242 172:0.338471 173:0.377445 174:0.113505 175:0.004249 176:0.020178 177:0.02743 178:0.009686 179:0.009674 180:0.025132 181:0.293215 182:0.323516 183:0.190831 184:0.0216 185:0.016 186:0.012578 187:0.011064 188:0.014774 189:0.031667 190:0.192508 191:0.323516 192:0.323516 193:0.119412 194:0.035904 195:0.016157 196:0.022962 197:0.011865 198:0.045601 199:0.286966 200:0.323516 201:0.076121 202:0.044903 203:0.205956 204:0.155742 205:0.052126 206:0.039483 207:0.065243 208:0.074709 209:0.185201 210:0.175145 211:0.155 212:0.323157 213:0.153632 214:0.064858 215:0.064499 216:0.03919 217:0.373599 218:0.373599 219:0.147438 220:0.004909 221:0.000529 222:0.000202 223:0.0016 224:0.003949 225:0.031952 226:0.164387 227:0.373599 228:0.260453 229:0.005686 230:0.004148 231:0.001182 232:0.001354 233:0.006975 234:0.011433 235:0.373599 236:0.373599 237:0.055297 238:0.000206 239:0.007818 240:0.003779 241:0.00383 242:0.006331 243:0.048808 244:0.153443 245:0.373599 246:0.084107 247:0.007608 248:0.03033 249:0.009186 250:0.007785 251:0.028585 252:0.052795 253:0.218853 254:0.424091 255:0.424091 256:0.022443 257:0.040019 258:0.012181 259:0.01314 260:0.023325 261:0.023469 262:0.289913 263:0.424091 264:0.188083 265:0.016723 266:0.095257 267:0.12509 268:0.053799 269:0.040787 270:0.06685 271:0.151488 272:0.357978 273:0.11672 274:0.032622 275:0.095593 276:0.040645 277:0.034016 278:0.073337 279:0.097604 280:0.071117 281:0.097373 282:0.06253 283:0.029195 284:0.100382 285:0.098318 286:0.088513 287:0.083159 288:0.070014 289:0.118545 290:0.140667 291:0.021361 292:0.022137 293:0.286923 294:0.302071 295:0.173151 296:0.140362 297:0.059 298:0.020956 299:0.019797 300:0.031213 301:0.080735 302:0.302071 303:0.302071 304:0.302071 305:0.302071 306:0.051877 307:0.017914 308:0.008221 309:0.00493 310:0.007946 311:0.066046 312:0.157726 313:0.214858 314:0.201953 315:0.055143 316:0.03569 317:5.2e-005 318:1.2e-005 319:0.000423 320:0.044358 321:0.161038 322:0.302071 323:0.302071 324:0.167584 
1 1:0.00216 2:0.002673 3:0.055528 4:0.175345 5:0.344071 6:0.111457 7:0.005116 8:0 9:0.00216 10:0.001419 11:0.02299 12:0.264064 13:0.344071 14:0.344071 15:0.068094 16:0.001371 17:0 18:0 19:0.024314 20:0.028591 21:0.065365 22:0.316795 23:0.344071 24:0.154249 25:0.014643 26:0 27:0.004678 28:0.010066 29:0.039392 30:0.145039 31:0.344071 32:0.344071 33:0.110615 34:0.008096 35:0 36:6e-005 37:0.032825 38:0.056551 39:0.298189 40:0.29961 41:0.29961 42:0.039167 43:0.011425 44:0.004645 45:0.006711 46:0.143645 47:0.119307 48:0.182822 49:0.256612 50:0.257061 51:0.082001 52:0.0512 53:0.038587 54:0.034324 55:0.018011 56:0.077857 57:0.184429 58:0.29961 59:0.29961 60:0.045518 61:0.018087 62:0.005459 63:0.003468 64:0.052666 65:0.075918 66:0.119877 67:0.29961 68:0.29961 69:0.152334 70:0.226644 71:0.098883 72:0.033953 73:0.213363 74:0.21649 75:0.164734 76:0.222847 77:0.201546 78:0.097744 79:0.080737 80:0.082594 81:0.072147 82:0.181747 83:0.229372 84:0.207957 85:0.217524 86:0.202627 87:0.088261 88:0.090226 89:0.090725 90:0.080953 91:0.100621 92:0.139039 93:0.134562 94:0.146484 95:0.140438 96:0.218541 97:0.229372 98:0.18794 99:0.081217 100:0.094194 101:0.229372 102:0.229372 103:0.229372 104:0.197555 105:0.157317 106:0.173528 107:0.134803 108:0.044917 109:0.052199 110:0.062826 111:0.034094 112:0.226293 113:0.268146 114:0.09121 115:0.018576 116:6.1e-005 117:0.010015 118:0.014245 119:0.061558 120:0.113858 121:0.322713 122:0.322713 123:0.074245 124:0.007414 125:0 126:0.000449 127:0.104485 128:0.103924 129:0.315899 130:0.322713 131:0.258933 132:0.069968 133:0.031439 134:0.00341 135:0.041876 136:0.028658 137:0.067586 138:0.308482 139:0.322713 140:0.322713 141:0.126377 142:0.031083 143:0.00677 144:0.009307 145:0.011671 146:0.101652 147:0.23101 148:0.27027 149:0.27027 150:0.036958 151:0.013543 152:0.011814 153:0.004646 154:0.009691 155:0.064865 156:0.166095 157:0.27027 158:0.119603 159:0.073098 160:0.20465 161:0.165821 162:0.049177 163:0.024721 164:0.110032 165:0.232992 166:0.27027 167:0.27027 168:0.27027 169:0.087153 170:0.027567 171:0.01221 172:0.017487 173:0.113257 174:0.147217 175:0.255502 176:0.21164 177:0.27027 178:0.186172 179:0.194671 180:0.064467 181:0.067241 182:0.134794 183:0.11991 184:0.06778 185:0.046248 186:0.161216 187:0.251691 188:0.251691 189:0.125078 190:0.165125 191:0.251691 192:0.251691 193:0.120281 194:0.06784 195:0.082258 196:0.101685 197:0.121497 198:0.096068 199:0.141774 200:0.163797 201:0.078106 202:0.043923 203:0.102411 204:0.208015 205:0.245442 206:0.251691 207:0.175448 208:0.251691 209:0.251691 210:0.23491 211:0.222802 212:0.101466 213:0.114424 214:0.06549 215:0.148504 216:0.163951 217:0.056668 218:0.189106 219:0.331646 220:0.331646 221:0.111796 222:0.033277 223:0.013343 224:0.009257 225:0.034417 226:0.018569 227:0.068258 228:0.331646 229:0.331646 230:0.169334 231:0.133339 232:0.046415 233:0.019686 234:0.013127 235:0.09314 236:0.331646 237:0.331646 238:0.309318 239:0.018113 240:0.000763 241:0.001695 242:0.005159 243:0.029197 244:0.038606 245:0.13128 246:0.248744 247:0.186443 248:0.03747 249:0.067891 250:0.028534 251:0.020962 252:0.019142 253:0.01163 254:0.032622 255:0.067262 256:0.200283 257:0.266389 258:0.309301 259:0.20565 260:0.069073 261:0.014881 262:0.009119 263:0.050512 264:0.030587 265:0.089134 266:0.205665 267:0.309301 268:0.278112 269:0.148633 270:0.033686 271:0.017521 272:0.031281 273:0.03874 274:0.036026 275:0.090825 276:0.309301 277:0.309301 278:0.108869 279:0.021783 280:0.00544 281:0.020309 282:0.015742 283:0.015328 284:0.137683 285:0.309301 286:0.309301 287:0.243074 288:0.028468 289:0.075081 290:0.078928 291:0.067376 292:0.030904 293:0.118205 294:0.278757 295:0.231417 296:0.208319 297:0.083325 298:0.154079 299:0.141691 300:0.278757 301:0.278757 302:0.130828 303:0.120478 304:0.069525 305:0.084733 306:0.069926 307:0.041364 308:0.063777 309:0.162449 310:0.066462 311:0.198402 312:0.278757 313:0.278757 314:0.278757 315:0.056156 316:0.065429 317:0.097467 318:0.278757 319:0.278757 320:0.183641 321:0.078114 322:0.096932 323:0.070769 324:0.029671 
1 1:0.150849 2:0.112719 3:0.080836 4:0.036396 5:0.027878 6:0.00407 7:0.014065 8:0.056075 9:0.259432 10:0.201297 11:0.202493 12:0.265254 13:0.125991 14:0.023638 15:0.005881 16:0.000731 17:0.023636 18:0.205141 19:0.33097 20:0.33097 21:0.083562 22:0.024643 23:0.013945 24:0.005896 25:0.019582 26:0.052266 27:0.268617 28:0.33097 29:0.33097 30:0.33097 31:0.109031 32:0.025993 33:0.016057 34:0.019766 35:0.028241 36:0.161659 37:0.173467 38:0.168923 39:0.170368 40:0.060325 41:0.012218 42:0.002368 43:0 44:0.011544 45:0.107503 46:0.301557 47:0.174226 48:0.11673 49:0.062161 50:0.014988 51:0.009945 52:0.008141 53:0.046351 54:0.254482 55:0.253847 56:0.301557 57:0.301557 58:0.148701 59:0.035727 60:0.018218 61:0.011513 62:0.031109 63:0.124543 64:0.301557 65:0.301557 66:0.301557 67:0.240082 68:0.040521 69:0.022125 70:0.014066 71:0.056566 72:0.255249 73:0.143209 74:0.085535 75:0.109957 76:0.095321 77:0.032172 78:0.014723 79:0.025145 80:0.057302 81:0.137706 82:0.102205 83:0.042272 84:0.210113 85:0.18914 86:0.101883 87:0.015905 88:0.079658 89:0.141671 90:0.220423 91:0.303066 92:0.303066 93:0.303066 94:0.096959 95:0.015683 96:0.015528 97:0.034415 98:0.099386 99:0.215885 100:0.303066 101:0.303066 102:0.111225 103:0.051527 104:0.023304 105:0.012682 106:0.140783 107:0.303066 108:0.303066 109:0.2349 110:0.252305 111:0.084933 112:0.102239 113:0.138828 114:0.054518 115:0.090691 116:0.048043 117:0.11039 118:0.137734 119:0.252305 120:0.225002 121:0.197355 122:0.145835 123:0.0419 124:0.066946 125:0.028186 126:0.057325 127:0.111901 128:0.174727 129:0.207834 130:0.252305 131:0.252305 132:0.23198 133:0.247355 134:0.117101 135:0.098421 136:0.0632 137:0.154237 138:0.252305 139:0.252305 140:0.252305 141:0.15623 142:0.117321 143:0.041089 144:0.040568 145:0.071359 146:0.15304 147:0.190481 148:0.294582 149:0.054823 150:0.022959 151:0.015315 152:0.020182 153:0.038103 154:0.118593 155:0.294582 156:0.294582 157:0.294582 158:0.08513 159:0.012578 160:0.005175 161:0.010887 162:0.028305 163:0.010466 164:0.024929 165:0.217384 166:0.294582 167:0.182937 168:0.186054 169:0.080484 170:0.024824 171:0.00958 172:0.010003 173:0.116106 174:0.25708 175:0.294582 176:0.294582 177:0.294582 178:0.08147 179:0.020274 180:0.004177 181:0.207924 182:0.296826 183:0.296826 184:0.194933 185:0.039575 186:0.010606 187:0.030551 188:0.048577 189:0.085458 190:0.252002 191:0.296826 192:0.076259 193:0.004618 194:0.001305 195:0.023718 196:0.18553 197:0.296826 198:0.296826 199:0.03802 200:0.224206 201:0.201791 202:0.292193 203:0.261733 204:0.20911 205:0.038581 206:0.016957 207:0.013722 208:0.120016 209:0.108617 210:0.045474 211:0.029938 212:0.014275 213:0.027011 214:0.087682 215:0.104552 216:0.133969 217:0.160758 218:0.173199 219:0.232484 220:0.157698 221:0.116543 222:0.197576 223:0.184122 224:0.116722 225:0.078624 226:0.087723 227:0.160393 228:0.232484 229:0.232484 230:0.155765 231:0.232484 232:0.162723 233:0.065869 234:0.031338 235:0.156219 236:0.137968 237:0.171474 238:0.081789 239:0.232484 240:0.232484 241:0.188225 242:0.074782 243:0.110487 244:0.160948 245:0.232484 246:0.232484 247:0.093332 248:0.161435 249:0.232484 250:0.182872 251:0.070395 252:0.053687 253:0.014256 254:0.019919 255:0.064596 256:0.154795 257:0.13085 258:0.346623 259:0.186291 260:0.076034 261:0.037638 262:0.007723 263:0.005752 264:0.030771 265:0.157082 266:0.364357 267:0.364357 268:0.195843 269:0.065518 270:0.036488 271:0.055376 272:0.100874 273:0.053173 274:0.034602 275:0.192568 276:0.29143 277:0.134974 278:0.07058 279:0.064342 280:0.01906 281:0.009115 282:0.009818 283:0.018447 284:0.364357 285:0.364357 286:0.123616 287:0.050338 288:0.049197 289:0.006746 290:0.022796 291:0.046162 292:0.141391 293:0.456152 294:0.456152 295:0.084618 296:0.017246 297:0.010877 298:0.044858 299:0.047731 300:0.048191 301:0.073767 302:0.06562 303:0.056356 304:0.008376 305:0.021892 306:0.044309 307:0.005604 308:0.004646 309:0.019923 310:0.047729 311:0.456152 312:0.456152 313:0.056109 314:0.010562 315:0.009294 316:0.016805 317:0.016352 318:0.044565 319:0.078759 320:0.284912 321:0.120965 322:0.011056 323:0.005268 324:0.007823 
1 1:0.076505 2:0.352197 3:0.254372 4:0.049853 5:0.018215 6:0.010415 7:0.0059 8:0.018294 9:0.077529 10:0.031767 11:0.352197 12:0.352197 13:0.102189 14:0.021922 15:0.009281 16:0.002489 17:0.010522 18:0.011014 19:0.088133 20:0.352197 21:0.352197 22:0.03825 23:0.01108 24:0.01107 25:0.005685 26:0.013493 27:0.035013 28:0.059219 29:0.352197 30:0.352197 31:0.137373 32:0.03096 33:0.025024 34:0.005391 35:0.020115 36:0.027339 37:0.024897 38:0.307154 39:0.307154 40:0.184641 41:0.049855 42:0.008564 43:0.011783 44:0.01008 45:0.01238 46:0.073559 47:0.307154 48:0.307154 49:0.199551 50:0.067744 51:0.005309 52:0.011256 53:0.020651 54:0.04221 55:0.042223 56:0.307154 57:0.307154 58:0.270419 59:0.046386 60:0.032626 61:0.007075 62:0.012582 63:0.020931 64:0.161532 65:0.307154 66:0.307154 67:0.192328 68:0.036128 69:0.0245 70:0.011224 71:0.034632 72:0.085141 73:0.156403 74:0.257431 75:0.257431 76:0.187378 77:0.102074 78:0.034789 79:0.011791 80:0.066851 81:0.166755 82:0.099638 83:0.119106 84:0.188832 85:0.124939 86:0.124247 87:0.144423 88:0.07515 89:0.057325 90:0.134929 91:0.257431 92:0.257431 93:0.257431 94:0.121574 95:0.034058 96:0.036326 97:0.012478 98:0.117723 99:0.257431 100:0.257431 101:0.257431 102:0.232352 103:0.123346 104:0.141602 105:0.164965 106:0.031587 107:0.099099 108:0.257431 109:0.211082 110:0.275962 111:0.275962 112:0.026991 113:0.022101 114:0.027702 115:0.024423 116:0.035585 117:0.082071 118:0.098357 119:0.275962 120:0.275962 121:0.275962 122:0.233665 123:0.250711 124:0.025228 125:0.038641 126:0.071676 127:0.275962 128:0.207592 129:0.049982 130:0.029064 131:0.01557 132:0.014544 133:0.02443 134:0.025858 135:0.154001 136:0.243575 137:0.081145 138:0.082357 139:0.120113 140:0.275962 141:0.275962 142:0.05336 143:0.035542 144:0.188045 145:0.022158 146:0.06313 147:0.276544 148:0.276544 149:0.200262 150:0.272612 151:0.011997 152:0.010023 153:0.016244 154:0.066239 155:0.203097 156:0.276544 157:0.276544 158:0.13078 159:0.170009 160:0.024485 161:0.022194 162:0.043848 163:0.032913 164:0.011844 165:0.057425 166:0.128267 167:0.252788 168:0.276544 169:0.070805 170:0.033208 171:0.040954 172:0.005946 173:0.09854 174:0.220335 175:0.276544 176:0.251369 177:0.276544 178:0.146429 179:0.10362 180:0.038862 181:0.19066 182:0.233232 183:0.233232 184:0.191484 185:0.051138 186:0.05653 187:0.031896 188:0.04791 189:0.124082 190:0.233232 191:0.22208 192:0.15303 193:0.083925 194:0.051331 195:0.056207 196:0.030048 197:0.072101 198:0.233232 199:0.108809 200:0.233232 201:0.233232 202:0.233232 203:0.137584 204:0.215446 205:0.231501 206:0.17768 207:0.117288 208:0.233232 209:0.16865 210:0.114602 211:0.127528 212:0.058745 213:0.102726 214:0.156139 215:0.215761 216:0.233232 217:0.281552 218:0.281552 219:0.066533 220:0.031019 221:0.011325 222:0.015167 223:0.017484 224:0.037448 225:0.236155 226:0.281552 227:0.110123 228:0.082977 229:0.092417 230:0.193035 231:0.281552 232:0.058589 233:0.109475 234:0.281552 235:0.281552 236:0.281552 237:0.132145 238:0.165542 239:0.07293 240:0.039182 241:0.027253 242:0.043596 243:0.123451 244:0.129199 245:0.056234 246:0.177226 247:0.281552 248:0.230145 249:0.146247 250:0.046076 251:0.080545 252:0.125392 253:0.048967 254:0.01361 255:0.022732 256:0.057363 257:0.156539 258:0.325826 259:0.171032 260:0.072195 261:0.066602 262:0.005893 263:0.04147 264:0.050583 265:0.162271 266:0.259593 267:0.325826 268:0.325826 269:0.231683 270:0.041826 271:0.009521 272:0.012385 273:0.04441 274:0.065134 275:0.121135 276:0.325826 277:0.171156 278:0.047307 279:0.025854 280:0.024928 281:0.049318 282:0.035053 283:0.065881 284:0.219508 285:0.325826 286:0.325826 287:0.159067 288:0.032768 289:0.07881 290:0.051534 291:0.053923 292:0.139131 293:0.168902 294:0.256016 295:0.256016 296:0.256016 297:0.146608 298:0.184824 299:0.05199 300:0.077869 301:0.155392 302:0.064987 303:0.095645 304:0.192493 305:0.256016 306:0.256016 307:0.055439 308:0.087834 309:0.124919 310:0.171792 311:0.197257 312:0.256016 313:0.233098 314:0.187241 315:0.082565 316:0.074463 317:0.116838 318:0.256016 319:0.256016 320:0.11058 321:0.044673 322:0.072021 323:0.158324 324:0.140481 
0.8042881124034821 1:0.237821 2:0.081427 3:0.042908 4:0.027201 5:0.026097 6:0.015311 7:0.069457 8:0.181221 9:0.277158 10:0.231428 11:0.14572 12:0.129818 13:0.127096 14:0.111308 15:0.091298 16:0.028057 17:0.089025 18:0.277158 19:0.227028 20:0.090486 21:0.067199 22:0.045352 23:0.039591 24:0.183819 25:0.277158 26:0.276203 27:0.277158 28:0.277158 29:0.140785 30:0.146377 31:0.115914 32:0.054479 33:0.025722 34:0.053514 35:0.235844 36:0.277158 37:0.143904 38:0.189371 39:0.224788 40:0.241339 41:0.160311 42:0.078461 43:0.033906 44:0.035988 45:0.147469 46:0.109836 47:0.268451 48:0.277469 49:0.277469 50:0.14032 51:0.045094 52:0.03072 53:0.027802 54:0.027379 55:0.228803 56:0.115703 57:0.194984 58:0.198234 59:0.089456 60:0.035852 61:0.038697 62:0.251506 63:0.277469 64:0.109347 65:0.159316 66:0.277469 67:0.277469 68:0.107407 69:0.060684 70:0.037776 71:0.085982 72:0.064022 73:0.01967 74:0.090898 75:0.295511 76:0.234734 77:0.073955 78:0.008104 79:0.0034 80:0.004128 81:0.003827 82:0.05085 83:0.192124 84:0.356888 85:0.356888 86:0.118615 87:0.008262 88:0.002624 89:0.00188 90:0.022712 91:0.007241 92:0.063842 93:0.356888 94:0.356888 95:0.067737 96:0.015072 97:0.003747 98:0.004892 99:0.002726 100:0.007092 101:0.047286 102:0.356888 103:0.356888 104:0.100249 105:0.006708 106:0 107:0 108:0.005999 109:0.080947 110:0.029362 111:0.056325 112:0.063689 113:0.079043 114:0.248981 115:0.248981 116:0.193429 117:0.135592 118:0.167862 119:0.075884 120:0.081801 121:0.160198 122:0.081611 123:0.037825 124:0.094184 125:0.225489 126:0.248981 127:0.067204 128:0.041121 129:0.027573 130:0.063985 131:0.161575 132:0.248981 133:0.248981 134:0.227997 135:0.132342 136:0.169552 137:0.128562 138:0.079344 139:0.181158 140:0.19428 141:0.248981 142:0.248981 143:0.248981 144:0.248981 145:0.196923 146:0.087926 147:0.051434 148:0.077097 149:0.028698 150:0.009287 151:0.022691 152:0.162859 153:0.240634 154:0.188367 155:0.223092 156:0.279348 157:0.278409 158:0.009788 159:0.010191 160:0.006176 161:0.044333 162:0.118062 163:0.279348 164:0.178857 165:0.0525 166:0.081941 167:0.091661 168:0.159572 169:0.142071 170:0.135009 171:0.279348 172:0.279348 173:0.279348 174:0.279348 175:0.089637 176:0.016781 177:0.026646 178:0.022837 179:0.088421 180:0.279348 181:0.026399 182:0.119086 183:0.350555 184:0.350555 185:0.021258 186:0.011605 187:0.002909 188:0.003942 189:0.008598 190:0.007608 191:0.039038 192:0.350555 193:0.350555 194:0.027899 195:0.006201 196:0.00815 197:0.015167 198:0.007756 199:0.080489 200:0.350555 201:0.350555 202:0.184784 203:0.017185 204:0.013673 205:0.015455 206:0.036089 207:0.041188 208:0.02996 209:0.053938 210:0.350555 211:0.187251 212:0.026865 213:0.01348 214:0.046988 215:0.151036 216:0.09393 217:0.021367 218:0.022721 219:0.016227 220:0.045494 221:0.28169 222:0.287652 223:0.210889 224:0.093213 225:0.042174 226:0.046807 227:0.052409 228:0.035398 229:0.076211 230:0.179033 231:0.287652 232:0.287652 233:0.261343 234:0.117146 235:0.015865 236:0.004126 237:0.012019 238:0.018972 239:0.287652 240:0.287652 241:0.170767 242:0.043288 243:0.027862 244:0.012981 245:0.006606 246:0.020795 247:0.019903 248:0.195531 249:0.287652 250:0.287652 251:0.274431 252:0.084144 253:0.102402 254:0.062127 255:0.027718 256:0.031171 257:0.060944 258:0.193717 259:0.24632 260:0.292467 261:0.256656 262:0.153806 263:0.259026 264:0.106617 265:0.013952 266:0.018445 267:0.042023 268:0.049484 269:0.29918 270:0.29918 271:0.020836 272:0.012085 273:0.014701 274:0.006235 275:0.037266 276:0.155237 277:0.248882 278:0.29918 279:0.278999 280:0.041689 281:0.029872 282:0.015627 283:0.004636 284:0.026488 285:0.02529 286:0.053369 287:0.29918 288:0.29918 289:0.089995 290:0.248745 291:0.236615 292:0.045902 293:0.008878 294:0.017692 295:0.019934 296:0.323917 297:0.238903 298:0.087184 299:0.062144 300:0.110466 301:0.038402 302:0.007591 303:0.011482 304:0.040578 305:0.221285 306:0.203871 307:0.070893 308:0.043011 309:0.032089 310:0.010013 311:0.02789 312:0.010093 313:0.030058 314:0.371287 315:0.371287 316:0.12938 317:0.051698 318:0.045922 319:0.011021 320:0.03317 321:0.004975 322:0.062908 323:0.371287 324:0.371287 
1 1:0.117912 2:0.097467 3:0.081943 4:0.08084 5:0.110538 6:0.057319 7:0.155486 8:0.162571 9:0.167655 10:0.152899 11:0.081854 12:0.031585 13:0.060915 14:0.075925 15:0.067289 16:0.148091 17:0.291842 18:0.291842 19:0.093257 20:0.069121 21:0.049213 22:0.058509 23:0.07185 24:0.157364 25:0.291842 26:0.291842 27:0.232598 28:0.250788 29:0.094043 30:0.034384 31:0.067153 32:0.061476 33:0.13581 34:0.291842 35:0.291842 36:0.291842 37:0.174335 38:0.066408 39:0.038299 40:0.073091 41:0.087153 42:0.043783 43:0.076808 44:0.278389 45:0.278389 46:0.070604 47:0.033677 48:0.073712 49:0.112265 50:0.175888 51:0.17515 52:0.175915 53:0.278389 54:0.170108 55:0.278389 56:0.092739 57:0.033739 58:0.088568 59:0.075606 60:0.066851 61:0.134615 62:0.278389 63:0.278389 64:0.157159 65:0.072753 66:0.099042 67:0.196601 68:0.159551 69:0.160241 70:0.137172 71:0.278389 72:0.240304 73:0.023016 74:0.013491 75:0.07613 76:0.268646 77:0.268646 78:0.216407 79:0.102731 80:0.101405 81:0.034084 82:0.07406 83:0.268646 84:0.268646 85:0.268646 86:0.268646 87:0.154772 88:0.067115 89:0.036044 90:0.033223 91:0.032734 92:0.039327 93:0.123341 94:0.268646 95:0.268646 96:0.134007 97:0.054731 98:0.077256 99:0.056652 100:0.101561 101:0.205016 102:0.21409 103:0.268646 104:0.268646 105:0.115982 106:0.035813 107:0.042771 108:0.034864 109:0.080167 110:0.041202 111:0.05511 112:0.073199 113:0.066277 114:0.083626 115:0.247731 116:0.247015 117:0.17967 118:0.18751 119:0.061053 120:0.103225 121:0.096168 122:0.059831 123:0.08122 124:0.247731 125:0.247731 126:0.247731 127:0.125791 128:0.047766 129:0.066842 130:0.099504 131:0.081284 132:0.149398 133:0.197945 134:0.193683 135:0.247731 136:0.205897 137:0.07863 138:0.139969 139:0.174236 140:0.146434 141:0.247731 142:0.247731 143:0.241502 144:0.247731 145:0.176524 146:0.043292 147:0.031224 148:0.0339 149:0.045649 150:0.045342 151:0.078183 152:0.252212 153:0.281156 154:0.091924 155:0.053147 156:0.071027 157:0.100634 158:0.09123 159:0.101868 160:0.085247 161:0.201982 162:0.24206 163:0.12781 164:0.049789 165:0.047891 166:0.058709 167:0.080617 168:0.281156 169:0.281156 170:0.281156 171:0.281156 172:0.106548 173:0.045485 174:0.116894 175:0.166508 176:0.147578 177:0.159361 178:0.223567 179:0.281156 180:0.281156 181:0.041845 182:0.114426 183:0.251879 184:0.251879 185:0.223523 186:0.145439 187:0.067809 188:0.111212 189:0.100886 190:0.064388 191:0.12475 192:0.160639 193:0.251879 194:0.186753 195:0.081223 196:0.030953 197:0.071573 198:0.060201 199:0.12877 200:0.174226 201:0.251879 202:0.251879 203:0.251879 204:0.151187 205:0.164477 206:0.236084 207:0.251879 208:0.124879 209:0.251879 210:0.2203 211:0.203465 212:0.122855 213:0.05617 214:0.025399 215:0.034107 216:0.044499 217:0.090486 218:0.03016 219:0.028736 220:0.047063 221:0.094667 222:0.27111 223:0.222981 224:0.199677 225:0.18041 226:0.120606 227:0.036494 228:0.042057 229:0.082654 230:0.12763 231:0.304927 232:0.304927 233:0.304927 234:0.249362 235:0.0663 236:0.037308 237:0.010989 238:0.023466 239:0.058688 240:0.105585 241:0.121521 242:0.17296 243:0.135404 244:0.101659 245:0.023648 246:0.02949 247:0.077584 248:0.239683 249:0.304927 250:0.304927 251:0.183159 252:0.139706 253:0.04314 254:0.018592 255:0.020607 256:0.031106 257:0.058219 258:0.276096 259:0.276096 260:0.152272 261:0.163371 262:0.049554 263:0.022875 264:0.101373 265:0.200396 266:0.215149 267:0.276096 268:0.178953 269:0.192032 270:0.21821 271:0.051163 272:0.037287 273:0.049901 274:0.071641 275:0.249288 276:0.276096 277:0.233263 278:0.034527 279:0.025682 280:0.070297 281:0.161096 282:0.276096 283:0.180242 284:0.245035 285:0.276096 286:0.115103 287:0.007405 288:0.00412 289:0.089359 290:0.113561 291:0.219182 292:0.27593 293:0.27593 294:0.14369 295:0.130889 296:0.103526 297:0.165433 298:0.112397 299:0.27593 300:0.185759 301:0.173443 302:0.164644 303:0.073119 304:0.049593 305:0.003126 306:0.012475 307:0.055235 308:0.27593 309:0.27593 310:0.27593 311:0.27593 312:0.112847 313:0.050145 314:0.004879 315:0.002088 316:0.148523 317:0.27593 318:0.215202 319:0.124809 320:0.14276 321:0.078565 322:0.041665 323:0.007466 324:0.020835 
0.840475545422351 1:0.132028 2:0.180292 3:0.097376 4:0.071536 5:0.081617 6:0.031997 7:0.061638 8:0.060351 9:0.082257 10:0.239668 11:0.272822 12:0.095519 13:0.053634 14:0.077106 15:0.041607 16:0.05672 17:0.087436 18:0.218023 19:0.292023 20:0.292023 21:0.259973 22:0.049905 23:0.016888 24:0.013514 25:0.037215 26:0.047313 27:0.158966 28:0.292023 29:0.292023 30:0.292023 31:0.267123 32:0.09914 33:0.05455 34:0.0291 35:0.067807 36:0.292023 37:0.076559 38:0.080715 39:0.070995 40:0.066328 41:0.088734 42:0.019069 43:0.010471 44:0.023125 45:0.066489 46:0.065687 47:0.160748 48:0.26735 49:0.26735 50:0.252518 51:0.049493 52:0.011342 53:0.021332 54:0.037369 55:0.166524 56:0.21044 57:0.193351 58:0.148207 59:0.212665 60:0.142742 61:0.037966 62:0.026867 63:0.101138 64:0.26735 65:0.26735 66:0.26735 67:0.26735 68:0.26735 69:0.245795 70:0.209193 71:0.157231 72:0.15896 73:0.093509 74:0.19475 75:0.205028 76:0.14729 77:0.056145 78:0.016184 79:0.010579 80:0.028574 81:0.039062 82:0.220144 83:0.189765 84:0.105377 85:0.061781 86:0.027323 87:0.036451 88:0.10129 89:0.152907 90:0.146604 91:0.16819 92:0.239167 93:0.190138 94:0.239167 95:0.19044 96:0.054567 97:0.135711 98:0.102627 99:0.104091 100:0.239167 101:0.239167 102:0.216074 103:0.239167 104:0.154366 105:0.230522 106:0.239167 107:0.239167 108:0.239167 109:0.107123 110:0.254427 111:0.24633 112:0.051344 113:0.004826 114:0.003952 115:0.003476 116:0.007223 117:0.035428 118:0.136651 119:0.303849 120:0.303849 121:0.293215 122:0.130047 123:0.029661 124:0.00347 125:0.012479 126:0.078164 127:0.063658 128:0.263308 129:0.303849 130:0.197726 131:0.030279 132:0.007756 133:0.016948 134:0.009218 135:0.02808 136:0.125003 137:0.303849 138:0.303849 139:0.303849 140:0.166145 141:0.026198 142:0.044098 143:0.013187 144:0.112996 145:0.078308 146:0.129526 147:0.187927 148:0.132195 149:0.145224 150:0.168747 151:0.118768 152:0.032912 153:0.032733 154:0.240386 155:0.140733 156:0.123592 157:0.180055 158:0.258824 159:0.273431 160:0.273431 161:0.26807 162:0.171484 163:0.065526 164:0.121156 165:0.245767 166:0.151426 167:0.101818 168:0.086752 169:0.136011 170:0.050199 171:0.052657 172:0.125226 173:0.085318 174:0.125154 175:0.076631 176:0.117087 177:0.179867 178:0.273431 179:0.273431 180:0.169089 181:0.128463 182:0.104911 183:0.06895 184:0.199639 185:0.144207 186:0.103218 187:0.262282 188:0.169314 189:0.124451 190:0.156199 191:0.262282 192:0.177566 193:0.246161 194:0.127163 195:0.170253 196:0.255104 197:0.192353 198:0.182562 199:0.084259 200:0.039192 201:0.026589 202:0.037245 203:0.057858 204:0.100449 205:0.262282 206:0.262282 207:0.147532 208:0.105198 209:0.084577 210:0.056939 211:0.101959 212:0.038829 213:0.108138 214:0.262282 215:0.262282 216:0.220965 217:0.0539 218:0.179327 219:0.325244 220:0.325244 221:0.04871 222:0.008758 223:0.012874 224:0.007857 225:0.027265 226:0.093407 227:0.241932 228:0.325244 229:0.321977 230:0.061038 231:0.03557 232:0.055554 233:0.030128 234:0.143482 235:0.030837 236:0.196753 237:0.325244 238:0.325244 239:0.058417 240:0.013318 241:0.005513 242:0.009493 243:0.029795 244:0.059411 245:0.099336 246:0.325244 247:0.209901 248:0.046962 249:0.046656 250:0.059097 251:0.076254 252:0.08752 253:0.106319 254:0.157878 255:0.239201 256:0.18933 257:0.095856 258:0.079765 259:0.139561 260:0.131366 261:0.177079 262:0.163586 263:0.214075 264:0.239201 265:0.239201 266:0.214236 267:0.107252 268:0.239201 269:0.239201 270:0.18973 271:0.062806 272:0.042435 273:0.076864 274:0.050567 275:0.074398 276:0.090782 277:0.126788 278:0.198923 279:0.124204 280:0.103218 281:0.170037 282:0.239201 283:0.197756 284:0.17568 285:0.130139 286:0.143503 287:0.239201 288:0.171058 289:0.083221 290:0.095411 291:0.139512 292:0.121856 293:0.084724 294:0.066268 295:0.327723 296:0.327723 297:0.118974 298:0.133567 299:0.072903 300:0.117062 301:0.08177 302:0.037035 303:0.107355 304:0.327723 305:0.327723 306:0.278727 307:0.079173 308:0.13219 309:0.178392 310:0.107042 311:0.072442 312:0.036201 313:0.045357 314:0.108405 315:0.057856 316:0.125077 317:0.14875 318:0.217052 319:0.126872 320:0.06531 321:0.057494 322:0.173132 323:0.327723 324:0.142313 
0.2484222877550412 1:0.092258 2:0.062811 3:0.021095 4:0.00101 5:0.01306 6:0.024075 7:0.256702 8:0.26721 9:0.26721 10:0.168176 11:0.19923 12:0.111921 13:0.210828 14:0.092563 15:0.063682 16:0.106916 17:0.255072 18:0.215835 19:0.029537 20:0.00739 21:0.010404 22:0.053163 23:0.049487 24:0.136671 25:0.26721 26:0.26721 27:0.163561 28:0.050465 29:0.055221 30:0.250751 31:0.26721 32:0.259992 33:0.1547 34:0.164392 35:0.218059 36:0.117503 37:0.059044 38:0.068002 39:0.330621 40:0.335409 41:0.175903 42:0.070041 43:0.012234 44:0.024721 45:0.034374 46:0.010806 47:0.040248 48:0.335409 49:0.335409 50:0.201624 51:0.059413 52:0.004362 53:0.011451 54:0.004352 55:0.017145 56:0.03366 57:0.296266 58:0.335409 59:0.272189 60:0.056494 61:0.008074 62:0.025982 63:0.024601 64:0.007772 65:0.038103 66:0.169946 67:0.335409 68:0.184526 69:0.021643 70:0.005319 71:0.008759 72:0.003505 73:0.013817 74:0.028946 75:0.08851 76:0.126426 77:0.268524 78:0.14818 79:0.006149 80:0.009466 81:0.006781 82:0.009188 83:0.005594 84:0.009134 85:0.041774 86:0.447139 87:0.447139 88:0.014658 89:0.005746 90:0.005737 91:0.007071 92:0.022082 93:0.027516 94:0.055631 95:0.246894 96:0.067813 97:0.011137 98:0.0071 99:0.002059 100:0.005219 101:0.001976 102:0.007227 103:0.064248 104:0.447139 105:0.447139 106:0.011073 107:0.004418 108:0.003988 109:0.003922 110:0.005347 111:0.027556 112:0.093468 113:0.115819 114:0.086198 115:0.083131 116:0.03265 117:0.006766 118:0.059462 119:0.06792 120:0.326975 121:0.331022 122:0.148731 123:0.080948 124:0.120913 125:0.071927 126:0.047993 127:0.018884 128:0.050922 129:0.258962 130:0.173622 131:0.173529 132:0.153398 133:0.029867 134:0.007983 135:0.003308 136:0.143974 137:0.202233 138:0.331022 139:0.331022 140:0.20213 141:0.272665 142:0.331022 143:0.122633 144:0.086718 145:0.047946 146:0.054996 147:0.270391 148:0.325628 149:0.138819 150:0.074139 151:0.114682 152:0.081652 153:0.051539 154:0.014544 155:0.025409 156:0.073746 157:0.173047 158:0.081841 159:0.041342 160:0.036557 161:0.031686 162:0.016397 163:0.101905 164:0.113788 165:0.325628 166:0.325628 167:0.130512 168:0.325628 169:0.325628 170:0.195576 171:0.093805 172:0.017675 173:0.024212 174:0.050336 175:0.041499 176:0.045616 177:0.285824 178:0.325628 179:0.100714 180:0.033466 181:0.008029 182:0.018038 183:0.042211 184:0.073332 185:0.205549 186:0.041793 187:0.026103 188:0.014254 189:0.003897 190:0.007567 191:0.003041 192:0.038811 193:0.329232 194:0.461787 195:0.259571 196:0.025685 197:0.004027 198:0.00731 199:0.01239 200:0.019332 201:0.064438 202:0.215857 203:0.21239 204:0.055791 205:0.102813 206:0.040205 207:0.011728 208:0.010568 209:0.005765 210:0.072992 211:0.461787 212:0.461787 213:0.080706 214:0.034843 215:0.005974 216:0.008434 217:0.031409 218:0.064299 219:0.387956 220:0.163938 221:0.048903 222:0.072747 223:0.024807 224:0.012517 225:0.011781 226:0.067063 227:0.105129 228:0.387956 229:0.387956 230:0.086444 231:0.136045 232:0.242012 233:0.048476 234:0.02129 235:0.03526 236:0.124289 237:0.387956 238:0.17815 239:0.042437 240:0.03613 241:0.03068 242:0.022748 243:0.019994 244:0.062878 245:0.052728 246:0.387956 247:0.159569 248:0.031313 249:0.040221 250:0.08565 251:0.05942 252:0.032015 253:0.031021 254:0.034585 255:0.227836 256:0.121559 257:0.057732 258:0.270074 259:0.41733 260:0.100792 261:0.019493 262:0.005153 263:0.005905 264:0.008413 265:0.011672 266:0.023154 267:0.181248 268:0.41733 269:0.100429 270:0.017111 271:0.032836 272:0.02162 273:0.066917 274:0.023468 275:0.018543 276:0.064201 277:0.41733 278:0.100576 279:0.021031 280:0.009115 281:0.010928 282:0.010561 283:0.009698 284:0.021018 285:0.088114 286:0.41733 287:0.262473 288:0.019469 289:0.008231 290:0.010434 291:0.018045 292:0.177255 293:0.14056 294:0.044704 295:0.301516 296:0.044238 297:0.009833 298:0.006099 299:0.004399 300:0.020204 301:0.349476 302:0.349476 303:0.027202 304:0.014178 305:0.006169 306:0.004351 307:0.004438 308:0.013706 309:0.074201 310:0.268317 311:0.156139 312:0.052184 313:0.349476 314:0.302979 315:0.04742 316:0.004978 317:0.007917 318:0.086108 319:0.349476 320:0.349476 321:0.051851 322:0.142471 323:0.08437 324:0.03567 
0.9190157712284798 1:0.264051 2:0.183411 3:0.066666 4:0.045004 5:0.030202 6:0.025373 7:0.033576 8:0.094975 9:0.231164 10:0.160565 11:0.264051 12:0.264051 13:0.264051 14:0.106583 15:0.038618 16:0.015987 17:0.036436 18:0.093025 19:0.264051 20:0.264051 21:0.108125 22:0.139168 23:0.022801 24:0.037966 25:0.043404 26:0.111446 27:0.264051 28:0.248534 29:0.264051 30:0.264051 31:0.264051 32:0.086485 33:0.070305 34:0.027732 35:0.056528 36:0.143299 37:0.052311 38:0.214239 39:0.28894 40:0.28894 41:0.11085 42:0.050601 43:0.033105 44:0.017224 45:0.025301 46:0.150746 47:0.185877 48:0.28894 49:0.163078 50:0.059021 51:0.063985 52:0.064542 53:0.102249 54:0.140254 55:0.131559 56:0.28894 57:0.28894 58:0.222327 59:0.093269 60:0.06842 61:0.026758 62:0.015147 63:0.038081 64:0.285914 65:0.28894 66:0.28894 67:0.203493 68:0.077414 69:0.070489 70:0.032712 71:0.031742 72:0.052406 73:0.241864 74:0.235939 75:0.241864 76:0.157724 77:0.039652 78:0.085864 79:0.076382 80:0.129187 81:0.193128 82:0.142545 83:0.1207 84:0.160032 85:0.128705 86:0.118767 87:0.136926 88:0.153413 89:0.132077 90:0.142026 91:0.241864 92:0.241864 93:0.241864 94:0.241864 95:0.096638 96:0.059386 97:0.027129 98:0.057605 99:0.126759 100:0.17923 101:0.241864 102:0.241864 103:0.107352 104:0.193018 105:0.142865 106:0.078052 107:0.155905 108:0.210995 109:0.172113 110:0.215101 111:0.086298 112:0.167223 113:0.060205 114:0.106547 115:0.097067 116:0.096376 117:0.222501 118:0.167007 119:0.267313 120:0.267313 121:0.267313 122:0.190945 123:0.260428 124:0.211002 125:0.062757 126:0.135557 127:0.128672 128:0.080658 129:0.031578 130:0.041895 131:0.045037 132:0.067812 133:0.101765 134:0.087661 135:0.260252 136:0.09303 137:0.156523 138:0.162769 139:0.124984 140:0.151712 141:0.267313 142:0.267313 143:0.106203 144:0.136986 145:0.156526 146:0.271142 147:0.271142 148:0.167656 149:0.093691 150:0.13752 151:0.081247 152:0.009093 153:0.017997 154:0.271142 155:0.271142 156:0.24013 157:0.145254 158:0.06661 159:0.119666 160:0.022033 161:0.013493 162:0.030992 163:0.126969 164:0.209945 165:0.154401 166:0.099311 167:0.088137 168:0.271142 169:0.271142 170:0.069805 171:0.024185 172:0.181344 173:0.267647 174:0.141876 175:0.104955 176:0.10043 177:0.214245 178:0.260373 179:0.0482 180:0.028884 181:0.253231 182:0.253231 183:0.209818 184:0.158504 185:0.110894 186:0.143413 187:0.032186 188:0.041251 189:0.113924 190:0.155537 191:0.253231 192:0.253231 193:0.0795 194:0.170949 195:0.136057 196:0.05962 197:0.112395 198:0.107246 199:0.177314 200:0.253231 201:0.178932 202:0.208597 203:0.189279 204:0.23416 205:0.07032 206:0.028232 207:0.052247 208:0.098632 209:0.253231 210:0.253231 211:0.23747 212:0.161874 213:0.14474 214:0.046164 215:0.05245 216:0.025846 217:0.100073 218:0.052464 219:0.03576 220:0.049408 221:0.061558 222:0.096467 223:0.265306 224:0.216048 225:0.256841 226:0.086652 227:0.100154 228:0.095959 229:0.118491 230:0.11885 231:0.373152 232:0.373152 233:0.295766 234:0.161397 235:0.125545 236:0.127219 237:0.093679 238:0.070253 239:0.067414 240:0.031352 241:0.125038 242:0.091117 243:0.067184 244:0.12236 245:0.142054 246:0.136279 247:0.102799 248:0.130369 249:0.12002 250:0.373152 251:0.120654 252:0.08722 253:0.033634 254:0.031879 255:0.034865 256:0.034773 257:0.059951 258:0.256116 259:0.375909 260:0.160295 261:0.036046 262:0.047979 263:0.053549 264:0.064324 265:0.075706 266:0.153266 267:0.263935 268:0.375909 269:0.121826 270:0.030646 271:0.028038 272:0.02452 273:0.024592 274:0.027339 275:0.067738 276:0.123547 277:0.375909 278:0.121255 279:0.041563 280:0.033451 281:0.016835 282:0.018987 283:0.041721 284:0.193576 285:0.306992 286:0.375909 287:0.173112 288:0.045599 289:0.05497 290:0.090675 291:0.126879 292:0.292339 293:0.292339 294:0.292339 295:0.178908 296:0.033783 297:0.007418 298:0.029814 299:0.107383 300:0.183087 301:0.292339 302:0.190569 303:0.186751 304:0.028416 305:0.014608 306:0.009255 307:0.030261 308:0.011331 309:0.029043 310:0.125875 311:0.292339 312:0.292339 313:0.292339 314:0.097564 315:0.022616 316:0.013333 317:0.004808 318:0.037884 319:0.105973 320:0.20129 321:0.292339 322:0.223469 323:0.049454 324:0.032653 
0.06406836964792637 1:0.021003 2:0.082673 3:0.172698 4:0.143958 5:0.091991 6:0.04725 7:0.014827 8:0.019985 9:0.022628 10:0.023957 11:0.044752 12:0.20774 13:0.388658 14:0.250152 15:0.10118 16:0.037861 17:0.029814 18:0.02332 19:0.067841 20:0.088476 21:0.103582 22:0.122705 23:0.100746 24:0.102595 25:0.045561 26:0.053539 27:0.050397 28:0.073833 29:0.146449 30:0.388658 31:0.388658 32:0.384929 33:0.26962 34:0.10123 35:0.14144 36:0.086595 37:0.010437 38:0.013137 39:0.259918 40:0.284804 41:0.112917 42:0.030785 43:0.012067 44:0.007516 45:0.012909 46:0.078836 47:0.100374 48:0.284804 49:0.284804 50:0.254097 51:0.071803 52:0.03492 53:0.051769 54:0.096593 55:0.065102 56:0.050682 57:0.284804 58:0.284804 59:0.141839 60:0.056532 61:0.046531 62:0.038322 63:0.047485 64:0.252808 65:0.089868 66:0.284804 67:0.284804 68:0.260854 69:0.117049 70:0.132368 71:0.11733 72:0.164879 73:0.10321 74:0.109739 75:0.216635 76:0.19949 77:0.239399 78:0.184381 79:0.081546 80:0.068965 81:0.153421 82:0.132141 83:0.092624 84:0.128358 85:0.127885 86:0.239399 87:0.239399 88:0.239399 89:0.168045 90:0.239399 91:0.116335 92:0.086411 93:0.148987 94:0.133561 95:0.224745 96:0.177384 97:0.118354 98:0.112088 99:0.111053 100:0.108429 101:0.113107 102:0.168227 103:0.132678 104:0.162808 105:0.239399 106:0.17203 107:0.159614 108:0.233058 109:0.096865 110:0.086097 111:0.040995 112:0.029346 113:0.02105 114:0.026948 115:0.020162 116:0.012413 117:0.07128 118:0.073625 119:0.133894 120:0.326769 121:0.326769 122:0.18882 123:0.138841 124:0.095615 125:0.064355 126:0.066968 127:0.253029 128:0.262954 129:0.29261 130:0.046177 131:0.017789 132:0.023362 133:0.039556 134:0.007552 135:0.112685 136:0.174731 137:0.326769 138:0.326769 139:0.326769 140:0.180627 141:0.130474 142:0.107145 143:0.060013 144:0.096367 145:0.055651 146:0.082038 147:0.284413 148:0.284413 149:0.107864 150:0.101565 151:0.211049 152:0.098687 153:0.050333 154:0.176586 155:0.081061 156:0.208923 157:0.133157 158:0.117134 159:0.126741 160:0.284413 161:0.171179 162:0.108398 163:0.062944 164:0.1318 165:0.284413 166:0.167582 167:0.104509 168:0.12627 169:0.284413 170:0.200515 171:0.079203 172:0.081086 173:0.067187 174:0.050032 175:0.053052 176:0.066799 177:0.128741 178:0.284413 179:0.284413 180:0.110263 181:0.157444 182:0.086774 183:0.106461 184:0.111417 185:0.177662 186:0.194263 187:0.231798 188:0.185336 189:0.142481 190:0.171789 191:0.160567 192:0.119022 193:0.073662 194:0.08342 195:0.175885 196:0.150472 197:0.200595 198:0.244486 199:0.07689 200:0.056514 201:0.039505 202:0.054685 203:0.069259 204:0.118013 205:0.331009 206:0.331009 207:0.146807 208:0.157652 209:0.100813 210:0.058759 211:0.043131 212:0.050821 213:0.078016 214:0.223665 215:0.331009 216:0.214126 217:0.267147 218:0.273407 219:0.309692 220:0.106793 221:0.019852 222:0.011672 223:0.038288 224:0.005323 225:0.077162 226:0.124855 227:0.240196 228:0.309692 229:0.224386 230:0.074364 231:0.055678 232:0.055471 233:0.032958 234:0.060512 235:0.251457 236:0.309692 237:0.309692 238:0.203131 239:0.05309 240:0.013583 241:0.033521 242:0.014854 243:0.078183 244:0.101271 245:0.156145 246:0.309692 247:0.165078 248:0.106855 249:0.070789 250:0.094289 251:0.05738 252:0.079482 253:0.113192 254:0.172591 255:0.327871 256:0.142631 257:0.092304 258:0.104314 259:0.261186 260:0.220085 261:0.156975 262:0.108472 263:0.105646 264:0.062159 265:0.04128 266:0.099496 267:0.118002 268:0.327871 269:0.327871 270:0.216411 271:0.058916 272:0.091106 273:0.13662 274:0.076144 275:0.089845 276:0.100516 277:0.085634 278:0.121245 279:0.139681 280:0.099859 281:0.158613 282:0.093802 283:0.053427 284:0.095925 285:0.123953 286:0.219418 287:0.327871 288:0.168771 289:0.044226 290:0.040252 291:0.006228 292:0.006584 293:0.023884 294:0.044152 295:0.342823 296:0.342823 297:0.095243 298:0.073787 299:0.027942 300:0.014053 301:0.008194 302:0.013861 303:0.045501 304:0.247656 305:0.342823 306:0.216823 307:0.104873 308:0.08909 309:0.028373 310:0.014263 311:0.031595 312:0.058286 313:0.211596 314:0.341193 315:0.09547 316:0.133976 317:0.057538 318:0.013962 319:0.000934 320:0.027731 321:0.091973 322:0.316904 323:0.342823 324:0.261467 
1 1:0.026013 2:0.006244 3:0.007348 4:0.001567 5:0.038478 6:0.126233 7:0.37597 8:0.237447 9:0.083413 10:0.038922 11:0.00967 12:0.021116 13:0.015255 14:0.071634 15:0.252734 16:0.207537 17:0.16277 18:0.093278 19:0.028192 20:0.009061 21:0.007985 22:0.003843 23:0.035388 24:0.169867 25:0.37597 26:0.369801 27:0.045285 28:0.091364 29:0.057719 30:0.066041 31:0.015196 32:0.084693 33:0.313251 34:0.37597 35:0.218852 36:0.042015 37:0.115662 38:0.052867 39:0.062371 40:0.060543 41:0.066339 42:0.18466 43:0.169664 44:0.179442 45:0.133523 46:0.124963 47:0.171496 48:0.237398 49:0.270407 50:0.140626 51:0.126134 52:0.165173 53:0.110831 54:0.083898 55:0.253495 56:0.215199 57:0.270407 58:0.10985 59:0.069551 60:0.262036 61:0.156632 62:0.101603 63:0.097394 64:0.159572 65:0.230888 66:0.270407 67:0.270407 68:0.18926 69:0.100329 70:0.090013 71:0.047034 72:0.06819 73:0.05953 74:0.131691 75:0.240215 76:0.29249 77:0.164824 78:0.10634 79:0.278734 80:0.144885 81:0.028196 82:0.046997 83:0.046155 84:0.109154 85:0.189984 86:0.097805 87:0.083205 88:0.29249 89:0.212041 90:0.028146 91:0.029139 92:0.0759 93:0.29249 94:0.29249 95:0.228452 96:0.086631 97:0.189463 98:0.10242 99:0.027252 100:0.046403 101:0.030001 102:0.038777 103:0.082484 104:0.100886 105:0.125162 106:0.29249 107:0.29249 108:0.044738 109:0.021298 110:0.005524 111:0.002153 112:0.005518 113:0.019274 114:0.078881 115:0.401015 116:0.246044 117:0.029233 118:0.058475 119:0.036112 120:0.055201 121:0.014371 122:0.063234 123:0.098567 124:0.401015 125:0.33664 126:0.057384 127:0.015437 128:0.003056 129:0.001533 130:0.008774 131:0.021835 132:0.023362 133:0.334127 134:0.090431 135:0.026498 136:0.03852 137:0.019662 138:0.015741 139:0.014065 140:0.052423 141:0.036698 142:0.401015 143:0.401015 144:0.132835 145:0.114727 146:0.172008 147:0.251308 148:0.067394 149:0.050489 150:0.069297 151:0.262749 152:0.154008 153:0.087028 154:0.076201 155:0.223811 156:0.279319 157:0.279319 158:0.083248 159:0.030073 160:0.035455 161:0.048719 162:0.055604 163:0.085136 164:0.11984 165:0.143835 166:0.02044 167:0.047763 168:0.031701 169:0.279319 170:0.279319 171:0.258892 172:0.137043 173:0.172047 174:0.246055 175:0.057752 176:0.032034 177:0.029777 178:0.115376 179:0.279319 180:0.279319 181:0.038604 182:0.136384 183:0.309499 184:0.309499 185:0.145696 186:0.076236 187:0.087442 188:0.121574 189:0.042825 190:0.08403 191:0.059904 192:0.040516 193:0.047953 194:0.088249 195:0.118125 196:0.309499 197:0.282447 198:0.049679 199:0.193122 200:0.116691 201:0.133861 202:0.073333 203:0.028758 204:0.052718 205:0.081511 206:0.309499 207:0.309499 208:0.184684 209:0.074906 210:0.050631 211:0.019266 212:0.027233 213:0.069946 214:0.060558 215:0.309499 216:0.309499 217:0.061676 218:0.043862 219:0.024015 220:0.03358 221:0.131936 222:0.049473 223:0.198791 224:0.104952 225:0.083436 226:0.257818 227:0.126503 228:0.057288 229:0.04546 230:0.147914 231:0.169004 232:0.455386 233:0.455386 234:0.455386 235:0.058533 236:0.030194 237:0.025845 238:0.001508 239:0.096541 240:0.006404 241:0.027328 242:0.014534 243:0.057184 244:0.193524 245:0.072499 246:0.083828 247:0.001939 248:0.129864 249:0.053608 250:0.101442 251:0.098137 252:0.205626 253:0.154618 254:0.065924 255:0.053654 256:0.008402 257:0.033991 258:0.044421 259:0.355733 260:0.355733 261:0.355733 262:0.335383 263:0.086664 264:0.069546 265:0.012391 266:0.023773 267:0.039306 268:0.188839 269:0.355733 270:0.355733 271:0.067265 272:0.018548 273:0.027956 274:0.003166 275:0.050634 276:0.016956 277:0.035118 278:0.068662 279:0.092227 280:0.133755 281:0.017586 282:0.024231 283:0.009034 284:0.058205 285:0.023638 286:0.075627 287:0.210577 288:0.266063 289:0.213814 290:0.033919 291:0.017274 292:0.008718 293:0.008709 294:0.019057 295:0.045119 296:0.344755 297:0.344755 298:0.220996 299:0.030509 300:0.027925 301:0.009859 302:0.008473 303:0.023756 304:0.022111 305:0.344755 306:0.344755 307:0.096529 308:0.014963 309:0.014827 310:0.006713 311:0.037962 312:0.022913 313:0.047336 314:0.198364 315:0.309761 316:0.159364 317:0.019512 318:0.029454 319:0.008702 320:0.036754 321:0.046725 322:0.048598 323:0.344755 324:0.344755 
1 1:0.084289 2:0.457561 3:0.177505 4:0.015555 5:0.008584 6:0.004719 7:0.005709 8:0.004473 9:0.020691 10:0.12481 11:0.457561 12:0.183835 13:0.033406 14:0.033474 15:0.010029 16:0.004416 17:0.004613 18:0.010228 19:0.149724 20:0.457561 21:0.140669 22:0.007841 23:0.003489 24:0.006706 25:0.002093 26:0.005848 27:0.032158 28:0.087135 29:0.457561 30:0.094423 31:0.051186 32:0.053052 33:0.024779 34:0.006593 35:0.016039 36:0.021026 37:0.25212 38:0.320222 39:0.294214 40:0.082626 41:0.125276 42:0.059083 43:0.02502 44:0.02796 45:0.026248 46:0.107757 47:0.280009 48:0.320222 49:0.273818 50:0.170958 51:0.094544 52:0.054484 53:0.047598 54:0.022684 55:0.042076 56:0.320222 57:0.090658 58:0.153534 59:0.176977 60:0.088805 61:0.04214 62:0.029476 63:0.009656 64:0.010163 65:0.070146 66:0.215614 67:0.320222 68:0.227262 69:0.12284 70:0.066898 71:0.035078 72:0.005106 73:0.010298 74:0.036531 75:0.27202 76:0.278049 77:0.217921 78:0.047149 79:0.02626 80:0.020659 81:0.002527 82:0.092599 83:0.077726 84:0.262546 85:0.278049 86:0.278049 87:0.032041 88:0.039151 89:0.02442 90:0.059037 91:0.065647 92:0.080791 93:0.278049 94:0.278049 95:0.23492 96:0.046866 97:0.029099 98:0.022504 99:0.014346 100:0.278049 101:0.20451 102:0.278049 103:0.278049 104:0.170294 105:0.019436 106:0.044655 107:0.037316 108:0.133808 109:0.348567 110:0.348567 111:0.25076 112:0.078732 113:0.030475 114:0.041636 115:0.028192 116:0.058639 117:0.153695 118:0.184302 119:0.348567 120:0.139429 121:0.248687 122:0.232924 123:0.104755 124:0.030782 125:0.110246 126:0.116968 127:0.077878 128:0.121994 129:0.15911 130:0.150403 131:0.087316 132:0.036633 133:0.034423 134:0.04587 135:0.046431 136:0.089061 137:0.198526 138:0.255535 139:0.266305 140:0.202396 141:0.071252 142:0.033742 143:0.085537 144:0.061706 145:0.021792 146:0.058458 147:0.066135 148:0.231145 149:0.215868 150:0.123439 151:0.065751 152:0.059327 153:0.023422 154:0.002576 155:0.033126 156:0.168731 157:0.34112 158:0.34112 159:0.22786 160:0.122654 161:0.054132 162:0.00612 163:0.035925 164:0.091756 165:0.132762 166:0.199741 167:0.186328 168:0.083995 169:0.049896 170:0.085399 171:0.036004 172:0.032185 173:0.080085 174:0.34112 175:0.34112 176:0.34112 177:0.19715 178:0.099875 179:0.077025 180:0.032248 181:0.109146 182:0.086547 183:0.156243 184:0.268399 185:0.268399 186:0.086297 187:0.050126 188:0.021359 189:0.01919 190:0.268399 191:0.268399 192:0.133668 193:0.199729 194:0.158172 195:0.040291 196:0.053018 197:0.030677 198:0.124835 199:0.142711 200:0.096981 201:0.268399 202:0.268399 203:0.268399 204:0.097355 205:0.060653 206:0.029297 207:0.065687 208:0.268399 209:0.268399 210:0.134815 211:0.118008 212:0.150249 213:0.046516 214:0.083269 215:0.082014 216:0.268399 217:0.037539 218:0.073777 219:0.135027 220:0.210594 221:0.148484 222:0.054937 223:0.03423 224:0.04088 225:0.031755 226:0.063761 227:0.266763 228:0.293881 229:0.226601 230:0.180241 231:0.063646 232:0.046382 233:0.052128 234:0.041928 235:0.049556 236:0.062877 237:0.072215 238:0.185007 239:0.231316 240:0.107985 241:0.077128 242:0.051644 243:0.02321 244:0.068638 245:0.317624 246:0.317624 247:0.317624 248:0.317624 249:0.317624 250:0.090687 251:0.067283 252:0.017544 253:0.051079 254:0.176269 255:0.103325 256:0.065137 257:0.056939 258:0.018415 259:0.010207 260:0.014783 261:0.010402 262:0.107516 263:0.271925 264:0.289742 265:0.289742 266:0.131194 267:0.034682 268:0.018817 269:0.025666 270:0.032192 271:0.219189 272:0.289742 273:0.219801 274:0.14716 275:0.289742 276:0.103337 277:0.019889 278:0.008543 279:0.034449 280:0.289742 281:0.289742 282:0.289742 283:0.161816 284:0.154589 285:0.03614 286:0.037198 287:0.059215 288:0.253475 289:0.189366 290:0.204852 291:0.254097 292:0.254097 293:0.143016 294:0.024676 295:0.031406 296:0.045328 297:0.087751 298:0.254097 299:0.254097 300:0.169009 301:0.096247 302:0.051235 303:0.011898 304:0.041517 305:0.086911 306:0.242371 307:0.242114 308:0.254097 309:0.254097 310:0.149118 311:0.09078 312:0.0335 313:0.08292 314:0.113667 315:0.212753 316:0.254097 317:0.254097 318:0.254097 319:0.098623 320:0.073258 321:0.044428 322:0.075787 323:0.115215 324:0.082252 
0.7424872857317308 1:0.043308 2:0.049627 3:0.019915 4:0.031876 5:0.108796 6:0.130329 7:0.125119 8:0.096284 9:0.04447 10:0.097622 11:0.15302 12:0.441993 13:0.206405 14:0.0986 15:0.116045 16:0.065627 17:0.037733 18:0.04904 19:0.062271 20:0.132248 21:0.080175 22:0.073236 23:0.101848 24:0.142141 25:0.158015 26:0.059956 27:0.068252 28:0.098046 29:0.272624 30:0.441993 31:0.441993 32:0.205999 33:0.090501 34:0.051959 35:0.018957 36:0.081138 37:0.029153 38:0.200822 39:0.358711 40:0.088891 41:0.015509 42:0.006617 43:0.005086 44:0.005045 45:0.006222 46:0.05676 47:0.358711 48:0.358711 49:0.063702 50:0.017418 51:0.010404 52:0.007939 53:0.005958 54:0.006059 55:0.015975 56:0.138154 57:0.358711 58:0.358711 59:0.056679 60:0.016422 61:0.00531 62:0.005751 63:0.007531 64:0.066187 65:0.309056 66:0.358711 67:0.198938 68:0.036302 69:0.026399 70:0.014724 71:0.029675 72:0.039584 73:0.209264 74:0.33087 75:0.33087 76:0.079561 77:0.048782 78:0.031839 79:0.023914 80:0.009325 81:0.044488 82:0.141427 83:0.33087 84:0.233573 85:0.069134 86:0.094263 87:0.044356 88:0.020458 89:0.045062 90:0.058235 91:0.242619 92:0.33087 93:0.33087 94:0.215832 95:0.124831 96:0.08079 97:0.074271 98:0.126211 99:0.156146 100:0.130285 101:0.107455 102:0.112001 103:0.142818 104:0.1403 105:0.101133 106:0.072463 107:0.120252 108:0.112551 109:0.023749 110:0.077632 111:0.110609 112:0.072418 113:0.038742 114:0.040473 115:0.040667 116:0.01841 117:0.030749 118:0.015289 119:0.088902 120:0.401083 121:0.401083 122:0.171904 123:0.043692 124:0.010247 125:0.00802 126:0.020419 127:0.038977 128:0.190701 129:0.401083 130:0.155986 131:0.034508 132:0.020434 133:0.022136 134:0.015749 135:0.03277 136:0.021013 137:0.15086 138:0.401083 139:0.401083 140:0.176328 141:0.032453 142:0.013558 143:0.008538 144:0.009322 145:0.013915 146:0.084066 147:0.315946 148:0.315946 149:0.169045 150:0.045982 151:0.011459 152:0.006594 153:0.008357 154:0.088717 155:0.270169 156:0.314459 157:0.315946 158:0.08425 159:0.091745 160:0.032803 161:0.082182 162:0.096691 163:0.036969 164:0.079477 165:0.315946 166:0.315946 167:0.196147 168:0.066261 169:0.063571 170:0.023734 171:0.019665 172:0.139983 173:0.216712 174:0.186712 175:0.207553 176:0.087957 177:0.119369 178:0.093813 179:0.096655 180:0.083249 181:0.225092 182:0.246163 183:0.246163 184:0.246163 185:0.182726 186:0.134289 187:0.081995 188:0.210242 189:0.200628 190:0.092123 191:0.174291 192:0.212121 193:0.213081 194:0.201609 195:0.081231 196:0.066371 197:0.116881 198:0.107123 199:0.195691 200:0.246163 201:0.246163 202:0.246163 203:0.074999 204:0.094443 205:0.058551 206:0.121869 207:0.116049 208:0.06818 209:0.217631 210:0.246163 211:0.157458 212:0.092496 213:0.023365 214:0.025328 215:0.026289 216:0.047188 217:0.028004 218:0.396987 219:0.396987 220:0.082104 221:0.015045 222:0.008311 223:0.006009 224:0.00594 225:0.012813 226:0.027226 227:0.185575 228:0.396987 229:0.226091 230:0.072886 231:0.008999 232:0.005403 233:0.006533 234:0.006729 235:0.060428 236:0.396987 237:0.396987 238:0.026715 239:0.026322 240:0.016648 241:0.011802 242:0.010597 243:0.022498 244:0.029572 245:0.101538 246:0.262903 247:0.06604 248:0.118372 249:0.055447 250:0.011205 251:0.011975 252:0.008119 253:0.159449 254:0.174821 255:0.273416 256:0.273416 257:0.273416 258:0.105791 259:0.119843 260:0.07224 261:0.09954 262:0.273416 263:0.273416 264:0.271128 265:0.169157 266:0.119134 267:0.143111 268:0.170823 269:0.158367 270:0.244023 271:0.134399 272:0.11121 273:0.155645 274:0.155686 275:0.273416 276:0.150759 277:0.026753 278:0.029404 279:0.058752 280:0.126144 281:0.119008 282:0.110466 283:0.084301 284:0.148533 285:0.053203 286:0.039567 287:0.051473 288:0.127714 289:0.270118 290:0.270118 291:0.270118 292:0.21582 293:0.104146 294:0.073834 295:0.077537 296:0.110231 297:0.218791 298:0.19896 299:0.270118 300:0.270118 301:0.132845 302:0.083586 303:0.024574 304:0.028367 305:0.034843 306:0.112201 307:0.085886 308:0.206952 309:0.264761 310:0.172195 311:0.197984 312:0.055344 313:0.046256 314:0.04779 315:0.12345 316:0.176346 317:0.270118 318:0.270118 319:0.095842 320:0.123326 321:0.023864 322:0.014464 323:0.025477 324:0.097035 
0.05939191586898767 1:0.090722 2:0.050328 3:0.016652 4:0.022731 5:0.071632 6:0.046897 7:0.066804 8:0.288658 9:0.288658 10:0.049573 11:0.028676 12:0.010276 13:0.096653 14:0.288658 15:0.288658 16:0.162179 17:0.258568 18:0.265511 19:0.08094 20:0.054186 21:0.032055 22:0.118556 23:0.216736 24:0.127362 25:0.056904 26:0.105186 27:0.113932 28:0.073421 29:0.035981 30:0.025435 31:0.149993 32:0.288658 33:0.288658 34:0.240662 35:0.258727 36:0.166451 37:0.018424 38:0.034759 39:0.024794 40:0.05503 41:0.297244 42:0.175613 43:0.097606 44:0.079206 45:0.047269 46:0.042615 47:0.13837 48:0.212128 49:0.297244 50:0.297244 51:0.062474 52:0.04682 53:0.036835 54:0.027212 55:0.128209 56:0.153389 57:0.083978 58:0.040122 59:0.179336 60:0.203229 61:0.122868 62:0.188699 63:0.177628 64:0.14044 65:0.297244 66:0.297244 67:0.297244 68:0.297244 69:0.062455 70:0.033732 71:0.070593 72:0.127439 73:0.012665 74:0.042235 75:0.210208 76:0.324173 77:0.324173 78:0.01898 79:0.002919 80:0.002991 81:0.004961 82:0.007568 83:0.006752 84:0.139246 85:0.324173 86:0.267925 87:0.023907 88:0.013999 89:0.007755 90:0.012222 91:0.018527 92:0.189662 93:0.324173 94:0.324173 95:0.324173 96:0.047755 97:0.002294 98:0.002841 99:0.010143 100:0.013247 101:0.027485 102:0.152688 103:0.324173 104:0.239857 105:0.038708 106:0.015192 107:0.007076 108:0.009537 109:0.080142 110:0.029281 111:0.02706 112:0.051937 113:0.052729 114:0.033261 115:0.014288 116:0.091084 117:0.083422 118:0.162205 119:0.33921 120:0.084146 121:0.050966 122:0.070201 123:0.125153 124:0.049326 125:0.072185 126:0.078165 127:0.383154 128:0.204631 129:0.035778 130:0.02642 131:0.012851 132:0.011603 133:0.010382 134:0.286683 135:0.383154 136:0.383154 137:0.383154 138:0.159057 139:0.026986 140:0.011711 141:0.029058 142:0.010068 143:0.057393 144:0.191414 145:0.161576 146:0.336495 147:0.135105 148:0.027559 149:0.01623 150:0.039276 151:0.027632 152:0.050984 153:0.070983 154:0.126193 155:0.336495 156:0.336495 157:0.206352 158:0.052034 159:0.01212 160:0.005372 161:0.015326 162:0.040433 163:0.336495 164:0.336495 165:0.175968 166:0.042063 167:0.020179 168:0.037746 169:0.015562 170:0.025929 171:0.050527 172:0.171149 173:0.336495 174:0.32228 175:0.109347 176:0.068739 177:0.081495 178:0.042407 179:0.025532 180:0.041419 181:0.056205 182:0.33136 183:0.33136 184:0.33136 185:0.220825 186:0.056379 187:0.001703 188:0.004195 189:0.014976 190:0.028501 191:0.085315 192:0.195887 193:0.33136 194:0.246347 195:0.054575 196:0.004097 197:0.002149 198:0.009353 199:0.157198 200:0.33136 201:0.33136 202:0.167017 203:0.101634 204:0.08238 205:0.056048 206:0.035687 207:0.050315 208:0.113386 209:0.12805 210:0.131475 211:0.156165 212:0.14267 213:0.04591 214:0.022319 215:0.021542 216:0.035938 217:0.398278 218:0.325304 219:0.011264 220:0.006164 221:0.001709 222:0.00296 223:0.010773 224:0.15963 225:0.398278 226:0.398278 227:0.398278 228:0.068695 229:0.015567 230:0.003237 231:0.004361 232:0.009505 233:0.033749 234:0.208846 235:0.325686 236:0.110817 237:0.013681 238:0.009175 239:0.016117 240:0.015237 241:0.029987 242:0.035171 243:0.108819 244:0.158336 245:0.099178 246:0.030797 247:0.020352 248:0.022344 249:0.007236 250:0.019434 251:0.041048 252:0.09005 253:0.325023 254:0.325023 255:0.111322 256:0.044962 257:0.049726 258:0.119906 259:0.101318 260:0.064221 261:0.143887 262:0.174981 263:0.299863 264:0.072905 265:0.106193 266:0.154452 267:0.325023 268:0.325023 269:0.241677 270:0.095135 271:0.080695 272:0.051242 273:0.024732 274:0.016587 275:0.04388 276:0.047614 277:0.087 278:0.081376 279:0.096164 280:0.03815 281:0.024069 282:0.005165 283:0.010067 284:0.05617 285:0.144712 286:0.325023 287:0.325023 288:0.064803 289:0.122282 290:0.130567 291:0.066453 292:0.077717 293:0.109552 294:0.187157 295:0.356134 296:0.266219 297:0.077228 298:0.113248 299:0.103186 300:0.076063 301:0.119312 302:0.103299 303:0.089661 304:0.146061 305:0.09404 306:0.058108 307:0.04597 308:0.044272 309:0.011687 310:0.027387 311:0.061577 312:0.14809 313:0.356134 314:0.356134 315:0.068849 316:0.115903 317:0.101877 318:0.032794 319:0.062878 320:0.133374 321:0.107444 322:0.356134 323:0.356134 324:0.081293 
1 1:0.086104 2:0.109813 3:0.062818 4:0.084169 5:0.091858 6:0.06567 7:0.11674 8:0.168339 9:0.106523 10:0.181445 11:0.144387 12:0.17212 13:0.136984 14:0.154712 15:0.054124 16:0.055387 17:0.097301 18:0.111787 19:0.076265 20:0.042233 21:0.036007 22:0.093311 23:0.158049 24:0.267039 25:0.263233 26:0.14672 27:0.074855 28:0.127673 29:0.195077 30:0.323598 31:0.323598 32:0.323598 33:0.323598 34:0.194889 35:0.117608 36:0.103906 37:0.08054 38:0.12835 39:0.099328 40:0.032664 41:0.025219 42:0.011778 43:0.011867 44:0.022439 45:0.067615 46:0.131772 47:0.29943 48:0.29943 49:0.050804 50:0.045112 51:0.028854 52:0.036624 53:0.04033 54:0.17775 55:0.095885 56:0.258468 57:0.29943 58:0.29943 59:0.086696 60:0.039072 61:0.019607 62:0.023917 63:0.08123 64:0.19665 65:0.29943 66:0.29943 67:0.163372 68:0.032412 69:0.126911 70:0.252063 71:0.197242 72:0.290244 73:0.028941 74:0.294379 75:0.294379 76:0.032194 77:0.030144 78:0.02537 79:0.028369 80:0.025139 81:0.046126 82:0.035379 83:0.294379 84:0.294379 85:0.101368 86:0.085723 87:0.035758 88:0.015676 89:0.014305 90:0.021952 91:0.034885 92:0.294379 93:0.294379 94:0.040564 95:0.070587 96:0.134467 97:0.294379 98:0.165753 99:0.081539 100:0.015945 101:0.165428 102:0.246446 103:0.231869 104:0.294379 105:0.150627 106:0.215823 107:0.063129 108:0.01689 109:0.034621 110:0.017457 111:0.016123 112:0.052247 113:0.085158 114:0.114847 115:0.070457 116:0.02927 117:0.015467 118:0.037969 119:0.052937 120:0.261946 121:0.441712 122:0.441712 123:0.166175 124:0.06582 125:0.025077 126:0.039291 127:0.02138 128:0.028744 129:0.033981 130:0.099977 131:0.121832 132:0.068414 133:0.117053 134:0.069484 135:0.018762 136:0.015447 137:0.032605 138:0.096296 139:0.441712 140:0.441712 141:0.09279 142:0.071956 143:0.041213 144:0.016655 145:0.046501 146:0.099456 147:0.327327 148:0.327327 149:0.292237 150:0.05048 151:0.015949 152:0.012158 153:0.036199 154:0.081157 155:0.181446 156:0.327327 157:0.255117 158:0.063832 159:0.163279 160:0.224399 161:0.118051 162:0.09823 163:0.03219 164:0.028092 165:0.157177 166:0.327327 167:0.327327 168:0.04587 169:0.005539 170:0.003608 171:0.016098 172:0.045045 173:0.044435 174:0.169796 175:0.219465 176:0.165235 177:0.096373 178:0.048026 179:0.015974 180:0.030659 181:0.019571 182:0.050129 183:0.071506 184:0.046794 185:0.099616 186:0.248606 187:0.290201 188:0.119013 189:0.037369 190:0.033751 191:0.006818 192:0.023656 193:0.217887 194:0.290201 195:0.265181 196:0.290201 197:0.247384 198:0.043196 199:0.019097 200:0.008098 201:0.022234 202:0.03907 203:0.205889 204:0.290201 205:0.115438 206:0.033097 207:0.018345 208:0.101615 209:0 210:0.004336 211:0.099274 212:0.290201 213:0.290201 214:0.185667 215:0.290201 216:0.114984 217:0.013109 218:0.02186 219:0.012467 220:0.043027 221:0.080734 222:0.051613 223:0.121679 224:0.100357 225:0.02647 226:0.002471 227:0.008165 228:0.033422 229:0.420533 230:0.420533 231:0.052084 232:0.067144 233:0.042708 234:0.006421 235:0.014339 236:0.017961 237:0.011859 238:0.0595 239:0.186179 240:0.068209 241:0.303341 242:0.143618 243:0.035549 244:0.012202 245:0.009776 246:0.099559 247:0.420533 248:0.420533 249:0.185818 250:0.189217 251:0.051708 252:0.011085 253:0.00535 254:0.005585 255:0.050503 256:0.38785 257:0.38785 258:0.089664 259:0.015453 260:0.003973 261:0.001211 262:0.026202 263:0.032993 264:0.05405 265:0.124105 266:0.214736 267:0.08001 268:0.025338 269:0.025609 270:0.026752 271:0.003117 272:0.003293 273:0.096888 274:0.38785 275:0.38785 276:0.307106 277:0.078276 278:0.005512 279:0.002545 280:0.032086 281:0.036766 282:0.067163 283:0.188165 284:0.363978 285:0.147552 286:0.037354 287:0.019596 288:0.025837 289:0.015238 290:0.013699 291:0.013139 292:0.021821 293:0.210852 294:0.325737 295:0.037905 296:0.036713 297:0.02169 298:0.055147 299:0.000428 300:0.000103 301:0.026479 302:0.390584 303:0.390584 304:0.113827 305:0.259897 306:0.062984 307:0.023045 308:0.02433 309:0.03026 310:0.050753 311:0.198404 312:0.191649 313:0.036009 314:0.022691 315:0.020614 316:0.039714 317:0.004292 318:0.002598 319:0.013463 320:0.390584 321:0.390584 322:0.233976 323:0.047616 324:0.032142 
0.4584635984068001 1:0.010719 2:0.077047 3:0.324839 4:0.20097 5:0.040178 6:0.004867 7:0.003372 8:0.004999 9:0.004136 10:0.055157 11:0.095662 12:0.364931 13:0.245909 14:0.110447 15:0.018032 16:0.012056 17:0.021827 18:0.030243 19:0.023411 20:0.174104 21:0.364931 22:0.226708 23:0.022953 24:0.000611 25:0.002247 26:0.009954 27:0.00441 28:0.053657 29:0.344996 30:0.364931 31:0.364931 32:0.131706 33:0.023205 34:0.016142 35:0.017028 36:0.005933 37:0.04007 38:0.207215 39:0.350976 40:0.12176 41:0.040695 42:0.01142 43:0.006809 44:0.01064 45:0.027226 46:0.162407 47:0.350976 48:0.350976 49:0.0835 50:0.01253 51:0.009098 52:0.00207 53:0.018235 54:0.054071 55:0.021582 56:0.201774 57:0.350976 58:0.300867 59:0.060447 60:0.020903 61:0.009804 62:0.004226 63:0.010959 64:0.098843 65:0.317221 66:0.350976 67:0.17837 68:0.021574 69:0.030197 70:0.011676 71:0.015824 72:0.040791 73:0.280331 74:0.280331 75:0.247226 76:0.050033 77:0.011719 78:0.00923 79:0.003216 80:0.025031 81:0.08304 82:0.280331 83:0.280331 84:0.117418 85:0.081658 86:0.040451 87:0.01629 88:0.010331 89:0.049477 90:0.158808 91:0.240039 92:0.280331 93:0.280331 94:0.133315 95:0.012792 96:0.043556 97:0.017826 98:0.038458 99:0.077802 100:0.264528 101:0.280331 102:0.280331 103:0.261958 104:0.029804 105:0.026907 106:0.029501 107:0.064909 108:0.1281 109:0.017296 110:0.187356 111:0.363526 112:0.096361 113:0.00439 114:3.9e-005 115:0.000243 116:0.001077 117:0.00218 118:0.024608 119:0.31243 120:0.363526 121:0.180602 122:0.020906 123:0.01139 124:0.005567 125:0.004189 126:0.001239 127:0.032072 128:0.363526 129:0.363526 130:0.083756 131:0.008437 132:0.00134 133:0.000827 134:0.000316 135:0.005853 136:0.034899 137:0.363526 138:0.363526 139:0.129523 140:0.007764 141:0.024825 142:0.016331 143:0.013599 144:0.00494 145:0.048532 146:0.354175 147:0.354175 148:0.354175 149:0.041391 150:0.050818 151:0.032777 152:0.021238 153:0.018712 154:0.123304 155:0.229213 156:0.354175 157:0.1713 158:0.025432 159:0.064097 160:0.051721 161:0.061856 162:0.071462 163:0.055393 164:0.235604 165:0.354175 166:0.121918 167:0.012294 168:0.123151 169:0.141772 170:0.137673 171:0.034507 172:0.05759 173:0.062487 174:0.056819 175:0.034451 176:0.020341 177:0.099164 178:0.202401 179:0.224896 180:0.069676 181:0.29964 182:0.29964 183:0.29964 184:0.218676 185:0.03827 186:0.105638 187:0.061503 188:0.14641 189:0.158806 190:0.29964 191:0.29964 192:0.29964 193:0.29964 194:0.022511 195:0.044615 196:0.052065 197:0.12779 198:0.243121 199:0.129843 200:0.078164 201:0.065971 202:0.026359 203:0.034986 204:0.051955 205:0.098203 206:0.128819 207:0.091124 208:0.174576 209:0.145334 210:0.17716 211:0.045657 212:0.018501 213:0.02184 214:0.033333 215:0.057608 216:0.142098 217:0.067099 218:0.411628 219:0.411628 220:0.100397 221:0.039049 222:0.013008 223:0.006789 224:0.016693 225:0.04478 226:0.065225 227:0.377868 228:0.411628 229:0.10763 230:0.031012 231:0.046332 232:0.038201 233:0.044819 234:0.030372 235:0.132236 236:0.213623 237:0.411628 238:0.053473 239:0.056441 240:0.016445 241:0.025273 242:0.090688 243:0.118296 244:0.100008 245:0.082284 246:0.037592 247:0.034803 248:0.038512 249:0.030925 250:0.045587 251:0.076156 252:0.106773 253:0.07347 254:0.157753 255:0.156004 256:0.107887 257:0.032044 258:0.180979 259:0.297677 260:0.318679 261:0.1208 262:0.044908 263:0.04036 264:0.03729 265:0.024307 266:0.030463 267:0.174905 268:0.318679 269:0.318679 270:0.120673 271:0.115685 272:0.074242 273:0.037628 274:0.047902 275:0.052571 276:0.076944 277:0.183052 278:0.215561 279:0.247417 280:0.059663 281:0.052013 282:0.030724 283:0.013292 284:0.056524 285:0.107307 286:0.318679 287:0.318679 288:0.198758 289:0.056905 290:0.058679 291:0.03477 292:0.013088 293:0.030629 294:0.097062 295:0.293625 296:0.293625 297:0.050178 298:0.223395 299:0.231124 300:0.105599 301:0.041277 302:0.024687 303:0.068263 304:0.114395 305:0.081005 306:0.156879 307:0.051272 308:0.045573 309:0.016034 310:0.019075 311:0.040026 312:0.183333 313:0.293625 314:0.293625 315:0.087931 316:0.293625 317:0.169814 318:0.046679 319:0.060234 320:0.066279 321:0.203662 322:0.293625 323:0.293625 324:0.279505 
