svm_type c_svc
kernel_type linear
nr_class 2
total_sv 156
rho 1.4294
label 1 8
probA -2.33882
probB 0.00247281
nr_sv 79 77
SV
1 1:0.27289 2:0.123509 3:0.096407 4:0.042126 5:0.009073 6:0.005259 7:0.012012 8:0.022532 9:0.154081 10:0.278783 11:0.211211 12:0.228573 13:0.119084 14:0.035396 15:0.082798 16:0.093024 17:0.0304 18:0.198597 19:0.278783 20:0.268025 21:0.188748 22:0.081458 23:0.067679 24:0.047889 25:0.048748 26:0.097446 27:0.278783 28:0.278783 29:0.278783 30:0.278783 31:0.113548 32:0.072555 33:0.125739 34:0.118436 35:0.048064 36:0.232992 
1 1:0.159477 2:0.092776 3:0.148696 4:0.226241 5:0.226241 6:0.165581 7:0.09725 8:0.123462 9:0.166394 10:0.204754 11:0.148239 12:0.212346 13:0.141903 14:0.141132 15:0.072717 16:0.075637 17:0.15866 18:0.186118 19:0.116407 20:0.141855 21:0.226241 22:0.226241 23:0.226241 24:0.155812 25:0.088569 26:0.160667 27:0.177572 28:0.130027 29:0.135512 30:0.208081 31:0.148012 32:0.188047 33:0.112244 34:0.109747 35:0.226241 36:0.226241 
1 1:0.238413 2:0.034726 3:0.060743 4:0.018955 5:0.049693 6:0.112105 7:0.10359 8:0.136629 9:0.269325 10:0.175311 11:0.035056 12:0.08699 13:0.012315 14:0.039906 15:0.066549 16:0.157885 17:0.155481 18:0.251575 19:0.269325 20:0.05343 21:0.078032 22:0.026647 23:0.071635 24:0.148363 25:0.269325 26:0.269325 27:0.269325 28:0.269325 29:0.082718 30:0.133532 31:0.023115 32:0.069771 33:0.113956 34:0.269325 35:0.269325 36:0.269325 
1 1:0.076125 2:0.02003 3:0.042015 4:0.034255 5:0.176188 6:0.278022 7:0.293316 8:0.247941 9:0.085196 10:0.179137 11:0.035725 12:0.023647 13:0.031101 14:0.202712 15:0.147781 16:0.249413 17:0.181976 18:0.19422 19:0.043774 20:0.012741 21:0.02588 22:0.045646 23:0.134667 24:0.199077 25:0.293316 26:0.293316 27:0.043601 28:0.09832 29:0.03541 30:0.018682 31:0.00998 32:0.153578 33:0.194249 34:0.293316 35:0.293316 36:0.112404 
1 1:0.083381 2:0.182245 3:0.237391 4:0.129187 5:0.162851 6:0.183713 7:0.050143 8:0.027582 9:0.045002 10:0.15494 11:0.237391 12:0.237391 13:0.237391 14:0.237391 15:0.237391 16:0.093541 17:0.047791 18:0.050041 19:0.184531 20:0.237391 21:0.237391 22:0.188729 23:0.134603 24:0.175601 25:0.075512 26:0.044813 27:0.073087 28:0.125006 29:0.181287 30:0.176508 31:0.163576 32:0.237391 33:0.237391 34:0.167604 35:0.064377 36:0.06162 
1 1:0.084456 2:0.022176 3:0.012076 4:0.018937 5:0.026636 6:0.218038 7:0.324529 8:0.29581 9:0.136105 10:0.273866 11:0.131344 12:0.025749 13:0.017267 14:0.026121 15:0.258424 16:0.324529 17:0.049105 18:0.088038 19:0.016458 20:0.015008 21:0.021457 22:0.037408 23:0.07237 24:0.324529 25:0.324529 26:0.065193 27:0.016794 28:0.072975 29:0.023044 30:0.017931 31:0.028893 32:0.106607 33:0.324529 34:0.324529 35:0.021121 36:0.025363 
1 1:0.045976 2:0.023363 3:0.01331 4:0.011905 5:0.01282 6:0.029501 7:0.437267 8:0.260231 9:0.038214 10:0.020333 11:0.014271 12:0.00884 13:0.002552 14:0.010932 15:0.045694 16:0.437267 17:0.134399 18:0.022746 19:0.028169 20:0.026634 21:0.011549 22:0.016744 23:0.040294 24:0.088987 25:0.437267 26:0.144928 27:0.022869 28:0.014145 29:0.012411 30:0.005542 31:0.009053 32:0.054058 33:0.229872 34:0.437267 35:0.215676 36:0.020209 
0.6453967859674764 1:0.156081 2:0.07853 3:0.091339 4:0.038032 5:0.033514 6:0.021317 7:0.104818 8:0.302502 9:0.186364 10:0.046732 11:0.019399 12:0.027722 13:0.059263 14:0.244119 15:0.073175 16:0.27068 17:0.211524 18:0.080109 19:0.14364 20:0.12978 21:0.145024 22:0.217067 23:0.162975 24:0.031984 25:0.302502 26:0.302502 27:0.139755 28:0.038569 29:0.027334 30:0.032972 31:0.084252 32:0.182398 33:0.232499 34:0.302502 35:0.302502 36:0.071585 
1 1:0.047104 2:0.02983 3:0.083883 4:0.06816 5:0.150302 6:0.200944 7:0.34391 8:0.199782 9:0.028062 10:0.036691 11:0.019629 12:0.019692 13:0.025751 14:0.040785 15:0.10109 16:0.34391 17:0.212205 18:0.037317 19:0.025459 20:0.023025 21:0.067197 22:0.061919 23:0.195274 24:0.34391 25:0.34391 26:0.165155 27:0.009561 28:0.028719 29:0.021474 30:0.030794 31:0.028105 32:0.086382 33:0.146243 34:0.34391 35:0.34391 36:0.021659 
1 1:0.246802 2:0.111642 3:0.029711 4:0.02683 5:0.03623 6:0.033466 7:0.07046 8:0.12598 9:0.183521 10:0.33042 11:0.23993 12:0.042832 13:0.018489 14:0.019453 15:0.019507 16:0.028649 17:0.079998 18:0.224552 19:0.33042 20:0.33042 21:0.182547 22:0.016238 23:0.012731 24:0.003728 25:0.006578 26:0.020451 27:0.271205 28:0.33042 29:0.297949 30:0.062639 31:0.004618 32:0.007996 33:0.003465 34:0.005426 35:0.011866 36:0.33042 
1 1:0.335437 2:0.08578 3:0.035709 4:0.010252 5:0.019673 6:0.010322 7:0.000117 8:0.038118 9:0.340731 10:0.340731 11:0.096733 12:0.039882 13:0.022951 14:0.027822 15:0.009564 16:0.001075 17:0.020618 18:0.340731 19:0.340731 20:0.057928 21:0.026299 22:0.007455 23:0.017525 24:0.027871 25:0.00713 26:0.06852 27:0.340731 28:0.340731 29:0.121947 30:0.138966 31:0.048962 32:0.011006 33:0.001243 34:0.002552 35:0.036098 36:0.340731 
1 1:0.10195 2:0.071295 3:0.278767 4:0.278767 5:0.278767 6:0.057482 7:0.196362 8:0.086754 9:0.11269 10:0.139891 11:0.054081 12:0.13009 13:0.278767 14:0.278767 15:0.08132 16:0.24048 17:0.169207 18:0.191924 19:0.026091 20:0.044187 21:0.236834 22:0.160049 23:0.132155 24:0.021708 25:0.137017 26:0.065008 27:0.042261 28:0.075505 29:0.015869 30:0.057083 31:0.1783 32:0.22559 33:0.047634 34:0.278767 35:0.224968 36:0.11056 
1 1:0.177222 2:0.198086 3:0.147376 4:0.115255 5:0.121003 6:0.103559 7:0.231374 8:0.231374 9:0.156626 10:0.122574 11:0.093495 12:0.100772 13:0.115523 14:0.16447 15:0.155686 16:0.231374 17:0.190855 18:0.162201 19:0.231374 20:0.231374 21:0.209241 22:0.077169 23:0.074402 24:0.044014 25:0.093513 26:0.086314 27:0.134812 28:0.208246 29:0.213558 30:0.180608 31:0.150574 32:0.169496 33:0.127471 34:0.225125 35:0.215554 36:0.187658 
1 1:0.135833 2:0.1518 3:0.089786 4:0.191157 5:0.148445 6:0.068706 7:0.028199 8:0.05816 9:0.13634 10:0.124669 11:0.122717 12:0.079177 13:0.247161 14:0.247161 15:0.125522 16:0.098097 17:0.089088 18:0.113361 19:0.204097 20:0.212735 21:0.247161 22:0.247161 23:0.176096 24:0.133344 25:0.064247 26:0.060159 27:0.163478 28:0.225123 29:0.145601 30:0.204075 31:0.247161 32:0.247161 33:0.247161 34:0.157413 35:0.093245 36:0.18461 
1 1:0.225589 2:0.269598 3:0.269598 4:0.180666 5:0.069883 6:0.035822 7:0.076196 8:0.043094 9:0.055233 10:0.269598 11:0.269598 12:0.162327 13:0.081146 14:0.041737 15:0.056058 16:0.074259 17:0.079148 18:0.132562 19:0.217513 20:0.2613 21:0.269598 22:0.269598 23:0.051494 24:0.032727 25:0.048218 26:0.039612 27:0.076709 28:0.269598 29:0.240634 30:0.110154 31:0.099045 32:0.107567 33:0.158577 34:0.128314 35:0.11847 36:0.211623 
1 1:0.156683 2:0.110528 3:0.1771 4:0.080804 5:0.110234 6:0.077775 7:0.138972 8:0.147168 9:0.126327 10:0.223471 11:0.271194 12:0.177437 13:0.074576 14:0.059555 15:0.078335 16:0.15158 17:0.184282 18:0.128347 19:0.271194 20:0.271194 21:0.271194 22:0.119666 23:0.110708 24:0.041843 25:0.055397 26:0.087343 27:0.271194 28:0.271194 29:0.271194 30:0.271194 31:0.14801 32:0.095844 33:0.04595 34:0.051301 35:0.047621 36:0.109198 
1 1:0.268636 2:0.231358 3:0.092301 4:0.019038 5:0.010278 6:0.00906 7:0.040744 8:0.04185 9:0.074707 10:0.268636 11:0.268636 12:0.100644 13:0.03945 14:0.00969 15:0.008523 16:0.012652 17:0.023346 18:0.137109 19:0.268636 20:0.268636 21:0.268636 22:0.145581 23:0.058104 24:0.05398 25:0.080208 26:0.157198 27:0.209391 28:0.268636 29:0.268636 30:0.268636 31:0.247307 32:0.070514 33:0.02173 34:0.070776 35:0.138637 36:0.227107 
1 1:0.053214 2:0.026273 3:0.038235 4:0.129228 5:0.131958 6:0.241985 7:0.28088 8:0.28088 9:0.178099 10:0.085726 11:0.038768 12:0.024372 13:0.088321 14:0.108343 15:0.077017 16:0.252921 17:0.1924 18:0.148229 19:0.044918 20:0.028361 21:0.056923 22:0.192901 23:0.28088 24:0.215298 25:0.28088 26:0.265452 27:0.097203 28:0.06923 29:0.055727 30:0.042576 31:0.076688 32:0.164866 33:0.092437 34:0.28088 35:0.28088 36:0.125408 
1 1:0.042472 2:0.033483 3:0.036566 4:0.061106 5:0.079409 6:0.290198 7:0.342384 8:0.245228 9:0.051713 10:0.042517 11:0.035013 12:0.036067 13:0.032428 14:0.043032 15:0.078443 16:0.220309 17:0.07591 18:0.05112 19:0.050145 20:0.016052 21:0.015478 22:0.05371 23:0.157069 24:0.342384 25:0.342384 26:0.283114 27:0.044188 28:0.035733 29:0.012719 30:0.012981 31:0.046413 32:0.179736 33:0.342384 34:0.342384 35:0.168399 36:0.041425 
1 1:0.025351 2:0.002352 3:0.004119 4:0.005344 5:0.09769 6:0.308456 7:0.308456 8:0.308456 9:0.197692 10:0.015397 11:0.004836 12:0.005924 13:0.007948 14:0.026542 15:0.155723 16:0.308456 17:0.308456 18:0.259747 19:0.007841 20:0.006652 21:0.00476 22:0.006816 23:0.098691 24:0.246075 25:0.172883 26:0.173278 27:0.09147 28:0.033352 29:0.015827 30:0.007835 31:0.005873 32:0.023857 33:0.061822 34:0.308456 35:0.308456 36:0.21025 
1 1:0.289901 2:0.086192 3:0.03495 4:0.017801 5:0.083811 6:0.064951 7:0.07409 8:0.169111 9:0.289901 10:0.289901 11:0.289901 12:0.204228 13:0.062277 14:0.07824 15:0.049289 16:0.050892 17:0.122994 18:0.289901 19:0.289901 20:0.055448 21:0.057045 22:0.057416 23:0.069281 24:0.085876 25:0.075632 26:0.161731 27:0.289901 28:0.289901 29:0.224294 30:0.103112 31:0.081656 32:0.067368 33:0.036693 34:0.023577 35:0.060524 36:0.259265 
1 1:0.298161 2:0.193551 3:0.034931 4:0.023052 5:0.026596 6:0.011949 7:0.009213 8:0.081658 9:0.290727 10:0.298161 11:0.216439 12:0.105734 13:0.048356 14:0.029724 15:0.018013 16:0.004027 17:0.026479 18:0.298161 19:0.298161 20:0.264494 21:0.038234 22:0.012492 23:0.012881 24:0.004419 25:0.002516 26:0.071425 27:0.298161 28:0.298161 29:0.298161 30:0.114497 31:0.034203 32:0.009817 33:0.004998 34:0.001617 35:0.030325 36:0.298161 
1 1:0.052832 2:0.014398 3:0.032988 4:0.093279 5:0.173125 6:0.195917 7:0.341137 8:0.307164 9:0.078749 10:0.009167 11:0.009559 12:0.011435 13:0.025001 14:0.031553 15:0.047472 16:0.287188 17:0.092975 18:0.023009 19:0.049568 20:0.024672 21:0.018652 22:0.067605 23:0.243263 24:0.341137 25:0.341137 26:0.216145 27:0.064348 28:0.013428 29:0.005567 30:0.003313 31:0.012575 32:0.118447 33:0.313244 34:0.341137 35:0.148073 36:0.033039 
1 1:0.053521 2:0.155065 3:0.17898 4:0.116041 5:0.121432 6:0.100067 7:0.311178 8:0.311178 9:0.087505 10:0.045709 11:0.097496 12:0.115995 13:0.091448 14:0.050968 15:0.187075 16:0.311178 17:0.290312 18:0.110997 19:0.027041 20:0.020658 21:0.026246 22:0.075645 23:0.072577 24:0.103871 25:0.311178 26:0.272566 27:0.073738 28:0.020512 29:0.005664 30:0.016325 31:0.020457 32:0.062455 33:0.17355 34:0.311178 35:0.311178 36:0.070375 
1 1:0.362132 2:0.141278 3:0.023251 4:0.050101 5:0.052336 6:0.038371 7:0.012209 8:0.019799 9:0.093848 10:0.362132 11:0.23999 12:0.036256 13:0.053647 14:0.049272 15:0.031446 16:0.028621 17:0.107478 18:0.169824 19:0.362132 20:0.30982 21:0.110366 22:0.101256 23:0.066806 24:0.021355 25:0.011465 26:0.016376 27:0.152392 28:0.362132 29:0.362132 30:0.039236 31:0.052667 32:0.039028 33:0.016318 34:0.015142 35:0.007591 36:0.210585 
1 1:0.256917 2:0.069896 3:0.018833 4:0.01547 5:0.02147 6:0.008934 7:0.054514 8:0.290615 9:0.290615 10:0.290615 11:0.094249 12:0.039104 13:0.032592 14:0.025704 15:0.021987 16:0.038589 17:0.220121 18:0.290615 19:0.209666 20:0.051397 21:0.024829 22:0.019642 23:0.045894 24:0.123881 25:0.108861 26:0.290615 27:0.290615 28:0.290615 29:0.127424 30:0.023229 31:0.033593 32:0.026659 33:0.024396 34:0.057479 35:0.290615 36:0.290615 
1 1:0.143175 2:0.137942 3:0.09424 4:0.163548 5:0.173864 6:0.1285 7:0.040574 8:0.029157 9:0.07287 10:0.251215 11:0.251215 12:0.163526 13:0.251215 14:0.13627 15:0.163472 16:0.15779 17:0.030479 18:0.102316 19:0.251215 20:0.248873 21:0.090345 22:0.251215 23:0.112083 24:0.064111 25:0.021563 26:0.064836 27:0.185048 28:0.251215 29:0.251215 30:0.223211 31:0.251215 32:0.251215 33:0.046591 34:0.039868 35:0.024391 36:0.107767 
1 1:0.066691 2:0.066166 3:0.055688 4:0.120983 5:0.088249 6:0.037829 7:0.068181 8:0.114363 9:0.066029 10:0.185136 11:0.215526 12:0.122562 13:0.138751 14:0.108716 15:0.100612 16:0.206823 17:0.247722 18:0.232466 19:0.103814 20:0.201756 21:0.247722 22:0.175368 23:0.080034 24:0.074011 25:0.117622 26:0.180412 27:0.087372 28:0.167233 29:0.247722 30:0.247722 31:0.171223 32:0.127321 33:0.247722 34:0.247722 35:0.247722 36:0.23388 
1 1:0.09757 2:0.092718 3:0.113931 4:0.255686 5:0.255686 6:0.2449 7:0.255686 8:0.19064 9:0.155435 10:0.130946 11:0.07506 12:0.065465 13:0.119838 14:0.185374 15:0.061618 16:0.168789 17:0.178119 18:0.159285 19:0.017943 20:0.016549 21:0.085127 22:0.255686 23:0.255686 24:0.240471 25:0.248672 26:0.201712 27:0.074065 28:0.056847 29:0.0075 30:0.00647 31:0.032941 32:0.124838 33:0.1424 34:0.255686 35:0.255686 36:0.095433 
0.5330390232064087 1:0.169965 2:0.05883 3:0.068197 4:0.035849 5:0.046864 6:0.045265 7:0.119689 8:0.229486 9:0.311399 10:0.100162 11:0.040261 12:0.061829 13:0.064743 14:0.049562 15:0.048785 16:0.167148 17:0.135789 18:0.230973 19:0.25865 20:0.018984 21:0.014852 22:0.008704 23:0.012638 24:0.0102 25:0.266592 26:0.311399 27:0.311399 28:0.19838 29:0.014856 30:0.013821 31:0.032957 32:0.032039 33:0.023497 34:0.311399 35:0.311399 36:0.311399 
1 1:0.006261 2:0.066235 3:0.312331 4:0.187114 5:0.085973 6:0.02754 7:0.315599 8:0.218038 9:0.016683 10:0.030063 11:0.145534 12:0.204122 13:0.092452 14:0.144055 15:0.120258 16:0.328242 17:0.28791 18:0.020705 19:0.007042 20:0.007576 21:0.079443 22:0.074196 23:0.036282 24:0.081573 25:0.328242 26:0.165636 27:0.016847 28:0.027561 29:0.010298 30:0.023666 31:0.019249 32:0.079205 33:0.289215 34:0.328242 35:0.224145 36:0.02306 
0.1045733809618245 1:0.177264 2:0.203663 3:0.160211 4:0.131197 5:0.126823 6:0.084992 7:0.15564 8:0.092474 9:0.209622 10:0.15354 11:0.175735 12:0.091937 13:0.081414 14:0.109441 15:0.070336 16:0.178092 17:0.154273 18:0.180414 19:0.288264 20:0.256183 21:0.119518 22:0.057673 23:0.041734 24:0.055609 25:0.079771 26:0.137897 27:0.288264 28:0.235634 29:0.21219 30:0.109665 31:0.050244 32:0.090698 33:0.084628 34:0.174531 35:0.288264 36:0.288264 
1 1:0.151178 2:0.066542 3:0.202577 4:0.190382 5:0.23254 6:0.06063 7:0.131004 8:0.204373 9:0.225449 10:0.23254 11:0.146713 12:0.23254 13:0.156648 14:0.183132 15:0.134021 16:0.201542 17:0.214296 18:0.148807 19:0.197906 20:0.07275 21:0.107617 22:0.068913 23:0.057151 24:0.019518 25:0.112833 26:0.23254 27:0.23254 28:0.23254 29:0.04325 30:0.032068 31:0.035062 32:0.045766 33:0.057985 34:0.23254 35:0.23254 36:0.23254 
0.3075731785863249 1:0.018047 2:0.005578 3:0.001279 4:0.005547 5:0.006503 6:0.028647 7:0.366886 8:0.366886 9:0.073027 10:0.008949 11:0.004626 12:0.001368 13:0.008284 14:0.007848 15:0.02251 16:0.345044 17:0.232055 18:0.02722 19:0.004595 20:0.002173 21:0.00192 22:0.007103 23:0.01079 24:0.045998 25:0.366886 26:0.366886 27:0.034708 28:0.004324 29:0.001672 30:0.001428 31:0.008053 32:0.026675 33:0.055513 34:0.366886 35:0.366886 36:0.018183 
1 1:0.158773 2:0.215972 3:0.26129 4:0.217224 5:0.202898 6:0.103385 7:0.26129 8:0.074103 9:0.07468 10:0.119807 11:0.170708 12:0.26129 13:0.161854 14:0.110705 15:0.084383 16:0.26129 17:0.048499 18:0.035312 19:0.075161 20:0.170202 21:0.26129 22:0.16436 23:0.147581 24:0.108573 25:0.26129 26:0.06787 27:0.030864 28:0.047651 29:0.094456 30:0.18287 31:0.092239 32:0.221553 33:0.198672 34:0.26129 35:0.046832 36:0.014114 
1 1:0.065705 2:0.065885 3:0.073632 4:0.181085 5:0.186871 6:0.235888 7:0.319107 8:0.135508 9:0.057558 10:0.109781 11:0.084253 12:0.096002 13:0.053628 14:0.099331 15:0.135024 16:0.317285 17:0.121302 18:0.077983 19:0.03777 20:0.07787 21:0.088181 22:0.289436 23:0.175826 24:0.181341 25:0.319107 26:0.095748 27:0.031971 28:0.100199 29:0.11108 30:0.067889 31:0.078884 32:0.167675 33:0.29454 34:0.319107 35:0.15735 36:0.07443 
1 1:0.253088 2:0.220994 3:0.11024 4:0.066453 5:0.07037 6:0.054079 7:0.080527 8:0.044882 9:0.141276 10:0.274639 11:0.274639 12:0.203406 13:0.092016 14:0.089997 15:0.057381 16:0.041903 17:0.052352 18:0.219891 19:0.274639 20:0.274639 21:0.048354 22:0.06557 23:0.075327 24:0.053566 25:0.213673 26:0.124686 27:0.256973 28:0.274639 29:0.274639 30:0.12996 31:0.131084 32:0.085782 33:0.049056 34:0.039851 35:0.039332 36:0.274639 
1 1:0.217387 2:0.244406 3:0.213178 4:0.122153 5:0.064937 6:0.013671 7:0.07935 8:0.088942 9:0.192837 10:0.12675 11:0.244113 12:0.167141 13:0.067963 14:0.07882 15:0.058648 16:0.187145 17:0.147443 18:0.106389 19:0.16595 20:0.220046 21:0.244406 22:0.244406 23:0.18334 24:0.035871 25:0.146109 26:0.12982 27:0.137768 28:0.114654 29:0.128506 30:0.098647 31:0.110692 32:0.244406 33:0.244406 34:0.244406 35:0.244406 36:0.101825 
1 1:0.057218 2:0.094888 3:0.2189 4:0.165903 5:0.177242 6:0.176981 7:0.288771 8:0.219932 9:0.030508 10:0.00123 11:0.000436 12:0.008155 13:0.052713 14:0.126684 15:0.19617 16:0.288771 17:0.081998 18:0.007233 19:0.029132 20:0.018076 21:0.09945 22:0.215912 23:0.288771 24:0.275823 25:0.288771 26:0.095819 27:0.025456 28:0.002784 29:0 30:0.004297 31:0.053778 32:0.288771 33:0.288771 34:0.288771 35:0.054318 36:0.004807 
1 1:0.243272 2:0.03938 3:0.043937 4:0.031578 5:0.128966 6:0.157751 7:0.059468 8:0.068353 9:0.243272 10:0.243272 11:0.066098 12:0.036089 13:0.023517 14:0.154849 15:0.203661 16:0.16937 17:0.096288 18:0.243272 19:0.197917 20:0.029062 21:0.014526 22:0.021134 23:0.219612 24:0.243272 25:0.147272 26:0.120712 27:0.243272 28:0.243272 29:0.056624 30:0.010639 31:0.014367 32:0.232468 33:0.243272 34:0.243272 35:0.243272 36:0.243272 
1 1:0.27246 2:0.073779 3:0.028182 4:0.063134 5:0.151027 6:0.092231 7:0.115884 8:0.089697 9:0.255566 10:0.27246 11:0.214737 12:0.083447 13:0.042011 14:0.097008 15:0.118834 16:0.27246 17:0.27246 18:0.27246 19:0.070694 20:0.024402 21:0.030864 22:0.069353 23:0.27246 24:0.272371 25:0.130742 26:0.081688 27:0.066511 28:0.109437 29:0.077407 30:0.042905 31:0.063029 32:0.143515 33:0.142443 34:0.27246 35:0.27246 36:0.135275 
1 1:0.097154 2:0.185921 3:0.267146 4:0.230307 5:0.153985 6:0.066266 7:0.026834 8:0.013379 9:0.051398 10:0.041075 11:0.227786 12:0.267146 13:0.267146 14:0.128629 15:0.042606 16:0.052508 17:0.049921 18:0.044129 19:0.066656 20:0.256764 21:0.247819 22:0.13709 23:0.213859 24:0.067841 25:0.037888 26:0.021519 27:0.031931 28:0.235887 29:0.267146 30:0.267146 31:0.078064 32:0.109936 33:0.059666 34:0.192826 35:0.267146 36:0.207145 
1 1:0.27145 2:0.27145 3:0.225083 4:0.258604 5:0.125818 6:0.019461 7:0.146509 8:0.159904 9:0.229513 10:0.27145 11:0.27145 12:0.246255 13:0.102253 14:0.050488 15:0.007748 16:0.133466 17:0.11391 18:0.27145 19:0.23133 20:0.26203 21:0.065851 22:0.095085 23:0.048378 24:0.013139 25:0.131435 26:0.086769 27:0.082465 28:0.059837 29:0.081058 30:0.049476 31:0.044244 32:0.027747 33:0.014831 34:0.27145 35:0.17533 36:0.035618 
1 1:0.134279 2:0.143289 3:0.225118 4:0.069284 5:0.192738 6:0.038015 7:0.009451 8:0.014339 9:0.071486 10:0.28083 11:0.22286 12:0.200634 13:0.049189 14:0.010193 15:0.024253 16:0.0658 17:0.055327 18:0.217112 19:0.275121 20:0.28083 21:0.28083 22:0.159406 23:0.159688 24:0.051847 25:0.015251 26:0.024395 27:0.118838 28:0.28083 29:0.28083 30:0.28083 31:0.088887 32:0.047987 33:0.066513 34:0.09667 35:0.085411 36:0.250782 
1 1:0.025921 2:0.062552 3:0.101169 4:0.091828 5:0.090589 6:0.198668 7:0.314007 8:0.314007 9:0.038701 10:0.034832 11:0.031136 12:0.013829 13:0.019476 14:0.050198 15:0.172625 16:0.314007 17:0.22494 18:0.048329 19:0.027694 20:0.08204 21:0.147561 22:0.050213 23:0.088548 24:0.178455 25:0.314007 26:0.160735 27:0.022301 28:0.017024 29:0.02617 30:0.013389 31:0.018285 32:0.213121 33:0.314007 34:0.314007 35:0.314007 36:0.038819 
1 1:0.042627 2:0.067362 3:0.112214 4:0.239708 5:0.250961 6:0.132116 7:0.326769 8:0.211606 9:0.063189 10:0.016782 11:0.017944 12:0.065619 13:0.200792 14:0.20533 15:0.12795 16:0.320657 17:0.118817 18:0.051711 19:0.057244 20:0.074925 21:0.109262 22:0.103167 23:0.083186 24:0.100792 25:0.326769 26:0.191482 27:0.10326 28:0.040238 29:0.028625 30:0.11409 31:0.245017 32:0.121453 33:0.128479 34:0.326769 35:0.196443 36:0.078757 
1 1:0.017821 2:0.005139 3:0.010125 4:0.017679 5:0.073511 6:0.229806 7:0.349913 8:0.222864 9:0.024424 10:0.009584 11:0.004167 12:0.00318 13:0.009601 14:0.027279 15:0.078104 16:0.349913 17:0.143036 18:0.009306 19:0.031897 20:0.007277 21:0.015425 22:0.030708 23:0.127922 24:0.267422 25:0.349913 26:0.349913 27:0.061102 28:0.011668 29:0.004985 30:0.002959 31:0.012671 32:0.079766 33:0.186238 34:0.349913 35:0.334491 36:0.018535 
1 1:0.234304 2:0.223824 3:0.134368 4:0.0874 5:0.21238 6:0.109463 7:0.09452 8:0.091706 9:0.112192 10:0.267928 11:0.267928 12:0.124801 13:0.110557 14:0.092459 15:0.034978 16:0.05785 17:0.064638 18:0.217509 19:0.267928 20:0.205048 21:0.190966 22:0.150935 23:0.267928 24:0.206922 25:0.050427 26:0.031554 27:0.131708 28:0.267928 29:0.267928 30:0.077363 31:0.054499 32:0.091006 33:0.02908 34:0.019698 35:0.035275 36:0.267928 
1 1:0.13193 2:0.071214 3:0.114564 4:0.088054 5:0.138808 6:0.132746 7:0.270622 8:0.201251 9:0.186252 10:0.176839 11:0.06887 12:0.061479 13:0.061992 14:0.206862 15:0.243845 16:0.270622 17:0.266843 18:0.257349 19:0.073712 20:0.035956 21:0.129723 22:0.118271 23:0.056918 24:0.059432 25:0.270622 26:0.270622 27:0.113177 28:0.06391 29:0.051961 30:0.033847 31:0.039537 32:0.127145 33:0.12307 34:0.270622 35:0.270622 36:0.14556 
1 1:0.129321 2:0.288265 3:0.198929 4:0.058002 5:0.110132 6:0.015644 7:0.00578 8:0.000486 9:0.059656 10:0.24018 11:0.295402 12:0.295402 13:0.110368 14:0.055696 15:0.003907 16:0.003094 17:0.001591 18:0.072736 19:0.121783 20:0.295402 21:0.295402 22:0.1457 23:0.133096 24:0.032194 25:0.008008 26:0.002107 27:0.026382 28:0.120968 29:0.295402 30:0.295402 31:0.291648 32:0.282403 33:0.027577 34:0.007248 35:0.004451 36:0.024766 
1 1:0.06454 2:0.071816 3:0.102937 4:0.110585 5:0.261879 6:0.233852 7:0.200343 8:0.172948 9:0.123658 10:0.126284 11:0.0795 12:0.118874 13:0.071461 14:0.176655 15:0.083947 16:0.261879 17:0.261879 18:0.248389 19:0.085706 20:0.096644 21:0.118745 22:0.125593 23:0.261879 24:0.173201 25:0.101286 26:0.160662 27:0.191648 28:0.104608 29:0.0638 30:0.033265 31:0.058014 32:0.182235 33:0.040424 34:0.261879 35:0.261879 36:0.261879 
1 1:0.01903 2:0.012946 3:0.067996 4:0.052362 5:0.187717 6:0.268109 7:0.373785 8:0.165607 9:0.027602 10:0.008442 11:0.001134 12:0.010946 13:0.03196 14:0.124336 15:0.173335 16:0.373785 17:0.137407 18:0.012639 19:0.014101 20:0.005058 21:0.012475 22:0.027046 23:0.066244 24:0.164049 25:0.373785 26:0.150903 27:0.03689 28:0.004326 29:0.000841 30:0.021047 31:0.031245 32:0.093 33:0.320393 34:0.373785 35:0.243134 36:0.006657 
1 1:0.032915 2:0.010891 3:0.029363 4:0.061731 5:0.097304 6:0.30357 7:0.322438 8:0.18465 9:0.086751 10:0.021869 11:0.005413 12:0.006547 13:0.011733 14:0.03062 15:0.129248 16:0.322438 17:0.265723 18:0.08951 19:0.013106 20:0.006222 21:0.019118 22:0.019045 23:0.061754 24:0.322438 25:0.322438 26:0.148322 27:0.047388 28:0.012296 29:0.002097 30:0.015608 31:0.008625 32:0.051635 33:0.269192 34:0.322438 35:0.322438 36:0.149355 
1 1:0.094527 2:0.128671 3:0.094014 4:0.074545 5:0.068188 6:0.319418 7:0.319418 8:0.10688 9:0.108472 10:0.217754 11:0.053712 12:0.020789 13:0.026754 14:0.049919 15:0.124997 16:0.319418 17:0.139345 18:0.248746 19:0.031995 20:0.062296 21:0.078964 22:0.123769 23:0.319418 24:0.25336 25:0.319418 26:0.050916 27:0.034071 28:0.050603 29:0.01498 30:0.021017 31:0.046785 32:0.161458 33:0.158233 34:0.319418 35:0.106829 36:0.061003 
1 1:0.018919 2:0.025681 3:0.031635 4:0.089781 5:0.1584 6:0.316302 7:0.316302 8:0.053969 9:0.009273 10:0.053022 11:0.02809 12:0.021765 13:0.05358 14:0.104795 15:0.301847 16:0.316302 17:0.175665 18:0.054892 19:0.006314 20:0.026931 21:0.032031 22:0.122186 23:0.196116 24:0.316302 25:0.316302 26:0.086822 27:0.005106 28:0.031454 29:0.025757 30:0.017206 31:0.07773 32:0.167919 33:0.316302 34:0.316302 35:0.12444 36:0.031834 
1 1:0.067227 2:0.290306 3:0.290306 4:0.18934 5:0.149981 6:0.162804 7:0.290306 8:0.156175 9:0.065706 10:0.056919 11:0.063117 12:0.04893 13:0.037139 14:0.179002 15:0.163585 16:0.290306 17:0.174585 18:0.085856 19:0.132806 20:0.224789 21:0.143694 22:0.041854 23:0.064418 24:0.100759 25:0.290306 26:0.111277 27:0.064487 28:0.061024 29:0.024646 30:0.013421 31:0.021823 32:0.286107 33:0.16193 34:0.290306 35:0.159541 36:0.075999 
1 1:0.283585 2:0.298515 3:0.099628 4:0.013188 5:0.019053 6:0.008759 7:0.0295 8:0.09623 9:0.077035 10:0.211776 11:0.182674 12:0.17317 13:0.115162 14:0.063981 15:0.017207 16:0.073944 17:0.266854 18:0.099959 19:0.298615 20:0.298615 21:0.036223 22:0.001449 23:0.00632 24:0.002406 25:0.026904 26:0.102881 27:0.102164 28:0.298615 29:0.290036 30:0.083406 31:0.066829 32:0.053443 33:0.069038 34:0.215713 35:0.298615 36:0.242617 
1 1:0.108378 2:0.094226 3:0.082115 4:0.050037 5:0.096287 6:0.086437 7:0.084569 8:0.134024 9:0.096067 10:0.16342 11:0.131365 12:0.110812 13:0.053219 14:0.112233 15:0.115388 16:0.102321 17:0.26213 18:0.109225 19:0.283753 20:0.283753 21:0.20725 22:0.070841 23:0.105817 24:0.045551 25:0.034801 26:0.112856 27:0.132749 28:0.283753 29:0.283753 30:0.234314 31:0.042484 32:0.165783 33:0.175726 34:0.283753 35:0.283753 36:0.22166 
0.07709882792609532 1:0.111959 2:0.152514 3:0.125666 4:0.086596 5:0.057236 6:0.033917 7:0.083705 8:0.119843 9:0.07992 10:0.152245 11:0.242083 12:0.112409 13:0.069415 14:0.044247 15:0.083013 16:0.131441 17:0.296418 18:0.067799 19:0.302791 20:0.302791 21:0.17916 22:0.066762 23:0.035711 24:0.030013 25:0.045289 26:0.061077 27:0.074635 28:0.302791 29:0.302791 30:0.172075 31:0.0498 32:0.081322 33:0.203686 34:0.302791 35:0.302791 36:0.086691 
1 1:0.268628 2:0.176939 3:0.080963 4:0.043753 5:0.110956 6:0.103151 7:0.088034 8:0.10445 9:0.268628 10:0.268628 11:0.268628 12:0.115045 13:0.059082 14:0.104329 15:0.055511 16:0.169649 17:0.133247 18:0.266298 19:0.219228 20:0.115632 21:0.102171 22:0.08241 23:0.141694 24:0.113176 25:0.077741 26:0.052978 27:0.243355 28:0.268628 29:0.21357 30:0.062103 31:0.049876 32:0.087384 33:0.07302 34:0.268628 35:0.206568 36:0.218189 
0.92813771179199 1:0.08295 2:0.121111 3:0.264178 4:0.166398 5:0.264178 6:0.049372 7:0.02464 8:0.017131 9:0.028934 10:0.25007 11:0.159134 12:0.192847 13:0.072825 14:0.014869 15:0.003853 16:0.070748 17:0.18747 18:0.193652 19:0.097414 20:0.178352 21:0.264178 22:0.264178 23:0.264178 24:0.083402 25:0.003878 26:0.008098 27:0.030761 28:0.264178 29:0.222326 30:0.264178 31:0.17207 32:0.064106 33:0.057802 34:0.116034 35:0.167795 36:0.264178 
1 1:0.060454 2:0.008347 3:0.028164 4:0.056624 5:0.07433 6:0.027012 7:0.352919 8:0.352919 9:0.17148 10:0.011075 11:0.007875 12:0.011693 13:0.014699 14:0.031985 15:0.060973 16:0.352919 17:0.29754 18:0.056238 19:0.010347 20:0.006415 21:0.014449 22:0.037824 23:0.079749 24:0.045435 25:0.33523 26:0.117244 27:0.025713 28:0.00884 29:0.004862 30:0.006715 31:0.028785 32:0.191162 33:0.288892 34:0.352919 35:0.315584 36:0.018502 
1 1:0.189761 2:0.094041 3:0.025136 4:0.045194 5:0.092402 6:0.059339 7:0.097388 8:0.098043 9:0.128843 10:0.267873 11:0.315401 12:0.057505 13:0.003339 14:0.024067 15:0.076681 16:0.112335 17:0.097868 18:0.158022 19:0.394198 20:0.394198 21:0.032657 22:0.038828 23:0.044767 24:0.024035 25:0.032519 26:0.043246 27:0.150058 28:0.394198 29:0.394198 30:0.078385 31:0.006186 32:0.024464 33:0.028704 34:0.036893 35:0.025167 36:0.104072 
1 1:0.056362 2:0.061985 3:0.206097 4:0.063079 5:0.061693 6:0.089197 7:0.252239 8:0.263446 9:0.116113 10:0.035457 11:0.026477 12:0.032927 13:0.035244 14:0.081832 15:0.065142 16:0.251547 17:0.250392 18:0.10869 19:0.050846 20:0.074408 21:0.171435 22:0.075673 23:0.207931 24:0.199818 25:0.30428 26:0.30428 27:0.110845 28:0.037287 29:0.037199 30:0.034772 31:0.062603 32:0.280323 33:0.169257 34:0.30428 35:0.30428 36:0.089663 
1 1:0.036243 2:0.048666 3:0.056755 4:0.055074 5:0.149078 6:0.292837 7:0.294553 8:0.189953 9:0.047542 10:0.061353 11:0.020779 12:0.017669 13:0.050528 14:0.14627 15:0.179411 16:0.294553 17:0.151526 18:0.068849 19:0.045645 20:0.044038 21:0.047223 22:0.089302 23:0.285665 24:0.211546 25:0.294553 26:0.152449 27:0.050109 28:0.082689 29:0.051841 30:0.034138 31:0.081637 32:0.294553 33:0.294553 34:0.294553 35:0.206084 36:0.075669 
1 1:0.242146 2:0.19066 3:0.072477 4:0.033948 5:0.025514 6:0.021814 7:0.008839 8:0.039108 9:0.100519 10:0.334586 11:0.334586 12:0.087446 13:0.022944 14:0.022495 15:0.012273 16:0.023692 17:0.029436 18:0.134844 19:0.334586 20:0.334586 21:0.049653 22:0.024554 23:0.021612 24:0.013868 25:0.006642 26:0.045631 27:0.334586 28:0.334586 29:0.334586 30:0.170193 31:0.055722 32:0.025647 33:0.014759 34:0.016374 35:0.036095 36:0.173156 
1 1:0.213192 2:0.112648 3:0.18846 4:0.227381 5:0.227381 6:0.176917 7:0.08368 8:0.071169 9:0.151655 10:0.227381 11:0.107184 12:0.082685 13:0.114602 14:0.227381 15:0.221841 16:0.159221 17:0.170472 18:0.227381 19:0.125203 20:0.112355 21:0.223514 22:0.227381 23:0.227381 24:0.104724 25:0.029453 26:0.05765 27:0.158721 28:0.227381 29:0.130706 30:0.086252 31:0.149698 32:0.145964 33:0.092851 34:0.072554 35:0.191223 36:0.227381 
1 1:0.146639 2:0.187447 3:0.25756 4:0.25756 5:0.068684 6:0.004615 7:0.009849 8:0.028024 9:0.121341 10:0.247107 11:0.139452 12:0.222521 13:0.177306 14:0.064631 15:0.033692 16:0.066562 17:0.042778 18:0.233726 19:0.230302 20:0.20598 21:0.25756 22:0.25756 23:0.078646 24:0.033325 25:0.040397 26:0.102999 27:0.208803 28:0.25756 29:0.178994 30:0.159047 31:0.117014 32:0.179625 33:0.090048 34:0.115753 35:0.106552 36:0.25756 
0.1491383293420476 1:0.041495 2:0.216142 3:0.286369 4:0.179903 5:0.158174 6:0.286369 7:0.230177 8:0.225859 9:0.062442 10:0.007527 11:0.040015 12:0.200203 13:0.080872 14:0.04598 15:0.086554 16:0.13297 17:0.21295 18:0.025186 19:0.222771 20:0.286369 21:0.172913 22:0.013074 23:0.036597 24:0.116516 25:0.215085 26:0.286369 27:0.093689 28:0.051659 29:0.087555 30:0.053029 31:0.016019 32:0.032376 33:0.062252 34:0.286369 35:0.286369 36:0.043058 
1 1:0.208762 2:0.146331 3:0.130068 4:0.064854 5:0.027859 6:0.013443 7:0.015952 8:0.044062 9:0.227251 10:0.32321 11:0.15449 12:0.109269 13:0.082962 14:0.033006 15:0.018528 16:0.030641 17:0.054347 18:0.162574 19:0.384335 20:0.119533 21:0.047518 22:0.023022 23:0.007339 24:0.006635 25:0.00497 26:0.04552 27:0.384335 28:0.384335 29:0.23338 30:0.022944 31:0.032957 32:0.009226 33:0.014858 34:0.060672 35:0.078406 36:0.384335 
0.6828582838650512 1:0.203588 2:0.08942 3:0.023075 4:0.014439 5:0.009753 6:0.00942 7:0.006467 8:0.021678 9:0.170885 10:0.162188 11:0.047687 12:0.024005 13:0.01072 14:0.003809 15:0.003373 16:0.004916 17:0.065655 18:0.361869 19:0.361869 20:0.361869 21:0.1667 22:0.046347 23:0.030939 24:0.003364 25:0.002382 26:0.039556 27:0.361869 28:0.361869 29:0.12628 30:0.075947 31:0.029021 32:0.027133 33:0.00126 34:0.002452 35:0.202973 36:0.361869 
1 1:0.258266 2:0.295429 3:0.295429 4:0.027657 5:0.006851 6:0.009836 7:0.011862 8:0.032818 9:0.024642 10:0.295429 11:0.295429 12:0.295429 13:0.036204 14:0.014207 15:0.007703 16:0.017006 17:0.053106 18:0.053503 19:0.295429 20:0.295429 21:0.267682 22:0.059592 23:0.039275 24:0.063554 25:0.059098 26:0.110094 27:0.072992 28:0.228665 29:0.247054 30:0.150486 31:0.040723 32:0.054122 33:0.045643 34:0.123745 35:0.183479 36:0.125591 
1 1:0.148652 2:0.101125 3:0.11611 4:0.091534 5:0.101407 6:0.07343 7:0.304015 8:0.304015 9:0.131304 10:0.165826 11:0.087761 12:0.038077 13:0.10179 14:0.167505 15:0.155278 16:0.304015 17:0.302249 18:0.181325 19:0.043931 20:0.03902 21:0.034749 22:0.01971 23:0.015337 24:0.019595 25:0.304015 26:0.304015 27:0.073594 28:0.046923 29:0.030615 30:0.00728 31:0.044369 32:0.071002 33:0.126363 34:0.304015 35:0.304015 36:0.047115 
1 1:0.165255 2:0.229909 3:0.229909 4:0.170247 5:0.058232 6:0.139503 7:0.070772 8:0.02587 9:0.057488 10:0.229909 11:0.229909 12:0.141406 13:0.123897 14:0.119025 15:0.229909 16:0.229909 17:0.212367 18:0.229909 19:0.113866 20:0.229909 21:0.229909 22:0.169488 23:0.08976 24:0.132276 25:0.053389 26:0.002147 27:0.04502 28:0.140646 29:0.213686 30:0.169838 31:0.142247 32:0.2122 33:0.229909 34:0.208247 35:0.068903 36:0.081169 
1 1:0.140965 2:0.036645 3:0.0799 4:0.079116 5:0.213273 6:0.128513 7:0.280235 8:0.280235 9:0.122411 10:0.144061 11:0.034162 12:0.018408 13:0.073996 14:0.269172 15:0.192902 16:0.280235 17:0.220794 18:0.240704 19:0.040831 20:0.025957 21:0.045782 22:0.038154 23:0.120945 24:0.172251 25:0.280235 26:0.1819 27:0.046821 28:0.0428 29:0.008421 30:0.007915 31:0.015974 32:0.113621 33:0.280235 34:0.280235 35:0.235756 36:0.122054 
1 1:0.117115 2:0.078917 3:0.094402 4:0.091752 5:0.07083 6:0.067096 7:0.101679 8:0.120611 9:0.086611 10:0.174061 11:0.121471 12:0.100953 13:0.097352 14:0.130665 15:0.140479 16:0.12596 17:0.138071 18:0.075996 19:0.284459 20:0.284459 21:0.244622 22:0.111175 23:0.079004 24:0.046468 25:0.093989 26:0.156052 27:0.096379 28:0.284459 29:0.284459 30:0.217106 31:0.0544 32:0.118442 33:0.284144 34:0.284459 35:0.284459 36:0.149353 
1 1:0.249613 2:0.217852 3:0.249613 4:0.249613 5:0.189533 6:0.036225 7:0.040833 8:0.051392 9:0.249613 10:0.249613 11:0.133808 12:0.130871 13:0.10582 14:0.166234 15:0.107161 16:0.078406 17:0.043766 18:0.249613 19:0.249613 20:0.241487 21:0.249613 22:0.108906 23:0.040407 24:0.011936 25:0.054047 26:0.066181 27:0.249613 28:0.249613 29:0.156904 30:0.118219 31:0.028319 32:0.009627 33:0.020173 34:0.093 35:0.043846 36:0.249613 
0.5647642105829259 1:0.053047 2:0.045186 3:0.059135 4:0.057043 5:0.116861 6:0.08966 7:0.333109 8:0.30739 9:0.038952 10:0.15655 11:0.060645 12:0.035924 13:0.035285 14:0.104982 15:0.072751 16:0.333109 17:0.313239 18:0.200339 19:0.036594 20:0.039457 21:0.09215 22:0.092733 23:0.172042 24:0.067701 25:0.333109 26:0.173862 27:0.016108 28:0.030048 29:0.04714 30:0.060839 31:0.056846 32:0.186771 33:0.200967 34:0.333109 35:0.259872 36:0.026649 
1 1:0.100026 2:0.092856 3:0.06556 4:0.102081 5:0.195295 6:0.093885 7:0.211471 8:0.178723 9:0.183361 10:0.160024 11:0.040478 12:0.013549 13:0.041506 14:0.204287 15:0.153882 16:0.261604 17:0.261604 18:0.259232 19:0.145833 20:0.079716 21:0.081286 22:0.075082 23:0.196877 24:0.140708 25:0.177996 26:0.151975 27:0.159342 28:0.150914 29:0.045156 30:0.034737 31:0.051536 32:0.243336 33:0.190702 34:0.261604 35:0.261604 36:0.261604 
-1 1:0.21816 2:0.193432 3:0.20783 4:0.153758 5:0.06824 6:0.172176 7:0.184103 8:0.128297 9:0.21816 10:0.21816 11:0.17014 12:0.184838 13:0.21816 14:0.165307 15:0.157104 16:0.163458 17:0.191049 18:0.203685 19:0.21816 20:0.125098 21:0.191651 22:0.17126 23:0.207875 24:0.08831 25:0.063861 26:0.112469 27:0.21816 28:0.143608 29:0.080144 30:0.08176 31:0.207672 32:0.197388 33:0.057869 34:0.060397 35:0.103216 36:0.143542 
-1 1:0.250983 2:0.242456 3:0.064483 4:0.173213 5:0.250983 6:0.16128 7:0.090204 8:0.103166 9:0.250983 10:0.183749 11:0.055028 12:0.081285 13:0.250983 14:0.250983 15:0.082946 16:0.054671 17:0.070066 18:0.145928 19:0.250983 20:0.173012 21:0.074313 22:0.240416 23:0.250983 24:0.136616 25:0.065103 26:0.066414 27:0.250983 28:0.098499 29:0.030446 30:0.033141 31:0.250983 32:0.250983 33:0.075923 34:0.067882 35:0.033381 36:0.081083 
-1 1:0.140876 2:0.271304 3:0.271304 4:0.271304 5:0.271304 6:0.10517 7:0.024305 8:0.020261 9:0.065222 10:0.140745 11:0.271304 12:0.271304 13:0.152453 14:0.052762 15:0.028748 16:0.004355 17:0.024927 18:0.054317 19:0.197383 20:0.271304 21:0.267292 22:0.264464 23:0.145895 24:0.097058 25:0.075613 26:0.071255 27:0.100196 28:0.167313 29:0.271304 30:0.162352 31:0.050483 32:0.046557 33:0.026319 34:0.045631 35:0.101673 36:0.134023 
-1 1:0.058874 2:0.019993 3:0.023321 4:0.061018 5:0.035251 6:0.065723 7:0.363029 8:0.363029 9:0.090608 10:0.026576 11:0.039218 12:0.019307 13:0.039416 14:0.060934 15:0.082262 16:0.363029 17:0.120586 18:0.022706 19:0.024882 20:0.012349 21:0.051969 22:0.061934 23:0.097365 24:0.214077 25:0.363029 26:0.218042 27:0.043051 28:0.025653 29:0.028525 30:0.034224 31:0.053521 32:0.16238 33:0.363029 34:0.363029 35:0.094549 36:0.034579 
-1 1:0.156478 2:0.032354 3:0.020682 4:0.023025 5:0.016541 6:0.045379 7:0.188979 8:0.198809 9:0.278768 10:0.278768 11:0.278768 12:0.054028 13:0.023306 14:0.020593 15:0.015593 16:0.028407 17:0.076142 18:0.278768 19:0.212243 20:0.032871 21:0.014194 22:0.010955 23:0.0362 24:0.115422 25:0.278768 26:0.278768 27:0.278768 28:0.278768 29:0.275544 30:0.036671 31:0.011405 32:0.047519 33:0.044549 34:0.180661 35:0.087467 36:0.278768 
-1 1:0.077511 2:0.10803 3:0.187623 4:0.084558 5:0.103756 6:0.100664 7:0.258808 8:0.258808 9:0.258808 10:0.026643 11:0.258808 12:0.258808 13:0.115967 14:0.125151 15:0.196163 16:0.236116 17:0.188333 18:0.173593 19:0.04411 20:0.024643 21:0.017725 22:0.070902 23:0.114276 24:0.126518 25:0.224875 26:0.188257 27:0.17818 28:0.03616 29:0.037624 30:0.047081 31:0.06692 32:0.147302 33:0.258808 34:0.258808 35:0.155733 36:0.218796 
-1 1:0.076271 2:0.007903 3:0.044249 4:0.041609 5:0.067475 6:0.135781 7:0.319478 8:0.319478 9:0.139907 10:0.135606 11:0.026086 12:0.070451 13:0.052752 14:0.121045 15:0.187206 16:0.319478 17:0.319478 18:0.132173 19:0.024034 20:0.014967 21:0.025726 22:0.021743 23:0.022532 24:0.080396 25:0.319478 26:0.234324 27:0.074016 28:0.064233 29:0.019177 30:0.02895 31:0.015211 32:0.062977 33:0.230748 34:0.319478 35:0.319478 36:0.064527 
-1 1:0.118746 2:0.25409 3:0.237732 4:0.25409 5:0.192909 6:0.018308 7:0.010336 8:0.010605 9:0.032784 10:0.25409 11:0.25409 12:0.176169 13:0.171003 14:0.083643 15:0.012527 16:0.009107 17:0.037201 18:0.071657 19:0.208496 20:0.25409 21:0.25409 22:0.205277 23:0.1425 24:0.073293 25:0.093495 26:0.082468 27:0.105642 28:0.25409 29:0.25409 30:0.24433 31:0.144757 32:0.106575 33:0.07175 34:0.088112 35:0.175155 36:0.154549 
-1 1:0.100063 2:0.039963 3:0.01424 4:0.011584 5:0.014239 6:0.022386 7:0.330016 8:0.330016 9:0.248844 10:0.064604 11:0.045751 12:0.022731 13:0.0054 14:0.013128 15:0.021347 16:0.327445 17:0.247126 18:0.067014 19:0.059144 20:0.044023 21:0.011522 22:0.02477 23:0.012993 24:0.033251 25:0.330016 26:0.330016 27:0.189167 28:0.020434 29:0.022632 30:0.010826 31:0.019749 32:0.038244 33:0.199632 34:0.330016 35:0.330016 36:0.049469 
-1 1:0.017564 2:0.009497 3:0.030104 4:0.01397 5:0.043957 6:0.193266 7:0.362745 8:0.255498 9:0.04319 10:0.011345 11:0.022265 12:0.045983 13:0.031877 14:0.061687 15:0.175102 16:0.362745 17:0.102644 18:0.037996 19:0.01864 20:0.00438 21:0.01083 22:0.010152 23:0.091052 24:0.300964 25:0.362745 26:0.21277 27:0.050423 28:0.011154 29:0.004876 30:0.010083 31:0.022666 32:0.152546 33:0.362745 34:0.362745 35:0.092375 36:0.022138 
-1 1:0.131273 2:0.05682 3:0.032232 4:0.054446 5:0.075186 6:0.166984 7:0.283893 8:0.283893 9:0.197438 10:0.096937 11:0.057282 12:0.036659 13:0.071411 14:0.122936 15:0.145623 16:0.255365 17:0.186417 18:0.136143 19:0.055525 20:0.05457 21:0.072284 22:0.044536 23:0.081156 24:0.176112 25:0.283893 26:0.241762 27:0.102678 28:0.051588 29:0.064778 30:0.060089 31:0.057752 32:0.283893 33:0.283893 34:0.283893 35:0.283893 36:0.168554 
-0.5906460468732276 1:0.107779 2:0.296247 3:0.326639 4:0.192408 5:0.085601 6:0.035702 7:0.03664 8:0.014395 9:0.050635 10:0.069874 11:0.326639 12:0.326639 13:0.070272 14:0.035636 15:0.007759 16:0.004784 17:0.00488 18:0.024834 19:0.249138 20:0.326639 21:0.326639 22:0.035864 23:0.007175 24:0.00833 25:0.010326 26:0.006178 27:0.064335 28:0.141827 29:0.326639 30:0.326639 31:0.0218 32:0.004925 33:0.003587 34:0.004237 35:0.003666 36:0.02315 
-1 1:0.295832 2:0.327825 3:0.13022 4:0.10099 5:0.086574 6:0.02117 7:0.032307 8:0.019336 9:0.102128 10:0.327825 11:0.327825 12:0.116569 13:0.05632 14:0.055305 15:0.013311 16:0.017777 17:0.020945 18:0.168675 19:0.327825 20:0.327825 21:0.146847 22:0.037785 23:0.069566 24:0.031171 25:0.040936 26:0.032761 27:0.118821 28:0.312781 29:0.327825 30:0.087297 31:0.015665 32:0.016171 33:0.026853 34:0.024462 35:0.030659 36:0.119814 
-1 1:0.191165 2:0.13627 3:0.23543 4:0.205662 5:0.168532 6:0.063172 7:0.132605 8:0.081367 9:0.16622 10:0.086765 11:0.086032 12:0.239286 13:0.239286 14:0.239286 15:0.09683 16:0.079386 17:0.089756 18:0.11718 19:0.239286 20:0.239286 21:0.193612 22:0.167946 23:0.12408 24:0.078642 25:0.189852 26:0.132723 27:0.2234 28:0.21457 29:0.169659 30:0.216251 31:0.147708 32:0.100414 33:0.068749 34:0.1141 35:0.136556 36:0.202825 
-0.983639282494308 1:0.07379 2:0.022869 3:0.009005 4:0.028761 5:0.054221 6:0.082658 7:0.231863 8:0.231863 9:0.167136 10:0.231863 11:0.231863 12:0.188986 13:0.170455 14:0.21094 15:0.231863 16:0.231863 17:0.231863 18:0.175578 19:0.118719 20:0.090657 21:0.032592 22:0.056976 23:0.042285 24:0.073035 25:0.171065 26:0.121695 27:0.096433 28:0.231863 29:0.231863 30:0.174221 31:0.098749 32:0.167462 33:0.218947 34:0.231863 35:0.196083 36:0.18372 
-1 1:0.030985 2:0.015988 3:0.01173 4:0.032766 5:0.14238 6:0.2624 7:0.2995 8:0.13287 9:0.016435 10:0.081338 11:0.061118 12:0.035463 13:0.088613 14:0.2995 15:0.2995 16:0.2995 17:0.137778 18:0.083657 19:0.00923 20:0.00286 21:0.008029 22:0.034245 23:0.131648 24:0.185892 25:0.2995 26:0.08012 27:0.004778 28:0.065671 29:0.021856 30:0.028969 31:0.081782 32:0.2995 33:0.2995 34:0.2995 35:0.212198 36:0.08649 
-1 1:0.284563 2:0.0647 3:0.081488 4:0.039041 5:0.042763 6:0.021104 7:0.020569 8:0.089466 9:0.279206 10:0.284563 11:0.265751 12:0.210833 13:0.013762 14:0.037802 15:0.025658 16:0.022382 17:0.041578 18:0.19661 19:0.284563 20:0.130895 21:0.058256 22:0.021081 23:0.032984 24:0.017705 25:0.03073 26:0.284563 27:0.284563 28:0.284563 29:0.281503 30:0.207239 31:0.036921 32:0.076056 33:0.032042 34:0.021927 35:0.130066 36:0.284563 
-1 1:0.061378 2:0.01375 3:0.017685 4:0.003908 5:0.102269 6:0.261222 7:0.261222 8:0.261222 9:0.14239 10:0.261222 11:0.133121 12:0.032809 13:0.00463 14:0.083563 15:0.261222 16:0.261222 17:0.261222 18:0.261222 19:0.027199 20:0.003844 21:0.002866 22:0.000673 23:0.014563 24:0.10297 25:0.261222 26:0.193251 27:0.072363 28:0.209982 29:0.066765 30:0.022253 31:0.00524 32:0.025091 33:0.117741 34:0.261222 35:0.261222 36:0.261222 
-1 1:0.073378 2:0.049664 3:0.038647 4:0.010993 5:0.074569 6:0.1798 7:0.302289 8:0.302289 9:0.096809 10:0.099068 11:0.05897 12:0.042673 13:0.03407 14:0.10988 15:0.158964 16:0.302289 17:0.229702 18:0.201815 19:0.013889 20:0.04559 21:0.035947 22:0.024065 23:0.133599 24:0.270706 25:0.302289 26:0.155511 27:0.03404 28:0.027401 29:0.039677 30:0.022027 31:0.017189 32:0.300372 33:0.302289 34:0.302289 35:0.17131 36:0.039785 
-1 1:0.045123 2:0.17727 3:0.317518 4:0.141573 5:0.039111 6:0.006771 7:0.004444 8:0.000217 9:0.008102 10:0.1137 11:0.259054 12:0.317518 13:0.214873 14:0.071448 15:0.004711 16:0.020745 17:0.007231 18:0.054383 19:0.16713 20:0.317518 21:0.317518 22:0.146803 23:0.028351 24:0.015537 25:0.011848 26:0.009042 27:0.029582 28:0.317518 29:0.317518 30:0.317518 31:0.131829 32:0.04907 33:0.01463 34:0.048256 35:0.038384 36:0.160426 
-1 1:0.228899 2:0.258324 3:0.193652 4:0.131239 5:0.064738 6:0.034302 7:0.020741 8:0.042042 9:0.080869 10:0.173659 11:0.258324 12:0.258324 13:0.258324 14:0.106072 15:0.064839 16:0.060945 17:0.094242 18:0.087646 19:0.258324 20:0.258324 21:0.183983 22:0.04108 23:0.0705 24:0.050651 25:0.118497 26:0.098194 27:0.219897 28:0.258324 29:0.258324 30:0.214841 31:0.102837 32:0.108917 33:0.098349 34:0.121981 35:0.146226 36:0.216358 
-1 1:0.019228 2:0.002752 3:0.065923 4:0.08944 5:0.103728 6:0.122358 7:0.111129 8:0.271787 9:0.271787 10:0.025262 11:0.024156 12:0.248943 13:0.271787 14:0.256297 15:0.183866 16:0.227906 17:0.271787 18:0.22517 19:0.013827 20:0.003502 21:0.024122 22:0.043809 23:0.067827 24:0.078324 25:0.101308 26:0.247793 27:0.193886 28:0.041453 29:0.006262 30:0.054989 31:0.12015 32:0.10806 33:0.102383 34:0.271787 35:0.271787 36:0.271787 
-1 1:0.031871 2:0.039604 3:0.220845 4:0.042562 5:0.080966 6:0.211067 7:0.054401 8:0.032566 9:0.026266 10:0.222693 11:0.194714 12:0.335967 13:0.110744 14:0.179781 15:0.335967 16:0.166592 17:0.094839 18:0.102191 19:0.026688 20:0.090463 21:0.335967 22:0.081988 23:0.048857 24:0.032181 25:0.008697 26:0.00606 27:0.003795 28:0.201034 29:0.169923 30:0.335967 31:0.114585 32:0.070389 33:0.270314 34:0.182439 35:0.167607 36:0.126086 
-1 1:0.291678 2:0.267061 3:0.118298 4:0.018951 5:0.017039 6:0.016032 7:0.005794 8:0.011689 9:0.035322 10:0.137907 11:0.314254 12:0.314254 13:0.050527 14:0.017865 15:0.007338 16:0.086306 17:0.070202 18:0.068033 19:0.314254 20:0.314254 21:0.078737 22:0.007519 23:0.013929 24:0.015111 25:0.034926 26:0.052678 27:0.137841 28:0.262372 29:0.314254 30:0.314254 31:0.017467 32:0.017016 33:0.00669 34:0.180485 35:0.203546 36:0.139655 
-1 1:0.193755 2:0.034558 3:0.013084 4:0.063271 5:0.141237 6:0.295854 7:0.295854 8:0.254386 9:0.143268 10:0.295854 11:0.210441 12:0.030341 13:0.049833 14:0.057835 15:0.084706 16:0.085359 17:0.086675 18:0.152563 19:0.171921 20:0.02389 21:0.003633 22:0.035313 23:0.145145 24:0.295854 25:0.295854 26:0.122649 27:0.154981 28:0.295854 29:0.130552 30:0.010087 31:0.01404 32:0.062062 33:0.136851 34:0.204816 35:0.102766 36:0.208655 
-1 1:0.002312 2:0.002743 3:0.003424 4:0.008462 5:0.08251 6:0.304663 7:0.340343 8:0.118752 9:0.004069 10:0.008421 11:0.00265 12:0.005251 13:0.008733 14:0.07205 15:0.241432 16:0.340343 17:0.105137 18:0.024308 19:0.005643 20:0.009725 21:0.011268 22:0.017403 23:0.112399 24:0.272874 25:0.340343 26:0.095562 27:0.016357 28:0.008807 29:0.005859 30:0.008037 31:0.038657 32:0.340343 33:0.340343 34:0.340343 35:0.115743 36:0.018296 
-1 1:0.307219 2:0.306605 3:0.017273 4:0.026019 5:0.079211 6:0.061133 7:0.065687 8:0.080238 9:0.162869 10:0.307219 11:0.307219 12:0.077071 13:0.031408 14:0.078948 15:0.043968 16:0.041038 17:0.056307 18:0.175195 19:0.307219 20:0.307219 21:0.013125 22:0.045288 23:0.155415 24:0.163747 25:0.18289 26:0.077325 27:0.153769 28:0.307219 29:0.307219 30:0.059518 31:0.020083 32:0.047748 33:0.040311 34:0.02784 35:0.027895 36:0.132905 
-1 1:0.063542 2:0.111455 3:0.106683 4:0.141556 5:0.273658 6:0.102595 7:0.104527 8:0.028477 9:0.104978 10:0.273658 11:0.195365 12:0.273658 13:0.147316 14:0.273658 15:0.116938 16:0.234024 17:0.167243 18:0.273658 19:0.053933 20:0.099861 21:0.110583 22:0.273658 23:0.273658 24:0.044987 25:0.018278 26:0.002787 27:0.042416 28:0.155781 29:0.120767 30:0.127725 31:0.193815 32:0.238607 33:0.029362 34:0.048943 35:0.082084 36:0.216029 
-1 1:0.05941 2:0.033088 3:0.094661 4:0.230944 5:0.157082 6:0.028344 7:0.042486 8:0.030959 9:0.056877 10:0.073252 11:0.018845 12:0.055174 13:0.263979 14:0.178077 15:0.019107 16:0.088545 17:0.091108 18:0.067037 19:0.100294 20:0.077504 21:0.270713 22:0.270713 23:0.270713 24:0.056406 25:0.15129 26:0.126892 27:0.093183 28:0.270713 29:0.086502 30:0.270713 31:0.270713 32:0.183214 33:0.014087 34:0.270713 35:0.270713 36:0.270713 
-1 1:0.014596 2:0.016731 3:0.027675 4:0.039825 5:0.137387 6:0.308122 7:0.308122 8:0.127898 9:0.055483 10:0.029435 11:0.02038 12:0.004939 13:0.017984 14:0.112207 15:0.201708 16:0.30486 17:0.184385 18:0.087965 19:0.027228 20:0.029549 21:0.041729 22:0.07946 23:0.256095 24:0.308122 25:0.308122 26:0.061817 27:0.061926 28:0.039982 29:0.022118 30:0.011921 31:0.037784 32:0.308122 33:0.308122 34:0.308122 35:0.066704 36:0.102918 
-1 1:0.254831 2:0.122563 3:0.130175 4:0.150554 5:0.254831 6:0.196432 7:0.169616 8:0.086484 9:0.120724 10:0.254831 11:0.254831 12:0.18861 13:0.066652 14:0.164868 15:0.026279 16:0.039593 17:0.092353 18:0.146859 19:0.254831 20:0.148446 21:0.099443 22:0.063362 23:0.254831 24:0.254831 25:0.167009 26:0.0958 27:0.168212 28:0.254831 29:0.254831 30:0.136081 31:0.033029 32:0.05523 33:0.017358 34:0.031113 35:0.067934 36:0.198894 
-1 1:0.048936 2:0.016988 3:0.002681 4:0.001794 5:0.009816 6:0.032782 7:0.337836 8:0.337836 9:0.178048 10:0.019589 11:0.014607 12:0.001865 13:0.004002 14:0.01711 15:0.041528 16:0.337836 17:0.337836 18:0.050612 19:0.020644 20:0.004885 21:0.005964 22:0.015162 23:0.019332 24:0.059581 25:0.337836 26:0.337836 27:0.103747 28:0.017926 29:0.007632 30:0.003344 31:0.013399 32:0.029345 33:0.138603 34:0.337836 35:0.337836 36:0.082175 
-1 1:0.261042 2:0.252838 3:0.054409 4:0.080175 5:0.061605 6:0.088544 7:0.065198 8:0.134026 9:0.16788 10:0.261042 11:0.254174 12:0.116447 13:0.161719 14:0.079269 15:0.103642 16:0.082802 17:0.154468 18:0.261042 19:0.261042 20:0.158187 21:0.036982 22:0.096943 23:0.099782 24:0.088011 25:0.048371 26:0.100423 27:0.216576 28:0.261042 29:0.172328 30:0.064307 31:0.172878 32:0.197773 33:0.203166 34:0.145267 35:0.151966 36:0.261042 
-1 1:0.294008 2:0.294008 3:0.294008 4:0.086015 5:0.016939 6:0.011017 7:0.011045 8:0.032625 9:0.119783 10:0.294008 11:0.294008 12:0.294008 13:0.043073 14:0.0083 15:0.014554 16:0.088692 17:0.109667 18:0.136848 19:0.294008 20:0.294008 21:0.115452 22:0.021861 23:0.014107 24:0.003923 25:0.001493 26:0.022654 27:0.149544 28:0.294008 29:0.294008 30:0.083839 31:0.014228 32:0.009976 33:0.004104 34:0.00593 35:0.033148 36:0.152234 
-1 1:0.270547 2:0.004366 3:0.001629 4:0.00203 5:0.016892 6:0.050672 7:0.274585 8:0.241851 9:0.274585 10:0.274585 11:0.08932 12:0.004367 13:0 14:0.006934 15:0.038562 16:0.051983 17:0.109754 18:0.274585 19:0.248397 20:0.004583 21:0.014833 22:0.03658 23:0.099737 24:0.1022 25:0.236693 26:0.242145 27:0.274585 28:0.274585 29:0.051447 30:0.002878 31:0.000952 32:0.016549 33:0.030998 34:0.1817 35:0.274585 36:0.274585 
-0.1054665558850697 1:0.092345 2:0.004163 3:0.001641 4:0.021523 5:0.348147 6:0.14013 7:0.268092 8:0.118837 9:0.071102 10:0.055893 11:0.00147 12:0.00341 13:0.092678 14:0.348147 15:0.348147 16:0.171974 17:0.109083 18:0.066542 19:0.025009 20:0.006306 21:0.011108 22:0.014719 23:0.094783 24:0.06783 25:0.218245 26:0.076794 27:0.028447 28:0.047878 29:0.003289 30:0.016864 31:0.028942 32:0.348147 33:0.348147 34:0.346416 35:0.129979 36:0.062539 
-0.1888768295941195 1:0.02147 2:0.044152 3:0.069219 4:0.119632 5:0.171476 6:0.036415 7:0.010778 8:0.01718 9:0.036494 10:0.050525 11:0.173907 12:0.186746 13:0.125525 14:0.151803 15:0.124314 16:0.053423 17:0.042425 18:0.107886 19:0.107052 20:0.112938 21:0.130576 22:0.127821 23:0.323865 24:0.291544 25:0.194993 26:0.187646 27:0.170154 28:0.102954 29:0.143601 30:0.174585 31:0.187351 32:0.323865 33:0.323865 34:0.323865 35:0.119686 36:0.170568 
-1 1:0.107382 2:0.066082 3:0.015503 4:0.019648 5:0.030744 6:0.068524 7:0.261653 8:0.261653 9:0.261653 10:0.162128 11:0.062474 12:0.014718 13:0.022804 14:0.080568 15:0.050261 16:0.057025 17:0.210255 18:0.261653 19:0.163935 20:0.191453 21:0.124088 22:0.064157 23:0.104709 24:0.258394 25:0.261653 26:0.184677 27:0.224253 28:0.261653 29:0.110815 30:0.053957 31:0.037096 32:0.09764 33:0.15667 34:0.261653 35:0.210486 36:0.261653 
-1 1:0.042361 2:0.140068 3:0.120876 4:0.047814 5:0.064071 6:0.206919 7:0.315057 8:0.315057 9:0.061931 10:0.045546 11:0.054358 12:0.044138 13:0.051326 14:0.066258 15:0.191858 16:0.315057 17:0.087669 18:0.019382 19:0.021076 20:0.035359 21:0.035914 22:0.025432 23:0.138716 24:0.315057 25:0.315057 26:0.119164 27:0.024668 28:0.02164 29:0.013748 30:0.008472 31:0.040678 32:0.315057 33:0.315057 34:0.315057 35:0.120914 36:0.011818 
-1 1:0.24747 2:0.067489 3:0.017866 4:0.047167 5:0.24162 6:0.207054 7:0.094066 8:0.149337 9:0.093091 10:0.266038 11:0.266038 12:0.010465 13:0.057954 14:0.266038 15:0.160188 16:0.048214 17:0.11855 18:0.231677 19:0.266038 20:0.087241 21:0.063295 22:0.092982 23:0.231178 24:0.167856 25:0.093236 26:0.111591 27:0.087427 28:0.266038 29:0.266038 30:0.034837 31:0.073316 32:0.173975 33:0.157475 34:0.055679 35:0.12429 36:0.2307 
-1 1:0.097244 2:0.175002 3:0.239331 4:0.066196 5:0.24055 6:0.24055 7:0.24055 8:0.091352 9:0.056729 10:0.11058 11:0.09806 12:0.081444 13:0.105036 14:0.217051 15:0.24055 16:0.24055 17:0.135847 18:0.129933 19:0.058891 20:0.170241 21:0.24055 22:0.11001 23:0.183919 24:0.164618 25:0.202788 26:0.076356 27:0.037859 28:0.121497 29:0.116099 30:0.102148 31:0.175771 32:0.24055 33:0.21083 34:0.24055 35:0.145858 36:0.101296 
-1 1:0.050929 2:0.138342 3:0.264903 4:0.153229 5:0.098282 6:0.056422 7:0.025218 8:0.040335 9:0.047448 10:0.136818 11:0.264883 12:0.288815 13:0.19059 14:0.132457 15:0.075282 16:0.046246 17:0.113298 18:0.157136 19:0.164682 20:0.288815 21:0.288815 22:0.233786 23:0.124851 24:0.030936 25:0.018929 26:0.037068 27:0.078268 28:0.231375 29:0.288815 30:0.288815 31:0.245784 32:0.129109 33:0.022813 34:0.020473 35:0.062683 36:0.132489 
-0.5123009910612818 1:0.009364 2:0.013365 3:0.038906 4:0.03878 5:0.046925 6:0.325685 7:0.325685 8:0.158904 9:0.016789 10:0.018157 11:0.022172 12:0.022853 13:0.01957 14:0.060267 15:0.28695 16:0.325685 17:0.055142 18:0.015175 19:0.012635 20:0.020074 21:0.04277 22:0.049983 23:0.128375 24:0.325685 25:0.325685 26:0.038491 27:0.007871 28:0.008482 29:0.012585 30:0.012931 31:0.022681 32:0.325685 33:0.325685 34:0.325685 35:0.047946 36:0.008321 
-1 1:0.179413 2:0.279329 3:0.062564 4:0.147227 5:0.034688 6:0.043971 7:0.083759 8:0.064875 9:0.036766 10:0.302332 11:0.324915 12:0.086948 13:0.042571 14:0.021095 15:0.007037 16:0.002726 17:0.006494 18:0.044144 19:0.324915 20:0.324915 21:0.077566 22:0.051249 23:0.040409 24:0.087044 25:0.324915 26:0.208727 27:0.12757 28:0.324915 29:0.324915 30:0.080804 31:0.024006 32:0.034298 33:0.055679 34:0.116007 35:0.048043 36:0.060902 
-1 1:0.15415 2:0.234615 3:0.258561 4:0.15387 5:0.104424 6:0.273694 7:0.260827 8:0.013414 9:0.050176 10:0.06181 11:0.193561 12:0.149637 13:0.079866 14:0.173762 15:0.273694 16:0.217405 17:0.001278 18:0.015333 19:0.059982 20:0.198221 21:0.273694 22:0.157121 23:0.139177 24:0.273694 25:0.089988 26:0.0152 27:0.041322 28:0.031031 29:0.068648 30:0.062838 31:0.08425 32:0.273694 33:0.273694 34:0.186611 35:0.008069 36:0.022375 
-1 1:0.050087 2:0.011892 3:0.062947 4:0.276271 5:0.276271 6:0.155013 7:0.040966 8:0.067797 9:0.039955 10:0.156728 11:0.046576 12:0.051551 13:0.192142 14:0.276271 15:0.194282 16:0.101195 17:0.22365 18:0.14711 19:0.069136 20:0.022504 21:0.067178 22:0.276271 23:0.276271 24:0.15683 25:0.03306 26:0.033211 27:0.049114 28:0.276271 29:0.106917 30:0.081431 31:0.26436 32:0.276271 33:0.160809 34:0.143645 35:0.126709 36:0.221343 
-1 1:0.02018 2:0.03458 3:0.136845 4:0.26938 5:0.26938 6:0.109941 7:0.027906 8:0.012977 9:0.019541 10:0.104744 11:0.101252 12:0.170812 13:0.26938 14:0.26938 15:0.129466 16:0.103129 17:0.040167 18:0.084065 19:0.082287 20:0.088688 21:0.26938 22:0.26938 23:0.26938 24:0.044676 25:0.056203 26:0.155642 27:0.12529 28:0.11083 29:0.135257 30:0.232728 31:0.26938 32:0.260062 33:0.087916 34:0.104716 35:0.195321 36:0.166225 
-1 1:0.007104 2:0.002981 3:0.000775 4:0.004802 5:0.037735 6:0.303493 7:0.303493 8:0.303493 9:0.168557 10:0.020257 11:0.028811 12:0.066066 13:0.100947 14:0.111165 15:0.12957 16:0.226559 17:0.303493 18:0.193232 19:0.011075 20:0.006819 21:0.001276 22:0.003971 23:0.041678 24:0.142226 25:0.244471 26:0.303493 27:0.12055 28:0.018405 29:0.013081 30:0.030666 31:0.067656 32:0.114241 33:0.222118 34:0.303493 35:0.303493 36:0.154328 
-1 1:0.065083 2:0.01122 3:0.008868 4:0.019607 5:0.035018 6:0.128102 7:0.278273 8:0.278273 9:0.278273 10:0.130425 11:0.036475 12:0.070979 13:0.125521 14:0.21718 15:0.131274 16:0.153411 17:0.278273 18:0.278273 19:0.067735 20:0.011872 21:0.015045 22:0.036827 23:0.100629 24:0.158195 25:0.256226 26:0.278273 27:0.112851 28:0.277583 29:0.071532 30:0.12147 31:0.11123 32:0.14145 33:0.055795 34:0.123305 35:0.278273 36:0.195365 
-1 1:0.016102 2:0.004677 3:0.019265 4:0.076063 5:0.162333 6:0.159229 7:0.305392 8:0.284614 9:0.020835 10:0.03103 11:0.036094 12:0.089768 13:0.1381 14:0.201783 15:0.223995 16:0.305392 17:0.115481 18:0.031227 19:0.10519 20:0.009408 21:0.013522 22:0.069466 23:0.166087 24:0.175778 25:0.305392 26:0.135663 27:0.041277 28:0.195827 29:0.019218 30:0.012492 31:0.054705 32:0.20564 33:0.305392 34:0.305392 35:0.253392 36:0.115474 
-1 1:0.176626 2:0.057713 3:0.094168 4:0.098952 5:0.251141 6:0.152351 7:0.09921 8:0.07021 9:0.146035 10:0.312485 11:0.120065 12:0.036623 13:0.033968 14:0.037973 15:0.011586 16:0.023406 17:0.048024 18:0.149632 19:0.304329 20:0.061331 21:0.11678 22:0.130386 23:0.307935 24:0.244017 25:0.178032 26:0.14732 27:0.254369 28:0.312485 29:0.208913 30:0.024529 31:0.008824 32:0.028016 33:0.031895 34:0.139543 35:0.139834 36:0.312485 
-1 1:0.026878 2:0.009655 3:0.004229 4:0.015776 5:0.093803 6:0.310286 7:0.310286 8:0.310286 9:0.061267 10:0.023501 11:0.006478 12:0.010137 13:0.012543 14:0.081273 15:0.280867 16:0.310286 17:0.196318 18:0.042798 19:0.031006 20:0.020616 21:0.00868 22:0.025967 23:0.136029 24:0.310286 25:0.310286 26:0.045765 27:0.011662 28:0.027346 29:0.015662 30:0.013557 31:0.014589 32:0.246914 33:0.310286 34:0.310286 35:0.028802 36:0.016367 
-1 1:0.027847 2:0.018628 3:0.025155 4:0.025038 5:0.080415 6:0.248324 7:0.340879 8:0.173171 9:0.069789 10:0.028632 11:0.026926 12:0.014225 13:0.012939 14:0.153786 15:0.340879 16:0.340879 17:0.089383 18:0.048374 19:0.076442 20:0.061031 21:0.055108 22:0.068328 23:0.150753 24:0.209858 25:0.206747 26:0.147941 27:0.117663 28:0.034786 29:0.041675 30:0.031949 31:0.05974 32:0.340879 33:0.340879 34:0.311376 35:0.062308 36:0.058707 
-1 1:0.029669 2:0.009476 3:0.014853 4:0.044788 5:0.086637 6:0.047326 7:0.325585 8:0.325585 9:0.260835 10:0.047212 11:0.070517 12:0.290166 13:0.18803 14:0.248813 15:0.08308 16:0.325585 17:0.325585 18:0.117048 19:0.049042 20:0.016077 21:0.008552 22:0.031006 23:0.061072 24:0.030323 25:0.09823 26:0.063113 27:0.046417 28:0.118904 29:0.045735 30:0.035329 31:0.050707 32:0.089099 33:0.027988 34:0.325585 35:0.325585 36:0.132547 
-1 1:0.336091 2:0.075493 3:0.032616 4:0.01822 5:0.006561 6:0.007312 7:0.034236 8:0.068255 9:0.246658 10:0.336091 11:0.294244 12:0.092172 13:0.039231 14:0.019458 15:0.019606 16:0.013803 17:0.016648 18:0.165924 19:0.336091 20:0.054212 21:0.008776 22:0.019137 23:0.053341 24:0.061748 25:0.123578 26:0.101967 27:0.336091 28:0.336091 29:0.286813 30:0.035097 31:0.00583 32:0.00845 33:0.002557 34:0.006219 35:0.017585 36:0.336091 
-1 1:0.094562 2:0.103591 3:0.151333 4:0.234949 5:0.234949 6:0.234949 7:0.087579 8:0.051357 9:0.101912 10:0.113192 11:0.190531 12:0.234949 13:0.158289 14:0.234949 15:0.137426 16:0.159465 17:0.100386 18:0.165411 19:0.109032 20:0.046826 21:0.231974 22:0.234949 23:0.234949 24:0.094679 25:0.065926 26:0.070556 27:0.093266 28:0.097205 29:0.040241 30:0.141055 31:0.20469 32:0.232656 33:0.067686 34:0.234949 35:0.234949 36:0.234949 
-1 1:0.103202 2:0.236632 3:0.074876 4:0.253 5:0.058033 6:0.010337 7:0.00441 8:0.017236 9:0.030606 10:0.25155 11:0.358018 12:0.131239 13:0.175589 14:0.058794 15:0.011715 16:0.044965 17:0.029642 18:0.046754 19:0.358018 20:0.358018 21:0.142706 22:0.113369 23:0.058258 24:0.027672 25:0.005578 26:0.015457 27:0.11627 28:0.358018 29:0.358018 30:0.175353 31:0.059281 32:0.038933 33:0.007435 34:0.00654 35:0.01479 36:0.085299 
-1 1:0.068702 2:0.021919 3:0.164157 4:0.264699 5:0.262289 6:0.022251 7:0.005416 8:0.007902 9:0.054729 10:0.026519 11:0.010094 12:0.198212 13:0.264699 14:0.264699 15:0.050455 16:0.012355 17:0.015172 18:0.018562 19:0.264699 20:0.245744 21:0.264699 22:0.264699 23:0.178159 24:0.027598 25:0.030483 26:0.072904 27:0.182075 28:0.092089 29:0.055876 30:0.264699 31:0.264699 32:0.22824 33:0.115146 34:0.162455 35:0.186733 36:0.135773 
-1 1:0.193124 2:0.26693 3:0.236241 4:0.06684 5:0.057415 6:0.037522 7:0.044494 8:0.035797 9:0.130421 10:0.26693 11:0.26693 12:0.26693 13:0.176417 14:0.095977 15:0.01903 16:0.017451 17:0.044025 18:0.227635 19:0.237739 20:0.26693 21:0.26693 22:0.075909 23:0.036463 24:0.019091 25:0.03208 26:0.067505 27:0.103945 28:0.265608 29:0.26693 30:0.26693 31:0.09543 32:0.042012 33:0.022177 34:0.035658 35:0.107902 36:0.186601 
-0.6247988269252123 1:0.206791 2:0.008899 3:0.001152 4:0.032507 5:0.08419 6:0.21989 7:0.174801 8:0.201399 9:0.287943 10:0.287943 11:0.287943 12:0.038846 13:0.04657 14:0.062385 15:0.06871 16:0.041349 17:0.045197 18:0.224412 19:0.287943 20:0.019692 21:0.005895 22:0.044191 23:0.119502 24:0.100646 25:0.111757 26:0.240354 27:0.287943 28:0.287943 29:0.270858 30:0.032098 31:0.014627 32:0.020268 33:0.035682 34:0.03711 35:0.071902 36:0.287943 
-1 1:0.270435 2:0.097403 3:0.08002 4:0.055831 5:0.033603 6:0.025672 7:0.047857 8:0.270435 9:0.270435 10:0.209602 11:0.186288 12:0.232401 13:0.247867 14:0.083672 15:0.012005 16:0.031516 17:0.270435 18:0.270435 19:0.162262 20:0.06591 21:0.048586 22:0.026958 23:0.046643 24:0.068812 25:0.116227 26:0.270435 27:0.270435 28:0.108462 29:0.10785 30:0.071778 31:0.044324 32:0.07287 33:0.083809 34:0.129416 35:0.270435 36:0.270435 
-1 1:0.314688 2:0.160256 3:0.017976 4:0.013003 5:0.010213 6:0.005742 7:0.016303 8:0.052419 9:0.314688 10:0.314688 11:0.301828 12:0.032372 13:0.002856 14:0.032342 15:0.030057 16:0.038333 17:0.054876 18:0.314688 19:0.314688 20:0.312032 21:0.055951 22:0.019256 23:0.022016 24:0.012793 25:0.01479 26:0.050406 27:0.160036 28:0.314688 29:0.314688 30:0.034881 31:0.002933 32:0.029858 33:0.023297 34:0.056889 35:0.109277 36:0.167402 
-1 1:0.018873 2:0.019031 3:0.020008 4:0.025077 5:0.122705 6:0.198686 7:0.329263 8:0.25826 9:0.019388 10:0.019787 11:0.015539 12:0.016478 13:0.0295 14:0.143361 15:0.179871 16:0.329263 17:0.09962 18:0.029713 19:0.021234 20:0.017157 21:0.02059 22:0.034635 23:0.283551 24:0.251654 25:0.329263 26:0.050841 27:0.015807 28:0.026795 29:0.019359 30:0.01698 31:0.057681 32:0.329263 33:0.329263 34:0.329263 35:0.053702 36:0.029285 
-1 1:0.06981 2:0.018981 3:0.01414 4:0.010688 5:0.020348 6:0.05664 7:0.338131 8:0.338131 9:0.177709 10:0.035379 11:0.014006 12:0.012272 13:0.006331 14:0.007989 15:0.060678 16:0.338131 17:0.273291 18:0.083614 19:0.038198 20:0.013076 21:0.020961 22:0.021864 23:0.033096 24:0.145284 25:0.338131 26:0.338131 27:0.128086 28:0.023347 29:0.009263 30:0.007337 31:0.008129 32:0.028364 33:0.124632 34:0.338131 35:0.338131 36:0.101167 
-1 1:0.104206 2:0.234265 3:0.341506 4:0.133607 5:0.087694 6:0.117745 7:0.150633 8:0.05406 9:0.076057 10:0.088582 11:0.228922 12:0.341506 13:0.203621 14:0.092346 15:0.059849 16:0.104595 17:0.027463 18:0.056002 19:0.131279 20:0.341506 21:0.341506 22:0.158748 23:0.074582 24:0.072434 25:0.055734 26:0.04113 27:0.080341 28:0.100977 29:0.214383 30:0.341506 31:0.140031 32:0.048592 33:0.040454 34:0.041031 35:0.027585 36:0.039463 
-1 1:0.203778 2:0.287691 3:0.150721 4:0.040309 5:0.045394 6:0.08161 7:0.081899 8:0.063344 9:0.140037 10:0.273988 11:0.287691 12:0.287691 13:0.025568 14:0.008882 15:0.026627 16:0.025096 17:0.023037 18:0.128498 19:0.287691 20:0.287691 21:0.20826 22:0.060859 23:0.097225 24:0.114694 25:0.127912 26:0.059556 27:0.156612 28:0.27437 29:0.287691 30:0.287691 31:0.070404 32:0.033836 33:0.022681 34:0.035089 35:0.037874 36:0.141347 
-1 1:0.254959 2:0.306845 3:0.09066 4:0.018982 5:0.014162 6:0.006183 7:0.212899 8:0.220038 9:0.147609 10:0.086296 11:0.191075 12:0.115141 13:0.034836 14:0.017319 15:0.039345 16:0.306845 17:0.306845 18:0.11873 19:0.173856 20:0.181265 21:0.034247 22:0.020996 23:0.024661 24:0.008923 25:0.306845 26:0.276672 27:0.084589 28:0.043488 29:0.061415 30:0.032147 31:0.024162 32:0.036684 33:0.071561 34:0.306845 35:0.306845 36:0.073826 
-1 1:0.199649 2:0.105613 3:0.014063 4:0.080471 5:0.073241 6:0.071854 7:0.076481 8:0.072911 9:0.200834 10:0.306949 11:0.23062 12:0.015568 13:0.069698 14:0.034953 15:0.010815 16:0.020354 17:0.031104 18:0.215737 19:0.306949 20:0.27106 21:0.063685 22:0.042804 23:0.187357 24:0.068368 25:0.045601 26:0.074885 27:0.274348 28:0.306949 29:0.306949 30:0.142418 31:0.084973 32:0.306949 33:0.02432 34:0.016976 35:0.029075 36:0.259348 
-1 1:0.047545 2:0.014551 3:0.022973 4:0.037224 5:0.059605 6:0.07262 7:0.343486 8:0.343486 9:0.077711 10:0.013738 11:0.002904 12:0.002364 13:0.025816 14:0.075662 15:0.111714 16:0.343486 17:0.171272 18:0.030733 19:0.029849 20:0.046963 21:0.041809 22:0.103833 23:0.189392 24:0.11852 25:0.343486 26:0.213106 27:0.029073 28:0.016023 29:0.021589 30:0.035944 31:0.096251 32:0.333466 33:0.225781 34:0.343486 35:0.228886 36:0.020176 
-1 1:0.064738 2:0.231182 3:0.231182 4:0.231182 5:0.231182 6:0.231182 7:0.127823 8:0.028508 9:0.032937 10:0.068248 11:0.175122 12:0.209502 13:0.164457 14:0.231182 15:0.231182 16:0.231182 17:0.148677 18:0.144101 19:0.069645 20:0.231182 21:0.231182 22:0.117977 23:0.173688 24:0.202591 25:0.140691 26:0.01428 27:0.020353 28:0.017067 29:0.045019 30:0.120041 31:0.090147 32:0.224264 33:0.221294 34:0.227433 35:0.053952 36:0.050314 
-1 1:0.278085 2:0.103294 3:0.042671 4:0.004334 5:0.02797 6:0.103899 7:0.278085 8:0.278085 9:0.278085 10:0.278085 11:0.207095 12:0.04117 13:0.017673 14:0.049244 15:0.13358 16:0.278085 17:0.139665 18:0.278085 19:0.039812 20:0.01723 21:0.011026 22:0.012906 23:0.039093 24:0.185262 25:0.278085 26:0.173121 27:0.028472 28:0.060537 29:0.026663 30:0.020494 31:0.022559 32:0.102753 33:0.278085 34:0.278085 35:0.168094 36:0.047213 
-1 1:0.016513 2:0.016106 3:0.030618 4:0.151449 5:0.271686 6:0.271686 7:0.146646 8:0.0293 9:0.016611 10:0.099348 11:0.070815 12:0.083638 13:0.165372 14:0.271686 15:0.271686 16:0.177139 17:0.210365 18:0.161689 19:0.014054 20:0.006554 21:0.045818 22:0.13733 23:0.271686 24:0.195643 25:0.190399 26:0.019766 27:0.016281 28:0.133409 29:0.038629 30:0.146295 31:0.19697 32:0.271686 33:0.271686 34:0.271686 35:0.089106 36:0.157854 
-1 1:0.309474 2:0.150636 3:0.006628 4:0.005183 5:0.047385 6:0.117171 7:0.127205 8:0.109385 9:0.309474 10:0.309474 11:0.309474 12:0.017711 13:0.010683 14:0.040904 15:0.06443 16:0.032347 17:0.056815 18:0.309474 19:0.309474 20:0.11415 21:0.010844 22:0.00428 23:0.016 24:0.034928 25:0.062608 26:0.087967 27:0.309474 28:0.309474 29:0.247469 30:0.034771 31:0.025305 32:0.016688 33:0.02001 34:0.056315 35:0.05587 36:0.238629 
-1 1:0.078705 2:0.02516 3:0.140972 4:0.086986 5:0.179981 6:0.066858 7:0.236895 8:0.199145 9:0.089746 10:0.164241 11:0.220672 12:0.273133 13:0.245552 14:0.273133 15:0.125526 16:0.273133 17:0.249415 18:0.172784 19:0.006964 20:0.004025 21:0.020245 22:0.015885 23:0.057578 24:0.055673 25:0.246008 26:0.101948 27:0.015353 28:0.109759 29:0.073053 30:0.115151 31:0.114591 32:0.197702 33:0.182155 34:0.273133 35:0.273133 36:0.105747 
-0.9868511993969259 1:0.300678 2:0.094007 3:0.135911 4:0.110093 5:0.066905 6:0.017954 7:0.027285 8:0.054809 9:0.239102 10:0.083409 11:0.087868 12:0.243273 13:0.236033 14:0.122012 15:0.019488 16:0.009989 17:0.019269 18:0.038077 19:0.300678 20:0.300678 21:0.300678 22:0.1988 23:0.110921 24:0.024227 25:0.055755 26:0.113969 27:0.300678 28:0.112062 29:0.207108 30:0.300678 31:0.242247 32:0.115344 33:0.028237 34:0.020872 35:0.047631 36:0.056518 
-1 1:0.302077 2:0.302077 3:0.254167 4:0.033889 5:0.033533 6:0.015885 7:0.098838 8:0.177049 9:0.302077 10:0.302077 11:0.302077 12:0.302077 13:0.064709 14:0.058192 15:0.034618 16:0.102041 17:0.123768 18:0.170988 19:0.260726 20:0.107999 21:0.058331 22:0.031843 23:0.168315 24:0.077353 25:0.182244 26:0.128616 27:0.186805 28:0.13156 29:0.09175 30:0.121778 31:0.03016 32:0.065758 33:0.054908 34:0.095351 35:0.10736 36:0.07107 
-1 1:0.007376 2:0.005911 3:0.005635 4:0.030452 5:0.155608 6:0.190844 7:0.328248 8:0.245786 9:0.00661 10:0.003979 11:0.002483 12:0.003546 13:0.03601 14:0.178536 15:0.137675 16:0.328248 17:0.128587 18:0.010669 19:0.002691 20:0.001893 21:0.001787 22:0.029344 23:0.272398 24:0.226957 25:0.328248 26:0.099922 27:0.002722 28:0.003683 29:0.002615 30:0.004261 31:0.075266 32:0.328248 33:0.309538 34:0.328248 35:0.169868 36:0.009537 
