svm_type c_svc
kernel_type linear
nr_class 2
total_sv 172
rho 1.26914
label 5 8
probA -1.827
probB 0.0861312
nr_sv 87 85
SV
1 1:0.140876 2:0.271304 3:0.271304 4:0.271304 5:0.271304 6:0.10517 7:0.024305 8:0.020261 9:0.065222 10:0.140745 11:0.271304 12:0.271304 13:0.152453 14:0.052762 15:0.028748 16:0.004355 17:0.024927 18:0.054317 19:0.197383 20:0.271304 21:0.267292 22:0.264464 23:0.145895 24:0.097058 25:0.075613 26:0.071255 27:0.100196 28:0.167313 29:0.271304 30:0.162352 31:0.050483 32:0.046557 33:0.026319 34:0.045631 35:0.101673 36:0.134023 
1 1:0.009857 2:0.04525 3:0.305698 4:0.211296 5:0.253658 6:0.099189 7:0.035034 8:0.030548 9:0.015159 10:0.017302 11:0.088913 12:0.315736 13:0.287655 14:0.307488 15:0.091383 16:0.029774 17:0.040447 18:0.018811 19:0.010869 20:0.149609 21:0.315736 22:0.315736 23:0.169686 24:0.088314 25:0.018929 26:0.026194 27:0.01509 28:0.029533 29:0.144371 30:0.315736 31:0.305678 32:0.088662 33:0.02404 34:0.011766 35:0.017803 36:0.011602 
1 1:0.118746 2:0.25409 3:0.237732 4:0.25409 5:0.192909 6:0.018308 7:0.010336 8:0.010605 9:0.032784 10:0.25409 11:0.25409 12:0.176169 13:0.171003 14:0.083643 15:0.012527 16:0.009107 17:0.037201 18:0.071657 19:0.208496 20:0.25409 21:0.25409 22:0.205277 23:0.1425 24:0.073293 25:0.093495 26:0.082468 27:0.105642 28:0.25409 29:0.25409 30:0.24433 31:0.144757 32:0.106575 33:0.07175 34:0.088112 35:0.175155 36:0.154549 
1 1:0.295832 2:0.327825 3:0.13022 4:0.10099 5:0.086574 6:0.02117 7:0.032307 8:0.019336 9:0.102128 10:0.327825 11:0.327825 12:0.116569 13:0.05632 14:0.055305 15:0.013311 16:0.017777 17:0.020945 18:0.168675 19:0.327825 20:0.327825 21:0.146847 22:0.037785 23:0.069566 24:0.031171 25:0.040936 26:0.032761 27:0.118821 28:0.312781 29:0.327825 30:0.087297 31:0.015665 32:0.016171 33:0.026853 34:0.024462 35:0.030659 36:0.119814 
1 1:0.07379 2:0.022869 3:0.009005 4:0.028761 5:0.054221 6:0.082658 7:0.231863 8:0.231863 9:0.167136 10:0.231863 11:0.231863 12:0.188986 13:0.170455 14:0.21094 15:0.231863 16:0.231863 17:0.231863 18:0.175578 19:0.118719 20:0.090657 21:0.032592 22:0.056976 23:0.042285 24:0.073035 25:0.171065 26:0.121695 27:0.096433 28:0.231863 29:0.231863 30:0.174221 31:0.098749 32:0.167462 33:0.218947 34:0.231863 35:0.196083 36:0.18372 
1 1:0.061378 2:0.01375 3:0.017685 4:0.003908 5:0.102269 6:0.261222 7:0.261222 8:0.261222 9:0.14239 10:0.261222 11:0.133121 12:0.032809 13:0.00463 14:0.083563 15:0.261222 16:0.261222 17:0.261222 18:0.261222 19:0.027199 20:0.003844 21:0.002866 22:0.000673 23:0.014563 24:0.10297 25:0.261222 26:0.193251 27:0.072363 28:0.209982 29:0.066765 30:0.022253 31:0.00524 32:0.025091 33:0.117741 34:0.261222 35:0.261222 36:0.261222 
1 1:0.228899 2:0.258324 3:0.193652 4:0.131239 5:0.064738 6:0.034302 7:0.020741 8:0.042042 9:0.080869 10:0.173659 11:0.258324 12:0.258324 13:0.258324 14:0.106072 15:0.064839 16:0.060945 17:0.094242 18:0.087646 19:0.258324 20:0.258324 21:0.183983 22:0.04108 23:0.0705 24:0.050651 25:0.118497 26:0.098194 27:0.219897 28:0.258324 29:0.258324 30:0.214841 31:0.102837 32:0.108917 33:0.098349 34:0.121981 35:0.146226 36:0.216358 
1 1:0.019228 2:0.002752 3:0.065923 4:0.08944 5:0.103728 6:0.122358 7:0.111129 8:0.271787 9:0.271787 10:0.025262 11:0.024156 12:0.248943 13:0.271787 14:0.256297 15:0.183866 16:0.227906 17:0.271787 18:0.22517 19:0.013827 20:0.003502 21:0.024122 22:0.043809 23:0.067827 24:0.078324 25:0.101308 26:0.247793 27:0.193886 28:0.041453 29:0.006262 30:0.054989 31:0.12015 32:0.10806 33:0.102383 34:0.271787 35:0.271787 36:0.271787 
0.7064935027665406 1:0.071444 2:0.161495 3:0.151514 4:0.090541 5:0.127552 6:0.177808 7:0.290524 8:0.032563 9:0.017465 10:0.08832 11:0.290524 12:0.290524 13:0.031134 14:0.122782 15:0.115623 16:0.056393 17:0.008857 18:0.028437 19:0.048886 20:0.104465 21:0.124388 22:0.038746 23:0.263958 24:0.290524 25:0.290524 26:0.071985 27:0.012613 28:0.092151 29:0.232286 30:0.182032 31:0.04781 32:0.214435 33:0.290524 34:0.290524 35:0.054828 36:0.035302 
1 1:0.056908 2:0.071467 3:0.059069 4:0.01829 5:0.097968 6:0.252543 7:0.188146 8:0.252543 9:0.1461 10:0.062391 11:0.252543 12:0.252543 13:0.206353 14:0.220899 15:0.252543 16:0.160142 17:0.204665 18:0.05984 19:0.183262 20:0.092612 21:0.051442 22:0.01111 23:0.039905 24:0.091698 25:0.101584 26:0.224155 27:0.252543 28:0.156095 29:0.192961 30:0.210249 31:0.045523 32:0.04681 33:0.116962 34:0.153444 35:0.252543 36:0.208195 
1 1:0.032639 2:0.19579 3:0.247582 4:0.066125 5:0.031302 6:0.037976 7:0.031583 8:0.023918 9:0.0304 10:0.045255 11:0.353905 12:0.353905 13:0.140553 14:0.075212 15:0.035648 16:0.009163 17:0.01444 18:0.031523 19:0.152318 20:0.353905 21:0.353905 22:0.086804 23:0.079209 24:0.074509 25:0.076566 26:0.029596 27:0.064717 28:0.081912 29:0.353905 30:0.353905 31:0.168438 32:0.102495 33:0.046349 34:0.012362 35:0.013424 36:0.058448 
1 1:0.294008 2:0.294008 3:0.294008 4:0.086015 5:0.016939 6:0.011017 7:0.011045 8:0.032625 9:0.119783 10:0.294008 11:0.294008 12:0.294008 13:0.043073 14:0.0083 15:0.014554 16:0.088692 17:0.109667 18:0.136848 19:0.294008 20:0.294008 21:0.115452 22:0.021861 23:0.014107 24:0.003923 25:0.001493 26:0.022654 27:0.149544 28:0.294008 29:0.294008 30:0.083839 31:0.014228 32:0.009976 33:0.004104 34:0.00593 35:0.033148 36:0.152234 
1 1:0.270547 2:0.004366 3:0.001629 4:0.00203 5:0.016892 6:0.050672 7:0.274585 8:0.241851 9:0.274585 10:0.274585 11:0.08932 12:0.004367 13:0 14:0.006934 15:0.038562 16:0.051983 17:0.109754 18:0.274585 19:0.248397 20:0.004583 21:0.014833 22:0.03658 23:0.099737 24:0.1022 25:0.236693 26:0.242145 27:0.274585 28:0.274585 29:0.051447 30:0.002878 31:0.000952 32:0.016549 33:0.030998 34:0.1817 35:0.274585 36:0.274585 
1 1:0.02147 2:0.044152 3:0.069219 4:0.119632 5:0.171476 6:0.036415 7:0.010778 8:0.01718 9:0.036494 10:0.050525 11:0.173907 12:0.186746 13:0.125525 14:0.151803 15:0.124314 16:0.053423 17:0.042425 18:0.107886 19:0.107052 20:0.112938 21:0.130576 22:0.127821 23:0.323865 24:0.291544 25:0.194993 26:0.187646 27:0.170154 28:0.102954 29:0.143601 30:0.174585 31:0.187351 32:0.323865 33:0.323865 34:0.323865 35:0.119686 36:0.170568 
1 1:0.107382 2:0.066082 3:0.015503 4:0.019648 5:0.030744 6:0.068524 7:0.261653 8:0.261653 9:0.261653 10:0.162128 11:0.062474 12:0.014718 13:0.022804 14:0.080568 15:0.050261 16:0.057025 17:0.210255 18:0.261653 19:0.163935 20:0.191453 21:0.124088 22:0.064157 23:0.104709 24:0.258394 25:0.261653 26:0.184677 27:0.224253 28:0.261653 29:0.110815 30:0.053957 31:0.037096 32:0.09764 33:0.15667 34:0.261653 35:0.210486 36:0.261653 
1 1:0.24747 2:0.067489 3:0.017866 4:0.047167 5:0.24162 6:0.207054 7:0.094066 8:0.149337 9:0.093091 10:0.266038 11:0.266038 12:0.010465 13:0.057954 14:0.266038 15:0.160188 16:0.048214 17:0.11855 18:0.231677 19:0.266038 20:0.087241 21:0.063295 22:0.092982 23:0.231178 24:0.167856 25:0.093236 26:0.111591 27:0.087427 28:0.266038 29:0.266038 30:0.034837 31:0.073316 32:0.173975 33:0.157475 34:0.055679 35:0.12429 36:0.2307 
1 1:0.014868 2:0.075267 3:0.402526 4:0.174493 5:0.105656 6:0.052807 7:0.019422 8:0.0193 9:0.014396 10:0.019237 11:0.135481 12:0.402526 13:0.209126 14:0.133301 15:0.07825 16:0.016713 17:0.012816 18:0.010643 19:0.070445 20:0.260191 21:0.402526 22:0.174014 23:0.055423 24:0.027615 25:0.180733 26:0.046842 27:0.041891 28:0.023857 29:0.163246 30:0.402526 31:0.186187 32:0.057405 33:0.021156 34:0.011103 35:0.012393 36:0.02058 
1 1:0.088315 2:0.103743 3:0.198225 4:0.136056 5:0.163875 6:0.115204 7:0.079249 8:0.021951 9:0.036224 10:0.169563 11:0.195938 12:0.269558 13:0.12798 14:0.254075 15:0.117266 16:0.093273 17:0.087487 18:0.181458 19:0.133756 20:0.090483 21:0.227998 22:0.175165 23:0.269558 24:0.269558 25:0.062982 26:0.031817 27:0.069826 28:0.077241 29:0.156157 30:0.269558 31:0.230319 32:0.269558 33:0.269558 34:0.106283 35:0.051256 36:0.0987 
1 1:0.007104 2:0.002981 3:0.000775 4:0.004802 5:0.037735 6:0.303493 7:0.303493 8:0.303493 9:0.168557 10:0.020257 11:0.028811 12:0.066066 13:0.100947 14:0.111165 15:0.12957 16:0.226559 17:0.303493 18:0.193232 19:0.011075 20:0.006819 21:0.001276 22:0.003971 23:0.041678 24:0.142226 25:0.244471 26:0.303493 27:0.12055 28:0.018405 29:0.013081 30:0.030666 31:0.067656 32:0.114241 33:0.222118 34:0.303493 35:0.303493 36:0.154328 
1 1:0.065083 2:0.01122 3:0.008868 4:0.019607 5:0.035018 6:0.128102 7:0.278273 8:0.278273 9:0.278273 10:0.130425 11:0.036475 12:0.070979 13:0.125521 14:0.21718 15:0.131274 16:0.153411 17:0.278273 18:0.278273 19:0.067735 20:0.011872 21:0.015045 22:0.036827 23:0.100629 24:0.158195 25:0.256226 26:0.278273 27:0.112851 28:0.277583 29:0.071532 30:0.12147 31:0.11123 32:0.14145 33:0.055795 34:0.123305 35:0.278273 36:0.195365 
0.2387872159685083 1:0.176626 2:0.057713 3:0.094168 4:0.098952 5:0.251141 6:0.152351 7:0.09921 8:0.07021 9:0.146035 10:0.312485 11:0.120065 12:0.036623 13:0.033968 14:0.037973 15:0.011586 16:0.023406 17:0.048024 18:0.149632 19:0.304329 20:0.061331 21:0.11678 22:0.130386 23:0.307935 24:0.244017 25:0.178032 26:0.14732 27:0.254369 28:0.312485 29:0.208913 30:0.024529 31:0.008824 32:0.028016 33:0.031895 34:0.139543 35:0.139834 36:0.312485 
1 1:0.029669 2:0.009476 3:0.014853 4:0.044788 5:0.086637 6:0.047326 7:0.325585 8:0.325585 9:0.260835 10:0.047212 11:0.070517 12:0.290166 13:0.18803 14:0.248813 15:0.08308 16:0.325585 17:0.325585 18:0.117048 19:0.049042 20:0.016077 21:0.008552 22:0.031006 23:0.061072 24:0.030323 25:0.09823 26:0.063113 27:0.046417 28:0.118904 29:0.045735 30:0.035329 31:0.050707 32:0.089099 33:0.027988 34:0.325585 35:0.325585 36:0.132547 
1 1:0.103202 2:0.236632 3:0.074876 4:0.253 5:0.058033 6:0.010337 7:0.00441 8:0.017236 9:0.030606 10:0.25155 11:0.358018 12:0.131239 13:0.175589 14:0.058794 15:0.011715 16:0.044965 17:0.029642 18:0.046754 19:0.358018 20:0.358018 21:0.142706 22:0.113369 23:0.058258 24:0.027672 25:0.005578 26:0.015457 27:0.11627 28:0.358018 29:0.358018 30:0.175353 31:0.059281 32:0.038933 33:0.007435 34:0.00654 35:0.01479 36:0.085299 
1 1:0.193124 2:0.26693 3:0.236241 4:0.06684 5:0.057415 6:0.037522 7:0.044494 8:0.035797 9:0.130421 10:0.26693 11:0.26693 12:0.26693 13:0.176417 14:0.095977 15:0.01903 16:0.017451 17:0.044025 18:0.227635 19:0.237739 20:0.26693 21:0.26693 22:0.075909 23:0.036463 24:0.019091 25:0.03208 26:0.067505 27:0.103945 28:0.265608 29:0.26693 30:0.26693 31:0.09543 32:0.042012 33:0.022177 34:0.035658 35:0.107902 36:0.186601 
1 1:0.110803 2:0.275362 3:0.131253 4:0.223566 5:0.127354 6:0.045481 7:0.026154 8:0.029691 9:0.040048 10:0.213788 11:0.31079 12:0.31079 13:0.241158 14:0.12548 15:0.05672 16:0.006281 17:0.035861 18:0.03816 19:0.31079 20:0.31079 21:0.157159 22:0.062688 23:0.025463 24:0.020382 25:0.01243 26:0.029958 27:0.175787 28:0.31079 29:0.31079 30:0.210072 31:0.043104 32:0.01314 33:0.019649 34:0.011191 35:0.027127 36:0.076973 
1 1:0.314688 2:0.160256 3:0.017976 4:0.013003 5:0.010213 6:0.005742 7:0.016303 8:0.052419 9:0.314688 10:0.314688 11:0.301828 12:0.032372 13:0.002856 14:0.032342 15:0.030057 16:0.038333 17:0.054876 18:0.314688 19:0.314688 20:0.312032 21:0.055951 22:0.019256 23:0.022016 24:0.012793 25:0.01479 26:0.050406 27:0.160036 28:0.314688 29:0.314688 30:0.034881 31:0.002933 32:0.029858 33:0.023297 34:0.056889 35:0.109277 36:0.167402 
0.8512645872567931 1:0.199649 2:0.105613 3:0.014063 4:0.080471 5:0.073241 6:0.071854 7:0.076481 8:0.072911 9:0.200834 10:0.306949 11:0.23062 12:0.015568 13:0.069698 14:0.034953 15:0.010815 16:0.020354 17:0.031104 18:0.215737 19:0.306949 20:0.27106 21:0.063685 22:0.042804 23:0.187357 24:0.068368 25:0.045601 26:0.074885 27:0.274348 28:0.306949 29:0.306949 30:0.142418 31:0.084973 32:0.306949 33:0.02432 34:0.016976 35:0.029075 36:0.259348 
1 1:0.030291 2:0.345692 3:0.345692 4:0.088028 5:0.033885 6:0.010996 7:0.00229 8:0.002646 9:0.013067 10:0.026402 11:0.345692 12:0.345692 13:0.061334 14:0.027434 15:0.007295 16:0.003499 17:0.003959 18:0.008754 19:0.135078 20:0.345692 21:0.345692 22:0.061563 23:0.036307 24:0.005226 25:0.001894 26:0.005658 27:0.111768 28:0.041781 29:0.322245 30:0.345692 31:0.037605 32:0.030285 33:0.015658 34:0.004997 35:0.006799 36:0.019857 
0.04722060971320884 1:0.309474 2:0.150636 3:0.006628 4:0.005183 5:0.047385 6:0.117171 7:0.127205 8:0.109385 9:0.309474 10:0.309474 11:0.309474 12:0.017711 13:0.010683 14:0.040904 15:0.06443 16:0.032347 17:0.056815 18:0.309474 19:0.309474 20:0.11415 21:0.010844 22:0.00428 23:0.016 24:0.034928 25:0.062608 26:0.087967 27:0.309474 28:0.309474 29:0.247469 30:0.034771 31:0.025305 32:0.016688 33:0.02001 34:0.056315 35:0.05587 36:0.238629 
1 1:0.302077 2:0.302077 3:0.254167 4:0.033889 5:0.033533 6:0.015885 7:0.098838 8:0.177049 9:0.302077 10:0.302077 11:0.302077 12:0.302077 13:0.064709 14:0.058192 15:0.034618 16:0.102041 17:0.123768 18:0.170988 19:0.260726 20:0.107999 21:0.058331 22:0.031843 23:0.168315 24:0.077353 25:0.182244 26:0.128616 27:0.186805 28:0.13156 29:0.09175 30:0.121778 31:0.03016 32:0.065758 33:0.054908 34:0.095351 35:0.10736 36:0.07107 
1 1:0.148295 2:0.103831 3:0.053053 4:0.055164 5:0.136787 6:0.099017 7:0.252822 8:0.252822 9:0.165837 10:0.242079 11:0.236196 12:0.149479 13:0.034667 14:0.026561 15:0.031553 16:0.211173 17:0.170404 18:0.168362 19:0.214305 20:0.099403 21:0.035476 22:0.039195 23:0.092553 24:0.198235 25:0.252822 26:0.252822 27:0.168711 28:0.252822 29:0.206779 30:0.117202 31:0.055044 32:0.074586 33:0.115547 34:0.208821 35:0.198551 36:0.212656 
1 1:0.270243 2:0.197727 3:0.026523 4:0.014262 5:0.058648 6:0.036475 7:0.066591 8:0.222483 9:0.270243 10:0.270243 11:0.215479 12:0.027224 13:0.002846 14:0.009965 15:0.013435 16:0.01442 17:0.083084 18:0.270243 19:0.185336 20:0.092726 21:0.10258 22:0.060799 23:0.270243 24:0.154992 25:0.270243 26:0.270243 27:0.270243 28:0.135977 29:0.091538 30:0.032744 31:0.007577 32:0.088003 33:0.11038 34:0.189332 35:0.197465 36:0.236254 
1 1:0.251169 2:0.048605 3:0.032163 4:0.063693 5:0.176983 6:0.251169 7:0.251169 8:0.251169 9:0.212945 10:0.251169 11:0.097127 12:0.056627 13:0.052581 14:0.053036 15:0.089668 16:0.090427 17:0.091222 18:0.228835 19:0.21923 20:0.032173 21:0.015483 22:0.040382 23:0.188219 24:0.251169 25:0.251169 26:0.239871 27:0.248652 28:0.220935 29:0.067591 30:0.072592 31:0.042906 32:0.059946 33:0.139354 34:0.111597 35:0.108823 36:0.251169 
1 1:0.249989 2:0.181794 3:0.216942 4:0.105908 5:0.056393 6:0.090401 7:0.056896 8:0.135203 9:0.249989 10:0.249989 11:0.146089 12:0.249989 13:0.097681 14:0.065693 15:0.135475 16:0.05077 17:0.170935 18:0.249989 19:0.249989 20:0.156977 21:0.202108 22:0.104072 23:0.089423 24:0.069313 25:0.092032 26:0.104654 27:0.249989 28:0.249989 29:0.145567 30:0.249989 31:0.104602 32:0.049186 33:0.022842 34:0.041431 35:0.132957 36:0.249989 
1 1:0.132574 2:0.073779 3:0.112763 4:0.213111 5:0.249362 6:0.21004 7:0.143889 8:0.033421 9:0.083327 10:0.062597 11:0.126806 12:0.249362 13:0.166105 14:0.249362 15:0.035939 16:0.012841 17:0.003933 18:0.011249 19:0.249362 20:0.244352 21:0.235081 22:0.249362 23:0.249362 24:0.249362 25:0.249362 26:0.049212 27:0.152075 28:0.106279 29:0.145842 30:0.249362 31:0.186838 32:0.151764 33:0.044214 34:0.033218 35:0.019882 36:0.01321 
1 1:0.035612 2:0.065645 3:0.298133 4:0.11515 5:0.148426 6:0.100135 7:0.298133 8:0.237171 9:0.038504 10:0.037011 11:0.084839 12:0.298133 13:0.181267 14:0.078357 15:0.051214 16:0.062587 17:0.042166 18:0.019404 19:0.044063 20:0.106723 21:0.298133 22:0.216153 23:0.298133 24:0.190641 25:0.298133 26:0.144689 27:0.014561 28:0.074354 29:0.108215 30:0.298133 31:0.131235 32:0.160208 33:0.096591 34:0.140897 35:0.043033 36:0.035304 
0.3943629222344445 1:0.022243 2:0.11866 3:0.202009 4:0.050998 5:0.073733 6:0.076108 7:0.067934 8:0.040203 9:0.027644 10:0.045525 11:0.29834 12:0.347273 13:0.260224 14:0.086847 15:0.016124 16:0.003642 17:0.013775 18:0.030906 19:0.154453 20:0.347273 21:0.347273 22:0.048243 23:0.11487 24:0.074476 25:0.091971 26:0.113626 27:0.147242 28:0.148247 29:0.347273 30:0.347273 31:0.145317 32:0.060165 33:0.079838 34:0.033005 35:0.020148 36:0.08376 
1 1:0.006063 2:0.093875 3:0.377483 4:0.125005 5:0.096806 6:0.020587 7:0.020271 8:0.014546 9:0.005562 10:0.010545 11:0.36584 12:0.377483 13:0.181703 14:0.128589 15:0.006262 16:0.00435 17:0.000997 18:0.008029 19:0.007714 20:0.303198 21:0.377483 22:0.167206 23:0.084517 24:0.037305 25:0.033383 26:0.01688 27:0.008139 28:0.01343 29:0.21546 30:0.377483 31:0.161593 32:0.066118 33:0.015932 34:0.015366 35:0.005072 36:0.012459 
1 1:0.066631 2:0.113146 3:0.230533 4:0.167313 5:0.184714 6:0.025541 7:0.024699 8:0.018247 9:0.043076 10:0.063009 11:0.220378 12:0.260882 13:0.260882 14:0.247004 15:0.023909 16:0.016574 17:0.00297 18:0.031675 19:0.254927 20:0.260882 21:0.260882 22:0.186929 23:0.149108 24:0.03463 25:0.019039 26:0.028626 27:0.128361 28:0.202152 29:0.260882 30:0.260882 31:0.260882 32:0.260882 33:0.066877 34:0.00457 35:0.056893 36:0.109292 
1 1:0.007179 2:0.098745 3:0.231633 4:0.084295 5:0.069271 6:0.08903 7:0.013487 8:0.005197 9:0.004054 10:0.0094 11:0.152213 12:0.355248 13:0.355248 14:0.22009 15:0.035376 16:0.005324 17:0.007698 18:0.003319 19:0.158938 20:0.355248 21:0.355248 22:0.09467 23:0.068914 24:0.0622 25:0.022929 26:0.00611 27:0.044788 28:0.047011 29:0.355248 30:0.355248 31:0.167214 32:0.081685 33:0.01821 34:0.002012 35:0.006555 36:0.007169 
1 1:0.053803 2:0.111775 3:0.236521 4:0.249682 5:0.257197 6:0.216233 7:0.257197 8:0.058173 9:0.039864 10:0.048023 11:0.183662 12:0.257197 13:0.133076 14:0.119983 15:0.038877 16:0.02807 17:0.0148 18:0.023755 19:0.133075 20:0.11391 21:0.224109 22:0.257197 23:0.257197 24:0.147516 25:0.257197 26:0.193218 27:0.111202 28:0.078571 29:0.1053 30:0.257197 31:0.141862 32:0.145946 33:0.099339 34:0.222526 35:0.071744 36:0.046503 
1 1:0.124979 2:0.242753 3:0.242753 4:0.193628 5:0.111354 6:0.046313 7:0.04522 8:0.023984 9:0.051753 10:0.221255 11:0.242753 12:0.242753 13:0.242753 14:0.105527 15:0.040907 16:0.062671 17:0.054176 18:0.10769 19:0.190326 20:0.217438 21:0.193138 22:0.101132 23:0.115721 24:0.057576 25:0.079106 26:0.231278 27:0.164456 28:0.242753 29:0.160655 30:0.215648 31:0.167099 32:0.155597 33:0.085379 34:0.114086 35:0.229363 36:0.242753 
1 1:0.053823 2:0.070622 3:0.05296 4:0.097976 5:0.234828 6:0.24249 7:0.24249 8:0.099718 9:0.030194 10:0.24249 11:0.24249 12:0.191338 13:0.152577 14:0.08235 15:0.117139 16:0.183423 17:0.084668 18:0.139259 19:0.120331 20:0.091125 21:0.039082 22:0.056535 23:0.080899 24:0.24249 25:0.24249 26:0.175683 27:0.045849 28:0.24249 29:0.24249 30:0.145213 31:0.112059 32:0.073293 33:0.195808 34:0.24249 35:0.196892 36:0.241533 
1 1:0.059957 2:0.32485 3:0.32485 4:0.307565 5:0.104009 6:0.051185 7:0.051795 8:0.02217 9:0.075917 10:0.088067 11:0.32485 12:0.32485 13:0.169208 14:0.053589 15:0.009408 16:0.003034 17:0.010653 18:0.048007 19:0.076182 20:0.32485 21:0.32485 22:0.140577 23:0.029894 24:0.006124 25:0.003685 26:0.005649 27:0.07145 28:0.072588 29:0.23381 30:0.32485 31:0.048144 32:0.016412 33:0.003453 34:0.003432 35:0.008434 36:0.038162 
1 1:0.32908 2:0.173959 3:0.034312 4:0.04426 5:0.061794 6:0.058887 7:0.1533 8:0.106712 9:0.32908 10:0.32908 11:0.042956 12:0.018095 13:0.034255 14:0.028616 15:0.032942 16:0.039098 17:0.0418 18:0.32908 19:0.32908 20:0.134434 21:0.028108 22:0.028138 23:0.023198 24:0.040335 25:0.097016 26:0.092448 27:0.32908 28:0.32908 29:0.051341 30:0.010602 31:0.017419 32:0.017879 33:0.020893 34:0.019044 35:0.048142 36:0.32908 
1 1:0.035767 2:0.225873 3:0.381148 4:0.04903 5:0.034476 6:0.027328 7:0.042188 8:0.029521 9:0.020008 10:0.024983 11:0.344941 12:0.381148 13:0.156235 14:0.093494 15:0.042795 16:0.013873 17:0.002581 18:0.004286 19:0.161668 20:0.274499 21:0.381148 22:0.062984 23:0.058244 24:0.093182 25:0.102742 26:0.040154 27:0.067322 28:0.032232 29:0.240726 30:0.381148 31:0.082066 32:0.021179 33:0.00808 34:0.00953 35:0.000232 36:0.006532 
1 1:0.12243 2:0.099065 3:0.109981 4:0.03921 5:0.02189 6:0.075489 7:0.230178 8:0.269787 9:0.143647 10:0.078699 11:0.194321 12:0.269787 13:0.182079 14:0.057594 15:0.070964 16:0.102808 17:0.142407 18:0.088791 19:0.269787 20:0.269787 21:0.20962 22:0.176515 23:0.184781 24:0.155705 25:0.141813 26:0.151387 27:0.133549 28:0.246543 29:0.269787 30:0.269787 31:0.129404 32:0.064803 33:0.079222 34:0.074701 35:0.120924 36:0.124952 
1 1:0.003769 2:0.034367 3:0.29273 4:0.332001 5:0.115448 6:0.015526 7:0.000359 8:0 9:0.003405 10:0.012843 11:0.128921 12:0.332001 13:0.332001 14:0.151548 15:0.021292 16:0 17:0 18:0.003731 19:0.026629 20:0.099205 21:0.332001 22:0.332001 23:0.209859 24:0.065683 25:0.025973 26:0.002307 27:0.009798 28:0.020395 29:0.111826 30:0.332001 31:0.332001 32:0.108374 33:0.006806 34:0 35:0.000115 36:0.005209 
1 1:0.078734 2:0.033998 3:0.022684 4:0.048517 5:0.09655 6:0.255262 7:0.262039 8:0.262039 9:0.114426 10:0.190295 11:0.191682 12:0.083812 13:0.045301 14:0.067402 15:0.118137 16:0.262039 17:0.262039 18:0.197656 19:0.106785 20:0.04732 21:0.016756 22:0.034275 23:0.046831 24:0.206695 25:0.262039 26:0.247359 27:0.126862 28:0.177206 29:0.188625 30:0.067084 31:0.047088 32:0.04431 33:0.180955 34:0.262039 35:0.262039 36:0.183397 
1 1:0.00659 2:0.144828 3:0.337858 4:0.16287 5:0.194851 6:0.011342 7:0.00462 8:0.006836 9:0.002047 10:0.058785 11:0.337858 12:0.337858 13:0.130037 14:0.113587 15:0.00913 16:0.001079 17:0.004708 18:0.023529 19:0.025497 20:0.337858 21:0.337858 22:0.131748 23:0.169935 24:0.029918 25:0.006265 26:0.012323 27:0.013903 28:0.084724 29:0.329328 30:0.337858 31:0.124701 32:0.084465 33:0.034256 34:0.009623 35:0.018417 36:0.063274 
1 1:0.04637 2:0.2761 3:0.324461 4:0.023857 5:0.01513 6:0.007817 7:0.005381 8:0.002728 9:0.009572 10:0.105326 11:0.324461 12:0.324461 13:0.115006 14:0.03764 15:0.007443 16:0.008885 17:0.031538 18:0.026972 19:0.166442 20:0.324461 21:0.324461 22:0.061439 23:0.067654 24:0.042458 25:0.042036 26:0.019691 27:0.031365 28:0.210544 29:0.324461 30:0.324461 31:0.074044 32:0.201765 33:0.064667 34:0.022418 35:0.09908 36:0.082792 
1 1:0.048616 2:0.068271 3:0.076663 4:0.08213 5:0.051825 6:0.246412 7:0.175873 8:0.100925 9:0.072814 10:0.121948 11:0.246412 12:0.246412 13:0.196871 14:0.05004 15:0.246412 16:0.246412 17:0.24548 18:0.176813 19:0.034206 20:0.040272 21:0.07009 22:0.071395 23:0.076016 24:0.231508 25:0.246412 26:0.170373 27:0.073918 28:0.03569 29:0.113612 30:0.164976 31:0.207066 32:0.181927 33:0.246412 34:0.246412 35:0.243675 36:0.109371 
1 1:0.002967 2:0.181571 3:0.387969 4:0.092803 5:0.057548 6:0.020956 7:0.012232 8:0.006905 9:0.009693 10:0.008986 11:0.302412 12:0.387969 13:0.136704 14:0.050581 15:0.006246 16:0.000761 17:0.000762 18:0.007461 19:0.006212 20:0.373549 21:0.387969 22:0.14343 23:0.050691 24:0.016308 25:0.006412 26:0.007688 27:0.00913 28:0.010005 29:0.264565 30:0.387969 31:0.044026 32:0.016413 33:0.002536 34:0.002554 35:0.002649 36:0.006731 
0.5813823129401052 1:0.062464 2:0.115595 3:0.0508 4:0.048484 5:0.246509 6:0.26332 7:0.262314 8:0.093165 9:0.048871 10:0.076524 11:0.26332 12:0.26332 13:0.153003 14:0.104313 15:0.121029 16:0.095433 17:0.026531 18:0.043224 19:0.060785 20:0.077179 21:0.03157 22:0.055863 23:0.26332 24:0.26332 25:0.26332 26:0.088253 27:0.047771 28:0.084692 29:0.233576 30:0.26332 31:0.223031 32:0.26332 33:0.227985 34:0.128494 35:0.058285 36:0.078474 
1 1:0.154318 2:0.202478 3:0.071642 4:0.017814 5:0.217195 6:0.18765 7:0.200162 8:0.217195 9:0.188129 10:0.217195 11:0.217195 12:0.213423 13:0.097303 14:0.106502 15:0.069753 16:0.155542 17:0.185572 18:0.206381 19:0.090528 20:0.077474 21:0.010003 22:0.044178 23:0.217195 24:0.217195 25:0.203786 26:0.184403 27:0.135586 28:0.217195 29:0.192241 30:0.101491 31:0.08989 32:0.178232 33:0.131405 34:0.184011 35:0.176487 36:0.186253 
1 1:0.153077 2:0.103083 3:0.070256 4:0.082025 5:0.190924 6:0.209611 7:0.197001 8:0.227404 9:0.239431 10:0.171302 11:0.028988 12:0.036681 13:0.08018 14:0.239431 15:0.224758 16:0.239431 17:0.239431 18:0.239431 19:0.239431 20:0.220979 21:0.069809 22:0.07642 23:0.03754 24:0.076802 25:0.101497 26:0.160801 27:0.239431 28:0.189671 29:0.04971 30:0.019955 31:0.058718 32:0.044993 33:0.043016 34:0.165457 35:0.239431 36:0.239431 
1 1:0.006196 2:0.072998 3:0.068667 4:0.054387 5:0.227957 6:0.07746 7:0.012509 8:0.008853 9:0.007432 10:0.032208 11:0.356486 12:0.366961 13:0.053654 14:0.139285 15:0.04974 16:0.012662 17:0.013916 18:0.035923 19:0.046823 20:0.366961 21:0.366961 22:0.07118 23:0.180404 24:0.107254 25:0.030351 26:0.029322 27:0.038494 28:0.076964 29:0.366961 30:0.366961 31:0.097533 32:0.128468 33:0.082191 34:0.046339 35:0.022052 36:0.036332 
1 1:0.159692 2:0.2611 3:0.271238 4:0.165218 5:0.120773 6:0.041551 7:0.097962 8:0.068659 9:0.101174 10:0.094888 11:0.248077 12:0.271238 13:0.271238 14:0.181662 15:0.020863 16:0.024149 17:0.031826 18:0.060563 19:0.271238 20:0.271238 21:0.271238 22:0.098536 23:0.071658 24:0.046159 25:0.189461 26:0.075331 27:0.188862 28:0.116788 29:0.263414 30:0.271238 31:0.162131 32:0.04558 33:0.006652 34:0.009493 35:0.011792 36:0.073088 
1 1:0.267062 2:0.043508 3:0.030955 4:0.003671 5:0.020272 6:0.030865 7:0.049079 8:0.060119 9:0.289707 10:0.289707 11:0.271646 12:0.063344 13:0.003964 14:0.0209 15:0.02643 16:0.03546 17:0.067247 18:0.289707 19:0.227029 20:0.167578 21:0.164081 22:0.018878 23:0.077362 24:0.050083 25:0.093278 26:0.125425 27:0.21846 28:0.289707 29:0.289707 30:0.286167 31:0.044253 32:0.079167 33:0.047603 34:0.116036 35:0.183885 36:0.289707 
1 1:0.025694 2:0.162748 3:0.360157 4:0.105757 5:0.043216 6:0.169705 7:0.093672 8:0.018509 9:0.023644 10:0.044741 11:0.184144 12:0.360157 13:0.235715 14:0.056038 15:0.066523 16:0.047919 17:0.030255 18:0.019159 19:0.157483 20:0.334347 21:0.360157 22:0.169502 23:0.125249 24:0.133381 25:0.100139 26:0.012818 27:0.087389 28:0.063632 29:0.171131 30:0.360157 31:0.176505 32:0.097801 33:0.044204 34:0.033834 35:0.026615 36:0.042083 
1 1:0.070708 2:0.042453 3:0.20318 4:0.096156 5:0.046341 6:0.1469 7:0.208216 8:0.069112 9:0.097212 10:0.097285 11:0.138827 12:0.307264 13:0.166657 14:0.066479 15:0.037783 16:0.08503 17:0.069817 18:0.151815 19:0.307264 20:0.07252 21:0.268995 22:0.194878 23:0.04619 24:0.058874 25:0.115866 26:0.079456 27:0.307264 28:0.307264 29:0.151568 30:0.307264 31:0.157634 32:0.023967 33:0.003934 34:0.052412 35:0.04714 36:0.307264 
1 1:0.020291 2:0.139467 3:0.246238 4:0.246238 5:0.246238 6:0.153934 7:0.14577 8:0.049437 9:0.023247 10:0.026203 11:0.102198 12:0.246238 13:0.216646 14:0.189435 15:0.043675 16:0.019037 17:0.007653 18:0.017467 19:0.051799 20:0.246238 21:0.246238 22:0.226839 23:0.246238 24:0.246238 25:0.246238 26:0.111343 27:0.085384 28:0.089749 29:0.135307 30:0.246238 31:0.148729 32:0.215385 33:0.118898 34:0.172191 35:0.054398 36:0.106701 
1 1:0.00979 2:0.07236 3:0.174442 4:0.116468 5:0.105142 6:0.072822 7:0.075518 8:0.033598 9:0.010577 10:0.012063 11:0.224485 12:0.324504 13:0.324504 14:0.255045 15:0.025384 16:0.015483 17:0.011025 18:0.017092 19:0.149627 20:0.324504 21:0.324504 22:0.089846 23:0.262842 24:0.10119 25:0.094643 26:0.033161 27:0.087321 28:0.058264 29:0.324504 30:0.324504 31:0.154671 32:0.127833 33:0.036273 34:0.022415 35:0.016378 36:0.04707 
1 1:0.213257 2:0.102957 3:0.101551 4:0.167179 5:0.17521 6:0.166829 7:0.188001 8:0.145717 9:0.152886 10:0.243062 11:0.089234 12:0.14811 13:0.107452 14:0.07261 15:0.086142 16:0.24412 17:0.136797 18:0.221057 19:0.24412 20:0.151554 21:0.167555 22:0.14045 23:0.118804 24:0.124301 25:0.147644 26:0.12957 27:0.24412 28:0.24412 29:0.174713 30:0.24412 31:0.145724 32:0.056437 33:0.070715 34:0.117768 35:0.116778 36:0.24412 
1 1:0.00966 2:0.086557 3:0.374062 4:0.374062 5:0.166823 6:0.006344 7:0.006001 8:0.001414 9:0.003748 10:0.008836 11:0.036938 12:0.374062 13:0.374062 14:0.139652 15:0.009414 16:0.002505 17:0.002123 18:0.004988 19:0.011069 20:0.131734 21:0.374062 22:0.374062 23:0.124013 24:0.007265 25:0.010329 26:0.003426 27:0.006275 28:0.017161 29:0.035467 30:0.211817 31:0.138095 32:0.034877 33:0.011405 34:0.011755 35:0.006381 36:0.008395 
1 1:0.21188 2:0.180212 3:0.096844 4:0.036156 5:0.028661 6:0.052189 7:0.043884 8:0.051175 9:0.115179 10:0.249568 11:0.254893 12:0.254893 13:0.134253 14:0.100443 15:0.254893 16:0.225742 17:0.127229 18:0.199243 19:0.09931 20:0.254893 21:0.254893 22:0.128149 23:0.059173 24:0.044097 25:0.05069 26:0.086456 27:0.078326 28:0.254893 29:0.254893 30:0.254893 31:0.254893 32:0.075434 33:0.090423 34:0.060968 35:0.134261 36:0.150157 
1 1:0.02466 2:0.085133 3:0.235509 4:0.229526 5:0.13302 6:0.08033 7:0.123544 8:0.028522 9:0.010644 10:0.010419 11:0.266431 12:0.283582 13:0.283582 14:0.136772 15:0.058862 16:0.003555 17:0.004832 18:0.003015 19:0.110606 20:0.265333 21:0.283582 22:0.184197 23:0.283582 24:0.159794 25:0.283582 26:0.148415 27:0.053712 28:0.068657 29:0.248155 30:0.283582 31:0.161219 32:0.059797 33:0.037368 34:0.013608 35:0.01201 36:0.020182 
1 1:0.2262 2:0.061317 3:0.046124 4:0.01162 5:0.035822 6:0.065288 7:0.071846 8:0.113621 9:0.270858 10:0.153074 11:0.21824 12:0.220009 13:0.048416 14:0.031793 15:0.045558 16:0.146312 17:0.196577 18:0.172024 19:0.270858 20:0.157259 21:0.084152 22:0.064887 23:0.108135 24:0.152024 25:0.196242 26:0.134173 27:0.270858 28:0.270858 29:0.270858 30:0.270858 31:0.053324 32:0.07275 33:0.130356 34:0.161918 35:0.176125 36:0.22817 
1 1:0.191056 2:0.020556 3:0.012349 4:0.007235 5:0.047636 6:0.162826 7:0.262942 8:0.303266 9:0.303266 10:0.303266 11:0.004821 12:0.000907 13:0.002391 14:0.027124 15:0.08842 16:0.115849 17:0.224349 18:0.303266 19:0.14097 20:0.020055 21:0.014569 22:0.013032 23:0.032877 24:0.041056 25:0.10478 26:0.209201 27:0.303266 28:0.294266 29:0.013847 30:0.004242 31:0.010969 32:0.027269 33:0.032324 34:0.064384 35:0.258339 36:0.303266 
1 1:0.197109 2:0.048 3:0.034471 4:0.046883 5:0.100016 6:0.141004 7:0.258149 8:0.232127 9:0.214744 10:0.113861 11:0.084804 12:0.033595 13:0.043413 14:0.093305 15:0.185897 16:0.258149 17:0.145826 18:0.123122 19:0.178307 20:0.030812 21:0.028888 22:0.039694 23:0.123587 24:0.229711 25:0.258149 26:0.258149 27:0.258149 28:0.211542 29:0.124185 30:0.041842 31:0.044799 32:0.107473 33:0.190203 34:0.258149 35:0.196978 36:0.258149 
1 1:0.32246 2:0.047282 3:0.015283 4:0.047956 5:0.110389 6:0.094967 7:0.037735 8:0.044708 9:0.32246 10:0.32246 11:0.062411 12:0.021674 13:0.055206 14:0.105423 15:0.123762 16:0.06796 17:0.035054 18:0.32246 19:0.32246 20:0.08079 21:0.023189 22:0.07059 23:0.112484 24:0.03709 25:0.031975 26:0.046984 27:0.32246 28:0.32246 29:0.056934 30:0.010982 31:0.059724 32:0.066423 33:0.057356 34:0.107176 35:0.201051 36:0.32246 
1 1:0.091625 2:0.040565 3:0.024215 4:0.036776 5:0.121219 6:0.253958 7:0.289453 8:0.289453 9:0.118685 10:0.281743 11:0.025656 12:0.017372 13:0.035327 14:0.096116 15:0.0764 16:0.160098 17:0.138878 18:0.289453 19:0.071065 20:0.016821 21:0.015251 22:0.028369 23:0.071175 24:0.289453 25:0.289453 26:0.197865 27:0.063207 28:0.260942 29:0.014087 30:0.006737 31:0.009313 32:0.038135 33:0.168429 34:0.289453 35:0.114089 36:0.285888 
1 1:0.061604 2:0.127274 3:0.237949 4:0.086254 5:0.034866 6:0.027335 7:0.049218 8:0.045739 9:0.060322 10:0.098691 11:0.260373 12:0.260373 13:0.221067 14:0.057427 15:0.025431 16:0.153808 17:0.149312 18:0.162661 19:0.178963 20:0.207731 21:0.233574 22:0.092258 23:0.101707 24:0.067852 25:0.055882 26:0.040823 27:0.133156 28:0.12236 29:0.206479 30:0.260373 31:0.260373 32:0.260373 33:0.260373 34:0.257437 35:0.136674 36:0.207901 
1 1:0.058011 2:0.008391 3:0.005477 4:0.001263 5:0.014897 6:0.044185 7:0.286411 8:0.286411 9:0.286411 10:0.023473 11:0.014956 12:0.007679 13:0.01554 14:0.033454 15:0.067771 16:0.283247 17:0.286411 18:0.270474 19:0.094748 20:0.029612 21:0.033143 22:0.020065 23:0.044584 24:0.065408 25:0.207609 26:0.286411 27:0.286411 28:0.048132 29:0.024148 30:0.01299 31:0.029566 32:0.069177 33:0.153604 34:0.286411 35:0.286411 36:0.286411 
1 1:0.16946 2:0.110801 3:0.042422 4:0.065162 5:0.023947 6:0.007978 7:0.009964 8:0.009335 9:0.106154 10:0.266523 11:0.270697 12:0.116562 13:0.043053 14:0.051777 15:0.009053 16:0.028195 17:0.016996 18:0.114629 19:0.270697 20:0.270697 21:0.217096 22:0.053407 23:0.124189 24:0.026816 25:0.077725 26:0.055399 27:0.270697 28:0.270697 29:0.270697 30:0.214942 31:0.071188 32:0.270697 33:0.083704 34:0.270697 35:0.204205 36:0.270697 
1 1:0.00987 2:0.080918 3:0.208237 4:0.29045 5:0.293992 6:0.085906 7:0.022457 8:0.010761 9:0.021358 10:0.012242 11:0.127424 12:0.293992 13:0.293992 14:0.293992 15:0.03527 16:0.006836 17:0.005603 18:0.023217 19:0.077317 20:0.267668 21:0.293992 22:0.178757 23:0.2036 24:0.098218 25:0.026427 26:0.013254 27:0.046901 28:0.067572 29:0.207813 30:0.293992 31:0.254247 32:0.176459 33:0.076316 34:0.036007 35:0.008597 36:0.054072 
1 1:0.248805 2:0.275651 3:0.10071 4:0.033903 5:0.04022 6:0.047651 7:0.058226 8:0.150754 9:0.275651 10:0.275651 11:0.254934 12:0.110058 13:0.062005 14:0.052855 15:0.067288 16:0.139757 17:0.187596 18:0.275651 19:0.266133 20:0.203589 21:0.05308 22:0.01928 23:0.038609 24:0.026357 25:0.059893 26:0.105689 27:0.275651 28:0.185627 29:0.129743 30:0.062127 31:0.039564 32:0.056887 33:0.065887 34:0.149888 35:0.275651 36:0.275651 
1 1:0.072592 2:0.263856 3:0.263856 4:0.168269 5:0.187107 6:0.160965 7:0.142554 8:0.051742 9:0.026421 10:0.091297 11:0.263856 12:0.263856 13:0.194115 14:0.09413 15:0.042862 16:0.040406 17:0.033593 18:0.064247 19:0.123968 20:0.263856 21:0.193614 22:0.263856 23:0.263856 24:0.21244 25:0.096791 26:0.047193 27:0.022775 28:0.071775 29:0.263856 30:0.263856 31:0.231359 32:0.124012 33:0.054598 34:0.028915 35:0.016799 36:0.026962 
1 1:0.295188 2:0.117429 3:0.0106 4:0.02532 5:0.027504 6:0.024613 7:0.088563 8:0.120508 9:0.295188 10:0.295188 11:0.295188 12:0.166067 13:0.128279 14:0.095714 15:0.042678 16:0.060724 17:0.048639 18:0.145429 19:0.295188 20:0.233327 21:0.053446 22:0.032512 23:0.101277 24:0.050957 25:0.067898 26:0.116722 27:0.295188 28:0.295188 29:0.295188 30:0.158419 31:0.08356 32:0.048135 33:0.069535 34:0.066517 35:0.069104 36:0.203962 
1 1:0.094927 2:0.037197 3:0.019012 4:0.020581 5:0.048833 6:0.102421 7:0.281021 8:0.281021 9:0.281021 10:0.17736 11:0.026488 12:0.019439 13:0.026652 14:0.080055 15:0.149133 16:0.281021 17:0.281021 18:0.281021 19:0.052623 20:0.030979 21:0.024947 22:0.034816 23:0.067625 24:0.138172 25:0.281021 26:0.24231 27:0.089297 28:0.072262 29:0.025165 30:0.043681 31:0.060342 32:0.146784 33:0.211897 34:0.281021 35:0.281021 36:0.163463 
1 1:0.147545 2:0.214712 3:0.252666 4:0.107019 5:0.079953 6:0.044901 7:0.034033 8:0.029116 9:0.072057 10:0.117637 11:0.257085 12:0.257085 13:0.187026 14:0.055579 15:0.008358 16:0.012708 17:0.016322 18:0.031965 19:0.257085 20:0.257085 21:0.257085 22:0.054742 23:0.175492 24:0.202722 25:0.08117 26:0.122087 27:0.233195 28:0.257085 29:0.21993 30:0.257085 31:0.093396 32:0.257085 33:0.164873 34:0.042951 35:0.07092 36:0.120746 
1 1:0.045918 2:0.070871 3:0.157808 4:0.076018 5:0.087042 6:0.24227 7:0.266612 8:0.22187 9:0.048572 10:0.040049 11:0.266612 12:0.266612 13:0.074873 14:0.055338 15:0.099819 16:0.109969 17:0.095703 18:0.050102 19:0.082289 20:0.102516 21:0.168139 22:0.244062 23:0.244422 24:0.266612 25:0.266612 26:0.194214 27:0.045665 28:0.040765 29:0.142343 30:0.266612 31:0.199463 32:0.232439 33:0.189573 34:0.082109 35:0.085854 36:0.02689 
0.4916472190270357 1:0.021944 2:0.273153 3:0.323842 4:0.029971 5:0.05824 6:0.0819 7:0.16966 8:0.10559 9:0.049756 10:0.033688 11:0.323842 12:0.323842 13:0.124275 14:0.065241 15:0.025949 16:0.043806 17:0.021495 18:0.018601 19:0.124193 20:0.323842 21:0.323842 22:0.115877 23:0.081972 24:0.077564 25:0.095811 26:0.06357 27:0.10819 28:0.053822 29:0.323842 30:0.323842 31:0.183146 32:0.077109 33:0.015846 34:0.017207 35:0.013591 36:0.016843 
1 1:0.033689 2:0.128735 3:0.168403 4:0.07477 5:0.01744 6:0.0054 7:0.00452 8:0.003826 9:0.030911 10:0.254232 11:0.25054 12:0.254232 13:0.186175 14:0.065789 15:0.025338 16:0.026698 17:0.032237 18:0.169467 19:0.208116 20:0.254232 21:0.254232 22:0.236733 23:0.190007 24:0.088747 25:0.027651 26:0.044577 27:0.068835 28:0.254232 29:0.254232 30:0.254232 31:0.22366 32:0.220351 33:0.162159 34:0.118466 35:0.091892 36:0.246965 
1 1:0.144107 2:0.293152 3:0.212109 4:0.051296 5:0.010351 6:0.010556 7:0.007805 8:0.023084 9:0.028307 10:0.160788 11:0.314712 12:0.314712 13:0.127387 14:0.016734 15:0.003837 16:0.004714 17:0.02534 18:0.058067 19:0.28749 20:0.314712 21:0.314712 22:0.155285 23:0.045367 24:0.027013 25:0.011569 26:0.023839 27:0.046725 28:0.194305 29:0.314712 30:0.314712 31:0.217203 32:0.02939 33:0.012689 34:0.005421 35:0.028286 36:0.031916 
1 1:0.345963 2:0.130366 3:0.076897 4:0.097875 5:0.061845 6:0.020966 7:0.016669 8:0.027103 9:0.198105 10:0.345963 11:0.222284 12:0.056458 13:0.054781 14:0.085691 15:0.059219 16:0.100465 17:0.061177 18:0.304734 19:0.345963 20:0.150782 21:0.040641 22:0.034089 23:0.145833 24:0.024056 25:0.00353 26:0.037484 27:0.250774 28:0.345963 29:0.166831 30:0.032269 31:0.057088 32:0.212734 33:0.033758 34:0.013181 35:0.035221 36:0.275646 
0.6941536827893926 1:0.214838 2:0.153354 3:0.10669 4:0.001246 5:0.006189 6:0.005488 7:0.014171 8:0.071088 9:0.254778 10:0.254778 11:0.254778 12:0.254778 13:0.003995 14:0.019014 15:0.031187 16:0.017806 17:0.032541 18:0.23974 19:0.254778 20:0.254778 21:0.254778 22:0.009292 23:0.023508 24:0.054791 25:0.056572 26:0.116305 27:0.254778 28:0.254778 29:0.254778 30:0.254778 31:0.013217 32:0.06146 33:0.113459 34:0.078405 35:0.169077 36:0.254778 
-1 1:0.27289 2:0.123509 3:0.096407 4:0.042126 5:0.009073 6:0.005259 7:0.012012 8:0.022532 9:0.154081 10:0.278783 11:0.211211 12:0.228573 13:0.119084 14:0.035396 15:0.082798 16:0.093024 17:0.0304 18:0.198597 19:0.278783 20:0.268025 21:0.188748 22:0.081458 23:0.067679 24:0.047889 25:0.048748 26:0.097446 27:0.278783 28:0.278783 29:0.278783 30:0.278783 31:0.113548 32:0.072555 33:0.125739 34:0.118436 35:0.048064 36:0.232992 
-1 1:0.21816 2:0.193432 3:0.20783 4:0.153758 5:0.06824 6:0.172176 7:0.184103 8:0.128297 9:0.21816 10:0.21816 11:0.17014 12:0.184838 13:0.21816 14:0.165307 15:0.157104 16:0.163458 17:0.191049 18:0.203685 19:0.21816 20:0.125098 21:0.191651 22:0.17126 23:0.207875 24:0.08831 25:0.063861 26:0.112469 27:0.21816 28:0.143608 29:0.080144 30:0.08176 31:0.207672 32:0.197388 33:0.057869 34:0.060397 35:0.103216 36:0.143542 
-0.7354685217371676 1:0.179689 2:0.111375 3:0.082008 4:0.050755 5:0.064448 6:0.096197 7:0.030481 8:0.048131 9:0.094425 10:0.034488 11:0.042329 12:0.306731 13:0.306731 14:0.306731 15:0.14764 16:0.028642 17:0.027232 18:0.022935 19:0.220877 20:0.306731 21:0.306731 22:0.06537 23:0.058541 24:0.074 25:0.020612 26:0.048708 27:0.175359 28:0.050465 29:0.306731 30:0.306731 31:0.306731 32:0.173181 33:0.081066 34:0.02757 35:0.032616 36:0.037239 
-1 1:0.077511 2:0.10803 3:0.187623 4:0.084558 5:0.103756 6:0.100664 7:0.258808 8:0.258808 9:0.258808 10:0.026643 11:0.258808 12:0.258808 13:0.115967 14:0.125151 15:0.196163 16:0.236116 17:0.188333 18:0.173593 19:0.04411 20:0.024643 21:0.017725 22:0.070902 23:0.114276 24:0.126518 25:0.224875 26:0.188257 27:0.17818 28:0.03616 29:0.037624 30:0.047081 31:0.06692 32:0.147302 33:0.258808 34:0.258808 35:0.155733 36:0.218796 
-1 1:0.104187 2:0.086762 3:0.096555 4:0.149398 5:0.270084 6:0.25006 7:0.107152 8:0.09645 9:0.07737 10:0.201417 11:0.270084 12:0.270084 13:0.096451 14:0.270084 15:0.18616 16:0.043668 17:0.035417 18:0.134809 19:0.151678 20:0.107125 21:0.155743 22:0.270084 23:0.270084 24:0.18713 25:0.047358 26:0.020522 27:0.13799 28:0.155198 29:0.149999 30:0.123975 31:0.146377 32:0.270084 33:0.132971 34:0.029654 35:0.03088 36:0.15211 
-1 1:0.040989 2:0.174117 3:0.311133 4:0.055878 5:0.010259 6:0.005609 7:0.005153 8:0.004322 9:0.016459 10:0.083374 11:0.311133 12:0.311133 13:0.181325 14:0.067741 15:0.013807 16:0.009228 17:0.008992 18:0.079211 19:0.200903 20:0.311133 21:0.311133 22:0.121297 23:0.070348 24:0.014892 25:0.019275 26:0.032095 27:0.025874 28:0.311133 29:0.311133 30:0.311133 31:0.202751 32:0.144363 33:0.035274 34:0.025221 35:0.080979 36:0.056007 
-1 1:0.159477 2:0.092776 3:0.148696 4:0.226241 5:0.226241 6:0.165581 7:0.09725 8:0.123462 9:0.166394 10:0.204754 11:0.148239 12:0.212346 13:0.141903 14:0.141132 15:0.072717 16:0.075637 17:0.15866 18:0.186118 19:0.116407 20:0.141855 21:0.226241 22:0.226241 23:0.226241 24:0.155812 25:0.088569 26:0.160667 27:0.177572 28:0.130027 29:0.135512 30:0.208081 31:0.148012 32:0.188047 33:0.112244 34:0.109747 35:0.226241 36:0.226241 
-1 1:0.238413 2:0.034726 3:0.060743 4:0.018955 5:0.049693 6:0.112105 7:0.10359 8:0.136629 9:0.269325 10:0.175311 11:0.035056 12:0.08699 13:0.012315 14:0.039906 15:0.066549 16:0.157885 17:0.155481 18:0.251575 19:0.269325 20:0.05343 21:0.078032 22:0.026647 23:0.071635 24:0.148363 25:0.269325 26:0.269325 27:0.269325 28:0.269325 29:0.082718 30:0.133532 31:0.023115 32:0.069771 33:0.113956 34:0.269325 35:0.269325 36:0.269325 
-1 1:0.107779 2:0.296247 3:0.326639 4:0.192408 5:0.085601 6:0.035702 7:0.03664 8:0.014395 9:0.050635 10:0.069874 11:0.326639 12:0.326639 13:0.070272 14:0.035636 15:0.007759 16:0.004784 17:0.00488 18:0.024834 19:0.249138 20:0.326639 21:0.326639 22:0.035864 23:0.007175 24:0.00833 25:0.010326 26:0.006178 27:0.064335 28:0.141827 29:0.326639 30:0.326639 31:0.0218 32:0.004925 33:0.003587 34:0.004237 35:0.003666 36:0.02315 
-1 1:0.151068 2:0.093039 3:0.076168 4:0.033278 5:0.15701 6:0.134928 7:0.343291 8:0.257755 9:0.229867 10:0.116273 11:0.024065 12:0.012422 13:0.010149 14:0.050512 15:0.055306 16:0.343291 17:0.131778 18:0.09763 19:0.029815 20:0.023299 21:0.030484 22:0.067656 23:0.214352 24:0.173876 25:0.343291 26:0.253502 27:0.069473 28:0.009468 29:0.002041 30:0.002544 31:0.00825 32:0.06804 33:0.158016 34:0.343291 35:0.308418 36:0.026359 
-1 1:0.191165 2:0.13627 3:0.23543 4:0.205662 5:0.168532 6:0.063172 7:0.132605 8:0.081367 9:0.16622 10:0.086765 11:0.086032 12:0.239286 13:0.239286 14:0.239286 15:0.09683 16:0.079386 17:0.089756 18:0.11718 19:0.239286 20:0.239286 21:0.193612 22:0.167946 23:0.12408 24:0.078642 25:0.189852 26:0.132723 27:0.2234 28:0.21457 29:0.169659 30:0.216251 31:0.147708 32:0.100414 33:0.068749 34:0.1141 35:0.136556 36:0.202825 
-1 1:0.076125 2:0.02003 3:0.042015 4:0.034255 5:0.176188 6:0.278022 7:0.293316 8:0.247941 9:0.085196 10:0.179137 11:0.035725 12:0.023647 13:0.031101 14:0.202712 15:0.147781 16:0.249413 17:0.181976 18:0.19422 19:0.043774 20:0.012741 21:0.02588 22:0.045646 23:0.134667 24:0.199077 25:0.293316 26:0.293316 27:0.043601 28:0.09832 29:0.03541 30:0.018682 31:0.00998 32:0.153578 33:0.194249 34:0.293316 35:0.293316 36:0.112404 
-1 1:0.284563 2:0.0647 3:0.081488 4:0.039041 5:0.042763 6:0.021104 7:0.020569 8:0.089466 9:0.279206 10:0.284563 11:0.265751 12:0.210833 13:0.013762 14:0.037802 15:0.025658 16:0.022382 17:0.041578 18:0.19661 19:0.284563 20:0.130895 21:0.058256 22:0.021081 23:0.032984 24:0.017705 25:0.03073 26:0.284563 27:0.284563 28:0.284563 29:0.281503 30:0.207239 31:0.036921 32:0.076056 33:0.032042 34:0.021927 35:0.130066 36:0.284563 
-1 1:0.153846 2:0.047354 3:0.023005 4:0.049304 5:0.033186 6:0.054099 7:0.260279 8:0.265745 9:0.265745 10:0.191078 11:0.072302 12:0.023639 13:0.062567 14:0.052281 15:0.056515 16:0.265745 17:0.265745 18:0.265745 19:0.074083 20:0.029125 21:0.110818 22:0.09338 23:0.052124 24:0.122719 25:0.23449 26:0.265745 27:0.19503 28:0.117674 29:0.02781 30:0.066111 31:0.08766 32:0.085134 33:0.19214 34:0.265745 35:0.265745 36:0.265745 
-1 1:0.045123 2:0.17727 3:0.317518 4:0.141573 5:0.039111 6:0.006771 7:0.004444 8:0.000217 9:0.008102 10:0.1137 11:0.259054 12:0.317518 13:0.214873 14:0.071448 15:0.004711 16:0.020745 17:0.007231 18:0.054383 19:0.16713 20:0.317518 21:0.317518 22:0.146803 23:0.028351 24:0.015537 25:0.011848 26:0.009042 27:0.029582 28:0.317518 29:0.317518 30:0.317518 31:0.131829 32:0.04907 33:0.01463 34:0.048256 35:0.038384 36:0.160426 
-1 1:0.083381 2:0.182245 3:0.237391 4:0.129187 5:0.162851 6:0.183713 7:0.050143 8:0.027582 9:0.045002 10:0.15494 11:0.237391 12:0.237391 13:0.237391 14:0.237391 15:0.237391 16:0.093541 17:0.047791 18:0.050041 19:0.184531 20:0.237391 21:0.237391 22:0.188729 23:0.134603 24:0.175601 25:0.075512 26:0.044813 27:0.073087 28:0.125006 29:0.181287 30:0.176508 31:0.163576 32:0.237391 33:0.237391 34:0.167604 35:0.064377 36:0.06162 
-1 1:0.04431 2:0.044723 3:0.2327 4:0.244229 5:0.24662 6:0.135532 7:0.064666 8:0.063794 9:0.034212 10:0.042072 11:0.051902 12:0.24662 13:0.24662 14:0.24662 15:0.108289 16:0.031186 17:0.034353 18:0.044774 19:0.030277 20:0.052889 21:0.24662 22:0.24662 23:0.24662 24:0.24662 25:0.125497 26:0.233798 27:0.142716 28:0.04141 29:0.038605 30:0.24662 31:0.24662 32:0.24662 33:0.125697 34:0.088003 35:0.139919 36:0.147592 
-1 1:0.209082 2:0.082656 3:0.026309 4:0.032764 5:0.088986 6:0.035842 7:0.056612 8:0.159488 9:0.30245 10:0.135486 11:0.090534 12:0.065493 13:0.053243 14:0.046186 15:0.02228 16:0.082628 17:0.266944 18:0.296874 19:0.246222 20:0.10814 21:0.026332 22:0.016273 23:0.054698 24:0.155442 25:0.11659 26:0.30245 27:0.30245 28:0.150454 29:0.072178 30:0.013725 31:0.040199 32:0.04422 33:0.145711 34:0.282933 35:0.30245 36:0.30245 
-1 1:0.031042 2:0.012587 3:0.022354 4:0.021254 5:0.047144 6:0.219054 7:0.347006 8:0.18423 9:0.024071 10:0.059025 11:0.048636 12:0.094562 13:0.037696 14:0.08058 15:0.210424 16:0.347006 17:0.052829 18:0.074986 19:0.007494 20:0.008177 21:0.014655 22:0.027124 23:0.112905 24:0.341616 25:0.347006 26:0.042253 27:0.008129 28:0.035392 29:0.035948 30:0.0971 31:0.044284 32:0.289678 33:0.347006 34:0.347006 35:0.039831 36:0.021468 
-1 1:0.061966 2:0.110096 3:0.334448 4:0.208547 5:0.094556 6:0.051684 7:0.022797 8:0.020713 9:0.049656 10:0.035268 11:0.09548 12:0.334448 13:0.334448 14:0.260013 15:0.035168 16:0.023746 17:0.032311 18:0.040496 19:0.040959 20:0.279109 21:0.334448 22:0.191893 23:0.095181 24:0.077724 25:0.021674 26:0.009136 27:0.030395 28:0.057196 29:0.179118 30:0.334448 31:0.302485 32:0.124798 33:0.044784 34:0.029386 35:0.027684 36:0.037528 
-1 1:0.084456 2:0.022176 3:0.012076 4:0.018937 5:0.026636 6:0.218038 7:0.324529 8:0.29581 9:0.136105 10:0.273866 11:0.131344 12:0.025749 13:0.017267 14:0.026121 15:0.258424 16:0.324529 17:0.049105 18:0.088038 19:0.016458 20:0.015008 21:0.021457 22:0.037408 23:0.07237 24:0.324529 25:0.324529 26:0.065193 27:0.016794 28:0.072975 29:0.023044 30:0.017931 31:0.028893 32:0.106607 33:0.324529 34:0.324529 35:0.021121 36:0.025363 
-1 1:0.031871 2:0.039604 3:0.220845 4:0.042562 5:0.080966 6:0.211067 7:0.054401 8:0.032566 9:0.026266 10:0.222693 11:0.194714 12:0.335967 13:0.110744 14:0.179781 15:0.335967 16:0.166592 17:0.094839 18:0.102191 19:0.026688 20:0.090463 21:0.335967 22:0.081988 23:0.048857 24:0.032181 25:0.008697 26:0.00606 27:0.003795 28:0.201034 29:0.169923 30:0.335967 31:0.114585 32:0.070389 33:0.270314 34:0.182439 35:0.167607 36:0.126086 
-1 1:0.291678 2:0.267061 3:0.118298 4:0.018951 5:0.017039 6:0.016032 7:0.005794 8:0.011689 9:0.035322 10:0.137907 11:0.314254 12:0.314254 13:0.050527 14:0.017865 15:0.007338 16:0.086306 17:0.070202 18:0.068033 19:0.314254 20:0.314254 21:0.078737 22:0.007519 23:0.013929 24:0.015111 25:0.034926 26:0.052678 27:0.137841 28:0.262372 29:0.314254 30:0.314254 31:0.017467 32:0.017016 33:0.00669 34:0.180485 35:0.203546 36:0.139655 
-1 1:0.183691 2:0.299378 3:0.276823 4:0.050043 5:0.063535 6:0.020051 7:0.030759 8:0.010433 9:0.073415 10:0.111378 11:0.299378 12:0.299378 13:0.19759 14:0.153529 15:0.01992 16:0.013794 17:0.010443 18:0.030514 19:0.299378 20:0.299378 21:0.299378 22:0.016259 23:0.022099 24:0.017552 25:0.04357 26:0.023601 27:0.202532 28:0.164623 29:0.299378 30:0.299378 31:0.031324 32:0.018413 33:0.00593 34:0.019439 35:0.032677 36:0.071762 
-1 1:0.204605 2:0.201344 3:0.252327 4:0.252327 5:0.216057 6:0.094746 7:0.043166 8:0.060108 9:0.203017 10:0.236968 11:0.138519 12:0.094061 13:0.165001 14:0.100978 15:0.061915 16:0.054224 17:0.156596 18:0.252327 19:0.252327 20:0.252327 21:0.136063 22:0.165085 23:0.051699 24:0.09352 25:0.028261 26:0.042087 27:0.250754 28:0.252327 29:0.119169 30:0.030091 31:0.041597 32:0.033769 33:0.016903 34:0.097847 35:0.252327 36:0.252327 
-1 1:0.037905 2:0.288706 3:0.316527 4:0.036406 5:0.033028 6:0.010513 7:0.006878 8:0.004623 9:0.012937 10:0.040411 11:0.316527 12:0.316527 13:0.16009 14:0.046165 15:0.011597 16:0.010539 17:0.015568 18:0.015711 19:0.211317 20:0.316527 21:0.316527 22:0.110632 23:0.112875 24:0.053663 25:0.107336 26:0.049864 27:0.072797 28:0.169377 29:0.273994 30:0.316527 31:0.119218 32:0.169704 33:0.078439 34:0.104669 35:0.111385 36:0.099565 
-1 1:0.063542 2:0.111455 3:0.106683 4:0.141556 5:0.273658 6:0.102595 7:0.104527 8:0.028477 9:0.104978 10:0.273658 11:0.195365 12:0.273658 13:0.147316 14:0.273658 15:0.116938 16:0.234024 17:0.167243 18:0.273658 19:0.053933 20:0.099861 21:0.110583 22:0.273658 23:0.273658 24:0.044987 25:0.018278 26:0.002787 27:0.042416 28:0.155781 29:0.120767 30:0.127725 31:0.193815 32:0.238607 33:0.029362 34:0.048943 35:0.082084 36:0.216029 
-1 1:0.047104 2:0.02983 3:0.083883 4:0.06816 5:0.150302 6:0.200944 7:0.34391 8:0.199782 9:0.028062 10:0.036691 11:0.019629 12:0.019692 13:0.025751 14:0.040785 15:0.10109 16:0.34391 17:0.212205 18:0.037317 19:0.025459 20:0.023025 21:0.067197 22:0.061919 23:0.195274 24:0.34391 25:0.34391 26:0.165155 27:0.009561 28:0.028719 29:0.021474 30:0.030794 31:0.028105 32:0.086382 33:0.146243 34:0.34391 35:0.34391 36:0.021659 
-1 1:0.083398 2:0.275405 3:0.314944 4:0.064263 5:0.05461 6:0.027298 7:0.036346 8:0.028937 9:0.052659 10:0.038119 11:0.295857 12:0.314944 13:0.243432 14:0.121203 15:0.029061 16:0.026906 17:0.025248 18:0.027801 19:0.314944 20:0.314944 21:0.314944 22:0.053302 23:0.041802 24:0.009494 25:0.027149 26:0.034517 27:0.120118 28:0.104053 29:0.314944 30:0.314944 31:0.076136 32:0.029042 33:0.013442 34:0.009701 35:0.019118 36:0.043326 
-1 1:0.262997 2:0.149456 3:0.187738 4:0.262997 5:0.149408 6:0.02804 7:0.02276 8:0.049614 9:0.163861 10:0.227679 11:0.08949 12:0.120648 13:0.059998 14:0.039691 15:0.012692 16:0.019903 17:0.176721 18:0.262997 19:0.262997 20:0.262997 21:0.152367 22:0.231341 23:0.194865 24:0.059198 25:0.020934 26:0.108272 27:0.262997 28:0.262997 29:0.108909 30:0.057933 31:0.016455 32:0.026087 33:0.016963 34:0.078422 35:0.262997 36:0.262997 
-1 1:0.246802 2:0.111642 3:0.029711 4:0.02683 5:0.03623 6:0.033466 7:0.07046 8:0.12598 9:0.183521 10:0.33042 11:0.23993 12:0.042832 13:0.018489 14:0.019453 15:0.019507 16:0.028649 17:0.079998 18:0.224552 19:0.33042 20:0.33042 21:0.182547 22:0.016238 23:0.012731 24:0.003728 25:0.006578 26:0.020451 27:0.271205 28:0.33042 29:0.297949 30:0.062639 31:0.004618 32:0.007996 33:0.003465 34:0.005426 35:0.011866 36:0.33042 
-1 1:0.261042 2:0.252838 3:0.054409 4:0.080175 5:0.061605 6:0.088544 7:0.065198 8:0.134026 9:0.16788 10:0.261042 11:0.254174 12:0.116447 13:0.161719 14:0.079269 15:0.103642 16:0.082802 17:0.154468 18:0.261042 19:0.261042 20:0.158187 21:0.036982 22:0.096943 23:0.099782 24:0.088011 25:0.048371 26:0.100423 27:0.216576 28:0.261042 29:0.172328 30:0.064307 31:0.172878 32:0.197773 33:0.203166 34:0.145267 35:0.151966 36:0.261042 
-1 1:0.058443 2:0.068627 3:0.284129 4:0.280573 5:0.120502 6:0.121743 7:0.158377 8:0.075825 9:0.055032 10:0.023529 11:0.068463 12:0.284129 13:0.284129 14:0.149891 15:0.023332 16:0.021318 17:0.011142 18:0.016545 19:0.216508 20:0.284129 21:0.284129 22:0.284129 23:0.078611 24:0.138916 25:0.243631 26:0.115646 27:0.108642 28:0.10328 29:0.160022 30:0.284129 31:0.230226 32:0.040555 33:0.022567 34:0.037728 35:0.031199 36:0.046745 
-1 1:0.335437 2:0.08578 3:0.035709 4:0.010252 5:0.019673 6:0.010322 7:0.000117 8:0.038118 9:0.340731 10:0.340731 11:0.096733 12:0.039882 13:0.022951 14:0.027822 15:0.009564 16:0.001075 17:0.020618 18:0.340731 19:0.340731 20:0.057928 21:0.026299 22:0.007455 23:0.017525 24:0.027871 25:0.00713 26:0.06852 27:0.340731 28:0.340731 29:0.121947 30:0.138966 31:0.048962 32:0.011006 33:0.001243 34:0.002552 35:0.036098 36:0.340731 
-1 1:0.02019 2:0.119838 3:0.356011 4:0.070881 5:0.017008 6:0.00231 7:0.002861 8:0.003112 9:0.010315 10:0.010721 11:0.179126 12:0.356011 13:0.355629 14:0.208575 15:0.011804 16:0.014391 17:0.016317 18:0.016901 19:0.174553 20:0.356011 21:0.356011 22:0.040208 23:0.022975 24:0.018589 25:0.008314 26:0.019857 27:0.044346 28:0.039211 29:0.268572 30:0.356011 31:0.118528 32:0.082218 33:0.052181 34:0.030476 35:0.061353 36:0.046417 
-1 1:0.06125 2:0.037606 3:0.062718 4:0.063217 5:0.303377 6:0.040658 7:0.022688 8:0.011002 9:0.034201 10:0.303377 11:0.248782 12:0.168625 13:0.112177 14:0.303377 15:0.084428 16:0.041308 17:0.031586 18:0.303377 19:0.050069 20:0.006419 21:0.042447 22:0.124477 23:0.303377 24:0.042353 25:0.040994 26:0.017176 27:0.110483 28:0.303377 29:0.135368 30:0.071255 31:0.234416 32:0.303377 33:0.088191 34:0.081025 35:0.053422 36:0.303377 
-1 1:0.030909 2:0.055722 3:0.114529 4:0.050624 5:0.039016 6:0.002778 7:0.003104 8:0.003132 9:0.010761 10:0.149144 11:0.170582 12:0.308481 13:0.227057 14:0.308481 15:0.013971 16:0.003183 17:0.00434 18:0.035472 19:0.090686 20:0.207406 21:0.251618 22:0.267989 23:0.308481 24:0.013221 25:0.004336 26:0.008924 27:0.042066 28:0.176362 29:0.278469 30:0.308481 31:0.308481 32:0.308481 33:0.028812 34:0.003398 35:0.010983 36:0.046296 
-1 1:0.177222 2:0.198086 3:0.147376 4:0.115255 5:0.121003 6:0.103559 7:0.231374 8:0.231374 9:0.156626 10:0.122574 11:0.093495 12:0.100772 13:0.115523 14:0.16447 15:0.155686 16:0.231374 17:0.190855 18:0.162201 19:0.231374 20:0.231374 21:0.209241 22:0.077169 23:0.074402 24:0.044014 25:0.093513 26:0.086314 27:0.134812 28:0.208246 29:0.213558 30:0.180608 31:0.150574 32:0.169496 33:0.127471 34:0.225125 35:0.215554 36:0.187658 
-1 1:0.076815 2:0.205699 3:0.300994 4:0.088811 5:0.026264 6:0.009092 7:0.001155 8:0.000849 9:0.017161 10:0.10857 11:0.300994 12:0.300994 13:0.252915 14:0.055372 15:0.013389 16:0.001243 17:0.00246 18:0.012337 19:0.300994 20:0.300994 21:0.300994 22:0.019345 23:0.00942 24:0.000519 25:4.6e-005 26:0.004648 27:0.165868 28:0.300994 29:0.289381 30:0.300994 31:0.030438 32:0.008255 33:0.001582 34:0.000153 35:0.004421 36:0.15208 
-1 1:0.225589 2:0.269598 3:0.269598 4:0.180666 5:0.069883 6:0.035822 7:0.076196 8:0.043094 9:0.055233 10:0.269598 11:0.269598 12:0.162327 13:0.081146 14:0.041737 15:0.056058 16:0.074259 17:0.079148 18:0.132562 19:0.217513 20:0.2613 21:0.269598 22:0.269598 23:0.051494 24:0.032727 25:0.048218 26:0.039612 27:0.076709 28:0.269598 29:0.240634 30:0.110154 31:0.099045 32:0.107567 33:0.158577 34:0.128314 35:0.11847 36:0.211623 
-1 1:0.050929 2:0.138342 3:0.264903 4:0.153229 5:0.098282 6:0.056422 7:0.025218 8:0.040335 9:0.047448 10:0.136818 11:0.264883 12:0.288815 13:0.19059 14:0.132457 15:0.075282 16:0.046246 17:0.113298 18:0.157136 19:0.164682 20:0.288815 21:0.288815 22:0.233786 23:0.124851 24:0.030936 25:0.018929 26:0.037068 27:0.078268 28:0.231375 29:0.288815 30:0.288815 31:0.245784 32:0.129109 33:0.022813 34:0.020473 35:0.062683 36:0.132489 
-1 1:0.156683 2:0.110528 3:0.1771 4:0.080804 5:0.110234 6:0.077775 7:0.138972 8:0.147168 9:0.126327 10:0.223471 11:0.271194 12:0.177437 13:0.074576 14:0.059555 15:0.078335 16:0.15158 17:0.184282 18:0.128347 19:0.271194 20:0.271194 21:0.271194 22:0.119666 23:0.110708 24:0.041843 25:0.055397 26:0.087343 27:0.271194 28:0.271194 29:0.271194 30:0.271194 31:0.14801 32:0.095844 33:0.04595 34:0.051301 35:0.047621 36:0.109198 
-1 1:0.159995 2:0.184211 3:0.258848 4:0.258848 5:0.258848 6:0.050179 7:0.036994 8:0.048432 9:0.083357 10:0.216879 11:0.08361 12:0.251185 13:0.198301 14:0.184525 15:0.066726 16:0.133977 17:0.133552 18:0.258848 19:0.202193 20:0.240231 21:0.258848 22:0.200759 23:0.119073 24:0.063984 25:0.060457 26:0.052808 27:0.08033 28:0.200568 29:0.091008 30:0.123554 31:0.098654 32:0.022565 33:0.066264 34:0.131861 35:0.161532 36:0.258848 
-1 1:0.034862 2:0.0128 3:0.009827 4:0.087383 5:0.251206 6:0.251206 7:0.251206 8:0.131986 9:0.086242 10:0.163702 11:0.202425 12:0.251206 13:0.245782 14:0.251206 15:0.251206 16:0.251206 17:0.213334 18:0.172349 19:0.023648 20:0.014283 21:0.006576 22:0.035198 23:0.105441 24:0.095223 25:0.120931 26:0.060967 27:0.045524 28:0.156287 29:0.087978 30:0.181957 31:0.141235 32:0.251206 33:0.212128 34:0.199131 35:0.120727 36:0.167906 
-1 1:0.004339 2:0.084053 3:0.256478 4:0.192862 5:0.304814 6:0.151298 7:0.029448 8:0.005922 9:0.005966 10:0.011089 11:0.122967 12:0.304814 13:0.304814 14:0.304814 15:0.15972 16:0.013901 17:0.000887 18:0.007107 19:0.031201 20:0.230294 21:0.304814 22:0.173925 23:0.222687 24:0.106924 25:0.019369 26:0.005464 27:0.01144 28:0.039148 29:0.167446 30:0.304814 31:0.221327 32:0.194228 33:0.044945 34:0.012459 35:0.005317 36:0.01724 
-1 1:0.063968 2:0.183272 3:0.199807 4:0.072189 5:0.024655 6:0.034582 7:0.008266 8:0.046314 9:0.103479 10:0.217983 11:0.274293 12:0.239633 13:0.038421 14:0.014598 15:0.033626 16:0.068527 17:0.274293 18:0.246092 19:0.057714 20:0.274293 21:0.274293 22:0.152382 23:0.055967 24:0.01436 25:0.006157 26:0.046997 27:0.091243 28:0.127742 29:0.274293 30:0.274293 31:0.042105 32:0.034189 33:0.016908 34:0.270322 35:0.274293 36:0.258772 
-1 1:0.011471 2:0.036131 3:0.207795 4:0.0596 5:0.019974 6:0.005187 7:0.005375 8:0.003958 9:0.004628 10:0.020789 11:0.066275 12:0.384698 13:0.384698 14:0.096782 15:0.011477 16:0.003919 17:0.004312 18:0.009898 19:0.072069 20:0.384698 21:0.384698 22:0.065999 23:0.028752 24:0.003899 25:0.007004 26:0.004037 27:0.005725 28:0.083375 29:0.330026 30:0.384698 31:0.253353 32:0.037135 33:0.012612 34:0.008037 35:0.008851 36:0.029184 
-1 1:0.268636 2:0.231358 3:0.092301 4:0.019038 5:0.010278 6:0.00906 7:0.040744 8:0.04185 9:0.074707 10:0.268636 11:0.268636 12:0.100644 13:0.03945 14:0.00969 15:0.008523 16:0.012652 17:0.023346 18:0.137109 19:0.268636 20:0.268636 21:0.268636 22:0.145581 23:0.058104 24:0.05398 25:0.080208 26:0.157198 27:0.209391 28:0.268636 29:0.268636 30:0.268636 31:0.247307 32:0.070514 33:0.02173 34:0.070776 35:0.138637 36:0.227107 
-1 1:0.053214 2:0.026273 3:0.038235 4:0.129228 5:0.131958 6:0.241985 7:0.28088 8:0.28088 9:0.178099 10:0.085726 11:0.038768 12:0.024372 13:0.088321 14:0.108343 15:0.077017 16:0.252921 17:0.1924 18:0.148229 19:0.044918 20:0.028361 21:0.056923 22:0.192901 23:0.28088 24:0.215298 25:0.28088 26:0.265452 27:0.097203 28:0.06923 29:0.055727 30:0.042576 31:0.076688 32:0.164866 33:0.092437 34:0.28088 35:0.28088 36:0.125408 
-1 1:0.02848 2:0.053925 3:0.053049 4:0.077497 5:0.176307 6:0.27587 7:0.27587 8:0.175087 9:0.052454 10:0.08184 11:0.127915 12:0.086544 13:0.100433 14:0.166511 15:0.27587 16:0.27587 17:0.079124 18:0.124788 19:0.015714 20:0.024731 21:0.027532 22:0.154355 23:0.27587 24:0.27587 25:0.211129 26:0.017774 27:0.03221 28:0.069684 29:0.074055 30:0.069967 31:0.213529 32:0.27587 33:0.27587 34:0.27587 35:0.030161 36:0.109403 
-1 1:0.042472 2:0.033483 3:0.036566 4:0.061106 5:0.079409 6:0.290198 7:0.342384 8:0.245228 9:0.051713 10:0.042517 11:0.035013 12:0.036067 13:0.032428 14:0.043032 15:0.078443 16:0.220309 17:0.07591 18:0.05112 19:0.050145 20:0.016052 21:0.015478 22:0.05371 23:0.157069 24:0.342384 25:0.342384 26:0.283114 27:0.044188 28:0.035733 29:0.012719 30:0.012981 31:0.046413 32:0.179736 33:0.342384 34:0.342384 35:0.168399 36:0.041425 
-1 1:0.061416 2:0.16188 3:0.286129 4:0.235412 5:0.19622 6:0.063602 7:0.017769 8:0.019393 9:0.022253 10:0.046463 11:0.13923 12:0.286129 13:0.286129 14:0.203298 15:0.013069 16:0.004772 17:0.007335 18:0.009299 19:0.286129 20:0.286129 21:0.286129 22:0.218573 23:0.199361 24:0.047852 25:0.011226 26:0.047979 27:0.074241 28:0.083891 29:0.236563 30:0.286129 31:0.2513 32:0.084408 33:0.016665 34:0.00941 35:0.013521 36:0.011881 
-0.9119073383608439 1:0.025351 2:0.002352 3:0.004119 4:0.005344 5:0.09769 6:0.308456 7:0.308456 8:0.308456 9:0.197692 10:0.015397 11:0.004836 12:0.005924 13:0.007948 14:0.026542 15:0.155723 16:0.308456 17:0.308456 18:0.259747 19:0.007841 20:0.006652 21:0.00476 22:0.006816 23:0.098691 24:0.246075 25:0.172883 26:0.173278 27:0.09147 28:0.033352 29:0.015827 30:0.007835 31:0.005873 32:0.023857 33:0.061822 34:0.308456 35:0.308456 36:0.21025 
-1 1:0.100997 2:0.097347 3:0.060638 4:0.002657 5:0.010783 6:0.007476 7:0.010832 8:0.011688 9:0.043715 10:0.109703 11:0.31711 12:0.31711 13:0.040949 14:0.021052 15:0.007682 16:0.009574 17:0.011207 18:0.043907 19:0.31711 20:0.31711 21:0.313125 22:0.031703 23:0.078489 24:0.043205 25:0.077244 26:0.071611 27:0.187154 28:0.31711 29:0.31711 30:0.31711 31:0.087687 32:0.187147 33:0.12483 34:0.126306 35:0.110873 36:0.105463 
-1 1:0.158326 2:0.297117 3:0.33561 4:0.015904 5:0.007399 6:0.00029 7:0.001619 8:0.009642 9:0.027903 10:0.05376 11:0.295009 12:0.344741 13:0.217909 14:0.03604 15:0.000132 16:0.001802 17:0.002395 18:0.006533 19:0.14604 20:0.344741 21:0.344741 22:0.018191 23:0.008835 24:0 25:0.005685 26:0.031265 27:0.065601 28:0.075852 29:0.344741 30:0.344741 31:0.051678 32:0.022134 33:0 34:0.00293 35:0.005492 36:0.020113 
-0.4259320898726364 1:0.075616 2:0.10328 3:0.335382 4:0.208248 5:0.08996 6:0.081429 7:0.055239 8:0.036882 9:0.052075 10:0.033703 11:0.057686 12:0.354772 13:0.354772 14:0.1139 15:0.043516 16:0.033946 17:0.023123 18:0.030966 19:0.035579 20:0.095657 21:0.354772 22:0.302726 23:0.139247 24:0.072408 25:0.048365 26:0.022635 27:0.048486 28:0.017997 29:0.094164 30:0.354772 31:0.354772 32:0.080664 33:0.034968 34:0.01299 35:0.019507 36:0.041492 
-0.4430200133160039 1:0.173113 2:0.063985 3:0.074827 4:0.329997 5:0.114708 6:0.008698 7:0.001902 8:0.080735 9:0.350768 10:0.045509 11:0.009025 12:0.007125 13:0.009771 14:0.010443 15:0.004248 16:0.007079 17:0.191479 18:0.350768 19:0.28542 20:0.15 21:0.105704 22:0.077036 23:0.040515 24:0.000937 25:0.007956 26:0.173212 27:0.350768 28:0.104131 29:0.011946 30:0.00173 31:0.010597 32:0.023591 33:0.009899 34:0.096499 35:0.350768 36:0.350768 
-1 1:0.024731 2:0.032957 3:0.145979 4:0.038894 5:0.024547 6:0.010049 7:0.010198 8:0.015662 9:0.015206 10:0.032297 11:0.106481 12:0.399309 13:0.399309 14:0.13608 15:0.041394 16:0.010547 17:0.00754 18:0.015234 19:0.034949 20:0.34965 21:0.399309 22:0.062094 23:0.05907 24:0.007363 25:0.004927 26:0.008971 27:0.006275 28:0.037926 29:0.323014 30:0.399309 31:0.243655 32:0.039252 33:0.009772 34:0.007619 35:0.017092 36:0.035375 
-1 1:0.289901 2:0.086192 3:0.03495 4:0.017801 5:0.083811 6:0.064951 7:0.07409 8:0.169111 9:0.289901 10:0.289901 11:0.289901 12:0.204228 13:0.062277 14:0.07824 15:0.049289 16:0.050892 17:0.122994 18:0.289901 19:0.289901 20:0.055448 21:0.057045 22:0.057416 23:0.069281 24:0.085876 25:0.075632 26:0.161731 27:0.289901 28:0.289901 29:0.224294 30:0.103112 31:0.081656 32:0.067368 33:0.036693 34:0.023577 35:0.060524 36:0.259265 
-1 1:0.076323 2:0.077109 3:0.256792 4:0.195664 5:0.193296 6:0.212518 7:0.17065 8:0.028333 9:0.046704 10:0.059816 11:0.160584 12:0.256792 13:0.153998 14:0.192104 15:0.248373 16:0.22418 17:0.030191 18:0.026108 19:0.036149 20:0.026831 21:0.060663 22:0.219184 23:0.256792 24:0.256792 25:0.236077 26:0.045461 27:0.022152 28:0.034036 29:0.088322 30:0.10671 31:0.184303 32:0.256792 33:0.256792 34:0.256792 35:0.029143 36:0.020648 
-1 1:0.298161 2:0.193551 3:0.034931 4:0.023052 5:0.026596 6:0.011949 7:0.009213 8:0.081658 9:0.290727 10:0.298161 11:0.216439 12:0.105734 13:0.048356 14:0.029724 15:0.018013 16:0.004027 17:0.026479 18:0.298161 19:0.298161 20:0.264494 21:0.038234 22:0.012492 23:0.012881 24:0.004419 25:0.002516 26:0.071425 27:0.298161 28:0.298161 29:0.298161 30:0.114497 31:0.034203 32:0.009817 33:0.004998 34:0.001617 35:0.030325 36:0.298161 
-1 1:0.283032 2:0.097864 3:0.028395 4:0.024112 5:0.030422 6:0.145001 7:0.283032 8:0.159461 9:0.25442 10:0.117919 11:0.207085 12:0.113098 13:0.063625 14:0.075256 15:0.211016 16:0.283032 17:0.085458 18:0.048403 19:0.134315 20:0.047016 21:0.021511 22:0.010845 23:0.064091 24:0.278446 25:0.283032 26:0.152062 27:0.174214 28:0.056012 29:0.043999 30:0.036588 31:0.084273 32:0.283032 33:0.283032 34:0.283032 35:0.089148 36:0.049785 
-1 1:0.052832 2:0.014398 3:0.032988 4:0.093279 5:0.173125 6:0.195917 7:0.341137 8:0.307164 9:0.078749 10:0.009167 11:0.009559 12:0.011435 13:0.025001 14:0.031553 15:0.047472 16:0.287188 17:0.092975 18:0.023009 19:0.049568 20:0.024672 21:0.018652 22:0.067605 23:0.243263 24:0.341137 25:0.341137 26:0.216145 27:0.064348 28:0.013428 29:0.005567 30:0.003313 31:0.012575 32:0.118447 33:0.313244 34:0.341137 35:0.148073 36:0.033039 
-1 1:0.270435 2:0.097403 3:0.08002 4:0.055831 5:0.033603 6:0.025672 7:0.047857 8:0.270435 9:0.270435 10:0.209602 11:0.186288 12:0.232401 13:0.247867 14:0.083672 15:0.012005 16:0.031516 17:0.270435 18:0.270435 19:0.162262 20:0.06591 21:0.048586 22:0.026958 23:0.046643 24:0.068812 25:0.116227 26:0.270435 27:0.270435 28:0.108462 29:0.10785 30:0.071778 31:0.044324 32:0.07287 33:0.083809 34:0.129416 35:0.270435 36:0.270435 
-1 1:0.104681 2:0.028802 3:0.027184 4:0.021823 5:0.018451 6:0.027849 7:0.176957 8:0.316077 9:0.316077 10:0.038756 11:0.012487 12:0.010403 13:0.019474 14:0.015648 15:0.016082 16:0.168877 17:0.314035 18:0.19956 19:0.102294 20:0.037935 21:0.031106 22:0.033727 23:0.020689 24:0.006085 25:0.251019 26:0.316077 27:0.316077 28:0.059477 29:0.024283 30:0.013117 31:0.016499 32:0.013868 33:0.01484 34:0.316077 35:0.316077 36:0.316077 
-1 1:0.0266 2:0.219446 3:0.369364 4:0.111127 5:0.031272 6:0.010049 7:0.006103 8:0.005065 9:0.00529 10:0.039996 11:0.245836 12:0.369364 13:0.293765 14:0.120872 15:0.022088 16:0.010688 17:0.006999 18:0.01629 19:0.035263 20:0.369364 21:0.369364 22:0.070779 23:0.035492 24:0.011508 25:0.009941 26:0.009689 27:0.015123 28:0.043967 29:0.260714 30:0.369364 31:0.091734 32:0.025914 33:0.011567 34:0.007037 35:0.013953 36:0.021987 
-1 1:0.136258 2:0.046056 3:0.04391 4:0.101373 5:0.124331 6:0.092594 7:0.154352 8:0.276348 9:0.251467 10:0.078451 11:0.032005 12:0.019125 13:0.035171 14:0.02386 15:0.030929 16:0.115973 17:0.20588 18:0.165673 19:0.163292 20:0.029893 21:0.108782 22:0.224275 23:0.276348 24:0.204085 25:0.23263 26:0.276348 27:0.276348 28:0.184275 29:0.039629 30:0.027669 31:0.031993 32:0.027328 33:0.039566 34:0.276348 35:0.276348 36:0.276348 
-1 1:0.104206 2:0.234265 3:0.341506 4:0.133607 5:0.087694 6:0.117745 7:0.150633 8:0.05406 9:0.076057 10:0.088582 11:0.228922 12:0.341506 13:0.203621 14:0.092346 15:0.059849 16:0.104595 17:0.027463 18:0.056002 19:0.131279 20:0.341506 21:0.341506 22:0.158748 23:0.074582 24:0.072434 25:0.055734 26:0.04113 27:0.080341 28:0.100977 29:0.214383 30:0.341506 31:0.140031 32:0.048592 33:0.040454 34:0.041031 35:0.027585 36:0.039463 
-1 1:0.362132 2:0.141278 3:0.023251 4:0.050101 5:0.052336 6:0.038371 7:0.012209 8:0.019799 9:0.093848 10:0.362132 11:0.23999 12:0.036256 13:0.053647 14:0.049272 15:0.031446 16:0.028621 17:0.107478 18:0.169824 19:0.362132 20:0.30982 21:0.110366 22:0.101256 23:0.066806 24:0.021355 25:0.011465 26:0.016376 27:0.152392 28:0.362132 29:0.362132 30:0.039236 31:0.052667 32:0.039028 33:0.016318 34:0.015142 35:0.007591 36:0.210585 
-1 1:0.254959 2:0.306845 3:0.09066 4:0.018982 5:0.014162 6:0.006183 7:0.212899 8:0.220038 9:0.147609 10:0.086296 11:0.191075 12:0.115141 13:0.034836 14:0.017319 15:0.039345 16:0.306845 17:0.306845 18:0.11873 19:0.173856 20:0.181265 21:0.034247 22:0.020996 23:0.024661 24:0.008923 25:0.306845 26:0.276672 27:0.084589 28:0.043488 29:0.061415 30:0.032147 31:0.024162 32:0.036684 33:0.071561 34:0.306845 35:0.306845 36:0.073826 
-1 1:0.039251 2:0.117627 3:0.120897 4:0.009884 5:0.008127 6:0.01654 7:0.006383 8:0.009868 9:0.030061 10:0.080021 11:0.339128 12:0.339128 13:0.064894 14:0.023062 15:0.017055 16:0.005083 17:0.016663 18:0.058849 19:0.311718 20:0.339128 21:0.339128 22:0.05017 23:0.057344 24:0.009543 25:0.029394 26:0.017256 27:0.069656 28:0.339128 29:0.339128 30:0.339128 31:0.033156 32:0.027538 33:0.004909 34:0.016713 35:0.020165 36:0.182301 
-1 1:0.251483 2:0.239347 3:0.194722 4:0.150789 5:0.214069 6:0.097488 7:0.071872 8:0.117531 9:0.208707 10:0.142136 11:0.060246 12:0.027182 13:0.017474 14:0.047973 15:0.045292 16:0.118425 17:0.123263 18:0.131702 19:0.251483 20:0.153324 21:0.251483 22:0.251483 23:0.093147 24:0.120558 25:0.140124 26:0.167863 27:0.251483 28:0.251483 29:0.067917 30:0.020675 31:0.026174 32:0.049677 33:0.11818 34:0.251483 35:0.251483 36:0.251483 
-1 1:0.055038 2:0.116414 3:0.197302 4:0.179305 5:0.120097 6:0.037472 7:0.022674 8:0.038762 9:0.038339 10:0.046623 11:0.219 12:0.310081 13:0.310081 14:0.310081 15:0.084316 16:0.014541 17:0.028856 18:0.046058 19:0.083478 20:0.268572 21:0.310081 22:0.27557 23:0.093795 24:0.015706 25:0.011888 26:0.035936 27:0.039962 28:0.042729 29:0.25203 30:0.310081 31:0.310081 32:0.13192 33:0.048543 34:0.009679 35:0.008853 36:0.01508 
-1 1:0.256917 2:0.069896 3:0.018833 4:0.01547 5:0.02147 6:0.008934 7:0.054514 8:0.290615 9:0.290615 10:0.290615 11:0.094249 12:0.039104 13:0.032592 14:0.025704 15:0.021987 16:0.038589 17:0.220121 18:0.290615 19:0.209666 20:0.051397 21:0.024829 22:0.019642 23:0.045894 24:0.123881 25:0.108861 26:0.290615 27:0.290615 28:0.290615 29:0.127424 30:0.023229 31:0.033593 32:0.026659 33:0.024396 34:0.057479 35:0.290615 36:0.290615 
-1 1:0.004286 2:0.048765 3:0.2569 4:0.08687 5:0.08933 6:0.062384 7:0.040196 8:0.01542 9:0.006541 10:0.034764 11:0.12939 12:0.326962 13:0.231155 14:0.247758 15:0.056129 16:0.027723 17:0.011913 18:0.022417 19:0.080736 20:0.326962 21:0.326962 22:0.10764 23:0.116003 24:0.02581 25:0.018061 26:0.016575 27:0.02832 28:0.257311 29:0.326962 30:0.326962 31:0.284288 32:0.188848 33:0.09411 34:0.048391 35:0.061705 36:0.061999 
-1 1:0.143175 2:0.137942 3:0.09424 4:0.163548 5:0.173864 6:0.1285 7:0.040574 8:0.029157 9:0.07287 10:0.251215 11:0.251215 12:0.163526 13:0.251215 14:0.13627 15:0.163472 16:0.15779 17:0.030479 18:0.102316 19:0.251215 20:0.248873 21:0.090345 22:0.251215 23:0.112083 24:0.064111 25:0.021563 26:0.064836 27:0.185048 28:0.251215 29:0.251215 30:0.223211 31:0.251215 32:0.251215 33:0.046591 34:0.039868 35:0.024391 36:0.107767 
-1 1:0.278085 2:0.103294 3:0.042671 4:0.004334 5:0.02797 6:0.103899 7:0.278085 8:0.278085 9:0.278085 10:0.278085 11:0.207095 12:0.04117 13:0.017673 14:0.049244 15:0.13358 16:0.278085 17:0.139665 18:0.278085 19:0.039812 20:0.01723 21:0.011026 22:0.012906 23:0.039093 24:0.185262 25:0.278085 26:0.173121 27:0.028472 28:0.060537 29:0.026663 30:0.020494 31:0.022559 32:0.102753 33:0.278085 34:0.278085 35:0.168094 36:0.047213 
-1 1:0.033061 2:0.155922 3:0.296384 4:0.17245 5:0.043546 6:0.006514 7:0.009954 8:0.066828 9:0.074575 10:0.071119 11:0.218706 12:0.296384 13:0.296384 14:0.241871 15:0.051063 16:0.024705 17:0.068384 18:0.100256 19:0.111735 20:0.296384 21:0.296384 22:0.152867 23:0.040629 24:0.020888 25:0.00947 26:0.047626 27:0.097696 28:0.203741 29:0.296384 30:0.296384 31:0.160363 32:0.058699 33:0.038418 34:0.016687 35:0.068863 36:0.242028 
-1 1:0.066691 2:0.066166 3:0.055688 4:0.120983 5:0.088249 6:0.037829 7:0.068181 8:0.114363 9:0.066029 10:0.185136 11:0.215526 12:0.122562 13:0.138751 14:0.108716 15:0.100612 16:0.206823 17:0.247722 18:0.232466 19:0.103814 20:0.201756 21:0.247722 22:0.175368 23:0.080034 24:0.074011 25:0.117622 26:0.180412 27:0.087372 28:0.167233 29:0.247722 30:0.247722 31:0.171223 32:0.127321 33:0.247722 34:0.247722 35:0.247722 36:0.23388 
-1 1:0.26996 2:0.161803 3:0.052375 4:0.240771 5:0.191132 6:0.035428 7:0.008534 8:0.021907 9:0.108324 10:0.26996 11:0.229018 12:0.168437 13:0.26996 14:0.26996 15:0.160476 16:0.052378 17:0.082469 18:0.116643 19:0.26996 20:0.269809 21:0.050188 22:0.120344 23:0.041366 24:0.009219 25:0.007826 26:0.016707 27:0.209722 28:0.26996 29:0.234752 30:0.110277 31:0.242019 32:0.09363 33:0.036675 34:0.025872 35:0.051036 36:0.134895 
-1 1:0.09757 2:0.092718 3:0.113931 4:0.255686 5:0.255686 6:0.2449 7:0.255686 8:0.19064 9:0.155435 10:0.130946 11:0.07506 12:0.065465 13:0.119838 14:0.185374 15:0.061618 16:0.168789 17:0.178119 18:0.159285 19:0.017943 20:0.016549 21:0.085127 22:0.255686 23:0.255686 24:0.240471 25:0.248672 26:0.201712 27:0.074065 28:0.056847 29:0.0075 30:0.00647 31:0.032941 32:0.124838 33:0.1424 34:0.255686 35:0.255686 36:0.095433 
-0.4889840894093774 1:0.078705 2:0.02516 3:0.140972 4:0.086986 5:0.179981 6:0.066858 7:0.236895 8:0.199145 9:0.089746 10:0.164241 11:0.220672 12:0.273133 13:0.245552 14:0.273133 15:0.125526 16:0.273133 17:0.249415 18:0.172784 19:0.006964 20:0.004025 21:0.020245 22:0.015885 23:0.057578 24:0.055673 25:0.246008 26:0.101948 27:0.015353 28:0.109759 29:0.073053 30:0.115151 31:0.114591 32:0.197702 33:0.182155 34:0.273133 35:0.273133 36:0.105747 
-1 1:0.300678 2:0.094007 3:0.135911 4:0.110093 5:0.066905 6:0.017954 7:0.027285 8:0.054809 9:0.239102 10:0.083409 11:0.087868 12:0.243273 13:0.236033 14:0.122012 15:0.019488 16:0.009989 17:0.019269 18:0.038077 19:0.300678 20:0.300678 21:0.300678 22:0.1988 23:0.110921 24:0.024227 25:0.055755 26:0.113969 27:0.300678 28:0.112062 29:0.207108 30:0.300678 31:0.242247 32:0.115344 33:0.028237 34:0.020872 35:0.047631 36:0.056518 
-1 1:0.044783 2:0.123798 3:0.271486 4:0.078655 5:0.062586 6:0.021687 7:0.012078 8:0.030751 9:0.047305 10:0.015812 11:0.218712 12:0.306129 13:0.287894 14:0.306129 15:0.090667 16:0.024 17:0.025234 18:0.021622 19:0.231918 20:0.306129 21:0.306129 22:0.069916 23:0.046523 24:0.016372 25:0.024917 26:0.020157 27:0.188233 28:0.091486 29:0.306129 30:0.306129 31:0.186367 32:0.149222 33:0.055999 34:0.096009 35:0.079243 36:0.085283 
-1 1:0.073192 2:0.194012 3:0.300957 4:0.260232 5:0.143713 6:0.033864 7:0.00768 8:0.011414 9:0.034117 10:0.019464 11:0.239205 12:0.300957 13:0.300957 14:0.245234 15:0.060213 16:0.009881 17:0.006634 18:0.009359 19:0.280837 20:0.300957 21:0.300957 22:0.159721 23:0.055915 24:0.007552 25:0.002095 26:0.021777 27:0.146092 28:0.05548 29:0.183834 30:0.300957 31:0.163365 32:0.069951 33:0.00889 34:0.006779 35:0.003502 36:0.010036 
