svm_type c_svc
kernel_type linear
nr_class 2
total_sv 130
rho 1.98561
label 2 8
probA -2.09259
probB 0.203242
nr_sv 65 65
SV
1 1:0.21816 2:0.193432 3:0.20783 4:0.153758 5:0.06824 6:0.172176 7:0.184103 8:0.128297 9:0.21816 10:0.21816 11:0.17014 12:0.184838 13:0.21816 14:0.165307 15:0.157104 16:0.163458 17:0.191049 18:0.203685 19:0.21816 20:0.125098 21:0.191651 22:0.17126 23:0.207875 24:0.08831 25:0.063861 26:0.112469 27:0.21816 28:0.143608 29:0.080144 30:0.08176 31:0.207672 32:0.197388 33:0.057869 34:0.060397 35:0.103216 36:0.143542 
1 1:0.077511 2:0.10803 3:0.187623 4:0.084558 5:0.103756 6:0.100664 7:0.258808 8:0.258808 9:0.258808 10:0.026643 11:0.258808 12:0.258808 13:0.115967 14:0.125151 15:0.196163 16:0.236116 17:0.188333 18:0.173593 19:0.04411 20:0.024643 21:0.017725 22:0.070902 23:0.114276 24:0.126518 25:0.224875 26:0.188257 27:0.17818 28:0.03616 29:0.037624 30:0.047081 31:0.06692 32:0.147302 33:0.258808 34:0.258808 35:0.155733 36:0.218796 
1 1:0.076271 2:0.007903 3:0.044249 4:0.041609 5:0.067475 6:0.135781 7:0.319478 8:0.319478 9:0.139907 10:0.135606 11:0.026086 12:0.070451 13:0.052752 14:0.121045 15:0.187206 16:0.319478 17:0.319478 18:0.132173 19:0.024034 20:0.014967 21:0.025726 22:0.021743 23:0.022532 24:0.080396 25:0.319478 26:0.234324 27:0.074016 28:0.064233 29:0.019177 30:0.02895 31:0.015211 32:0.062977 33:0.230748 34:0.319478 35:0.319478 36:0.064527 
1 1:0.100063 2:0.039963 3:0.01424 4:0.011584 5:0.014239 6:0.022386 7:0.330016 8:0.330016 9:0.248844 10:0.064604 11:0.045751 12:0.022731 13:0.0054 14:0.013128 15:0.021347 16:0.327445 17:0.247126 18:0.067014 19:0.059144 20:0.044023 21:0.011522 22:0.02477 23:0.012993 24:0.033251 25:0.330016 26:0.330016 27:0.189167 28:0.020434 29:0.022632 30:0.010826 31:0.019749 32:0.038244 33:0.199632 34:0.330016 35:0.330016 36:0.049469 
1 1:0.131273 2:0.05682 3:0.032232 4:0.054446 5:0.075186 6:0.166984 7:0.283893 8:0.283893 9:0.197438 10:0.096937 11:0.057282 12:0.036659 13:0.071411 14:0.122936 15:0.145623 16:0.255365 17:0.186417 18:0.136143 19:0.055525 20:0.05457 21:0.072284 22:0.044536 23:0.081156 24:0.176112 25:0.283893 26:0.241762 27:0.102678 28:0.051588 29:0.064778 30:0.060089 31:0.057752 32:0.283893 33:0.283893 34:0.283893 35:0.283893 36:0.168554 
1 1:0.223766 2:0.131338 3:0.269005 4:0.241917 5:0.277436 6:0.214787 7:0.139385 8:0.046808 9:0.19556 10:0.073869 11:0.063791 12:0.074838 13:0.222339 14:0.277436 15:0.256827 16:0.15056 17:0.031029 18:0.086166 19:0.082533 20:0.057203 21:0.07043 22:0.133653 23:0.277436 24:0.151386 25:0.11278 26:0.03585 27:0.047285 28:0.07535 29:0.058261 30:0.060394 31:0.223707 32:0.277436 33:0.242313 34:0.16743 35:0.014535 36:0.042097 
1 1:0.003689 2:0.001631 3:0.005937 4:0.011788 5:0.304043 6:0.415691 7:0.035854 8:0.008135 9:0.009131 10:0.00685 11:0.003547 12:0.003219 13:0.00973 14:0.178695 15:0.415691 16:0.097628 17:0.059423 18:0.022961 19:0.016394 20:0.007953 21:0.005042 22:0.016271 23:0.236777 24:0.415691 25:0.137861 26:0.047058 27:0.01448 28:0.015247 29:0.006372 30:0.003133 31:0.012223 32:0.24134 33:0.415691 34:0.155488 35:0.054426 36:0.031054 
1 1:0.005483 2:0.012196 3:0.023836 4:0.045848 5:0.331538 6:0.331538 7:0.100094 8:0.009728 9:0.004401 10:0.063487 11:0.08801 12:0.059257 13:0.20906 14:0.331538 15:0.331538 16:0.085417 17:0.016054 18:0.056662 19:0.044741 20:0.046281 21:0.027037 22:0.027333 23:0.331538 24:0.280888 25:0.017961 26:0.00999 27:0.020127 28:0.068816 29:0.113988 30:0.07966 31:0.175943 32:0.331538 33:0.331538 34:0.028218 35:0.038747 36:0.042984 
1 1:0.005675 2:0.000754 3:0.008929 4:0.012817 5:0.407617 6:0.35866 7:0.167361 8:0.008971 9:0.007314 10:0.007246 11:0.004341 12:0.008704 13:0.010774 14:0.407617 15:0.303382 16:0.115004 17:0.007415 18:0.006702 19:0.014797 20:0.00805 21:0.018378 22:0.05104 23:0.407617 24:0.175133 25:0.047169 26:0.007442 27:0.017116 28:0.013545 29:0.008045 30:0.008148 31:0.054478 32:0.407617 33:0.167826 34:0.015496 35:0.00642 36:0.02083 
1 1:0.048936 2:0.016988 3:0.002681 4:0.001794 5:0.009816 6:0.032782 7:0.337836 8:0.337836 9:0.178048 10:0.019589 11:0.014607 12:0.001865 13:0.004002 14:0.01711 15:0.041528 16:0.337836 17:0.337836 18:0.050612 19:0.020644 20:0.004885 21:0.005964 22:0.015162 23:0.019332 24:0.059581 25:0.337836 26:0.337836 27:0.103747 28:0.017926 29:0.007632 30:0.003344 31:0.013399 32:0.029345 33:0.138603 34:0.337836 35:0.337836 36:0.082175 
1 1:0.261042 2:0.252838 3:0.054409 4:0.080175 5:0.061605 6:0.088544 7:0.065198 8:0.134026 9:0.16788 10:0.261042 11:0.254174 12:0.116447 13:0.161719 14:0.079269 15:0.103642 16:0.082802 17:0.154468 18:0.261042 19:0.261042 20:0.158187 21:0.036982 22:0.096943 23:0.099782 24:0.088011 25:0.048371 26:0.100423 27:0.216576 28:0.261042 29:0.172328 30:0.064307 31:0.172878 32:0.197773 33:0.203166 34:0.145267 35:0.151966 36:0.261042 
1 1:0.097244 2:0.175002 3:0.239331 4:0.066196 5:0.24055 6:0.24055 7:0.24055 8:0.091352 9:0.056729 10:0.11058 11:0.09806 12:0.081444 13:0.105036 14:0.217051 15:0.24055 16:0.24055 17:0.135847 18:0.129933 19:0.058891 20:0.170241 21:0.24055 22:0.11001 23:0.183919 24:0.164618 25:0.202788 26:0.076356 27:0.037859 28:0.121497 29:0.116099 30:0.102148 31:0.175771 32:0.24055 33:0.21083 34:0.24055 35:0.145858 36:0.101296 
1 1:0.255768 2:0.174374 3:0.255768 4:0.255768 5:0.255768 6:0.219262 7:0.06497 8:0.036853 9:0.175827 10:0.068752 11:0.054573 12:0.255768 13:0.255768 14:0.255768 15:0.194878 16:0.077682 17:0.020232 18:0.022288 19:0.255768 20:0.091906 21:0.085124 22:0.070034 23:0.200623 24:0.162479 25:0.132397 26:0.049048 27:0.142537 28:0.057995 29:0.019214 30:0.054571 31:0.060122 32:0.255768 33:0.23489 34:0.216968 35:0.026096 36:0.018363 
1 1:0.034862 2:0.0128 3:0.009827 4:0.087383 5:0.251206 6:0.251206 7:0.251206 8:0.131986 9:0.086242 10:0.163702 11:0.202425 12:0.251206 13:0.245782 14:0.251206 15:0.251206 16:0.251206 17:0.213334 18:0.172349 19:0.023648 20:0.014283 21:0.006576 22:0.035198 23:0.105441 24:0.095223 25:0.120931 26:0.060967 27:0.045524 28:0.156287 29:0.087978 30:0.181957 31:0.141235 32:0.251206 33:0.212128 34:0.199131 35:0.120727 36:0.167906 
1 1:0.15415 2:0.234615 3:0.258561 4:0.15387 5:0.104424 6:0.273694 7:0.260827 8:0.013414 9:0.050176 10:0.06181 11:0.193561 12:0.149637 13:0.079866 14:0.173762 15:0.273694 16:0.217405 17:0.001278 18:0.015333 19:0.059982 20:0.198221 21:0.273694 22:0.157121 23:0.139177 24:0.273694 25:0.089988 26:0.0152 27:0.041322 28:0.031031 29:0.068648 30:0.062838 31:0.08425 32:0.273694 33:0.273694 34:0.186611 35:0.008069 36:0.022375 
1 1:0.02848 2:0.053925 3:0.053049 4:0.077497 5:0.176307 6:0.27587 7:0.27587 8:0.175087 9:0.052454 10:0.08184 11:0.127915 12:0.086544 13:0.100433 14:0.166511 15:0.27587 16:0.27587 17:0.079124 18:0.124788 19:0.015714 20:0.024731 21:0.027532 22:0.154355 23:0.27587 24:0.27587 25:0.211129 26:0.017774 27:0.03221 28:0.069684 29:0.074055 30:0.069967 31:0.213529 32:0.27587 33:0.27587 34:0.27587 35:0.030161 36:0.109403 
1 1:0.013192 2:0.015488 3:0.043129 4:0.129742 5:0.339426 6:0.339426 7:0.121889 8:0.02822 9:0.011337 10:0.020015 11:0.023362 12:0.030372 13:0.078355 14:0.265115 15:0.339426 16:0.111826 17:0.047762 18:0.024291 19:0.025898 20:0.014585 21:0.050903 22:0.095587 23:0.339426 24:0.339426 25:0.160215 26:0.034629 27:0.029673 28:0.020579 29:0.012261 30:0.021736 31:0.066409 32:0.339426 33:0.339426 34:0.12122 35:0.026239 36:0.01952 
0.4150708105792492 1:0.016102 2:0.004677 3:0.019265 4:0.076063 5:0.162333 6:0.159229 7:0.305392 8:0.284614 9:0.020835 10:0.03103 11:0.036094 12:0.089768 13:0.1381 14:0.201783 15:0.223995 16:0.305392 17:0.115481 18:0.031227 19:0.10519 20:0.009408 21:0.013522 22:0.069466 23:0.166087 24:0.175778 25:0.305392 26:0.135663 27:0.041277 28:0.195827 29:0.019218 30:0.012492 31:0.054705 32:0.20564 33:0.305392 34:0.305392 35:0.253392 36:0.115474 
1 1:0.076323 2:0.077109 3:0.256792 4:0.195664 5:0.193296 6:0.212518 7:0.17065 8:0.028333 9:0.046704 10:0.059816 11:0.160584 12:0.256792 13:0.153998 14:0.192104 15:0.248373 16:0.22418 17:0.030191 18:0.026108 19:0.036149 20:0.026831 21:0.060663 22:0.219184 23:0.256792 24:0.256792 25:0.236077 26:0.045461 27:0.022152 28:0.034036 29:0.088322 30:0.10671 31:0.184303 32:0.256792 33:0.256792 34:0.256792 35:0.029143 36:0.020648 
1 1:0.06981 2:0.018981 3:0.01414 4:0.010688 5:0.020348 6:0.05664 7:0.338131 8:0.338131 9:0.177709 10:0.035379 11:0.014006 12:0.012272 13:0.006331 14:0.007989 15:0.060678 16:0.338131 17:0.273291 18:0.083614 19:0.038198 20:0.013076 21:0.020961 22:0.021864 23:0.033096 24:0.145284 25:0.338131 26:0.338131 27:0.128086 28:0.023347 29:0.009263 30:0.007337 31:0.008129 32:0.028364 33:0.124632 34:0.338131 35:0.338131 36:0.101167 
1 1:0.254959 2:0.306845 3:0.09066 4:0.018982 5:0.014162 6:0.006183 7:0.212899 8:0.220038 9:0.147609 10:0.086296 11:0.191075 12:0.115141 13:0.034836 14:0.017319 15:0.039345 16:0.306845 17:0.306845 18:0.11873 19:0.173856 20:0.181265 21:0.034247 22:0.020996 23:0.024661 24:0.008923 25:0.306845 26:0.276672 27:0.084589 28:0.043488 29:0.061415 30:0.032147 31:0.024162 32:0.036684 33:0.071561 34:0.306845 35:0.306845 36:0.073826 
1 1:0.064738 2:0.231182 3:0.231182 4:0.231182 5:0.231182 6:0.231182 7:0.127823 8:0.028508 9:0.032937 10:0.068248 11:0.175122 12:0.209502 13:0.164457 14:0.231182 15:0.231182 16:0.231182 17:0.148677 18:0.144101 19:0.069645 20:0.231182 21:0.231182 22:0.117977 23:0.173688 24:0.202591 25:0.140691 26:0.01428 27:0.020353 28:0.017067 29:0.045019 30:0.120041 31:0.090147 32:0.224264 33:0.221294 34:0.227433 35:0.053952 36:0.050314 
0.1600412750110013 1:0.278085 2:0.103294 3:0.042671 4:0.004334 5:0.02797 6:0.103899 7:0.278085 8:0.278085 9:0.278085 10:0.278085 11:0.207095 12:0.04117 13:0.017673 14:0.049244 15:0.13358 16:0.278085 17:0.139665 18:0.278085 19:0.039812 20:0.01723 21:0.011026 22:0.012906 23:0.039093 24:0.185262 25:0.278085 26:0.173121 27:0.028472 28:0.060537 29:0.026663 30:0.020494 31:0.022559 32:0.102753 33:0.278085 34:0.278085 35:0.168094 36:0.047213 
1 1:0.016513 2:0.016106 3:0.030618 4:0.151449 5:0.271686 6:0.271686 7:0.146646 8:0.0293 9:0.016611 10:0.099348 11:0.070815 12:0.083638 13:0.165372 14:0.271686 15:0.271686 16:0.177139 17:0.210365 18:0.161689 19:0.014054 20:0.006554 21:0.045818 22:0.13733 23:0.271686 24:0.195643 25:0.190399 26:0.019766 27:0.016281 28:0.133409 29:0.038629 30:0.146295 31:0.19697 32:0.271686 33:0.271686 34:0.271686 35:0.089106 36:0.157854 
1 1:0.078705 2:0.02516 3:0.140972 4:0.086986 5:0.179981 6:0.066858 7:0.236895 8:0.199145 9:0.089746 10:0.164241 11:0.220672 12:0.273133 13:0.245552 14:0.273133 15:0.125526 16:0.273133 17:0.249415 18:0.172784 19:0.006964 20:0.004025 21:0.020245 22:0.015885 23:0.057578 24:0.055673 25:0.246008 26:0.101948 27:0.015353 28:0.109759 29:0.073053 30:0.115151 31:0.114591 32:0.197702 33:0.182155 34:0.273133 35:0.273133 36:0.105747 
1 1:0.021044 2:0.000354 3:0.014512 4:0.076341 5:0.26239 6:0.253783 7:0.26239 8:0.250719 9:0.027227 10:0.008688 11:0.002658 12:0.00708 13:0.063704 14:0.26239 15:0.224793 16:0.26239 17:0.067827 18:0.00848 19:0.027339 20:0.00123 21:0.015498 22:0.108033 23:0.26239 24:0.259518 25:0.26239 26:0.26239 27:0.181319 28:0.011313 29:0.00162 30:0.018412 31:0.116936 32:0.26239 33:0.26239 34:0.223054 35:0.057821 36:0.06106 
0.0794858562299578 1:0.169399 2:0.014262 3:0.005961 4:0.037027 5:0.230895 6:0.22346 7:0.250244 8:0.185146 9:0.182714 10:0.242536 11:0.004432 12:0.000588 13:0.046586 14:0.250244 15:0.242619 16:0.250244 17:0.181166 18:0.250244 19:0.012022 20:0.002265 21:0.001589 22:0.04332 23:0.238904 24:0.181152 25:0.250244 26:0.11841 27:0.013992 28:0.061119 29:0.002114 30:0.000686 31:0.077349 32:0.250244 33:0.24137 34:0.250244 35:0.163228 36:0.066829 
1 1:0.221064 2:0.154832 3:0.109529 4:0.041042 5:0.090162 6:0.124951 7:0.22962 8:0.22962 9:0.225637 10:0.075376 11:0.083736 12:0.103599 13:0.081208 14:0.125741 15:0.114264 16:0.22962 17:0.179667 18:0.151878 19:0.22962 20:0.210677 21:0.172678 22:0.042853 23:0.100148 24:0.212333 25:0.22962 26:0.184143 27:0.163779 28:0.055101 29:0.144398 30:0.127484 31:0.089311 32:0.202672 33:0.22962 34:0.22962 35:0.22962 36:0.139327 
1 1:0.097882 2:0.019942 3:0.01989 4:0.045687 5:0.123295 6:0.090967 7:0.260084 8:0.260084 9:0.211944 10:0.103197 11:0.017671 12:0.137291 13:0.087888 14:0.220236 15:0.128968 16:0.260084 17:0.206617 18:0.150912 19:0.182282 20:0.061921 21:0.021309 22:0.018874 23:0.112249 24:0.179086 25:0.260084 26:0.260084 27:0.258757 28:0.092128 29:0.06044 30:0.104928 31:0.06196 32:0.260084 33:0.260084 34:0.260084 35:0.159116 36:0.073832 
0.492153269281306 1:0.064152 2:0.129067 3:0.09981 4:0.050451 5:0.161351 6:0.267013 7:0.267013 8:0.204948 9:0.131115 10:0.054091 11:0.058413 12:0.087236 13:0.099095 14:0.267013 15:0.267013 16:0.267013 17:0.092277 18:0.094642 19:0.108012 20:0.118169 21:0.118457 22:0.087631 23:0.230904 24:0.207228 25:0.244836 26:0.065957 27:0.075206 28:0.056998 29:0.105513 30:0.108095 31:0.101148 32:0.267013 33:0.267013 34:0.267013 35:0.117263 36:0.060118 
1 1:0.204174 2:0.0289 3:0.010185 4:0.01091 5:0.031621 6:0.034839 7:0.272573 8:0.217184 9:0.228328 10:0.069955 11:0.030081 12:0.005761 13:0.001608 14:0.032294 15:0.075885 16:0.261543 17:0.262539 18:0.123482 19:0.261899 20:0.052788 21:0.027297 22:0.016018 23:0.034316 24:0.02397 25:0.309733 26:0.309733 27:0.309733 28:0.10574 29:0.033085 30:0.022995 31:0.019404 32:0.065022 33:0.090288 34:0.309733 35:0.309733 36:0.183759 
1 1:0.026724 2:0.026323 3:0.017667 4:0.161375 5:0.299109 6:0.299109 7:0.265565 8:0.107349 9:0.013787 10:0.143179 11:0.084255 12:0.030312 13:0.126589 14:0.299109 15:0.239757 16:0.220506 17:0.105307 18:0.045033 19:0.050291 20:0.046654 21:0.010984 22:0.126141 23:0.299109 24:0.216859 25:0.201737 26:0.056134 27:0.065849 28:0.061731 29:0.079317 30:0.039151 31:0.128199 32:0.299109 33:0.263807 34:0.236483 35:0.063855 36:0.047942 
0.1647762702211658 1:0.022206 2:0.036484 3:0.015672 4:0.028539 5:0.166648 6:0.129447 7:0.303815 8:0.241868 9:0.054699 10:0.026005 11:0.096284 12:0.084513 13:0.08926 14:0.299382 15:0.205347 16:0.303815 17:0.19916 18:0.067935 19:0.017286 20:0.013464 21:0.017611 22:0.047309 23:0.211893 24:0.110998 25:0.303815 26:0.108915 27:0.027329 28:0.056771 29:0.079132 30:0.068278 31:0.132811 32:0.303815 33:0.219695 34:0.303815 35:0.233414 36:0.134226 
1 1:0.276913 2:0.276913 3:0.09237 4:0.171868 5:0.276913 6:0.23448 7:0.159514 8:0.044952 9:0.113209 10:0.276913 11:0.156376 12:0.02049 13:0.084387 14:0.276913 15:0.227382 16:0.166412 17:0.034706 18:0.116668 19:0.096552 20:0.142909 21:0.115458 22:0.119749 23:0.276913 24:0.217707 25:0.106672 26:0.052117 27:0.070768 28:0.023022 29:0.033206 30:0.031478 31:0.07859 32:0.276913 33:0.244913 34:0.088595 35:0.015204 36:0.012267 
1 1:0.014378 2:0.086436 3:0.127173 4:0.131094 5:0.273453 6:0.273453 7:0.273453 8:0.033889 9:0.00711 10:0.009363 11:0.016485 12:0.027812 13:0.054191 14:0.273453 15:0.273453 16:0.246009 17:0.037761 18:0.012059 19:0.033288 20:0.188629 21:0.273453 22:0.212952 23:0.273453 24:0.273453 25:0.097485 26:0.001348 27:0.009839 28:0.019001 29:0.030137 30:0.085107 31:0.145243 32:0.273453 33:0.273453 34:0.140306 35:0.007243 36:0.011002 
0.9767203255994688 1:0.047665 2:0.029183 3:0.07203 4:0.048382 5:0.074208 6:0.096784 7:0.345121 8:0.345121 9:0.061381 10:0.020661 11:0.019278 12:0.02824 13:0.041138 14:0.088499 15:0.061164 16:0.345121 17:0.151727 18:0.037752 19:0.005596 20:0.006774 21:0.074327 22:0.087629 23:0.147145 24:0.152857 25:0.345121 26:0.290564 27:0.011748 28:0.012812 29:0.006985 30:0.082051 31:0.109607 32:0.310192 33:0.151287 34:0.345121 35:0.226007 36:0.019964 
1 1:0.305951 2:0.117766 3:0.079634 4:0.065704 5:0.05638 6:0.052144 7:0.06569 8:0.156612 9:0.255281 10:0.305951 11:0.097691 12:0.081574 13:0.113991 14:0.108517 15:0.093256 16:0.126783 17:0.160628 18:0.305951 19:0.305951 20:0.07391 21:0.028736 22:0.006646 23:0.012686 24:0.01481 25:0.015858 26:0.073135 27:0.305951 28:0.305951 29:0.055027 30:0.029071 31:0.021288 32:0.014357 33:0.019377 34:0.122063 35:0.305951 36:0.305951 
1 1:0.017536 2:0.028332 3:0.018654 4:0.03615 5:0.095679 6:0.180797 7:0.290783 8:0.268648 9:0.050992 10:0.017268 11:0.048226 12:0.011515 13:0.060915 14:0.160246 15:0.140414 16:0.290783 17:0.290672 18:0.126512 19:0.010951 20:0.015228 21:0.062434 22:0.125445 23:0.274958 24:0.140599 25:0.290783 26:0.110493 27:0.011519 28:0.037787 29:0.059369 30:0.044661 31:0.158727 32:0.290783 33:0.290783 34:0.290783 35:0.235326 36:0.053024 
1 1:0.29214 2:0.093372 3:0.0231 4:0.017371 5:0.007514 6:0.000878 7:0.010148 8:0.082511 9:0.29214 10:0.267405 11:0.042478 12:0.014929 13:0.020293 14:0.01589 15:0.007588 16:0.086672 17:0.265671 18:0.29214 19:0.29214 20:0.147559 21:0.032001 22:0.043652 23:0.050525 24:0.032697 25:0.03654 26:0.161592 27:0.29214 28:0.29214 29:0.076205 30:0.02224 31:0.047387 32:0.074579 33:0.040597 34:0.271877 35:0.29214 36:0.29214 
1 1:0.112948 2:0.013779 3:0.010283 4:0.014064 5:0.034419 6:0.030154 7:0.351222 8:0.351222 9:0.150345 10:0.024323 11:0.010578 12:0.011867 13:0.014586 14:0.013916 15:0.03527 16:0.2892 17:0.189269 18:0.036847 19:0.058908 20:0.022699 21:0.007534 22:0.016975 23:0.088645 24:0.081645 25:0.351222 26:0.351222 27:0.108581 28:0.028903 29:0.010808 30:0.01905 31:0.065363 32:0.11037 33:0.210482 34:0.351222 35:0.351222 36:0.048713 
1 1:0.01137 2:0.008077 3:0.063215 4:0.214646 5:0.2762 6:0.259603 7:0.2762 8:0.2762 9:0.012478 10:0.03185 11:0.045992 12:0.032281 13:0.101005 14:0.234523 15:0.095789 16:0.210237 17:0.107137 18:0.038291 19:0.021397 20:0.016723 21:0.029602 22:0.266467 23:0.2762 24:0.107291 25:0.2762 26:0.203729 27:0.029103 28:0.038558 29:0.040579 30:0.0444 31:0.203266 32:0.2762 33:0.109842 34:0.2762 35:0.155075 36:0.026664 
1 1:0.005754 2:0.010115 3:0.01229 4:0.105943 5:0.317771 6:0.317771 7:0.265315 8:0.04304 9:0.018468 10:0.003965 11:0.014469 12:0.018604 13:0.062869 14:0.317771 15:0.181013 16:0.146901 17:0.034557 18:0.005246 19:0.023855 20:0.024469 21:0.016332 22:0.19951 23:0.317771 24:0.317771 25:0.295137 26:0.104941 27:0.05483 28:0.012277 29:0.013067 30:0.024639 31:0.152128 32:0.317771 33:0.231822 34:0.146585 35:0.066178 36:0.026912 
1 1:0.013111 2:0.003147 3:0.0147 4:0.07517 5:0.264236 6:0.241748 7:0.273835 8:0.147699 9:0.018495 10:0.085745 11:0.06121 12:0.041546 13:0.075521 14:0.273835 15:0.273835 16:0.273835 17:0.273835 18:0.100167 19:0.019041 20:0.007271 21:0.006752 22:0.118887 23:0.263047 24:0.172849 25:0.187637 26:0.110112 27:0.04389 28:0.051293 29:0.013986 30:0.040763 31:0.145843 32:0.273835 33:0.273835 34:0.266407 35:0.151488 36:0.068775 
1 1:0.131264 2:0.136849 3:0.085611 4:0.084083 5:0.088421 6:0.240326 7:0.240326 8:0.230273 9:0.177037 10:0.194119 11:0.148973 12:0.111684 13:0.068704 14:0.090739 15:0.240326 16:0.240326 17:0.240326 18:0.240326 19:0.056535 20:0.050426 21:0.077036 22:0.156224 23:0.240326 24:0.240326 25:0.1312 26:0.076603 27:0.038961 28:0.135732 29:0.100446 30:0.147621 31:0.158077 32:0.240326 33:0.240326 34:0.21314 35:0.068625 36:0.077949 
1 1:0.083006 2:0.059319 3:0.055128 4:0.095132 5:0.408298 6:0.215098 7:0.247357 8:0.086077 9:0.074116 10:0.017639 11:0.01357 12:0.027761 13:0.099285 14:0.408298 15:0.184272 16:0.223525 17:0.085987 18:0.066959 19:0.037902 20:0.007152 21:0.0181 22:0.078169 23:0.408298 24:0.163112 25:0.034769 26:0.05189 27:0.055983 28:0.015341 29:0.013317 30:0.019444 31:0.092521 32:0.408298 33:0.155589 34:0.038191 35:0.043568 36:0.028945 
0.8875634107334248 1:0.007495 2:0.006485 3:0.037739 4:0.128523 5:0.169663 6:0.204669 7:0.292608 8:0.174747 9:0.002745 10:0.007196 11:0.004377 12:0.020909 13:0.048833 14:0.22985 15:0.25753 16:0.292608 17:0.112818 18:0.005196 19:0.001404 20:0.001751 21:0.086129 22:0.285543 23:0.292608 24:0.223021 25:0.250075 26:0.044414 27:0.001301 28:0.005782 29:0.003247 30:0.028877 31:0.140625 32:0.292608 33:0.292608 34:0.292608 35:0.0733 36:0.00797 
1 1:0.098464 2:0.053735 3:0.00733 4:0.062606 5:0.42364 6:0.180101 7:0.182856 8:0.05727 9:0.06782 10:0.022372 11:0.009834 12:0.006252 13:0.09178 14:0.42364 15:0.24069 16:0.255696 17:0.059283 18:0.045093 19:0.033685 20:0.007538 21:0.009138 22:0.056301 23:0.42364 24:0.096214 25:0.028869 26:0.047128 27:0.037728 28:0.016995 29:0.002377 30:0.010413 31:0.091466 32:0.42364 33:0.143227 34:0.028352 35:0.028002 36:0.024597 
1 1:0.06426 2:0.006873 3:0.003013 4:0.016582 5:0.082881 6:0.075829 7:0.262674 8:0.201563 9:0.076972 10:0.020213 11:0.006802 12:0.005406 13:0.01504 14:0.041662 15:0.070754 16:0.232999 17:0.096003 18:0.027727 19:0.262674 20:0.00639 21:0.00459 22:0.06833 23:0.262674 24:0.255794 25:0.262674 26:0.217965 27:0.262674 28:0.247035 29:0.004278 30:0.008355 31:0.062661 32:0.262674 33:0.262674 34:0.262674 35:0.241514 36:0.262674 
1 1:0.032502 2:0.040599 3:0.062702 4:0.08476 5:0.220579 6:0.211679 7:0.268032 8:0.256461 9:0.101221 10:0.042137 11:0.024456 12:0.028862 13:0.084647 14:0.203135 15:0.13139 16:0.164892 17:0.075068 18:0.044886 19:0.110738 20:0.070907 21:0.129391 22:0.157664 23:0.268032 24:0.246242 25:0.268032 26:0.268032 27:0.249899 28:0.044311 29:0.060815 30:0.077707 31:0.117676 32:0.268032 33:0.152372 34:0.268032 35:0.199961 36:0.092239 
1 1:0.227613 2:0.227613 3:0.19851 4:0.110515 5:0.141535 6:0.057444 7:0.130067 8:0.160843 9:0.227613 10:0.227613 11:0.207279 12:0.201234 13:0.227613 14:0.227613 15:0.085946 16:0.227613 17:0.227613 18:0.227613 19:0.118906 20:0.093503 21:0.066206 22:0.058986 23:0.165265 24:0.099064 25:0.157455 26:0.093554 27:0.091024 28:0.120428 29:0.060604 30:0.110882 31:0.128695 32:0.18694 33:0.077682 34:0.208028 35:0.227613 36:0.173413 
1 1:0.02096 2:0.003888 3:0.013081 4:0.058025 5:0.247605 6:0.032962 7:0.324055 8:0.312606 9:0.027444 10:0.004664 11:0.004475 12:0.005966 13:0.066276 14:0.312727 15:0.048164 16:0.324055 17:0.183874 18:0.007399 19:0.001196 20:0.005662 21:0.013879 22:0.079019 23:0.324055 24:0.060435 25:0.313208 26:0.109104 27:0.000859 28:0.00261 29:0.003978 30:0.008007 31:0.126905 32:0.324055 33:0.114761 34:0.324055 35:0.137399 36:0.004708 
1 1:0.013163 2:0.021673 3:0.057529 4:0.174021 5:0.222994 6:0.273567 7:0.273567 8:0.156191 9:0.00893 10:0.035449 11:0.017022 12:0.013806 13:0.112057 14:0.155319 15:0.273567 16:0.273567 17:0.112541 18:0.03921 19:0.021558 20:0.023856 21:0.039639 22:0.164169 23:0.273567 24:0.273567 25:0.244961 26:0.084612 27:0.014058 28:0.012097 29:0.006687 30:0.021918 31:0.195973 32:0.273567 33:0.273567 34:0.273567 35:0.153507 36:0.055672 
1 1:0.123657 2:0.042583 3:0.05244 4:0.178487 5:0.309274 6:0.206709 7:0.049761 8:0.086507 9:0.118424 10:0.067731 11:0.045696 12:0.024143 13:0.155059 14:0.309274 15:0.309274 16:0.166237 17:0.054602 18:0.081961 19:0.137734 20:0.007769 21:0.021176 22:0.211239 23:0.309274 24:0.165078 25:0.061905 26:0.153082 27:0.176662 28:0.043221 29:0.004869 30:0.014154 31:0.226582 32:0.309274 33:0.309274 34:0.14063 35:0.081963 36:0.078712 
1 1:0.052506 2:0.015432 3:0.044512 4:0.045486 5:0.1168 6:0.248675 7:0.238689 8:0.248675 9:0.078509 10:0.194446 11:0.088783 12:0.088084 13:0.11578 14:0.186946 15:0.248675 16:0.203967 17:0.065261 18:0.191732 19:0.054695 20:0.041228 21:0.099321 22:0.062386 23:0.04583 24:0.178328 25:0.248675 26:0.248675 27:0.119479 28:0.239167 29:0.134544 30:0.187822 31:0.098416 32:0.06505 33:0.208392 34:0.248675 35:0.248675 36:0.248675 
1 1:0.1103 2:0.019527 3:0.007034 4:0.006403 5:0.013209 6:0.00864 7:0.344577 8:0.344577 9:0.23927 10:0.038159 11:0.017907 12:0.009083 13:0.01024 14:0.019117 15:0.012024 16:0.344577 17:0.220128 18:0.100903 19:0.033959 20:0.014262 21:0.008178 22:0.014227 23:0.02921 24:0.019081 25:0.344577 26:0.336541 27:0.117179 28:0.023456 29:0.008408 30:0.00827 31:0.022822 32:0.088284 33:0.066407 34:0.344577 35:0.344577 36:0.098299 
1 1:0.052376 2:0.010689 3:0.018709 4:0.007985 5:0.081227 6:0.070867 7:0.217166 8:0.28262 9:0.263379 10:0.219908 11:0.063173 12:0.116154 13:0.064988 14:0.28262 15:0.28262 16:0.28262 17:0.28262 18:0.28262 19:0.033441 20:0.011699 21:0.011928 22:0.015705 23:0.039413 24:0.025996 25:0.161376 26:0.220395 27:0.06335 28:0.070569 29:0.0119 30:0.008014 31:0.016159 32:0.113647 33:0.19904 34:0.28262 35:0.28262 36:0.12734 
1 1:0.116073 2:0.057165 3:0.039359 4:0.104018 5:0.2611 6:0.2611 7:0.2611 8:0.2611 9:0.15332 10:0.025109 11:0.025611 12:0.016711 13:0.036645 14:0.063345 15:0.184733 16:0.2611 17:0.2611 18:0.054909 19:0.032468 20:0.024357 21:0.053046 22:0.218892 23:0.2611 24:0.175839 25:0.16855 26:0.156813 27:0.039699 28:0.018563 29:0.024708 30:0.062786 31:0.083965 32:0.259756 33:0.2611 34:0.2611 35:0.2611 36:0.041101 
1 1:0.268903 2:0.124166 3:0.028142 4:0.072687 5:0.061318 6:0.047358 7:0.176577 8:0.154914 9:0.158603 10:0.162604 11:0.131537 12:0.062838 13:0.15644 14:0.103641 15:0.073595 16:0.262518 17:0.156228 18:0.115904 19:0.268903 20:0.07251 21:0.008023 22:0.039 23:0.202807 24:0.191354 25:0.268903 26:0.151006 27:0.223327 28:0.121371 29:0.06899 30:0.029107 31:0.140916 32:0.268903 33:0.268903 34:0.268903 35:0.209573 36:0.138451 
1 1:0.096146 2:0.05736 3:0.022194 4:0.020805 5:0.085003 6:0.076505 7:0.293885 8:0.293885 9:0.196758 10:0.048209 11:0.147719 12:0.099036 13:0.110144 14:0.158095 15:0.120789 16:0.293885 17:0.202747 18:0.18775 19:0.058532 20:0.016265 21:0.010939 22:0.010778 23:0.098659 24:0.074858 25:0.293885 26:0.21081 27:0.07951 28:0.049553 29:0.061156 30:0.080648 31:0.080894 32:0.293885 33:0.224746 34:0.293885 35:0.293885 36:0.159461 
1 1:0.264344 2:0.264344 3:0.10513 4:0.153298 5:0.120344 6:0.264344 7:0.11004 8:0.013437 9:0.02482 10:0.24185 11:0.264344 12:0.135824 13:0.139399 14:0.096157 15:0.197616 16:0.074072 17:0.012613 18:0.027776 19:0.253378 20:0.264344 21:0.13031 22:0.168529 23:0.13884 24:0.189676 25:0.087198 26:0.004836 27:0.017848 28:0.111773 29:0.245083 30:0.110535 31:0.221921 32:0.237527 33:0.237788 34:0.118523 35:0.019023 36:0.027607 
1 1:0.014058 2:0.031376 3:0.099916 4:0.101889 5:0.281277 6:0.2487 7:0.024721 8:0.008334 9:0.01769 10:0.043822 11:0.108698 12:0.19994 13:0.253637 14:0.281277 15:0.281277 16:0.1408 17:0.193544 18:0.281277 19:0.009404 20:0.018755 21:0.105992 22:0.0802 23:0.281277 24:0.207461 25:0.016977 26:0.00407 27:0.008304 28:0.050925 29:0.170533 30:0.149034 31:0.125075 32:0.281277 33:0.281277 34:0.133975 35:0.116761 36:0.144981 
1 1:0.043488 2:0.010523 3:0.005856 4:0.020966 5:0.360706 6:0.360706 7:0.332509 8:0.032369 9:0.09347 10:0.085742 11:0.008998 12:0.002983 13:0.027428 14:0.360706 15:0.23437 16:0.188002 17:0.023012 18:0.151774 19:0.030966 20:0.008222 21:0.010111 22:0.055793 23:0.360706 24:0.200528 25:0.086128 26:0.004612 27:0.034646 28:0.077878 29:0.026124 30:0.00255 31:0.059825 32:0.360706 33:0.157918 34:0.081666 35:0.012992 36:0.076121 
1 1:0.083163 2:0.066499 3:0.021522 4:0.059162 5:0.355637 6:0.350644 7:0.244697 8:0.064972 9:0.053958 10:0.030529 11:0.018315 12:0.016779 13:0.055408 14:0.355637 15:0.278728 16:0.221321 17:0.051306 18:0.028508 19:0.034954 20:0.014249 21:0.038597 22:0.175093 23:0.355637 24:0.212366 25:0.078329 26:0.029583 27:0.04894 28:0.02259 29:0.022072 30:0.035521 31:0.135532 32:0.355637 33:0.191449 34:0.068198 35:0.015888 36:0.016582 
1 1:0.125223 2:0.036889 3:0.063072 4:0.063706 5:0.068174 6:0.107944 7:0.27778 8:0.27778 9:0.27778 10:0.188068 11:0.076318 12:0.158612 13:0.126656 14:0.060748 15:0.24576 16:0.27778 17:0.27778 18:0.27778 19:0.023312 20:0.009599 21:0.00763 22:0.006792 23:0.010863 24:0.022891 25:0.274106 26:0.19008 27:0.119268 28:0.075765 29:0.017965 30:0.023971 31:0.014084 32:0.066332 33:0.200844 34:0.27778 35:0.260605 36:0.151234 
1 1:0.007887 2:0.020427 3:0.032286 4:0.085489 5:0.339409 6:0.339409 7:0.165837 8:0.007688 9:0.007738 10:0.006555 11:0.034336 12:0.037576 13:0.063754 14:0.329591 15:0.339409 16:0.127825 17:0.027552 18:0.013461 19:0.002848 20:0.004661 21:0.028254 22:0.059625 23:0.339409 24:0.339409 25:0.066225 26:0.004802 27:0.003326 28:0.00526 29:0.020976 30:0.026789 31:0.067936 32:0.339409 33:0.339409 34:0.076791 35:0.022753 36:0.012007 
-1 1:0.250983 2:0.242456 3:0.064483 4:0.173213 5:0.250983 6:0.16128 7:0.090204 8:0.103166 9:0.250983 10:0.183749 11:0.055028 12:0.081285 13:0.250983 14:0.250983 15:0.082946 16:0.054671 17:0.070066 18:0.145928 19:0.250983 20:0.173012 21:0.074313 22:0.240416 23:0.250983 24:0.136616 25:0.065103 26:0.066414 27:0.250983 28:0.098499 29:0.030446 30:0.033141 31:0.250983 32:0.250983 33:0.075923 34:0.067882 35:0.033381 36:0.081083 
-1 1:0.00994 2:0.006955 3:0.03308 4:0.050848 5:0.307319 6:0.347844 7:0.198617 8:0.072268 9:0.018355 10:0.013188 11:0.01174 12:0.038851 13:0.119936 14:0.350252 15:0.350252 16:0.160324 17:0.020208 18:0.020616 19:0.044045 20:0.041286 21:0.063265 22:0.081786 23:0.350252 24:0.187838 25:0.055918 26:0.043135 27:0.020936 28:0.01255 29:0.014986 30:0.024144 31:0.145847 32:0.350252 33:0.346657 34:0.023664 35:0.021185 36:0.017778 
-1 1:0.266877 2:0.057302 3:0.035548 4:0.096487 5:0.111939 6:0.058587 7:0.120967 8:0.279102 9:0.279102 10:0.122871 11:0.094061 12:0.08667 13:0.136755 14:0.07349 15:0.09297 16:0.21441 17:0.279102 18:0.258533 19:0.18162 20:0.066189 21:0.013546 22:0.019918 23:0.076095 24:0.092191 25:0.114099 26:0.279102 27:0.279102 28:0.087251 29:0.036028 30:0.015642 31:0.028275 32:0.022575 33:0.074964 34:0.279102 35:0.279102 36:0.279102 
-0.2683743235361561 1:0.020975 2:0.01005 3:0.018865 4:0.146114 5:0.342455 6:0.154854 7:0.072237 8:0.080063 9:0.071611 10:0.051664 11:0.060189 12:0.086509 13:0.342455 14:0.342455 15:0.273251 16:0.092897 17:0.037887 18:0.036389 19:0.024646 20:0.013358 21:0.022605 22:0.280087 23:0.342455 24:0.095635 25:0.040992 26:0.073206 27:0.05227 28:0.036628 29:0.032113 30:0.04212 31:0.342455 32:0.342455 33:0.134989 34:0.041209 35:0.062039 36:0.05943 
-1 1:0.060252 2:0.051372 3:0.15828 4:0.191086 5:0.072202 6:0.097083 7:0.322792 8:0.322792 9:0.096697 10:0.047296 11:0.02698 12:0.009835 13:0.007351 14:0.037202 15:0.051365 16:0.289684 17:0.322792 18:0.077164 19:0.051778 20:0.034366 21:0.127332 22:0.172994 23:0.061769 24:0.060194 25:0.322792 26:0.322792 27:0.051829 28:0.045658 29:0.019944 30:0.010018 31:0.009205 32:0.032167 33:0.064209 34:0.322792 35:0.322792 36:0.103084 
-1 1:0.023628 2:0.015423 3:0.034634 4:0.079976 5:0.340954 6:0.340954 7:0.102959 8:0.029669 9:0.018306 10:0.010397 11:0.011354 12:0.016217 13:0.053906 14:0.340954 15:0.340954 16:0.090312 17:0.021993 18:0.005158 19:0.029182 20:0.027097 21:0.030339 22:0.154521 23:0.340954 24:0.322129 25:0.031631 26:0.024525 27:0.017171 28:0.025966 29:0.015888 30:0.026387 31:0.170783 32:0.340954 33:0.321403 34:0.019257 35:0.014928 36:0.009177 
-1 1:0.084256 2:0.102693 3:0.151522 4:0.028686 5:0.059719 6:0.274133 7:0.311796 8:0.110517 9:0.029283 10:0.065321 11:0.246812 12:0.311796 13:0.113483 14:0.054819 15:0.07855 16:0.080033 17:0.030402 18:0.011996 19:0.103534 20:0.161152 21:0.158705 22:0.046354 23:0.135842 24:0.311796 25:0.311796 26:0.145751 27:0.018046 28:0.085008 29:0.311796 30:0.311796 31:0.06864 32:0.085135 33:0.181484 34:0.157725 35:0.066311 36:0.014736 
-1 1:0.238413 2:0.034726 3:0.060743 4:0.018955 5:0.049693 6:0.112105 7:0.10359 8:0.136629 9:0.269325 10:0.175311 11:0.035056 12:0.08699 13:0.012315 14:0.039906 15:0.066549 16:0.157885 17:0.155481 18:0.251575 19:0.269325 20:0.05343 21:0.078032 22:0.026647 23:0.071635 24:0.148363 25:0.269325 26:0.269325 27:0.269325 28:0.269325 29:0.082718 30:0.133532 31:0.023115 32:0.069771 33:0.113956 34:0.269325 35:0.269325 36:0.269325 
-1 1:0.016581 2:0.020438 3:0.034256 4:0.1341 5:0.318061 6:0.228029 7:0.089061 8:0.029703 9:0.009122 10:0.014807 11:0.021904 12:0.090676 13:0.254523 14:0.318061 15:0.318061 16:0.146639 17:0.06987 18:0.030868 19:0.043409 20:0.078087 21:0.047379 22:0.309046 23:0.318061 24:0.092307 25:0.047055 26:0.028458 27:0.00861 28:0.102304 29:0.119485 30:0.0816 31:0.318061 32:0.318061 33:0.160378 34:0.14713 35:0.105236 36:0.029338 
-1 1:0.151068 2:0.093039 3:0.076168 4:0.033278 5:0.15701 6:0.134928 7:0.343291 8:0.257755 9:0.229867 10:0.116273 11:0.024065 12:0.012422 13:0.010149 14:0.050512 15:0.055306 16:0.343291 17:0.131778 18:0.09763 19:0.029815 20:0.023299 21:0.030484 22:0.067656 23:0.214352 24:0.173876 25:0.343291 26:0.253502 27:0.069473 28:0.009468 29:0.002041 30:0.002544 31:0.00825 32:0.06804 33:0.158016 34:0.343291 35:0.308418 36:0.026359 
-1 1:0.07379 2:0.022869 3:0.009005 4:0.028761 5:0.054221 6:0.082658 7:0.231863 8:0.231863 9:0.167136 10:0.231863 11:0.231863 12:0.188986 13:0.170455 14:0.21094 15:0.231863 16:0.231863 17:0.231863 18:0.175578 19:0.118719 20:0.090657 21:0.032592 22:0.056976 23:0.042285 24:0.073035 25:0.171065 26:0.121695 27:0.096433 28:0.231863 29:0.231863 30:0.174221 31:0.098749 32:0.167462 33:0.218947 34:0.231863 35:0.196083 36:0.18372 
-1 1:0.014642 2:0.008639 3:0.005874 4:0.021096 5:0.382591 6:0.346967 7:0.125734 8:0.021793 9:0.01991 10:0.002131 11:0.000274 12:0.00569 13:0.043244 14:0.382591 15:0.370864 16:0.031517 17:0.002404 18:0.001764 19:0.02876 20:0.015562 21:0.017898 22:0.061927 23:0.382591 24:0.263879 25:0.071328 26:0.017768 27:0.017731 28:0.008734 29:0.00273 30:0.010722 31:0.134365 32:0.382591 33:0.182399 34:0.01607 35:0.005289 36:0.002808 
-1 1:0.076125 2:0.02003 3:0.042015 4:0.034255 5:0.176188 6:0.278022 7:0.293316 8:0.247941 9:0.085196 10:0.179137 11:0.035725 12:0.023647 13:0.031101 14:0.202712 15:0.147781 16:0.249413 17:0.181976 18:0.19422 19:0.043774 20:0.012741 21:0.02588 22:0.045646 23:0.134667 24:0.199077 25:0.293316 26:0.293316 27:0.043601 28:0.09832 29:0.03541 30:0.018682 31:0.00998 32:0.153578 33:0.194249 34:0.293316 35:0.293316 36:0.112404 
-1 1:0.061378 2:0.01375 3:0.017685 4:0.003908 5:0.102269 6:0.261222 7:0.261222 8:0.261222 9:0.14239 10:0.261222 11:0.133121 12:0.032809 13:0.00463 14:0.083563 15:0.261222 16:0.261222 17:0.261222 18:0.261222 19:0.027199 20:0.003844 21:0.002866 22:0.000673 23:0.014563 24:0.10297 25:0.261222 26:0.193251 27:0.072363 28:0.209982 29:0.066765 30:0.022253 31:0.00524 32:0.025091 33:0.117741 34:0.261222 35:0.261222 36:0.261222 
-1 1:0.153846 2:0.047354 3:0.023005 4:0.049304 5:0.033186 6:0.054099 7:0.260279 8:0.265745 9:0.265745 10:0.191078 11:0.072302 12:0.023639 13:0.062567 14:0.052281 15:0.056515 16:0.265745 17:0.265745 18:0.265745 19:0.074083 20:0.029125 21:0.110818 22:0.09338 23:0.052124 24:0.122719 25:0.23449 26:0.265745 27:0.19503 28:0.117674 29:0.02781 30:0.066111 31:0.08766 32:0.085134 33:0.19214 34:0.265745 35:0.265745 36:0.265745 
-1 1:0.083381 2:0.182245 3:0.237391 4:0.129187 5:0.162851 6:0.183713 7:0.050143 8:0.027582 9:0.045002 10:0.15494 11:0.237391 12:0.237391 13:0.237391 14:0.237391 15:0.237391 16:0.093541 17:0.047791 18:0.050041 19:0.184531 20:0.237391 21:0.237391 22:0.188729 23:0.134603 24:0.175601 25:0.075512 26:0.044813 27:0.073087 28:0.125006 29:0.181287 30:0.176508 31:0.163576 32:0.237391 33:0.237391 34:0.167604 35:0.064377 36:0.06162 
-0.1474425495941455 1:0.043843 2:0.04275 3:0.076146 4:0.119176 5:0.39944 6:0.183879 7:0.09593 8:0.059668 9:0.038637 10:0.046544 11:0.030976 12:0.047112 13:0.093343 14:0.39944 15:0.153989 16:0.070589 17:0.04929 18:0.029891 19:0.095264 20:0.043682 21:0.202861 22:0.201286 23:0.39944 24:0.110569 25:0.050859 26:0.108161 27:0.146275 28:0.112337 29:0.062259 30:0.18095 31:0.186808 32:0.39944 33:0.079219 34:0.02142 35:0.049259 36:0.077773 
-1 1:0.019228 2:0.002752 3:0.065923 4:0.08944 5:0.103728 6:0.122358 7:0.111129 8:0.271787 9:0.271787 10:0.025262 11:0.024156 12:0.248943 13:0.271787 14:0.256297 15:0.183866 16:0.227906 17:0.271787 18:0.22517 19:0.013827 20:0.003502 21:0.024122 22:0.043809 23:0.067827 24:0.078324 25:0.101308 26:0.247793 27:0.193886 28:0.041453 29:0.006262 30:0.054989 31:0.12015 32:0.10806 33:0.102383 34:0.271787 35:0.271787 36:0.271787 
-1 1:0.037646 2:0.036364 3:0.041456 4:0.067626 5:0.422929 6:0.124324 7:0.01997 8:0.001419 9:0.006178 10:0.04124 11:0.032845 12:0.04296 13:0.09049 14:0.422929 15:0.287524 16:0.060008 17:0.013417 18:0.020688 19:0.023985 20:0.025396 21:0.07259 22:0.146533 23:0.422929 24:0.078184 25:0.008476 26:0.003518 27:0.00595 28:0.037275 29:0.019999 30:0.064381 31:0.262419 32:0.422929 33:0.212488 34:0.019639 35:0.008532 36:0.03285 
-1 1:0.071444 2:0.161495 3:0.151514 4:0.090541 5:0.127552 6:0.177808 7:0.290524 8:0.032563 9:0.017465 10:0.08832 11:0.290524 12:0.290524 13:0.031134 14:0.122782 15:0.115623 16:0.056393 17:0.008857 18:0.028437 19:0.048886 20:0.104465 21:0.124388 22:0.038746 23:0.263958 24:0.290524 25:0.290524 26:0.071985 27:0.012613 28:0.092151 29:0.232286 30:0.182032 31:0.04781 32:0.214435 33:0.290524 34:0.290524 35:0.054828 36:0.035302 
-1 1:0.084456 2:0.022176 3:0.012076 4:0.018937 5:0.026636 6:0.218038 7:0.324529 8:0.29581 9:0.136105 10:0.273866 11:0.131344 12:0.025749 13:0.017267 14:0.026121 15:0.258424 16:0.324529 17:0.049105 18:0.088038 19:0.016458 20:0.015008 21:0.021457 22:0.037408 23:0.07237 24:0.324529 25:0.324529 26:0.065193 27:0.016794 28:0.072975 29:0.023044 30:0.017931 31:0.028893 32:0.106607 33:0.324529 34:0.324529 35:0.021121 36:0.025363 
-1 1:0.193755 2:0.034558 3:0.013084 4:0.063271 5:0.141237 6:0.295854 7:0.295854 8:0.254386 9:0.143268 10:0.295854 11:0.210441 12:0.030341 13:0.049833 14:0.057835 15:0.084706 16:0.085359 17:0.086675 18:0.152563 19:0.171921 20:0.02389 21:0.003633 22:0.035313 23:0.145145 24:0.295854 25:0.295854 26:0.122649 27:0.154981 28:0.295854 29:0.130552 30:0.010087 31:0.01404 32:0.062062 33:0.136851 34:0.204816 35:0.102766 36:0.208655 
-1 1:0.045976 2:0.023363 3:0.01331 4:0.011905 5:0.01282 6:0.029501 7:0.437267 8:0.260231 9:0.038214 10:0.020333 11:0.014271 12:0.00884 13:0.002552 14:0.010932 15:0.045694 16:0.437267 17:0.134399 18:0.022746 19:0.028169 20:0.026634 21:0.011549 22:0.016744 23:0.040294 24:0.088987 25:0.437267 26:0.144928 27:0.022869 28:0.014145 29:0.012411 30:0.005542 31:0.009053 32:0.054058 33:0.229872 34:0.437267 35:0.215676 36:0.020209 
-1 1:0.156081 2:0.07853 3:0.091339 4:0.038032 5:0.033514 6:0.021317 7:0.104818 8:0.302502 9:0.186364 10:0.046732 11:0.019399 12:0.027722 13:0.059263 14:0.244119 15:0.073175 16:0.27068 17:0.211524 18:0.080109 19:0.14364 20:0.12978 21:0.145024 22:0.217067 23:0.162975 24:0.031984 25:0.302502 26:0.302502 27:0.139755 28:0.038569 29:0.027334 30:0.032972 31:0.084252 32:0.182398 33:0.232499 34:0.302502 35:0.302502 36:0.071585 
-1 1:0.056908 2:0.071467 3:0.059069 4:0.01829 5:0.097968 6:0.252543 7:0.188146 8:0.252543 9:0.1461 10:0.062391 11:0.252543 12:0.252543 13:0.206353 14:0.220899 15:0.252543 16:0.160142 17:0.204665 18:0.05984 19:0.183262 20:0.092612 21:0.051442 22:0.01111 23:0.039905 24:0.091698 25:0.101584 26:0.224155 27:0.252543 28:0.156095 29:0.192961 30:0.210249 31:0.045523 32:0.04681 33:0.116962 34:0.153444 35:0.252543 36:0.208195 
-1 1:0.047104 2:0.02983 3:0.083883 4:0.06816 5:0.150302 6:0.200944 7:0.34391 8:0.199782 9:0.028062 10:0.036691 11:0.019629 12:0.019692 13:0.025751 14:0.040785 15:0.10109 16:0.34391 17:0.212205 18:0.037317 19:0.025459 20:0.023025 21:0.067197 22:0.061919 23:0.195274 24:0.34391 25:0.34391 26:0.165155 27:0.009561 28:0.028719 29:0.021474 30:0.030794 31:0.028105 32:0.086382 33:0.146243 34:0.34391 35:0.34391 36:0.021659 
-1 1:0.081194 2:0.13016 3:0.066353 4:0.17662 5:0.285661 6:0.115493 7:0.220486 8:0.067604 9:0.050922 10:0.10287 11:0.082562 12:0.071736 13:0.290448 14:0.317492 15:0.150343 16:0.317492 17:0.083089 18:0.049239 19:0.046392 20:0.074828 21:0.083438 22:0.317492 23:0.317492 24:0.083114 25:0.051469 26:0.018262 27:0.028968 28:0.036195 29:0.020884 30:0.036577 31:0.317492 32:0.317492 33:0.099677 34:0.065128 35:0.0187 36:0.016732 
-1 1:0.009504 2:0.006107 3:0.024238 4:0.047727 5:0.214097 6:0.344798 7:0.249981 8:0.027594 9:0.030569 10:0.008854 11:0.004958 12:0.04469 13:0.073451 14:0.344798 15:0.344798 16:0.308943 17:0.028759 18:0.033219 19:0.012881 20:0.014196 21:0.026295 22:0.046104 23:0.167046 24:0.344798 25:0.090315 26:0.028371 27:0.035952 28:0.010348 29:0.013537 30:0.046125 31:0.085235 32:0.344798 33:0.344798 34:0.114495 35:0.022833 36:0.026405 
-0.06939947553550993 1:0.270547 2:0.004366 3:0.001629 4:0.00203 5:0.016892 6:0.050672 7:0.274585 8:0.241851 9:0.274585 10:0.274585 11:0.08932 12:0.004367 13:0 14:0.006934 15:0.038562 16:0.051983 17:0.109754 18:0.274585 19:0.248397 20:0.004583 21:0.014833 22:0.03658 23:0.099737 24:0.1022 25:0.236693 26:0.242145 27:0.274585 28:0.274585 29:0.051447 30:0.002878 31:0.000952 32:0.016549 33:0.030998 34:0.1817 35:0.274585 36:0.274585 
-1 1:0.10195 2:0.071295 3:0.278767 4:0.278767 5:0.278767 6:0.057482 7:0.196362 8:0.086754 9:0.11269 10:0.139891 11:0.054081 12:0.13009 13:0.278767 14:0.278767 15:0.08132 16:0.24048 17:0.169207 18:0.191924 19:0.026091 20:0.044187 21:0.236834 22:0.160049 23:0.132155 24:0.021708 25:0.137017 26:0.065008 27:0.042261 28:0.075505 29:0.015869 30:0.057083 31:0.1783 32:0.22559 33:0.047634 34:0.278767 35:0.224968 36:0.11056 
-1 1:0.02147 2:0.044152 3:0.069219 4:0.119632 5:0.171476 6:0.036415 7:0.010778 8:0.01718 9:0.036494 10:0.050525 11:0.173907 12:0.186746 13:0.125525 14:0.151803 15:0.124314 16:0.053423 17:0.042425 18:0.107886 19:0.107052 20:0.112938 21:0.130576 22:0.127821 23:0.323865 24:0.291544 25:0.194993 26:0.187646 27:0.170154 28:0.102954 29:0.143601 30:0.174585 31:0.187351 32:0.323865 33:0.323865 34:0.323865 35:0.119686 36:0.170568 
-1 1:0.177222 2:0.198086 3:0.147376 4:0.115255 5:0.121003 6:0.103559 7:0.231374 8:0.231374 9:0.156626 10:0.122574 11:0.093495 12:0.100772 13:0.115523 14:0.16447 15:0.155686 16:0.231374 17:0.190855 18:0.162201 19:0.231374 20:0.231374 21:0.209241 22:0.077169 23:0.074402 24:0.044014 25:0.093513 26:0.086314 27:0.134812 28:0.208246 29:0.213558 30:0.180608 31:0.150574 32:0.169496 33:0.127471 34:0.225125 35:0.215554 36:0.187658 
-1 1:0.107382 2:0.066082 3:0.015503 4:0.019648 5:0.030744 6:0.068524 7:0.261653 8:0.261653 9:0.261653 10:0.162128 11:0.062474 12:0.014718 13:0.022804 14:0.080568 15:0.050261 16:0.057025 17:0.210255 18:0.261653 19:0.163935 20:0.191453 21:0.124088 22:0.064157 23:0.104709 24:0.258394 25:0.261653 26:0.184677 27:0.224253 28:0.261653 29:0.110815 30:0.053957 31:0.037096 32:0.09764 33:0.15667 34:0.261653 35:0.210486 36:0.261653 
-1 1:0.035535 2:0.042922 3:0.062297 4:0.129004 5:0.306425 6:0.306425 7:0.097721 8:0.013868 9:0.033452 10:0.003061 11:0.000788 12:0.014394 13:0.106618 14:0.306425 15:0.306425 16:0.202098 17:0.015952 18:0.008066 19:0.016901 20:0.017758 21:0.142529 22:0.251682 23:0.306425 24:0.147922 25:0.017362 26:0.006633 27:0.01422 28:0.00449 29:0.002468 30:0.198356 31:0.306425 32:0.306425 33:0.306425 34:0.106354 35:0.028592 36:0.018469 
-1 1:0.24747 2:0.067489 3:0.017866 4:0.047167 5:0.24162 6:0.207054 7:0.094066 8:0.149337 9:0.093091 10:0.266038 11:0.266038 12:0.010465 13:0.057954 14:0.266038 15:0.160188 16:0.048214 17:0.11855 18:0.231677 19:0.266038 20:0.087241 21:0.063295 22:0.092982 23:0.231178 24:0.167856 25:0.093236 26:0.111591 27:0.087427 28:0.266038 29:0.266038 30:0.034837 31:0.073316 32:0.173975 33:0.157475 34:0.055679 35:0.12429 36:0.2307 
-1 1:0.026268 2:0.035748 3:0.054933 4:0.165118 5:0.275888 6:0.164013 7:0.072448 8:0.052037 9:0.0655 10:0.121182 11:0.043369 12:0.101523 13:0.275888 14:0.275888 15:0.269075 16:0.134347 17:0.116005 18:0.19356 19:0.02742 20:0.027845 21:0.12229 22:0.240404 23:0.275888 24:0.132081 25:0.057466 26:0.054075 27:0.044713 28:0.100138 29:0.033926 30:0.184263 31:0.275888 32:0.275888 33:0.24806 34:0.122449 35:0.145952 36:0.24085 
-1 1:0.088315 2:0.103743 3:0.198225 4:0.136056 5:0.163875 6:0.115204 7:0.079249 8:0.021951 9:0.036224 10:0.169563 11:0.195938 12:0.269558 13:0.12798 14:0.254075 15:0.117266 16:0.093273 17:0.087487 18:0.181458 19:0.133756 20:0.090483 21:0.227998 22:0.175165 23:0.269558 24:0.269558 25:0.062982 26:0.031817 27:0.069826 28:0.077241 29:0.156157 30:0.269558 31:0.230319 32:0.269558 33:0.269558 34:0.106283 35:0.051256 36:0.0987 
-1 1:0.044669 2:0.091924 3:0.145909 4:0.091208 5:0.103707 6:0.039019 7:0.337675 8:0.337675 9:0.078442 10:0.035465 11:0.02206 12:0.029237 13:0.025328 14:0.040895 15:0.028174 16:0.337675 17:0.265094 18:0.044839 19:0.046029 20:0.078212 21:0.131353 22:0.100421 23:0.132526 24:0.08876 25:0.337675 26:0.283143 27:0.044117 28:0.014612 29:0.010373 30:0.016339 31:0.043979 32:0.120665 33:0.123685 34:0.337675 35:0.337675 36:0.022161 
-1 1:0.053214 2:0.026273 3:0.038235 4:0.129228 5:0.131958 6:0.241985 7:0.28088 8:0.28088 9:0.178099 10:0.085726 11:0.038768 12:0.024372 13:0.088321 14:0.108343 15:0.077017 16:0.252921 17:0.1924 18:0.148229 19:0.044918 20:0.028361 21:0.056923 22:0.192901 23:0.28088 24:0.215298 25:0.28088 26:0.265452 27:0.097203 28:0.06923 29:0.055727 30:0.042576 31:0.076688 32:0.164866 33:0.092437 34:0.28088 35:0.28088 36:0.125408 
-1 1:0.007104 2:0.002981 3:0.000775 4:0.004802 5:0.037735 6:0.303493 7:0.303493 8:0.303493 9:0.168557 10:0.020257 11:0.028811 12:0.066066 13:0.100947 14:0.111165 15:0.12957 16:0.226559 17:0.303493 18:0.193232 19:0.011075 20:0.006819 21:0.001276 22:0.003971 23:0.041678 24:0.142226 25:0.244471 26:0.303493 27:0.12055 28:0.018405 29:0.013081 30:0.030666 31:0.067656 32:0.114241 33:0.222118 34:0.303493 35:0.303493 36:0.154328 
-1 1:0.042472 2:0.033483 3:0.036566 4:0.061106 5:0.079409 6:0.290198 7:0.342384 8:0.245228 9:0.051713 10:0.042517 11:0.035013 12:0.036067 13:0.032428 14:0.043032 15:0.078443 16:0.220309 17:0.07591 18:0.05112 19:0.050145 20:0.016052 21:0.015478 22:0.05371 23:0.157069 24:0.342384 25:0.342384 26:0.283114 27:0.044188 28:0.035733 29:0.012719 30:0.012981 31:0.046413 32:0.179736 33:0.342384 34:0.342384 35:0.168399 36:0.041425 
-1 1:0.116378 2:0.137682 3:0.102125 4:0.161557 5:0.329083 6:0.329083 7:0.066295 8:0.041882 9:0.04783 10:0.055188 11:0.060874 12:0.039039 13:0.108302 14:0.329083 15:0.329083 16:0.053838 17:0.036018 18:0.022933 19:0.017712 20:0.085812 21:0.092235 22:0.176323 23:0.329083 24:0.2192 25:0.036404 26:0.019815 27:0.019405 28:0.008556 29:0.018678 30:0.031665 31:0.249475 32:0.329083 33:0.287661 34:0.021539 35:0.020304 36:0.006408 
-1 1:0.065083 2:0.01122 3:0.008868 4:0.019607 5:0.035018 6:0.128102 7:0.278273 8:0.278273 9:0.278273 10:0.130425 11:0.036475 12:0.070979 13:0.125521 14:0.21718 15:0.131274 16:0.153411 17:0.278273 18:0.278273 19:0.067735 20:0.011872 21:0.015045 22:0.036827 23:0.100629 24:0.158195 25:0.256226 26:0.278273 27:0.112851 28:0.277583 29:0.071532 30:0.12147 31:0.11123 32:0.14145 33:0.055795 34:0.123305 35:0.278273 36:0.195365 
-1 1:0.025351 2:0.002352 3:0.004119 4:0.005344 5:0.09769 6:0.308456 7:0.308456 8:0.308456 9:0.197692 10:0.015397 11:0.004836 12:0.005924 13:0.007948 14:0.026542 15:0.155723 16:0.308456 17:0.308456 18:0.259747 19:0.007841 20:0.006652 21:0.00476 22:0.006816 23:0.098691 24:0.246075 25:0.172883 26:0.173278 27:0.09147 28:0.033352 29:0.015827 30:0.007835 31:0.005873 32:0.023857 33:0.061822 34:0.308456 35:0.308456 36:0.21025 
-1 1:0.003442 2:0.005075 3:0.003896 4:0.029691 5:0.315371 6:0.106444 7:0.019946 8:0.008085 9:0.003538 10:0.002618 11:0.000867 12:0.001143 13:0.056252 14:0.423533 15:0.423533 16:0.090274 17:0.002865 18:0.002572 19:0.003761 20:0.004141 21:0.004185 22:0.132676 23:0.375054 24:0.019468 25:0.010202 26:0.006728 27:0.005086 28:0.001433 29:0.000877 30:0.000969 31:0.343576 32:0.423533 33:0.238546 34:0.016242 35:0.00071 36:0.001604 
-1 1:0.062665 2:0.013318 3:0.001181 4:0.007146 5:0.036724 6:0.068448 7:0.335894 8:0.335894 9:0.18429 10:0.019201 11:0.00197 12:0.001633 13:0.007943 14:0.025143 15:0.060353 16:0.335894 17:0.335894 18:0.107644 19:0.010681 20:0.001009 21:0.002183 22:0.013003 23:0.075144 24:0.123225 25:0.276643 26:0.335894 27:0.136242 28:0.011576 29:0.000539 30:0.000448 31:0.004263 32:0.039533 33:0.071399 34:0.335894 35:0.335894 36:0.152942 
-1 1:0.03315 2:0.022701 3:0.039954 4:0.088192 5:0.316373 6:0.212122 7:0.042822 8:0.03173 9:0.033648 10:0.010061 11:0.003744 12:0.040226 13:0.150895 14:0.316373 15:0.316373 16:0.043407 17:0.005149 18:0.004491 19:0.038703 20:0.058913 21:0.210711 22:0.312669 23:0.316373 24:0.178194 25:0.065537 26:0.005972 27:0.016765 28:0.013196 29:0.016087 30:0.150637 31:0.316373 32:0.316373 33:0.316373 34:0.056163 35:0.003336 36:0.004729 
-1 1:0.029669 2:0.009476 3:0.014853 4:0.044788 5:0.086637 6:0.047326 7:0.325585 8:0.325585 9:0.260835 10:0.047212 11:0.070517 12:0.290166 13:0.18803 14:0.248813 15:0.08308 16:0.325585 17:0.325585 18:0.117048 19:0.049042 20:0.016077 21:0.008552 22:0.031006 23:0.061072 24:0.030323 25:0.09823 26:0.063113 27:0.046417 28:0.118904 29:0.045735 30:0.035329 31:0.050707 32:0.089099 33:0.027988 34:0.325585 35:0.325585 36:0.132547 
-1 1:0.081834 2:0.023642 3:0.0069 4:0.014521 5:0.039488 6:0.083243 7:0.213444 8:0.29822 9:0.212659 10:0.069359 11:0.021094 12:0.004145 13:0.012039 14:0.035794 15:0.121276 16:0.29822 17:0.260015 18:0.125263 19:0.242724 20:0.048473 21:0.01159 22:0.007042 23:0.027246 24:0.044256 25:0.140888 26:0.29822 27:0.29822 28:0.236454 29:0.048244 30:0.008457 31:0.011033 32:0.058866 33:0.130722 34:0.29822 35:0.29822 36:0.29822 
-1 1:0.089425 2:0.050134 3:0.049295 4:0.068946 5:0.392248 6:0.135101 7:0.092278 8:0.02788 9:0.09503 10:0.038625 11:0.071843 12:0.057936 13:0.074117 14:0.392248 15:0.131201 16:0.157663 17:0.136311 18:0.080459 19:0.037974 20:0.01034 21:0.022666 22:0.392248 23:0.392248 24:0.030955 25:0.01574 26:0.008654 27:0.051139 28:0.021992 29:0.009229 30:0.009672 31:0.273202 32:0.392248 33:0.042982 34:0.05369 35:0.049754 36:0.037753 
-1 1:0.00864 2:0.012272 3:0.022324 4:0.067955 5:0.373738 6:0.313208 7:0.027921 8:0.012432 9:0.016396 10:0.006961 11:0.010315 12:0.02231 13:0.079098 14:0.373738 15:0.373738 16:0.036096 17:0.029129 18:0.018791 19:0.009473 20:0.014724 21:0.028859 22:0.259081 23:0.373738 24:0.075763 25:0.004005 26:0.003064 27:0.014349 28:0.008336 29:0.015268 30:0.03675 31:0.301746 32:0.373738 33:0.126527 34:0.019112 35:0.017534 36:0.013768 
-1 1:0.052832 2:0.014398 3:0.032988 4:0.093279 5:0.173125 6:0.195917 7:0.341137 8:0.307164 9:0.078749 10:0.009167 11:0.009559 12:0.011435 13:0.025001 14:0.031553 15:0.047472 16:0.287188 17:0.092975 18:0.023009 19:0.049568 20:0.024672 21:0.018652 22:0.067605 23:0.243263 24:0.341137 25:0.341137 26:0.216145 27:0.064348 28:0.013428 29:0.005567 30:0.003313 31:0.012575 32:0.118447 33:0.313244 34:0.341137 35:0.148073 36:0.033039 
-0.175498781691725 1:0.104681 2:0.028802 3:0.027184 4:0.021823 5:0.018451 6:0.027849 7:0.176957 8:0.316077 9:0.316077 10:0.038756 11:0.012487 12:0.010403 13:0.019474 14:0.015648 15:0.016082 16:0.168877 17:0.314035 18:0.19956 19:0.102294 20:0.037935 21:0.031106 22:0.033727 23:0.020689 24:0.006085 25:0.251019 26:0.316077 27:0.316077 28:0.059477 29:0.024283 30:0.013117 31:0.016499 32:0.013868 33:0.01484 34:0.316077 35:0.316077 36:0.316077 
-1 1:0.053521 2:0.155065 3:0.17898 4:0.116041 5:0.121432 6:0.100067 7:0.311178 8:0.311178 9:0.087505 10:0.045709 11:0.097496 12:0.115995 13:0.091448 14:0.050968 15:0.187075 16:0.311178 17:0.290312 18:0.110997 19:0.027041 20:0.020658 21:0.026246 22:0.075645 23:0.072577 24:0.103871 25:0.311178 26:0.272566 27:0.073738 28:0.020512 29:0.005664 30:0.016325 31:0.020457 32:0.062455 33:0.17355 34:0.311178 35:0.311178 36:0.070375 
-1 1:0.011559 2:0.009712 3:0.025171 4:0.105188 5:0.397096 6:0.260976 7:0.191183 8:0.056449 9:0.025177 10:0.018035 11:0.015062 12:0.027496 13:0.10308 14:0.397096 15:0.216962 16:0.096857 17:0.021268 18:0.033867 19:0.009649 20:0.009096 21:0.045455 22:0.192566 23:0.397096 24:0.164956 25:0.156331 26:0.152467 27:0.035956 28:0.018114 29:0.030389 30:0.046554 31:0.171353 32:0.397096 33:0.148366 34:0.046138 35:0.039834 36:0.029629 
-1 1:0.014006 2:0.013978 3:0.021802 4:0.165323 5:0.300453 6:0.300453 7:0.300453 8:0.047002 9:0.01219 10:0.012745 11:0.007535 12:0.016363 13:0.13895 14:0.244971 15:0.300453 16:0.228039 17:0.041127 18:0.008536 19:0.036247 20:0.081121 21:0.111121 22:0.208364 23:0.300453 24:0.300453 25:0.085707 26:0.020701 27:0.012205 28:0.02292 29:0.034294 30:0.046565 31:0.170674 32:0.300453 33:0.300453 34:0.073273 35:0.020602 36:0.017882 
-1 1:0.012303 2:0.021826 3:0.035294 4:0.046454 5:0.393005 6:0.348442 7:0.055473 8:0.007237 9:0.013824 10:0.011933 11:0.009073 12:0.012598 13:0.039734 14:0.393005 15:0.393005 16:0.081292 17:0.007592 18:0.012312 19:0.010251 20:0.014443 21:0.020981 22:0.07839 23:0.393005 24:0.108157 25:0.00818 26:0.008681 27:0.013609 28:0.010527 29:0.005039 30:0.012557 31:0.136341 32:0.393005 33:0.219317 34:0.008395 35:0.00707 36:0.015412 
-1 1:0.005341 2:0.004831 3:0.006734 4:0.100098 5:0.341569 6:0.331658 7:0.066262 8:0.004647 9:0.003542 10:0.072372 11:0.048512 12:0.033989 13:0.130596 14:0.341569 15:0.339519 16:0.063967 17:0.017534 18:0.034207 19:0.01641 20:0.010636 21:0.013467 22:0.265209 23:0.341569 24:0.145895 25:0.023826 26:0.009845 27:0.007322 28:0.075555 29:0.064364 30:0.062456 31:0.331996 32:0.341569 33:0.195686 34:0.023627 35:0.010852 36:0.053679 
-1 1:0.09757 2:0.092718 3:0.113931 4:0.255686 5:0.255686 6:0.2449 7:0.255686 8:0.19064 9:0.155435 10:0.130946 11:0.07506 12:0.065465 13:0.119838 14:0.185374 15:0.061618 16:0.168789 17:0.178119 18:0.159285 19:0.017943 20:0.016549 21:0.085127 22:0.255686 23:0.255686 24:0.240471 25:0.248672 26:0.201712 27:0.074065 28:0.056847 29:0.0075 30:0.00647 31:0.032941 32:0.124838 33:0.1424 34:0.255686 35:0.255686 36:0.095433 
-1 1:0.006404 2:0.006159 3:0.040261 4:0.054406 5:0.268628 6:0.100109 7:0.107801 8:0.046437 9:0.005346 10:0.140745 11:0.024643 12:0.306277 13:0.214125 14:0.314483 15:0.243817 16:0.314483 17:0.280022 18:0.08201 19:0.004145 20:0.00124 21:0.009481 22:0.049515 23:0.267777 24:0.068368 25:0.018109 26:0.010508 27:0.003233 28:0.038989 29:0.000691 30:0.052658 31:0.13248 32:0.314483 33:0.314483 34:0.28784 35:0.098533 36:0.046487 
-1 1:0.302077 2:0.302077 3:0.254167 4:0.033889 5:0.033533 6:0.015885 7:0.098838 8:0.177049 9:0.302077 10:0.302077 11:0.302077 12:0.302077 13:0.064709 14:0.058192 15:0.034618 16:0.102041 17:0.123768 18:0.170988 19:0.260726 20:0.107999 21:0.058331 22:0.031843 23:0.168315 24:0.077353 25:0.182244 26:0.128616 27:0.186805 28:0.13156 29:0.09175 30:0.121778 31:0.03016 32:0.065758 33:0.054908 34:0.095351 35:0.10736 36:0.07107 
-1 1:0.140322 2:0.085611 3:0.281183 4:0.191796 5:0.081259 6:0.055566 7:0.173561 8:0.111811 9:0.167786 10:0.193264 11:0.099817 12:0.169712 13:0.122824 14:0.133068 15:0.141174 16:0.281183 17:0.157299 18:0.281183 19:0.114418 20:0.118478 21:0.281183 22:0.101502 23:0.040119 24:0.026003 25:0.281183 26:0.125995 27:0.087196 28:0.099544 29:0.045187 30:0.082074 31:0.076957 32:0.10852 33:0.204737 34:0.281183 35:0.267831 36:0.108254 
-0.5150960872980371 1:0.008681 2:0.018707 3:0.046006 4:0.111677 5:0.345088 6:0.059583 7:0.017957 8:0.026011 9:0.026465 10:0.001387 11:0.01017 12:0.040178 13:0.285307 14:0.345088 15:0.195275 16:0.061922 17:0.027379 18:0.007317 19:0.014664 20:0.086379 21:0.205258 22:0.165088 23:0.345088 24:0.101143 25:0.023226 26:0.013563 27:0.017004 28:0.004244 29:0.101969 30:0.276857 31:0.323836 32:0.345088 33:0.299119 34:0.065696 35:0.004885 36:0.002186 
-1 1:0.181864 2:0.253218 3:0.253218 4:0.253218 5:0.172584 6:0.037854 7:0.137462 8:0.126299 9:0.253218 10:0.100822 11:0.029293 12:0.069516 13:0.155672 14:0.116582 15:0.034847 16:0.212851 17:0.253218 18:0.239809 19:0.158086 20:0.133136 21:0.172298 22:0.08837 23:0.070065 24:0.051518 25:0.140978 26:0.127682 27:0.253218 28:0.099461 29:0.015059 30:0.02204 31:0.073822 32:0.075177 33:0.133743 34:0.253218 35:0.253218 36:0.253218 
-1 1:0.212747 2:0.026363 3:0.020998 4:0.013635 5:0.014808 6:0.018639 7:0.260331 8:0.305471 9:0.305471 10:0.073103 11:0.007229 12:0.004486 13:0.005967 14:0.011149 15:0.022279 16:0.279713 17:0.291865 18:0.143584 19:0.113024 20:0.010953 21:0.007108 22:0.003251 23:0.007239 24:0.014099 25:0.290022 26:0.305471 27:0.305471 28:0.053583 29:0.005324 30:0.014294 31:0.017333 32:0.022613 33:0.036752 34:0.305471 35:0.305471 36:0.171618 
